{"learner":{"attributes":{"scikit_learn":"{\"_estimator_type\": \"regressor\"}"},"feature_names":[],"feature_types":[],"gradient_booster":{"model":{"gbtree_model_param":{"num_parallel_tree":"1","num_trees":"200"},"iteration_indptr":[0,1,2,3,4,5,6,7,8,9,10,11,12,13,14,15,16,17,18,19,20,21,22,23,24,25,26,27,28,29,30,31,32,33,34,35,36,37,38,39,40,41,42,43,44,45,46,47,48,49,50,51,52,53,54,55,56,57,58,59,60,61,62,63,64,65,66,67,68,69,70,71,72,73,74,75,76,77,78,79,80,81,82,83,84,85,86,87,88,89,90,91,92,93,94,95,96,97,98,99,100,101,102,103,104,105,106,107,108,109,110,111,112,113,114,115,116,117,118,119,120,121,122,123,124,125,126,127,128,129,130,131,132,133,134,135,136,137,138,139,140,141,142,143,144,145,146,147,148,149,150,151,152,153,154,155,156,157,158,159,160,161,162,163,164,165,166,167,168,169,170,171,172,173,174,175,176,177,178,179,180,181,182,183,184,185,186,187,188,189,190,191,192,193,194,195,196,197,198,199,200],"tree_info":[0,0,0,0,0,0,0,0,0,0,0,0,0,0,0,0,0,0,0,0,0,0,0,0,0,0,0,0,0,0,0,0,0,0,0,0,0,0,0,0,0,0,0,0,0,0,0,0,0,0,0,0,0,0,0,0,0,0,0,0,0,0,0,0,0,0,0,0,0,0,0,0,0,0,0,0,0,0,0,0,0,0,0,0,0,0,0,0,0,0,0,0,0,0,0,0,0,0,0,0,0,0,0,0,0,0,0,0,0,0,0,0,0,0,0,0,0,0,0,0,0,0,0,0,0,0,0,0,0,0,0,0,0,0,0,0,0,0,0,0,0,0,0,0,0,0,0,0,0,0,0,0,0,0,0,0,0,0,0,0,0,0,0,0,0,0,0,0,0,0,0,0,0,0,0,0,0,0,0,0,0,0,0,0,0,0,0,0,0,0,0,0,0,0,0,0,0,0,0,0],"trees":[{"base_weights":[1.7086664E-7,-4.201615E0,1.156E0,-1.5833052E0,-4.712812E0,6.059507E-1,1.0001712E1,6.565692E-1,-9.886234E-2,-5.4093137E0,-1.4805484E0,-2.9526466E-1,1.5839541E0,-1.6014576E-3,2.7536738E-1,3.997281E-2,-2.0468617E-2,-1.5923916E-1,-3.5139656E0,2.0864718E-2,-5.653108E-2,-2.3759542E0,3.820152E-2,1.15755126E-1,3.1925688E0,-4.413274E0,1.2545887E0,-9.940219E-2,-1.4983052E0,-4.0727475E-1,2.2310345E0,-8.978465E-1,1.8976548E0,3.790751E0,-1.8724937E0,-5.334993E0,-1.2360878E0,4.7735334E-3,4.2273548E-2,1.484589E0,-2.4296024E0,-2.7646024E0,-9.653448E-2,3.1972296E0,4.0990257E-1,-1.874532E0,7.2339267E-1,-6.8902194E-2,3.0917487E0,1.4883404E0,4.3745766E0,-6.69022E-2,1.6773535E-2,-3.3226468E-2,-1.4174007E-1,1.0523534E-2,-4.821862E-2,-9.726465E-3,6.539855E-2,-7.8294106E-2,-5.3852876E-3,-8.3781086E-2,1.6773535E-2,3.7041435E-3,-6.0127437E-2,9.21662E-2,-8.9764595E-3,-2.1801949E-2,3.172281E-2,-7.597045E-3,-7.472994E-2,5.500994E-2,-4.4612344E-2,8.6668156E-2,1.4031387E-2,-2.877442E-3,8.803531E-2,6.381737E-2,1.2666972E-1],"categories":[],"categories_nodes":[],"categories_segments":[],"categories_sizes":[],"default_left":[0,0,0,0,0,0,0,0,0,0,0,0,0,0,0,0,0,0,0,0,0,0,0,0,0,0,0,0,0,0,0,0,0,0,0,0,0,0,0,0,0,0,0,0,0,0,0,0,0,0,0,0,0,0,0,0,0,0,0,0,0,0,0,0,0,0,0,0,0,0,0,0,0,0,0,0,0,0,0],"id":0,"left_children":[1,3,5,7,9,11,13,15,-1,17,19,21,23,-1,-1,-1,-1,-1,25,-1,-1,27,29,31,33,35,37,-1,39,41,43,45,47,49,51,53,55,-1,-1,57,59,61,63,65,67,69,71,-1,73,75,77,-1,-1,-1,-1,-1,-1,-1,-1,-1,-1,-1,-1,-1,-1,-1,-1,-1,-1,-1,-1,-1,-1,-1,-1,-1,-1,-1,-1],"loss_changes":[1.170553E3,6.2138733E1,9.135337E2,5.570804E1,8.87962E1,1.5823682E2,1.1286658E2,9.650612E0,0E0,4.1318115E1,1.8153946E1,6.5311676E1,2.0274236E2,0E0,0E0,0E0,0E0,0E0,6.557445E1,0E0,0E0,1.22992325E1,8.101076E1,8.478608E1,1.313212E2,2.8547165E1,1.0695066E0,0E0,3.138657E1,5.0276768E1,2.332341E1,4.8859238E1,1.0299022E2,4.322473E1,1.2014944E1,4.528595E0,5.402899E0,0E0,0E0,7.3770256E0,1.1763138E1,1.8371933E1,3.5380512E1,1.6988327E1,7.713993E0,3.235588E1,4.837652E1,0E0,1.1338577E1,2.974445E1,2.3638794E1,0E0,0E0,0E0,0E0,0E0,0E0,0E0,0E0,0E0,0E0,0E0,0E0,0E0,0E0,0E0,0E0,0E0,0E0,0E0,0E0,0E0,0E0,0E0,0E0,0E0,0E0,0E0,0E0],"parents":[2147483647,0,0,1,1,2,2,3,3,4,4,5,5,6,6,7,7,9,9,10,10,11,11,12,12,18,18,21,21,22,22,23,23,24,24,25,25,26,26,28,28,29,29,30,30,31,31,32,32,33,33,34,34,35,35,36,36,39,39,40,40,41,41,42,42,43,43,44,44,45,45,46,46,48,48,49,49,50,50],"right_children":[2,4,6,8,10,12,14,16,-1,18,20,22,24,-1,-1,-1,-1,-1,26,-1,-1,28,30,32,34,36,38,-1,40,42,44,46,48,50,52,54,56,-1,-1,58,60,62,64,66,68,70,72,-1,74,76,78,-1,-1,-1,-1,-1,-1,-1,-1,-1,-1,-1,-1,-1,-1,-1,-1,-1,-1,-1,-1,-1,-1,-1,-1,-1,-1,-1,-1],"split_conditions":[-3.709754E0,-3.4788518E0,7.012548E0,6.514681E-1,3.6684234E0,-1.0133624E0,-2.1729157E0,-3.7321715E0,-9.886234E-2,1.2187451E0,-7.4484663E0,-3.2371578E0,4.0584877E-1,-1.6014576E-3,2.7536738E-1,3.997281E-2,-2.0468617E-2,-1.5923916E-1,1.1279683E0,2.0864718E-2,-5.653108E-2,-3.6416845E0,3.1606693E0,7.5852954E-1,5.9830966E0,-8.8035144E-2,-4.6845837E0,-9.940219E-2,-3.1449366E0,-2.1449718E0,3.218998E0,1.524197E0,-4.3866835E0,-4.7156878E0,1.8949201E0,-3.078634E0,-6.104578E0,4.7735334E-3,4.2273548E-2,-3.2547438E0,-8.265791E-1,3.6307225E0,4.163106E0,-1.5929424E0,3.484562E0,5.2599615E-1,5.456907E0,-6.8902194E-2,-9.1969097E-1,4.3371108E-1,-1.5721568E0,-6.69022E-2,1.6773535E-2,-3.3226468E-2,-1.4174007E-1,1.0523534E-2,-4.821862E-2,-9.726465E-3,6.539855E-2,-7.8294106E-2,-5.3852876E-3,-8.3781086E-2,1.6773535E-2,3.7041435E-3,-6.0127437E-2,9.21662E-2,-8.9764595E-3,-2.1801949E-2,3.172281E-2,-7.597045E-3,-7.472994E-2,5.500994E-2,-4.4612344E-2,8.6668156E-2,1.4031387E-2,-2.877442E-3,8.803531E-2,6.381737E-2,1.2666972E-1],"split_indices":[0,1,0,5,2,2,2,1,0,3,0,2,0,0,0,0,0,0,5,0,0,2,3,4,1,2,0,0,0,1,0,5,5,4,0,1,0,0,0,0,1,0,1,1,0,5,1,0,0,2,3,0,0,0,0,0,0,0,0,0,0,0,0,0,0,0,0,0,0,0,0,0,0,0,0,0,0,0,0],"split_type":[0,0,0,0,0,0,0,0,0,0,0,0,0,0,0,0,0,0,0,0,0,0,0,0,0,0,0,0,0,0,0,0,0,0,0,0,0,0,0,0,0,0,0,0,0,0,0,0,0,0,0,0,0,0,0,0,0,0,0,0,0,0,0,0,0,0,0,0,0,0,0,0,0,0,0,0,0,0,0],"sum_hessian":[2.39E2,5.1E1,1.88E2,9E0,4.2E1,1.78E2,1E1,5E0,4E0,3.4E1,8E0,9.3E1,8.5E1,1E0,9E0,3E0,2E0,2.1E1,1.3E1,2E0,6E0,1.2E1,8.1E1,4.5E1,4E1,1.1E1,2E0,3E0,9E0,6.8E1,1.3E1,2.9E1,1.6E1,3.6E1,4E0,8E0,3E0,1E0,1E0,2E0,7E0,7E0,6.1E1,8E0,5E0,1.8E1,1.1E1,3E0,1.3E1,8E0,2.8E1,3E0,1E0,1E0,7E0,1E0,2E0,1E0,1E0,5E0,2E0,6E0,1E0,5.6E1,5E0,7E0,1E0,2E0,3E0,8E0,1E1,7E0,4E0,1.1E1,2E0,5E0,3E0,9E0,1.9E1],"tree_param":{"num_deleted":"0","num_feature":"6","num_nodes":"79","size_leaf_vector":"1"}},{"base_weights":[-5.767862E-4,-4.105034E0,1.1286948E0,-1.5516584E0,-4.603376E0,5.9095645E-1,9.776557E0,6.4340544E-1,-9.6885085E-2,-5.2833624E0,-1.4474977E0,-2.8956097E-1,1.5465108E0,-1.5814424E-3,2.691716E-1,3.922331E-2,-2.0127472E-2,-1.5543914E-1,-3.4379463E0,2.0516975E-2,-5.5319704E-2,-2.326356E0,3.6876783E-2,1.1198879E-1,3.118255E0,-4.320664E0,1.2389065E0,-1.0697857E-1,-1.5822908E0,-3.9888167E-1,2.1819093E0,-8.777981E-1,1.8520839E0,3.7034318E0,-1.8357071E0,-5.221059E0,-1.2146094E0,4.713869E-3,4.1745126E-2,1.4660317E0,-2.4225883E0,-2.7038631E0,-9.503112E-2,3.1366408E0,3.861607E-1,-1.8320017E0,7.061742E-1,-6.761028E-2,3.021648E0,1.4605937E0,4.2717805E0,-6.564778E-2,1.6563868E-2,-3.2811143E-2,-1.386395E-1,1.0391987E-2,-4.741497E-2,-9.604883E-3,6.4581074E-2,-7.5599395E-2,-5.2955314E-3,-8.1985764E-2,1.6563868E-2,3.6131663E-3,-5.8874786E-2,9.043409E-2,-8.86426E-3,3.4578618E-2,-1.14529375E-2,-7.4282237E-3,-7.303153E-2,5.38066E-2,-4.3720104E-2,8.468202E-2,1.3797529E-2,-2.8174997E-3,8.638465E-2,6.2381484E-2,1.236613E-1],"categories":[],"categories_nodes":[],"categories_segments":[],"categories_sizes":[],"default_left":[0,0,0,0,0,0,0,0,0,0,0,0,0,0,0,0,0,0,0,0,0,0,0,0,0,0,0,0,0,0,0,0,0,0,0,0,0,0,0,0,0,0,0,0,0,0,0,0,0,0,0,0,0,0,0,0,0,0,0,0,0,0,0,0,0,0,0,0,0,0,0,0,0,0,0,0,0,0,0],"id":1,"left_children":[1,3,5,7,9,11,13,15,-1,17,19,21,23,-1,-1,-1,-1,-1,25,-1,-1,27,29,31,33,35,37,-1,39,41,43,45,47,49,51,53,55,-1,-1,57,59,61,63,65,67,69,71,-1,73,75,77,-1,-1,-1,-1,-1,-1,-1,-1,-1,-1,-1,-1,-1,-1,-1,-1,-1,-1,-1,-1,-1,-1,-1,-1,-1,-1,-1,-1],"loss_changes":[1.1170444E3,5.902478E1,8.731269E2,5.3501144E1,8.462842E1,1.5105524E2,1.07869995E2,9.306923E0,0E0,3.896405E1,1.7438313E1,6.2585148E1,1.935551E2,0E0,0E0,0E0,0E0,0E0,6.3149673E1,0E0,0E0,1.2118164E1,7.7517044E1,8.085262E1,1.2565518E2,2.7218567E1,1.0429358E0,0E0,3.1728064E1,4.8068573E1,2.279116E1,4.663668E1,9.87667E1,4.092508E1,1.1610495E1,4.1375732E0,5.235736E0,0E0,0E0,7.193753E0,1.1325211E1,1.7673615E1,3.39066E1,1.6387352E1,5.684034E0,3.0897625E1,4.636531E1,0E0,1.0772835E1,2.8634964E1,2.2415833E1,0E0,0E0,0E0,0E0,0E0,0E0,0E0,0E0,0E0,0E0,0E0,0E0,0E0,0E0,0E0,0E0,0E0,0E0,0E0,0E0,0E0,0E0,0E0,0E0,0E0,0E0,0E0,0E0],"parents":[2147483647,0,0,1,1,2,2,3,3,4,4,5,5,6,6,7,7,9,9,10,10,11,11,12,12,18,18,21,21,22,22,23,23,24,24,25,25,26,26,28,28,29,29,30,30,31,31,32,32,33,33,34,34,35,35,36,36,39,39,40,40,41,41,42,42,43,43,44,44,45,45,46,46,48,48,49,49,50,50],"right_children":[2,4,6,8,10,12,14,16,-1,18,20,22,24,-1,-1,-1,-1,-1,26,-1,-1,28,30,32,34,36,38,-1,40,42,44,46,48,50,52,54,56,-1,-1,58,60,62,64,66,68,70,72,-1,74,76,78,-1,-1,-1,-1,-1,-1,-1,-1,-1,-1,-1,-1,-1,-1,-1,-1,-1,-1,-1,-1,-1,-1,-1,-1,-1,-1,-1,-1],"split_conditions":[-3.709754E0,-3.4788518E0,7.012548E0,6.514681E-1,3.6684234E0,-1.0133624E0,-2.1729157E0,-3.7321715E0,-9.6885085E-2,1.2187451E0,-7.4484663E0,-3.2371578E0,4.0584877E-1,-1.5814424E-3,2.691716E-1,3.922331E-2,-2.0127472E-2,-1.5543914E-1,1.1279683E0,2.0516975E-2,-5.5319704E-2,-3.8825011E0,3.1606693E0,7.5852954E-1,5.9830966E0,-8.8035144E-2,-4.6845837E0,-1.0697857E-1,-3.1449366E0,-2.1449718E0,5.0236425E0,1.524197E0,-4.3866835E0,-4.7156878E0,1.8949201E0,-3.078634E0,-6.104578E0,4.713869E-3,4.1745126E-2,-3.2547438E0,-8.265791E-1,3.6307225E0,4.163106E0,-1.491056E0,3.0519269E0,5.2599615E-1,5.456907E0,-6.761028E-2,-9.1969097E-1,4.3371108E-1,-1.5721568E0,-6.564778E-2,1.6563868E-2,-3.2811143E-2,-1.386395E-1,1.0391987E-2,-4.741497E-2,-9.604883E-3,6.4581074E-2,-7.5599395E-2,-5.2955314E-3,-8.1985764E-2,1.6563868E-2,3.6131663E-3,-5.8874786E-2,9.043409E-2,-8.86426E-3,3.4578618E-2,-1.14529375E-2,-7.4282237E-3,-7.303153E-2,5.38066E-2,-4.3720104E-2,8.468202E-2,1.3797529E-2,-2.8174997E-3,8.638465E-2,6.2381484E-2,1.236613E-1],"split_indices":[0,1,0,5,2,2,2,1,0,3,0,2,0,0,0,0,0,0,5,0,0,2,3,4,1,2,0,0,0,1,3,5,5,4,0,1,0,0,0,0,1,0,1,1,0,5,1,0,0,2,3,0,0,0,0,0,0,0,0,0,0,0,0,0,0,0,0,0,0,0,0,0,0,0,0,0,0,0,0],"split_type":[0,0,0,0,0,0,0,0,0,0,0,0,0,0,0,0,0,0,0,0,0,0,0,0,0,0,0,0,0,0,0,0,0,0,0,0,0,0,0,0,0,0,0,0,0,0,0,0,0,0,0,0,0,0,0,0,0,0,0,0,0,0,0,0,0,0,0,0,0,0,0,0,0,0,0,0,0,0,0],"sum_hessian":[2.39E2,5.1E1,1.88E2,9E0,4.2E1,1.78E2,1E1,5E0,4E0,3.4E1,8E0,9.3E1,8.5E1,1E0,9E0,3E0,2E0,2.1E1,1.3E1,2E0,6E0,1.2E1,8.1E1,4.5E1,4E1,1.1E1,2E0,2E0,1E1,6.8E1,1.3E1,2.9E1,1.6E1,3.6E1,4E0,8E0,3E0,1E0,1E0,2E0,8E0,7E0,6.1E1,8E0,5E0,1.8E1,1.1E1,3E0,1.3E1,8E0,2.8E1,3E0,1E0,1E0,7E0,1E0,2E0,1E0,1E0,6E0,2E0,6E0,1E0,5.6E1,5E0,7E0,1E0,2E0,3E0,8E0,1E1,7E0,4E0,1.1E1,2E0,5E0,3E0,9E0,1.9E1],"tree_param":{"num_deleted":"0","num_feature":"6","num_nodes":"79","size_leaf_vector":"1"}},{"base_weights":[-1.1054277E-3,-4.010678E0,1.1020632E0,-1.5206462E0,-4.4964833E0,5.7636195E-1,9.556469E0,6.305027E-1,-9.494739E-2,-5.1603484E0,-1.4151772E0,-2.8390598E-1,1.5099529E0,-1.5616774E-3,2.6311526E-1,3.8487863E-2,-1.9792017E-2,-1.5172979E-1,-3.3635702E0,2.0175021E-2,-5.413428E-2,-2.2784197E0,3.575968E-2,1.0833023E-1,3.0456772E0,-4.23002E0,1.2234201E0,-1.051956E-1,-1.5450896E0,-3.9065892E-1,2.1348398E0,-8.581988E-1,1.8075974E0,3.6181328E0,-1.7996309E0,-5.1095824E0,-1.1935E0,4.654944E-3,4.1223314E-2,1.4477062E0,-2.3710117E0,-2.6444445E0,-9.354691E-2,3.069602E0,3.7689003E-1,-1.7904365E0,6.893606E-1,-6.6342585E-2,2.9531405E0,1.4333638E0,4.1714015E0,-6.441688E-2,1.6356826E-2,-3.2401003E-2,-1.3560675E-1,1.0262084E-2,-4.6624724E-2,-9.4848275E-3,6.377381E-2,-7.39794E-2,-5.2072685E-3,-8.022894E-2,1.6356826E-2,3.524414E-3,-5.764822E-2,8.852092E-2,-8.753455E-3,-2.1247705E-2,3.0069156E-2,-7.2631533E-3,-7.137173E-2,5.2629586E-2,-4.2845696E-2,8.274137E-2,1.3567567E-2,-2.7588091E-3,8.476493E-2,6.621721E-2,1.2386998E-1],"categories":[],"categories_nodes":[],"categories_segments":[],"categories_sizes":[],"default_left":[0,0,0,0,0,0,0,0,0,0,0,0,0,0,0,0,0,0,0,0,0,0,0,0,0,0,0,0,0,0,0,0,0,0,0,0,0,0,0,0,0,0,0,0,0,0,0,0,0,0,0,0,0,0,0,0,0,0,0,0,0,0,0,0,0,0,0,0,0,0,0,0,0,0,0,0,0,0,0],"id":2,"left_children":[1,3,5,7,9,11,13,15,-1,17,19,21,23,-1,-1,-1,-1,-1,25,-1,-1,27,29,31,33,35,37,-1,39,41,43,45,47,49,51,53,55,-1,-1,57,59,61,63,65,67,69,71,-1,73,75,77,-1,-1,-1,-1,-1,-1,-1,-1,-1,-1,-1,-1,-1,-1,-1,-1,-1,-1,-1,-1,-1,-1,-1,-1,-1,-1,-1,-1],"loss_changes":[1.0659963E3,5.606537E1,8.34501E2,5.1381607E1,8.065674E1,1.4419044E2,1.0309479E2,8.9754925E0,0E0,3.674048E1,1.6751034E1,6.001377E1,1.8478557E2,0E0,0E0,0E0,0E0,0E0,6.081665E1,0E0,0E0,1.1892105E1,7.423111E1,7.7101265E1,1.2023401E2,2.5951431E1,1.017025E0,0E0,3.0622503E1,4.5956863E1,2.1848812E1,4.451505E1,9.471716E1,3.8745148E1,1.1219809E1,3.770584E0,5.0737753E0,0E0,0E0,7.015035E0,1.0831951E1,1.7002293E1,3.249412E1,1.5743286E1,7.1013412E0,2.9505096E1,4.443779E1,0E0,1.0234825E1,2.7566875E1,2.1470093E1,0E0,0E0,0E0,0E0,0E0,0E0,0E0,0E0,0E0,0E0,0E0,0E0,0E0,0E0,0E0,0E0,0E0,0E0,0E0,0E0,0E0,0E0,0E0,0E0,0E0,0E0,0E0,0E0],"parents":[2147483647,0,0,1,1,2,2,3,3,4,4,5,5,6,6,7,7,9,9,10,10,11,11,12,12,18,18,21,21,22,22,23,23,24,24,25,25,26,26,28,28,29,29,30,30,31,31,32,32,33,33,34,34,35,35,36,36,39,39,40,40,41,41,42,42,43,43,44,44,45,45,46,46,48,48,49,49,50,50],"right_children":[2,4,6,8,10,12,14,16,-1,18,20,22,24,-1,-1,-1,-1,-1,26,-1,-1,28,30,32,34,36,38,-1,40,42,44,46,48,50,52,54,56,-1,-1,58,60,62,64,66,68,70,72,-1,74,76,78,-1,-1,-1,-1,-1,-1,-1,-1,-1,-1,-1,-1,-1,-1,-1,-1,-1,-1,-1,-1,-1,-1,-1,-1,-1,-1,-1,-1],"split_conditions":[-3.709754E0,-3.4788518E0,7.012548E0,6.514681E-1,3.6684234E0,-1.0133624E0,-2.1729157E0,-3.7321715E0,-9.494739E-2,1.2187451E0,-7.4484663E0,-3.2371578E0,4.0584877E-1,-1.5616774E-3,2.6311526E-1,3.8487863E-2,-1.9792017E-2,-1.5172979E-1,1.1279683E0,2.0175021E-2,-5.413428E-2,-3.8825011E0,3.1606693E0,7.5852954E-1,5.9830966E0,-8.8035144E-2,-4.6845837E0,-1.051956E-1,-3.1449366E0,-2.1449718E0,3.218998E0,1.524197E0,-4.3866835E0,-4.7156878E0,1.8949201E0,-3.078634E0,-6.104578E0,4.654944E-3,4.1223314E-2,-3.2547438E0,-8.265791E-1,3.6307225E0,4.163106E0,-1.5929424E0,3.484562E0,5.2599615E-1,5.456907E0,-6.6342585E-2,-9.1969097E-1,4.3371108E-1,-1.4353012E0,-6.441688E-2,1.6356826E-2,-3.2401003E-2,-1.3560675E-1,1.0262084E-2,-4.6624724E-2,-9.4848275E-3,6.377381E-2,-7.39794E-2,-5.2072685E-3,-8.022894E-2,1.6356826E-2,3.524414E-3,-5.764822E-2,8.852092E-2,-8.753455E-3,-2.1247705E-2,3.0069156E-2,-7.2631533E-3,-7.137173E-2,5.2629586E-2,-4.2845696E-2,8.274137E-2,1.3567567E-2,-2.7588091E-3,8.476493E-2,6.621721E-2,1.2386998E-1],"split_indices":[0,1,0,5,2,2,2,1,0,3,0,2,0,0,0,0,0,0,5,0,0,2,3,4,1,2,0,0,0,1,0,5,5,4,0,1,0,0,0,0,1,0,1,1,0,5,1,0,0,2,3,0,0,0,0,0,0,0,0,0,0,0,0,0,0,0,0,0,0,0,0,0,0,0,0,0,0,0,0],"split_type":[0,0,0,0,0,0,0,0,0,0,0,0,0,0,0,0,0,0,0,0,0,0,0,0,0,0,0,0,0,0,0,0,0,0,0,0,0,0,0,0,0,0,0,0,0,0,0,0,0,0,0,0,0,0,0,0,0,0,0,0,0,0,0,0,0,0,0,0,0,0,0,0,0,0,0,0,0,0,0],"sum_hessian":[2.39E2,5.1E1,1.88E2,9E0,4.2E1,1.78E2,1E1,5E0,4E0,3.4E1,8E0,9.3E1,8.5E1,1E0,9E0,3E0,2E0,2.1E1,1.3E1,2E0,6E0,1.2E1,8.1E1,4.5E1,4E1,1.1E1,2E0,2E0,1E1,6.8E1,1.3E1,2.9E1,1.6E1,3.6E1,4E0,8E0,3E0,1E0,1E0,2E0,8E0,7E0,6.1E1,8E0,5E0,1.8E1,1.1E1,3E0,1.3E1,8E0,2.8E1,3E0,1E0,1E0,7E0,1E0,2E0,1E0,1E0,6E0,2E0,6E0,1E0,5.6E1,5E0,7E0,1E0,2E0,3E0,8E0,1E1,7E0,4E0,1.1E1,2E0,5E0,3E0,1.1E1,1.7E1],"tree_param":{"num_deleted":"0","num_feature":"6","num_nodes":"79","size_leaf_vector":"1"}},{"base_weights":[-1.6329865E-3,-3.9184961E0,1.0760312E0,-1.490255E0,-4.3920755E0,5.620961E-1,9.341335E0,6.178562E-1,-9.304844E-2,-5.040203E0,-1.383571E0,-2.7850536E-1,1.474357E0,-1.542151E-3,2.5719514E-1,3.7766226E-2,-1.9462157E-2,-1.4810897E-1,-3.2908018E0,1.983877E-2,-5.2974254E-2,-2.2314665E0,3.450683E-2,1.0477663E-1,2.9749994E0,-4.1413007E0,1.2081274E0,-1.03442326E-1,-1.5087259E0,-3.8260278E-1,2.0877967E0,-8.390388E-1,1.7641699E0,3.5350335E0,-1.7642521E0,-5.0005107E0,-1.1727531E0,4.596758E-3,4.0708017E-2,1.4296099E0,-2.320535E0,-2.5863175E0,-9.20815E-2,3.0124004E0,3.5292497E-1,-1.749814E0,6.72942E-1,-6.509866E-2,2.886191E0,1.4066417E0,4.0736713E0,-6.3209064E-2,1.615237E-2,-3.199599E-2,-1.3264036E-1,1.0133803E-2,-4.584764E-2,-9.366262E-3,6.2976636E-2,-7.2394125E-2,-5.120484E-3,-7.850975E-2,1.615237E-2,3.4378406E-3,-5.6447208E-2,8.688477E-2,-8.644032E-3,3.2526962E-2,-1.1160535E-2,-7.101749E-3,-6.974963E-2,5.1478315E-2,-4.1988786E-2,8.0845214E-2,1.3341434E-2,-2.7013302E-3,8.317559E-2,6.469973E-2,1.20945275E-1],"categories":[],"categories_nodes":[],"categories_segments":[],"categories_sizes":[],"default_left":[0,0,0,0,0,0,0,0,0,0,0,0,0,0,0,0,0,0,0,0,0,0,0,0,0,0,0,0,0,0,0,0,0,0,0,0,0,0,0,0,0,0,0,0,0,0,0,0,0,0,0,0,0,0,0,0,0,0,0,0,0,0,0,0,0,0,0,0,0,0,0,0,0,0,0,0,0,0,0],"id":3,"left_children":[1,3,5,7,9,11,13,15,-1,17,19,21,23,-1,-1,-1,-1,-1,25,-1,-1,27,29,31,33,35,37,-1,39,41,43,45,47,49,51,53,55,-1,-1,57,59,61,63,65,67,69,71,-1,73,75,77,-1,-1,-1,-1,-1,-1,-1,-1,-1,-1,-1,-1,-1,-1,-1,-1,-1,-1,-1,-1,-1,-1,-1,-1,-1,-1,-1,-1],"loss_changes":[1.01727155E3,5.325293E1,7.9758905E2,4.934596E1,7.687201E1,1.3767639E2,9.8531006E1,8.655887E0,0E0,3.4640137E1,1.6090996E1,5.753926E1,1.7643982E2,0E0,0E0,0E0,0E0,0E0,5.857187E1,0E0,0E0,1.1667549E1,7.102744E1,7.3523605E1,1.1505652E2,2.4742905E1,9.9175787E-1,0E0,2.9556509E1,4.3937447E1,2.1393806E1,4.248976E1,9.08345E1,3.6687805E1,1.0842419E1,3.4263916E0,4.9168506E0,0E0,0E0,6.8407536E0,1.03601E1,1.6356915E1,3.1140528E1,1.5194832E1,5.1282473E0,2.8175331E1,4.259047E1,0E0,9.723198E0,2.6538631E1,2.0402557E1,0E0,0E0,0E0,0E0,0E0,0E0,0E0,0E0,0E0,0E0,0E0,0E0,0E0,0E0,0E0,0E0,0E0,0E0,0E0,0E0,0E0,0E0,0E0,0E0,0E0,0E0,0E0,0E0],"parents":[2147483647,0,0,1,1,2,2,3,3,4,4,5,5,6,6,7,7,9,9,10,10,11,11,12,12,18,18,21,21,22,22,23,23,24,24,25,25,26,26,28,28,29,29,30,30,31,31,32,32,33,33,34,34,35,35,36,36,39,39,40,40,41,41,42,42,43,43,44,44,45,45,46,46,48,48,49,49,50,50],"right_children":[2,4,6,8,10,12,14,16,-1,18,20,22,24,-1,-1,-1,-1,-1,26,-1,-1,28,30,32,34,36,38,-1,40,42,44,46,48,50,52,54,56,-1,-1,58,60,62,64,66,68,70,72,-1,74,76,78,-1,-1,-1,-1,-1,-1,-1,-1,-1,-1,-1,-1,-1,-1,-1,-1,-1,-1,-1,-1,-1,-1,-1,-1,-1,-1,-1,-1],"split_conditions":[-3.709754E0,-3.4788518E0,7.012548E0,6.514681E-1,3.6684234E0,-1.0133624E0,-2.1729157E0,-3.7321715E0,-9.304844E-2,1.2187451E0,-7.4484663E0,-3.2371578E0,4.0584877E-1,-1.542151E-3,2.5719514E-1,3.7766226E-2,-1.9462157E-2,-1.4810897E-1,1.1279683E0,1.983877E-2,-5.2974254E-2,-3.8825011E0,3.1606693E0,7.5852954E-1,5.9830966E0,-8.8035144E-2,-4.6845837E0,-1.03442326E-1,-3.1449366E0,-2.1449718E0,5.0236425E0,1.524197E0,-4.3866835E0,-4.7156878E0,1.8949201E0,-3.078634E0,-6.104578E0,4.596758E-3,4.0708017E-2,-3.2547438E0,-8.265791E-1,3.6307225E0,4.163106E0,-1.491056E0,3.0519269E0,5.2599615E-1,5.456907E0,-6.509866E-2,-9.1969097E-1,4.3371108E-1,-1.4353012E0,-6.3209064E-2,1.615237E-2,-3.199599E-2,-1.3264036E-1,1.0133803E-2,-4.584764E-2,-9.366262E-3,6.2976636E-2,-7.2394125E-2,-5.120484E-3,-7.850975E-2,1.615237E-2,3.4378406E-3,-5.6447208E-2,8.688477E-2,-8.644032E-3,3.2526962E-2,-1.1160535E-2,-7.101749E-3,-6.974963E-2,5.1478315E-2,-4.1988786E-2,8.0845214E-2,1.3341434E-2,-2.7013302E-3,8.317559E-2,6.469973E-2,1.20945275E-1],"split_indices":[0,1,0,5,2,2,2,1,0,3,0,2,0,0,0,0,0,0,5,0,0,2,3,4,1,2,0,0,0,1,3,5,5,4,0,1,0,0,0,0,1,0,1,1,0,5,1,0,0,2,3,0,0,0,0,0,0,0,0,0,0,0,0,0,0,0,0,0,0,0,0,0,0,0,0,0,0,0,0],"split_type":[0,0,0,0,0,0,0,0,0,0,0,0,0,0,0,0,0,0,0,0,0,0,0,0,0,0,0,0,0,0,0,0,0,0,0,0,0,0,0,0,0,0,0,0,0,0,0,0,0,0,0,0,0,0,0,0,0,0,0,0,0,0,0,0,0,0,0,0,0,0,0,0,0,0,0,0,0,0,0],"sum_hessian":[2.39E2,5.1E1,1.88E2,9E0,4.2E1,1.78E2,1E1,5E0,4E0,3.4E1,8E0,9.3E1,8.5E1,1E0,9E0,3E0,2E0,2.1E1,1.3E1,2E0,6E0,1.2E1,8.1E1,4.5E1,4E1,1.1E1,2E0,2E0,1E1,6.8E1,1.3E1,2.9E1,1.6E1,3.6E1,4E0,8E0,3E0,1E0,1E0,2E0,8E0,7E0,6.1E1,8E0,5E0,1.8E1,1.1E1,3E0,1.3E1,8E0,2.8E1,3E0,1E0,1E0,7E0,1E0,2E0,1E0,1E0,6E0,2E0,6E0,1E0,5.6E1,5E0,7E0,1E0,2E0,3E0,8E0,1E1,7E0,4E0,1.1E1,2E0,5E0,3E0,1.1E1,1.7E1],"tree_param":{"num_deleted":"0","num_feature":"6","num_nodes":"79","size_leaf_vector":"1"}},{"base_weights":[-2.0825486E-3,-3.828438E0,1.0506824E0,-1.4604732E0,-4.2900944E0,5.482542E-1,9.1310425E0,6.0546046E-1,-9.118747E-2,-4.9228597E0,-1.352663E0,-2.7306524E-1,1.4396003E0,-1.5228748E-3,2.5140825E-1,3.7058104E-2,-1.9137781E-2,-1.4457454E-1,-3.2196066E0,1.950813E-2,-5.1839083E-2,-2.1854758E0,3.345186E-2,1.0132528E-1,2.9059677E0,-4.0544643E0,1.193026E0,-1.017183E-1,-1.4731808E0,-3.7470987E-1,2.0427167E0,-8.2030815E-1,1.7217768E0,3.4538503E0,-1.7295568E0,-4.893791E0,-1.1523626E0,4.5392993E-3,4.019917E-2,1.4117397E0,-2.2711341E0,-2.5294545E0,-9.063461E-2,2.9471881E0,3.4555689E-1,-1.7101133E0,6.5690905E-1,-6.387806E-2,2.820764E0,1.3804175E0,3.978231E0,-6.2023886E-2,1.5950466E-2,-3.1596042E-2,-1.2973887E-1,1.0007131E-2,-4.5083508E-2,-9.249187E-3,6.2189426E-2,-7.0842825E-2,-5.035146E-3,-7.68274E-2,1.5950466E-2,3.3533988E-3,-5.5271227E-2,8.5023664E-2,-8.535981E-3,-2.070756E-2,2.8489053E-2,2.102071E-2,-5.6024164E-2,5.0352227E-2,-4.1149016E-2,7.8992516E-2,1.3119071E-2,-2.6450434E-3,8.161605E-2,7.556216E-2,1.3168514E-1],"categories":[],"categories_nodes":[],"categories_segments":[],"categories_sizes":[],"default_left":[0,0,0,0,0,0,0,0,0,0,0,0,0,0,0,0,0,0,0,0,0,0,0,0,0,0,0,0,0,0,0,0,0,0,0,0,0,0,0,0,0,0,0,0,0,0,0,0,0,0,0,0,0,0,0,0,0,0,0,0,0,0,0,0,0,0,0,0,0,0,0,0,0,0,0,0,0,0,0],"id":4,"left_children":[1,3,5,7,9,11,13,15,-1,17,19,21,23,-1,-1,-1,-1,-1,25,-1,-1,27,29,31,33,35,37,-1,39,41,43,45,47,49,51,53,55,-1,-1,57,59,61,63,65,67,69,71,-1,73,75,77,-1,-1,-1,-1,-1,-1,-1,-1,-1,-1,-1,-1,-1,-1,-1,-1,-1,-1,-1,-1,-1,-1,-1,-1,-1,-1,-1,-1],"loss_changes":[9.708032E2,5.058008E1,7.622962E2,4.7390915E1,7.326532E1,1.3143542E2,9.416986E1,8.347667E0,0E0,3.265625E1,1.5457102E1,5.5174637E1,1.6847218E2,0E0,0E0,0E0,0E0,0E0,5.6411957E1,0E0,0E0,1.144466E1,6.801404E1,7.011165E1,1.10102295E2,2.3590302E1,9.671192E-1,0E0,2.8528605E1,4.200631E1,2.0472027E1,4.055645E1,8.711177E1,3.4737274E1,1.0477858E1,3.1036987E0,4.7648067E0,0E0,0E0,6.670804E0,9.908737E0,1.573645E1,2.9843382E1,1.45913925E1,6.5362043E0,2.7613617E1,4.0820015E1,0E0,9.236694E0,2.5548744E1,1.9810852E1,0E0,0E0,0E0,0E0,0E0,0E0,0E0,0E0,0E0,0E0,0E0,0E0,0E0,0E0,0E0,0E0,0E0,0E0,0E0,0E0,0E0,0E0,0E0,0E0,0E0,0E0,0E0,0E0],"parents":[2147483647,0,0,1,1,2,2,3,3,4,4,5,5,6,6,7,7,9,9,10,10,11,11,12,12,18,18,21,21,22,22,23,23,24,24,25,25,26,26,28,28,29,29,30,30,31,31,32,32,33,33,34,34,35,35,36,36,39,39,40,40,41,41,42,42,43,43,44,44,45,45,46,46,48,48,49,49,50,50],"right_children":[2,4,6,8,10,12,14,16,-1,18,20,22,24,-1,-1,-1,-1,-1,26,-1,-1,28,30,32,34,36,38,-1,40,42,44,46,48,50,52,54,56,-1,-1,58,60,62,64,66,68,70,72,-1,74,76,78,-1,-1,-1,-1,-1,-1,-1,-1,-1,-1,-1,-1,-1,-1,-1,-1,-1,-1,-1,-1,-1,-1,-1,-1,-1,-1,-1,-1],"split_conditions":[-3.709754E0,-3.4788518E0,7.012548E0,6.514681E-1,3.6684234E0,-1.0133624E0,-2.1729157E0,-3.7321715E0,-9.118747E-2,1.2187451E0,-7.4484663E0,-3.2371578E0,4.0584877E-1,-1.5228748E-3,2.5140825E-1,3.7058104E-2,-1.9137781E-2,-1.4457454E-1,1.1279683E0,1.950813E-2,-5.1839083E-2,-3.8825011E0,3.1606693E0,7.5852954E-1,5.9830966E0,-8.8035144E-2,-4.6845837E0,-1.017183E-1,-3.1449366E0,-2.1449718E0,3.218998E0,1.524197E0,-4.3866835E0,-4.7156878E0,1.8949201E0,-3.078634E0,-6.104578E0,4.5392993E-3,4.019917E-2,-3.2547438E0,-8.265791E-1,3.6307225E0,4.163106E0,-1.5929424E0,3.484562E0,-2.669957E0,5.456907E0,-6.387806E-2,-9.1969097E-1,4.3371108E-1,2.3480299E0,-6.2023886E-2,1.5950466E-2,-3.1596042E-2,-1.2973887E-1,1.0007131E-2,-4.5083508E-2,-9.249187E-3,6.2189426E-2,-7.0842825E-2,-5.035146E-3,-7.68274E-2,1.5950466E-2,3.3533988E-3,-5.5271227E-2,8.5023664E-2,-8.535981E-3,-2.070756E-2,2.8489053E-2,2.102071E-2,-5.6024164E-2,5.0352227E-2,-4.1149016E-2,7.8992516E-2,1.3119071E-2,-2.6450434E-3,8.161605E-2,7.556216E-2,1.3168514E-1],"split_indices":[0,1,0,5,2,2,2,1,0,3,0,2,0,0,0,0,0,0,5,0,0,2,3,4,1,2,0,0,0,1,0,5,5,4,0,1,0,0,0,0,1,0,1,1,0,4,1,0,0,2,0,0,0,0,0,0,0,0,0,0,0,0,0,0,0,0,0,0,0,0,0,0,0,0,0,0,0,0,0],"split_type":[0,0,0,0,0,0,0,0,0,0,0,0,0,0,0,0,0,0,0,0,0,0,0,0,0,0,0,0,0,0,0,0,0,0,0,0,0,0,0,0,0,0,0,0,0,0,0,0,0,0,0,0,0,0,0,0,0,0,0,0,0,0,0,0,0,0,0,0,0,0,0,0,0,0,0,0,0,0,0],"sum_hessian":[2.39E2,5.1E1,1.88E2,9E0,4.2E1,1.78E2,1E1,5E0,4E0,3.4E1,8E0,9.3E1,8.5E1,1E0,9E0,3E0,2E0,2.1E1,1.3E1,2E0,6E0,1.2E1,8.1E1,4.5E1,4E1,1.1E1,2E0,2E0,1E1,6.8E1,1.3E1,2.9E1,1.6E1,3.6E1,4E0,8E0,3E0,1E0,1E0,2E0,8E0,7E0,6.1E1,8E0,5E0,1.8E1,1.1E1,3E0,1.3E1,8E0,2.8E1,3E0,1E0,1E0,7E0,1E0,2E0,1E0,1E0,6E0,2E0,6E0,1E0,5.6E1,5E0,7E0,1E0,2E0,3E0,3E0,1.5E1,7E0,4E0,1.1E1,2E0,5E0,3E0,1.8E1,1E1],"tree_param":{"num_deleted":"0","num_feature":"6","num_nodes":"79","size_leaf_vector":"1"}},{"base_weights":[-2.2911767E-3,-3.7404552E0,1.0262105E0,-1.431288E0,-4.1904836E0,5.3504735E-1,8.925483E0,5.9331065E-1,-8.9363724E-2,-4.8082523E0,-1.322439E0,-2.6786807E-1,1.4064311E0,-1.5038372E-3,2.4575154E-1,3.636327E-2,-1.8818824E-2,-1.4112447E-1,-3.1499503E0,1.9182993E-2,-5.072825E-2,-2.1404278E0,3.2267828E-2,9.884513E-2,2.8391755E0,-3.9694703E0,1.178113E0,-1.00022994E-1,-1.4384365E0,-3.6697665E-1,1.9976679E0,-8.006602E-1,1.6803931E0,3.3752394E0,-1.6955324E0,-4.7893724E0,-1.1323228E0,4.4825557E-3,3.9696682E-2,1.3940929E0,-2.2227867E0,-2.4738278E0,-8.920588E-2,2.893166E0,3.2147598E-1,-1.6692024E0,6.412534E-1,-6.268034E-2,2.756824E0,1.3546817E0,3.8859215E0,-6.0860932E-2,1.5751088E-2,-3.1201089E-2,-1.2690084E-1,9.882045E-3,-4.4332124E-2,-9.133577E-3,6.1412062E-2,-6.932476E-2,-4.951223E-3,-7.518111E-2,1.5751088E-2,3.2710412E-3,-5.4119743E-2,8.347762E-2,-8.429277E-3,3.056778E-2,-1.08704865E-2,-6.126967E-3,-6.706622E-2,4.9250774E-2,-4.0326033E-2,7.718226E-2,1.2900424E-2,-2.5899292E-3,8.008575E-2,5.5911172E-2,1.1290907E-1],"categories":[],"categories_nodes":[],"categories_segments":[],"categories_sizes":[],"default_left":[0,0,0,0,0,0,0,0,0,0,0,0,0,0,0,0,0,0,0,0,0,0,0,0,0,0,0,0,0,0,0,0,0,0,0,0,0,0,0,0,0,0,0,0,0,0,0,0,0,0,0,0,0,0,0,0,0,0,0,0,0,0,0,0,0,0,0,0,0,0,0,0,0,0,0,0,0,0,0],"id":5,"left_children":[1,3,5,7,9,11,13,15,-1,17,19,21,23,-1,-1,-1,-1,-1,25,-1,-1,27,29,31,33,35,37,-1,39,41,43,45,47,49,51,53,55,-1,-1,57,59,61,63,65,67,69,71,-1,73,75,77,-1,-1,-1,-1,-1,-1,-1,-1,-1,-1,-1,-1,-1,-1,-1,-1,-1,-1,-1,-1,-1,-1,-1,-1,-1,-1,-1,-1],"loss_changes":[9.2656836E2,4.804016E1,7.2851263E2,4.5513252E1,6.982831E1,1.25613625E2,9.000183E1,8.050445E0,0E0,3.0782654E1,1.4848313E1,5.289917E1,1.608349E2,0E0,0E0,0E0,0E0,0E0,5.4333557E1,0E0,0E0,1.1223572E1,6.5076454E1,6.678552E1,1.05389435E2,2.2491089E1,9.430933E-1,0E0,2.7537416E1,4.015962E1,2.008429E1,3.8641273E1,8.3542336E1,3.2914703E1,1.0125698E1,2.8013153E0,4.617493E0,0E0,0E0,6.505079E0,9.476978E0,1.5139942E1,2.8600323E1,1.4090637E1,4.621259E0,2.6764736E1,3.9123215E1,0E0,8.774063E0,2.459578E1,2.0056396E1,0E0,0E0,0E0,0E0,0E0,0E0,0E0,0E0,0E0,0E0,0E0,0E0,0E0,0E0,0E0,0E0,0E0,0E0,0E0,0E0,0E0,0E0,0E0,0E0,0E0,0E0,0E0,0E0],"parents":[2147483647,0,0,1,1,2,2,3,3,4,4,5,5,6,6,7,7,9,9,10,10,11,11,12,12,18,18,21,21,22,22,23,23,24,24,25,25,26,26,28,28,29,29,30,30,31,31,32,32,33,33,34,34,35,35,36,36,39,39,40,40,41,41,42,42,43,43,44,44,45,45,46,46,48,48,49,49,50,50],"right_children":[2,4,6,8,10,12,14,16,-1,18,20,22,24,-1,-1,-1,-1,-1,26,-1,-1,28,30,32,34,36,38,-1,40,42,44,46,48,50,52,54,56,-1,-1,58,60,62,64,66,68,70,72,-1,74,76,78,-1,-1,-1,-1,-1,-1,-1,-1,-1,-1,-1,-1,-1,-1,-1,-1,-1,-1,-1,-1,-1,-1,-1,-1,-1,-1,-1,-1],"split_conditions":[-3.709754E0,-3.4788518E0,7.012548E0,6.514681E-1,3.6684234E0,-1.0133624E0,-2.1729157E0,-3.7321715E0,-8.9363724E-2,1.2187451E0,-7.4484663E0,-3.2371578E0,4.0584877E-1,-1.5038372E-3,2.4575154E-1,3.636327E-2,-1.8818824E-2,-1.4112447E-1,1.1279683E0,1.9182993E-2,-5.072825E-2,-3.8825011E0,3.1606693E0,7.5852954E-1,5.9830966E0,-8.8035144E-2,-4.6845837E0,-1.00022994E-1,-3.1449366E0,-2.1449718E0,5.0236425E0,1.524197E0,-4.3866835E0,-4.7156878E0,1.8949201E0,-3.078634E0,-6.104578E0,4.4825557E-3,3.9696682E-2,-3.2547438E0,-8.265791E-1,3.6307225E0,4.163106E0,-1.491056E0,3.0519269E0,5.2599615E-1,5.456907E0,-6.268034E-2,-9.1969097E-1,4.3371108E-1,-1.5721568E0,-6.0860932E-2,1.5751088E-2,-3.1201089E-2,-1.2690084E-1,9.882045E-3,-4.4332124E-2,-9.133577E-3,6.1412062E-2,-6.932476E-2,-4.951223E-3,-7.518111E-2,1.5751088E-2,3.2710412E-3,-5.4119743E-2,8.347762E-2,-8.429277E-3,3.056778E-2,-1.08704865E-2,-6.126967E-3,-6.706622E-2,4.9250774E-2,-4.0326033E-2,7.718226E-2,1.2900424E-2,-2.5899292E-3,8.008575E-2,5.5911172E-2,1.1290907E-1],"split_indices":[0,1,0,5,2,2,2,1,0,3,0,2,0,0,0,0,0,0,5,0,0,2,3,4,1,2,0,0,0,1,3,5,5,4,0,1,0,0,0,0,1,0,1,1,0,5,1,0,0,2,3,0,0,0,0,0,0,0,0,0,0,0,0,0,0,0,0,0,0,0,0,0,0,0,0,0,0,0,0],"split_type":[0,0,0,0,0,0,0,0,0,0,0,0,0,0,0,0,0,0,0,0,0,0,0,0,0,0,0,0,0,0,0,0,0,0,0,0,0,0,0,0,0,0,0,0,0,0,0,0,0,0,0,0,0,0,0,0,0,0,0,0,0,0,0,0,0,0,0,0,0,0,0,0,0,0,0,0,0,0,0],"sum_hessian":[2.39E2,5.1E1,1.88E2,9E0,4.2E1,1.78E2,1E1,5E0,4E0,3.4E1,8E0,9.3E1,8.5E1,1E0,9E0,3E0,2E0,2.1E1,1.3E1,2E0,6E0,1.2E1,8.1E1,4.5E1,4E1,1.1E1,2E0,2E0,1E1,6.8E1,1.3E1,2.9E1,1.6E1,3.6E1,4E0,8E0,3E0,1E0,1E0,2E0,8E0,7E0,6.1E1,8E0,5E0,1.8E1,1.1E1,3E0,1.3E1,8E0,2.8E1,3E0,1E0,1E0,7E0,1E0,2E0,1E0,1E0,6E0,2E0,6E0,1E0,5.6E1,5E0,7E0,1E0,2E0,3E0,8E0,1E1,7E0,4E0,1.1E1,2E0,5E0,3E0,9E0,1.9E1],"tree_param":{"num_deleted":"0","num_feature":"6","num_nodes":"79","size_leaf_vector":"1"}},{"base_weights":[-2.7414858E-3,-3.6544988E0,1.0019894E0,-1.4026878E0,-4.0931873E0,5.218208E-1,8.72455E0,5.814018E-1,-8.757644E-2,-4.696317E0,-1.2928834E0,-2.6263475E-1,1.3731812E0,-1.4850379E-3,2.4022214E-1,3.5681453E-2,-1.8505177E-2,-1.3775672E-1,-3.0817995E0,1.8863274E-2,-4.9641225E-2,-2.0963032E0,3.1271655E-2,6.974704E-1,4.0747447E0,-3.8862796E0,1.1633867E0,-9.835594E-2,-1.4044755E0,-3.594005E-1,1.9544936E0,1.0584936E0,-2.232771E0,2.4564512E0,1.3970672E-1,-4.687205E0,-1.112627E0,4.4265273E-3,3.9200474E-2,1.3766667E0,-2.17547E0,-2.4194112E0,-8.7795906E-2,2.829774E0,3.1582418E-1,3.0246067E-1,2.453716E0,-1.9557921E-2,-6.464674E-2,2.8461335E0,1.496203E-2,-3.0811071E-2,-1.2412488E-1,9.75852E-3,-4.359325E-2,-9.019411E-3,6.0644414E-2,-6.7839235E-2,-4.8686983E-3,-7.3570095E-2,1.5554202E-2,3.1906986E-3,-5.2992243E-2,8.166837E-2,-8.323908E-3,-2.018126E-2,2.6979351E-2,-3.9635118E-2,2.3549063E-2,1.7590528E-2,7.00884E-2,8.571433E-2,1.8313576E-2],"categories":[],"categories_nodes":[],"categories_segments":[],"categories_sizes":[],"default_left":[0,0,0,0,0,0,0,0,0,0,0,0,0,0,0,0,0,0,0,0,0,0,0,0,0,0,0,0,0,0,0,0,0,0,0,0,0,0,0,0,0,0,0,0,0,0,0,0,0,0,0,0,0,0,0,0,0,0,0,0,0,0,0,0,0,0,0,0,0,0,0,0,0],"id":6,"left_children":[1,3,5,7,9,11,13,15,-1,17,19,21,23,-1,-1,-1,-1,-1,25,-1,-1,27,29,31,33,35,37,-1,39,41,43,45,47,49,-1,51,53,-1,-1,55,57,59,61,63,65,67,69,-1,-1,71,-1,-1,-1,-1,-1,-1,-1,-1,-1,-1,-1,-1,-1,-1,-1,-1,-1,-1,-1,-1,-1,-1,-1],"loss_changes":[8.842297E2,4.5626404E1,6.962841E2,4.3709908E1,6.655298E1,1.199066E2,8.601837E1,7.763813E0,0E0,2.9013306E1,1.4263638E1,5.0724686E1,1.541489E2,0E0,0E0,0E0,0E0,0E0,5.2333603E1,0E0,0E0,1.1004398E1,6.2313084E1,7.641534E1,2.7911224E1,2.1442749E1,9.19662E-1,0E0,2.6581598E1,3.839366E1,1.918642E1,6.571239E1,2.074257E0,5.5368195E0,0E0,2.5182037E0,4.474759E0,0E0,0E0,6.343469E0,9.063969E0,1.4566433E1,2.740907E1,1.3525581E1,6.014956E0,5.2199707E1,1.149617E1,0E0,0E0,7.336731E0,0E0,0E0,0E0,0E0,0E0,0E0,0E0,0E0,0E0,0E0,0E0,0E0,0E0,0E0,0E0,0E0,0E0,0E0,0E0,0E0,0E0,0E0,0E0],"parents":[2147483647,0,0,1,1,2,2,3,3,4,4,5,5,6,6,7,7,9,9,10,10,11,11,12,12,18,18,21,21,22,22,23,23,24,24,25,25,26,26,28,28,29,29,30,30,31,31,32,32,33,33,35,35,36,36,39,39,40,40,41,41,42,42,43,43,44,44,45,45,46,46,49,49],"right_children":[2,4,6,8,10,12,14,16,-1,18,20,22,24,-1,-1,-1,-1,-1,26,-1,-1,28,30,32,34,36,38,-1,40,42,44,46,48,50,-1,52,54,-1,-1,56,58,60,62,64,66,68,70,-1,-1,72,-1,-1,-1,-1,-1,-1,-1,-1,-1,-1,-1,-1,-1,-1,-1,-1,-1,-1,-1,-1,-1,-1,-1],"split_conditions":[-3.709754E0,-3.4788518E0,7.012548E0,6.514681E-1,3.6684234E0,-1.0133624E0,-2.1729157E0,-3.7321715E0,-8.757644E-2,1.2187451E0,-7.4484663E0,-3.2371578E0,2.1265843E0,-1.4850379E-3,2.4022214E-1,3.5681453E-2,-1.8505177E-2,-1.3775672E-1,1.1279683E0,1.8863274E-2,-4.9641225E-2,-3.8825011E0,3.1606693E0,5.9830966E0,-1.5685E0,-8.8035144E-2,-4.6845837E0,-9.835594E-2,-3.1449366E0,-2.1449718E0,3.218998E0,4.0584877E-1,6.04781E0,3.0907152E0,1.3970672E-1,-3.078634E0,-6.104578E0,4.4265273E-3,3.9200474E-2,-3.2547438E0,-8.265791E-1,3.6307225E0,4.163106E0,-1.5929424E0,3.484562E0,-1.7437665E0,-4.253495E0,-1.9557921E-2,-6.464674E-2,-1.9601504E0,1.496203E-2,-3.0811071E-2,-1.2412488E-1,9.75852E-3,-4.359325E-2,-9.019411E-3,6.0644414E-2,-6.7839235E-2,-4.8686983E-3,-7.3570095E-2,1.5554202E-2,3.1906986E-3,-5.2992243E-2,8.166837E-2,-8.323908E-3,-2.018126E-2,2.6979351E-2,-3.9635118E-2,2.3549063E-2,1.7590528E-2,7.00884E-2,8.571433E-2,1.8313576E-2],"split_indices":[0,1,0,5,2,2,2,1,0,3,0,2,0,0,0,0,0,0,5,0,0,2,3,1,4,2,0,0,0,1,0,0,1,0,0,1,0,0,0,0,1,0,1,1,0,3,1,0,0,4,0,0,0,0,0,0,0,0,0,0,0,0,0,0,0,0,0,0,0,0,0,0,0],"split_type":[0,0,0,0,0,0,0,0,0,0,0,0,0,0,0,0,0,0,0,0,0,0,0,0,0,0,0,0,0,0,0,0,0,0,0,0,0,0,0,0,0,0,0,0,0,0,0,0,0,0,0,0,0,0,0,0,0,0,0,0,0,0,0,0,0,0,0,0,0,0,0,0,0],"sum_hessian":[2.39E2,5.1E1,1.88E2,9E0,4.2E1,1.78E2,1E1,5E0,4E0,3.4E1,8E0,9.3E1,8.5E1,1E0,9E0,3E0,2E0,2.1E1,1.3E1,2E0,6E0,1.2E1,8.1E1,6.9E1,1.6E1,1.1E1,2E0,2E0,1E1,6.8E1,1.3E1,6.2E1,7E0,9E0,7E0,8E0,3E0,1E0,1E0,2E0,8E0,7E0,6.1E1,8E0,5E0,4.1E1,2.1E1,2E0,5E0,7E0,2E0,1E0,7E0,1E0,2E0,1E0,1E0,6E0,2E0,6E0,1E0,5.6E1,5E0,7E0,1E0,2E0,3E0,1E1,3.1E1,4E0,1.7E1,5E0,2E0],"tree_param":{"num_deleted":"0","num_feature":"6","num_nodes":"73","size_leaf_vector":"1"}},{"base_weights":[-2.8662523E-3,-3.5705225E0,9.787263E-1,-1.3746605E0,-3.9981527E0,5.093281E-1,8.52814E0,5.697293E-1,-8.582491E-2,-4.5869927E0,-1.2639809E0,-2.5763404E-1,1.3417132E0,-1.4664769E-3,2.3481715E-1,3.501242E-2,-1.8196758E-2,-1.3446936E-1,-3.0151222E0,1.8548878E-2,-4.8577476E-2,-2.0530832E0,3.0152192E-2,6.7985344E-1,3.9880936E0,-3.8048534E0,1.1488441E0,-9.671667E-2,-1.37128E0,-3.519783E-1,1.911356E0,1.0331676E0,-2.1874774E0,2.4069388E0,1.3665064E-1,-4.58724E0,-1.0932701E0,4.37119E-3,3.8710464E-2,1.3594586E0,-2.1291618E0,-2.3661776E0,-8.6404555E-2,2.7787337E0,2.9173008E-1,2.9451603E-1,2.3963585E0,-1.9231956E-2,-6.329994E-2,2.7879837E0,1.4712661E-2,-3.042593E-2,-1.21409655E-1,9.636533E-3,-4.2866692E-2,-8.906662E-3,5.9886362E-2,-6.638553E-2,-4.7875564E-3,-7.199358E-2,1.5359771E-2,-2.9360885E-2,7.939304E-3,8.020685E-2,-8.219862E-3,2.8697181E-2,-1.0583008E-2,-1.4612161E-2,4.053871E-2,1.7238718E-2,6.843353E-2,8.3928615E-2,1.8008351E-2],"categories":[],"categories_nodes":[],"categories_segments":[],"categories_sizes":[],"default_left":[0,0,0,0,0,0,0,0,0,0,0,0,0,0,0,0,0,0,0,0,0,0,0,0,0,0,0,0,0,0,0,0,0,0,0,0,0,0,0,0,0,0,0,0,0,0,0,0,0,0,0,0,0,0,0,0,0,0,0,0,0,0,0,0,0,0,0,0,0,0,0,0,0],"id":7,"left_children":[1,3,5,7,9,11,13,15,-1,17,19,21,23,-1,-1,-1,-1,-1,25,-1,-1,27,29,31,33,35,37,-1,39,41,43,45,47,49,-1,51,53,-1,-1,55,57,59,61,63,65,67,69,-1,-1,71,-1,-1,-1,-1,-1,-1,-1,-1,-1,-1,-1,-1,-1,-1,-1,-1,-1,-1,-1,-1,-1,-1,-1],"loss_changes":[8.4397095E2,4.3332764E1,6.654122E2,4.1977947E1,6.34317E1,1.1462067E2,8.2211426E1,7.487401E0,0E0,2.734253E1,1.3702103E1,4.8632225E1,1.4792049E2,0E0,0E0,0E0,0E0,0E0,5.040899E1,0E0,0E0,1.07872925E1,5.9619717E1,7.3174835E1,2.6569885E1,2.0442993E1,8.9681506E-1,0E0,2.5659857E1,3.6704926E1,1.8856941E1,6.2730392E1,1.9609756E0,5.2882996E0,0E0,2.2532806E0,4.3364587E0,0E0,0E0,6.1858716E0,8.668884E0,1.4015026E1,2.7624393E1,1.3068138E1,4.1590967E0,4.9939285E1,1.0916298E1,0E0,0E0,6.996338E0,0E0,0E0,0E0,0E0,0E0,0E0,0E0,0E0,0E0,0E0,0E0,0E0,0E0,0E0,0E0,0E0,0E0,0E0,0E0,0E0,0E0,0E0,0E0],"parents":[2147483647,0,0,1,1,2,2,3,3,4,4,5,5,6,6,7,7,9,9,10,10,11,11,12,12,18,18,21,21,22,22,23,23,24,24,25,25,26,26,28,28,29,29,30,30,31,31,32,32,33,33,35,35,36,36,39,39,40,40,41,41,42,42,43,43,44,44,45,45,46,46,49,49],"right_children":[2,4,6,8,10,12,14,16,-1,18,20,22,24,-1,-1,-1,-1,-1,26,-1,-1,28,30,32,34,36,38,-1,40,42,44,46,48,50,-1,52,54,-1,-1,56,58,60,62,64,66,68,70,-1,-1,72,-1,-1,-1,-1,-1,-1,-1,-1,-1,-1,-1,-1,-1,-1,-1,-1,-1,-1,-1,-1,-1,-1,-1],"split_conditions":[-3.709754E0,-3.4788518E0,7.012548E0,6.514681E-1,3.6684234E0,-1.0133624E0,-2.1729157E0,-3.7321715E0,-8.582491E-2,1.2187451E0,-7.4484663E0,-3.2371578E0,2.1265843E0,-1.4664769E-3,2.3481715E-1,3.501242E-2,-1.8196758E-2,-1.3446936E-1,1.1279683E0,1.8548878E-2,-4.8577476E-2,-3.8825011E0,3.1606693E0,5.9830966E0,-1.5685E0,-8.8035144E-2,-4.6845837E0,-9.671667E-2,-3.1449366E0,-2.1449718E0,5.0236425E0,4.0584877E-1,6.04781E0,3.0907152E0,1.3665064E-1,-3.078634E0,-6.104578E0,4.37119E-3,3.8710464E-2,-3.2547438E0,-8.265791E-1,3.6307225E0,-4.02512E0,-1.491056E0,3.0519269E0,7.5852954E-1,-4.253495E0,-1.9231956E-2,-6.329994E-2,-1.9601504E0,1.4712661E-2,-3.042593E-2,-1.21409655E-1,9.636533E-3,-4.2866692E-2,-8.906662E-3,5.9886362E-2,-6.638553E-2,-4.7875564E-3,-7.199358E-2,1.5359771E-2,-2.9360885E-2,7.939304E-3,8.020685E-2,-8.219862E-3,2.8697181E-2,-1.0583008E-2,-1.4612161E-2,4.053871E-2,1.7238718E-2,6.843353E-2,8.3928615E-2,1.8008351E-2],"split_indices":[0,1,0,5,2,2,2,1,0,3,0,2,0,0,0,0,0,0,5,0,0,2,3,1,4,2,0,0,0,1,3,0,1,0,0,1,0,0,0,0,1,0,3,1,0,4,1,0,0,4,0,0,0,0,0,0,0,0,0,0,0,0,0,0,0,0,0,0,0,0,0,0,0],"split_type":[0,0,0,0,0,0,0,0,0,0,0,0,0,0,0,0,0,0,0,0,0,0,0,0,0,0,0,0,0,0,0,0,0,0,0,0,0,0,0,0,0,0,0,0,0,0,0,0,0,0,0,0,0,0,0,0,0,0,0,0,0,0,0,0,0,0,0,0,0,0,0,0,0],"sum_hessian":[2.39E2,5.1E1,1.88E2,9E0,4.2E1,1.78E2,1E1,5E0,4E0,3.4E1,8E0,9.3E1,8.5E1,1E0,9E0,3E0,2E0,2.1E1,1.3E1,2E0,6E0,1.2E1,8.1E1,6.9E1,1.6E1,1.1E1,2E0,2E0,1E1,6.8E1,1.3E1,6.2E1,7E0,9E0,7E0,8E0,3E0,1E0,1E0,2E0,8E0,7E0,6.1E1,8E0,5E0,4.1E1,2.1E1,2E0,5E0,7E0,2E0,1E0,7E0,1E0,2E0,1E0,1E0,6E0,2E0,6E0,1E0,1.6E1,4.5E1,7E0,1E0,2E0,3E0,2.5E1,1.6E1,4E0,1.7E1,5E0,2E0],"tree_param":{"num_deleted":"0","num_feature":"6","num_nodes":"73","size_leaf_vector":"1"}},{"base_weights":[-2.6473503E-3,-3.4884808E0,9.564319E-1,-1.3471948E0,-3.9053266E0,4.975865E-1,8.33615E0,5.582889E-1,-3.3643363E0,-4.480217E0,-1.235718E0,-2.5230882E-1,1.3114536E0,-1.4481426E-3,2.2953378E-1,3.435594E-2,-1.7893475E-2,-9.225788E-2,-2.575525E-2,-1.3126044E-1,-2.949886E0,1.823973E-2,-4.7536533E-2,-2.010749E0,2.954526E-2,6.8650115E-1,4.002714E0,-3.7251544E0,1.1344833E0,-9.5104724E-2,-1.3388339E0,-3.4431013E-1,1.8700079E0,1.0294756E0,-2.143107E0,2.3635314E0,1.3366139E-1,-4.48943E0,-1.0742459E0,4.3165446E-3,3.8226582E-2,1.3424654E0,-2.083841E0,-2.3141022E0,-8.459E-2,2.717264E0,2.874559E-1,2.8777042E-1,2.3391337E0,-1.8911427E-2,-6.1981183E-2,2.7908127E0,1.44674545E-2,-3.0045604E-2,-1.1875381E-1,9.516072E-3,-4.215225E-2,-8.795333E-3,5.9137788E-2,-6.496299E-2,-4.7077658E-3,-7.0450865E-2,1.5167773E-2,3.179077E-3,-5.205365E-2,7.845233E-2,-8.117116E-3,2.8218899E-2,-1.0384577E-2,-1.6742166E-2,3.7051104E-2,1.6563889E-2,6.643066E-2,8.7053515E-2,1.7708214E-2],"categories":[],"categories_nodes":[],"categories_segments":[],"categories_sizes":[],"default_left":[0,0,0,0,0,0,0,0,0,0,0,0,0,0,0,0,0,0,0,0,0,0,0,0,0,0,0,0,0,0,0,0,0,0,0,0,0,0,0,0,0,0,0,0,0,0,0,0,0,0,0,0,0,0,0,0,0,0,0,0,0,0,0,0,0,0,0,0,0,0,0,0,0,0,0],"id":8,"left_children":[1,3,5,7,9,11,13,15,17,19,21,23,25,-1,-1,-1,-1,-1,-1,-1,27,-1,-1,29,31,33,35,37,39,-1,41,43,45,47,49,51,-1,53,55,-1,-1,57,59,61,63,65,67,69,71,-1,-1,73,-1,-1,-1,-1,-1,-1,-1,-1,-1,-1,-1,-1,-1,-1,-1,-1,-1,-1,-1,-1,-1,-1,-1],"loss_changes":[8.0570215E2,4.115332E1,6.358345E2,4.031457E1,6.0457153E1,1.0957729E2,7.857324E1,7.2208424E0,2.5787354E-3,2.5765015E1,1.3162796E1,4.6648026E1,1.4189638E2,0E0,0E0,0E0,0E0,0E0,0E0,0E0,4.8556892E1,0E0,0E0,1.0572334E1,5.7065342E1,7.111058E1,2.2605682E1,1.9489532E1,8.7453556E-1,0E0,2.477094E1,3.5104282E1,1.7990486E1,6.1495193E1,1.8534279E0,5.2485924E0,0E0,2.005539E0,4.2024574E0,0E0,0E0,6.0321937E0,8.2909775E0,1.3484859E1,2.6490067E1,1.25401535E1,4.016657E0,4.9018063E1,1.0505501E1,0E0,0E0,7.6112556E0,0E0,0E0,0E0,0E0,0E0,0E0,0E0,0E0,0E0,0E0,0E0,0E0,0E0,0E0,0E0,0E0,0E0,0E0,0E0,0E0,0E0,0E0,0E0],"parents":[2147483647,0,0,1,1,2,2,3,3,4,4,5,5,6,6,7,7,8,8,9,9,10,10,11,11,12,12,20,20,23,23,24,24,25,25,26,26,27,27,28,28,30,30,31,31,32,32,33,33,34,34,35,35,37,37,38,38,41,41,42,42,43,43,44,44,45,45,46,46,47,47,48,48,51,51],"right_children":[2,4,6,8,10,12,14,16,18,20,22,24,26,-1,-1,-1,-1,-1,-1,-1,28,-1,-1,30,32,34,36,38,40,-1,42,44,46,48,50,52,-1,54,56,-1,-1,58,60,62,64,66,68,70,72,-1,-1,74,-1,-1,-1,-1,-1,-1,-1,-1,-1,-1,-1,-1,-1,-1,-1,-1,-1,-1,-1,-1,-1,-1,-1],"split_conditions":[-3.709754E0,-3.4788518E0,7.012548E0,6.514681E-1,3.6684234E0,-1.0133624E0,-2.1729157E0,-3.7321715E0,-3.9623773E0,1.2187451E0,-7.4484663E0,-3.2371578E0,2.1720073E0,-1.4481426E-3,2.2953378E-1,3.435594E-2,-1.7893475E-2,-9.225788E-2,-2.575525E-2,-1.3126044E-1,1.1279683E0,1.823973E-2,-4.7536533E-2,-3.8825011E0,3.1606693E0,5.9830966E0,-1.5685E0,-8.8035144E-2,-4.6845837E0,-9.5104724E-2,-3.1449366E0,-2.1449718E0,5.0236425E0,4.0584877E-1,6.04781E0,3.0907152E0,1.3366139E-1,-3.078634E0,-6.104578E0,4.3165446E-3,3.8226582E-2,-3.2547438E0,-8.265791E-1,3.6307225E0,4.163106E0,-1.491056E0,3.0519269E0,8.2205695E-1,-1.9894116E0,-1.8911427E-2,-6.1981183E-2,-1.9601504E0,1.44674545E-2,-3.0045604E-2,-1.1875381E-1,9.516072E-3,-4.215225E-2,-8.795333E-3,5.9137788E-2,-6.496299E-2,-4.7077658E-3,-7.0450865E-2,1.5167773E-2,3.179077E-3,-5.205365E-2,7.845233E-2,-8.117116E-3,2.8218899E-2,-1.0384577E-2,-1.6742166E-2,3.7051104E-2,1.6563889E-2,6.643066E-2,8.7053515E-2,1.7708214E-2],"split_indices":[0,1,0,5,2,2,2,1,1,3,0,2,0,0,0,0,0,0,0,0,5,0,0,2,3,1,4,2,0,0,0,1,3,0,1,0,0,1,0,0,0,0,1,0,1,1,0,3,3,0,0,4,0,0,0,0,0,0,0,0,0,0,0,0,0,0,0,0,0,0,0,0,0,0,0],"split_type":[0,0,0,0,0,0,0,0,0,0,0,0,0,0,0,0,0,0,0,0,0,0,0,0,0,0,0,0,0,0,0,0,0,0,0,0,0,0,0,0,0,0,0,0,0,0,0,0,0,0,0,0,0,0,0,0,0,0,0,0,0,0,0,0,0,0,0,0,0,0,0,0,0,0,0],"sum_hessian":[2.39E2,5.1E1,1.88E2,9E0,4.2E1,1.78E2,1E1,5E0,4E0,3.4E1,8E0,9.3E1,8.5E1,1E0,9E0,3E0,2E0,3E0,1E0,2.1E1,1.3E1,2E0,6E0,1.2E1,8.1E1,7E1,1.5E1,1.1E1,2E0,2E0,1E1,6.8E1,1.3E1,6.3E1,7E0,8E0,7E0,8E0,3E0,1E0,1E0,2E0,8E0,7E0,6.1E1,8E0,5E0,4.1E1,2.2E1,2E0,5E0,6E0,2E0,1E0,7E0,1E0,2E0,1E0,1E0,6E0,2E0,6E0,1E0,5.6E1,5E0,7E0,1E0,2E0,3E0,2.3E1,1.8E1,4E0,1.8E1,4E0,2E0],"tree_param":{"num_deleted":"0","num_feature":"6","num_nodes":"75","size_leaf_vector":"1"}},{"base_weights":[-2.6981214E-3,-3.4089801E0,9.3449426E-1,-1.3236701E0,-3.8146572E0,4.8595598E-1,8.148481E0,5.4707545E-1,-8.2595766E-2,-4.37593E0,-1.20808E0,1.3941431E-1,3.6749905E-1,-1.4300466E-3,2.2436924E-1,3.371176E-2,-1.7595245E-2,-1.2812808E-1,-2.8860598E0,1.7935729E-2,-1.8607155E0,1.2408125E-1,2.9719112E0,-3.6471455E0,1.1203026E0,-1.4010429E-2,-4.9600724E-2,-3.722492E-1,1.0702112E0,3.3377376E0,-2.6870692E-2,-4.393728E0,-1.0555487E0,4.2625903E-3,3.7748754E-2,-7.188611E-1,1.381491E0,3.1262586E-1,2.7898111E0,1.8635656E0,4.2104206E0,-2.9670035E-2,-1.16156094E-1,9.397126E-3,-4.1449707E-2,8.088112E-2,-2.1137282E-2,7.01087E-2,-3.1376194E-2,4.0610116E-2,-6.023984E-3,2.3183031E-2,8.72143E-2,7.889812E-2,2.6328804E-3,1.2442309E-1,5.4992177E-2],"categories":[],"categories_nodes":[],"categories_segments":[],"categories_sizes":[],"default_left":[0,0,0,0,0,0,0,0,0,0,0,0,0,0,0,0,0,0,0,0,0,0,0,0,0,0,0,0,0,0,0,0,0,0,0,0,0,0,0,0,0,0,0,0,0,0,0,0,0,0,0,0,0,0,0,0,0],"id":9,"left_children":[1,3,5,7,9,11,13,15,-1,17,19,-1,21,-1,-1,-1,-1,-1,23,-1,25,27,29,31,33,-1,-1,35,37,39,-1,41,43,-1,-1,45,47,49,51,53,55,-1,-1,-1,-1,-1,-1,-1,-1,-1,-1,-1,-1,-1,-1,-1,-1],"loss_changes":[7.693476E2,3.8940674E1,6.075968E2,3.885121E1,5.762256E1,1.0589099E2,7.509619E1,6.9637856E0,0E0,2.4275574E1,1.264483E1,0E0,1.1120825E2,0E0,0E0,0E0,0E0,0E0,4.677449E1,0E0,1.0526657E-2,7.6472466E1,2.5793549E1,1.8580276E1,8.5280895E-1,0E0,0E0,6.60349E1,7.208148E1,1.0164383E1,0E0,1.7740479E0,4.0726223E0,0E0,0E0,4.77992E1,7.104509E1,2.9438671E1,1.8889359E1,1.5573668E1,1.3822021E0,0E0,0E0,0E0,0E0,0E0,0E0,0E0,0E0,0E0,0E0,0E0,0E0,0E0,0E0,0E0,0E0],"parents":[2147483647,0,0,1,1,2,2,3,3,4,4,5,5,6,6,7,7,9,9,10,10,12,12,18,18,20,20,21,21,22,22,23,23,24,24,27,27,28,28,29,29,31,31,32,32,35,35,36,36,37,37,38,38,39,39,40,40],"right_children":[2,4,6,8,10,12,14,16,-1,18,20,-1,22,-1,-1,-1,-1,-1,24,-1,26,28,30,32,34,-1,-1,36,38,40,-1,42,44,-1,-1,46,48,50,52,54,56,-1,-1,-1,-1,-1,-1,-1,-1,-1,-1,-1,-1,-1,-1,-1,-1],"split_conditions":[-3.709754E0,-3.4788518E0,7.012548E0,6.514681E-1,3.6684234E0,-5.0123587E0,-2.1729157E0,-3.7321715E0,-8.2595766E-2,1.2187451E0,-7.4484663E0,1.3941431E-1,5.064677E0,-1.4300466E-3,2.2436924E-1,3.371176E-2,-1.7595245E-2,-1.2812808E-1,1.1279683E0,1.7935729E-2,-4.0253314E-1,1.8949201E0,2.0486372E0,-8.8035144E-2,-4.6845837E0,-1.4010429E-2,-4.9600724E-2,2.9877713E0,-1.0771126E0,-1.7437665E0,-2.6870692E-2,-3.078634E0,-6.104578E0,4.2625903E-3,3.7748754E-2,-5.8410378E0,4.732278E0,3.3285775E0,-3.1882398E0,3.0896008E-1,2.6088148E-1,-2.9670035E-2,-1.16156094E-1,9.397126E-3,-4.1449707E-2,8.088112E-2,-2.1137282E-2,7.01087E-2,-3.1376194E-2,4.0610116E-2,-6.023984E-3,2.3183031E-2,8.72143E-2,7.889812E-2,2.6328804E-3,1.2442309E-1,5.4992177E-2],"split_indices":[0,1,0,5,2,1,2,1,0,3,0,0,2,0,0,0,0,0,5,0,4,0,5,2,0,0,0,3,2,3,0,1,0,0,0,4,3,0,1,5,1,0,0,0,0,0,0,0,0,0,0,0,0,0,0,0,0],"split_type":[0,0,0,0,0,0,0,0,0,0,0,0,0,0,0,0,0,0,0,0,0,0,0,0,0,0,0,0,0,0,0,0,0,0,0,0,0,0,0,0,0,0,0,0,0,0,0,0,0,0,0,0,0,0,0,0,0],"sum_hessian":[2.39E2,5.1E1,1.88E2,9E0,4.2E1,1.78E2,1E1,5E0,4E0,3.4E1,8E0,3E0,1.75E2,1E0,9E0,3E0,2E0,2.1E1,1.3E1,2E0,6E0,1.61E2,1.4E1,1.1E1,2E0,1E0,5E0,1.06E2,5.5E1,1.3E1,1E0,8E0,3E0,1E0,1E0,8.9E1,1.7E1,3.9E1,1.6E1,6E0,7E0,1E0,7E0,1E0,2E0,2E0,8.7E1,1.1E1,6E0,1.1E1,2.8E1,5E0,1.1E1,3E0,3E0,4E0,3E0],"tree_param":{"num_deleted":"0","num_feature":"6","num_nodes":"57","size_leaf_vector":"1"}},{"base_weights":[-6.984055E-4,-3.3309894E0,9.155758E-1,-1.2972262E0,-3.7264926E0,4.7725376E-1,7.9650364E0,5.3608483E-1,-3.237754E0,-4.2740746E0,-1.1829532E0,1.368003E-1,3.6102486E-1,-1.4121652E-3,2.1932094E-1,3.3079673E-2,-1.730199E-2,-8.8979386E-2,-2.4400866E-2,-1.2507048E-1,-2.8236134E0,1.76368E-2,-4.5582127E-2,1.22482084E-1,2.9132185E0,-3.5707903E0,1.1062988E0,-3.6202264E-1,1.046045E0,3.272933E0,-2.6534809E-2,-4.300088E0,-1.0371733E0,4.2093038E-3,3.72769E-2,-7.0022583E-1,1.3491056E0,3.056751E-1,2.7265599E0,1.8286235E0,4.1275873E0,-2.9299164E-2,-1.1361518E-1,9.279656E-3,-4.075888E-2,7.95331E-2,-2.0614857E-2,6.850204E-2,-3.0703852E-2,3.9679464E-2,-5.8785686E-3,2.2700055E-2,8.5215636E-2,7.741877E-2,2.5835098E-3,1.2193463E-1,5.396108E-2],"categories":[],"categories_nodes":[],"categories_segments":[],"categories_sizes":[],"default_left":[0,0,0,0,0,0,0,0,0,0,0,0,0,0,0,0,0,0,0,0,0,0,0,0,0,0,0,0,0,0,0,0,0,0,0,0,0,0,0,0,0,0,0,0,0,0,0,0,0,0,0,0,0,0,0,0,0],"id":10,"left_children":[1,3,5,7,9,11,13,15,17,19,21,-1,23,-1,-1,-1,-1,-1,-1,-1,25,-1,-1,27,29,31,33,35,37,39,-1,41,43,-1,-1,45,47,49,51,53,55,-1,-1,-1,-1,-1,-1,-1,-1,-1,-1,-1,-1,-1,-1,-1,-1],"loss_changes":[7.354001E2,3.6992615E1,5.8019617E2,3.7311626E1,5.483423E1,1.0194028E2,7.177338E1,6.7158947E0,1.6094208E-1,2.2869507E1,1.2169247E1,0E0,1.0679329E2,0E0,0E0,0E0,0E0,0E0,0E0,0E0,4.505912E1,0E0,0E0,7.286893E1,2.4919746E1,1.7713196E1,8.316226E-1,6.286654E1,6.884191E1,9.733597E0,0E0,1.5578461E0,3.9468193E0,0E0,0E0,4.6070107E1,6.7893555E1,2.8095612E1,1.7991333E1,1.4995129E1,1.2841187E0,0E0,0E0,0E0,0E0,0E0,0E0,0E0,0E0,0E0,0E0,0E0,0E0,0E0,0E0,0E0,0E0],"parents":[2147483647,0,0,1,1,2,2,3,3,4,4,5,5,6,6,7,7,8,8,9,9,10,10,12,12,20,20,23,23,24,24,25,25,26,26,27,27,28,28,29,29,31,31,32,32,35,35,36,36,37,37,38,38,39,39,40,40],"right_children":[2,4,6,8,10,12,14,16,18,20,22,-1,24,-1,-1,-1,-1,-1,-1,-1,26,-1,-1,28,30,32,34,36,38,40,-1,42,44,-1,-1,46,48,50,52,54,56,-1,-1,-1,-1,-1,-1,-1,-1,-1,-1,-1,-1,-1,-1,-1,-1],"split_conditions":[-3.709754E0,-3.4788518E0,7.012548E0,6.514681E-1,3.6684234E0,-5.0123587E0,-2.1729157E0,-3.7321715E0,-3.9623773E0,1.2187451E0,-7.4484663E0,1.368003E-1,5.064677E0,-1.4121652E-3,2.1932094E-1,3.3079673E-2,-1.730199E-2,-8.8979386E-2,-2.4400866E-2,-1.2507048E-1,1.1279683E0,1.76368E-2,-4.5582127E-2,1.8949201E0,2.0486372E0,-8.8035144E-2,-4.6845837E0,2.9877713E0,-1.0771126E0,-1.7437665E0,-2.6534809E-2,-3.078634E0,-6.104578E0,4.2093038E-3,3.72769E-2,-5.8410378E0,4.732278E0,3.3285775E0,-3.1882398E0,3.0896008E-1,2.6088148E-1,-2.9299164E-2,-1.1361518E-1,9.279656E-3,-4.075888E-2,7.95331E-2,-2.0614857E-2,6.850204E-2,-3.0703852E-2,3.9679464E-2,-5.8785686E-3,2.2700055E-2,8.5215636E-2,7.741877E-2,2.5835098E-3,1.2193463E-1,5.396108E-2],"split_indices":[0,1,0,5,2,1,2,1,1,3,0,0,2,0,0,0,0,0,0,0,5,0,0,0,5,2,0,3,2,3,0,1,0,0,0,4,3,0,1,5,1,0,0,0,0,0,0,0,0,0,0,0,0,0,0,0,0],"split_type":[0,0,0,0,0,0,0,0,0,0,0,0,0,0,0,0,0,0,0,0,0,0,0,0,0,0,0,0,0,0,0,0,0,0,0,0,0,0,0,0,0,0,0,0,0,0,0,0,0,0,0,0,0,0,0,0,0],"sum_hessian":[2.39E2,5.1E1,1.88E2,9E0,4.2E1,1.78E2,1E1,5E0,4E0,3.4E1,8E0,3E0,1.75E2,1E0,9E0,3E0,2E0,3E0,1E0,2.1E1,1.3E1,2E0,6E0,1.61E2,1.4E1,1.1E1,2E0,1.06E2,5.5E1,1.3E1,1E0,8E0,3E0,1E0,1E0,8.9E1,1.7E1,3.9E1,1.6E1,6E0,7E0,1E0,7E0,1E0,2E0,2E0,8.7E1,1.1E1,6E0,1.1E1,2.8E1,5E0,1.1E1,3E0,3E0,4E0,3E0],"tree_param":{"num_deleted":"0","num_feature":"6","num_nodes":"57","size_leaf_vector":"1"}},{"base_weights":[1.1479795E-3,-3.2550902E0,8.970381E-1,-1.2745559E0,-3.6399796E0,4.6869987E-1,7.7857203E0,5.2531195E-1,-3.179486E0,-4.1745934E0,-1.1564847E0,1.342353E-1,3.54657E-1,-1.3945103E-3,2.1438621E-1,3.245942E-2,-1.701363E-2,-8.7311015E-2,-2.4095858E-2,-1.2208583E-1,-2.7625165E0,1.7342847E-2,-1.7842149E0,1.20891646E-1,2.855679E0,-3.4960535E0,1.0924698E0,-1.3265527E-2,-4.761776E-2,-3.5206842E-1,1.0224245E0,3.2093883E0,-2.620312E-2,-4.208465E0,-1.0191135E0,4.156685E-3,3.6810935E-2,-6.5989345E-1,1.4399296E0,2.9887813E-1,2.6647437E0,1.794337E0,4.046385E0,-2.8932929E-2,-1.1112986E-1,9.163666E-3,-4.007956E-2,7.8207545E-2,-1.9470861E-2,-3.0238256E-2,7.876396E-2,6.236216E-2,-3.592405E-4,2.2227133E-2,8.326278E-2,7.596718E-2,2.5350691E-3,1.1949593E-1,5.2949317E-2],"categories":[],"categories_nodes":[],"categories_segments":[],"categories_sizes":[],"default_left":[0,0,0,0,0,0,0,0,0,0,0,0,0,0,0,0,0,0,0,0,0,0,0,0,0,0,0,0,0,0,0,0,0,0,0,0,0,0,0,0,0,0,0,0,0,0,0,0,0,0,0,0,0,0,0,0,0,0,0],"id":11,"left_children":[1,3,5,7,9,11,13,15,17,19,21,-1,23,-1,-1,-1,-1,-1,-1,-1,25,-1,27,29,31,33,35,-1,-1,37,39,41,-1,43,45,-1,-1,47,49,51,53,55,57,-1,-1,-1,-1,-1,-1,-1,-1,-1,-1,-1,-1,-1,-1,-1,-1],"loss_changes":[7.0305554E2,3.4999634E1,5.5403046E2,3.5956448E1,5.226361E1,9.813724E1,6.8597534E1,6.476838E0,1.0085678E-1,2.1542175E1,1.169056E1,0E0,1.0255358E2,0E0,0E0,0E0,0E0,0E0,0E0,0E0,4.3408195E1,0E0,4.668808E-2,6.943498E1,2.4076012E1,1.6886307E1,8.109622E-1,0E0,0E0,5.9973736E1,6.574805E1,9.320923E0,0E0,1.3561707E0,3.8249254E0,0E0,0E0,4.3889034E1,7.632658E1,2.7546616E1,1.713588E1,1.4438087E1,1.1916199E0,0E0,0E0,0E0,0E0,0E0,0E0,0E0,0E0,0E0,0E0,0E0,0E0,0E0,0E0,0E0,0E0],"parents":[2147483647,0,0,1,1,2,2,3,3,4,4,5,5,6,6,7,7,8,8,9,9,10,10,12,12,20,20,22,22,23,23,24,24,25,25,26,26,29,29,30,30,31,31,33,33,34,34,37,37,38,38,39,39,40,40,41,41,42,42],"right_children":[2,4,6,8,10,12,14,16,18,20,22,-1,24,-1,-1,-1,-1,-1,-1,-1,26,-1,28,30,32,34,36,-1,-1,38,40,42,-1,44,46,-1,-1,48,50,52,54,56,58,-1,-1,-1,-1,-1,-1,-1,-1,-1,-1,-1,-1,-1,-1,-1,-1],"split_conditions":[-3.709754E0,-3.4788518E0,7.012548E0,6.514681E-1,3.6684234E0,-5.0123587E0,-2.1729157E0,-3.7321715E0,-3.9623773E0,1.2187451E0,-7.4484663E0,1.342353E-1,5.064677E0,-1.3945103E-3,2.1438621E-1,3.245942E-2,-1.701363E-2,-8.7311015E-2,-2.4095858E-2,-1.2208583E-1,1.1279683E0,1.7342847E-2,-4.0253314E-1,1.8949201E0,2.0486372E0,-8.8035144E-2,-4.6845837E0,-1.3265527E-2,-4.761776E-2,3.1101956E0,-1.0771126E0,-1.7437665E0,-2.620312E-2,-3.078634E0,-6.104578E0,4.156685E-3,3.6810935E-2,-5.8410378E0,-3.4277716E0,-2.8233352E0,-3.1882398E0,3.0896008E-1,2.6088148E-1,-2.8932929E-2,-1.1112986E-1,9.163666E-3,-4.007956E-2,7.8207545E-2,-1.9470861E-2,-3.0238256E-2,7.876396E-2,6.236216E-2,-3.592405E-4,2.2227133E-2,8.326278E-2,7.596718E-2,2.5350691E-3,1.1949593E-1,5.2949317E-2],"split_indices":[0,1,0,5,2,1,2,1,1,3,0,0,2,0,0,0,0,0,0,0,5,0,4,0,5,2,0,0,0,3,2,3,0,1,0,0,0,4,2,2,1,5,1,0,0,0,0,0,0,0,0,0,0,0,0,0,0,0,0],"split_type":[0,0,0,0,0,0,0,0,0,0,0,0,0,0,0,0,0,0,0,0,0,0,0,0,0,0,0,0,0,0,0,0,0,0,0,0,0,0,0,0,0,0,0,0,0,0,0,0,0,0,0,0,0,0,0,0,0,0,0],"sum_hessian":[2.39E2,5.1E1,1.88E2,9E0,4.2E1,1.78E2,1E1,5E0,4E0,3.4E1,8E0,3E0,1.75E2,1E0,9E0,3E0,2E0,3E0,1E0,2.1E1,1.3E1,2E0,6E0,1.61E2,1.4E1,1.1E1,2E0,1E0,5E0,1.06E2,5.5E1,1.3E1,1E0,8E0,3E0,1E0,1E0,9.1E1,1.5E1,3.9E1,1.6E1,6E0,7E0,1E0,7E0,1E0,2E0,2E0,8.9E1,6E0,9E0,4E0,3.5E1,5E0,1.1E1,3E0,3E0,4E0,3E0],"tree_param":{"num_deleted":"0","num_feature":"6","num_nodes":"59","size_leaf_vector":"1"}},{"base_weights":[3.0157983E-3,-3.1812437E0,8.790924E-1,-1.2522881E0,-3.5558558E0,4.6052304E-1,7.6104403E0,5.147535E-1,-3.1222806E0,-4.0774317E0,-1.1324103E0,1.3171838E-1,3.4862888E-1,-1.3770818E-3,2.0956253E-1,3.185081E-2,-1.673007E-2,-8.5673936E-2,-2.3794664E-2,-4.766897E0,-2.7027404E0,1.7053803E-2,-1.748307E0,1.1956563E-1,2.7992702E0,-1.2153882E-1,-3.4739126E-2,-3.4229007E0,1.0788139E0,-1.3099707E-2,-4.662572E-2,-3.4226403E-1,9.9985504E-1,3.1470785E0,-2.5875581E-2,-4.1188164E0,-1.001365E0,4.104722E-3,3.6350798E-2,-6.649816E-1,1.2903384E0,2.9295653E-1,2.6043305E0,1.7606934E0,3.9667807E0,-2.8571272E-2,-1.086989E-1,9.049118E-3,-3.941158E-2,7.690408E-2,-1.96241E-2,6.5763585E-2,-2.9787252E-2,3.8517043E-2,-5.8361366E-3,2.1764064E-2,8.135468E-2,7.45428E-2,2.4875402E-3,1.1104351E-1,4.236502E-2],"categories":[],"categories_nodes":[],"categories_segments":[],"categories_sizes":[],"default_left":[0,0,0,0,0,0,0,0,0,0,0,0,0,0,0,0,0,0,0,0,0,0,0,0,0,0,0,0,0,0,0,0,0,0,0,0,0,0,0,0,0,0,0,0,0,0,0,0,0,0,0,0,0,0,0,0,0,0,0,0,0],"id":12,"left_children":[1,3,5,7,9,11,13,15,17,19,21,-1,23,-1,-1,-1,-1,-1,-1,25,27,-1,29,31,33,-1,-1,35,37,-1,-1,39,41,43,-1,45,47,-1,-1,49,51,53,55,57,59,-1,-1,-1,-1,-1,-1,-1,-1,-1,-1,-1,-1,-1,-1,-1,-1],"loss_changes":[6.723139E2,3.312274E1,5.290096E2,3.465075E1,4.973517E1,9.446709E1,6.556238E1,6.246304E0,4.4765472E-2,2.0289368E1,1.1250857E1,0E0,9.846323E1,0E0,0E0,0E0,0E0,0E0,0E0,2.775879E-1,4.181923E1,0E0,2.3080826E-2,6.62023E1,2.3261292E1,0E0,0E0,1.6097763E1,7.9081583E-1,0E0,0E0,5.723308E1,6.275232E1,8.925629E0,0E0,1.1681366E0,3.7068172E0,0E0,0E0,4.2813118E1,6.300513E1,2.6631865E1,1.6320938E1,1.3901739E1,1.1065826E0,0E0,0E0,0E0,0E0,0E0,0E0,0E0,0E0,0E0,0E0,0E0,0E0,0E0,0E0,0E0,0E0],"parents":[2147483647,0,0,1,1,2,2,3,3,4,4,5,5,6,6,7,7,8,8,9,9,10,10,12,12,19,19,20,20,22,22,23,23,24,24,27,27,28,28,31,31,32,32,33,33,35,35,36,36,39,39,40,40,41,41,42,42,43,43,44,44],"right_children":[2,4,6,8,10,12,14,16,18,20,22,-1,24,-1,-1,-1,-1,-1,-1,26,28,-1,30,32,34,-1,-1,36,38,-1,-1,40,42,44,-1,46,48,-1,-1,50,52,54,56,58,60,-1,-1,-1,-1,-1,-1,-1,-1,-1,-1,-1,-1,-1,-1,-1,-1],"split_conditions":[-3.709754E0,-3.4788518E0,7.012548E0,6.514681E-1,3.6684234E0,-5.0123587E0,-2.1729157E0,-3.7321715E0,-3.9623773E0,1.2187451E0,-7.4484663E0,1.3171838E-1,5.064677E0,-1.3770818E-3,2.0956253E-1,3.185081E-2,-1.673007E-2,-8.5673936E-2,-2.3794664E-2,3.581998E0,1.1279683E0,1.7053803E-2,-4.0253314E-1,1.8949201E0,2.0486372E0,-1.2153882E-1,-3.4739126E-2,-8.8035144E-2,-4.6845837E0,-1.3099707E-2,-4.662572E-2,2.9877713E0,-1.0771126E0,-1.7437665E0,-2.5875581E-2,-3.078634E0,-6.104578E0,4.104722E-3,3.6350798E-2,-5.8410378E0,4.732278E0,3.3285775E0,-3.1882398E0,3.0896008E-1,4.6308684E0,-2.8571272E-2,-1.086989E-1,9.049118E-3,-3.941158E-2,7.690408E-2,-1.96241E-2,6.5763585E-2,-2.9787252E-2,3.8517043E-2,-5.8361366E-3,2.1764064E-2,8.135468E-2,7.45428E-2,2.4875402E-3,1.1104351E-1,4.236502E-2],"split_indices":[0,1,0,5,2,1,2,1,1,3,0,0,2,0,0,0,0,0,0,2,5,0,4,0,5,0,0,2,0,0,0,3,2,3,0,1,0,0,0,4,3,0,1,5,4,0,0,0,0,0,0,0,0,0,0,0,0,0,0,0,0],"split_type":[0,0,0,0,0,0,0,0,0,0,0,0,0,0,0,0,0,0,0,0,0,0,0,0,0,0,0,0,0,0,0,0,0,0,0,0,0,0,0,0,0,0,0,0,0,0,0,0,0,0,0,0,0,0,0,0,0,0,0,0,0],"sum_hessian":[2.39E2,5.1E1,1.88E2,9E0,4.2E1,1.78E2,1E1,5E0,4E0,3.4E1,8E0,3E0,1.75E2,1E0,9E0,3E0,2E0,3E0,1E0,2.1E1,1.3E1,2E0,6E0,1.61E2,1.4E1,2E1,1E0,1.1E1,2E0,1E0,5E0,1.06E2,5.5E1,1.3E1,1E0,8E0,3E0,1E0,1E0,8.9E1,1.7E1,3.9E1,1.6E1,6E0,7E0,1E0,7E0,1E0,2E0,2E0,8.7E1,1.1E1,6E0,1.1E1,2.8E1,5E0,1.1E1,3E0,3E0,5E0,2E0],"tree_param":{"num_deleted":"0","num_feature":"6","num_nodes":"61","size_leaf_vector":"1"}},{"base_weights":[4.4113817E-3,-3.1097984E0,8.612077E-1,-4.278647E0,-2.419825E0,4.5216814E-1,7.4391055E0,-4.6425004E0,2.3835743E-2,2.578098E-2,-2.6602302E0,1.2924865E-1,3.4237677E-1,-1.3598681E-3,2.0484738E-1,-1.1978965E-1,-2.8214132E-2,-3.3538966E0,-7.294078E-1,1.1799027E-1,2.742926E0,-3.898479E0,-5.0478727E-1,-3.278145E-2,1.0653286E0,-3.3283615E-1,9.772838E-1,3.0848613E0,-2.555213E-2,-4.1412873E0,8.936E-3,1.6769577E-2,-3.780238E-2,4.053414E-3,3.589641E-2,-6.273016E-1,1.3811424E0,2.864499E-1,2.545288E0,1.7276804E0,3.886787E0,-2.3497224E-2,-1.0667317E-1,-8.662943E-2,-1.1473256E-2,-2.9293254E-2,7.575097E-2,6.078812E-2,-4.8585204E-4,2.1310652E-2,7.94903E-2,7.3145114E-2,2.4409057E-3,1.1522853E-1,5.0303694E-2],"categories":[],"categories_nodes":[],"categories_segments":[],"categories_sizes":[],"default_left":[0,0,0,0,0,0,0,0,0,0,0,0,0,0,0,0,0,0,0,0,0,0,0,0,0,0,0,0,0,0,0,0,0,0,0,0,0,0,0,0,0,0,0,0,0,0,0,0,0,0,0,0,0,0,0],"id":13,"left_children":[1,3,5,7,9,11,13,15,-1,-1,17,-1,19,-1,-1,-1,-1,21,23,25,27,29,31,-1,33,35,37,39,-1,41,-1,-1,-1,-1,-1,43,45,47,49,51,53,-1,-1,-1,-1,-1,-1,-1,-1,-1,-1,-1,-1,-1,-1],"loss_changes":[6.4305664E2,3.15831E1,5.0516354E2,3.8693024E1,3.1781204E1,9.0946785E1,6.2661865E1,3.4983215E0,0E0,0E0,4.1752075E1,0E0,9.4478905E1,0E0,0E0,0E0,0E0,3.5269897E1,1.1839597E1,6.308281E1,2.2463852E1,2.2147705E1,6.935094E0,0E0,7.711685E-1,5.487009E1,5.99318E1,8.521881E0,0E0,3.631775E0,0E0,0E0,0E0,0E0,0E0,4.2368885E1,7.0901146E1,2.6293015E1,1.5544601E1,1.3385302E1,1.55896E0,0E0,0E0,0E0,0E0,0E0,0E0,0E0,0E0,0E0,0E0,0E0,0E0,0E0,0E0],"parents":[2147483647,0,0,1,1,2,2,3,3,4,4,5,5,6,6,7,7,10,10,12,12,17,17,18,18,19,19,20,20,21,21,22,22,24,24,25,25,26,26,27,27,29,29,35,35,36,36,37,37,38,38,39,39,40,40],"right_children":[2,4,6,8,10,12,14,16,-1,-1,18,-1,20,-1,-1,-1,-1,22,24,26,28,30,32,-1,34,36,38,40,-1,42,-1,-1,-1,-1,-1,44,46,48,50,52,54,-1,-1,-1,-1,-1,-1,-1,-1,-1,-1,-1,-1,-1,-1],"split_conditions":[-3.709754E0,-1.9434285E0,7.012548E0,4.5219083E0,-4.153976E0,-5.0123587E0,-2.1729157E0,4.199269E0,2.3835743E-2,2.578098E-2,-4.7242947E0,1.2924865E-1,5.064677E0,-1.3598681E-3,2.0484738E-1,-1.1978965E-1,-2.8214132E-2,3.6684234E0,1.4930502E0,1.8949201E0,2.0486372E0,2.631027E0,-7.4484663E0,-3.278145E-2,-4.6845837E0,3.1101956E0,-1.0771126E0,-1.7437665E0,-2.555213E-2,-1.6016535E0,8.936E-3,1.6769577E-2,-3.780238E-2,4.053414E-3,3.589641E-2,-4.3884745E0,-3.4277716E0,-2.8233352E0,-3.1882398E0,3.0896008E-1,2.6088148E-1,-2.3497224E-2,-1.0667317E-1,-8.662943E-2,-1.1473256E-2,-2.9293254E-2,7.575097E-2,6.078812E-2,-4.8585204E-4,2.1310652E-2,7.94903E-2,7.3145114E-2,2.4409057E-3,1.1522853E-1,5.0303694E-2],"split_indices":[0,2,0,3,1,1,2,3,0,0,0,0,2,0,0,0,0,2,5,0,5,3,0,0,0,3,2,3,0,2,0,0,0,0,0,3,2,2,1,5,1,0,0,0,0,0,0,0,0,0,0,0,0,0,0],"split_type":[0,0,0,0,0,0,0,0,0,0,0,0,0,0,0,0,0,0,0,0,0,0,0,0,0,0,0,0,0,0,0,0,0,0,0,0,0,0,0,0,0,0,0,0,0,0,0,0,0,0,0,0,0,0,0],"sum_hessian":[2.39E2,5.1E1,1.88E2,1.7E1,3.4E1,1.78E2,1E1,1.6E1,1E0,2E0,3.2E1,3E0,1.75E2,1E0,9E0,1.5E1,1E0,2.3E1,9E0,1.61E2,1.4E1,1.9E1,4E0,7E0,2E0,1.06E2,5.5E1,1.3E1,1E0,1.8E1,1E0,2E0,2E0,1E0,1E0,9.1E1,1.5E1,3.9E1,1.6E1,6E0,7E0,1E0,1.7E1,4E0,8.7E1,6E0,9E0,4E0,3.5E1,5E0,1.1E1,3E0,3E0,4E0,3E0],"tree_param":{"num_deleted":"0","num_feature":"6","num_nodes":"55","size_leaf_vector":"1"}},{"base_weights":[6.0690143E-3,-3.0365434E0,8.4315777E-1,-1.1957356E0,-3.394021E0,4.4340184E-1,7.271627E0,5.0276583E-1,-7.486975E-2,-3.889615E0,-1.0895973E0,1.2682524E-1,3.3566415E-1,-1.3428688E-3,2.002383E-1,3.0782372E-2,-1.5904872E-2,-4.5470414E0,-2.5786872E0,1.6490085E-2,-1.6835982E0,1.15716256E-1,2.6887238E0,-1.15949035E-1,-3.2971468E-2,-3.2714715E0,1.0520121E0,-1.2463427E-2,-1.7980188E0,-3.249976E-1,9.557282E-1,3.0249627E0,-2.5232732E-2,-3.9391656E0,-9.512918E-1,4.00275E-3,3.5447706E-2,-5.2442875E-2,-1.997711E-2,-6.1268497E-1,1.3495171E0,2.8079584E-1,2.487585E0,1.6952868E0,3.8103087E0,-2.7861452E-2,-1.0382366E-1,8.824301E-3,-3.7592594E-2,-8.4896825E-2,-1.1189674E-2,7.420817E-2,-2.889641E-2,2.2586754E-2,-1.7742062E-2,2.0866675E-2,7.766863E-2,7.177365E-2,2.3951472E-3,1.1292394E-1,4.9360503E-2],"categories":[],"categories_nodes":[],"categories_segments":[],"categories_sizes":[],"default_left":[0,0,0,0,0,0,0,0,0,0,0,0,0,0,0,0,0,0,0,0,0,0,0,0,0,0,0,0,0,0,0,0,0,0,0,0,0,0,0,0,0,0,0,0,0,0,0,0,0,0,0,0,0,0,0,0,0,0,0,0,0],"id":14,"left_children":[1,3,5,7,9,11,13,15,-1,17,19,-1,21,-1,-1,-1,-1,23,25,-1,27,29,31,-1,-1,33,35,-1,37,39,41,43,-1,45,47,-1,-1,-1,-1,49,51,53,55,57,59,-1,-1,-1,-1,-1,-1,-1,-1,-1,-1,-1,-1,-1,-1,-1,-1],"loss_changes":[6.1382513E2,3.0160126E1,4.8247147E2,3.2062645E1,4.487036E1,8.757937E1,5.988977E1,5.761939E0,0E0,1.8438965E1,1.0461746E1,0E0,9.077777E1,0E0,0E0,0E0,0E0,3.4039307E-1,3.86557E1,0E0,5.2789688E-2,6.0283802E1,2.1704445E1,0E0,0E0,1.4842758E1,7.520094E-1,0E0,1.2000847E-1,5.237266E1,5.7199883E1,8.160019E0,0E0,8.065338E-1,3.4127288E0,0E0,0E0,0E0,0E0,4.0753944E1,6.8322525E1,2.5310991E1,1.4805061E1,1.2888058E1,1.4602585E0,0E0,0E0,0E0,0E0,0E0,0E0,0E0,0E0,0E0,0E0,0E0,0E0,0E0,0E0,0E0,0E0],"parents":[2147483647,0,0,1,1,2,2,3,3,4,4,5,5,6,6,7,7,9,9,10,10,12,12,17,17,18,18,20,20,21,21,22,22,25,25,26,26,28,28,29,29,30,30,31,31,33,33,34,34,39,39,40,40,41,41,42,42,43,43,44,44],"right_children":[2,4,6,8,10,12,14,16,-1,18,20,-1,22,-1,-1,-1,-1,24,26,-1,28,30,32,-1,-1,34,36,-1,38,40,42,44,-1,46,48,-1,-1,-1,-1,50,52,54,56,58,60,-1,-1,-1,-1,-1,-1,-1,-1,-1,-1,-1,-1,-1,-1,-1,-1],"split_conditions":[-3.709754E0,-3.4788518E0,7.012548E0,6.514681E-1,3.6684234E0,-5.0123587E0,-2.1729157E0,-3.7321715E0,-7.486975E-2,1.2187451E0,-7.4484663E0,1.2682524E-1,5.064677E0,-1.3428688E-3,2.002383E-1,3.0782372E-2,-1.5904872E-2,3.581998E0,1.1279683E0,1.6490085E-2,-4.0253314E-1,1.8949201E0,2.0486372E0,-1.15949035E-1,-3.2971468E-2,-8.8035144E-2,-4.6845837E0,-1.2463427E-2,1.1252373E0,3.1101956E0,-1.0771126E0,-1.7437665E0,-2.5232732E-2,-3.078634E0,-6.104578E0,4.00275E-3,3.5447706E-2,-5.2442875E-2,-1.997711E-2,-4.3884745E0,4.732278E0,4.408554E0,-3.1882398E0,3.0896008E-1,2.6088148E-1,-2.7861452E-2,-1.0382366E-1,8.824301E-3,-3.7592594E-2,-8.4896825E-2,-1.1189674E-2,7.420817E-2,-2.889641E-2,2.2586754E-2,-1.7742062E-2,2.0866675E-2,7.766863E-2,7.177365E-2,2.3951472E-3,1.1292394E-1,4.9360503E-2],"split_indices":[0,1,0,5,2,1,2,1,0,3,0,0,2,0,0,0,0,2,5,0,4,0,5,0,0,2,0,0,1,3,2,3,0,1,0,0,0,0,0,3,3,0,1,5,1,0,0,0,0,0,0,0,0,0,0,0,0,0,0,0,0],"split_type":[0,0,0,0,0,0,0,0,0,0,0,0,0,0,0,0,0,0,0,0,0,0,0,0,0,0,0,0,0,0,0,0,0,0,0,0,0,0,0,0,0,0,0,0,0,0,0,0,0,0,0,0,0,0,0,0,0,0,0,0,0],"sum_hessian":[2.39E2,5.1E1,1.88E2,9E0,4.2E1,1.78E2,1E1,5E0,4E0,3.4E1,8E0,3E0,1.75E2,1E0,9E0,3E0,2E0,2.1E1,1.3E1,2E0,6E0,1.61E2,1.4E1,2E1,1E0,1.1E1,2E0,1E0,5E0,1.06E2,5.5E1,1.3E1,1E0,8E0,3E0,1E0,1E0,3E0,2E0,9.1E1,1.5E1,3.9E1,1.6E1,6E0,7E0,1E0,7E0,1E0,2E0,4E0,8.7E1,9E0,6E0,2.4E1,1.5E1,5E0,1.1E1,3E0,3E0,4E0,3E0],"tree_param":{"num_deleted":"0","num_feature":"6","num_nodes":"61","size_leaf_vector":"1"}},{"base_weights":[6.7140083E-3,-2.9682899E0,8.2519805E-1,-4.0870934E0,-2.3080966E0,4.3449914E-1,7.107917E0,-4.436466E0,2.3153007E-2,2.4838258E-2,-2.5383022E0,1.24447264E-1,3.287715E-1,-1.3260841E-3,1.9573294E-1,-1.1440449E-1,-2.7513182E-2,-3.2014256E0,-6.929765E-1,1.1314799E-1,2.6355875E0,-3.7192135E0,-4.899887E-1,-1.2557938E0,1.0388619E0,-3.1734738E-1,9.3368113E-1,2.9662282E0,-2.4917329E-2,-3.951652E0,8.713997E-3,1.6215254E-2,-3.663145E-2,-1.8926663E-2,-3.9131362E-2,3.952718E-3,3.5004605E-2,-5.9841245E-1,1.3186111E0,2.7389705E-1,2.431192E0,1.6635004E0,3.7353368E0,-2.2267628E-2,-1.0180552E-1,7.600006E-2,-1.7826099E-2,-2.8414568E-2,7.2634645E-2,5.912062E-2,-6.029454E-4,2.043196E-2,7.588874E-2,7.0427895E-2,2.350247E-3,1.0504766E-1,3.8927134E-2],"categories":[],"categories_nodes":[],"categories_segments":[],"categories_sizes":[],"default_left":[0,0,0,0,0,0,0,0,0,0,0,0,0,0,0,0,0,0,0,0,0,0,0,0,0,0,0,0,0,0,0,0,0,0,0,0,0,0,0,0,0,0,0,0,0,0,0,0,0,0,0,0,0,0,0,0,0],"id":15,"left_children":[1,3,5,7,9,11,13,15,-1,-1,17,-1,19,-1,-1,-1,-1,21,23,25,27,29,31,33,35,37,39,41,-1,43,-1,-1,-1,-1,-1,-1,-1,45,47,49,51,53,55,-1,-1,-1,-1,-1,-1,-1,-1,-1,-1,-1,-1,-1,-1],"loss_changes":[5.868478E2,2.8975159E1,4.6084076E2,3.5635315E1,2.9123749E1,8.434822E1,5.7240356E1,2.887085E0,0E0,0E0,3.8162872E1,0E0,8.724485E1,0E0,0E0,0E0,0E0,3.1872375E1,1.1051683E1,5.7520485E1,2.0971123E1,2.0287567E1,6.5025835E0,4.9689293E-2,7.333257E-1,4.998883E1,5.4663998E1,7.813408E0,0E0,3.3848877E0,0E0,0E0,0E0,0E0,0E0,0E0,0E0,4.053872E1,6.5635635E1,2.4982136E1,1.4100586E1,1.2409283E1,1.5877228E0,0E0,0E0,0E0,0E0,0E0,0E0,0E0,0E0,0E0,0E0,0E0,0E0,0E0,0E0],"parents":[2147483647,0,0,1,1,2,2,3,3,4,4,5,5,6,6,7,7,10,10,12,12,17,17,18,18,19,19,20,20,21,21,22,22,23,23,24,24,25,25,26,26,27,27,29,29,37,37,38,38,39,39,40,40,41,41,42,42],"right_children":[2,4,6,8,10,12,14,16,-1,-1,18,-1,20,-1,-1,-1,-1,22,24,26,28,30,32,34,36,38,40,42,-1,44,-1,-1,-1,-1,-1,-1,-1,46,48,50,52,54,56,-1,-1,-1,-1,-1,-1,-1,-1,-1,-1,-1,-1,-1,-1],"split_conditions":[-3.709754E0,-1.9434285E0,7.012548E0,4.5219083E0,-4.153976E0,-5.0123587E0,-2.1729157E0,4.199269E0,2.3153007E-2,2.4838258E-2,-4.7242947E0,1.24447264E-1,5.064677E0,-1.3260841E-3,1.9573294E-1,-1.1440449E-1,-2.7513182E-2,3.6684234E0,1.4930502E0,1.8949201E0,2.0486372E0,2.631027E0,-7.4484663E0,4.279448E0,-4.6845837E0,3.1101956E0,-1.0771126E0,-1.7437665E0,-2.4917329E-2,-1.6016535E0,8.713997E-3,1.6215254E-2,-3.663145E-2,-1.8926663E-2,-3.9131362E-2,3.952718E-3,3.5004605E-2,-5.8410378E0,-3.4277716E0,-2.8233352E0,-3.1882398E0,3.0896008E-1,4.6308684E0,-2.2267628E-2,-1.0180552E-1,7.600006E-2,-1.7826099E-2,-2.8414568E-2,7.2634645E-2,5.912062E-2,-6.029454E-4,2.043196E-2,7.588874E-2,7.0427895E-2,2.350247E-3,1.0504766E-1,3.8927134E-2],"split_indices":[0,2,0,3,1,1,2,3,0,0,0,0,2,0,0,0,0,2,5,0,5,3,0,2,0,3,2,3,0,2,0,0,0,0,0,0,0,4,2,2,1,5,4,0,0,0,0,0,0,0,0,0,0,0,0,0,0],"split_type":[0,0,0,0,0,0,0,0,0,0,0,0,0,0,0,0,0,0,0,0,0,0,0,0,0,0,0,0,0,0,0,0,0,0,0,0,0,0,0,0,0,0,0,0,0,0,0,0,0,0,0,0,0,0,0,0,0],"sum_hessian":[2.39E2,5.1E1,1.88E2,1.7E1,3.4E1,1.78E2,1E1,1.6E1,1E0,2E0,3.2E1,3E0,1.75E2,1E0,9E0,1.5E1,1E0,2.3E1,9E0,1.61E2,1.4E1,1.9E1,4E0,7E0,2E0,1.06E2,5.5E1,1.3E1,1E0,1.8E1,1E0,2E0,2E0,4E0,3E0,1E0,1E0,9.1E1,1.5E1,3.9E1,1.6E1,6E0,7E0,1E0,1.7E1,2E0,8.9E1,6E0,9E0,4E0,3.5E1,5E0,1.1E1,3E0,3E0,5E0,2E0],"tree_param":{"num_deleted":"0","num_feature":"6","num_nodes":"57","size_leaf_vector":"1"}},{"base_weights":[8.709206E-3,-2.8988671E0,8.0863124E-1,-3.9915142E0,-2.2541096E0,4.2684066E-1,6.9478927E0,-4.3339024E0,2.2863591E-2,2.4424283E-2,-2.479538E0,1.2211388E-1,3.2310373E-1,-1.309514E-3,1.9132896E-1,-1.11723125E-1,-2.7169263E-2,-3.127047E0,-6.7756224E-1,1.1190712E-1,2.5824869E0,-3.632001E0,-4.818222E-1,-1.2316563E0,1.025876E0,-3.0845675E-1,9.1310406E-1,2.9075553E0,-2.460586E-2,-3.8593907E0,8.605075E-3,1.5944999E-2,-3.6020923E-2,-1.8548131E-2,-3.839765E-2,3.9033056E-3,3.4567047E-2,-6.031505E-1,1.1821483E0,2.6851243E-1,2.3760781E0,1.6323099E0,3.6599505E0,-2.1989286E-2,-9.940178E-2,7.4733384E-2,-1.796919E-2,6.0680933E-2,-2.8029207E-2,1.6112043E-2,-3.2898124E-2,2.0006305E-2,7.414962E-2,6.9107376E-2,2.3061873E-3,1.0889514E-1,4.6878614E-2],"categories":[],"categories_nodes":[],"categories_segments":[],"categories_sizes":[],"default_left":[0,0,0,0,0,0,0,0,0,0,0,0,0,0,0,0,0,0,0,0,0,0,0,0,0,0,0,0,0,0,0,0,0,0,0,0,0,0,0,0,0,0,0,0,0,0,0,0,0,0,0,0,0,0,0,0,0],"id":16,"left_children":[1,3,5,7,9,11,13,15,-1,-1,17,-1,19,-1,-1,-1,-1,21,23,25,27,29,31,33,35,37,39,41,-1,43,-1,-1,-1,-1,-1,-1,-1,45,47,49,51,53,55,-1,-1,-1,-1,-1,-1,-1,-1,-1,-1,-1,-1,-1,-1],"loss_changes":[5.605444E2,2.7636292E1,4.4003375E2,3.4199524E1,2.7915619E1,8.1196686E1,5.4708435E1,2.5967407E0,0E0,0E0,3.6385498E1,0E0,8.3693634E1,0E0,0E0,0E0,0E0,3.0307236E1,1.0702177E1,5.484232E1,2.0253136E1,1.9411346E1,6.287636E0,5.2476883E-2,7.151077E-1,4.771511E1,5.217117E1,7.458664E0,0E0,3.1088257E0,0E0,0E0,0E0,0E0,0E0,0E0,0E0,3.9530396E1,5.434235E1,2.467608E1,1.3429497E1,1.1948294E1,1.7679596E0,0E0,0E0,0E0,0E0,0E0,0E0,0E0,0E0,0E0,0E0,0E0,0E0,0E0,0E0],"parents":[2147483647,0,0,1,1,2,2,3,3,4,4,5,5,6,6,7,7,10,10,12,12,17,17,18,18,19,19,20,20,21,21,22,22,23,23,24,24,25,25,26,26,27,27,29,29,37,37,38,38,39,39,40,40,41,41,42,42],"right_children":[2,4,6,8,10,12,14,16,-1,-1,18,-1,20,-1,-1,-1,-1,22,24,26,28,30,32,34,36,38,40,42,-1,44,-1,-1,-1,-1,-1,-1,-1,46,48,50,52,54,56,-1,-1,-1,-1,-1,-1,-1,-1,-1,-1,-1,-1,-1,-1],"split_conditions":[-3.709754E0,-1.9434285E0,7.012548E0,4.5219083E0,-4.153976E0,-5.0123587E0,-2.1729157E0,4.199269E0,2.2863591E-2,2.4424283E-2,-4.7242947E0,1.2211388E-1,5.064677E0,-1.309514E-3,1.9132896E-1,-1.11723125E-1,-2.7169263E-2,3.6684234E0,1.4930502E0,1.8949201E0,2.0486372E0,2.631027E0,-7.4484663E0,4.279448E0,-4.6845837E0,2.9877713E0,-1.0771126E0,-1.7437665E0,-2.460586E-2,-1.6016535E0,8.605075E-3,1.5944999E-2,-3.6020923E-2,-1.8548131E-2,-3.839765E-2,3.9033056E-3,3.4567047E-2,-5.8410378E0,4.732278E0,1.7260028E0,-3.1882398E0,3.0896008E-1,2.6088148E-1,-2.1989286E-2,-9.940178E-2,7.4733384E-2,-1.796919E-2,6.0680933E-2,-2.8029207E-2,1.6112043E-2,-3.2898124E-2,2.0006305E-2,7.414962E-2,6.9107376E-2,2.3061873E-3,1.0889514E-1,4.6878614E-2],"split_indices":[0,2,0,3,1,1,2,3,0,0,0,0,2,0,0,0,0,2,5,0,5,3,0,2,0,3,2,3,0,2,0,0,0,0,0,0,0,4,3,1,1,5,1,0,0,0,0,0,0,0,0,0,0,0,0,0,0],"split_type":[0,0,0,0,0,0,0,0,0,0,0,0,0,0,0,0,0,0,0,0,0,0,0,0,0,0,0,0,0,0,0,0,0,0,0,0,0,0,0,0,0,0,0,0,0,0,0,0,0,0,0,0,0,0,0,0,0],"sum_hessian":[2.39E2,5.1E1,1.88E2,1.7E1,3.4E1,1.78E2,1E1,1.6E1,1E0,2E0,3.2E1,3E0,1.75E2,1E0,9E0,1.5E1,1E0,2.3E1,9E0,1.61E2,1.4E1,1.9E1,4E0,7E0,2E0,1.06E2,5.5E1,1.3E1,1E0,1.8E1,1E0,2E0,2E0,4E0,3E0,1E0,1E0,8.9E1,1.7E1,3.9E1,1.6E1,6E0,7E0,1E0,1.7E1,2E0,8.7E1,1.1E1,6E0,3.2E1,7E0,5E0,1.1E1,3E0,3E0,4E0,3E0],"tree_param":{"num_deleted":"0","num_feature":"6","num_nodes":"57","size_leaf_vector":"1"}},{"base_weights":[1.0318698E-2,-2.8310676E0,7.9202116E-1,-3.8981724E0,-2.201383E0,4.189152E-1,6.7914705E0,-4.233725E0,2.2577798E-2,2.4017207E-2,-2.4221356E0,9.064437E-2,1.7669255E0,-1.2931466E-3,1.8702407E-1,-1.09104626E-1,-2.6829649E-2,-3.054407E0,-6.624707E-1,-2.0975369E-1,1.2994695E0,-2.8228633E-2,2.965039E0,-3.5468404E0,-4.737919E-1,-1.2079831E0,1.0130526E0,-6.625578E-1,6.146002E-1,-4.6391785E-1,2.4028683E0,2.5559592E0,-8.872722E-1,2.1646724E0,1.15129426E-1,-3.7692952E0,8.497513E-3,1.567924E-2,-3.542057E-2,-1.8177172E-2,-3.7677694E-2,3.8545132E-3,3.413496E-2,7.3487826E-2,-7.9963416E-1,-1.8550465E0,1.1615309E0,-1.8428069E0,1.2221056E0,2.62635E0,1.0250243E-2,7.681603E-2,1.2573922E-2,2.2772226E0,-1.7478935E0,1.1192423E0,3.0701973E0,-2.1714425E-2,-9.70548E-2,-8.2482986E-2,-1.52415475E-2,7.4509226E-2,-7.428968E-2,8.1860855E-2,1.9581782E-2,-6.06122E-2,-2.0010604E-2,6.321106E-2,-1.5793324E-3,8.5466474E-2,3.516772E-2,7.486172E-2,1.0534132E-2,5.0671484E-2,-5.981293E-2,5.0734915E-2,8.148313E-3,1.07499674E-1,1.9135272E-2],"categories":[],"categories_nodes":[],"categories_segments":[],"categories_sizes":[],"default_left":[0,0,0,0,0,0,0,0,0,0,0,0,0,0,0,0,0,0,0,0,0,0,0,0,0,0,0,0,0,0,0,0,0,0,0,0,0,0,0,0,0,0,0,0,0,0,0,0,0,0,0,0,0,0,0,0,0,0,0,0,0,0,0,0,0,0,0,0,0,0,0,0,0,0,0,0,0,0,0],"id":17,"left_children":[1,3,5,7,9,11,13,15,-1,-1,17,19,21,-1,-1,-1,-1,23,25,27,29,31,33,35,37,39,41,43,45,47,49,51,53,55,-1,57,-1,-1,-1,-1,-1,-1,-1,-1,59,61,63,65,67,69,-1,-1,-1,71,73,75,77,-1,-1,-1,-1,-1,-1,-1,-1,-1,-1,-1,-1,-1,-1,-1,-1,-1,-1,-1,-1,-1,-1],"loss_changes":[5.353107E2,2.6359467E1,4.202183E2,3.282306E1,2.6758148E1,7.904957E1,5.2288605E1,2.3258972E0,0E0,0E0,3.4691864E1,5.2926235E1,7.536164E1,0E0,0E0,0E0,0E0,2.8818283E1,1.0363938E1,4.4079895E1,5.7540596E1,3.5566784E1,1.7598251E1,1.857367E1,6.079791E0,5.4985046E-2,6.973419E-1,3.9876213E1,5.8885166E1,3.0150177E1,6.939789E0,2.6975918E0,3.6661522E1,1.1710312E1,0E0,2.8501892E0,0E0,0E0,0E0,0E0,0E0,0E0,0E0,0E0,3.3128975E1,5.204793E1,2.5408134E1,2.3037224E0,1.0233773E1,1.0652267E1,0E0,0E0,0E0,2.731553E0,2.918224E1,5.8368616E0,1.9383965E1,0E0,0E0,0E0,0E0,0E0,0E0,0E0,0E0,0E0,0E0,0E0,0E0,0E0,0E0,0E0,0E0,0E0,0E0,0E0,0E0,0E0,0E0],"parents":[2147483647,0,0,1,1,2,2,3,3,4,4,5,5,6,6,7,7,10,10,11,11,12,12,17,17,18,18,19,19,20,20,21,21,22,22,23,23,24,24,25,25,26,26,27,27,28,28,29,29,30,30,31,31,32,32,33,33,35,35,44,44,45,45,46,46,47,47,48,48,49,49,53,53,54,54,55,55,56,56],"right_children":[2,4,6,8,10,12,14,16,-1,-1,18,20,22,-1,-1,-1,-1,24,26,28,30,32,34,36,38,40,42,44,46,48,50,52,54,56,-1,58,-1,-1,-1,-1,-1,-1,-1,-1,60,62,64,66,68,70,-1,-1,-1,72,74,76,78,-1,-1,-1,-1,-1,-1,-1,-1,-1,-1,-1,-1,-1,-1,-1,-1,-1,-1,-1,-1,-1,-1],"split_conditions":[-3.709754E0,-1.9434285E0,7.012548E0,4.5219083E0,-4.153976E0,3.5432112E0,-2.1729157E0,4.199269E0,2.2577798E-2,2.4017207E-2,-4.7242947E0,2.9972746E0,-1.0452652E0,-1.2931466E-3,1.8702407E-1,-1.09104626E-1,-2.6829649E-2,3.6684234E0,1.4930502E0,1.8949201E0,-4.9095604E-1,-2.6906557E0,2.1720073E0,2.631027E0,-7.4484663E0,4.279448E0,-4.6845837E0,-5.8410378E0,-2.2948437E0,-2.9746654E0,5.0236425E0,-1.9807523E0,-3.2052443E0,-1.4233443E0,1.15129426E-1,-1.6016535E0,8.497513E-3,1.567924E-2,-3.542057E-2,-1.8177172E-2,-3.7677694E-2,3.8545132E-3,3.413496E-2,7.3487826E-2,-4.3884745E0,-2.8233352E0,-1.9401807E0,4.8787045E0,6.242018E-1,1.1703993E0,1.0250243E-2,7.681603E-2,1.2573922E-2,-3.4889123E0,3.757159E0,1.8115391E-1,2.6088148E-1,-2.1714425E-2,-9.70548E-2,-8.2482986E-2,-1.52415475E-2,7.4509226E-2,-7.428968E-2,8.1860855E-2,1.9581782E-2,-6.06122E-2,-2.0010604E-2,6.321106E-2,-1.5793324E-3,8.5466474E-2,3.516772E-2,7.486172E-2,1.0534132E-2,5.0671484E-2,-5.981293E-2,5.0734915E-2,8.148313E-3,1.07499674E-1,1.9135272E-2],"split_indices":[0,2,0,3,1,2,2,3,0,0,0,3,0,0,0,0,0,2,5,0,4,1,0,3,0,2,0,4,2,2,3,0,0,3,0,2,0,0,0,0,0,0,0,0,3,2,5,3,0,4,0,0,0,0,2,5,1,0,0,0,0,0,0,0,0,0,0,0,0,0,0,0,0,0,0,0,0,0,0],"split_type":[0,0,0,0,0,0,0,0,0,0,0,0,0,0,0,0,0,0,0,0,0,0,0,0,0,0,0,0,0,0,0,0,0,0,0,0,0,0,0,0,0,0,0,0,0,0,0,0,0,0,0,0,0,0,0,0,0,0,0,0,0,0,0,0,0,0,0,0,0,0,0,0,0,0,0,0,0,0,0],"sum_hessian":[2.39E2,5.1E1,1.88E2,1.7E1,3.4E1,1.78E2,1E1,1.6E1,1E0,2E0,3.2E1,1.44E2,3.4E1,1E0,9E0,1.5E1,1E0,2.3E1,9E0,1.16E2,2.8E1,1.4E1,2E1,1.9E1,4E0,7E0,2E0,7.5E1,4.1E1,1.1E1,1.7E1,3E0,1.1E1,1.5E1,5E0,1.8E1,1E0,2E0,2E0,4E0,3E0,1E0,1E0,2E0,7.3E1,7E0,3.4E1,6E0,5E0,1.5E1,2E0,2E0,1E0,2E0,9E0,8E0,7E0,1E0,1.7E1,4E0,6.9E1,1E0,6E0,4E0,3E1,3E0,3E0,2E0,3E0,8E0,7E0,1E0,1E0,1E0,8E0,3E0,5E0,4E0,3E0],"tree_param":{"num_deleted":"0","num_feature":"6","num_nodes":"79","size_leaf_vector":"1"}},{"base_weights":[1.2577902E-2,-2.764853E0,7.7667224E-1,-1.0824541E0,-3.0918097E0,4.12105E-1,6.6385694E0,4.7536722E-1,-2.735349E0,-3.5745134E0,-1.1414356E0,1.1852807E-1,3.1137672E-1,-1.2769819E-3,7.312642E0,2.8860474E-2,-1.4712269E-2,-8.2979225E-2,-3.0993644E-2,-4.2258706E0,-2.3421555E0,1.5417918E-2,-1.6580633E0,1.0805224E-1,2.4865224E0,1.9110537E-1,5.4106142E-2,-3.0958844E-2,-1.0783322E-1,-2.9826121E0,1.0003895E0,-1.0956717E-2,-1.7697098E0,-1.7991173E0,2.726199E-1,2.7987063E0,-2.355063E-2,-3.5978487E0,-8.526771E-1,3.8063289E-3,3.3708274E-2,-5.1007647E-2,-1.822033E-2,-8.795296E-2,-1.1667428E0,-2.7587034E-2,1.9314839E0,1.5769783E0,3.51788E0,-2.6494278E-2,-9.456592E-2,8.391297E-3,-3.401677E-2,3.2475162E-2,-4.6475526E-2,-1.04572475E-2,1.8195173E-2,6.0305234E-2,4.184834E-3,6.6457875E-2,2.534926E-3,9.9332E-2,3.5861358E-2],"categories":[],"categories_nodes":[],"categories_segments":[],"categories_sizes":[],"default_left":[0,0,0,0,0,0,0,0,0,0,0,0,0,0,0,0,0,0,0,0,0,0,0,0,0,0,0,0,0,0,0,0,0,0,0,0,0,0,0,0,0,0,0,0,0,0,0,0,0,0,0,0,0,0,0,0,0,0,0,0,0,0,0],"id":18,"left_children":[1,3,5,7,9,11,13,15,17,19,21,-1,23,-1,25,-1,-1,-1,-1,27,29,-1,31,33,35,-1,-1,-1,-1,37,39,-1,41,43,45,47,-1,49,51,-1,-1,-1,-1,-1,53,55,57,59,61,-1,-1,-1,-1,-1,-1,-1,-1,-1,-1,-1,-1,-1,-1],"loss_changes":[5.1148E2,2.5256958E1,4.011678E2,2.704944E1,3.6402435E1,7.6577484E1,4.997592E1,5.0138526E0,2.5088882E-1,1.7394318E1,1.0105657E1,0E0,7.756915E1,0E0,5.2667236E-1,0E0,0E0,0E0,0E0,1.4550781E-1,3.2954346E1,0E0,3.13879E-1,5.1335545E1,1.8691498E1,0E0,0E0,0E0,0E0,1.2657166E1,6.800182E-1,0E0,4.846363E-1,1.0026943E1,7.475365E1,6.753273E0,0E0,2.1232605E-1,2.8713653E0,0E0,0E0,0E0,0E0,0E0,2.1191711E1,3.8081657E1,1.9101212E1,1.0899656E1,1.8908386E0,0E0,0E0,0E0,0E0,0E0,0E0,0E0,0E0,0E0,0E0,0E0,0E0,0E0,0E0],"parents":[2147483647,0,0,1,1,2,2,3,3,4,4,5,5,6,6,7,7,8,8,9,9,10,10,12,12,14,14,19,19,20,20,22,22,23,23,24,24,29,29,30,30,32,32,33,33,34,34,35,35,37,37,38,38,44,44,45,45,46,46,47,47,48,48],"right_children":[2,4,6,8,10,12,14,16,18,20,22,-1,24,-1,26,-1,-1,-1,-1,28,30,-1,32,34,36,-1,-1,-1,-1,38,40,-1,42,44,46,48,-1,50,52,-1,-1,-1,-1,-1,54,56,58,60,62,-1,-1,-1,-1,-1,-1,-1,-1,-1,-1,-1,-1,-1,-1],"split_conditions":[-3.709754E0,-3.4788518E0,7.012548E0,6.514681E-1,3.581998E0,-5.0123587E0,-2.1729157E0,-3.7321715E0,-4.022125E0,1.2187451E0,-7.4484663E0,1.1852807E-1,5.064677E0,-1.2769819E-3,6.150053E0,2.8860474E-2,-1.4712269E-2,-8.2979225E-2,-3.0993644E-2,-3.801916E0,1.1279683E0,1.5417918E-2,-4.0253314E-1,-3.2371578E0,2.0486372E0,1.9110537E-1,5.4106142E-2,-3.0958844E-2,-1.0783322E-1,-8.8035144E-2,-4.6845837E0,-1.0956717E-2,1.1252373E0,-3.8825011E0,2.9972746E0,-1.7437665E0,-2.355063E-2,-3.078634E0,-6.104578E0,3.8063289E-3,3.3708274E-2,-5.1007647E-2,-1.822033E-2,-8.795296E-2,-3.1449366E0,1.8949201E0,5.0236425E0,3.0896008E-1,4.6308684E0,-2.6494278E-2,-9.456592E-2,8.391297E-3,-3.401677E-2,3.2475162E-2,-4.6475526E-2,-1.04572475E-2,1.8195173E-2,6.0305234E-2,4.184834E-3,6.6457875E-2,2.534926E-3,9.9332E-2,3.5861358E-2],"split_indices":[0,1,0,5,2,1,2,1,1,3,0,0,2,0,2,0,0,0,0,5,5,0,4,2,5,0,0,0,0,2,0,0,1,2,3,3,0,1,0,0,0,0,0,0,0,0,3,5,4,0,0,0,0,0,0,0,0,0,0,0,0,0,0],"split_type":[0,0,0,0,0,0,0,0,0,0,0,0,0,0,0,0,0,0,0,0,0,0,0,0,0,0,0,0,0,0,0,0,0,0,0,0,0,0,0,0,0,0,0,0,0,0,0,0,0,0,0,0,0,0,0,0,0,0,0,0,0,0,0],"sum_hessian":[2.39E2,5.1E1,1.88E2,9E0,4.2E1,1.78E2,1E1,5E0,4E0,3.3E1,9E0,3E0,1.75E2,1E0,9E0,3E0,2E0,2E0,2E0,2E1,1.3E1,2E0,7E0,1.61E2,1.4E1,8E0,1E0,1E0,1.9E1,1.1E1,2E0,1E0,6E0,1.2E1,1.49E2,1.3E1,1E0,8E0,3E0,1E0,1E0,4E0,2E0,2E0,1E1,1.27E2,2.2E1,6E0,7E0,1E0,7E0,1E0,2E0,2E0,8E0,8.4E1,4.3E1,1.7E1,5E0,3E0,3E0,5E0,2E0],"tree_param":{"num_deleted":"0","num_feature":"6","num_nodes":"63","size_leaf_vector":"1"}},{"base_weights":[1.268343E-2,-2.7036655E0,7.599716E-1,-3.7216158E0,-2.1029007E0,4.0330747E-1,6.4947815E0,-4.043757E0,2.193482E-2,2.3135917E-2,-2.3144798E0,-2.1489096E-1,1.074323E0,-1.2610197E-3,7.1543474E0,-1.04141906E-1,-2.6163101E-2,-2.919386E0,-6.312574E-1,-1.7619821E0,3.3000212E-2,5.3950864E-1,3.2133048E0,1.8685858E-1,5.342982E-2,-3.3883457E0,-4.596699E-1,-1.1595285E0,9.878845E-1,-8.648708E-2,-1.1388471E0,-2.6609942E-1,1.5047771E0,9.1614056E-1,-1.5638934E0,1.8727432E0,1.1218359E-1,-3.6015697E0,8.286404E-3,1.516095E-2,-1.3725544E0,-1.7405324E-2,-3.6219772E-2,3.7587525E-3,3.3286918E-2,1.2773561E0,-1.8177096E0,-2.202435E0,-1.1957753E-2,2.2816374E0,8.869028E-2,-4.416061E-1,1.463194E0,-2.0324118E0,3.9016128E-2,2.23907E0,2.7162394E-1,-2.105558E-2,-9.270191E-2,-4.0651035E-2,-1.0819757E-2,-5.881965E-3,5.378282E-2,-5.7878263E-2,-1.2789409E-3,-6.714562E-2,1.4766169E-2,4.9660536E-3,-5.02666E-2,6.684617E-2,-1.0700464E-2,-2.124145E-2,1.9256974E-2,6.139442E-2,-2.9620027E-2,-5.84633E-2,4.516967E-2,-6.031471E-2,-2.1475006E-2,6.9647E-2,9.977349E-3,8.04832E-3,2.1375776E-3],"categories":[],"categories_nodes":[],"categories_segments":[],"categories_sizes":[],"default_left":[0,0,0,0,0,0,0,0,0,0,0,0,0,0,0,0,0,0,0,0,0,0,0,0,0,0,0,0,0,0,0,0,0,0,0,0,0,0,0,0,0,0,0,0,0,0,0,0,0,0,0,0,0,0,0,0,0,0,0,0,0,0,0,0,0,0,0,0,0,0,0,0,0,0,0,0,0,0,0,0,0,0,0],"id":19,"left_children":[1,3,5,7,9,11,13,15,-1,-1,17,19,21,-1,23,-1,-1,25,27,29,31,33,35,-1,-1,37,39,41,43,-1,45,47,49,51,53,55,-1,57,-1,-1,59,-1,-1,-1,-1,61,63,65,67,69,71,73,75,77,-1,79,81,-1,-1,-1,-1,-1,-1,-1,-1,-1,-1,-1,-1,-1,-1,-1,-1,-1,-1,-1,-1,-1,-1,-1,-1,-1,-1],"loss_changes":[4.892296E2,2.3974335E1,3.839614E2,3.0215515E1,2.4567566E1,7.448378E1,4.784793E1,1.8526917E0,0E0,0E0,3.1757431E1,3.6108105E1,9.66468E1,0E0,8.0596924E-2,0E0,0E0,2.6126678E1,9.698939E0,9.811218E0,3.649747E1,5.6887337E1,2.0631119E1,0E0,0E0,1.7056778E1,5.698537E0,6.349087E-2,6.6312313E-1,0E0,2.0364826E1,3.392881E1,1.5199066E1,4.5211758E1,1.9274815E1,5.2571487E0,0E0,2.4608765E0,0E0,0E0,1.0918617E-2,0E0,0E0,0E0,0E0,4.4720893E0,7.790041E0,1.238755E1,2.6496897E1,1.07092285E1,4.491879E0,4.1669373E1,6.039377E1,2.3886223E0,0E0,6.937107E0,5.643219E-4,0E0,0E0,0E0,0E0,0E0,0E0,0E0,0E0,0E0,0E0,0E0,0E0,0E0,0E0,0E0,0E0,0E0,0E0,0E0,0E0,0E0,0E0,0E0,0E0,0E0,0E0],"parents":[2147483647,0,0,1,1,2,2,3,3,4,4,5,5,6,6,7,7,10,10,11,11,12,12,14,14,17,17,18,18,19,19,20,20,21,21,22,22,25,25,26,26,27,27,28,28,30,30,31,31,32,32,33,33,34,34,35,35,37,37,40,40,45,45,46,46,47,47,48,48,49,49,50,50,51,51,52,52,53,53,55,55,56,56],"right_children":[2,4,6,8,10,12,14,16,-1,-1,18,20,22,-1,24,-1,-1,26,28,30,32,34,36,-1,-1,38,40,42,44,-1,46,48,50,52,54,56,-1,58,-1,-1,60,-1,-1,-1,-1,62,64,66,68,70,72,74,76,78,-1,80,82,-1,-1,-1,-1,-1,-1,-1,-1,-1,-1,-1,-1,-1,-1,-1,-1,-1,-1,-1,-1,-1,-1,-1,-1,-1,-1],"split_conditions":[-3.709754E0,-1.9434285E0,7.012548E0,4.5219083E0,-4.153976E0,-1.0133624E0,-2.1729157E0,4.199269E0,2.193482E-2,2.3135917E-2,-4.7242947E0,-3.2371578E0,2.1265843E0,-1.2610197E-3,6.150053E0,-1.04141906E-1,-2.6163101E-2,3.6684234E0,1.4930502E0,-3.8825011E0,3.1606693E0,5.456907E0,-1.5685E0,1.8685858E-1,5.342982E-2,2.631027E0,-7.4484663E0,4.279448E0,-4.6845837E0,-8.648708E-2,-3.1449366E0,-2.1449718E0,3.218998E0,-1.6022259E0,1.8949201E0,3.0907152E0,1.1218359E-1,-1.6016535E0,8.286404E-3,1.516095E-2,-5.3725677E0,-1.7405324E-2,-3.6219772E-2,3.7587525E-3,3.3286918E-2,-3.2547438E0,-8.265791E-1,3.6307225E0,4.163106E0,-1.5929424E0,3.484562E0,1.8115391E-1,-4.3866835E0,4.0989757E0,3.9016128E-2,-1.9601504E0,4.616898E0,-2.105558E-2,-9.270191E-2,-4.0651035E-2,-1.0819757E-2,-5.881965E-3,5.378282E-2,-5.7878263E-2,-1.2789409E-3,-6.714562E-2,1.4766169E-2,4.9660536E-3,-5.02666E-2,6.684617E-2,-1.0700464E-2,-2.124145E-2,1.9256974E-2,6.139442E-2,-2.9620027E-2,-5.84633E-2,4.516967E-2,-6.031471E-2,-2.1475006E-2,6.9647E-2,9.977349E-3,8.04832E-3,2.1375776E-3],"split_indices":[0,2,0,3,1,2,2,3,0,0,0,2,0,0,2,0,0,2,5,2,3,1,4,0,0,3,0,2,0,0,0,1,0,3,0,0,0,2,0,0,0,0,0,0,0,0,1,0,1,1,0,5,5,5,0,4,0,0,0,0,0,0,0,0,0,0,0,0,0,0,0,0,0,0,0,0,0,0,0,0,0,0,0],"split_type":[0,0,0,0,0,0,0,0,0,0,0,0,0,0,0,0,0,0,0,0,0,0,0,0,0,0,0,0,0,0,0,0,0,0,0,0,0,0,0,0,0,0,0,0,0,0,0,0,0,0,0,0,0,0,0,0,0,0,0,0,0,0,0,0,0,0,0,0,0,0,0,0,0,0,0,0,0,0,0,0,0,0,0],"sum_hessian":[2.39E2,5.1E1,1.88E2,1.7E1,3.4E1,1.78E2,1E1,1.6E1,1E0,2E0,3.2E1,9.3E1,8.5E1,1E0,9E0,1.5E1,1E0,2.3E1,9E0,1.2E1,8.1E1,6.9E1,1.6E1,8E0,1E0,1.9E1,4E0,7E0,2E0,2E0,1E1,6.8E1,1.3E1,5.9E1,1E1,9E0,7E0,1.8E1,1E0,2E0,2E0,4E0,3E0,1E0,1E0,2E0,8E0,7E0,6.1E1,8E0,5E0,1.7E1,4.2E1,9E0,1E0,7E0,2E0,1E0,1.7E1,1E0,1E0,1E0,1E0,6E0,2E0,6E0,1E0,5.6E1,5E0,7E0,1E0,2E0,3E0,3E0,1.4E1,3E0,3.9E1,6E0,3E0,5E0,2E0,1E0,1E0],"tree_param":{"num_deleted":"0","num_feature":"6","num_nodes":"83","size_leaf_vector":"1"}},{"base_weights":[1.2499199E-2,-2.6407583E0,7.4242985E-1,-1.0376546E0,-2.9521601E0,3.9342844E-1,6.354141E0,4.6027532E-1,-2.6276395E0,-3.4114423E0,-1.0953851E0,7.8872144E-2,1.6853493E0,-1.2452602E-3,1.7498794E-1,2.7893055E-2,-1.4176972E-2,-7.995587E-2,-2.952911E-2,-4.0330977E0,-2.2352843E0,1.4908274E-2,-1.5928555E0,-2.031932E-1,1.2141402E0,-6.630262E-3,2.8136516E0,-2.941308E-2,-1.0292752E-1,-2.8517156E0,9.7553605E-1,-1.0684514E-2,-1.6982975E0,-6.311535E-1,5.760491E-1,-4.438956E-1,2.2520452E0,2.498321E0,-8.4106153E-1,2.0555015E0,1.0916108E-1,-8.6031504E-2,-8.123114E-1,3.711772E-3,3.287083E-2,-4.895854E-2,-1.7469788E-2,7.168447E-2,-7.644568E-1,-1.8198953E0,1.107235E0,-1.7399734E0,1.1421777E0,2.4638598E0,9.292142E-3,7.466557E-2,1.291771E-2,2.2256155E0,-1.6769584E0,1.0623902E0,2.915814E0,8.182824E-3,-3.2532264E-2,-7.9878755E-2,-1.4497876E-2,7.3288344E-2,-7.2936535E-2,7.9760425E-2,1.8388016E-2,-5.7081044E-2,-1.904279E-2,6.0038347E-2,-2.1970929E-3,8.104212E-2,3.202061E-2,7.349204E-2,9.968543E-3,4.940137E-2,-5.756026E-2,4.7636475E-2,8.081985E-3,1.02912605E-1,1.714995E-2],"categories":[],"categories_nodes":[],"categories_segments":[],"categories_sizes":[],"default_left":[0,0,0,0,0,0,0,0,0,0,0,0,0,0,0,0,0,0,0,0,0,0,0,0,0,0,0,0,0,0,0,0,0,0,0,0,0,0,0,0,0,0,0,0,0,0,0,0,0,0,0,0,0,0,0,0,0,0,0,0,0,0,0,0,0,0,0,0,0,0,0,0,0,0,0,0,0,0,0,0,0,0,0],"id":20,"left_children":[1,3,5,7,9,11,13,15,17,19,21,23,25,-1,-1,-1,-1,-1,-1,27,29,-1,31,33,35,37,39,-1,-1,41,43,-1,45,47,49,51,53,55,57,59,-1,-1,61,-1,-1,-1,-1,-1,63,65,67,69,71,73,-1,-1,-1,75,77,79,81,-1,-1,-1,-1,-1,-1,-1,-1,-1,-1,-1,-1,-1,-1,-1,-1,-1,-1,-1,-1,-1,-1],"loss_changes":[4.6676712E2,2.2895569E1,3.676557E2,2.50263E1,3.293286E1,7.260943E1,4.581122E1,4.6729593E0,3.4911728E-1,1.5844482E1,9.365655E0,4.6678574E1,6.683591E1,0E0,0E0,0E0,0E0,0E0,0E0,1.9525146E-1,3.0491455E1,0E0,2.5730133E-1,3.9381294E1,5.09053E1,3.3454388E1,1.5746994E1,0E0,0E0,1.1632462E1,6.4664793E-1,0E0,4.5093727E-1,3.7635796E1,5.546811E1,2.6655453E1,6.253395E0,2.3272858E0,3.4493378E1,1.0572441E1,0E0,0E0,2.6549394E0,0E0,0E0,0E0,0E0,0E0,3.1340855E1,5.0272697E1,2.475558E1,1.981039E0,9.505568E0,1.0571083E1,0E0,0E0,0E0,2.7413511E0,2.7397535E1,4.992096E0,1.8594627E1,0E0,0E0,0E0,0E0,0E0,0E0,0E0,0E0,0E0,0E0,0E0,0E0,0E0,0E0,0E0,0E0,0E0,0E0,0E0,0E0,0E0,0E0],"parents":[2147483647,0,0,1,1,2,2,3,3,4,4,5,5,6,6,7,7,8,8,9,9,10,10,11,11,12,12,19,19,20,20,22,22,23,23,24,24,25,25,26,26,29,29,30,30,32,32,33,33,34,34,35,35,36,36,37,37,38,38,39,39,42,42,48,48,49,49,50,50,51,51,52,52,53,53,57,57,58,58,59,59,60,60],"right_children":[2,4,6,8,10,12,14,16,18,20,22,24,26,-1,-1,-1,-1,-1,-1,28,30,-1,32,34,36,38,40,-1,-1,42,44,-1,46,48,50,52,54,56,58,60,-1,-1,62,-1,-1,-1,-1,-1,64,66,68,70,72,74,-1,-1,-1,76,78,80,82,-1,-1,-1,-1,-1,-1,-1,-1,-1,-1,-1,-1,-1,-1,-1,-1,-1,-1,-1,-1,-1,-1],"split_conditions":[-3.709754E0,-3.4788518E0,7.012548E0,6.514681E-1,3.581998E0,3.5432112E0,-2.1729157E0,-3.7321715E0,-4.022125E0,1.2187451E0,-7.4484663E0,2.9972746E0,-1.0452652E0,-1.2452602E-3,1.7498794E-1,2.7893055E-2,-1.4176972E-2,-7.995587E-2,-2.952911E-2,-3.801916E0,1.1279683E0,1.4908274E-2,-4.0253314E-1,1.8949201E0,-4.9095604E-1,-2.6906557E0,2.1720073E0,-2.941308E-2,-1.0292752E-1,-8.8035144E-2,-4.6845837E0,-1.0684514E-2,1.1252373E0,-5.8410378E0,-2.2948437E0,-2.9746654E0,5.0236425E0,-1.9807523E0,-3.2052443E0,-1.4233443E0,1.0916108E-1,-8.6031504E-2,-6.104578E0,3.711772E-3,3.287083E-2,-4.895854E-2,-1.7469788E-2,7.168447E-2,-4.3884745E0,-2.8233352E0,-1.9401807E0,4.8787045E0,6.242018E-1,1.1703993E0,9.292142E-3,7.466557E-2,1.291771E-2,-3.4889123E0,3.757159E0,1.8115391E-1,2.6088148E-1,8.182824E-3,-3.2532264E-2,-7.9878755E-2,-1.4497876E-2,7.3288344E-2,-7.2936535E-2,7.9760425E-2,1.8388016E-2,-5.7081044E-2,-1.904279E-2,6.0038347E-2,-2.1970929E-3,8.104212E-2,3.202061E-2,7.349204E-2,9.968543E-3,4.940137E-2,-5.756026E-2,4.7636475E-2,8.081985E-3,1.02912605E-1,1.714995E-2],"split_indices":[0,1,0,5,2,2,2,1,1,3,0,3,0,0,0,0,0,0,0,5,5,0,4,0,4,1,0,0,0,2,0,0,1,4,2,2,3,0,0,3,0,0,0,0,0,0,0,0,3,2,5,3,0,4,0,0,0,0,2,5,1,0,0,0,0,0,0,0,0,0,0,0,0,0,0,0,0,0,0,0,0,0,0],"split_type":[0,0,0,0,0,0,0,0,0,0,0,0,0,0,0,0,0,0,0,0,0,0,0,0,0,0,0,0,0,0,0,0,0,0,0,0,0,0,0,0,0,0,0,0,0,0,0,0,0,0,0,0,0,0,0,0,0,0,0,0,0,0,0,0,0,0,0,0,0,0,0,0,0,0,0,0,0,0,0,0,0,0,0],"sum_hessian":[2.39E2,5.1E1,1.88E2,9E0,4.2E1,1.78E2,1E1,5E0,4E0,3.3E1,9E0,1.44E2,3.4E1,1E0,9E0,3E0,2E0,2E0,2E0,2E1,1.3E1,2E0,7E0,1.16E2,2.8E1,1.4E1,2E1,1E0,1.9E1,1.1E1,2E0,1E0,6E0,7.5E1,4.1E1,1.1E1,1.7E1,3E0,1.1E1,1.5E1,5E0,8E0,3E0,1E0,1E0,4E0,2E0,2E0,7.3E1,7E0,3.4E1,6E0,5E0,1.5E1,2E0,2E0,1E0,2E0,9E0,8E0,7E0,1E0,2E0,4E0,6.9E1,1E0,6E0,4E0,3E1,3E0,3E0,2E0,3E0,8E0,7E0,1E0,1E0,1E0,8E0,3E0,5E0,4E0,3E0],"tree_param":{"num_deleted":"0","num_feature":"6","num_nodes":"83","size_leaf_vector":"1"}},{"base_weights":[1.4008934E-2,-2.5817416E0,7.2810954E-1,-3.5506237E0,-2.0096953E0,3.8709942E-1,6.2110825E0,-3.8597755E0,2.1311974E-2,2.228543E-2,-2.2125328E0,1.1380503E-1,2.9023856E-1,-1.2296916E-3,6.842028E0,-9.94302E-2,-2.4760664E-2,-2.791642E0,-6.0141784E-1,9.670661E-2,2.3610346E0,1.7881756E-1,5.057459E-2,-3.2376018E0,-4.4947433E-1,-1.1130254E0,9.633417E-1,-1.7038623E0,2.521112E-1,2.6563456E0,-2.216649E-2,-3.442025E0,8.080542E-3,1.465981E-2,-1.3355163E0,-1.666543E-2,-3.4819484E-2,3.6653758E-3,3.245994E-2,-8.3904296E-2,-1.0983359E0,-2.8781258E-2,1.8043774E0,1.5032456E0,3.3332648E0,-2.0423269E-2,-8.856197E-2,-3.953091E-2,-1.05509525E-2,3.1018076E-2,-4.389962E-2,3.8085692E-3,-4.1068774E-2,5.6420635E-2,3.6575955E-3,6.24655E-2,3.3014955E-3,1.0020044E-1,4.14127E-2],"categories":[],"categories_nodes":[],"categories_segments":[],"categories_sizes":[],"default_left":[0,0,0,0,0,0,0,0,0,0,0,0,0,0,0,0,0,0,0,0,0,0,0,0,0,0,0,0,0,0,0,0,0,0,0,0,0,0,0,0,0,0,0,0,0,0,0,0,0,0,0,0,0,0,0,0,0,0,0],"id":21,"left_children":[1,3,5,7,9,11,13,15,-1,-1,17,-1,19,-1,21,-1,-1,23,25,27,29,-1,-1,31,33,35,37,39,41,43,-1,45,-1,-1,47,-1,-1,-1,-1,-1,49,51,53,55,57,-1,-1,-1,-1,-1,-1,-1,-1,-1,-1,-1,-1,-1,-1],"loss_changes":[4.4675027E2,2.168509E1,3.509783E2,2.779248E1,2.2568222E1,7.089369E1,4.378534E1,1.7890778E0,0E0,0E0,2.9110428E1,0E0,7.030635E1,0E0,5.01709E-1,0E0,0E0,2.3613068E1,9.077652E0,4.5759865E1,1.674147E1,0E0,0E0,1.5670837E1,5.372243E0,7.0625305E-2,6.305826E-1,9.3205185E0,6.545491E1,5.9170685E0,0E0,2.1163483E0,0E0,0E0,6.038189E-3,0E0,0E0,0E0,0E0,0E0,1.9099766E1,3.766833E1,1.6924232E1,9.223936E0,2.41185E0,0E0,0E0,0E0,0E0,0E0,0E0,0E0,0E0,0E0,0E0,0E0,0E0,0E0,0E0],"parents":[2147483647,0,0,1,1,2,2,3,3,4,4,5,5,6,6,7,7,10,10,12,12,14,14,17,17,18,18,19,19,20,20,23,23,24,24,25,25,26,26,27,27,28,28,29,29,31,31,34,34,40,40,41,41,42,42,43,43,44,44],"right_children":[2,4,6,8,10,12,14,16,-1,-1,18,-1,20,-1,22,-1,-1,24,26,28,30,-1,-1,32,34,36,38,40,42,44,-1,46,-1,-1,48,-1,-1,-1,-1,-1,50,52,54,56,58,-1,-1,-1,-1,-1,-1,-1,-1,-1,-1,-1,-1,-1,-1],"split_conditions":[-3.709754E0,-1.9434285E0,7.012548E0,4.5219083E0,-4.153976E0,-5.0123587E0,-2.1729157E0,4.199269E0,2.1311974E-2,2.228543E-2,-4.7242947E0,1.1380503E-1,5.064677E0,-1.2296916E-3,6.150053E0,-9.94302E-2,-2.4760664E-2,3.6684234E0,1.4930502E0,-3.2371578E0,2.0486372E0,1.7881756E-1,5.057459E-2,2.631027E0,-7.4484663E0,4.279448E0,-4.6845837E0,-3.8825011E0,2.9972746E0,-1.7437665E0,-2.216649E-2,-1.6016535E0,8.080542E-3,1.465981E-2,-5.3725677E0,-1.666543E-2,-3.4819484E-2,3.6653758E-3,3.245994E-2,-8.3904296E-2,-3.1449366E0,2.630159E0,5.0236425E0,3.0896008E-1,2.6088148E-1,-2.0423269E-2,-8.856197E-2,-3.953091E-2,-1.05509525E-2,3.1018076E-2,-4.389962E-2,3.8085692E-3,-4.1068774E-2,5.6420635E-2,3.6575955E-3,6.24655E-2,3.3014955E-3,1.0020044E-1,4.14127E-2],"split_indices":[0,2,0,3,1,1,2,3,0,0,0,0,2,0,2,0,0,2,5,2,5,0,0,3,0,2,0,2,3,3,0,2,0,0,0,0,0,0,0,0,0,3,3,5,1,0,0,0,0,0,0,0,0,0,0,0,0,0,0],"split_type":[0,0,0,0,0,0,0,0,0,0,0,0,0,0,0,0,0,0,0,0,0,0,0,0,0,0,0,0,0,0,0,0,0,0,0,0,0,0,0,0,0,0,0,0,0,0,0,0,0,0,0,0,0,0,0,0,0,0,0],"sum_hessian":[2.39E2,5.1E1,1.88E2,1.7E1,3.4E1,1.78E2,1E1,1.6E1,1E0,2E0,3.2E1,3E0,1.75E2,1E0,9E0,1.5E1,1E0,2.3E1,9E0,1.61E2,1.4E1,8E0,1E0,1.9E1,4E0,7E0,2E0,1.2E1,1.49E2,1.3E1,1E0,1.8E1,1E0,2E0,2E0,4E0,3E0,1E0,1E0,2E0,1E1,1.27E2,2.2E1,6E0,7E0,1E0,1.7E1,1E0,1E0,2E0,8E0,1.15E2,1.2E1,1.7E1,5E0,3E0,3E0,4E0,3E0],"tree_param":{"num_deleted":"0","num_feature":"6","num_nodes":"59","size_leaf_vector":"1"}},{"base_weights":[1.45790875E-2,-2.5216649E0,7.1230453E-1,-9.948474E-1,-2.8180954E0,3.7867898E-1,6.076547E0,4.4562927E-1,-2.5244498E0,-3.2548923E0,-1.051176E0,1.116712E-1,2.8361446E-1,-1.2143254E-3,6.6939163E0,2.6958292E-2,-1.3662927E-2,-7.705667E-2,-2.8128743E-2,-3.8490527E0,-2.1311598E0,1.4415479E-2,-1.5302022E0,9.383211E-2,2.3143563E0,1.7484382E-1,4.99424E-2,-2.793839E-2,-9.8243795E-2,-2.7241778E0,9.5129997E-1,-1.8142811E0,-1.9813824E-2,-1.668711E0,2.459603E-1,2.6047497E0,-2.1889413E-2,-3.2883244E0,-7.7380395E-1,3.6195635E-3,3.2054186E-2,-5.1738556E-2,-9.915459E-3,-8.250589E-2,-1.0720487E0,-2.8353162E-2,1.7618804E0,1.4750596E0,3.2676349E0,-2.445116E-2,-8.637133E-2,7.979536E-3,-3.1113157E-2,3.0501103E-2,-4.2924076E-2,3.7141654E-3,-4.0121026E-2,5.508849E-2,3.5814007E-3,6.129427E-2,3.23959E-3,9.306132E-2,3.1719696E-2],"categories":[],"categories_nodes":[],"categories_segments":[],"categories_sizes":[],"default_left":[0,0,0,0,0,0,0,0,0,0,0,0,0,0,0,0,0,0,0,0,0,0,0,0,0,0,0,0,0,0,0,0,0,0,0,0,0,0,0,0,0,0,0,0,0,0,0,0,0,0,0,0,0,0,0,0,0,0,0,0,0,0,0],"id":22,"left_children":[1,3,5,7,9,11,13,15,17,19,21,-1,23,-1,25,-1,-1,-1,-1,27,29,-1,31,33,35,-1,-1,-1,-1,37,39,41,-1,43,45,47,-1,49,51,-1,-1,-1,-1,-1,53,55,57,59,61,-1,-1,-1,-1,-1,-1,-1,-1,-1,-1,-1,-1,-1,-1],"loss_changes":[4.2650067E2,2.0731354E1,3.359425E2,2.3158535E1,2.976532E1,6.829967E1,4.1921265E1,4.355727E0,4.3475533E-1,1.4498077E1,8.679909E0,0E0,6.761305E1,0E0,1.09558105E-1,0E0,0E0,0E0,0E0,2.3742676E-1,2.8182873E1,0E0,2.3849106E-1,4.3847897E1,1.6175705E1,0E0,0E0,0E0,0E0,1.0659042E1,6.149156E-1,9.885502E-1,0E0,9.1170845E0,6.2425545E1,5.664009E0,0E0,8.354187E-2,2.4551997E0,0E0,0E0,0E0,0E0,0E0,1.8355011E1,3.5939148E1,1.6126572E1,8.88128E0,2.5498886E0,0E0,0E0,0E0,0E0,0E0,0E0,0E0,0E0,0E0,0E0,0E0,0E0,0E0,0E0],"parents":[2147483647,0,0,1,1,2,2,3,3,4,4,5,5,6,6,7,7,8,8,9,9,10,10,12,12,14,14,19,19,20,20,22,22,23,23,24,24,29,29,30,30,31,31,33,33,34,34,35,35,37,37,38,38,44,44,45,45,46,46,47,47,48,48],"right_children":[2,4,6,8,10,12,14,16,18,20,22,-1,24,-1,26,-1,-1,-1,-1,28,30,-1,32,34,36,-1,-1,-1,-1,38,40,42,-1,44,46,48,-1,50,52,-1,-1,-1,-1,-1,54,56,58,60,62,-1,-1,-1,-1,-1,-1,-1,-1,-1,-1,-1,-1,-1,-1],"split_conditions":[-3.709754E0,-3.4788518E0,7.012548E0,6.514681E-1,3.581998E0,-5.0123587E0,-2.1729157E0,-3.7321715E0,-4.022125E0,1.2187451E0,-7.4484663E0,1.116712E-1,5.064677E0,-1.2143254E-3,6.150053E0,2.6958292E-2,-1.3662927E-2,-7.705667E-2,-2.8128743E-2,-3.801916E0,1.1279683E0,1.4415479E-2,4.3659325E0,-3.2371578E0,2.0486372E0,1.7484382E-1,4.99424E-2,-2.793839E-2,-9.8243795E-2,-8.8035144E-2,-4.6845837E0,1.1252373E0,-1.9813824E-2,-3.8825011E0,2.9972746E0,-1.7437665E0,-2.1889413E-2,-3.078634E0,-6.104578E0,3.6195635E-3,3.2054186E-2,-5.1738556E-2,-9.915459E-3,-8.250589E-2,-3.1449366E0,2.630159E0,5.0236425E0,3.0896008E-1,4.6308684E0,-2.445116E-2,-8.637133E-2,7.979536E-3,-3.1113157E-2,3.0501103E-2,-4.2924076E-2,3.7141654E-3,-4.0121026E-2,5.508849E-2,3.5814007E-3,6.129427E-2,3.23959E-3,9.306132E-2,3.1719696E-2],"split_indices":[0,1,0,5,2,1,2,1,1,3,0,0,2,0,2,0,0,0,0,5,5,0,2,2,5,0,0,0,0,2,0,1,0,2,3,3,0,1,0,0,0,0,0,0,0,3,3,5,4,0,0,0,0,0,0,0,0,0,0,0,0,0,0],"split_type":[0,0,0,0,0,0,0,0,0,0,0,0,0,0,0,0,0,0,0,0,0,0,0,0,0,0,0,0,0,0,0,0,0,0,0,0,0,0,0,0,0,0,0,0,0,0,0,0,0,0,0,0,0,0,0,0,0,0,0,0,0,0,0],"sum_hessian":[2.39E2,5.1E1,1.88E2,9E0,4.2E1,1.78E2,1E1,5E0,4E0,3.3E1,9E0,3E0,1.75E2,1E0,9E0,3E0,2E0,2E0,2E0,2E1,1.3E1,2E0,7E0,1.61E2,1.4E1,8E0,1E0,1E0,1.9E1,1.1E1,2E0,4E0,3E0,1.2E1,1.49E2,1.3E1,1E0,8E0,3E0,1E0,1E0,3E0,1E0,2E0,1E1,1.27E2,2.2E1,6E0,7E0,1E0,7E0,1E0,2E0,2E0,8E0,1.15E2,1.2E1,1.7E1,5E0,3E0,3E0,5E0,2E0],"tree_param":{"num_deleted":"0","num_feature":"6","num_nodes":"63","size_leaf_vector":"1"}},{"base_weights":[1.4408567E-2,-2.4659965E0,6.967718E-1,-3.3896587E0,-1.9205133E0,3.7036502E-1,5.9449577E0,-3.6865025E0,2.0708596E-2,2.1464698E-2,-2.1149614E0,1.0957736E-1,2.770623E-1,-1.1991501E-3,1.6372617E-1,-9.4904535E-2,-2.414552E-2,-2.6682746E0,-5.755135E-1,9.103753E-2,2.267659E0,-3.092735E0,-4.367779E-1,-1.0716702E0,9.3940896E-1,-2.823196E-1,8.027907E-1,2.5531533E0,-2.1615792E-2,-3.2886887E0,7.879794E-3,1.4175217E-2,-1.2949718E0,-1.5990345E-2,-3.359558E-2,3.5743236E-3,3.1653512E-2,-7.7561975E-2,-1.4267771E-1,-3.1615764E-1,1.5361148E0,1.4474021E0,3.2015414E0,-1.9816374E-2,-8.458302E-2,-3.839004E-2,-1.0171401E-2,-3.7559066E-2,3.1161953E-3,3.527951E-2,-5.042873E-2,2.2864573E-2,7.340833E-2,6.0144998E-2,3.1788468E-3,9.66419E-2,3.92747E-2],"categories":[],"categories_nodes":[],"categories_segments":[],"categories_sizes":[],"default_left":[0,0,0,0,0,0,0,0,0,0,0,0,0,0,0,0,0,0,0,0,0,0,0,0,0,0,0,0,0,0,0,0,0,0,0,0,0,0,0,0,0,0,0,0,0,0,0,0,0,0,0,0,0,0,0,0,0],"id":23,"left_children":[1,3,5,7,9,11,13,15,-1,-1,17,-1,19,-1,-1,-1,-1,21,23,25,27,29,31,33,35,37,39,41,-1,43,-1,-1,45,-1,-1,-1,-1,-1,47,49,51,53,55,-1,-1,-1,-1,-1,-1,-1,-1,-1,-1,-1,-1,-1,-1],"loss_changes":[4.0792715E2,1.968991E1,3.215634E2,2.5591293E1,2.0729568E1,6.580296E1,4.0136993E1,1.4063873E0,0E0,0E0,2.6573685E1,0E0,6.496641E1,0E0,0E0,0E0,0E0,2.1381516E1,8.523126E0,4.327622E1,1.5621315E1,1.4392487E1,5.0414777E0,8.115578E-2,5.9963846E-1,4.1695282E1,4.6436565E1,5.4034576E0,0E0,1.8060913E0,0E0,0E0,1.6352654E-2,0E0,0E0,0E0,0E0,0E0,3.7625546E1,7.0424866E1,2.6904015E1,8.551353E0,2.5903244E0,0E0,0E0,0E0,0E0,0E0,0E0,0E0,0E0,0E0,0E0,0E0,0E0,0E0,0E0],"parents":[2147483647,0,0,1,1,2,2,3,3,4,4,5,5,6,6,7,7,10,10,12,12,17,17,18,18,19,19,20,20,21,21,22,22,23,23,24,24,25,25,26,26,27,27,29,29,32,32,38,38,39,39,40,40,41,41,42,42],"right_children":[2,4,6,8,10,12,14,16,-1,-1,18,-1,20,-1,-1,-1,-1,22,24,26,28,30,32,34,36,38,40,42,-1,44,-1,-1,46,-1,-1,-1,-1,-1,48,50,52,54,56,-1,-1,-1,-1,-1,-1,-1,-1,-1,-1,-1,-1,-1,-1],"split_conditions":[-3.709754E0,-1.9434285E0,7.012548E0,4.5219083E0,-4.153976E0,-5.0123587E0,-2.1729157E0,4.199269E0,2.0708596E-2,2.1464698E-2,-4.7242947E0,1.0957736E-1,5.064677E0,-1.1991501E-3,1.6372617E-1,-9.4904535E-2,-2.414552E-2,3.6684234E0,1.4930502E0,1.8949201E0,2.0486372E0,2.631027E0,-7.4484663E0,4.279448E0,-4.6845837E0,-4.3884745E0,-1.874739E0,-1.7437665E0,-2.1615792E-2,-1.6016535E0,7.879794E-3,1.4175217E-2,-5.3725677E0,-1.5990345E-2,-3.359558E-2,3.5743236E-3,3.1653512E-2,-7.7561975E-2,-3.2528632E0,-2.7861735E-1,1.4223517E0,3.0896008E-1,2.6088148E-1,-1.9816374E-2,-8.458302E-2,-3.839004E-2,-1.0171401E-2,-3.7559066E-2,3.1161953E-3,3.527951E-2,-5.042873E-2,2.2864573E-2,7.340833E-2,6.0144998E-2,3.1788468E-3,9.66419E-2,3.92747E-2],"split_indices":[0,2,0,3,1,1,2,3,0,0,0,0,2,0,0,0,0,2,5,0,5,3,0,2,0,3,2,3,0,2,0,0,0,0,0,0,0,0,1,4,4,5,1,0,0,0,0,0,0,0,0,0,0,0,0,0,0],"split_type":[0,0,0,0,0,0,0,0,0,0,0,0,0,0,0,0,0,0,0,0,0,0,0,0,0,0,0,0,0,0,0,0,0,0,0,0,0,0,0,0,0,0,0,0,0,0,0,0,0,0,0,0,0,0,0,0,0],"sum_hessian":[2.39E2,5.1E1,1.88E2,1.7E1,3.4E1,1.78E2,1E1,1.6E1,1E0,2E0,3.2E1,3E0,1.75E2,1E0,9E0,1.5E1,1E0,2.3E1,9E0,1.61E2,1.4E1,1.9E1,4E0,7E0,2E0,1.06E2,5.5E1,1.3E1,1E0,1.8E1,1E0,2E0,2E0,4E0,3E0,1E0,1E0,4E0,1.02E2,2.2E1,3.3E1,6E0,7E0,1E0,1.7E1,1E0,1E0,1.6E1,8.6E1,1.1E1,1.1E1,2.4E1,9E0,3E0,3E0,4E0,3E0],"tree_param":{"num_deleted":"0","num_feature":"6","num_nodes":"57","size_leaf_vector":"1"}},{"base_weights":[1.4867896E-2,-2.4086182E0,6.815685E-1,-9.539421E-1,-2.6909008E0,3.6253774E-1,5.811108E0,4.3142828E-1,-2.4255981E0,-3.1063025E0,-1.0094447E0,-2.1282378E-1,9.8720574E-1,-1.1841655E-3,6.4016924E0,2.6055086E-2,-1.31687E-2,-7.4276656E-2,-2.6789937E-2,-3.6733646E0,-2.0338306E0,1.3938959E-2,-1.4708903E0,-2.6411443E0,-7.555238E-2,4.8281497E-1,3.006038E0,1.6732E-1,4.727154E-2,-2.6531864E-2,-9.3772635E-2,-2.6047192E0,9.2766637E-1,-1.7467428E0,-1.8958801E-2,-7.912781E-2,-6.8158866E-3,6.706731E-1,-6.091564E-1,8.4082013E-1,-1.5138326E0,1.7878768E0,1.03824615E-1,-7.8634314E-2,-7.3706865E-1,3.529644E-3,3.1257845E-2,-4.9789894E-2,-9.591639E-3,-3.972502E-1,1.879324E0,-2.0510736E0,-3.451457E-1,-4.5083654E-1,1.3619596E0,-1.9685657E0,3.7918735E-2,2.1464543E0,2.3571174E-1,7.781291E-3,-2.9756485E-2,-4.0308893E-2,1.6211046E-2,5.7760388E-2,-6.811543E-2,-1.38437515E-2,-6.1447244E-2,-2.5511626E-2,2.1672422E-2,5.6973737E-2,-2.8718093E-2,-5.648737E-2,4.2251404E-2,-5.8305908E-2,-2.1000022E-2,6.704941E-2,8.998132E-3,7.3380233E-3,1.5011668E-3],"categories":[],"categories_nodes":[],"categories_segments":[],"categories_sizes":[],"default_left":[0,0,0,0,0,0,0,0,0,0,0,0,0,0,0,0,0,0,0,0,0,0,0,0,0,0,0,0,0,0,0,0,0,0,0,0,0,0,0,0,0,0,0,0,0,0,0,0,0,0,0,0,0,0,0,0,0,0,0,0,0,0,0,0,0,0,0,0,0,0,0,0,0,0,0,0,0,0,0],"id":24,"left_children":[1,3,5,7,9,11,13,15,17,19,21,23,25,-1,27,-1,-1,-1,-1,29,31,-1,33,35,37,39,41,-1,-1,-1,-1,43,45,47,-1,-1,-1,49,51,53,55,57,-1,-1,59,-1,-1,-1,-1,61,63,65,67,69,71,73,-1,75,77,-1,-1,-1,-1,-1,-1,-1,-1,-1,-1,-1,-1,-1,-1,-1,-1,-1,-1,-1,-1],"loss_changes":[3.894192E2,1.8785797E1,3.0718814E2,2.1434359E1,2.6898987E1,6.454448E1,3.8362366E1,4.06036E0,5.090332E-1,1.320639E1,8.050972E0,3.1134315E1,8.6120735E1,0E0,4.7625732E-1,0E0,0E0,0E0,0E0,2.7264404E-1,2.6085888E1,0E0,2.4779701E-1,5.3421936E0,3.6245552E1,5.130957E1,1.6326797E1,0E0,0E0,0E0,0E0,9.798668E0,5.8474135E-1,9.046612E-1,0E0,0E0,0E0,4.979492E1,1.9468204E1,4.1002018E1,1.8144987E1,5.059765E0,0E0,0E0,2.270826E0,0E0,0E0,0E0,0E0,2.7728668E1,4.201997E1,3.5120277E0,3.853636E1,3.690937E1,5.491069E1,2.1451797E0,0E0,6.688492E0,1.2840226E-2,0E0,0E0,0E0,0E0,0E0,0E0,0E0,0E0,0E0,0E0,0E0,0E0,0E0,0E0,0E0,0E0,0E0,0E0,0E0,0E0],"parents":[2147483647,0,0,1,1,2,2,3,3,4,4,5,5,6,6,7,7,8,8,9,9,10,10,11,11,12,12,14,14,19,19,20,20,22,22,23,23,24,24,25,25,26,26,31,31,32,32,33,33,37,37,38,38,39,39,40,40,41,41,44,44,49,49,50,50,51,51,52,52,53,53,54,54,55,55,57,57,58,58],"right_children":[2,4,6,8,10,12,14,16,18,20,22,24,26,-1,28,-1,-1,-1,-1,30,32,-1,34,36,38,40,42,-1,-1,-1,-1,44,46,48,-1,-1,-1,50,52,54,56,58,-1,-1,60,-1,-1,-1,-1,62,64,66,68,70,72,74,-1,76,78,-1,-1,-1,-1,-1,-1,-1,-1,-1,-1,-1,-1,-1,-1,-1,-1,-1,-1,-1,-1],"split_conditions":[-3.709754E0,-3.4788518E0,7.012548E0,6.514681E-1,3.581998E0,-1.0133624E0,-2.1729157E0,-3.7321715E0,-4.022125E0,1.2187451E0,-7.4484663E0,-4.541592E0,2.1265843E0,-1.1841655E-3,6.150053E0,2.6055086E-2,-1.31687E-2,-7.4276656E-2,-2.6789937E-2,-3.801916E0,1.1279683E0,1.3938959E-2,4.3659325E0,1.6158844E0,-9.003078E-1,5.456907E0,-1.5685E0,1.6732E-1,4.727154E-2,-2.6531864E-2,