{"learner":{"attributes":{"scikit_learn":"{\"_estimator_type\": \"regressor\"}"},"feature_names":[],"feature_types":[],"gradient_booster":{"model":{"gbtree_model_param":{"num_parallel_tree":"1","num_trees":"20"},"iteration_indptr":[0,1,2,3,4,5,6,7,8,9,10,11,12,13,14,15,16,17,18,19,20],"tree_info":[0,0,0,0,0,0,0,0,0,0,0,0,0,0,0,0,0,0,0,0],"trees":[{"base_weights":[-4.2341557E-7,-2.6260965E0,5.627348E0,-5.2387805E0,-7.4051595E-1,4.8586106E0,1.08957405E1,-6.1544633E0,-3.3810005E0,-1.2425282E0,9.2867696E-1,5.9976234E0,3.7715843E0,1.8878123E0,6.882672E0,-4.085991E0,-2.9394083E0,-2.4790106E0,-1.4976343E0,8.0240685E-1,-1.4986758E0,1.1664461E0,6.058995E-2,6.2308903E0,1.6842185E0,1.2674217E0,4.0781045E0,-3.2187656E-2,5.4967153E-1,-1.9953598E0,-7.35603E-1,7.2611725E-1,1.2681228E-1,1.9616643E-1,-1.8518773E-1,3.8511202E0,1.4790833E0,1.0310832E0,2.508948E0,-2.3133142E0,-6.4314854E-1,3.5821867E-1,-9.1940033E-1,1.3921867E-1,1.5812302E-2,-2.6078446E0,-8.4273773E-1,2.7030945E-2,-5.896461E-1,-1.1316451E0,-2.119646E-1,-3.0981998E0,-9.963379E-1,-5.4916766E-2,1.14812285E-1,-1.2748059E0,-2.855001E-1,-3.218336E-1,4.1805267E-2,-4.8518774E-1,-1.9272696E0,-8.089618E-1,-3.1891692E-1,-5.6187633E-2,-2.1328141E-1,4.5812417E-2,-8.187676E-3],"categories":[],"categories_nodes":[],"categories_segments":[],"categories_sizes":[],"default_left":[0,0,0,0,0,0,0,0,0,0,0,0,0,0,0,0,0,0,0,0,0,0,0,0,0,0,0,0,0,0,0,0,0,0,0,0,0,0,0,0,0,0,0,0,0,0,0,0,0,0,0,0,0,0,0,0,0,0,0,0,0,0,0,0,0,0,0],"id":0,"left_children":[1,3,5,7,9,11,13,15,17,19,21,23,25,-1,-1,-1,-1,-1,-1,27,29,31,33,35,-1,-1,37,-1,-1,39,41,-1,-1,43,-1,-1,-1,-1,-1,45,47,-1,49,-1,-1,51,-1,53,-1,55,57,59,-1,-1,-1,61,-1,63,65,-1,-1,-1,-1,-1,-1,-1,-1],"loss_changes":[3.5762656E3,8.0898096E2,2.5891284E2,9.657019E1,8.243556E1,6.2810913E1,4.0372314E0,3.6716309E0,6.2948914E0,4.048793E1,4.6766243E0,6.32605E0,1.071167E1,0E0,0E0,0E0,0E0,0E0,0E0,9.252405E-1,2.3925613E1,4.963436E-1,3.6090446E-1,4.6693115E0,0E0,0E0,3.831787E-1,0E0,0E0,1.5709854E1,7.4070787E0,0E0,0E0,2.4336472E-2,0E0,0E0,0E0,0E0,0E0,4.902069E0,2.07487E0,0E0,3.5138702E0,0E0,0E0,5.538849E0,0E0,9.544195E-2,0E0,1.177248E0,2.0862448E-1,1.0539703E0,0E0,0E0,0E0,1.0241699E-1,0E0,5.0875545E-3,6.7892666E-3,0E0,0E0,0E0,0E0,0E0,0E0,0E0,0E0],"parents":[2147483647,0,0,1,1,2,2,3,3,4,4,5,5,6,6,7,7,8,8,9,9,10,10,11,11,12,12,19,19,20,20,21,21,22,22,23,23,26,26,29,29,30,30,33,33,39,39,40,40,42,42,45,45,47,47,49,49,50,50,51,51,55,55,57,57,58,58],"right_children":[2,4,6,8,10,12,14,16,18,20,22,24,26,-1,-1,-1,-1,-1,-1,28,30,32,34,36,-1,-1,38,-1,-1,40,42,-1,-1,44,-1,-1,-1,-1,-1,46,48,-1,50,-1,-1,52,-1,54,-1,56,58,60,-1,-1,-1,62,-1,64,66,-1,-1,-1,-1,-1,-1,-1,-1],"split_conditions":[4.6166852E-1,-6.023373E-1,1.4389434E0,2.9819188E-1,1.4225525E-1,3.707819E-1,-1.6496089E0,-1.2496251E0,3.5353178E-1,-1.5244799E0,7.704804E-2,1.1425608E0,-5.001976E-1,1.8878123E0,6.882672E0,-4.085991E0,-2.9394083E0,-2.4790106E0,-1.4976343E0,-1.0573142E0,4.312298E-1,9.069469E-1,2.284225E-1,6.3671136E-1,1.6842185E0,1.2674217E0,-1.8487396E0,-3.2187656E-2,5.4967153E-1,6.122854E-1,-3.30857E-1,7.2611725E-1,1.2681228E-1,4.0945947E-1,-1.8518773E-1,3.8511202E0,1.4790833E0,1.0310832E0,2.508948E0,2.3350495E-1,-7.0383275E-1,3.5821867E-1,8.342212E-1,1.3921867E-1,1.5812302E-2,-1.8184585E-2,-8.4273773E-1,5.2774727E-2,-5.896461E-1,7.6786053E-1,-1.1673901E-1,-1.4509351E0,-9.963379E-1,-5.4916766E-2,1.14812285E-1,8.0864364E-1,-2.855001E-1,-5.52769E-1,1.4091226E-1,-4.8518774E-1,-1.9272696E0,-8.089618E-1,-3.1891692E-1,-5.6187633E-2,-2.1328141E-1,4.5812417E-2,-8.187676E-3],"split_indices":[76,76,61,9,76,84,3,76,67,8,13,9,1,0,0,0,0,0,0,0,84,0,0,11,0,0,90,0,0,30,67,0,0,2,0,0,0,0,0,73,8,0,8,0,0,61,0,0,0,83,4,1,0,0,0,32,0,1,0,0,0,0,0,0,0,0,0],"split_type":[0,0,0,0,0,0,0,0,0,0,0,0,0,0,0,0,0,0,0,0,0,0,0,0,0,0,0,0,0,0,0,0,0,0,0,0,0,0,0,0,0,0,0,0,0,0,0,0,0,0,0,0,0,0,0,0,0,0,0,0,0,0,0,0,0,0,0],"sum_hessian":[2.4E2,1.64E2,7.6E1,6.8E1,9.6E1,6.8E1,8E0,4.4E1,2.4E1,7.4E1,2.2E1,3.1E1,3.7E1,1E0,7E0,2.6E1,1.8E1,1.1E1,1.3E1,8E0,6.6E1,1.7E1,5E0,2.8E1,3E0,7E0,3E1,1E0,7E0,3.9E1,2.7E1,1.6E1,1E0,4E0,1E0,2.6E1,2E0,2E0,2.8E1,3.1E1,8E0,3E0,2.4E1,3E0,1E0,2.2E1,9E0,3E0,5E0,1.8E1,6E0,1.3E1,9E0,2E0,1E0,1.4E1,4E0,4E0,2E0,1E0,1.2E1,1.2E1,2E0,1E0,3E0,1E0,1E0],"tree_param":{"num_deleted":"0","num_feature":"97","num_nodes":"67","size_leaf_vector":"1"}},{"base_weights":[2.0175355E-2,-1.1457722E0,2.5183725E0,-2.408899E0,-4.1998565E-1,2.0505688E0,5.138779E0,-2.4255264E0,-2.152521E0,-8.686881E-1,8.094221E-2,1.2868967E0,2.4744952E0,7.294762E-1,3.2456992E0,-2.2590065E0,-1.1148316E0,-1.5143594E0,-6.1740816E-1,-2.319042E-1,5.0387174E-1,1.5272614E0,4.162979E-1,2.865005E0,1.7946483E0,-2.3164294E0,-3.7531263E-1,-7.1941626E-1,-1.8289748E-1,-3.67582E-1,-9.975067E-1,-1.1778269E-1,-7.5010043E-1,-4.631785E-1,2.7696228E-1,8.702259E-2,5.916703E-1,4.7962388E-1,1.7821155E0,2.7787992E-1,4.05859E-2,5.25375E-1,2.999924E0,1.9847661E-1,1.8612988E0,-2.3492465E0,-2.5189734E-1,-2.6128638E-1,-6.953745E-2,6.295395E-2,-2.4876611E-1,-9.147158E-1,-3.377137E-1,-6.3998914E-1,-2.0468788E-1,2.3291568E-1,8.8093184E-2,1.12636186E-1,-4.2689323E-2,7.891102E-2,3.6660102E-1,1.1139627E0,2.4412794E-1,8.9574957E-1,1.8907977E0,1.9131558E0,3.094763E-1,-2.4010878E0,-4.938633E-1,7.4958235E-2,-1.200428E-2,-3.9712716E-2,-1.6322652E-1,-9.571634E-1,-1.8760663E-1,-4.3528312E-1,6.756592E-2,-3.8616344E-1,-4.9767256E-1,-2.963513E-1,1.07977234E-1,1.2077142E-2,7.601605E-2,-3.9331343E-2,9.109497E-4,5.776919E-1,1.2350407E0,-2.4507465E0,-5.5323315E-1,-5.862836E-1,-1.6729374E-1,-6.549912E-2,-2.7744135E-1,7.934675E-2,-1.8537426E-2,-2.7571633E-1,-8.110161E-2,-1.3715515E-1,-2.5275522E-1,1.02911E-1,-5.7314876E-3,-1.489541E0,-3.5336524E-1,-9.160066E-2,-2.2531414E-2],"categories":[],"categories_nodes":[],"categories_segments":[],"categories_sizes":[],"default_left":[0,0,0,0,0,0,0,0,0,0,0,0,0,0,0,0,0,0,0,0,0,0,0,0,0,0,0,0,0,0,0,0,0,0,0,0,0,0,0,0,0,0,0,0,0,0,0,0,0,0,0,0,0,0,0,0,0,0,0,0,0,0,0,0,0,0,0,0,0,0,0,0,0,0,0,0,0,0,0,0,0,0,0,0,0,0,0,0,0,0,0,0,0,0,0,0,0,0,0,0,0,0,0,0,0],"id":1,"left_children":[1,3,5,7,9,11,13,-1,15,17,19,21,23,-1,-1,25,27,29,31,33,35,37,39,41,43,45,-1,-1,-1,47,-1,49,51,53,55,57,59,-1,61,-1,-1,-1,63,-1,65,67,-1,-1,-1,69,71,73,75,77,79,-1,81,-1,83,-1,-1,-1,-1,-1,-1,85,-1,87,-1,-1,-1,-1,-1,89,-1,91,93,95,-1,97,99,-1,-1,-1,-1,-1,-1,101,-1,-1,-1,-1,-1,-1,-1,-1,-1,103,-1,-1,-1,-1,-1,-1,-1],"loss_changes":[7.048623E2,1.5025377E2,8.38519E1,1.6428162E1,2.3895674E1,1.8506226E1,5.1054688E0,0E0,3.448532E0,8.1507E0,6.8647614E0,4.8049965E0,6.0087585E0,0E0,0E0,3.0534058E0,1.1189175E-1,1.9373474E0,2.696104E0,3.6589155E0,7.5368404E-1,2.28553E0,8.297753E-2,4.0833282E0,1.1404953E0,1.8768005E0,0E0,0E0,0E0,7.9497695E-4,0E0,2.5239587E-1,1.9312992E0,8.287835E-1,1.7588288E-1,7.332673E-2,7.9758644E-2,0E0,6.7874146E-1,0E0,0E0,0E0,5.432129E-1,0E0,1.993599E-1,1.5839081E0,0E0,0E0,0E0,2.8207658E-2,7.49439E-3,2.8848267E-1,4.643823E-1,2.5678873E-1,3.1859875E-1,0E0,1.0567088E-2,0E0,3.1316658E-3,0E0,0E0,0E0,0E0,0E0,0E0,2.266388E-1,0E0,8.9849854E-1,0E0,0E0,0E0,0E0,0E0,1.2111664E-2,0E0,2.9118061E-2,2.319089E-2,6.678319E-2,0E0,1.0130042E-1,2.4042323E-2,0E0,0E0,0E0,0E0,0E0,0E0,9.6698E-1,0E0,0E0,0E0,0E0,0E0,0E0,0E0,0E0,0E0,1.9924566E-3,0E0,0E0,0E0,0E0,0E0,0E0,0E0],"parents":[2147483647,0,0,1,1,2,2,3,3,4,4,5,5,6,6,8,8,9,9,10,10,11,11,12,12,15,15,16,16,17,17,18,18,19,19,20,20,21,21,22,22,23,23,24,24,25,25,29,29,31,31,32,32,33,33,34,34,35,35,36,36,38,38,42,42,44,44,45,45,49,49,50,50,51,51,52,52,53,53,54,54,56,56,58,58,65,65,67,67,73,73,75,75,76,76,77,77,79,79,80,80,87,87,97,97],"right_children":[2,4,6,8,10,12,14,-1,16,18,20,22,24,-1,-1,26,28,30,32,34,36,38,40,42,44,46,-1,-1,-1,48,-1,50,52,54,56,58,60,-1,62,-1,-1,-1,64,-1,66,68,-1,-1,-1,70,72,74,76,78,80,-1,82,-1,84,-1,-1,-1,-1,-1,-1,86,-1,88,-1,-1,-1,-1,-1,90,-1,92,94,96,-1,98,100,-1,-1,-1,-1,-1,-1,102,-1,-1,-1,-1,-1,-1,-1,-1,-1,104,-1,-1,-1,-1,-1,-1,-1],"split_conditions":[4.6166852E-1,-7.652169E-1,1.4459903E0,-1.3998128E0,-1.961959E-1,8.339648E-1,-6.5262604E-1,-2.4255264E0,7.1363413E-1,-3.9619628E-1,4.992235E-2,5.6613886E-1,5.098915E-1,7.294762E-1,3.2456992E0,9.9312705E-1,6.5686774E-1,9.2080235E-2,-3.1210312E-1,1.9725357E-1,-2.5437137E-1,-1.9712315E-1,3.1531426E-1,-9.8780906E-1,-1.0944325E0,8.227271E-1,-3.7531263E-1,-7.1941626E-1,-1.8289748E-1,-1.8572798E0,-9.975067E-1,-4.686778E-1,7.877555E-2,4.312298E-1,4.8372768E-2,5.2774727E-2,-5.462398E-1,4.7962388E-1,1.1789702E0,2.7787992E-1,4.05859E-2,5.25375E-1,-1.8572798E0,1.9847661E-1,1.193533E0,9.711042E-1,-2.5189734E-1,-2.6128638E-1,-6.953745E-2,1.0485011E0,-7.10705E-1,1.18175834E-1,3.2500595E-1,5.052829E-2,-2.5437137E-1,2.3291568E-1,-9.6088123E-1,1.12636186E-1,1.4091226E-1,7.891102E-2,3.6660102E-1,1.1139627E0,2.4412794E-1,8.9574957E-1,1.8907977E0,-9.4570744E-1,3.094763E-1,9.9385196E-1,-4.938633E-1,7.4958235E-2,-1.200428E-2,-3.9712716E-2,-1.6322652E-1,1.1450732E-1,-1.8760663E-1,-1.0317502E0,9.069469E-1,1.17067136E-1,-4.9767256E-1,1.0675187E-1,-3.5999194E-2,1.2077142E-2,7.601605E-2,-3.9331343E-2,9.109497E-4,5.776919E-1,1.2350407E0,1.0827174E0,-5.5323315E-1,-5.862836E-1,-1.6729374E-1,-6.549912E-2,-2.7744135E-1,7.934675E-2,-1.8537426E-2,-2.7571633E-1,-8.110161E-2,4.606156E-1,-2.5275522E-1,1.02911E-1,-5.7314876E-3,-1.489541E0,-3.5336524E-1,-9.160066E-2,-2.2531414E-2],"split_indices":[76,76,78,76,76,76,3,0,9,1,78,8,8,0,0,54,0,31,9,76,41,30,0,1,4,41,0,0,0,0,0,15,51,84,35,0,10,0,3,0,0,0,0,0,27,90,0,0,0,1,2,70,4,89,41,0,0,0,0,0,0,0,0,0,0,15,0,15,0,0,0,0,0,10,0,11,0,28,0,32,0,0,0,0,0,0,0,8,0,0,0,0,0,0,0,0,0,3,0,0,0,0,0,0,0],"split_type":[0,0,0,0,0,0,0,0,0,0,0,0,0,0,0,0,0,0,0,0,0,0,0,0,0,0,0,0,0,0,0,0,0,0,0,0,0,0,0,0,0,0,0,0,0,0,0,0,0,0,0,0,0,0,0,0,0,0,0,0,0,0,0,0,0,0,0,0,0,0,0,0,0,0,0,0,0,0,0,0,0,0,0,0,0,0,0,0,0,0,0,0,0,0,0,0,0,0,0,0,0,0,0,0,0],"sum_hessian":[2.4E2,1.64E2,7.6E1,5.9E1,1.05E2,6.6E1,1E1,6E0,5.3E1,5.5E1,5E1,2.5E1,4.1E1,1E0,9E0,4.7E1,6E0,1.4E1,4.1E1,2.9E1,2.1E1,1.9E1,6E0,2.4E1,1.7E1,4.5E1,2E0,5E0,1E0,2E0,1.2E1,9E0,3.2E1,2E1,9E0,4E0,1.7E1,6E0,1.3E1,5E0,1E0,2E0,2.2E1,1E0,1.6E1,4.4E1,1E0,1E0,1E0,4E0,5E0,2.2E1,1E1,1.1E1,9E0,5E0,4E0,2E0,2E0,1E0,1.6E1,1.2E1,1E0,3E0,1.9E1,1.5E1,1E0,4.2E1,2E0,2E0,2E0,1E0,4E0,2E1,2E0,8E0,2E0,6E0,5E0,7E0,2E0,2E0,2E0,1E0,1E0,3E0,1.2E1,4E1,2E0,1.9E1,1E0,1E0,7E0,1E0,1E0,4E0,2E0,4E0,3E0,1E0,1E0,3.9E1,1E0,3E0,1E0],"tree_param":{"num_deleted":"0","num_feature":"97","num_nodes":"105","size_leaf_vector":"1"}},{"base_weights":[1.6135784E-2,-5.178248E-1,1.1601276E0,-1.0079175E0,-1.3692598E-1,8.93693E-1,2.6774907E0,-1.1781126E0,-8.912941E-1,-3.0086333E-1,9.191103E-2,1.573386E0,7.61096E-1,1.7830702E0,5.4126894E-1,-1.0296166E0,-5.6784856E-1,-7.0470655E-1,-2.2728814E-1,2.1446401E-1,-1.2664153E-1,1.1638021E0,4.9150065E-1,5.392103E-1,9.9588287E-1,-1.0505545E0,-3.2502938E-2,-7.08321E-1,-2.8624165E-1,-4.819728E-1,-1.6358492E-1,8.570925E-2,-2.9203036E-1,-1.1039353E-1,2.5533465E-1,-2.0774747E-1,-6.622197E-2,7.1839726E-1,3.5993168E-1,1.1061239E0,4.256854E-1,-4.1771376E-1,-1.1217859E0,-1.2207184E-1,-7.755112E-1,-2.0033693E-1,-8.592081E-2,-2.6649714E-2,8.7798215E-2,-3.827148E-1,-1.5993187E-1,1.8848841E-1,9.8440886E-2,-1.03077464E-1,1.3362313E-2,2.3401596E-1,8.4357995E-1,1.4307158E-1,4.564391E-1,1.1442307E0,9.1763884E-2,2.8058785E-1,6.476412E-2,-1.191089E0,-3.5298342E-1,-1.2802821E-1,-4.843295E-1,-4.6453476E-3,-2.7798845E-2,-4.5655966E-2,-4.3099084E-1,-1.3051896E-1,-7.8161985E-2,9.169107E-2,3.5250664E-2,-1.6996576E-2,-7.2232656E-2,2.0046234E-2,-4.012013E-3,1.3893357E-1,5.3151256E-1,1.04040414E-1,2.689953E-2,4.9996158E-1,-6.692505E-3,2.8693858E-1,1.2286624E0,-1.2658707E0,-4.0859053E-1,1.9306183E-3,-6.1114314E-3,3.1407673E-3,-5.7613853E-2,-4.720258E-1,-8.930669E-2,-1.34521015E-2,-1.02296196E-1,2.6119137E-2,6.37722E-4,3.4237863E-3,1.3754464E-2,3.248797E-1,1.2527637E-1,4.200945E-1,8.268451E-1,-8.0798453E-1,-4.0407708E-1,-6.7545893E-3,9.58128E-3,-3.4093142E-1,-1.7566867E-1,-6.754658E-2,-1.5266705E-2],"categories":[],"categories_nodes":[],"categories_segments":[],"categories_sizes":[],"default_left":[0,0,0,0,0,0,0,0,0,0,0,0,0,0,0,0,0,0,0,0,0,0,0,0,0,0,0,0,0,0,0,0,0,0,0,0,0,0,0,0,0,0,0,0,0,0,0,0,0,0,0,0,0,0,0,0,0,0,0,0,0,0,0,0,0,0,0,0,0,0,0,0,0,0,0,0,0,0,0,0,0,0,0,0,0,0,0,0,0,0,0,0,0,0,0,0,0,0,0,0,0,0,0,0,0,0,0,0,0,0,0,0,0],"id":2,"left_children":[1,3,5,7,9,11,13,-1,15,17,19,21,23,-1,-1,25,27,29,31,33,35,-1,-1,37,39,41,-1,43,45,-1,-1,47,49,-1,51,-1,53,55,57,59,61,-1,63,-1,65,-1,-1,67,-1,69,71,-1,73,75,77,-1,79,81,83,85,-1,-1,-1,87,-1,-1,-1,89,-1,91,93,-1,95,-1,97,-1,-1,99,-1,-1,-1,-1,-1,101,-1,-1,103,105,-1,-1,-1,107,-1,109,-1,-1,111,-1,-1,-1,-1,-1,-1,-1,-1,-1,-1,-1,-1,-1,-1,-1,-1],"loss_changes":[1.4781477E2,3.0663486E1,2.8736565E1,6.2740173E0,3.5540566E0,4.840893E0,3.0663986E0,0E0,2.3681602E0,1.4740348E0,1.0985307E0,1.173666E0,2.4845695E0,0E0,0E0,8.6216736E-1,6.675253E-1,1.2173915E-1,9.977088E-1,4.7038984E-1,1.7609678E-1,0E0,0E0,7.694063E-1,1.2263336E0,3.2966614E-1,0E0,3.1713057E-1,1.3532817E-2,0E0,0E0,6.520159E-2,4.179628E-1,0E0,1.9053137E-1,0E0,3.950789E-2,2.875762E-1,3.1141162E-1,6.2410736E-1,2.9519558E-2,0E0,5.9329224E-1,0E0,4.1622162E-2,0E0,0E0,1.517107E-3,0E0,3.545754E-1,6.7775905E-2,0E0,2.2102088E-2,8.235179E-3,8.040726E-4,0E0,5.3604603E-2,1.3082519E-2,2.4978662E-1,5.9327507E-1,0E0,0E0,0E0,2.8235626E-1,0E0,0E0,0E0,1.634671E-4,0E0,1.0132589E-2,1.6129899E-1,0E0,9.814061E-3,0E0,1.3693161E-3,0E0,0E0,3.4261728E-5,0E0,0E0,0E0,0E0,0E0,1.987791E-2,0E0,0E0,4.5650673E-1,2.8931046E-1,0E0,0E0,0E0,7.3388114E-4,0E0,1.2675214E-1,0E0,0E0,1.8763915E-3,0E0,0E0,0E0,0E0,0E0,0E0,0E0,0E0,0E0,0E0,0E0,0E0,0E0,0E0,0E0,0E0],"parents":[2147483647,0,0,1,1,2,2,3,3,4,4,5,5,6,6,8,8,9,9,10,10,11,11,12,12,15,15,16,16,17,17,18,18,19,19,20,20,23,23,24,24,25,25,27,27,28,28,31,31,32,32,34,34,36,36,37,37,38,38,39,39,40,40,42,42,44,44,47,47,49,49,50,50,52,52,53,53,54,54,56,56,57,57,58,58,59,59,63,63,67,67,69,69,70,70,72,72,74,74,77,77,83,83,86,86,87,87,91,91,93,93,96,96],"right_children":[2,4,6,8,10,12,14,-1,16,18,20,22,24,-1,-1,26,28,30,32,34,36,-1,-1,38,40,42,-1,44,46,-1,-1,48,50,-1,52,-1,54,56,58,60,62,-1,64,-1,66,-1,-1,68,-1,70,72,-1,74,76,78,-1,80,82,84,86,-1,-1,-1,88,-1,-1,-1,90,-1,92,94,-1,96,-1,98,-1,-1,100,-1,-1,-1,-1,-1,102,-1,-1,104,106,-1,-1,-1,108,-1,110,-1,-1,112,-1,-1,-1,-1,-1,-1,-1,-1,-1,-1,-1,-1,-1,-1,-1,-1],"split_conditions":[4.6166852E-1,-5.4733896E-1,1.4431129E0,-1.3998128E0,-7.139204E-2,-5.4553044E-1,6.1686605E-1,-1.1781126E0,3.5353178E-1,-7.128343E-1,7.0712775E-2,-2.7215722E-1,3.4715307E-1,1.7830702E0,5.4126894E-1,8.8316256E-1,-7.757935E-1,1.4933217E-1,-3.30857E-1,-2.5579457E0,-8.6623424E-1,1.1638021E0,4.9150065E-1,-1.0113921E-1,1.1221063E0,-4.8502958E-1,-3.2502938E-2,2.8468942E-2,5.308331E-2,-4.819728E-1,-1.6358492E-1,-1.4955473E-2,5.2031275E-2,-1.1039353E-1,6.47512E-2,-2.0774747E-1,2.3455289E-1,-2.885852E-2,7.4089074E-1,1.2235466E0,-2.9447487E-2,-4.1771376E-1,8.4200233E-1,-1.2207184E-1,-9.8780906E-1,-2.0033693E-1,-8.592081E-2,-2.154934E-1,8.7798215E-2,-4.5994323E-1,7.671763E-2,1.8848841E-1,-3.1481838E-1,-1.8854506E-1,-3.5999194E-2,2.3401596E-1,-9.6088123E-1,5.7236475E-1,8.3427733E-1,-9.4356877E-1,9.1763884E-2,2.8058785E-1,6.476412E-2,5.2900606E-1,-3.5298342E-1,-1.2802821E-1,-4.843295E-1,-3.062328E-1,-2.7798845E-2,1.4091226E-1,8.9292204E-1,-1.3051896E-1,-4.735326E-2,9.169107E-2,5.4011784E-2,-1.6996576E-2,-7.2232656E-2,-1.2524792E0,-4.012013E-3,1.3893357E-1,5.3151256E-1,1.04040414E-1,2.689953E-2,9.310153E-2,-6.692505E-3,2.8693858E-1,-4.2958075E-1,5.982771E-1,-4.0859053E-1,1.9306183E-3,-6.1114314E-3,-1.0573142E0,-5.7613853E-2,3.7973452E-1,-8.930669E-2,-1.34521015E-2,4.7763428E-1,2.6119137E-2,6.37722E-4,3.4237863E-3,1.3754464E-2,3.248797E-1,1.2527637E-1,4.200945E-1,8.268451E-1,-8.0798453E-1,-4.0407708E-1,-6.7545893E-3,9.58128E-3,-3.4093142E-1,-1.7566867E-1,-6.754658E-2,-1.5266705E-2],"split_indices":[76,76,41,76,76,8,9,0,67,1,52,54,41,0,0,28,76,28,67,48,41,0,0,64,67,27,0,88,12,0,0,5,51,0,71,0,64,42,76,8,2,0,54,0,1,0,0,0,0,7,88,0,40,49,0,0,0,0,1,36,0,0,0,63,0,0,0,0,0,0,54,0,35,0,1,0,0,0,0,0,0,0,0,3,0,0,73,15,0,0,0,0,0,48,0,0,1,0,0,0,0,0,0,0,0,0,0,0,0,0,0,0,0],"split_type":[0,0,0,0,0,0,0,0,0,0,0,0,0,0,0,0,0,0,0,0,0,0,0,0,0,0,0,0,0,0,0,0,0,0,0,0,0,0,0,0,0,0,0,0,0,0,0,0,0,0,0,0,0,0,0,0,0,0,0,0,0,0,0,0,0,0,0,0,0,0,0,0,0,0,0,0,0,0,0,0,0,0,0,0,0,0,0,0,0,0,0,0,0,0,0,0,0,0,0,0,0,0,0,0,0,0,0,0,0,0,0,0,0],"sum_hessian":[2.4E2,1.64E2,7.6E1,7.1E1,9.3E1,6.6E1,1E1,6E0,6.5E1,5.4E1,3.9E1,9E0,5.7E1,8E0,2E0,4.4E1,2.1E1,7E0,4.7E1,2.5E1,1.4E1,5E0,4E0,3.1E1,2.6E1,4.3E1,1E0,1.3E1,8E0,5E0,2E0,8E0,3.9E1,2E0,2.3E1,2E0,1.2E1,1.4E1,1.7E1,2.1E1,5E0,9E0,3.4E1,2E0,1.1E1,5E0,3E0,3E0,5E0,2.2E1,1.7E1,1.6E1,7E0,8E0,4E0,5E0,9E0,6E0,1.1E1,2E1,1E0,4E0,1E0,2.9E1,5E0,1E0,1E1,2E0,1E0,3E0,1.9E1,9E0,8E0,3E0,4E0,2E0,6E0,3E0,1E0,1E0,8E0,4E0,2E0,1E1,1E0,3E0,1.7E1,2.4E1,5E0,1E0,1E0,2E0,1E0,1.6E1,3E0,3E0,5E0,3E0,1E0,1E0,2E0,8E0,2E0,5E0,1.2E1,2E1,4E0,1E0,1E0,9E0,7E0,4E0,1E0],"tree_param":{"num_deleted":"0","num_feature":"97","num_nodes":"113","size_leaf_vector":"1"}},{"base_weights":[1.1609331E-2,-2.4462771E-1,5.6053793E-1,-4.210034E-1,-2.2044053E-2,4.431136E-1,1.3985094E0,-6.612778E-1,-3.7751892E-1,-6.8678044E-2,9.1303475E-2,1.0703778E0,3.9838374E-1,9.2562515E-1,3.5752487E-1,-5.996362E-1,-3.2366422E-1,-1.0496347E-1,3.9900165E-2,1.3885719E-1,-3.0434063E-2,7.644765E-1,1.3773881E-1,2.994006E-1,5.391501E-1,-2.392253E-1,-4.1990265E-1,-3.4674174E-1,-9.281647E-2,-3.9685126E-2,-1.8254338E-1,6.9297156E-3,4.9623493E-2,1.884023E-1,7.9388514E-2,2.610588E-2,-7.936549E-2,1.884726E-1,3.7801936E-1,6.024241E-1,2.278328E-1,-1.6968936E-1,-1.9459248E-2,-4.5755962E-1,-2.7682617E-1,-1.6452217E-2,-9.9040605E-2,-6.0068607E-2,4.3292142E-2,-8.3813034E-2,-2.5314635E-1,-2.5246812E-2,1.8315434E-2,1.3042155E-1,4.0600587E-2,1.3515473E-3,5.3249363E-2,-4.278088E-3,3.956127E-2,-5.6131747E-2,-1.1040974E-2,2.2515412E-1,4.0733527E-2,4.8053762E-1,1.966919E-1,5.2155305E-2,6.238527E-1,1.6358829E-1,5.528164E-2,-4.9895358E-1,-1.258514E-1,-3.2576248E-1,-2.2752368E-1,6.489754E-3,-2.2941971E-2,-9.002642E-2,-2.110815E-2,-3.5523098E-2,-8.117681E-2,-1.8354799E-1,-8.351807E-2,5.001831E-3,1.8227149E-2,2.8898336E-2,6.70681E-3,4.333477E-2,2.5736776E-1,3.578129E-2,4.9522403E-3,3.157152E-1,8.264466E-2,8.0286665E-3,1.4571248E-1,1.17971614E-1,6.603998E-1,-2.3405196E-1,-4.2366397E-1,-1.9293785E-2,-1.22081E-1,-1.5032913E-1,-3.2427064E-1,-2.7072668E-2,-6.615E-2,-9.396553E-3,-1.8564263E-2,-5.8622365E-3,-2.3231735E-2,3.5260678E-3,4.5061114E-4,1.0724474E-1,1.9901802E-1,-4.684639E-3,1.19104395E-2,6.762649E-1,1.172081E-1,-7.3850796E-2,-1.7455846E-1,-4.9280778E-2,-2.3888285E-1,-1.8382646E-2,-4.913235E-3,-6.944046E-3,4.463196E-4,2.067494E-1,4.3363604E-1],"categories":[],"categories_nodes":[],"categories_segments":[],"categories_sizes":[],"default_left":[0,0,0,0,0,0,0,0,0,0,0,0,0,0,0,0,0,0,0,0,0,0,0,0,0,0,0,0,0,0,0,0,0,0,0,0,0,0,0,0,0,0,0,0,0,0,0,0,0,0,0,0,0,0,0,0,0,0,0,0,0,0,0,0,0,0,0,0,0,0,0,0,0,0,0,0,0,0,0,0,0,0,0,0,0,0,0,0,0,0,0,0,0,0,0,0,0,0,0,0,0,0,0,0,0,0,0,0,0,0,0,0,0,0,0,0,0,0,0,0,0,0,0,0,0],"id":3,"left_children":[1,3,5,7,9,11,13,-1,15,17,19,21,23,-1,-1,25,27,29,31,33,35,-1,-1,37,39,41,-1,43,45,47,49,51,-1,53,55,57,59,61,63,65,67,-1,-1,69,71,73,-1,75,-1,77,79,-1,81,-1,-1,-1,-1,-1,83,-1,-1,85,87,89,91,-1,93,-1,-1,95,97,-1,99,-1,-1,101,103,105,-1,-1,-1,107,-1,-1,-1,-1,109,-1,-1,-1,-1,111,-1,-1,113,-1,-1,-1,-1,115,117,119,-1,121,-1,-1,-1,-1,-1,-1,-1,-1,-1,123,-1,-1,-1,-1,-1,-1,-1,-1,-1,-1,-1],"loss_changes":[3.4035183E1,6.4683466E0,6.9569645E0,2.3088188E0,3.974233E-1,1.5095425E0,1.22392654E-1,0E0,8.585806E-1,2.1299781E-1,1.3158555E-1,3.9276695E-1,7.5818825E-1,0E0,0E0,4.1040087E-1,3.567171E-1,1.9532728E-1,1.9185375E-2,3.2185137E-2,2.1437969E-2,0E0,0E0,2.8631568E-1,3.749032E-1,3.5898566E-2,0E0,3.8469648E-1,4.1423537E-2,5.676639E-2,1.042549E-1,5.7925717E-3,0E0,1.3269633E-2,6.2983036E-3,2.0708928E-3,1.7381534E-3,9.37953E-2,3.330381E-1,1.7774677E-1,1.1366308E-2,0E0,0E0,2.6674318E-1,4.4062638E-1,3.3837135E-3,0E0,2.1443121E-2,0E0,1.756832E-2,1.7545521E-2,0E0,1.1328829E-3,0E0,0E0,0E0,0E0,0E0,1.9413419E-4,0E0,0E0,5.5307925E-2,2.5774427E-3,1.4662361E-1,8.514136E-2,0E0,1.8243408E-1,0E0,0E0,1.9815207E-1,2.2546515E-2,0E0,2.3504937E-1,0E0,0E0,1.1019878E-2,8.607842E-4,1.1559902E-4,0E0,0E0,0E0,1.4182646E-5,0E0,0E0,0E0,0E0,1.084286E-2,0E0,0E0,0E0,0E0,7.1664597E-4,0E0,0E0,6.995201E-4,0E0,0E0,0E0,0E0,5.229503E-2,2.534746E-1,1.8406892E-5,0E0,1.4105445E-4,0E0,0E0,0E0,0E0,0E0,0E0,0E0,0E0,0E0,1.29413605E-2,0E0,0E0,0E0,0E0,0E0,0E0,0E0,0E0,0E0,0E0,0E0],"parents":[2147483647,0,0,1,1,2,2,3,3,4,4,5,5,6,6,8,8,9,9,10,10,11,11,12,12,15,15,16,16,17,17,18,18,19,19,20,20,23,23,24,24,25,25,27,27,28,28,29,29,30,30,31,31,33,33,34,34,35,35,36,36,37,37,38,38,39,39,40,40,43,43,44,44,45,45,47,47,49,49,50,50,52,52,58,58,61,61,62,62,63,63,64,64,66,66,69,69,70,70,72,72,75,75,76,76,77,77,81,81,86,86,91,91,94,94,99,99,100,100,101,101,103,103,113,113],"right_children":[2,4,6,8,10,12,14,-1,16,18,20,22,24,-1,-1,26,28,30,32,34,36,-1,-1,38,40,42,-1,44,46,48,50,52,-1,54,56,58,60,62,64,66,68,-1,-1,70,72,74,-1,76,-1,78,80,-1,82,-1,-1,-1,-1,-1,84,-1,-1,86,88,90,92,-1,94,-1,-1,96,98,-1,100,-1,-1,102,104,106,-1,-1,-1,108,-1,-1,-1,-1,110,-1,-1,-1,-1,112,-1,-1,114,-1,-1,-1,-1,116,118,120,-1,122,-1,-1,-1,-1,-1,-1,-1,-1,-1,124,-1,-1,-1,-1,-1,-1,-1,-1,-1,-1,-1],"split_conditions":[4.6166852E-1,-3.908053E-1,1.8486315E0,-1.5457699E0,2.777887E-1,-1.9540683E0,1.780317E-1,-6.612778E-1,-8.997835E-1,1.4225525E-1,6.8115085E-2,-2.8334495E-1,4.2881304E-1,9.2562515E-1,3.5752487E-1,-6.5262604E-1,8.210875E-1,1.128638E-2,2.2907163E-1,3.958259E-2,-3.1210312E-1,7.644765E-1,1.3773881E-1,1.020113E0,1.1221063E0,-3.4475547E-1,-4.1990265E-1,-1.0825149E0,1.808624E-1,9.8487604E-1,2.70557E-1,-4.6838393E0,4.9623493E-2,9.256785E-1,-1.7372295E0,-2.154934E-1,5.3609936E-3,5.678595E-1,1.1922241E-1,-2.3828146E0,-2.5833458E-2,-1.6968936E-1,-1.9459248E-2,4.526988E-1,-4.9019513E-1,9.069469E-1,-9.9040605E-2,-9.3679294E-2,4.3292142E-2,-9.294142E-2,7.713553E-2,-2.5246812E-2,-2.274516E-1,1.3042155E-1,4.0600587E-2,1.3515473E-3,5.3249363E-2,-4.278088E-3,-1.2541875E-1,-5.6131747E-2,-1.1040974E-2,-1.4580666E0,-5.001976E-1,9.836638E-1,-1.8691088E0,5.2155305E-2,-1.6690532E0,1.6358829E-1,5.528164E-2,1.1749368E-1,-4.8974568E-1,-3.2576248E-1,6.214715E-1,6.489754E-3,-2.2941971E-2,3.912668E-2,-2.6749107E-1,-7.3501265E-1,-8.117681E-2,-1.8354799E-1,-8.351807E-2,2.284225E-1,1.8227149E-2,2.8898336E-2,6.70681E-3,4.333477E-2,-1.9260919E-1,3.578129E-2,4.9522403E-3,3.157152E-1,8.264466E-2,2.284225E-1,1.4571248E-1,1.17971614E-1,5.291654E-1,-2.3405196E-1,-4.2366397E-1,-1.9293785E-2,-1.22081E-1,1.3127637E0,-4.143762E-1,-6.057284E-1,-6.615E-2,5.7236475E-1,-1.8564263E-2,-5.8622365E-3,-2.3231735E-2,3.5260678E-3,4.5061114E-4,1.0724474E-1,1.9901802E-1,-4.684639E-3,1.19104395E-2,-4.4800854E-1,1.172081E-1,-7.3850796E-2,-1.7455846E-1,-4.9280778E-2,-2.3888285E-1,-1.8382646E-2,-4.913235E-3,-6.944046E-3,4.463196E-4,2.067494E-1,4.3363604E-1],"split_indices":[76,76,41,76,61,36,4,0,67,76,71,3,41,0,0,3,90,79,24,88,9,0,0,76,67,1,0,76,9,84,2,5,0,3,8,0,1,60,27,24,4,0,0,8,42,0,0,66,0,1,72,0,4,0,0,0,0,0,0,0,0,60,1,3,40,0,77,0,0,25,0,0,8,0,0,33,3,2,0,0,0,0,0,0,0,0,1,0,0,0,0,0,0,0,32,0,0,0,0,0,81,1,0,0,0,0,0,0,0,0,0,0,0,1,0,0,0,0,0,0,0,0,0,0,0],"split_type":[0,0,0,0,0,0,0,0,0,0,0,0,0,0,0,0,0,0,0,0,0,0,0,0,0,0,0,0,0,0,0,0,0,0,0,0,0,0,0,0,0,0,0,0,0,0,0,0,0,0,0,0,0,0,0,0,0,0,0,0,0,0,0,0,0,0,0,0,0,0,0,0,0,0,0,0,0,0,0,0,0,0,0,0,0,0,0,0,0,0,0,0,0,0,0,0,0,0,0,0,0,0,0,0,0,0,0,0,0,0,0,0,0,0,0,0,0,0,0,0,0,0,0,0,0],"sum_hessian":[2.4E2,1.64E2,7.6E1,9.1E1,7.3E1,6.8E1,8E0,4E0,8.7E1,5.2E1,2.1E1,3E0,6.5E1,6E0,2E0,1.5E1,7.2E1,3.9E1,1.3E1,1.5E1,6E0,2E0,1E0,4E1,2.5E1,4E0,1.1E1,6.5E1,7E0,2.2E1,1.7E1,8E0,5E0,7E0,8E0,3E0,3E0,1.8E1,2.2E1,2E1,5E0,3E0,1E0,2.3E1,4.2E1,4E0,3E0,1.9E1,3E0,8E0,9E0,1E0,7E0,5E0,2E0,1E0,7E0,1E0,2E0,2E0,1E0,1.4E1,4E0,1.3E1,9E0,1E0,1.9E1,3E0,2E0,2E1,3E0,5E0,3.7E1,2E0,2E0,1E1,9E0,5E0,3E0,5E0,4E0,4E0,3E0,1E0,1E0,3E0,1.1E1,2E0,2E0,1.1E1,2E0,2E0,7E0,2E0,1.7E1,1.5E1,5E0,2E0,1E0,2.2E1,1.5E1,3E0,7E0,5E0,4E0,1E0,4E0,3E0,1E0,7E0,4E0,1E0,1E0,1.6E1,1E0,2E1,2E0,4E0,1.1E1,2E0,1E0,4E0,1E0,3E0,1.3E1],"tree_param":{"num_deleted":"0","num_feature":"97","num_nodes":"125","size_leaf_vector":"1"}},{"base_weights":[8.851808E-3,-1.1882458E-1,2.7718613E-1,-2.853235E-1,-6.459433E-2,7.0394135E-1,2.3816855E-1,-6.882731E-1,-2.2143264E-1,-1.3447595E-1,-1.2973498E-2,1.9475557E-1,3.497007E-1,-4.854962E-1,-6.1417297E-2,-2.7874908E-1,-1.11453295E-1,-2.9555464E-1,-1.0353888E-1,-3.796671E-2,4.669107E-2,1.4128941E-1,2.6799923E-1,-3.1968313E-1,-9.7222395E-2,-1.4384861E-1,-2.4372006E-2,-2.3385578E-1,-6.234584E-2,-1.3757153E-1,-5.2417852E-2,-5.6746647E-2,2.9361963E-2,6.6334724E-2,-4.8788614E-3,1.8069553E-1,7.870928E-2,3.666172E-1,1.826219E-1,-8.2116745E-2,-2.2153121E-1,-1.01036094E-1,-3.8959768E-2,-4.1998245E-2,4.5335293E-3,-2.1408163E-1,-7.997255E-2,-2.8861102E-2,-1.3942957E-1,-1.2352514E-1,-3.4105033E-2,6.03199E-2,6.343007E-3,6.638661E-2,2.8558996E-2,1.7135302E-2,-1.7111588E-2,2.0681599E-1,3.48505E-2,3.8086034E-2,1.1510076E-1,1.1018052E-1,2.6109266E-1,2.132363E-1,6.650009E-2,-4.0054324E-4,3.8938525E-3,-2.8355313E-2,-1.4754143E-1,-9.648028E-2,-5.1166534E-2,2.14983E-2,-3.5143733E-2,-2.3994256E-2,-9.554749E-2,-9.377142E-2,-2.1187736E-2,-4.0443387E-2,4.064687E-2,1.0868168E-2,3.9805844E-2,9.664536E-4,5.316124E-3,9.461403E-4,1.4475632E-2,-1.2867738E-2,-4.2438507E-3,2.658493E-1,1.2898125E-1,2.0733834E-3,2.5101187E-2,7.1406364E-4,5.4000583E-2,3.299389E-2,9.1314934E-2,2.1003056E-2,2.251718E-1,-4.352188E-3,5.2051164E-2,-9.533882E-3,-5.731082E-2,-4.6597905E-2,-1.7864823E-2,1.1618932E-4,-4.8559953E-2,5.039406E-3,3.1542778E-2,9.4583996E-2,1.9785024E-1,1.989193E-2,1.4659268E-1,2.757454E-3,-3.2793046E-3,7.339955E-3,3.5353757E-2,1.4215784E-1,2.8750421E-2,-7.533932E-3,-1.0465622E-3,-4.0525414E-2,-2.149334E-2,-3.0016424E-2,-5.748654E-3,-1.3703042E-2,-4.308987E-3,4.6946527E-3,-1.7942048E-3,-1.0742101E-2,-4.0682413E-2,9.481452E-2,1.654215E-2],"categories":[],"categories_nodes":[],"categories_segments":[],"categories_sizes":[],"default_left":[0,0,0,0,0,0,0,0,0,0,0,0,0,0,0,0,0,0,0,0,0,0,0,0,0,0,0,0,0,0,0,0,0,0,0,0,0,0,0,0,0,0,0,0,0,0,0,0,0,0,0,0,0,0,0,0,0,0,0,0,0,0,0,0,0,0,0,0,0,0,0,0,0,0,0,0,0,0,0,0,0,0,0,0,0,0,0,0,0,0,0,0,0,0,0,0,0,0,0,0,0,0,0,0,0,0,0,0,0,0,0,0,0,0,0,0,0,0,0,0,0,0,0,0,0,0,0,0,0,0,0],"id":4,"left_children":[1,3,5,7,9,-1,11,13,15,17,19,21,-1,-1,-1,23,25,27,29,31,33,35,37,39,-1,41,43,-1,-1,45,47,49,51,53,55,57,59,61,63,-1,-1,-1,-1,-1,65,67,69,71,73,75,77,79,81,-1,-1,83,85,87,89,91,93,-1,-1,95,97,-1,-1,-1,-1,-1,99,-1,101,-1,-1,-1,-1,103,105,-1,-1,-1,-1,-1,-1,-1,-1,107,109,-1,-1,111,113,-1,-1,-1,115,-1,-1,117,119,121,123,125,127,-1,-1,-1,-1,-1,129,-1,-1,-1,-1,-1,-1,-1,-1,-1,-1,-1,-1,-1,-1,-1,-1,-1,-1,-1,-1],"loss_changes":[8.289585E0,1.4623718E0,2.4475818E0,8.773856E-1,4.4917375E-1,0E0,1.0236759E0,2.713182E-1,1.9586301E-1,2.3351377E-1,1.10630974E-1,2.3234248E-1,0E0,0E0,0E0,5.8081627E-2,3.5988495E-2,1.0393143E-1,7.2818846E-2,6.741646E-2,2.261012E-2,8.935124E-2,1.6880035E-1,9.4367266E-2,0E0,8.435458E-3,6.911419E-3,0E0,0E0,1.0186583E-1,3.697017E-2,5.777806E-2,8.168823E-3,8.016758E-3,2.1782648E-3,8.8030815E-2,2.222637E-2,7.0584655E-2,4.6254754E-2,0E0,0E0,0E0,0E0,0E0,4.5030465E-5,4.6771586E-2,3.1354003E-2,8.168586E-3,1.5137345E-3,2.3379922E-2,1.6805634E-2,6.936677E-5,8.102451E-5,0E0,0E0,2.8825033E-4,6.587547E-5,6.2202096E-2,9.518671E-4,5.909022E-3,1.1697076E-2,0E0,0E0,1.977241E-2,8.097513E-3,0E0,0E0,0E0,0E0,0E0,3.034845E-3,0E0,2.3341868E-3,0E0,0E0,0E0,0E0,9.881768E-3,7.1206456E-4,0E0,0E0,0E0,0E0,0E0,0E0,0E0,0E0,2.407974E-2,1.3704345E-2,0E0,0E0,1.2106692E-4,7.1833096E-4,0E0,0E0,0E0,1.3656676E-2,0E0,0E0,4.8734277E-5,2.1881238E-4,6.632153E-4,2.610518E-4,1.6707284E-4,1.3534948E-2,0E0,0E0,0E0,0E0,0E0,7.88869E-3,0E0,0E0,0E0,0E0,0E0,0E0,0E0,0E0,0E0,0E0,0E0,0E0,0E0,0E0,0E0,0E0,0E0,0E0,0E0,0E0],"parents":[2147483647,0,0,1,1,2,2,3,3,4,4,6,6,7,7,8,8,9,9,10,10,11,11,15,15,16,16,17,17,18,18,19,19,20,20,21,21,22,22,23,23,25,25,26,26,29,29,30,30,31,31,32,32,33,33,34,34,35,35,36,36,37,37,38,38,44,44,45,45,46,46,47,47,48,48,49,49,50,50,51,51,52,52,55,55,56,56,57,57,58,58,59,59,60,60,63,63,64,64,70,70,72,72,77,77,78,78,87,87,88,88,91,91,92,92,96,96,99,99,100,100,101,101,102,102,103,103,104,104,110,110],"right_children":[2,4,6,8,10,-1,12,14,16,18,20,22,-1,-1,-1,24,26,28,30,32,34,36,38,40,-1,42,44,-1,-1,46,48,50,52,54,56,58,60,62,64,-1,-1,-1,-1,-1,66,68,70,72,74,76,78,80,82,-1,-1,84,86,88,90,92,94,-1,-1,96,98,-1,-1,-1,-1,-1,100,-1,102,-1,-1,-1,-1,104,106,-1,-1,-1,-1,-1,-1,-1,-1,108,110,-1,-1,112,114,-1,-1,-1,116,-1,-1,118,120,122,124,126,128,-1,-1,-1,-1,-1,130,-1,-1,-1,-1,-1,-1,-1,-1,-1,-1,-1,-1,-1,-1,-1,-1,-1,-1,-1,-1],"split_conditions":[4.574379E-1,-1.0465544E0,-2.7571902E0,-6.519488E-1,-3.908053E-1,7.0394135E-1,2.0343056E0,3.1531426E-1,2.330983E-1,-7.95671E-1,5.082366E-1,4.2881304E-1,3.497007E-1,-4.854962E-1,-6.1417297E-2,5.2900606E-1,-2.717172E-1,2.0160563E-1,-3.3851687E-2,1.9725357E-1,1.7551275E-1,-2.2466066E-1,3.1902468E-1,-5.854749E-1,-9.7222395E-2,-3.1481838E-1,-1.1008188E0,-2.3385578E-1,-6.234584E-2,5.7411313E-2,1.1646546E-1,-2.5178412E-1,6.515529E-2,-1.807051E0,-1.4228936E0,5.677539E-1,-4.1813105E-3,-7.3800015E-1,1.7522715E-1,-8.2116745E-2,-2.2153121E-1,-1.01036094E-1,-3.8959768E-2,-4.1998245E-2,-1.3512357E0,2.8602267E-2,-3.122526E-1,-8.7633055E-1,-8.589654E-1,-2.116378E-1,1.1922803E0,-1.4509351E0,-3.1379166E-1,6.638661E-2,2.8558996E-2,-3.062328E-1,-7.702552E-1,1.8975534E-1,-6.026949E-1,4.526988E-1,-1.9712315E-1,1.1018052E-1,2.6109266E-1,-3.400545E-1,-1.551161E0,-4.0054324E-4,3.8938525E-3,-2.8355313E-2,-1.4754143E-1,-9.648028E-2,-2.4944063E-1,2.14983E-2,-1.3193132E-1,-2.3994256E-2,-9.554749E-2,-9.377142E-2,-2.1187736E-2,2.940101E-2,-5.52769E-1,1.0868168E-2,3.9805844E-2,9.664536E-4,5.316124E-3,9.461403E-4,1.4475632E-2,-1.2867738E-2,-4.2438507E-3,-2.26462E-1,-7.6900035E-1,2.0733834E-3,2.5101187E-2,4.3178132E-1,-1.3913833E0,3.299389E-2,9.1314934E-2,2.1003056E-2,5.064678E-1,-4.352188E-3,5.2051164E-2,-1.0573142E0,-3.261144E-2,8.2415104E-1,6.800678E-2,1.4091226E-1,4.3297976E-2,5.039406E-3,3.1542778E-2,9.4583996E-2,1.9785024E-1,1.989193E-2,3.4128734E-1,2.757454E-3,-3.2793046E-3,7.339955E-3,3.5353757E-2,1.4215784E-1,2.8750421E-2,-7.533932E-3,-1.0465622E-3,-4.0525414E-2,-2.149334E-2,-3.0016424E-2,-5.748654E-3,-1.3703042E-2,-4.308987E-3,4.6946527E-3,-1.7942048E-3,-1.0742101E-2,-4.0682413E-2,9.481452E-2,1.654215E-2],"split_indices":[76,76,79,62,76,0,61,0,15,25,78,41,0,0,0,63,63,3,66,76,70,73,48,27,0,40,1,0,0,13,13,81,13,48,8,25,66,45,54,0,0,0,0,0,0,88,49,15,3,64,45,1,4,0,0,0,0,45,2,8,30,0,0,11,0,0,0,0,0,0,8,0,63,0,0,0,0,87,1,0,0,0,0,0,0,0,0,42,24,0,0,1,1,0,0,0,2,0,0,0,26,0,14,0,33,0,0,0,0,0,47,0,0,0,0,0,0,0,0,0,0,0,0,0,0,0,0,0,0,0,0],"split_type":[0,0,0,0,0,0,0,0,0,0,0,0,0,0,0,0,0,0,0,0,0,0,0,0,0,0,0,0,0,0,0,0,0,0,0,0,0,0,0,0,0,0,0,0,0,0,0,0,0,0,0,0,0,0,0,0,0,0,0,0,0,0,0,0,0,0,0,0,0,0,0,0,0,0,0,0,0,0,0,0,0,0,0,0,0,0,0,0,0,0,0,0,0,0,0,0,0,0,0,0,0,0,0,0,0,0,0,0,0,0,0,0,0,0,0,0,0,0,0,0,0,0,0,0,0,0,0,0,0,0,0],"sum_hessian":[2.4E2,1.63E2,7.7E1,3.9E1,1.24E2,2E0,7.5E1,4E0,3.5E1,5.2E1,7.2E1,6.8E1,7E0,3E0,1E0,2.2E1,1.3E1,7E0,4.5E1,5.1E1,2.1E1,4.1E1,2.7E1,1.5E1,7E0,9E0,4E0,4E0,3E0,2.6E1,1.9E1,4E1,1.1E1,1.5E1,6E0,2.4E1,1.7E1,1.1E1,1.6E1,4E0,1.1E1,6E0,3E0,1E0,3E0,1E1,1.6E1,1.6E1,3E0,9E0,3.1E1,4E0,7E0,3E0,1.2E1,2E0,4E0,2E1,4E0,9E0,8E0,4E0,7E0,1.2E1,4E0,1E0,2E0,2E0,8E0,3E0,1.3E1,1E0,1.5E1,1E0,2E0,6E0,3E0,2.9E1,2E0,1E0,3E0,3E0,4E0,1E0,1E0,2E0,2E0,1E1,1E1,1E0,3E0,3E0,6E0,4E0,4E0,1E0,1.1E1,1E0,3E0,2E0,1.1E1,8E0,7E0,5E0,2.4E1,1E0,1E0,5E0,5E0,2E0,8E0,2E0,1E0,1E0,5E0,1E1,1E0,1E0,1E0,6E0,5E0,7E0,1E0,4E0,3E0,1E0,4E0,1E1,1.4E1,7E0,1E0],"tree_param":{"num_deleted":"0","num_feature":"97","num_nodes":"131","size_leaf_vector":"1"}},{"base_weights":[5.150255E-3,-5.9078358E-2,1.40129E-1,-3.405447E-1,-4.9913295E-2,4.2236483E-1,1.1602945E-1,-2.9985297E-1,-6.7819595E-2,-8.671163E-2,-4.8699183E-3,9.824687E-2,1.8427105E-1,1.7522336E-3,-6.278987E-2,-1.4272074E-1,-6.922041E-2,1.5755316E-2,-2.227962E-2,2.1360429E-1,8.627124E-2,-8.0940045E-2,-1.475361E-1,-9.152629E-2,-4.2113204E-2,2.7808437E-2,-2.6893377E-2,-6.669312E-2,-1.4676821E-2,1.9276278E-1,4.76718E-2,6.023057E-2,1.1946106E-1,-1.1741412E-1,-2.7692523E-2,-6.89497E-2,-1.5410349E-1,-3.1195533E-2,-8.453484E-2,1.2914658E-2,4.5349438E-2,-3.6343098E-2,5.823136E-4,-2.357557E-2,6.568432E-3,1.07793026E-1,4.0112726E-2,8.371056E-2,1.6015251E-1,-9.702444E-3,-7.7740416E-2,-1.0088998E-2,-2.1954536E-2,-4.605055E-2,-9.755262E-2,-1.7645217E-2,-9.9608555E-2,-4.1525777E-2,-5.349445E-3,1.7342038E-3,1.4327002E-2,5.990994E-2,1.298275E-2,-2.3854753E-2,-5.780697E-3,-4.384494E-2,-6.900072E-3,-2.6355472E-3,1.6211668E-2,7.085312E-2,1.451397E-3,3.737259E-3,4.578331E-2,1.0303482E-1,3.1110287E-2,1.01167955E-1,2.0125294E-2,-6.039381E-2,-2.0572245E-2,-2.4487376E-2,-7.151213E-2,-1.4613424E-2,-5.070457E-2,-1.1517419E-2,1.5048695E-2,-2.4284362E-3,5.550003E-3,9.7025875E-3,3.8308933E-2,6.623268E-4,9.4059E-3,-1.24595165E-2,-5.2922353E-2,-1.8168785E-2,8.249283E-4,1.1655807E-3,-4.855347E-3,-1.8711091E-4,1.1747247E-2,6.16951E-3,-4.696846E-4,3.381572E-2,3.7981033E-2,1.4702225E-2,1.07946396E-1,4.5394897E-4,2.7794981E-2,-2.243377E-2,-4.831255E-2,-4.348469E-3,-1.6270582E-2,-2.0758057E-2,1.7522336E-3,-1.1234207E-2,-1.7351151E-3,-3.9057568E-2,-1.3741166E-2,-2.743292E-3,-8.536817E-3,-2.437973E-3,9.536743E-6,1.011467E-3,4.538536E-3,-6.8407063E-4,-9.511566E-3,-9.157277E-3,-3.3433273E-2,-2.3842496E-3,5.5785375E-3,1.2634278E-3,-7.784844E-4,1.1547089E-3,-2.295685E-3,1.0478854E-2,2.6108952E-2,7.246385E-2,3.318386E-2,-3.0464174E-3,3.4549714E-3],"categories":[],"categories_nodes":[],"categories_segments":[],"categories_sizes":[],"default_left":[0,0,0,0,0,0,0,0,0,0,0,0,0,0,0,0,0,0,0,0,0,0,0,0,0,0,0,0,0,0,0,0,0,0,0,0,0,0,0,0,0,0,0,0,0,0,0,0,0,0,0,0,0,0,0,0,0,0,0,0,0,0,0,0,0,0,0,0,0,0,0,0,0,0,0,0,0,0,0,0,0,0,0,0,0,0,0,0,0,0,0,0,0,0,0,0,0,0,0,0,0,0,0,0,0,0,0,0,0,0,0,0,0,0,0,0,0,0,0,0,0,0,0,0,0,0,0,0,0,0,0,0,0,0,0,0,0,0,0],"id":5,"left_children":[1,3,5,7,9,-1,11,-1,13,15,17,19,-1,-1,-1,21,23,25,27,29,31,33,-1,35,37,39,41,-1,43,-1,-1,45,47,49,51,53,55,57,-1,59,61,63,-1,65,67,69,71,73,75,-1,-1,-1,-1,77,79,-1,-1,81,83,85,-1,87,89,-1,-1,91,93,95,97,-1,-1,99,101,103,105,-1,-1,107,109,111,-1,113,115,117,-1,119,121,-1,-1,-1,-1,123,125,-1,127,129,-1,-1,-1,-1,131,133,-1,-1,135,137,-1,-1,-1,-1,-1,-1,-1,-1,-1,-1,-1,-1,-1,-1,-1,-1,-1,-1,-1,-1,-1,-1,-1,-1,-1,-1,-1,-1,-1,-1,-1,-1,-1],"loss_changes":[2.0976276E0,4.06066E-1,9.781569E-1,1.832099E-1,2.6478112E-1,0E0,2.2807872E-1,0E0,8.121719E-3,7.6331615E-2,2.6563803E-2,7.965708E-2,0E0,0E0,0E0,1.0757902E-1,3.7866414E-2,1.8225554E-2,2.5396718E-2,6.1136037E-2,4.9847603E-2,2.3938656E-2,0E0,4.1647434E-2,3.1192932E-2,6.4681266E-3,2.1417201E-3,0E0,7.3389895E-3,0E0,0E0,3.2993436E-2,2.7326286E-2,7.748276E-3,6.227009E-5,1.4502138E-2,8.484632E-3,8.05475E-3,0E0,1.9198526E-3,4.8775077E-3,1.6418286E-4,0E0,8.823513E-3,1.1078003E-3,1.1648014E-2,5.81073E-3,1.40744E-2,7.1989894E-3,0E0,0E0,0E0,0E0,5.335521E-3,1.6049974E-2,0E0,0E0,4.693534E-3,2.1658216E-3,1.5643203E-4,0E0,3.4556352E-4,1.426884E-4,0E0,0E0,2.759397E-3,2.9149004E-3,1.5462338E-4,3.3992133E-4,0E0,0E0,1.4250717E-4,3.100738E-3,1.9834638E-3,2.777529E-3,0E0,0E0,2.082441E-3,5.0119404E-4,1.2093387E-3,0E0,2.8310413E-4,4.911069E-3,1.04380306E-4,0E0,2.004518E-5,2.6165464E-5,0E0,0E0,0E0,0E0,1.3555732E-4,9.8517165E-5,0E0,5.6549284E-4,1.43100915E-5,0E0,0E0,0E0,0E0,3.9507573E-5,1.9360743E-3,0E0,0E0,7.4762106E-4,1.17256706E-4,0E0,0E0,0E0,0E0,0E0,0E0,0E0,0E0,0E0,0E0,0E0,0E0,0E0,0E0,0E0,0E0,0E0,0E0,0E0,0E0,0E0,0E0,0E0,0E0,0E0,0E0,0E0,0E0,0E0,0E0,0E0,0E0,0E0],"parents":[2147483647,0,0,1,1,2,2,3,3,4,4,6,6,8,8,9,9,10,10,11,11,15,15,16,16,17,17,18,18,19,19,20,20,21,21,23,23,24,24,25,25,26,26,28,28,31,31,32,32,33,33,34,34,35,35,36,36,37,37,39,39,40,40,41,41,43,43,44,44,45,45,46,46,47,47,48,48,53,53,54,54,57,57,58,58,59,59,61,61,62,62,65,65,66,66,67,67,68,68,71,71,72,72,73,73,74,74,77,77,78,78,79,79,81,81,82,82,83,83,85,85,86,86,91,91,92,92,94,94,95,95,100,100,101,101,104,104,105,105],"right_children":[2,4,6,8,10,-1,12,-1,14,16,18,20,-1,-1,-1,22,24,26,28,30,32,34,-1,36,38,40,42,-1,44,-1,-1,46,48,50,52,54,56,58,-1,60,62,64,-1,66,68,70,72,74,76,-1,-1,-1,-1,78,80,-1,-1,82,84,86,-1,88,90,-1,-1,92,94,96,98,-1,-1,100,102,104,106,-1,-1,108,110,112,-1,114,116,118,-1,120,122,-1,-1,-1,-1,124,126,-1,128,130,-1,-1,-1,-1,132,134,-1,-1,136,138,-1,-1,-1,-1,-1,-1,-1,-1,-1,-1,-1,-1,-1,-1,-1,-1,-1,-1,-1,-1,-1,-1,-1,-1,-1,-1,-1,-1,-1,-1,-1,-1,-1],"split_conditions":[4.574379E-1,-1.705797E0,-2.7571902E0,3.1531426E-1,-3.908053E-1,4.2236483E-1,2.5629282E0,-2.9985297E-1,9.069469E-1,-9.156815E-1,2.2935603E-2,-1.752902E0,1.8427105E-1,1.7522336E-3,-6.278987E-2,1.1382384E-1,-8.709829E-1,-1.1987884E-1,-8.379365E-1,-2.2980478E-1,4.2881304E-1,2.5329119E-2,-1.475361E-1,3.1349543E-1,6.823611E-1,6.709816E-2,-9.776444E-3,-6.669312E-2,-4.1777566E-2,1.9276278E-1,4.76718E-2,-6.111752E-1,2.021092E-1,-7.702552E-1,2.2004259E-1,1.6271165E-1,-8.1785226E-1,1.8975534E-1,-8.453484E-2,8.611714E-1,6.399467E-1,6.5686774E-1,5.823136E-4,-3.499405E-1,-1.1282047E-1,7.8226775E-1,-1.4617711E0,4.2684677E-1,1.5006917E0,-9.702444E-3,-7.7740416E-2,-1.0088998E-2,-2.1954536E-2,1.05593614E-1,-2.8826836E-1,-1.7645217E-2,-9.9608555E-2,2.451787E-2,6.661728E-1,2.9620001E-2,1.4327002E-2,-1.1545094E0,7.906543E-1,-2.3854753E-2,-5.780697E-3,-5.122717E-1,9.2080235E-2,1.1450732E-1,-1.8854506E-1,7.085312E-2,1.451397E-3,-7.702552E-1,1.2610318E-1,-3.400545E-1,5.093264E-1,1.01167955E-1,2.0125294E-2,5.5419295E-3,-2.4683559E-1,-3.062328E-1,-7.151213E-2,1.8233648E-1,1.7320508E0,-1.3057745E-1,1.5048695E-2,-2.154934E-1,-2.274516E-1,9.7025875E-3,3.8308933E-2,6.623268E-4,9.4059E-3,-1.9260919E-1,-1.1545094E0,-1.8168785E-2,7.233618E-1,5.7236475E-1,-4.855347E-3,-1.8711091E-4,1.1747247E-2,6.16951E-3,3.8563347E-1,-3.518967E-2,3.7981033E-2,1.4702225E-2,5.421066E-1,-1.551161E0,2.7794981E-2,-2.243377E-2,-4.831255E-2,-4.348469E-3,-1.6270582E-2,-2.0758057E-2,1.7522336E-3,-1.1234207E-2,-1.7351151E-3,-3.9057568E-2,-1.3741166E-2,-2.743292E-3,-8.536817E-3,-2.437973E-3,9.536743E-6,1.011467E-3,4.538536E-3,-6.8407063E-4,-9.511566E-3,-9.157277E-3,-3.3433273E-2,-2.3842496E-3,5.5785375E-3,1.2634278E-3,-7.784844E-4,1.1547089E-3,-2.295685E-3,1.0478854E-2,2.6108952E-2,7.246385E-2,3.318386E-2,-3.0464174E-3,3.4549714E-3],"split_indices":[76,41,79,0,76,0,41,0,0,7,8,44,0,0,0,65,76,9,73,26,41,66,0,47,45,89,80,0,76,0,0,3,4,0,2,65,5,45,0,78,25,0,0,78,90,8,40,73,3,0,0,0,0,72,73,0,0,34,4,33,0,0,1,0,0,50,31,10,10,0,0,0,69,11,3,0,0,63,2,0,0,14,94,86,0,0,4,0,0,0,0,1,0,0,48,0,0,0,0,0,1,24,0,0,64,0,0,0,0,0,0,0,0,0,0,0,0,0,0,0,0,0,0,0,0,0,0,0,0,0,0,0,0,0,0,0,0,0,0],"split_type":[0,0,0,0,0,0,0,0,0,0,0,0,0,0,0,0,0,0,0,0,0,0,0,0,0,0,0,0,0,0,0,0,0,0,0,0,0,0,0,0,0,0,0,0,0,0,0,0,0,0,0,0,0,0,0,0,0,0,0,0,0,0,0,0,0,0,0,0,0,0,0,0,0,0,0,0,0,0,0,0,0,0,0,0,0,0,0,0,0,0,0,0,0,0,0,0,0,0,0,0,0,0,0,0,0,0,0,0,0,0,0,0,0,0,0,0,0,0,0,0,0,0,0,0,0,0,0,0,0,0,0,0,0,0,0,0,0,0,0],"sum_hessian":[2.4E2,1.63E2,7.7E1,4E0,1.59E2,2E0,7.5E1,2E0,2E0,8.7E1,7.2E1,7E1,5E0,1E0,1E0,1.9E1,6.8E1,3.3E1,3.9E1,5E0,6.5E1,1.3E1,6E0,3.6E1,3.2E1,2.6E1,7E0,2E0,3.7E1,2E0,3E0,3.8E1,2.7E1,7E0,6E0,2.8E1,8E0,3E1,2E0,1.5E1,1.1E1,5E0,2E0,2.6E1,1.1E1,1E1,2.8E1,1.6E1,1.1E1,1E0,6E0,4E0,2E0,1.7E1,1.1E1,1E0,7E0,2.1E1,9E0,8E0,7E0,7E0,4E0,4E0,1E0,1.1E1,1.5E1,6E0,5E0,9E0,1E0,4E0,2.4E1,1.1E1,5E0,1E1,1E0,1E1,7E0,3E0,8E0,6E0,1.5E1,8E0,1E0,4E0,4E0,1E0,6E0,1E0,3E0,3E0,8E0,3E0,1.2E1,4E0,2E0,1E0,4E0,1E0,3E0,1.6E1,8E0,1E0,1E1,2E0,3E0,6E0,4E0,3E0,4E0,2E0,1E0,4E0,2E0,9E0,6E0,3E0,5E0,2E0,2E0,2E0,2E0,1E0,2E0,1E0,7E0,8E0,4E0,3E0,1E0,2E0,1E0,7E0,9E0,7E0,3E0,1E0,1E0],"tree_param":{"num_deleted":"0","num_feature":"97","num_nodes":"139","size_leaf_vector":"1"}},{"base_weights":[2.534989E-3,-2.9326867E-2,7.6262645E-2,-2.335617E-1,-2.4228878E-2,2.5341874E-1,6.05645E-2,-1.8631047E-1,-6.264239E-2,-4.351314E-2,-1.9144156E-3,3.9820194E-2,1.0495771E-1,-3.773157E-2,-1.17202915E-1,1.2553816E-2,-9.389951E-3,5.765347E-2,2.600956E-2,3.708871E-2,1.410908E-1,-2.6295152E-2,-5.3776447E-2,-2.062788E-2,-9.0011716E-2,3.4988627E-3,2.5406577E-2,-1.6377777E-2,4.719151E-3,8.66005E-2,2.8726498E-2,6.7834854E-3,3.156604E-2,4.6982355E-2,9.843827E-4,1.5584247E-1,2.1032335E-2,-1.3112068E-2,-3.752782E-2,-8.5410655E-2,-2.0912118E-2,-9.523392E-3,8.238279E-3,1.9029452E-2,6.4365864E-3,-4.0015794E-2,-1.130737E-2,1.359876E-3,9.6819885E-3,1.9609451E-2,6.0538247E-2,4.6277046E-3,2.7167294E-2,2.0444053E-3,1.1987114E-2,2.1871949E-2,2.6529312E-2,1.1812211E-2,3.2377854E-2,5.8672883E-2,1.1855926E-1,-1.9785762E-2,-6.455183E-3,-2.490375E-2,-6.000887E-2,6.1501265E-3,-1.0547011E-1,-3.1328153E-2,-7.015175E-3,-1.4739991E-3,-8.049393E-3,1.227057E-2,1.4888445E-3,4.6377184E-4,4.840088E-3,-2.7448926E-2,-6.70373E-3,-1.5462876E-3,5.9768357E-3,1.5229798E-2,2.418709E-3,-4.5855045E-3,9.22165E-3,-1.7445883E-3,2.3453522E-3,2.9971695E-2,4.7270455E-3,-1.6142545E-2,-8.183241E-3,-1.4811243E-3,-6.000352E-3,-9.353774E-3,-3.136114E-2,-4.2335887E-2,-1.5387058E-2,-3.5042763E-3,1.0534001E-2,-7.867127E-2,-4.9418766E-2,-2.183143E-2,-4.4391635E-3,-8.215427E-3,-3.1513486E-3,1.6098977E-3,7.954135E-3,2.6976587E-3,-1.1825561E-5,-3.2663982E-2,1.1524201E-3,-6.952286E-4,-1.5380166E-2,-5.1198006E-3,7.1661815E-4,3.6306382E-4,4.1580964E-3,5.7878497E-4,-4.0542604E-3,3.6621095E-5,-1.6067505E-3,2.022543E-2,6.0089114E-3,-1.6129812E-3,4.9801827E-3,-1.2459755E-3,-5.3935437E-3,1.3293028E-3,-2.8844834E-3,-2.3859502E-3,-7.4355127E-3,-3.8669587E-3,-2.1183275E-2,-2.2021295E-3,-1.1646223E-2,-4.3803696E-3,1.2265206E-3,-3.3550072E-2,-5.078602E-3,-2.5912859E-3,-9.307862E-5,4.8623086E-4,-9.902001E-4,-5.6213383E-3,-2.1269532E-2,4.6340562E-3,-2.3278163E-3,-1.4796525E-2,-3.9323536E-3,-5.450249E-4,-3.7324906E-3,8.8806154E-4,-1.356125E-4,-1.8756867E-3,4.240036E-4],"categories":[],"categories_nodes":[],"categories_segments":[],"categories_sizes":[],"default_left":[0,0,0,0,0,0,0,0,0,0,0,0,0,0,0,0,0,0,0,0,0,0,0,0,0,0,0,0,0,0,0,0,0,0,0,0,0,0,0,0,0,0,0,0,0,0,0,0,0,0,0,0,0,0,0,0,0,0,0,0,0,0,0,0,0,0,0,0,0,0,0,0,0,0,0,0,0,0,0,0,0,0,0,0,0,0,0,0,0,0,0,0,0,0,0,0,0,0,0,0,0,0,0,0,0,0,0,0,0,0,0,0,0,0,0,0,0,0,0,0,0,0,0,0,0,0,0,0,0,0,0,0,0,0,0,0,0,0,0,0,0,0,0,0,0,0,0,0,0,0,0,0,0],"id":6,"left_children":[1,3,5,7,9,-1,11,-1,-1,13,15,17,19,21,23,25,27,29,31,33,35,37,39,-1,-1,41,43,45,47,49,51,53,55,57,-1,59,-1,61,63,65,67,69,71,-1,73,-1,75,77,-1,79,-1,81,-1,83,-1,85,-1,-1,-1,-1,-1,87,89,91,93,95,97,99,101,-1,-1,103,105,-1,-1,107,109,111,113,-1,-1,115,-1,117,-1,119,121,-1,123,125,-1,127,129,-1,131,133,-1,-1,135,-1,-1,-1,137,-1,-1,-1,139,141,-1,143,145,147,149,-1,-1,-1,-1,-1,-1,-1,-1,151,-1,-1,-1,-1,-1,-1,-1,-1,-1,-1,-1,-1,-1,-1,-1,-1,-1,-1,-1,-1,-1,-1,-1,-1,-1,-1,-1,-1,-1,-1,-1],"loss_changes":[5.683696E-1,1.7030166E-1,3.7104023E-1,7.3384643E-3,7.134947E-2,0E0,6.120488E-2,0E0,0E0,3.3495516E-2,8.554185E-3,1.0814898E-2,4.871811E-2,1.3999604E-2,1.1150204E-2,3.053397E-3,5.2040704E-3,1.5096612E-2,2.9907506E-3,3.0793156E-3,1.643622E-2,7.0600696E-3,3.3561535E-2,0E0,0E0,1.1276603E-3,1.1123931E-3,8.1750285E-3,6.684374E-4,7.5988844E-3,4.577155E-3,4.5941456E-4,1.8533003E-3,2.7141813E-4,0E0,9.766817E-3,0E0,9.829295E-4,6.16822E-3,3.187187E-2,2.3857467E-3,1.04570005E-4,3.3553486E-4,0E0,3.0696756E-5,0E0,2.268217E-3,2.1050652E-4,0E0,1.6750209E-4,0E0,6.642703E-4,0E0,5.6271907E-5,0E0,1.9413633E-3,0E0,0E0,0E0,0E0,0E0,7.7094417E-4,2.3207854E-4,1.6144877E-3,3.15151E-3,5.020168E-4,1.3647258E-2,9.4104744E-4,1.8904661E-4,0E0,0E0,4.00797E-5,2.7130536E-5,0E0,0E0,1.1348869E-3,1.3968814E-3,8.453417E-5,2.6532536E-5,0E0,0E0,5.472888E-5,0E0,5.219171E-6,0E0,4.0826667E-4,1.4931557E-4,0E0,1.0864256E-5,9.672489E-5,0E0,6.5099506E-5,1.0500653E-3,0E0,7.0181384E-5,7.811563E-5,0E0,0E0,1.1234377E-3,0E0,0E0,0E0,2.3815788E-5,0E0,0E0,0E0,8.073395E-6,5.717436E-5,0E0,4.857161E-4,7.394261E-4,1.2896569E-5,5.372365E-6,0E0,0E0,0E0,0E0,0E0,0E0,0E0,0E0,1.2739206E-5,0E0,0E0,0E0,0E0,0E0,0E0,0E0,0E0,0E0,0E0,0E0,0E0,0E0,0E0,0E0,0E0,0E0,0E0,0E0,0E0,0E0,0E0,0E0,0E0,0E0,0E0,0E0,0E0,0E0,0E0,0E0],"parents":[2147483647,0,0,1,1,2,2,3,3,4,4,6,6,9,9,10,10,11,11,12,12,13,13,14,14,15,15,16,16,17,17,18,18,19,19,20,20,21,21,22,22,25,25,26,26,27,27,28,28,29,29,30,30,31,31,32,32,33,33,35,35,37,37,38,38,39,39,40,40,41,41,42,42,44,44,46,46,47,47,49,49,51,51,53,53,55,55,61,61,62,62,63,63,64,64,65,65,66,66,67,67,68,68,71,71,72,72,75,75,76,76,77,77,78,78,81,81,83,83,85,85,86,86,88,88,89,89,91,91,92,92,94,94,95,95,98,98,102,102,106,106,107,107,109,109,110,110,111,111,112,112,121,121],"right_children":[2,4,6,8,10,-1,12,-1,-1,14,16,18,20,22,24,26,28,30,32,34,36,38,40,-1,-1,42,44,46,48,50,52,54,56,58,-1,60,-1,62,64,66,68,70,72,-1,74,-1,76,78,-1,80,-1,82,-1,84,-1,86,-1,-1,-1,-1,-1,88,90,92,94,96,98,100,102,-1,-1,104,106,-1,-1,108,110,112,114,-1,-1,116,-1,118,-1,120,122,-1,124,126,-1,128,130,-1,132,134,-1,-1,136,-1,-1,-1,138,-1,-1,-1,140,142,-1,144,146,148,150,-1,-1,-1,-1,-1,-1,-1,-1,152,-1,-1,-1,-1,-1,-1,-1,-1,-1,-1,-1,-1,-1,-1,-1,-1,-1,-1,-1,-1,-1,-1,-1,-1,-1,-1,-1,-1,-1,-1,-1],"split_conditions":[5.822418E-1,-2.2274618E0,-2.7571902E0,-2.273752E0,-3.908053E-1,2.5341874E-1,7.914448E-1,-1.8631047E-1,-6.264239E-2,3.0018467E-1,-5.4553044E-1,-2.8872502E-1,6.2868404E-1,2.3226151E-1,-3.9764687E-1,1.9604233E-1,3.6489267E-2,-9.693602E-3,-2.174267E-1,7.8226775E-1,4.1531044E-1,2.3603545E-1,5.2900606E-1,-2.062788E-2,-9.0011716E-2,-8.0725506E-2,6.399467E-1,-8.379365E-1,5.5457663E-2,-8.832764E-1,-6.0228813E-2,3.1531426E-1,-2.003818E-1,-7.946421E-1,9.843827E-4,1.4969656E-1,2.1032335E-2,2.751166E-1,2.2018415E-1,-7.636558E-2,-3.499405E-1,1.1752853E-1,-6.648404E-1,1.9029452E-2,-3.062328E-1,-4.0015794E-2,3.7973452E-1,1.51284E-1,9.6819885E-3,-6.7603916E-1,6.0538247E-2,5.5780315E-1,2.7167294E-2,9.97775E-2,1.1987114E-2,-6.6359067E-1,2.6529312E-2,1.1812211E-2,3.2377854E-2,5.8672883E-2,1.1855926E-1,-6.933374E-1,7.6263495E-2,9.8802045E-2,1.1420681E-1,5.3609936E-3,3.6370906E-1,3.3166249E0,-3.9619628E-1,-1.4739991E-3,-8.049393E-3,-9.6088123E-1,-1.8572798E0,4.6377184E-4,4.840088E-3,7.200912E-1,4.0214038E-1,-3.8202617E-1,-9.6088123E-1,1.5229798E-2,2.418709E-3,-2.0103843E0,9.22165E-3,-3.062328E-1,2.3453522E-3,1.1450732E-1,4.0582526E-1,-1.6142545E-2,-7.10705E-1,2.9243782E-1,-6.000352E-3,-5.9170294E-1,-1.0573142E0,-4.2335887E-2,-2.154934E-1,-1.551161E0,1.0534001E-2,-7.867127E-2,3.125841E-1,-2.183143E-2,-4.4391635E-3,-8.215427E-3,-2.2430219E-1,1.6098977E-3,7.954135E-3,2.6976587E-3,2.4538216E-1,-8.651988E-1,1.1524201E-3,-3.3145505E-1,6.244436E-2,3.4047853E-2,-5.269101E-2,3.6306382E-4,4.1580964E-3,5.7878497E-4,-4.0542604E-3,3.6621095E-5,-1.6067505E-3,2.022543E-2,6.0089114E-3,-8.651988E-1,4.9801827E-3,-1.2459755E-3,-5.3935437E-3,1.3293028E-3,-2.8844834E-3,-2.3859502E-3,-7.4355127E-3,-3.8669587E-3,-2.1183275E-2,-2.2021295E-3,-1.1646223E-2,-4.3803696E-3,1.2265206E-3,-3.3550072E-2,-5.078602E-3,-2.5912859E-3,-9.307862E-5,4.8623086E-4,-9.902001E-4,-5.6213383E-3,-2.1269532E-2,4.6340562E-3,-2.3278163E-3,-1.4796525E-2,-3.9323536E-3,-5.450249E-4,-3.7324906E-3,8.8806154E-4,-1.356125E-4,-1.8756867E-3,4.240036E-4],"split_indices":[76,25,79,1,76,0,61,0,0,89,8,28,41,63,0,36,76,54,62,8,42,32,63,0,0,78,25,73,89,2,80,0,25,36,0,80,0,8,77,12,78,2,48,0,0,0,48,3,0,0,0,7,0,15,0,25,0,0,0,0,0,47,89,64,5,1,50,19,1,0,0,0,0,0,0,3,24,54,0,0,0,1,0,0,0,49,3,0,2,1,0,40,0,0,0,0,0,0,4,0,0,0,3,0,0,0,1,0,0,15,72,2,11,0,0,0,0,0,0,0,0,0,0,0,0,0,0,0,0,0,0,0,0,0,0,0,0,0,0,0,0,0,0,0,0,0,0,0,0,0,0,0,0],"split_type":[0,0,0,0,0,0,0,0,0,0,0,0,0,0,0,0,0,0,0,0,0,0,0,0,0,0,0,0,0,0,0,0,0,0,0,0,0,0,0,0,0,0,0,0,0,0,0,0,0,0,0,0,0,0,0,0,0,0,0,0,0,0,0,0,0,0,0,0,0,0,0,0,0,0,0,0,0,0,0,0,0,0,0,0,0,0,0,0,0,0,0,0,0,0,0,0,0,0,0,0,0,0,0,0,0,0,0,0,0,0,0,0,0,0,0,0,0,0,0,0,0,0,0,0,0,0,0,0,0,0,0,0,0,0,0,0,0,0,0,0,0,0,0,0,0,0,0,0,0,0,0,0,0],"sum_hessian":[2.4E2,1.68E2,7.2E1,3E0,1.65E2,2E0,7E1,1E0,2E0,8.8E1,7.7E1,4.9E1,2.1E1,8.3E1,5E0,2.6E1,5.1E1,2E1,2.9E1,8E0,1.3E1,5E1,3.3E1,2E0,3E0,1.6E1,1E1,3.4E1,1.7E1,9E0,1.1E1,7E0,2.2E1,6E0,2E0,1.1E1,2E0,2.4E1,2.6E1,1.6E1,1.7E1,4E0,1.2E1,7E0,3E0,2E0,3.2E1,1.4E1,3E0,2E0,7E0,5E0,6E0,6E0,1E0,1.4E1,8E0,2E0,4E0,6E0,5E0,1.1E1,1.3E1,1.8E1,8E0,3E0,1.3E1,9E0,8E0,2E0,2E0,7E0,5E0,1E0,2E0,6E0,2.6E1,9E0,5E0,1E0,1E0,3E0,2E0,2E0,4E0,9E0,5E0,6E0,5E0,6E0,7E0,6E0,1.2E1,6E0,2E0,2E0,1E0,8E0,5E0,7E0,2E0,2E0,6E0,1E0,6E0,1E0,4E0,5E0,1E0,1.6E1,1E1,3E0,6E0,1E0,4E0,1E0,2E0,1E0,1E0,7E0,2E0,2E0,3E0,1E0,4E0,3E0,3E0,3E0,3E0,2E0,1E1,1E0,1E0,1E0,1E0,4E0,1E0,4E0,2E0,3E0,1E0,1E0,4E0,4E0,1.2E1,4E0,6E0,1E0,2E0,3E0,3E0,1E0,1E0],"tree_param":{"num_deleted":"0","num_feature":"97","num_nodes":"153","size_leaf_vector":"1"}},{"base_weights":[1.030724E-3,1.5205155E-1,-2.1416452E-3,-2.2222959E-2,2.0072276E-2,-1.304173E-1,-1.8922947E-2,1.6148744E-2,7.7739306E-2,-3.9921347E-2,-1.300497E-2,1.29375085E-2,3.6380444E-2,7.3503114E-2,1.3538599E-2,-2.2562552E-2,-7.832816E-2,-2.2026358E-2,-6.5154466E-3,4.312607E-3,2.1477848E-2,1.1193847E-2,-5.444527E-4,-3.8043402E-2,-1.4501889E-2,-6.128693E-3,-5.9598185E-2,-7.970081E-3,-3.0703573E-2,-2.474308E-2,-3.98509E-3,-2.3347854E-3,1.0093757E-2,1.775851E-2,6.074047E-2,-1.6350174E-2,-8.91304E-3,-4.5481366E-3,-1.3453866E-2,-6.961743E-3,-3.6290944E-2,-2.6101496E-2,-8.538818E-3,1.0506153E-2,-5.0646877E-3,-1.2273026E-2,1.3023874E-4,1.729231E-2,5.7737953E-3,3.908539E-2,1.3164032E-2,1.0660744E-2,4.1485213E-2,-1.006186E-2,-1.346747E-3,-5.964001E-3,8.364916E-4,-5.3558922E-3,8.5859303E-4,-2.1238327E-2,-4.6675965E-2,-7.041295E-4,-8.116341E-3,2.5691988E-4,8.233643E-3,-3.4922778E-3,-1.2883306E-2,1.8847616E-3,-6.5629957E-3,1.3768769E-2,4.2282487E-3,9.917942E-4,7.5485525E-3,2.7700808E-2,7.13501E-3,9.943673E-3,1.4105607E-2,-6.847382E-3,-2.7047396E-3,-1.1458397E-4,-1.0974884E-3,-4.092722E-3,-6.7119603E-4,-4.4918063E-4,9.686471E-4,-2.9654505E-3,-1.6509738E-2,-3.061485E-2,-9.5644E-4,-7.5216294E-4,1.18446354E-4,-4.95049E-3,-6.9313054E-4,-1.1216641E-3,-1.1470643E-2,3.8784745E-4,3.8201811E-3,-9.040833E-5,-4.877043E-3,5.547181E-3,8.5172657E-4,7.895204E-3,1.3904572E-3],"categories":[],"categories_nodes":[],"categories_segments":[],"categories_sizes":[],"default_left":[0,0,0,0,0,0,0,0,0,0,0,0,0,0,0,0,0,0,0,0,0,0,0,0,0,0,0,0,0,0,0,0,0,0,0,0,0,0,0,0,0,0,0,0,0,0,0,0,0,0,0,0,0,0,0,0,0,0,0,0,0,0,0,0,0,0,0,0,0,0,0,0,0,0,0,0,0,0,0,0,0,0,0,0,0,0,0,0,0,0,0,0,0,0,0,0,0,0,0,0,0,0,0],"id":7,"left_children":[1,-1,3,5,7,-1,9,11,13,15,17,19,-1,-1,21,23,25,27,29,31,33,-1,-1,-1,35,-1,-1,37,39,41,43,45,47,49,51,-1,53,55,-1,57,59,-1,61,63,65,-1,67,69,71,73,75,-1,-1,77,79,81,83,-1,-1,85,87,89,-1,-1,-1,91,93,95,97,-1,-1,-1,99,-1,-1,101,-1,-1,-1,-1,-1,-1,-1,-1,-1,-1,-1,-1,-1,-1,-1,-1,-1,-1,-1,-1,-1,-1,-1,-1,-1,-1,-1],"loss_changes":[1.935041E-1,0E0,1.07060306E-1,7.7026024E-2,2.453807E-2,0E0,1.5014332E-2,1.4643652E-2,1.8459458E-2,1.6233508E-2,5.652396E-3,7.4206553E-3,0E0,0E0,3.126574E-4,5.6649502E-3,1.0429658E-2,4.7560353E-3,2.6226183E-3,2.0219048E-3,6.368922E-3,0E0,0E0,0E0,1.0395972E-3,0E0,0E0,7.387934E-4,3.0637104E-3,1.7564166E-3,8.8238006E-4,1.1193359E-3,7.708869E-4,4.1887993E-3,2.1563563E-4,0E0,1.0814145E-4,1.19347416E-4,0E0,1.11711124E-4,2.1351147E-3,0E0,1.858885E-4,1.2379026E-4,5.6971156E-4,0E0,2.8246865E-4,4.177168E-4,1.2647739E-4,9.918064E-4,1.1321711E-3,0E0,0E0,3.855815E-5,1.3233184E-6,4.2210653E-5,6.141009E-6,0E0,0E0,8.870447E-4,2.0752288E-3,1.7335971E-6,0E0,0E0,0E0,4.6867103E-4,5.13582E-4,1.0134452E-4,4.8964677E-5,0E0,0E0,0E0,1.2206787E-4,0E0,0E0,7.78612E-4,0E0,0E0,0E0,0E0,0E0,0E0,0E0,0E0,0E0,0E0,0E0,0E0,0E0,0E0,0E0,0E0,0E0,0E0,0E0,0E0,0E0,0E0,0E0,0E0,0E0,0E0,0E0],"parents":[2147483647,0,0,2,2,3,3,4,4,6,6,7,7,8,8,9,9,10,10,11,11,14,14,15,15,16,16,17,17,18,18,19,19,20,20,24,24,27,27,28,28,29,29,30,30,31,31,32,32,33,33,34,34,36,36,37,37,39,39,40,40,42,42,43,43,44,44,46,46,47,47,48,48,49,49,50,50,53,53,54,54,55,55,56,56,59,59,60,60,61,61,65,65,66,66,67,67,68,68,72,72,75,75],"right_children":[2,-1,4,6,8,-1,10,12,14,16,18,20,-1,-1,22,24,26,28,30,32,34,-1,-1,-1,36,-1,-1,38,40,42,44,46,48,50,52,-1,54,56,-1,58,60,-1,62,64,66,-1,68,70,72,74,76,-1,-1,78,80,82,84,-1,-1,86,88,90,-1,-1,-1,92,94,96,98,-1,-1,-1,100,-1,-1,102,-1,-1,-1,-1,-1,-1,-1,-1,-1,-1,-1,-1,-1,-1,-1,-1,-1,-1,-1,-1,-1,-1,-1,-1,-1,-1,-1],"split_conditions":[-2.7571902E0,1.5205155E-1,-7.139204E-2,-2.273752E0,1.1864593E0,-1.304173E-1,-7.95671E-1,2.0654175E0,-2.154934E-1,5.0668585E-1,-7.652169E-1,6.985843E-1,3.6380444E-2,7.3503114E-2,2.284225E-1,2.4350457E-2,-5.671809E-1,-3.5999194E-2,-9.17292E-1,6.6561657E-3,3.3166249E0,1.1193847E-2,-5.444527E-4,-3.8043402E-2,-1.2205406E0,-6.128693E-3,-5.9598185E-2,7.914448E-1,-1.4022844E-1,-2.8951254E-2,-1.319883E0,-8.317029E-1,-2.4097893E-1,-1.2423614E0,-6.7603916E-1,-1.6350174E-2,9.843721E-1,3.8966346E-1,-1.3453866E-2,1.9969964E-1,2.2017153E-1,-2.6101496E-2,3.6210906E-2,-1.0573142E0,9.893766E-1,-1.2273026E-2,1.0124369E-1,3.3534625E-1,-2.7428642E-1,2.2907163E-1,8.2591987E-1,1.0660744E-2,4.1485213E-2,1.5083824E-1,-3.5999194E-2,1.2096804E-1,-3.3638138E-1,-5.3558922E-3,8.5859303E-4,6.0446158E-2,3.5038027E-1,-3.9764687E-1,-8.116341E-3,2.5691988E-4,8.233643E-3,-3.499405E-1,-3.891805E-1,4.3178132E-1,-8.06875E-1,1.3768769E-2,4.2282487E-3,9.917942E-4,1.3229679E-1,2.7700808E-2,7.13501E-3,6.10474E-2,1.4105607E-2,-6.847382E-3,-2.7047396E-3,-1.1458397E-4,-1.0974884E-3,-4.092722E-3,-6.7119603E-4,-4.4918063E-4,9.686471E-4,-2.9654505E-3,-1.6509738E-2,-3.061485E-2,-9.5644E-4,-7.5216294E-4,1.18446354E-4,-4.95049E-3,-6.9313054E-4,-1.1216641E-3,-1.1470643E-2,3.8784745E-4,3.8201811E-3,-9.040833E-5,-4.877043E-3,5.547181E-3,8.5172657E-4,7.895204E-3,1.3904572E-3],"split_indices":[79,0,76,1,80,0,25,66,0,79,76,76,0,0,0,13,2,0,48,78,19,0,0,0,47,0,0,61,31,34,50,73,26,63,0,0,77,15,0,2,81,0,3,0,24,0,52,8,47,24,80,0,0,89,0,12,2,0,0,14,2,0,0,0,0,78,4,1,3,0,0,0,65,0,0,15,0,0,0,0,0,0,0,0,0,0,0,0,0,0,0,0,0,0,0,0,0,0,0,0,0,0,0],"split_type":[0,0,0,0,0,0,0,0,0,0,0,0,0,0,0,0,0,0,0,0,0,0,0,0,0,0,0,0,0,0,0,0,0,0,0,0,0,0,0,0,0,0,0,0,0,0,0,0,0,0,0,0,0,0,0,0,0,0,0,0,0,0,0,0,0,0,0,0,0,0,0,0,0,0,0,0,0,0,0,0,0,0,0,0,0,0,0,0,0,0,0,0,0,0,0,0,0,0,0,0,0,0,0],"sum_hessian":[2.4E2,2E0,2.38E2,1.25E2,1.13E2,1E0,1.24E2,1.07E2,6E0,2.6E1,9.8E1,1.01E2,6E0,3E0,3E0,1.9E1,7E0,4E1,5.8E1,5.1E1,5E1,2E0,1E0,2E0,1.7E1,2E0,5E0,1.6E1,2.4E1,6E0,5.2E1,2.4E1,2.7E1,4.7E1,3E0,4E0,1.3E1,1.4E1,2E0,5E0,1.9E1,2E0,4E0,3E0,4.9E1,2E0,2.2E1,9E0,1.8E1,7E0,4E1,1E0,2E0,1.1E1,2E0,1.1E1,3E0,4E0,1E0,9E0,1E1,2E0,2E0,1E0,2E0,4.2E1,7E0,1.8E1,4E0,5E0,4E0,6E0,1.2E1,5E0,2E0,3.2E1,8E0,8E0,3E0,1E0,1E0,9E0,2E0,1E0,2E0,3E0,6E0,9E0,1E0,1E0,1E0,1.3E1,2.9E1,3E0,4E0,1.5E1,3E0,1E0,3E0,9E0,3E0,2.2E1,1E1],"tree_param":{"num_deleted":"0","num_feature":"97","num_nodes":"103","size_leaf_vector":"1"}},{"base_weights":[4.7944987E-4,9.123077E-2,-1.4251316E-3,-9.12921E-2,-1.5251877E-4,-7.212749E-3,1.47034535E-2,-5.5251517E-3,-2.61302E-2,5.3390503E-2,1.12753175E-2,-1.14281E-2,-2.0857006E-3,-4.161787E-2,-1.1963931E-2,5.6840897E-2,9.034634E-3,9.2956545E-3,3.222542E-2,-6.4965067E-3,-1.8530196E-2,-1.5386868E-2,-1.5677653E-3,-1.8209219E-3,-1.755538E-2,1.01223E-3,6.552887E-3,2.1530151E-2,6.8977354E-3,-1.9804954E-3,-9.55869E-3,-2.5384733E-2,-5.8086715E-3,-1.0756677E-3,-9.780121E-3,2.7114868E-3,-2.812481E-3,1.6201401E-2,5.203247E-3,4.0115314E-3,1.340935E-2,2.6566643E-4,-3.507455E-3,-5.4634535E-3,-9.011168E-3,-3.2774024E-2,-1.0070006E-2,-2.1290779E-4,-8.571069E-3,4.2643864E-3,-2.075986E-3,4.276276E-3,-1.7051697E-4,9.821606E-3,2.6754618E-3,1.4140435E-2,8.823668E-3,-2.622843E-4,5.4123404E-4,-3.0758285E-3,-7.1222306E-4,-5.8176043E-3,-9.636641E-4,-2.1918833E-2,-8.1453327E-4,-1.1512757E-3,-6.7898943E-3,-5.709648E-4,6.009579E-4,-2.661896E-3,-6.736088E-3,-1.2262345E-3,3.607035E-3,-6.377392E-3,-8.8686374E-4,3.5702134E-3,-3.4253256E-4,1.785164E-3,6.5192985E-3],"categories":[],"categories_nodes":[],"categories_segments":[],"categories_sizes":[],"default_left":[0,0,0,0,0,0,0,0,0,0,0,0,0,0,0,0,0,0,0,0,0,0,0,0,0,0,0,0,0,0,0,0,0,0,0,0,0,0,0,0,0,0,0,0,0,0,0,0,0,0,0,0,0,0,0,0,0,0,0,0,0,0,0,0,0,0,0,0,0,0,0,0,0,0,0,0,0,0,0],"id":8,"left_children":[1,-1,3,-1,5,7,9,11,13,15,17,19,21,-1,23,-1,25,27,-1,29,31,-1,33,35,-1,-1,-1,37,39,41,43,45,47,49,-1,-1,-1,-1,51,53,55,57,59,61,-1,63,65,67,69,71,73,-1,-1,-1,75,-1,77,-1,-1,-1,-1,-1,-1,-1,-1,-1,-1,-1,-1,-1,-1,-1,-1,-1,-1,-1,-1,-1,-1],"loss_changes":[6.978879E-2,0E0,4.5821495E-2,0E0,2.5069062E-2,5.027483E-3,9.610089E-3,3.0216002E-3,7.1319835E-3,1.0147287E-2,5.549061E-3,1.8059742E-3,1.1311946E-3,0E0,1.8763826E-3,0E0,3.702991E-5,1.9051041E-3,0E0,4.5125012E-4,1.7709527E-3,0E0,6.711971E-4,1.6657612E-4,0E0,0E0,0E0,8.4228255E-4,1.0738389E-3,5.23788E-5,3.6514003E-4,1.2542745E-3,1.3729464E-4,5.05636E-4,0E0,0E0,0E0,0E0,4.425418E-5,6.6617294E-4,6.30517E-4,3.5251417E-6,2.7724018E-5,1.966707E-4,0E0,1.0127956E-3,3.9248145E-5,4.5417455E-6,1.607457E-5,1.7762234E-4,3.882689E-4,0E0,0E0,0E0,4.2865495E-4,0E0,1.3485213E-4,0E0,0E0,0E0,0E0,0E0,0E0,0E0,0E0,0E0,0E0,0E0,0E0,0E0,0E0,0E0,0E0,0E0,0E0,0E0,0E0,0E0,0E0],"parents":[2147483647,0,0,2,2,4,4,5,5,6,6,7,7,8,8,9,9,10,10,11,11,12,12,14,14,16,16,17,17,19,19,20,20,22,22,23,23,27,27,28,28,29,29,30,30,31,31,32,32,33,33,38,38,39,39,40,40,41,41,42,42,43,43,45,45,46,46,47,47,48,48,49,49,50,50,54,54,56,56],"right_children":[2,-1,4,-1,6,8,10,12,14,16,18,20,22,-1,24,-1,26,28,-1,30,32,-1,34,36,-1,-1,-1,38,40,42,44,46,48,50,-1,-1,-1,-1,52,54,56,58,60,62,-1,64,66,68,70,72,74,-1,-1,-1,76,-1,78,-1,-1,-1,-1,-1,-1,-1,-1,-1,-1,-1,-1,-1,-1,-1,-1,-1,-1,-1,-1,-1,-1],"split_conditions":[-2.7571902E0,9.123077E-2,-2.273752E0,-9.12921E-2,4.1513148E-1,2.8437746E-1,-1.752902E0,-7.652169E-1,-7.631942E-1,-2.2980478E-1,2.4527383E0,2.4688527E-1,-5.3832283E0,-4.161787E-2,5.728053E-1,5.6840897E-2,-6.7603916E-1,9.2080235E-2,3.222542E-2,-3.5999194E-2,1.8260615E-1,-1.5386868E-2,1.3244603E0,-1.5244799E0,-1.755538E-2,1.01223E-3,6.552887E-3,4.4296592E-1,6.4677966E-1,-6.705734E-2,7.7070974E-2,2.7500784E-1,-7.688308E-1,-8.910777E-2,-9.780121E-3,2.7114868E-3,-2.812481E-3,1.6201401E-2,-3.5999194E-2,-9.708336E-1,-1.0654713E0,-8.146511E-1,1.4052201E-2,-1.5613997E-1,-9.011168E-3,2.013922E-1,-1.0358591E0,4.8727697E-1,1.5877521E-1,-8.765516E-1,-1.1008188E0,4.276276E-3,-1.7051697E-4,9.821606E-3,-2.4332535E-3,1.4140435E-2,-9.0429455E-2,-2.622843E-4,5.4123404E-4,-3.0758285E-3,-7.1222306E-4,-5.8176043E-3,-9.636641E-4,-2.1918833E-2,-8.1453327E-4,-1.1512757E-3,-6.7898943E-3,-5.709648E-4,6.009579E-4,-2.661896E-3,-6.736088E-3,-1.2262345E-3,3.607035E-3,-6.377392E-3,-8.8686374E-4,3.5702134E-3,-3.4253256E-4,1.785164E-3,6.5192985E-3],"split_indices":[79,0,1,0,76,89,44,76,62,26,40,63,68,0,24,0,0,31,0,0,27,0,50,8,0,0,0,15,80,32,14,4,30,82,0,0,0,0,0,79,10,7,9,73,0,5,2,0,2,1,1,0,0,0,83,0,63,0,0,0,0,0,0,0,0,0,0,0,0,0,0,0,0,0,0,0,0,0,0],"split_type":[0,0,0,0,0,0,0,0,0,0,0,0,0,0,0,0,0,0,0,0,0,0,0,0,0,0,0,0,0,0,0,0,0,0,0,0,0,0,0,0,0,0,0,0,0,0,0,0,0,0,0,0,0,0,0,0,0,0,0,0,0,0,0,0,0,0,0,0,0,0,0,0,0,0,0,0,0,0,0],"sum_hessian":[2.4E2,2E0,2.38E2,1E0,2.37E2,1.61E2,7.6E1,1.49E2,1.2E1,5E0,7.1E1,5.4E1,9.5E1,2E0,1E1,2E0,3E0,6.9E1,2E0,3.3E1,2.1E1,1E0,9.4E1,7E0,3E0,1E0,2E0,1E1,5.9E1,1.4E1,1.9E1,1.3E1,8E0,9.2E1,2E0,2E0,5E0,7E0,3E0,4.2E1,1.7E1,6E0,8E0,1.2E1,7E0,8E0,5E0,3E0,5E0,1.4E1,7.8E1,2E0,1E0,3E0,3.9E1,4E0,1.3E1,3E0,3E0,4E0,4E0,5E0,7E0,7E0,1E0,1E0,4E0,2E0,1E0,3E0,2E0,3E0,1.1E1,4E0,7.4E1,1.9E1,2E1,4E0,9E0],"tree_param":{"num_deleted":"0","num_feature":"97","num_nodes":"79","size_leaf_vector":"1"}},{"base_weights":[2.071897E-4,5.473862E-2,-9.362358E-4,-6.390446E-2,-4.5149267E-5,-4.54852E-3,6.7814877E-3,-1.1296572E-2,-2.6736239E-3,3.2090187E-2,5.0188913E-3,-2.2504522E-2,-7.1487003E-3,-2.3795587E-3,-1.0770894E-2,3.410454E-2,5.504608E-3,4.034346E-3,1.9335557E-2,-1.5058648E-2,-1.9176933E-3,-8.355189E-3,-2.0460738E-3,7.083893E-4,3.931427E-3,1.2159109E-2,3.1820934E-3,-1.9339753E-2,-7.660707E-3,5.65597E-4,-3.2064717E-3,-2.6753156E-3,5.382591E-3,9.8918155E-3,3.71027E-3,7.410507E-3,2.545394E-3,-6.4669997E-3,-3.0109405E-3,-2.2430421E-4,8.181811E-4,-3.8097383E-4,-4.4128597E-3,-2.2949267E-3,-6.9097285E-3,4.155922E-3,1.7210245E-3,5.2585604E-4,2.6176453E-3,2.2290734E-4,4.282193E-3,-2.1466257E-3,-2.231598E-4,-2.8817654E-3,-5.0468446E-4,5.783272E-4,-1.8427427E-3,1.7237663E-4,1.2619018E-3,7.2668196E-4,-6.235504E-3,1.5119553E-3,4.012617E-3],"categories":[],"categories_nodes":[],"categories_segments":[],"categories_sizes":[],"default_left":[0,0,0,0,0,0,0,0,0,0,0,0,0,0,0,0,0,0,0,0,0,0,0,0,0,0,0,0,0,0,0,0,0,0,0,0,0,0,0,0,0,0,0,0,0,0,0,0,0,0,0,0,0,0,0,0,0,0,0,0,0,0,0],"id":9,"left_children":[1,-1,3,-1,5,7,9,11,13,15,17,-1,19,21,-1,-1,23,25,-1,27,29,-1,31,-1,-1,33,35,-1,37,39,41,43,45,-1,47,-1,49,-1,51,-1,-1,-1,53,55,-1,-1,57,-1,-1,59,61,-1,-1,-1,-1,-1,-1,-1,-1,-1,-1,-1,-1],"loss_changes":[2.5168449E-2,0E0,2.2478653E-2,0E0,7.3476504E-3,1.79167E-3,4.076801E-3,3.1021815E-3,4.6944967E-4,3.6351848E-3,2.28078E-3,0E0,1.1296779E-3,4.0659565E-4,0E0,0E0,1.0385993E-5,5.706515E-4,0E0,1.1506698E-3,5.9420956E-5,0E0,5.3326145E-4,0E0,0E0,2.3131305E-4,4.4141896E-4,0E0,9.8013086E-5,5.757729E-6,3.442497E-5,3.1995814E-4,3.895859E-5,0E0,3.5723933E-6,0E0,3.0963973E-4,0E0,6.147864E-6,0E0,0E0,0E0,7.1061804E-6,2.5594485E-4,0E0,0E0,1.5873429E-6,0E0,0E0,3.6926247E-4,1.6966957E-4,0E0,0E0,0E0,0E0,0E0,0E0,0E0,0E0,0E0,0E0,0E0,0E0],"parents":[2147483647,0,0,2,2,4,4,5,5,6,6,7,7,8,8,9,9,10,10,12,12,13,13,16,16,17,17,19,19,20,20,22,22,25,25,26,26,28,28,29,29,30,30,31,31,32,32,34,34,36,36,38,38,42,42,43,43,46,46,49,49,50,50],"right_children":[2,-1,4,-1,6,8,10,12,14,16,18,-1,20,22,-1,-1,24,26,-1,28,30,-1,32,-1,-1,34,36,-1,38,40,42,44,46,-1,48,-1,50,-1,52,-1,-1,-1,54,56,-1,-1,58,-1,-1,60,62,-1,-1,-1,-1,-1,-1,-1,-1,-1,-1,-1,-1],"split_conditions":[-2.7571902E0,5.473862E-2,-2.273752E0,-6.390446E-2,1.9725357E-1,-7.95671E-1,-1.752902E0,-2.303057E-2,1.2770717E0,-2.2980478E-1,2.4527383E0,-2.2504522E-2,6.389343E-2,-5.551803E-1,-1.0770894E-2,3.410454E-2,-6.7603916E-1,-1.2423614E0,1.9335557E-2,-1.0156265E0,5.159242E-2,-8.355189E-3,8.782837E-1,7.083893E-4,3.931427E-3,-3.0184832E-1,-1.985746E0,-1.9339753E-2,7.595449E-2,-8.146511E-1,7.7255554E-2,9.9647385E-1,3.747624E-2,9.8918155E-3,-6.026949E-1,7.410507E-3,-2.2228982E-1,-6.4669997E-3,-1.2541875E-1,-2.2430421E-4,8.181811E-4,-3.8097383E-4,1.0100983E0,-3.5404077E-1,-6.9097285E-3,4.155922E-3,-1.3512357E0,5.2585604E-4,2.6176453E-3,8.6934096E-1,5.6674045E-1,-2.1466257E-3,-2.231598E-4,-2.8817654E-3,-5.0468446E-4,5.783272E-4,-1.8427427E-3,1.7237663E-4,1.2619018E-3,7.2668196E-4,-6.235504E-3,1.5119553E-3,4.012617E-3],"split_indices":[79,0,1,0,76,25,44,51,3,26,40,0,71,53,0,0,0,63,0,9,87,0,4,0,0,28,36,0,2,7,89,42,80,0,2,0,61,0,0,0,0,0,2,26,0,0,0,0,0,47,63,0,0,0,0,0,0,0,0,0,0,0,0],"split_type":[0,0,0,0,0,0,0,0,0,0,0,0,0,0,0,0,0,0,0,0,0,0,0,0,0,0,0,0,0,0,0,0,0,0,0,0,0,0,0,0,0,0,0,0,0,0,0,0,0,0,0,0,0,0,0,0,0,0,0,0,0,0,0],"sum_hessian":[2.4E2,2E0,2.38E2,1E0,2.37E2,1.43E2,9.4E1,3E1,1.13E2,5E0,8.9E1,3E0,2.7E1,1.12E2,1E0,2E0,3E0,8.7E1,2E0,1E1,1.7E1,2E0,1.1E2,1E0,2E0,7E0,8E1,2E0,8E0,6E0,1.1E1,1.02E2,8E0,4E0,3E0,4E0,7.6E1,4E0,4E0,3E0,3E0,4E0,7E0,9.9E1,3E0,5E0,3E0,1E0,2E0,3.3E1,4.3E1,3E0,1E0,6E0,1E0,1.9E1,8E1,1E0,2E0,3.1E1,2E0,2.6E1,1.7E1],"tree_param":{"num_deleted":"0","num_feature":"97","num_nodes":"63","size_leaf_vector":"1"}},{"base_weights":[5.7140325E-5,-4.4733096E-2,6.786714E-4,-1.856359E-5,5.5766422E-2,-2.8182408E-3,3.1562361E-3,9.884834E-3,4.0304948E-2,-1.8752098E-2,-2.2815177E-3,1.9293467E-2,2.2218472E-3,-1.9437648E-2,-3.405412E-3,-7.5337174E-3,-1.9230035E-3,2.473526E-2,6.6619874E-3,1.1490398E-2,1.3568088E-3,9.7360613E-4,-4.0384773E-3,-5.293727E-3,-1.1622143E-3,9.3688973E-4,5.725098E-3,3.1469346E-3,1.052147E-2,-5.314963E-4,2.3527145E-3,-1.5290737E-2,-2.2226837E-3,-6.077576E-3,-8.7585254E-4,-1.3526917E-3,3.0365468E-3,1.4007092E-4,-3.4626962E-3,3.7281688E-3,2.861023E-6,-1.10292436E-4,-1.1412907E-2,-5.4338374E-3,-5.69637E-4,3.1544128E-4,-2.22939E-3,-3.0414036E-3,9.912344E-4,4.2709936E-3,-2.7427676E-3,1.5956655E-3,-3.0060874E-3,-4.3187142E-4,-3.7396147E-3,5.4569246E-4,-5.5274967E-4,-9.1382035E-4,1.560235E-3,5.162895E-4,-2.2513482E-3,-2.693081E-3,-5.003929E-4,1.9267084E-3,1.858575E-4,2.0068034E-3,5.9406282E-3,-6.2320236E-4,2.1261408E-3,-2.1736622E-3,5.782128E-4],"categories":[],"categories_nodes":[],"categories_segments":[],"categories_sizes":[],"default_left":[0,0,0,0,0,0,0,0,0,0,0,0,0,0,0,0,0,0,0,0,0,0,0,0,0,0,0,0,0,0,0,0,0,0,0,0,0,0,0,0,0,0,0,0,0,0,0,0,0,0,0,0,0,0,0,0,0,0,0,0,0,0,0,0,0,0,0,0,0,0,0],"id":10,"left_children":[1,-1,3,5,7,9,11,-1,-1,13,15,17,19,-1,21,-1,23,-1,25,27,29,-1,-1,31,33,-1,-1,35,-1,37,39,41,43,-1,45,-1,-1,47,-1,49,51,-1,-1,53,55,57,59,61,63,65,-1,67,69,-1,-1,-1,-1,-1,-1,-1,-1,-1,-1,-1,-1,-1,-1,-1,-1,-1,-1],"loss_changes":[1.1226699E-2,0E0,9.219222E-3,2.124338E-3,2.3808889E-4,1.0433298E-3,1.6459194E-3,0E0,0E0,7.2723755E-4,4.3262308E-4,1.3875559E-3,8.4229856E-4,0E0,6.108287E-5,0E0,3.0414114E-4,0E0,5.8543854E-5,3.9877102E-4,1.8742726E-4,0E0,0E0,6.414411E-4,2.4791106E-4,0E0,0E0,6.310072E-5,0E0,1.239659E-4,2.1007692E-4,2.7830596E-4,9.245206E-5,0E0,1.587244E-4,0E0,0E0,8.96693E-5,0E0,2.0423491E-4,1.2461338E-4,0E0,0E0,1.8108825E-5,7.5988846E-6,2.2660417E-4,2.1967871E-4,1.8616578E-5,3.8338905E-5,1.7027865E-4,0E0,9.09149E-5,2.552406E-5,0E0,0E0,0E0,0E0,0E0,0E0,0E0,0E0,0E0,0E0,0E0,0E0,0E0,0E0,0E0,0E0,0E0,0E0],"parents":[2147483647,0,0,2,2,3,3,4,4,5,5,6,6,9,9,10,10,11,11,12,12,14,14,16,16,18,18,19,19,20,20,23,23,24,24,27,27,29,29,30,30,31,31,32,32,34,34,37,37,39,39,40,40,43,43,44,44,45,45,46,46,47,47,48,48,49,49,51,51,52,52],"right_children":[2,-1,4,6,8,10,12,-1,-1,14,16,18,20,-1,22,-1,24,-1,26,28,30,-1,-1,32,34,-1,-1,36,-1,38,40,42,44,-1,46,-1,-1,48,-1,50,52,-1,-1,54,56,58,60,62,64,66,-1,68,70,-1,-1,-1,-1,-1,-1,-1,-1,-1,-1,-1,-1,-1,-1,-1,-1,-1,-1],"split_conditions":[-2.273752E0,-4.4733096E-2,3.6901214E0,-4.1777566E-2,-2.154934E-1,-1.7619593E0,-1.752902E0,9.884834E-3,4.0304948E-2,3.1531426E-1,-1.5177953E0,1.980159E-1,-1.559581E0,-1.9437648E-2,9.069469E-1,-7.5337174E-3,-9.156815E-1,2.473526E-2,-4.8974568E-1,1.2610318E-1,-1.5052511E-1,9.7360613E-4,-4.0384773E-3,-1.2205874E0,-1.1650801E0,9.3688973E-4,5.725098E-3,-2.905091E-2,1.052147E-2,9.690898E-1,9.487449E-2,-9.972947E-1,-4.2263296E-1,-6.077576E-3,3.0746672E-1,-1.3526917E-3,3.0365468E-3,-7.688308E-1,-3.4626962E-3,9.854855E-1,5.652684E-1,-1.10292436E-4,-1.1412907E-2,-2.0103843E0,-1.3496286E0,-4.5849556E-1,-8.297596E-2,-4.6745944E-1,9.2080235E-2,8.217214E-1,-2.7427676E-3,3.0375918E-2,1.1420681E-1,-4.3187142E-4,-3.7396147E-3,5.4569246E-4,-5.5274967E-4,-9.1382035E-4,1.560235E-3,5.162895E-4,-2.2513482E-3,-2.693081E-3,-5.003929E-4,1.9267084E-3,1.858575E-4,2.0068034E-3,5.9406282E-3,-6.2320236E-4,2.1261408E-3,-2.1736622E-3,5.782128E-4],"split_indices":[1,0,36,76,0,41,44,0,0,0,84,1,81,0,0,0,7,0,0,69,27,0,0,41,62,0,0,3,0,47,26,2,86,0,77,0,0,30,0,8,44,0,0,1,24,76,45,3,31,63,0,70,5,0,0,0,0,0,0,0,0,0,0,0,0,0,0,0,0,0,0],"split_type":[0,0,0,0,0,0,0,0,0,0,0,0,0,0,0,0,0,0,0,0,0,0,0,0,0,0,0,0,0,0,0,0,0,0,0,0,0,0,0,0,0,0,0,0,0,0,0,0,0,0,0,0,0,0,0,0,0,0,0,0,0,0,0,0,0,0,0,0,0,0,0],"sum_hessian":[2.4E2,1E0,2.39E2,2.37E2,2E0,1.26E2,1.11E2,1E0,1E0,3E0,1.23E2,5E0,1.06E2,1E0,2E0,3E0,1.2E2,1E0,4E0,8E0,9.8E1,1E0,1E0,2.1E1,9.9E1,2E0,2E0,4E0,4E0,3.4E1,6.4E1,4E0,1.7E1,2E0,9.7E1,1E0,3E0,3.1E1,3E0,4E1,2.4E1,1E0,3E0,5E0,1.2E1,5.2E1,4.5E1,6E0,2.5E1,3.8E1,2E0,1.6E1,8E0,1E0,4E0,2E0,1E1,2.9E1,2.3E1,1.5E1,3E1,3E0,3E0,5E0,2E1,3.4E1,4E0,7E0,9E0,7E0,1E0],"tree_param":{"num_deleted":"0","num_feature":"97","num_nodes":"71","size_leaf_vector":"1"}},{"base_weights":[9.329982E-6,-3.131318E-2,4.4427413E-4,-4.405635E-5,3.9037067E-2,1.1176518E-2,-3.8241825E-4,6.9196704E-3,2.8213693E-2,1.731491E-2,3.419876E-3,-1.1331754E-4,-1.569283E-2,1.2767792E-3,4.2406083E-3,3.7021297E-3,-4.961456E-4,-3.483391E-3,-1.3606311E-2,2.5024416E-4,1.026535E-3,8.23743E-3,1.3388474E-3,-6.797378E-5,-3.6447716E-3,6.776429E-3,2.8535845E-3,-7.9151563E-4,2.8470356E-3,-2.5294975E-3,3.5044833E-4,-1.034505E-2,-9.844177E-4,-1.0606885E-3,2.295971E-4,6.023407E-4,2.7133944E-3,-1.6742945E-3,-7.0283413E-3,-3.1775236E-3,7.400115E-4,-7.914677E-3,-1.2919425E-3,-1.4714854E-3,3.1614304E-4,-6.248474E-4,7.641793E-4,-1.7219397E-3,-1.4371873E-4,-4.6405793E-4,-5.3133015E-3,-7.405368E-4,-3.7263872E-3,1.6213532E-3,1.9502641E-4,8.9836125E-5,-1.1563475E-3,-1.1329651E-4,5.3043367E-4],"categories":[],"categories_nodes":[],"categories_segments":[],"categories_sizes":[],"default_left":[0,0,0,0,0,0,0,0,0,0,0,0,0,0,0,0,0,0,0,0,0,0,0,0,0,0,0,0,0,0,0,0,0,0,0,0,0,0,0,0,0,0,0,0,0,0,0,0,0,0,0,0,0,0,0,0,0,0,0],"id":11,"left_children":[1,-1,3,5,7,9,11,-1,-1,-1,13,15,17,19,-1,21,23,-1,-1,-1,-1,25,27,29,31,-1,-1,33,35,37,39,41,43,-1,-1,45,-1,47,49,51,53,-1,-1,55,57,-1,-1,-1,-1,-1,-1,-1,-1,-1,-1,-1,-1,-1,-1],"loss_changes":[5.4946574E-3,0E0,4.524769E-3,9.078685E-4,1.1662347E-4,8.6136104E-4,9.5407164E-4,0E0,0E0,0E0,3.788172E-5,3.3632803E-4,1.445663E-4,1.1524771E-6,0E0,2.1405343E-4,2.8151623E-4,0E0,0E0,0E0,0E0,2.0776119E-5,5.0448303E-5,1.9142832E-4,4.3544394E-4,0E0,0E0,8.700908E-6,3.112061E-5,9.211294E-5,2.2087593E-4,1.3479812E-4,1.2500961E-5,0E0,0E0,6.843562E-6,0E0,4.048241E-5,3.8865808E-5,8.664267E-5,1.1637616E-4,0E0,0E0,1.0632941E-5,1.8876103E-6,0E0,0E0,0E0,0E0,0E0,0E0,0E0,0E0,0E0,0E0,0E0,0E0,0E0,0E0],"parents":[2147483647,0,0,2,2,3,3,4,4,5,5,6,6,10,10,11,11,12,12,13,13,15,15,16,16,21,21,22,22,23,23,24,24,27,27,28,28,29,29,30,30,31,31,32,32,35,35,37,37,38,38,39,39,40,40,43,43,44,44],"right_children":[2,-1,4,6,8,10,12,-1,-1,-1,14,16,18,20,-1,22,24,-1,-1,-1,-1,26,28,30,32,-1,-1,34,36,38,40,42,44,-1,-1,46,-1,48,50,52,54,-1,-1,56,58,-1,-1,-1,-1,-1,-1,-1,-1,-1,-1,-1,-1,-1,-1],"split_conditions":[-2.273752E0,-3.131318E-2,3.6901214E0,-1.752902E0,-2.154934E-1,-7.413151E-1,3.575513E-1,6.9196704E-3,2.8213693E-2,1.731491E-2,6.5964705E-1,-8.7633055E-1,-3.9764687E-1,-5.8253956E-1,4.2406083E-3,-7.765982E-1,1.5313083E-1,-3.483391E-3,-1.3606311E-2,2.5024416E-4,1.026535E-3,-1.7848604E0,-1.1781295E-1,-6.9317245E-1,-8.3325344E-1,6.776429E-3,2.8535845E-3,-1.2524792E0,-4.9686706E-1,4.7313336E-1,-5.934125E-1,9.283668E-2,5.656164E-1,-1.0606885E-3,2.295971E-4,5.3609936E-3,2.7133944E-3,-1.5411551E-2,-9.319647E-1,1.7201382E-1,-4.6322638E-1,-7.914677E-3,-1.2919425E-3,-8.450573E-1,-6.937504E-2,-6.248474E-4,7.641793E-4,-1.7219397E-3,-1.4371873E-4,-4.6405793E-4,-5.3133015E-3,-7.405368E-4,-3.7263872E-3,1.6213532E-3,1.9502641E-4,8.9836125E-5,-1.1563475E-3,-1.1329651E-4,5.3043367E-4],"split_indices":[1,0,36,44,0,4,89,0,0,0,7,15,0,0,0,60,70,0,0,0,0,36,80,69,66,0,0,0,2,90,86,12,40,0,0,1,0,73,1,83,79,0,0,63,7,0,0,0,0,0,0,0,0,0,0,0,0,0,0],"split_type":[0,0,0,0,0,0,0,0,0,0,0,0,0,0,0,0,0,0,0,0,0,0,0,0,0,0,0,0,0,0,0,0,0,0,0,0,0,0,0,0,0,0,0,0,0,0,0,0,0,0,0,0,0,0,0,0,0,0,0],"sum_hessian":[2.4E2,1E0,2.39E2,2.37E2,2E0,6E0,2.31E2,1E0,1E0,1E0,5E0,2.28E2,3E0,4E0,1E0,2E1,2.08E2,2E0,1E0,2E0,2E0,6E0,1.4E1,1.84E2,2.4E1,2E0,4E0,6E0,8E0,2.6E1,1.58E2,6E0,1.8E1,3E0,3E0,4E0,4E0,2.3E1,3E0,1.5E1,1.43E2,4E0,2E0,1.3E1,5E0,1E0,3E0,1.2E1,1.1E1,1E0,2E0,1E1,5E0,2.4E1,1.19E2,3E0,1E1,3E0,2E0],"tree_param":{"num_deleted":"0","num_feature":"97","num_nodes":"59","size_leaf_vector":"1"}},{"base_weights":[8.10821E-6,-2.1919228E-2,3.125757E-4,-2.924234E-5,2.7325949E-2,7.732596E-3,-2.633097E-4,4.843712E-3,1.9749641E-2,1.2120438E-2,2.2877853E-3,-8.249179E-5,-1.0549307E-2,4.597664E-4,2.9685975E-3,-3.711394E-4,2.1854548E-3,-2.089882E-3,-9.524345E-3,7.3533587E-4,-8.594268E-4,3.909111E-3,4.2881284E-4,2.1333694E-4,3.8436253E-3,-1.2477986E-3,8.4096415E-4,6.6860197E-3,1.9320382E-3,-9.651184E-4,1.5949011E-3,-1.6063154E-3,9.3586446E-4,2.5692703E-3,1.0070801E-4,-1.6191752E-3,8.640952E-4,-3.901124E-5,1.9441843E-3,4.5716288E-3,8.8577275E-4,1.4834814E-3,1.6212465E-5,2.3326874E-4,-9.5066073E-4,3.3569337E-5,1.2591362E-3,-4.0743168E-4,-2.5310041E-3,1.7929623E-4,2.6975633E-3,-1.4160806E-3,-7.993194E-5,-4.7971407E-4,1.3649655E-3,-1.2104034E-3,2.326216E-4,-5.683899E-4,1.5703298E-3],"categories":[],"categories_nodes":[],"categories_segments":[],"categories_sizes":[],"default_left":[0,0,0,0,0,0,0,0,0,0,0,0,0,0,0,0,0,0,0,0,0,0,0,0,0,0,0,0,0,0,0,0,0,0,0,0,0,0,0,0,0,0,0,0,0,0,0,0,0,0,0,0,0,0,0,0,0,0,0],"id":12,"left_children":[1,-1,3,5,7,9,11,-1,-1,-1,13,15,17,-1,-1,19,21,-1,-1,23,25,27,29,31,33,35,37,39,41,43,45,47,49,-1,-1,51,53,55,57,-1,-1,-1,-1,-1,-1,-1,-1,-1,-1,-1,-1,-1,-1,-1,-1,-1,-1,-1,-1],"loss_changes":[2.6926135E-3,0E0,2.216877E-3,4.3443276E-4,5.71548E-5,4.2899145E-4,4.3062482E-4,0E0,0E0,0E0,2.0490861E-5,1.5072308E-4,9.5207215E-5,0E0,0E0,1.1084867E-4,7.7047735E-5,0E0,0E0,1.0139901E-4,9.482386E-5,5.845433E-5,2.4295525E-5,7.381447E-5,1.378743E-5,9.237885E-5,2.6287624E-5,1.3064404E-5,9.198957E-6,6.485441E-6,6.083448E-6,3.5888046E-5,8.937251E-5,0E0,0E0,1.0868776E-4,4.4066885E-5,1.4289008E-5,2.5832196E-5,0E0,0E0,0E0,0E0,0E0,0E0,0E0,0E0,0E0,0E0,0E0,0E0,0E0,0E0,0E0,0E0,0E0,0E0,0E0,0E0],"parents":[2147483647,0,0,2,2,3,3,4,4,5,5,6,6,10,10,11,11,12,12,15,15,16,16,19,19,20,20,21,21,22,22,23,23,24,24,25,25,26,26,27,27,28,28,29,29,30,30,31,31,32,32,35,35,36,36,37,37,38,38],"right_children":[2,-1,4,6,8,10,12,-1,-1,-1,14,16,18,-1,-1,20,22,-1,-1,24,26,28,30,32,34,36,38,40,42,44,46,48,50,-1,-1,52,54,56,58,-1,-1,-1,-1,-1,-1,-1,-1,-1,-1,-1,-1,-1,-1,-1,-1,-1,-1,-1,-1],"split_conditions":[-2.273752E0,-2.1919228E-2,3.6901214E0,-1.752902E0,-2.154934E-1,-7.413151E-1,3.575513E-1,4.843712E-3,1.9749641E-2,1.2120438E-2,6.5964705E-1,1.1233463E0,-3.9764687E-1,4.597664E-4,2.9685975E-3,-1.8363325E-1,-3.1194067E-1,-2.089882E-3,-9.524345E-3,6.3436997E-1,2.0396791E-1,-1.7848604E0,7.906543E-1,-3.6773646E-1,5.7236475E-1,7.929686E-1,2.3128168E-1,1.4091226E-1,3.3166249E0,-8.488633E-1,-1.0573142E0,5.837172E-1,9.450237E-2,2.5692703E-3,1.0070801E-4,6.295243E-2,6.866079E-2,4.5323846E-4,-9.070839E-1,4.5716288E-3,8.8577275E-4,1.4834814E-3,1.6212465E-5,2.3326874E-4,-9.5066073E-4,3.3569337E-5,1.2591362E-3,-4.0743168E-4,-2.5310041E-3,1.7929623E-4,2.6975633E-3,-1.4160806E-3,-7.993194E-5,-4.7971407E-4,1.3649655E-3,-1.2104034E-3,2.326216E-4,-5.683899E-4,1.5703298E-3],"split_indices":[1,0,36,44,0,4,89,0,0,0,7,78,0,0,0,28,60,0,0,7,68,36,1,86,0,66,27,0,37,44,0,80,71,0,0,51,88,52,3,0,0,0,0,0,0,0,0,0,0,0,0,0,0,0,0,0,0,0,0],"split_type":[0,0,0,0,0,0,0,0,0,0,0,0,0,0,0,0,0,0,0,0,0,0,0,0,0,0,0,0,0,0,0,0,0,0,0,0,0,0,0,0,0,0,0,0,0,0,0,0,0,0,0,0,0,0,0,0,0,0,0],"sum_hessian":[2.4E2,1E0,2.39E2,2.37E2,2E0,6E0,2.31E2,1E0,1E0,1E0,5E0,2.28E2,3E0,4E0,1E0,2.03E2,2.5E1,2E0,1E0,6.2E1,1.41E2,1.2E1,1.3E1,5.4E1,8E0,1.15E2,2.6E1,4E0,8E0,6E0,7E0,1.5E1,3.9E1,7E0,1E0,9.8E1,1.7E1,1.5E1,1.1E1,3E0,1E0,6E0,2E0,2E0,4E0,2E0,5E0,1.2E1,3E0,3.4E1,5E0,6.5E1,3.3E1,8E0,9E0,2E0,1.3E1,2E0,9E0],"tree_param":{"num_deleted":"0","num_feature":"97","num_nodes":"59","size_leaf_vector":"1"}},{"base_weights":[7.02583E-5,-1.5343452E-2,2.8365452E-4,4.4926877E-5,1.9128164E-2,5.31435E-3,-1.1425799E-4,3.3903124E-3,1.3825036E-2,1.1735916E-2,2.391243E-4,8.672606E-6,-7.1234703E-3,8.484078E-3,2.0782473E-3,3.132921E-4,-1.3957606E-3,-1.2540818E-3,-6.667042E-3,-5.385989E-5,1.5611538E-3,-5.074978E-3,-3.500418E-4,-3.7752299E-4,2.2866991E-3,3.9634365E-3,3.8805007E-4,-5.0892592E-3,-1.9577343E-3,-1.8411756E-3,2.4104118E-5,-9.604569E-5,-2.5291124E-3,3.0597052E-4,3.0249816E-3,4.9481867E-3,7.207489E-4,6.6724315E-4,-2.312565E-3,-4.457474E-4,-1.4276505E-3,6.799996E-4,-6.7712466E-4,-1.706028E-4,1.7259326E-3,-2.130396E-3,1.3446808E-4,-3.867388E-4,8.828164E-4,3.139496E-4,2.0593645E-3,3.194523E-3,4.692078E-4,-4.680276E-4,6.9792056E-4,1.9789477E-4,9.88841E-4,-9.5267297E-4,-3.780842E-5],"categories":[],"categories_nodes":[],"categories_segments":[],"categories_sizes":[],"default_left":[0,0,0,0,0,0,0,0,0,0,0,0,0,0,0,0,0,0,0,0,0,0,0,0,0,0,0,0,0,0,0,0,0,0,0,0,0,0,0,0,0,0,0,0,0,0,0,0,0,0,0,0,0,0,0,0,0,0,0],"id":13,"left_children":[1,-1,3,5,7,9,11,-1,-1,13,-1,15,17,-1,-1,19,21,-1,-1,23,25,27,29,31,33,35,37,-1,39,-1,41,43,45,47,49,51,-1,53,-1,-1,-1,55,57,-1,-1,-1,-1,-1,-1,-1,-1,-1,-1,-1,-1,-1,-1,-1,-1],"loss_changes":[1.326018E-3,0E0,1.0788299E-3,2.0024457E-4,2.803898E-5,2.1629316E-4,1.9996382E-4,0E0,0E0,1.0686374E-5,0E0,9.840754E-5,5.707206E-5,0E0,0E0,8.667536E-5,1.5596804E-4,0E0,0E0,1.12223504E-4,1.1964142E-4,7.89817E-5,3.3639823E-5,7.8488156E-5,2.5396519E-5,3.2136944E-5,3.8104572E-5,0E0,1.3059198E-6,0E0,1.4258428E-5,6.574516E-5,4.2984E-5,7.594852E-6,1.145024E-5,1.150195E-5,0E0,2.1723383E-5,0E0,0E0,0E0,4.880322E-6,8.28867E-6,0E0,0E0,0E0,0E0,0E0,0E0,0E0,0E0,0E0,0E0,0E0,0E0,0E0,0E0,0E0,0E0],"parents":[2147483647,0,0,2,2,3,3,4,4,5,5,6,6,9,9,11,11,12,12,15,15,16,16,19,19,20,20,21,21,22,22,23,23,24,24,25,25,26,26,28,28,30,30,31,31,32,32,33,33,34,34,35,35,37,37,41,41,42,42],"right_children":[2,-1,4,6,8,10,12,-1,-1,14,-1,16,18,-1,-1,20,22,-1,-1,24,26,28,30,32,34,36,38,-1,40,-1,42,44,46,48,50,52,-1,54,-1,-1,-1,56,58,-1,-1,-1,-1,-1,-1,-1,-1,-1,-1,-1,-1,-1,-1,-1,-1],"split_conditions":[-2.273752E0,-1.5343452E-2,3.6901214E0,-1.752902E0,-2.154934E-1,-2.2980478E-1,3.575513E-1,3.3903124E-3,1.3825036E-2,-3.9764687E-1,2.391243E-4,9.8577194E-2,-3.9764687E-1,8.484078E-3,2.0782473E-3,6.4677966E-1,-8.3325344E-1,-1.2540818E-3,-6.667042E-3,8.339064E-2,7.958167E-1,1.1212879E-2,1.0920414E-1,8.342212E-1,6.346723E-2,3.945284E-1,1.01100504E-1,-5.0892592E-3,-1.0440915E0,-1.8411756E-3,1.4161082E-1,1.3614467E0,1.1554007E-1,1.6731602E-1,-3.9984846E-1,6.678552E-1,7.207489E-4,-8.816955E-1,-2.312565E-3,-4.457474E-4,-1.4276505E-3,8.596146E-2,1.0700256E-2,-1.706028E-4,1.7259326E-3,-2.130396E-3,1.3446808E-4,-3.867388E-4,8.828164E-4,3.139496E-4,2.0593645E-3,3.194523E-3,4.692078E-4,-4.680276E-4,6.9792056E-4,1.9789477E-4,9.88841E-4,-9.5267297E-4,-3.780842E-5],"split_indices":[1,0,36,44,0,26,89,0,0,0,0,70,0,0,0,80,66,0,0,71,80,33,70,8,34,8,34,0,1,0,51,28,68,6,11,5,0,9,0,0,0,88,14,0,0,0,0,0,0,0,0,0,0,0,0,0,0,0,0],"split_type":[0,0,0,0,0,0,0,0,0,0,0,0,0,0,0,0,0,0,0,0,0,0,0,0,0,0,0,0,0,0,0,0,0,0,0,0,0,0,0,0,0,0,0,0,0,0,0,0,0,0,0,0,0,0,0,0,0,0,0],"sum_hessian":[2.4E2,1E0,2.39E2,2.37E2,2E0,6E0,2.31E2,1E0,1E0,2E0,4E0,2.28E2,3E0,1E0,1E0,1.88E2,4E1,2E0,1E0,1.46E2,4.2E1,8E0,3.2E1,1.29E2,1.7E1,1.3E1,2.9E1,3E0,5E0,3E0,2.9E1,1.15E2,1.4E1,5E0,1.2E1,9E0,4E0,2.8E1,1E0,2E0,3E0,1.5E1,1.4E1,1.09E2,6E0,1E1,4E0,3E0,2E0,2E0,1E1,8E0,1E0,7E0,2.1E1,1.2E1,3E0,5E0,9E0],"tree_param":{"num_deleted":"0","num_feature":"97","num_nodes":"59","size_leaf_vector":"1"}},{"base_weights":[3.1626572E-5,-1.0740424E-2,1.8093089E-4,1.3675009E-5,1.3389587E-2,-1.1326023E-4,3.256056E-3,2.3729326E-3,9.677697E-3,-2.7948776E-5,-3.9466857E-3,5.938912E-3,1.1885166E-3,-1.9508835E-4,1.4557217E-3,-6.26564E-4,-4.6669007E-3,1.0914803E-4,1.0536576E-3,2.1303892E-3,-2.885337E-4,-9.315014E-4,2.5583506E-3,3.0944825E-4,2.1696568E-3,3.3501655E-4,-5.706777E-4,-9.473801E-4,4.0435794E-4,3.0345155E-3,1.3038317E-3,5.443343E-4,-2.1600723E-3,-2.0416677E-3,-3.7145024E-4,2.0012856E-4,2.59552E-3,-5.286098E-4,4.543473E-4,-1.7967225E-4,-1.9804002E-3,-3.3195498E-3,-6.886687E-4,-1.1206219E-3,-1.0443132E-4,3.479004E-4,1.7726899E-3],"categories":[],"categories_nodes":[],"categories_segments":[],"categories_sizes":[],"default_left":[0,0,0,0,0,0,0,0,0,0,0,0,0,0,0,0,0,0,0,0,0,0,0,0,0,0,0,0,0,0,0,0,0,0,0,0,0,0,0,0,0,0,0,0,0,0,0],"id":14,"left_children":[1,-1,3,5,7,9,11,-1,-1,13,15,-1,17,19,21,-1,-1,-1,-1,23,25,27,29,-1,-1,31,33,-1,-1,-1,35,37,39,41,43,-1,45,-1,-1,-1,-1,-1,-1,-1,-1,-1,-1],"loss_changes":[6.484861E-4,0E0,5.3003104E-4,9.832302E-5,1.3760233E-5,7.510776E-5,1.11831614E-4,0E0,0E0,5.632748E-5,4.748017E-5,0E0,4.25116E-6,4.4944914E-5,6.29242E-5,0E0,0E0,0E0,0E0,1.732607E-5,3.484958E-5,9.379803E-6,4.357002E-5,0E0,0E0,3.355631E-5,3.909799E-5,0E0,0E0,0E0,1.4173926E-5,1.8268585E-5,9.622661E-6,4.3577515E-5,3.5413166E-5,0E0,1.9046747E-6,0E0,0E0,0E0,0E0,0E0,0E0,0E0,0E0,0E0,0E0],"parents":[2147483647,0,0,2,2,3,3,4,4,5,5,6,6,9,9,10,10,12,12,13,13,14,14,19,19,20,20,21,21,22,22,25,25,26,26,30,30,31,31,32,32,33,33,34,34,36,36],"right_children":[2,-1,4,6,8,10,12,-1,-1,14,16,-1,18,20,22,-1,-1,-1,-1,24,26,28,30,-1,-1,32,34,-1,-1,-1,36,38,40,42,44,-1,46,-1,-1,-1,-1,-1,-1,-1,-1,-1,-1],"split_conditions":[-2.273752E0,-1.0740424E-2,3.6901214E0,1.1864593E0,-2.154934E-1,3.575513E-1,-6.085538E-1,2.3729326E-3,9.677697E-3,1.2781819E0,-3.9764687E-1,5.938912E-3,1.9845384E-1,-1.5264024E0,-3.497597E-1,-6.26564E-4,-4.6669007E-3,1.0914803E-4,1.0536576E-3,2.124007E-1,-1.21206984E-1,4.3967178E-1,-3.906602E-1,3.0944825E-4,2.1696568E-3,3.7118798E-1,-1.2819047E0,-9.473801E-4,4.0435794E-4,3.0345155E-3,3.996591E-1,-1.5177953E0,-5.52769E-1,-4.9019513E-1,-6.275382E-1,2.0012856E-4,-3.9251012E-1,-5.286098E-4,4.543473E-4,-1.7967225E-4,-1.9804002E-3,-3.3195498E-3,-6.886687E-4,-1.1206219E-3,-1.0443132E-4,3.479004E-4,1.7726899E-3],"split_indices":[1,0,36,80,0,89,15,0,0,76,0,0,44,80,80,0,0,0,0,90,50,4,41,0,0,34,78,0,0,0,2,84,1,42,62,0,3,0,0,0,0,0,0,0,0,0,0],"split_type":[0,0,0,0,0,0,0,0,0,0,0,0,0,0,0,0,0,0,0,0,0,0,0,0,0,0,0,0,0,0,0,0,0,0,0,0,0,0,0,0,0,0,0,0,0,0,0],"sum_hessian":[2.4E2,1E0,2.39E2,2.37E2,2E0,2.29E2,8E0,1E0,1E0,2.25E2,4E0,1E0,7E0,2.03E2,2.2E1,3E0,1E0,3E0,4E0,7E0,1.96E2,7E0,1.5E1,4E0,3E0,6.1E1,1.35E2,5E0,2E0,4E0,1.1E1,5.7E1,4E0,1.5E1,1.2E2,7E0,4E0,7E0,5E1,2E0,2E0,2E0,1.3E1,1.3E1,1.07E2,1E0,3E0],"tree_param":{"num_deleted":"0","num_feature":"97","num_nodes":"47","size_leaf_vector":"1"}},{"base_weights":[2.5135847E-5,-7.5182677E-3,1.2966097E-4,1.2607134E-5,9.372711E-3,7.5566163E-4,-2.3101966E-4,1.66111E-3,6.7743305E-3,4.1570663E-3,5.297784E-4,-2.228697E-3,-8.7805754E-5,-1.2028578E-4,1.3344839E-3,-4.433526E-4,-3.413129E-3,6.7685614E-5,-1.3189316E-3,-4.483003E-4,9.607971E-4,2.1982193E-4,1.8176767E-3,3.470421E-4,-6.303787E-4,1.7355205E-4,-1.621935E-3,-3.6549568E-3,-2.2356851E-4,-7.20728E-4,3.4794808E-4,-1.180172E-6,9.2330936E-4,3.1393598E-4,-3.3683778E-4,2.3355484E-3,2.3560524E-4,-2.1183016E-3,2.2449963E-4,-1.9514323E-3,-2.6464462E-4,-2.7272417E-3,2.3918152E-4,1.9454956E-4,-1.6977311E-3,-1.3813291E-3,-3.6439896E-4,4.2762756E-4,2.5658174E-3,6.978218E-4,-2.7231488E-4,-4.9796107E-4,3.4637452E-4,-2.5005342E-4,3.075282E-4,-2.4814607E-4,-1.0114289E-3,-3.0219005E-4,2.1629334E-4,1.7605305E-3,7.125378E-4,2.3959727E-4,1.523037E-3,3.7110646E-4,-3.4183287E-4],"categories":[],"categories_nodes":[],"categories_segments":[],"categories_sizes":[],"default_left":[0,0,0,0,0,0,0,0,0,0,0,0,0,0,0,0,0,0,0,0,0,0,0,0,0,0,0,0,0,0,0,0,0,0,0,0,0,0,0,0,0,0,0,0,0,0,0,0,0,0,0,0,0,0,0,0,0,0,0,0,0,0,0,0,0],"id":15,"left_children":[1,-1,3,5,7,9,11,-1,-1,-1,13,15,17,19,21,23,-1,25,27,29,31,33,35,-1,-1,37,39,41,43,45,-1,-1,-1,-1,-1,47,-1,-1,49,-1,51,-1,-1,53,-1,55,57,-1,59,61,63,-1,-1,-1,-1,-1,-1,-1,-1,-1,-1,-1,-1,-1,-1],"loss_changes":[3.1790676E-4,0E0,2.595461E-4,4.325923E-5,6.739283E-6,7.859481E-5,5.1301442E-5,0E0,0E0,0E0,3.0500909E-5,7.160226E-5,3.2440847E-5,1.2132883E-5,1.3603949E-5,6.1921046E-6,0E0,2.7291482E-5,4.7799986E-5,7.700922E-6,4.4552467E-6,2.4269646E-6,1.2366316E-5,0E0,0E0,2.7778502E-5,1.9056246E-5,2.3468987E-5,1.580501E-5,4.439865E-6,0E0,0E0,0E0,0E0,0E0,3.0292576E-6,0E0,0E0,3.35818E-5,0E0,3.3347424E-6,0E0,0E0,2.740722E-6,0E0,1.364816E-6,1.6956819E-6,0E0,2.100678E-6,3.9092414E-5,1.8897998E-5,0E0,0E0,0E0,0E0,0E0,0E0,0E0,0E0,0E0,0E0,0E0,0E0,0E0,0E0],"parents":[2147483647,0,0,2,2,3,3,4,4,5,5,6,6,10,10,11,11,12,12,13,13,14,14,15,15,17,17,18,18,19,19,20,20,21,21,22,22,25,25,26,26,27,27,28,28,29,29,35,35,38,38,40,40,43,43,45,45,46,46,48,48,49,49,50,50],"right_children":[2,-1,4,6,8,10,12,-1,-1,-1,14,16,18,20,22,24,-1,26,28,30,32,34,36,-1,-1,38,40,42,44,46,-1,-1,-1,-1,-1,48,-1,-1,50,-1,52,-1,-1,54,-1,56,58,-1,60,62,64,-1,-1,-1,-1,-1,-1,-1,-1,-1,-1,-1,-1,-1,-1],"split_conditions":[-2.273752E0,-7.5182677E-3,3.6901214E0,-3.7695843E-1,-2.154934E-1,-1.752902E0,-8.38662E-1,1.66111E-3,6.7743305E-3,4.1570663E-3,8.637897E-2,3.2851213E-1,4.7723177E-1,4.577458E-1,-8.651988E-1,-1.4838434E0,-3.413129E-3,1.8455626E-1,-6.9440186E-1,5.313643E-1,-6.359774E-1,-1.18790664E-1,1.2191073E-1,3.470421E-4,-6.303787E-4,-2.962948E0,-1.8534316E-1,1.5015953E0,1.7320508E0,-7.702552E-1,3.4794808E-4,-1.180172E-6,9.2330936E-4,3.1393598E-4,-3.3683778E-4,-8.399231E-1,2.3560524E-4,-2.1183016E-3,1.6206148E-1,-1.9514323E-3,-3.5999194E-2,-2.7272417E-3,2.3918152E-4,-7.0732933E-1,-1.6977311E-3,-2.7247107E-1,3.3166249E0,4.2762756E-4,5.656164E-1,9.2655087E-1,-9.173294E-2,-4.9796107E-4,3.4637452E-4,-2.5005342E-4,3.075282E-4,-2.4814607E-4,-1.0114289E-3,-3.0219005E-4,2.1629334E-4,1.7605305E-3,7.125378E-4,2.3959727E-4,1.523037E-3,3.7110646E-4,-3.4183287E-4],"split_indices":[1,0,36,36,0,44,62,0,0,0,2,73,85,28,0,26,0,88,83,25,9,4,53,0,0,28,26,9,21,0,0,0,0,0,0,3,0,0,11,0,0,0,0,25,0,4,19,0,40,44,85,0,0,0,0,0,0,0,0,0,0,0,0,0,0],"split_type":[0,0,0,0,0,0,0,0,0,0,0,0,0,0,0,0,0,0,0,0,0,0,0,0,0,0,0,0,0,0,0,0,0,0,0,0,0,0,0,0,0,0,0,0,0,0,0,0,0,0,0,0,0,0,0,0,0,0,0,0,0,0,0,0,0],"sum_hessian":[2.4E2,1E0,2.39E2,2.37E2,2E0,5.8E1,1.79E2,1E0,1E0,1E0,5.7E1,1.1E1,1.68E2,3.2E1,2.5E1,8E0,3E0,1.5E2,1.8E1,2.5E1,7E0,8E0,1.7E1,3E0,5E0,1.42E2,8E0,5E0,1.3E1,2E1,5E0,3E0,4E0,6E0,2E0,1.2E1,5E0,1E0,1.41E2,3E0,5E0,4E0,1E0,1.2E1,1E0,6E0,1.4E1,2E0,1E1,7.2E1,6.9E1,3E0,2E0,4E0,8E0,2E0,4E0,1.2E1,2E0,7E0,3E0,6.3E1,9E0,1.7E1,5.2E1],"tree_param":{"num_deleted":"0","num_feature":"97","num_nodes":"65","size_leaf_vector":"1"}},{"base_weights":[1.0872283E-6,-5.2627805E-3,7.4185926E-5,-7.887848E-6,6.5606437E-3,1.7986979E-3,-6.23629E-5,1.1627198E-3,4.7418596E-3,2.9096603E-3,2.8920174E-4,-2.3240085E-5,-2.2865534E-3,-1.4116889E-6,-1.5000344E-3,-3.3397676E-4,-2.242899E-3,-4.3301782E-4,1.1305519E-4,-1.1268344E-3,-1.8186796E-4,4.0267195E-4,-1.3634136E-4,-1.3997896E-3,6.000201E-5,6.1539037E-4,-4.1148398E-4,-2.9050785E-5,-1.5269688E-3,-1.6639709E-4,-1.682377E-3,-4.2651498E-4,1.8338136E-4,-2.0386833E-4,5.1097875E-4,2.1532775E-4,-5.606045E-4,-6.860603E-5,8.8674546E-4,-1.8825532E-4,-1.415062E-3],"categories":[],"categories_nodes":[],"categories_segments":[],"categories_sizes":[],"default_left":[0,0,0,0,0,0,0,0,0,0,0,0,0,0,0,0,0,0,0,0,0,0,0,0,0,0,0,0,0,0,0,0,0,0,0,0,0,0,0,0,0],"id":16,"left_children":[1,-1,3,5,7,9,11,-1,-1,-1,-1,13,15,17,-1,-1,-1,19,21,-1,23,25,27,29,31,33,35,37,39,-1,-1,-1,-1,-1,-1,-1,-1,-1,-1,-1,-1],"loss_changes":[1.5519197E-4,0E0,1.278201E-4,2.3534669E-5,3.3024698E-6,2.5780779E-5,2.013471E-5,0E0,0E0,0E0,0E0,1.2377343E-5,7.963952E-6,1.1313205E-5,0E0,0E0,0E0,1.707867E-5,1.3128427E-5,0E0,1.2456294E-5,1.4800846E-5,1.4577362E-5,1.0255281E-5,7.0338338E-6,1.540794E-5,7.5855323E-6,1.19939805E-5,6.3212337E-6,0E0,0E0,0E0,0E0,0E0,0E0,0E0,0E0,0E0,0E0,0E0,0E0],"parents":[2147483647,0,0,2,2,3,3,4,4,5,5,6,6,11,11,12,12,13,13,17,17,18,18,20,20,21,21,22,22,23,23,24,24,25,25,26,26,27,27,28,28],"right_children":[2,-1,4,6,8,10,12,-1,-1,-1,-1,14,16,18,-1,-1,-1,20,22,-1,24,26,28,30,32,34,36,38,40,-1,-1,-1,-1,-1,-1,-1,-1,-1,-1,-1,-1],"split_conditions":[-2.273752E0,-5.2627805E-3,3.6901214E0,-1.752902E0,-2.154934E-1,-7.413151E-1,3.575513E-1,1.1627198E-3,4.7418596E-3,2.9096603E-3,2.8920174E-4,2.6759698E0,-3.9764687E-1,-4.2350388E-1,-1.5000344E-3,-3.3397676E-4,-2.242899E-3,-1.0746136E0,4.6037313E-2,-1.1268344E-3,-7.109059E-1,7.734279E-1,8.8461876E-1,-1.2081765E-1,-6.7484146E-1,4.529912E-2,4.755825E-2,1.4713081E0,3.7406728E-2,-1.6639709E-4,-1.682377E-3,-4.2651498E-4,1.8338136E-4,-2.0386833E-4,5.1097875E-4,2.1532775E-4,-5.606045E-4,-6.860603E-5,8.8674546E-4,-1.8825532E-4,-1.415062E-3],"split_indices":[1,0,36,44,0,4,89,0,0,0,0,31,0,27,0,0,0,78,42,0,73,27,86,41,24,52,60,24,3,0,0,0,0,0,0,0,0,0,0,0,0],"split_type":[0,0,0,0,0,0,0,0,0,0,0,0,0,0,0,0,0,0,0,0,0,0,0,0,0,0,0,0,0,0,0,0,0,0,0,0,0,0,0,0,0],"sum_hessian":[2.4E2,1E0,2.39E2,2.37E2,2E0,6E0,2.31E2,1E0,1E0,1E0,5E0,2.28E2,3E0,2.27E2,1E0,2E0,1E0,4.7E1,1.8E2,6E0,4.1E1,8.3E1,9.7E1,6E0,3.5E1,6.6E1,1.7E1,9.1E1,6E0,4E0,2E0,8E0,2.7E1,1.3E1,5.3E1,7E0,1E1,8.7E1,4E0,3E0,3E0],"tree_param":{"num_deleted":"0","num_feature":"97","num_nodes":"41","size_leaf_vector":"1"}},{"base_weights":[-1.7325414E-5,-3.683925E-3,3.3768018E-5,-2.3833843E-5,4.59226E-3,-1.4656113E-4,4.179707E-4,8.1367494E-4,3.319359E-3,-7.1706774E-4,-5.8160967E-5,2.515157E-3,2.837801E-4,-1.3725043E-3,-3.989393E-4,5.120039E-5,-6.9367886E-4,2.2716523E-4,2.0364763E-3,8.786519E-4,2.8034052E-5,-2.0136833E-4,-9.498597E-4,1.5480055E-5,1.5048982E-3,-2.7129526E-4,-1.9156138E-3,1.2267113E-3,9.126664E-5,-2.5051573E-4,4.836491E-4,1.6622544E-4,-2.2758485E-4,2.6946267E-4,-2.5367035E-4,-4.4819515E-4,1.4257431E-4,-1.4495373E-3,-3.6602022E-4,8.6488726E-4,1.4705659E-4,7.911829E-6,-5.393895E-4,1.5530153E-4,5.88584E-4,1.07341344E-4,1.2638808E-3,-9.026835E-5,-1.6647066E-3,-2.96402E-4,2.0335516E-4,-5.237103E-4,-6.9618225E-5,3.7428143E-4,-1.2313128E-4,9.069035E-4,3.0874016E-4,3.7703235E-4,-2.1233766E-4,-1.3605881E-3,-6.2942505E-5],"categories":[],"categories_nodes":[],"categories_segments":[],"categories_sizes":[],"default_left":[0,0,0,0,0,0,0,0,0,0,0,0,0,0,0,0,0,0,0,0,0,0,0,0,0,0,0,0,0,0,0,0,0,0,0,0,0,0,0,0,0,0,0,0,0,0,0,0,0,0,0,0,0,0,0,0,0,0,0,0,0],"id":17,"left_children":[1,-1,3,5,7,9,11,-1,-1,13,15,17,19,-1,21,23,25,-1,-1,27,29,31,-1,33,-1,35,37,39,-1,41,43,-1,-1,45,47,-1,49,-1,-1,-1,-1,-1,51,-1,-1,53,55,57,59,-1,-1,-1,-1,-1,-1,-1,-1,-1,-1,-1,-1],"loss_changes":[7.559745E-5,0E0,6.312807E-5,1.2965968E-5,1.6235063E-6,9.389243E-6,1.3920228E-5,0E0,0E0,1.1577457E-5,1.1364195E-5,4.348838E-6,7.582174E-6,0E0,4.828238E-6,1.2248069E-5,1.186731E-5,0E0,0E0,3.606593E-6,4.689975E-6,1.8076499E-6,0E0,9.570329E-6,0E0,3.8471535E-6,2.4451692E-6,1.7548946E-6,0E0,1.7591752E-6,1.3113597E-6,0E0,0E0,1.1471912E-5,1.5528229E-5,0E0,1.542349E-6,0E0,0E0,0E0,0E0,0E0,1.4516336E-6,0E0,0E0,1.0297798E-5,1.0777167E-6,1.1968752E-5,6.3453863E-6,0E0,0E0,0E0,0E0,0E0,0E0,0E0,0E0,0E0,0E0,0E0,0E0],"parents":[2147483647,0,0,2,2,3,3,4,4,5,5,6,6,9,9,10,10,11,11,12,12,14,14,15,15,16,16,19,19,20,20,21,21,23,23,25,25,26,26,27,27,29,29,30,30,33,33,34,34,36,36,42,42,45,45,46,46,47,47,48,48],"right_children":[2,-1,4,6,8,10,12,-1,-1,14,16,18,20,-1,22,24,26,-1,-1,28,30,32,-1,34,-1,36,38,40,-1,42,44,-1,-1,46,48,-1,50,-1,-1,-1,-1,-1,52,-1,-1,54,56,58,60,-1,-1,-1,-1,-1,-1,-1,-1,-1,-1,-1,-1],"split_conditions":[-2.273752E0,-3.683925E-3,3.6901214E0,6.4677966E-1,-2.154934E-1,-3.122526E-1,-1.6358908E0,8.1367494E-4,3.319359E-3,-1.1507969E0,4.5693168E-1,-4.8974568E-1,8.0619717E-1,-1.3725043E-3,8.660522E-1,1.4461949E0,4.7794685E-1,2.2716523E-4,2.0364763E-3,1.6206148E-1,2.6713875E-1,-3.065664E-1,-9.498597E-4,-3.9562963E-2,1.5048982E-3,-7.7981114E-1,6.5686774E-1,3.802105E-1,9.126664E-5,8.836368E-2,1.7320508E0,1.6622544E-4,-2.2758485E-4,3.4927514E-1,3.3166249E0,-4.4819515E-4,1.0797191E-1,-1.4495373E-3,-3.6602022E-4,8.6488726E-4,1.4705659E-4,7.911829E-6,1.2132411E-1,1.5530153E-4,5.88584E-4,6.865926E-2,5.9226537E-1,-5.813986E-1,1.6141711E-1,-2.96402E-4,2.0335516E-4,-5.237103E-4,-6.9618225E-5,3.7428143E-4,-1.2313128E-4,9.069035E-4,3.0874016E-4,3.7703235E-4,-2.1233766E-4,-1.3605881E-3,-6.2942505E-5],"split_indices":[1,0,36,80,0,49,49,0,0,30,85,0,80,0,9,44,54,0,0,11,7,45,0,25,0,40,0,3,0,42,21,0,0,90,38,0,45,0,0,0,0,0,62,0,0,52,2,24,15,0,0,0,0,0,0,0,0,0,0,0,0],"split_type":[0,0,0,0,0,0,0,0,0,0,0,0,0,0,0,0,0,0,0,0,0,0,0,0,0,0,0,0,0,0,0,0,0,0,0,0,0,0,0,0,0,0,0,0,0,0,0,0,0,0,0,0,0,0,0,0,0,0,0,0,0],"sum_hessian":[2.4E2,1E0,2.39E2,2.37E2,2E0,1.86E2,5.1E1,1E0,1E0,2.4E1,1.62E2,2E0,4.9E1,3E0,2.1E1,1.39E2,2.3E1,1E0,1E0,1.4E1,3.5E1,1.9E1,2E0,1.38E2,1E0,1.8E1,5E0,9E0,5E0,2.2E1,1.3E1,5E0,1.4E1,7.1E1,6.7E1,8E0,1E1,3E0,2E0,7E0,2E0,1.2E1,1E1,1E1,3E0,6.2E1,9E0,6.1E1,6E0,2E0,8E0,5E0,5E0,2.3E1,3.9E1,6E0,3E0,1.6E1,4.5E1,4E0,2E0],"tree_param":{"num_deleted":"0","num_feature":"97","num_nodes":"61","size_leaf_vector":"1"}},{"base_weights":[-2.844205E-6,-2.5787116E-3,3.2959382E-5,-7.282786E-6,1.9287111E-3,-1.8112824E-4,1.5672823E-4,-2.2952471E-4,5.635071E-4,2.481244E-4,-5.725793E-4,-7.409414E-5,-5.302555E-4,8.449078E-4,1.1423656E-4,-9.624958E-4,1.9306183E-4,4.1511323E-4,-2.2463963E-4,-3.2565172E-4,-1.0893058E-3,1.6525269E-3,4.7975115E-4,-2.4801806E-5,7.67529E-4,-1.1634827E-4,-6.7824125E-4,7.392884E-5,4.1599275E-4,-1.5033376E-4,-7.141114E-4,-1.1046116E-4,-5.4667797E-4,1.028191E-3,-2.0059348E-4,1.0278646E-4,-9.860463E-4,8.5792545E-4,3.3647363E-4,1.8965571E-4,-3.2085986E-4,-2.7968088E-4,4.410744E-5,2.9689242E-4,9.415627E-4,1.6325437E-4,-9.0551376E-4,3.118515E-5,-9.0823177E-4,-1.663208E-4,3.021876E-4,-1.569161E-5,3.3800944E-4,-2.4213512E-4,2.7737618E-4,1.2698401E-4,-5.443573E-4,-7.678986E-4,6.5231325E-5],"categories":[],"categories_nodes":[],"categories_segments":[],"categories_sizes":[],"default_left":[0,0,0,0,0,0,0,0,0,0,0,0,0,0,0,0,0,0,0,0,0,0,0,0,0,0,0,0,0,0,0,0,0,0,0,0,0,0,0,0,0,0,0,0,0,0,0,0,0,0,0,0,0,0,0,0,0,0,0],"id":18,"left_children":[1,-1,3,5,-1,7,9,11,-1,13,15,17,19,21,23,25,-1,27,29,31,-1,-1,33,35,37,-1,-1,-1,-1,39,-1,41,-1,43,-1,45,47,-1,49,51,53,-1,-1,-1,-1,55,57,-1,-1,-1,-1,-1,-1,-1,-1,-1,-1,-1,-1],"loss_changes":[3.7201837E-5,0E0,3.075129E-5,6.8143795E-6,0E0,6.504956E-6,8.340747E-6,5.1958996E-6,0E0,8.692705E-6,5.1918028E-6,5.6168483E-6,9.401554E-6,1.262256E-5,8.284814E-6,1.0712965E-6,0E0,1.3763258E-6,3.9823276E-6,4.182994E-6,0E0,0E0,8.380215E-6,9.422259E-6,4.0870136E-6,0E0,0E0,0E0,0E0,3.249592E-6,0E0,1.7355649E-6,0E0,2.3980483E-6,0E0,4.293776E-6,5.0083027E-6,0E0,1.2680956E-6,1.54701E-6,2.5828947E-6,0E0,0E0,0E0,0E0,3.558859E-6,1.6577205E-6,0E0,0E0,0E0,0E0,0E0,0E0,0E0,0E0,0E0,0E0,0E0,0E0],"parents":[2147483647,0,0,2,2,3,3,5,5,6,6,7,7,9,9,10,10,11,11,12,12,13,13,14,14,15,15,17,17,18,18,19,19,22,22,23,23,24,24,29,29,31,31,33,33,35,35,36,36,38,38,39,39,40,40,45,45,46,46],"right_children":[2,-1,4,6,-1,8,10,12,-1,14,16,18,20,22,24,26,-1,28,30,32,-1,-1,34,36,38,-1,-1,-1,-1,40,-1,42,-1,44,-1,46,48,-1,50,52,54,-1,-1,-1,-1,56,58,-1,-1,-1,-1,-1,-1,-1,-1,-1,-1,-1,-1],"split_conditions":[-2.273752E0,-2.5787116E-3,3.6901214E0,-1.1953337E-1,1.9287111E-3,1.2168024E0,8.508571E-1,3.665335E-1,5.635071E-4,-4.3970552E-1,1.192653E0,-7.947849E-1,9.0761876E-1,-7.413151E-1,1.2605715E-1,-9.4979334E-1,1.9306183E-4,-1.0035148E0,8.318166E-1,5.707216E-1,-1.0893058E-3,1.6525269E-3,2.4025464E-1,7.5708665E-2,3.2519635E-2,-1.1634827E-4,-6.7824125E-4,7.392884E-5,4.1599275E-4,1.3566542E-3,-7.141114E-4,-5.944252E-1,-5.4667797E-4,6.5942276E-1,-2.0059348E-4,1.226024E0,4.3334987E-2,8.5792545E-4,-3.9995223E-1,-3.0615273E-1,6.94498E-1,-2.7968088E-4,4.410744E-5,2.9689242E-4,9.415627E-4,1.9359708E0,3.1531426E-1,3.118515E-5,-9.0823177E-4,-1.663208E-4,3.021876E-4,-1.569161E-5,3.3800944E-4,-2.4213512E-4,2.7737618E-4,1.2698401E-4,-5.443573E-4,-7.678986E-4,6.5231325E-5],"split_indices":[1,0,36,61,0,36,86,45,0,50,86,47,3,4,89,7,0,47,79,15,0,0,27,89,70,0,0,0,0,32,0,77,0,69,0,44,34,0,26,83,4,0,0,0,0,2,0,0,0,0,0,0,0,0,0,0,0,0,0],"split_type":[0,0,0,0,0,0,0,0,0,0,0,0,0,0,0,0,0,0,0,0,0,0,0,0,0,0,0,0,0,0,0,0,0,0,0,0,0,0,0,0,0,0,0,0,0,0,0,0,0,0,0,0,0,0,0,0,0,0,0],"sum_hessian":[2.4E2,1E0,2.39E2,2.37E2,2E0,1.15E2,1.22E2,1.11E2,4E0,1.09E2,1.3E1,7.4E1,3.7E1,1.9E1,9E1,9E0,4E0,1.7E1,5.7E1,3.3E1,4E0,2E0,1.7E1,7.5E1,1.5E1,2E0,7E0,9E0,8E0,5.4E1,3E0,2.5E1,8E0,1E1,7E0,6.7E1,8E0,5E0,1E1,1.8E1,3.6E1,8E0,1.7E1,6E0,4E0,6.4E1,3E0,3E0,5E0,2E0,8E0,1.2E1,6E0,3.3E1,3E0,6.2E1,2E0,2E0,1E0],"tree_param":{"num_deleted":"0","num_feature":"97","num_nodes":"59","size_leaf_vector":"1"}},{"base_weights":[-4.2885667E-6,-1.8050909E-3,2.0764272E-5,-3.4894904E-6,1.7452241E-3,1.344314E-5,-6.632805E-4,5.3737676E-5,-2.5215457E-4,-1.4493943E-4,-8.3155633E-4,8.091148E-5,-3.2641095E-4,-3.892857E-4,7.578532E-5,1.9448671E-4,-6.3619394E-5,-4.9812795E-4,1.5134813E-4,1.5063286E-4,9.295146E-4,1.5762448E-4,-1.3525288E-4,-9.670258E-5,-4.2560103E-4,-3.5865785E-4,1.8619075E-4,8.2111364E-4,2.0599366E-5,-3.7225088E-4,-6.491318E-5,-1.0684133E-4,1.5107698E-4,-3.2903807E-4,-3.2655128E-6],"categories":[],"categories_nodes":[],"categories_segments":[],"categories_sizes":[],"default_left":[0,0,0,0,0,0,0,0,0,0,0,0,0,0,0,0,0,0,0,0,0,0,0,0,0,0,0,0,0,0,0,0,0,0,0],"id":19,"left_children":[1,-1,3,5,-1,7,9,11,13,-1,-1,15,-1,17,-1,19,21,23,-1,25,27,-1,29,-1,-1,-1,31,-1,-1,-1,33,-1,-1,-1,-1],"loss_changes":[1.8201006E-5,0E0,1.6820582E-5,2.6790237E-6,0E0,2.5178504E-6,1.4937125E-6,3.357651E-6,1.658043E-6,0E0,0E0,3.229738E-6,0E0,1.7316452E-6,0E0,3.4057025E-6,2.0692378E-6,1.3090298E-6,0E0,2.9054925E-6,2.3109692E-6,0E0,2.4168255E-6,0E0,0E0,0E0,2.4584306E-6,0E0,0E0,0E0,1.8372132E-6,0E0,0E0,0E0,0E0],"parents":[2147483647,0,0,2,2,3,3,5,5,6,6,7,7,8,8,11,11,13,13,15,15,16,16,17,17,19,19,20,20,22,22,26,26,30,30],"right_children":[2,-1,4,6,-1,8,10,12,14,-1,-1,16,-1,18,-1,20,22,24,-1,26,28,-1,30,-1,-1,-1,32,-1,-1,-1,34,-1,-1,-1,-1],"split_conditions":[-2.273752E0,-1.8050909E-3,4.086546E0,3.5726547E-1,1.7452241E-3,4.5693168E-1,-3.9764687E-1,1.1047401E0,6.121105E-2,-1.4493943E-4,-8.3155633E-4,8.946201E-2,-3.2641095E-4,8.5606897E-1,7.578532E-5,1.131592E0,-8.6468184E-1,-1.3904099E-1,1.5134813E-4,-1.3152218E0,1.7972973E-1,1.5762448E-4,-8.7480545E-1,-9.670258E-5,-4.2560103E-4,-3.5865785E-4,-5.2224034E-1,8.2111364E-4,2.0599366E-5,-3.7225088E-4,-1.1592351E0,-1.0684133E-4,1.5107698E-4,-3.2903807E-4,-3.2655128E-6],"split_indices":[1,0,24,89,0,85,0,27,51,0,0,62,0,73,0,44,83,62,0,4,36,0,11,0,0,0,69,0,0,0,7,0,0,0,0],"split_type":[0,0,0,0,0,0,0,0,0,0,0,0,0,0,0,0,0,0,0,0,0,0,0,0,0,0,0,0,0,0,0,0,0,0,0],"sum_hessian":[2.4E2,1E0,2.39E2,2.38E2,1E0,2.33E2,5E0,2.03E2,3E1,4E0,1E0,1.95E2,8E0,2.2E1,8E0,1.09E2,8.6E1,1.9E1,3E0,1.04E2,5E0,1.5E1,7.1E1,8E0,1.1E1,4E0,1E2,3E0,2E0,8E0,6.3E1,1.5E1,8.5E1,6E0,5.7E1],"tree_param":{"num_deleted":"0","num_feature":"97","num_nodes":"35","size_leaf_vector":"1"}}]},"name":"gbtree"},"learner_model_param":{"base_score":"1.2767292E1","boost_from_average":"1","num_class":"0","num_feature":"97","num_target":"1"},"objective":{"name":"reg:squarederror","reg_loss_param":{"scale_pos_weight":"1"}}},"version":[2,0,3]}