{"learner":{"attributes":{"scikit_learn":"{\"_estimator_type\": \"regressor\"}"},"feature_names":[],"feature_types":[],"gradient_booster":{"model":{"gbtree_model_param":{"num_parallel_tree":"1","num_trees":"50"},"iteration_indptr":[0,1,2,3,4,5,6,7,8,9,10,11,12,13,14,15,16,17,18,19,20,21,22,23,24,25,26,27,28,29,30,31,32,33,34,35,36,37,38,39,40,41,42,43,44,45,46,47,48,49,50],"tree_info":[0,0,0,0,0,0,0,0,0,0,0,0,0,0,0,0,0,0,0,0,0,0,0,0,0,0,0,0,0,0,0,0,0,0,0,0,0,0,0,0,0,0,0,0,0,0,0,0,0,0],"trees":[{"base_weights":[2.719154E-7,-2.7222598E0,1.7778027E0,-4.4907517E0,-1.3788593E0,1.0984467E0,1.0077254E1,-6.3251686E-1,-5.0090475E0,-6.8961185E-1,-5.428143E0,3.08998E0,1.854534E-1,1.1089481E1,-2.2510052E-2,5.2123475E-1,-1.9600134E0,-5.595826E0,-1.1425172E0,2.675666E-1,-1.978591E0,-5.675101E-1,-6.041446E0,-6.7751724E-1,3.6035326E0,6.143877E-1,-1.4537694E0,1.1266531E0,-6.4751005E-1,-3.3611293E0,-6.226976E0,-2.5087652E0,1.0599861E0,1.2056328E0,-2.8528745E0,3.44249E0,-2.4217696E0,7.124896E-1,-1.0980165E0,-1.9126558E-1,3.9342656E0,1.4437054E0,-1.0359812E0,2.0159836E0,-2.4472067E0,-5.0658503E0,3.6234617E-2,-3.013347E0,-4.9751043E-1,-2.6037655E0,1.9072307E0,-3.6360164E0,-5.9668034E-1,1.724829E-1,-3.2980192E0,7.124896E-1,-7.3001385E-1,5.489357E0,3.3494444E0,6.1011165E-1,3.6031952E0,-1.662651E0,5.818571E-1,3.4299862E0,-7.001368E-2,-2.7053525E0,7.124896E-1,5.633195E-1,-7.7251005E-1,2.6496687E0,-8.500164E-1,-9.0251017E-1,7.4896812E-3,-2.6675103E0,1.2739836E0,-3.6615574E0,-6.23347E-1,-9.125104E-1,-1.8251038E-1,7.124896E-1,6.0699825E0,9.791495E-1,3.8221543E0,9.218602E-2,4.0099835E0,4.7799816E0,1.237483E0,1.5562348E0,-2.3634567E0,-9.187653E-1,1.6659836E0,4.6748972E-1,-5.7251024E-1,-1.4600163E0,-3.0254734E0],"categories":[],"categories_nodes":[],"categories_segments":[],"categories_sizes":[],"default_left":[0,0,0,0,0,0,0,0,0,0,0,0,0,0,0,0,0,0,0,0,0,0,0,0,0,0,0,0,0,0,0,0,0,0,0,0,0,0,0,0,0,0,0,0,0,0,0,0,0,0,0,0,0,0,0,0,0,0,0,0,0,0,0,0,0,0,0,0,0,0,0,0,0,0,0,0,0,0,0,0,0,0,0,0,0,0,0,0,0,0,0,0,0,0,0],"id":0,"left_children":[1,3,5,7,9,11,13,15,17,19,21,23,25,-1,-1,27,-1,29,31,33,35,-1,-1,37,39,41,43,-1,-1,45,-1,47,-1,49,51,-1,53,-1,-1,55,57,59,61,63,65,-1,67,-1,-1,-1,69,-1,71,73,75,-1,77,79,81,83,85,87,89,-1,91,93,-1,-1,-1,-1,-1,-1,-1,-1,-1,-1,-1,-1,-1,-1,-1,-1,-1,-1,-1,-1,-1,-1,-1,-1,-1,-1,-1,-1,-1],"loss_changes":[1.1760327E3,2.2188403E2,8.177581E2,7.881964E1,1.5255037E2,2.485281E2,1.1270532E2,1.0211233E1,7.528339E1,6.098477E1,2.0419754E1,8.5638245E1,6.768947E1,0E0,0E0,3.559837E0,0E0,2.279364E1,2.0714252E1,8.832775E1,5.878956E1,0E0,0E0,4.2893066E0,4.8444946E1,1.0551534E2,7.387318E1,0E0,0E0,5.230757E1,0E0,2.5601978E0,0E0,6.643731E1,1.0198902E1,0E0,4.6033104E1,0E0,0E0,2.4677134E0,1.3444397E1,8.960864E1,2.7327536E1,1.4988174E1,1.4978119E1,0E0,2.1402783E0,0E0,0E0,0E0,4.3193947E1,0E0,5.6107914E-1,2.2167892E1,1.230275E1,0E0,1.3320994E-1,1.786377E1,2.7630493E1,6.65438E1,3.3059998E1,4.653856E1,1.4545565E1,0E0,1.0779234E0,1.562645E0,0E0,0E0,0E0,0E0,0E0,0E0,0E0,0E0,0E0,0E0,0E0,0E0,0E0,0E0,0E0,0E0,0E0,0E0,0E0,0E0,0E0,0E0,0E0,0E0,0E0,0E0,0E0,0E0,0E0],"parents":[2147483647,0,0,1,1,2,2,3,3,4,4,5,5,6,6,7,7,8,8,9,9,10,10,11,11,12,12,15,15,17,17,18,18,19,19,20,20,23,23,24,24,25,25,26,26,29,29,31,31,33,33,34,34,36,36,39,39,40,40,41,41,42,42,43,43,44,44,46,46,50,50,52,52,53,53,54,54,56,56,57,57,58,58,59,59,60,60,61,61,62,62,64,64,65,65],"right_children":[2,4,6,8,10,12,14,16,18,20,22,24,26,-1,-1,28,-1,30,32,34,36,-1,-1,38,40,42,44,-1,-1,46,-1,48,-1,50,52,-1,54,-1,-1,56,58,60,62,64,66,-1,68,-1,-1,-1,70,-1,72,74,76,-1,78,80,82,84,86,88,90,-1,92,94,-1,-1,-1,-1,-1,-1,-1,-1,-1,-1,-1,-1,-1,-1,-1,-1,-1,-1,-1,-1,-1,-1,-1,-1,-1,-1,-1,-1,-1],"split_conditions":[-1.5943801E0,-4.298802E0,7.2482023E0,-3.0249357E0,5.309474E0,-1.3533503E0,2.6000515E-1,-5.4249007E-1,3.9145813E0,5.068111E-1,-3.3361917E0,-9.810987E-1,3.9426541E0,1.1089481E1,-2.2510052E-2,-6.6976995E0,-1.9600134E0,-1.7688619E0,-4.584037E0,-2.1465607E0,-4.26061E0,-5.675101E-1,-6.041446E0,-1.3260545E0,-4.654808E0,3.3233602E0,-1.543085E0,1.1266531E0,-6.4751005E-1,1.5334332E0,-6.226976E0,-5.3379645E0,1.0599861E0,-2.7938442E0,-1.8347902E0,3.44249E0,-8.154747E-1,7.124896E-1,-1.0980165E0,6.6960263E-1,-4.819943E0,-5.8581215E-1,3.3678955E-1,2.4123752E0,4.022985E0,-5.0658503E0,-4.500777E0,-3.013347E0,-4.9751043E-1,-2.6037655E0,4.1372867E0,-3.6360164E0,-1.6842536E0,-3.8316853E0,4.799012E0,7.124896E-1,8.602567E-1,-3.5712552E0,-2.2606692E0,3.3250513E0,1.2024108E0,-2.3037048E-1,2.0965505E0,3.4299862E0,-4.3268493E-1,4.6972055E0,7.124896E-1,5.633195E-1,-7.7251005E-1,2.6496687E0,-8.500164E-1,-9.0251017E-1,7.4896812E-3,-2.6675103E0,1.2739836E0,-3.6615574E0,-6.23347E-1,-9.125104E-1,-1.8251038E-1,7.124896E-1,6.0699825E0,9.791495E-1,3.8221543E0,9.218602E-2,4.0099835E0,4.7799816E0,1.237483E0,1.5562348E0,-2.3634567E0,-9.187653E-1,1.6659836E0,4.6748972E-1,-5.7251024E-1,-1.4600163E0,-3.0254734E0],"split_indices":[0,0,0,2,2,2,2,5,6,8,1,0,1,0,0,0,0,8,4,0,2,0,0,0,4,2,8,0,0,1,0,0,0,3,0,0,9,0,0,0,2,6,9,3,0,0,0,0,0,0,1,0,0,2,7,0,0,3,6,1,1,0,6,0,0,1,0,0,0,0,0,0,0,0,0,0,0,0,0,0,0,0,0,0,0,0,0,0,0,0,0,0,0,0,0],"split_type":[0,0,0,0,0,0,0,0,0,0,0,0,0,0,0,0,0,0,0,0,0,0,0,0,0,0,0,0,0,0,0,0,0,0,0,0,0,0,0,0,0,0,0,0,0,0,0,0,0,0,0,0,0,0,0,0,0,0,0,0,0,0,0,0,0,0,0,0,0,0,0,0,0,0,0,0,0,0,0,0,0,0,0,0,0,0,0,0,0,0,0,0,0,0,0],"sum_hessian":[2.41E2,9.5E1,1.46E2,4E1,5.5E1,1.36E2,1E1,5E0,3.5E1,4.8E1,7E0,4.2E1,9.4E1,9E0,1E0,3E0,2E0,3E1,5E0,2.8E1,2E1,1E0,6E0,5E0,3.7E1,7.5E1,1.9E1,2E0,1E0,8E0,2.2E1,3E0,2E0,2.2E1,6E0,1E0,1.9E1,1E0,4E0,3E0,3.4E1,5E1,2.5E1,4E0,1.5E1,5E0,3E0,2E0,1E0,3E0,1.9E1,4E0,2E0,5E0,1.4E1,1E0,2E0,7E0,2.7E1,3.7E1,1.3E1,1.8E1,7E0,2E0,2E0,1.4E1,1E0,2E0,1E0,1.5E1,4E0,1E0,1E0,1E0,4E0,1.2E1,2E0,1E0,1E0,1E0,6E0,5E0,2.2E1,3.3E1,4E0,8E0,5E0,3E0,1.5E1,3E0,4E0,1E0,1E0,4E0,1E1],"tree_param":{"num_deleted":"0","num_feature":"10","num_nodes":"95","size_leaf_vector":"1"}},{"base_weights":[7.7705993E-3,-2.5747046E-1,7.4949527E-1,4.871788E-2,-7.952272E-1,9.5269865E-1,-1.0412604E0,-2.9141873E-2,2.965196E0,-1.34216E0,-1.124004E-1,5.2482045E-1,1.8033527E0,-2.3886728E0,5.6646705E-1,2.1252167E0,-8.7105244E-2,-2.7501205E-1,-1.8007045E0,6.5394473E-1,-1.0349338E0,1.5649792E0,-9.545655E-2,-7.617309E-1,2.3319142E0,1.5810648E-2,1.1092181E0,-1.1342784E0,5.24101E-3,6.887731E-1,-2.3747756E0,-2.5300546E0,-1.0469255E0,-1.3286033E0,8.608917E-1,-8.9753434E-2,-1.4040306E0,2.1694247E-1,1.7556816E0,3.1758463E-1,-1.2619375E0,-1.0081377E0,-1.1255264E-2,3.3276293E0,1.177837E-1,1.4421797E-1,-1.20501995E-1,-2.8119135E-1,-2.1303396E0,7.389281E-2,-1.3551128E0,1.8259776E0,3.1837535E-1,-2.8221776E0,-7.1295995E-1,-1.4801422E0,1.0349165E0,1.206065E0,8.4591866E-2,4.0977716E-2,-1.3268065E-1,-1.7734954E0,-6.798666E-1,2.7515647E0,1.1817602E0,1.3602635E0,-1.20659225E-1,-1.6798433E0,6.227484E-1,1.8023857E0,4.2982683E0,1.0421028E0,-1.153903E0,-8.706074E-1,5.984271E-1,-4.5625496E-1,-2.5362828E0,2.0714413E-1,-7.49929E-1,-1.6941724E0,-5.64349E-1,7.366638E-1,5.6168556E-2,-3.0191364E0,-5.247736E-1,-2.3728228E-1,-1.8680642E0,-4.9022198E-2,1.601397E0,-5.3127766E-2,1.3372972E0,1.3326559E0,-4.315521E-1,1.8212795E-2,-1.8904941E-1,3.745079E-3,-8.517058E-1,1.3054628E0,3.421831E-2,1.4797575E0,3.8139677E-1,-7.2025675E-1,1.2225872E0,-3.88587E-1,-1.8603771E0,2.003863E0,3.9749908E-1,1.2785393E0,1.6639662E-1],"categories":[],"categories_nodes":[],"categories_segments":[],"categories_sizes":[],"default_left":[0,0,0,0,0,0,0,0,0,0,0,0,0,0,0,0,0,0,0,0,0,0,0,0,0,0,0,0,0,0,0,0,0,0,0,0,0,0,0,0,0,0,0,0,0,0,0,0,0,0,0,0,0,0,0,0,0,0,0,0,0,0,0,0,0,0,0,0,0,0,0,0,0,0,0,0,0,0,0,0,0,0,0,0,0,0,0,0,0,0,0,0,0,0,0,0,0,0,0,0,0,0,0,0,0,0,0,0,0],"id":1,"left_children":[1,3,5,7,9,11,13,15,-1,17,19,21,23,-1,25,-1,27,29,31,33,35,37,39,41,43,45,-1,47,49,51,-1,53,55,-1,57,59,61,-1,63,65,67,-1,-1,69,71,-1,-1,73,75,77,79,-1,81,83,-1,85,87,89,91,-1,93,-1,95,-1,97,99,101,103,-1,105,-1,107,-1,-1,-1,-1,-1,-1,-1,-1,-1,-1,-1,-1,-1,-1,-1,-1,-1,-1,-1,-1,-1,-1,-1,-1,-1,-1,-1,-1,-1,-1,-1,-1,-1,-1,-1,-1,-1],"loss_changes":[4.7803047E1,2.951196E1,2.4280811E1,2.620018E1,2.4124062E1,2.0164192E1,1.6517006E1,1.4295867E1,0E0,1.7120834E1,2.188616E1,2.5956852E1,2.7536568E1,0E0,1.1779398E0,0E0,1.0739925E1,2.5920332E1,1.1095444E1,8.118583E0,4.7580633E0,3.4752274E0,1.2927693E1,7.283423E-1,3.4882362E1,6.988917E-2,0E0,7.0485077E0,9.719379E0,3.2096157E0,0E0,4.3576813E0,1.4158264E1,0E0,4.1853046E0,3.3496574E-2,1.4697914E0,0E0,4.17857E0,9.3030815E0,6.5594664E0,0E0,0E0,8.537941E0,8.255152E0,0E0,0E0,3.6317625E0,1.561142E0,1.1023102E1,3.8447475E-1,0E0,8.3604735E-1,2.9405746E0,0E0,5.3423347E0,1.9205947E0,1.8887596E0,4.4401946E0,0E0,3.7465826E-2,0E0,5.9054637E-1,0E0,1.3748703E0,1.3743782E-1,1.2961685E1,6.757755E-1,0E0,9.017849E-1,0E0,6.1545086E-1,0E0,0E0,0E0,0E0,0E0,0E0,0E0,0E0,0E0,0E0,0E0,0E0,0E0,0E0,0E0,0E0,0E0,0E0,0E0,0E0,0E0,0E0,0E0,0E0,0E0,0E0,0E0,0E0,0E0,0E0,0E0,0E0,0E0,0E0,0E0,0E0,0E0],"parents":[2147483647,0,0,1,1,2,2,3,3,4,4,5,5,6,6,7,7,9,9,10,10,11,11,12,12,14,14,16,16,17,17,18,18,19,19,20,20,21,21,22,22,23,23,24,24,25,25,27,27,28,28,29,29,31,31,32,32,34,34,35,35,36,36,38,38,39,39,40,40,43,43,44,44,47,47,48,48,49,49,50,50,52,52,53,53,55,55,56,56,57,57,58,58,60,60,62,62,64,64,65,65,66,66,67,67,69,69,71,71],"right_children":[2,4,6,8,10,12,14,16,-1,18,20,22,24,-1,26,-1,28,30,32,34,36,38,40,42,44,46,-1,48,50,52,-1,54,56,-1,58,60,62,-1,64,66,68,-1,-1,70,72,-1,-1,74,76,78,80,-1,82,84,-1,86,88,90,92,-1,94,-1,96,-1,98,100,102,104,-1,106,-1,108,-1,-1,-1,-1,-1,-1,-1,-1,-1,-1,-1,-1,-1,-1,-1,-1,-1,-1,-1,-1,-1,-1,-1,-1,-1,-1,-1,-1,-1,-1,-1,-1,-1,-1,-1,-1,-1],"split_conditions":[2.159317E0,8.981244E-1,3.8554244E0,8.330524E-1,-9.5524806E-1,1.5077608E0,4.854459E0,-4.6073203E0,2.965196E0,2.4416122E-1,4.155707E0,-2.1319995E0,-1.7943577E0,-2.3886728E0,-5.673004E-1,2.1252167E0,-3.7245266E0,-1.2853264E0,2.2663672E0,1.1921381E0,-3.569171E0,-2.407647E0,7.465366E-1,5.442979E0,2.5620503E0,5.235773E0,1.1092181E0,1.0915174E0,6.023679E0,-4.849233E0,-2.3747756E0,-1.160989E0,-1.4331598E0,-1.3286033E0,1.7812741E0,-4.3722634E0,-3.5695927E0,2.1694247E-1,-1.3639019E0,-3.7159505E0,5.575576E0,-1.0081377E0,-1.1255264E-2,-2.2068807E-1,-1.0755989E-1,1.4421797E-1,-1.20501995E-1,-2.957974E0,-4.2986565E0,4.232449E0,6.0566375E-3,1.8259776E0,-7.793443E-2,4.100262E0,-7.1295995E-1,-3.8319284E-1,-6.6215057E0,-1.8637091E0,1.7524083E0,4.0977716E-2,5.634748E0,-1.7734954E0,-1.6577096E0,2.7515647E0,3.568266E0,-3.7634296E0,2.7429327E-1,2.4943874E0,6.227484E-1,-1.8061819E-2,4.2982683E0,4.464523E0,-1.153903E0,-8.706074E-1,5.984271E-1,-4.5625496E-1,-2.5362828E0,2.0714413E-1,-7.49929E-1,-1.6941724E0,-5.64349E-1,7.366638E-1,5.6168556E-2,-3.0191364E0,-5.247736E-1,-2.3728228E-1,-1.8680642E0,-4.9022198E-2,1.601397E0,-5.3127766E-2,1.3372972E0,1.3326559E0,-4.315521E-1,1.8212795E-2,-1.8904941E-1,3.745079E-3,-8.517058E-1,1.3054628E0,3.421831E-2,1.4797575E0,3.8139677E-1,-7.2025675E-1,1.2225872E0,-3.88587E-1,-1.8603771E0,2.003863E0,3.9749908E-1,1.2785393E0,1.6639662E-1],"split_indices":[0,2,2,2,6,4,0,1,0,8,2,3,6,0,1,0,1,4,2,2,0,6,8,0,9,0,0,3,8,0,0,6,6,0,5,0,3,0,7,1,0,0,0,2,5,0,0,2,1,5,4,0,3,1,0,3,0,8,2,0,2,0,0,0,2,1,8,0,0,1,0,0,0,0,0,0,0,0,0,0,0,0,0,0,0,0,0,0,0,0,0,0,0,0,0,0,0,0,0,0,0,0,0,0,0,0,0,0,0],"split_type":[0,0,0,0,0,0,0,0,0,0,0,0,0,0,0,0,0,0,0,0,0,0,0,0,0,0,0,0,0,0,0,0,0,0,0,0,0,0,0,0,0,0,0,0,0,0,0,0,0,0,0,0,0,0,0,0,0,0,0,0,0,0,0,0,0,0,0,0,0,0,0,0,0,0,0,0,0,0,0,0,0,0,0,0,0,0,0,0,0,0,0,0,0,0,0,0,0,0,0,0,0,0,0,0,0,0,0,0,0],"sum_hessian":[2.41E2,1.78E2,6.3E1,1.14E2,6.4E1,5.7E1,6E0,1.12E2,2E0,3.5E1,2.9E1,3.9E1,1.8E1,3E0,3E0,2E0,1.1E2,1.1E1,2.4E1,1.6E1,1.3E1,1.4E1,2.5E1,3E0,1.5E1,2E0,1E0,8E0,1.02E2,8E0,3E0,1.1E1,1.3E1,1E0,1.5E1,4E0,9E0,2E0,1.2E1,1.9E1,6E0,2E0,1E0,1E1,5E0,1E0,1E0,5E0,3E0,9.8E1,4E0,1E0,7E0,9E0,2E0,1.1E1,2E0,1E1,5E0,1E0,3E0,5E0,4E0,3E0,9E0,5E0,1.4E1,5E0,1E0,5E0,5E0,3E0,2E0,3E0,2E0,1E0,2E0,8.5E1,1.3E1,2E0,2E0,2E0,5E0,8E0,1E0,3E0,8E0,1E0,1E0,1E0,9E0,1E0,4E0,1E0,2E0,1E0,3E0,8E0,1E0,4E0,1E0,1E1,4E0,1E0,4E0,4E0,1E0,2E0,1E0],"tree_param":{"num_deleted":"0","num_feature":"10","num_nodes":"109","size_leaf_vector":"1"}},{"base_weights":[9.607244E-3,6.981138E-2,-9.758467E-1,9.810875E-1,2.372075E-2,-1.9507782E0,-3.9079624E-1,1.3193749E0,3.1126767E-1,1.2449319E0,9.959097E-4,-2.2435594E0,-3.8982677E-1,2.666553E-1,-1.1015788E0,7.7840805E-2,1.5133238E0,-1.5274191E-1,4.6545553E-1,-3.128945E-2,8.4432644E-1,4.1771698E-1,-2.3645401E-2,-1.5259433E-1,-1.3006763E0,1.3017273E-1,5.338256E-1,8.814821E-4,-1.6802701E0,1.8328587E-2,2.21488E0,-3.3454895E-3,-3.2122612E-2,-4.31536E-1,6.299183E-2,-2.9961312E-1,4.3614134E-1,4.959663E-3,-7.5196344E-1,9.6451014E-2,-7.824867E-1,-4.4945407E-1,-9.9848114E-2],"categories":[],"categories_nodes":[],"categories_segments":[],"categories_sizes":[],"default_left":[0,0,0,0,0,0,0,0,0,0,0,0,0,0,0,0,0,0,0,0,0,0,0,0,0,0,0,0,0,0,0,0,0,0,0,0,0,0,0,0,0,0,0],"id":2,"left_children":[1,3,5,7,9,11,13,15,17,-1,19,-1,-1,21,23,-1,-1,-1,25,27,29,-1,31,-1,-1,-1,-1,33,-1,35,-1,-1,-1,37,39,41,-1,-1,-1,-1,-1,-1,-1],"loss_changes":[1.4425601E1,9.595023E0,7.2230215E0,2.081829E0,6.0764103E0,1.4104881E0,4.966793E0,1.5677614E0,4.2881778E-1,0E0,5.9075E0,0E0,0E0,2.7299696E-1,7.462263E-1,0E0,0E0,0E0,2.2203684E-2,1.1088773E1,9.015999E0,0E0,4.0879415E-4,0E0,0E0,0E0,0E0,5.5598483E0,0E0,9.277142E-1,0E0,0E0,0E0,3.640225E0,5.195785E0,7.485476E-2,0E0,0E0,0E0,0E0,0E0,0E0,0E0],"parents":[2147483647,0,0,1,1,2,2,3,3,4,4,5,5,6,6,7,7,8,8,10,10,13,13,14,14,18,18,19,19,20,20,22,22,27,27,29,29,33,33,34,34,35,35],"right_children":[2,4,6,8,10,12,14,16,18,-1,20,-1,-1,22,24,-1,-1,-1,26,28,30,-1,32,-1,-1,-1,-1,34,-1,36,-1,-1,-1,38,40,42,-1,-1,-1,-1,-1,-1,-1],"split_conditions":[6.01374E0,-3.3162394E0,6.694281E0,-6.8186957E-1,-5.4808207E0,2.2947187E0,2.5540657E0,4.86799E0,-4.500777E0,1.2449319E0,4.7444673E0,-2.2435594E0,-3.8982677E-1,-2.3437075E-1,-5.836003E0,7.7840805E-2,1.5133238E0,-1.5274191E-1,-6.7767346E-1,4.640187E0,8.3973294E-1,4.1771698E-1,2.0337486E0,-1.5259433E-1,-1.3006763E0,1.3017273E-1,5.338256E-1,-1.8823758E0,-1.6802701E0,1.794267E0,2.21488E0,-3.3454895E-3,-3.2122612E-2,-4.861839E0,5.098305E0,-9.623854E0,4.3614134E-1,4.959663E-3,-7.5196344E-1,9.6451014E-2,-7.824867E-1,-4.4945407E-1,-9.9848114E-2],"split_indices":[1,9,1,2,8,3,3,1,0,0,5,0,0,4,0,0,0,0,2,5,6,0,0,0,0,0,0,8,0,1,0,0,0,8,7,0,0,0,0,0,0,0,0],"split_type":[0,0,0,0,0,0,0,0,0,0,0,0,0,0,0,0,0,0,0,0,0,0,0,0,0,0,0,0,0,0,0,0,0,0,0,0,0,0,0,0,0,0,0],"sum_hessian":[2.41E2,2.28E2,1.3E1,1E1,2.18E2,4E0,9E0,6E0,4E0,3E0,2.15E2,3E0,1E0,5E0,4E0,1E0,5E0,1E0,3E0,2.08E2,7E0,3E0,2E0,1E0,3E0,1E0,2E0,2.05E2,3E0,5E0,2E0,1E0,1E0,2.5E1,1.8E2,3E0,2E0,1.1E1,1.4E1,1.74E2,6E0,1E0,2E0],"tree_param":{"num_deleted":"0","num_feature":"10","num_nodes":"43","size_leaf_vector":"1"}},{"base_weights":[-5.6554186E-3,-6.424599E-1,2.4562277E-2,-1.0119371E0,2.571094E-1,-7.4769296E-2,2.809183E-1,-1.3491341E0,-2.3078918E-4,-2.0081973E-1,4.7669235E-1,-2.281781E-2,-5.064307E-1,-4.2616278E-1,4.65884E-1,-1.5083326E0,-2.765708E-1,5.461502E-2,-5.4961205E-2,-8.000906E-2,1.6631685E0,-1.4320779E0,7.573277E-2,-5.2823377E-1,-3.892684E-2,-9.098328E-2,6.352188E-1,-1.1145707E-1,5.648737E-1,2.1267824E0,6.4516515E-1,-8.006241E-1,-2.6104004E0,6.346824E-1,-1.8110405E-1,-1.3165879E-1,-6.6049206E-1,1.2960434E-1,-2.722602E-1,8.026259E-1,-4.393286E-1,1.5894395E0,4.5348898E-1,-5.2089367E-2,-7.453192E-1,6.6413766E-1,-1.535511E-2,-8.8796824E-1,-1.8195152E-1,7.0206165E-2,7.9943913E-1,-3.401278E-1,1.4140511E-2,2.1393538E-2,-1.8980742E-1,-8.351185E-1,-9.1075264E-2,3.2203197E-2,1.6220331E-1,1.6438079E-1,-7.215442E-1,2.0633013E0,-3.8993454E-1,6.393926E-1,-3.8146755E-1,-1.6321857E-1,1.2898174E-1,-2.6340485E-3,-8.1259656E-1,-5.3560972E-2,1.4247322E-1,-7.27365E-2,2.676654E-1,-5.9515953E-2,-8.219629E-1,1.0096982E0,1.7051546E-1,-1.4321175E0,3.252159E-1],"categories":[],"categories_nodes":[],"categories_segments":[],"categories_sizes":[],"default_left":[0,0,0,0,0,0,0,0,0,0,0,0,0,0,0,0,0,0,0,0,0,0,0,0,0,0,0,0,0,0,0,0,0,0,0,0,0,0,0,0,0,0,0,0,0,0,0,0,0,0,0,0,0,0,0,0,0,0,0,0,0,0,0,0,0,0,0,0,0,0,0,0,0,0,0,0,0,0,0],"id":3,"left_children":[1,3,5,7,9,11,13,15,17,-1,-1,19,21,23,25,-1,-1,-1,-1,27,29,31,33,35,37,39,41,43,45,-1,-1,47,-1,49,51,53,55,57,-1,-1,59,61,63,65,67,-1,-1,-1,-1,-1,-1,-1,69,-1,-1,-1,-1,-1,-1,71,73,-1,-1,75,77,-1,-1,-1,-1,-1,-1,-1,-1,-1,-1,-1,-1,-1,-1],"loss_changes":[4.6725297E0,3.9162517E0,5.928709E0,2.7288437E0,4.9794298E-1,3.7559195E0,8.6996155E0,6.0734177E-1,1.2006909E-2,0E0,0E0,1.4693043E1,9.808259E0,5.327954E-1,4.961238E0,0E0,0E0,0E0,0E0,3.0441608E0,9.876776E-1,3.1184454E0,1.8376498E0,4.899938E-1,1.9258188E-1,4.399316E0,6.21562E0,5.2671394E0,4.133687E-1,0E0,0E0,1.626575E-1,0E0,3.1587934E-1,2.8424627E-1,3.9659776E-2,7.1942306E-1,4.3020695E-3,0E0,0E0,1.82237E0,6.43225E0,5.6766596E0,2.6369493E0,5.9745026E-1,0E0,0E0,0E0,0E0,0E0,0E0,0E0,5.107258E-2,0E0,0E0,0E0,0E0,0E0,0E0,1.174313E-1,4.1644025E-1,0E0,0E0,4.863035E0,5.663086E0,0E0,0E0,0E0,0E0,0E0,0E0,0E0,0E0,0E0,0E0,0E0,0E0,0E0,0E0],"parents":[2147483647,0,0,1,1,2,2,3,3,4,4,5,5,6,6,7,7,8,8,11,11,12,12,13,13,14,14,19,19,20,20,21,21,22,22,23,23,24,24,25,25,26,26,27,27,28,28,31,31,33,33,34,34,35,35,36,36,37,37,40,40,41,41,42,42,43,43,44,44,52,52,59,59,60,60,63,63,64,64],"right_children":[2,4,6,8,10,12,14,16,18,-1,-1,20,22,24,26,-1,-1,-1,-1,28,30,32,34,36,38,40,42,44,46,-1,-1,48,-1,50,52,54,56,58,-1,-1,60,62,64,66,68,-1,-1,-1,-1,-1,-1,-1,70,-1,-1,-1,-1,-1,-1,72,74,-1,-1,76,78,-1,-1,-1,-1,-1,-1,-1,-1,-1,-1,-1,-1,-1,-1],"split_conditions":[-4.204792E0,-2.026501E-1,1.552745E0,2.7146566E-1,-6.220077E0,3.6897647E0,-1.6917936E0,4.9611287E0,9.8889667E-1,-2.0081973E-1,4.7669235E-1,3.939596E0,4.080506E0,-1.9054955E0,-3.8672497E0,-1.5083326E0,-2.765708E-1,5.461502E-2,-5.4961205E-2,5.101175E0,-8.797939E-1,5.879267E0,-3.1045577E-1,-3.8319284E-1,-1.1906585E0,-2.0336509E0,-1.9916084E0,3.9210017E0,1.5497038E0,2.1267824E0,6.4516515E-1,-2.6299906E0,-2.6104004E0,-3.9863472E0,-2.2860028E-1,-4.9417706E0,4.582869E0,1.4923204E-1,-2.722602E-1,8.026259E-1,-2.033468E0,4.20256E0,3.0444608E0,1.1287869E0,-5.7421355E0,6.6413766E-1,-1.535511E-2,-8.8796824E-1,-1.8195152E-1,7.0206165E-2,7.9943913E-1,-3.401278E-1,3.0824907E0,2.1393538E-2,-1.8980742E-1,-8.351185E-1,-9.1075264E-2,3.2203197E-2,1.6220331E-1,-6.6215057E0,-2.0188828E0,2.0633013E0,-3.8993454E-1,3.67256E0,3.162937E0,-1.6321857E-1,1.2898174E-1,-2.6340485E-3,-8.1259656E-1,-5.3560972E-2,1.4247322E-1,-7.27365E-2,2.676654E-1,-5.9515953E-2,-8.219629E-1,1.0096982E0,1.7051546E-1,-1.4321175E0,3.252159E-1],"split_indices":[7,2,4,0,0,5,6,1,0,0,0,3,5,1,0,0,0,0,0,6,6,3,8,3,1,3,0,6,0,0,0,1,0,1,0,0,0,0,0,0,1,4,9,0,0,0,0,0,0,0,0,0,0,0,0,0,0,0,0,0,3,0,0,4,9,0,0,0,0,0,0,0,0,0,0,0,0,0,0],"split_type":[0,0,0,0,0,0,0,0,0,0,0,0,0,0,0,0,0,0,0,0,0,0,0,0,0,0,0,0,0,0,0,0,0,0,0,0,0,0,0,0,0,0,0,0,0,0,0,0,0,0,0,0,0,0,0,0,0,0,0,0,0,0,0,0,0,0,0,0,0,0,0,0,0,0,0,0,0,0,0],"sum_hessian":[2.41E2,1E1,2.31E2,7E0,3E0,1.67E2,6.4E1,5E0,2E0,1E0,2E0,1.5E2,1.7E1,1.3E1,5.1E1,4E0,1E0,1E0,1E0,1.46E2,4E0,6E0,1.1E1,1E1,3E0,1.2E1,3.9E1,1.4E2,6E0,2E0,2E0,5E0,1E0,3E0,8E0,3E0,7E0,2E0,1E0,3E0,9E0,5E0,3.4E1,1.29E2,1.1E1,5E0,1E0,4E0,1E0,1E0,2E0,4E0,4E0,1E0,2E0,5E0,2E0,1E0,1E0,3E0,6E0,4E0,1E0,2.8E1,6E0,8E1,4.9E1,1E0,1E1,3E0,1E0,1E0,2E0,1E0,5E0,1.5E1,1.3E1,2E0,4E0],"tree_param":{"num_deleted":"0","num_feature":"10","num_nodes":"79","size_leaf_vector":"1"}},{"base_weights":[-5.4120556E-3,9.699889E-2,-1.0693921E-1,6.283384E-1,5.3821422E-2,-7.906446E-1,-1.8142749E-2,-7.676506E-2,1.528909E0,3.6155388E-2,1.0162086E0,-2.294581E-1,-1.3190514E0,1.2042196E-1,-1.8405753E-1,1.7765737E-1,-3.904066E-1,7.5167147E-3,4.6466166E-1,-5.129607E-1,4.323559E-2,-3.5061488E-1,-1.636303E0,-1.0898178E0,2.032384E-1,-8.5760796E-1,-1.22817986E-1,2.382447E-1,-2.0523071E-3,-5.812709E-1,3.630516E-2,1.1683939E0,1.5264066E-1,-1.2765217E-1,-5.9884614E-1,1.9847202E-1,-4.5191526E-2,-1.6487746E0,-3.5390726E-1,9.0218216E-2,7.254114E-1,-2.276303E-1,9.448278E-2,2.86057E-1,7.131004E-2,-5.466318E-2,-6.99257E-1,7.3379517E-1,1.5017407E-2,-1.5868886E-1,3.4797764E-1,1.5280724E-2,-1.1330414E-1,2.23204E-1,-2.1723077E-1,8.7832654E-1,7.5833954E-2,-1.2526421E-1,-9.1287684E-1,-8.175405E-2,2.8093886E-1,-2.0974278E-1,8.48775E-2,-4.372263E-2,-1.9431067E-1,4.8877177E-1,-3.720236E-2,1.382926E-1,6.8803155E-1,-4.5580387E-2,-5.5141544E-1,1.6377878E-1,-5.0027847E-2,-5.573282E-2,-5.4590225E-1,3.2094818E-2,-3.2015005E-1,4.353676E-2,5.074568E-1],"categories":[],"categories_nodes":[],"categories_segments":[],"categories_sizes":[],"default_left":[0,0,0,0,0,0,0,0,0,0,0,0,0,0,0,0,0,0,0,0,0,0,0,0,0,0,0,0,0,0,0,0,0,0,0,0,0,0,0,0,0,0,0,0,0,0,0,0,0,0,0,0,0,0,0,0,0,0,0,0,0,0,0,0,0,0,0,0,0,0,0,0,0,0,0,0,0,0,0],"id":4,"left_children":[1,3,5,7,9,11,13,15,-1,17,-1,19,21,23,25,27,-1,29,31,33,35,-1,-1,37,39,-1,41,43,-1,45,47,-1,49,-1,-1,-1,51,-1,-1,53,55,57,59,-1,-1,-1,-1,-1,61,63,65,-1,-1,67,69,-1,71,73,-1,75,77,-1,-1,-1,-1,-1,-1,-1,-1,-1,-1,-1,-1,-1,-1,-1,-1,-1,-1],"loss_changes":[2.5265663E0,2.7421515E0,7.392351E0,5.8323255E0,1.8844357E0,3.8488188E0,2.5280674E0,5.4814327E-1,0E0,1.3709546E0,0E0,6.40653E-1,1.5769558E0,6.235158E0,1.9570667E0,4.404147E-2,0E0,1.8178326E0,1.35871E0,5.5925608E-2,7.760481E-2,0E0,0E0,1.0618553E0,3.2984717E0,0E0,1.0919695E0,3.5458505E-3,0E0,2.7243853E-1,1.5034757E0,0E0,4.2010522E-1,0E0,0E0,0E0,1.8207062E-2,0E0,0E0,2.0110312E0,9.2669487E-1,2.1303215E0,5.487348E-1,0E0,0E0,0E0,0E0,0E0,1.5879793E0,3.7901402E-3,2.3510775E-1,0E0,0E0,1.2468016E0,8.353101E-1,0E0,4.1400183E-2,8.177544E-1,0E0,2.545452E-1,4.0811366E-1,0E0,0E0,0E0,0E0,0E0,0E0,0E0,0E0,0E0,0E0,0E0,0E0,0E0,0E0,0E0,0E0,0E0,0E0],"parents":[2147483647,0,0,1,1,2,2,3,3,4,4,5,5,6,6,7,7,9,9,11,11,12,12,13,13,14,14,15,15,17,17,18,18,19,19,20,20,23,23,24,24,26,26,27,27,29,29,30,30,32,32,36,36,39,39,40,40,41,41,42,42,48,48,49,49,50,50,53,53,54,54,56,56,57,57,59,59,60,60],"right_children":[2,4,6,8,10,12,14,16,-1,18,-1,20,22,24,26,28,-1,30,32,34,36,-1,-1,38,40,-1,42,44,-1,46,48,-1,50,-1,-1,-1,52,-1,-1,54,56,58,60,-1,-1,-1,-1,-1,62,64,66,-1,-1,68,70,-1,72,74,-1,76,78,-1,-1,-1,-1,-1,-1,-1,-1,-1,-1,-1,-1,-1,-1,-1,-1,-1,-1],"split_conditions":[-2.3323587E-1,-3.932898E0,4.2202827E-1,8.27591E-1,-2.9593498E-1,-4.3491715E-1,2.9571059E0,-1.8130846E0,1.528909E0,4.3385587E0,1.0162086E0,1.0554666E-1,-1.9153869E0,-3.8226967E0,-3.5854688E0,-1.0090115E0,-3.904066E-1,-2.982582E0,4.354942E0,-4.0806212E0,-3.5157459E0,-3.5061488E-1,-1.636303E0,1.0087756E0,2.3218539E0,-8.5760796E-1,5.636889E0,-1.3260545E0,-2.0523071E-3,-9.623854E0,-2.9220805E0,1.1683939E0,-3.9008374E0,-1.2765217E-1,-5.9884614E-1,1.9847202E-1,1.4923204E-1,-1.6487746E0,-3.5390726E-1,1.8512466E0,6.930963E-1,5.442979E0,9.054622E-2,2.86057E-1,7.131004E-2,-5.466318E-2,-6.99257E-1,7.3379517E-1,-1.6917936E0,-4.3107157E0,-2.3673637E0,1.5280724E-2,-1.1330414E-1,1.4340067E0,1.3274524E0,8.7832654E-1,2.4943874E0,4.4617906E0,-9.1287684E-1,-8.1543046E-1,-5.252902E-1,-2.0974278E-1,8.48775E-2,-4.372263E-2,-1.9431067E-1,4.8877177E-1,-3.720236E-2,1.382926E-1,6.8803155E-1,-4.5580387E-2,-5.5141544E-1,1.6377878E-1,-5.0027847E-2,-5.573282E-2,-5.4590225E-1,3.2094818E-2,-3.2015005E-1,4.353676E-2,5.074568E-1],"split_indices":[0,2,0,4,0,5,0,1,0,9,0,0,9,3,6,0,0,6,9,1,1,0,0,0,0,0,0,0,0,0,6,0,0,0,0,0,0,0,0,3,8,0,5,0,0,0,0,0,6,0,0,0,0,3,4,0,0,7,0,5,2,0,0,0,0,0,0,0,0,0,0,0,0,0,0,0,0,0,0],"split_type":[0,0,0,0,0,0,0,0,0,0,0,0,0,0,0,0,0,0,0,0,0,0,0,0,0,0,0,0,0,0,0,0,0,0,0,0,0,0,0,0,0,0,0,0,0,0,0,0,0,0,0,0,0,0,0,0,0,0,0,0,0,0,0,0,0,0,0,0,0,0,0,0,0,0,0,0,0,0,0],"sum_hessian":[2.41E2,1.2E2,1.21E2,8E0,1.12E2,1.3E1,1.08E2,5E0,3E0,1.11E2,1E0,7E0,6E0,5.9E1,4.9E1,3E0,2E0,1.05E2,6E0,3E0,4E0,2E0,4E0,3E0,5.6E1,3E0,4.6E1,2E0,1E0,4E0,1.01E2,1E0,5E0,1E0,2E0,1E0,3E0,1E0,2E0,4.7E1,9E0,3.1E1,1.5E1,1E0,1E0,1E0,3E0,2E0,9.9E1,2E0,3E0,2E0,1E0,3.3E1,1.4E1,7E0,2E0,2.8E1,3E0,8E0,7E0,2.3E1,7.6E1,1E0,1E0,2E0,1E0,2.9E1,4E0,1E1,4E0,1E0,1E0,2.5E1,3E0,6E0,2E0,4E0,3E0],"tree_param":{"num_deleted":"0","num_feature":"10","num_nodes":"79","size_leaf_vector":"1"}},{"base_weights":[-7.2581954E-3,-1.1081678E-1,2.9808884E-2,-2.7943242E-1,-2.6615858E-3,-3.0538807E-2,1.5623319E-1,-1.6531573E-1,-5.4925877E-1,-1.7174716E-1,5.942518E-2,2.5458781E-2,-2.2851028E-1,1.1678705E0,1.1799621E-1,-2.0249661E-2,-4.111076E-1,-7.0515823E-1,-2.5604463E-1,-2.6409763E-1,-8.10709E-3,2.1360146E-1,-7.103912E-2,6.378405E-2,-3.1051692E-1,-3.2039526E-1,2.3986273E-1,-2.722516E-1,2.1723485E-1,1.8227784E-1,-1.6961408E-1,5.9263866E-2,-6.1110896E-1,-7.7206135E-2,-2.899221E-1,-8.280659E-2,-3.200527E-1,-4.8304677E-2,7.634163E-2,3.2932022E-1,-1.580255E-1,-3.1390566E-1,8.997042E-2,7.4391463E-3,3.570511E-1,-1.73085E-1,-7.7370214E-1,-4.771327E-1,-1.6312549E-1,4.291204E-1,-2.9349169E-2,-5.0831175E-1,4.8527163E-2,5.4602253E-1,1.3364738E-1,3.1660485E-1,-5.7584126E-2,4.941845E-2,-2.0796421E-1,1.5663671E-1,-6.774092E-2,-3.7173986E-1,-5.665207E-2,6.901312E-2,4.1830873E-1,5.293846E-3,-2.142299E-1,-4.412659E-1,-1.7470837E-1,2.6351532E-1,2.2125402E-2,-5.527508E-1,3.8894366E-2,-2.893467E-1,4.2903143E-1,1.09695435E-1,-2.2214448E-1,-5.870908E-1,1.1785825E-2,4.2728804E-2,-2.5936392E-1,-9.715533E-2,5.313158E-2,2.6407719E-2,-6.018329E-1,2.2458331E-1,-9.564674E-2,1.0407732E0,1.2518501E-1,-4.7475725E-2,2.538353E-1,5.1498413E-5,-8.642769E-2,-4.0932972E-2,-2.6659012E-1,1.1379401E-1,-3.2664776E-2,6.997299E-2,4.5807484E-1,-2.733159E-2,4.2260456E-1,5.364704E-2,-1.3821316E-2,2.3624411E-1,-3.7757345E-2,4.8656583E-2,5.382782E-1,6.079912E-2,-6.7567694E-1,1.20625496E-1,-1.0294676E-1,1.4377308E-1,-1.8072414E-1,-3.477963E-1,-6.187439E-2,-3.163488E-1,-7.818675E-1,-1.4339209E-2,-1.1796951E-1,2.1282196E-2,2.2199376E-1,8.061852E-2,-2.2368526E-1,3.7377897E-1,-1.483016E-1],"categories":[],"categories_nodes":[],"categories_segments":[],"categories_sizes":[],"default_left":[0,0,0,0,0,0,0,0,0,0,0,0,0,0,0,0,0,0,0,0,0,0,0,0,0,0,0,0,0,0,0,0,0,0,0,0,0,0,0,0,0,0,0,0,0,0,0,0,0,0,0,0,0,0,0,0,0,0,0,0,0,0,0,0,0,0,0,0,0,0,0,0,0,0,0,0,0,0,0,0,0,0,0,0,0,0,0,0,0,0,0,0,0,0,0,0,0,0,0,0,0,0,0,0,0,0,0,0,0,0,0,0,0,0,0,0,0,0,0,0,0,0,0,0,0],"id":5,"left_children":[1,3,5,7,9,11,13,15,17,19,21,23,25,-1,27,29,31,-1,33,35,37,39,41,43,45,47,49,51,53,55,57,59,-1,-1,-1,-1,61,-1,-1,63,65,67,69,71,73,75,-1,77,79,-1,81,83,85,87,89,-1,91,-1,93,-1,-1,-1,-1,95,97,-1,-1,-1,-1,99,101,-1,103,-1,105,-1,-1,107,109,111,113,-1,-1,-1,115,-1,117,-1,119,121,123,-1,-1,-1,-1,-1,-1,-1,-1,-1,-1,-1,-1,-1,-1,-1,-1,-1,-1,-1,-1,-1,-1,-1,-1,-1,-1,-1,-1,-1,-1,-1,-1,-1,-1],"loss_changes":[9.32248E-1,1.1664022E0,1.3704365E0,6.789912E-1,4.3012515E-1,1.3583004E0,2.1057491E0,6.6914046E-1,1.3943148E-1,1.6409355E-1,6.18609E-1,1.2559365E0,1.2388347E0,0E0,2.2666194E0,4.241721E-1,6.9474125E-1,0E0,1.8506348E-3,4.450664E-2,2.066083E-2,6.540999E-1,6.9300723E-1,1.4349408E0,5.026481E-1,4.891188E-1,2.6734635E-1,9.333439E-1,1.1912217E0,2.1155109E-1,7.747671E-2,4.7711164E-2,0E0,0E0,0E0,0E0,4.701233E-2,0E0,0E0,2.2593904E-1,3.7851155E-2,4.700458E-2,1.2368532E-1,1.3254455E0,7.7553E-1,1.4922577E-1,0E0,5.982857E-1,2.6862654E-1,0E0,2.1940125E-2,3.6594617E-1,1.7377688E-1,1.7435975E0,8.3926576E-1,0E0,4.991702E-3,0E0,5.7634145E-2,0E0,0E0,0E0,0E0,2.1929964E-2,7.876277E-2,0E0,0E0,0E0,0E0,1.503623E-1,1.0939367E-2,0E0,1.0829507E0,0E0,5.140207E-1,0E0,0E0,5.576272E-1,4.988037E-2,1.3887647E-1,1.3566047E-1,0E0,0E0,0E0,6.1039448E-2,0E0,5.5684485E-3,0E0,5.5627704E-2,3.7917605E-1,1.1648088E0,0E0,0E0,0E0,0E0,0E0,0E0,0E0,0E0,0E0,0E0,0E0,0E0,0E0,0E0,0E0,0E0,0E0,0E0,0E0,0E0,0E0,0E0,0E0,0E0,0E0,0E0,0E0,0E0,0E0,0E0,0E0,0E0,0E0,0E0],"parents":[2147483647,0,0,1,1,2,2,3,3,4,4,5,5,6,6,7,7,8,8,9,9,10,10,11,11,12,12,14,14,15,15,16,16,18,18,19,19,20,20,21,21,22,22,23,23,24,24,25,25,26,26,27,27,28,28,29,29,30,30,31,31,36,36,39,39,40,40,41,41,42,42,43,43,44,44,45,45,47,47,48,48,50,50,51,51,52,52,53,53,54,54,56,56,58,58,63,63,64,64,69,69,70,70,72,72,74,74,77,77,78,78,79,79,80,80,84,84,86,86,88,88,89,89,90,90],"right_children":[2,4,6,8,10,12,14,16,18,20,22,24,26,-1,28,30,32,-1,34,36,38,40,42,44,46,48,50,52,54,56,58,60,-1,-1,-1,-1,62,-1,-1,64,66,68,70,72,74,76,-1,78,80,-1,82,84,86,88,90,-1,92,-1,94,-1,-1,-1,-1,96,98,-1,-1,-1,-1,100,102,-1,104,-1,106,-1,-1,108,110,112,114,-1,-1,-1,116,-1,118,-1,120,122,124,-1,-1,-1,-1,-1,-1,-1,-1,-1,-1,-1,-1,-1,-1,-1,-1,-1,-1,-1,-1,-1,-1,-1,-1,-1,-1,-1,-1,-1,-1,-1,-1,-1,-1],"split_conditions":[-1.522137E0,1.7274686E0,8.6691755E-1,-2.0866425E0,-4.3026247E0,6.002648E-1,-4.429904E0,1.4029381E0,3.124505E0,-6.8186957E-1,3.6897647E0,4.5228252E0,8.082926E-1,1.1678705E0,-3.6831088E0,-2.3489444E0,-6.486264E-1,-7.0515823E-1,-2.2145395E0,-4.419382E0,-4.500777E0,2.9494517E0,4.080506E0,6.8514675E-1,-1.4643556E0,1.1897956E0,1.1538334E0,-1.9343207E0,-2.0189497E0,4.1756257E-1,-3.275422E0,4.216869E0,-6.1110896E-1,-7.7206135E-2,-2.899221E-1,-8.280659E-2,5.823709E-1,-4.8304677E-2,7.634163E-2,-4.1752143E0,-5.756494E0,-3.322743E0,-4.849233E0,-3.5497766E0,-4.1175737E0,-1.3955834E0,-7.7370214E-1,3.604738E0,2.7146566E-1,4.291204E-1,-3.9008374E0,-7.732183E0,-1.811043E0,5.180141E0,-1.9916084E0,3.1660485E-1,-3.6536782E0,4.941845E-2,-5.300404E-1,1.5663671E-1,-6.774092E-2,-3.7173986E-1,-5.665207E-2,-4.3268493E-1,-3.7643287E0,5.293846E-3,-2.142299E-1,-4.412659E-1,-1.7470837E-1,-9.623854E0,-1.0608314E0,-5.527508E-1,-1.7852638E0,-2.893467E-1,-1.8823758E0,1.09695435E-1,-2.2214448E-1,-4.2986565E0,-9.125776E-1,4.7289124E0,7.391052E-1,-9.715533E-2,5.313158E-2,2.6407719E-2,-4.512886E-1,2.2458331E-1,-4.84611E0,1.0407732E0,-2.072856E0,-3.0199935E0,4.4034386E0,5.1498413E-5,-8.642769E-2,-4.0932972E-2,-2.6659012E-1,1.1379401E-1,-3.2664776E-2,6.997299E-2,4.5807484E-1,-2.733159E-2,4.2260456E-1,5.364704E-2,-1.3821316E-2,2.3624411E-1,-3.7757345E-2,4.8656583E-2,5.382782E-1,6.079912E-2,-6.7567694E-1,1.20625496E-1,-1.0294676E-1,1.4377308E-1,-1.8072414E-1,-3.477963E-1,-6.187439E-2,-3.163488E-1,-7.818675E-1,-1.4339209E-2,-1.1796951E-1,2.1282196E-2,2.2199376E-1,8.061852E-2,-2.2368526E-1,3.7377897E-1,-1.483016E-1],"split_indices":[9,3,8,3,5,8,3,8,2,2,5,5,5,0,3,9,7,0,0,9,0,0,5,5,8,4,2,6,3,6,2,0,0,0,0,0,4,0,0,5,1,1,0,6,7,9,0,1,0,0,0,0,6,8,0,0,0,0,7,0,0,0,0,0,1,0,0,0,0,0,6,0,4,0,8,0,0,1,0,1,8,0,0,0,5,0,0,0,6,1,0,0,0,0,0,0,0,0,0,0,0,0,0,0,0,0,0,0,0,0,0,0,0,0,0,0,0,0,0,0,0,0,0,0,0],"split_type":[0,0,0,0,0,0,0,0,0,0,0,0,0,0,0,0,0,0,0,0,0,0,0,0,0,0,0,0,0,0,0,0,0,0,0,0,0,0,0,0,0,0,0,0,0,0,0,0,0,0,0,0,0,0,0,0,0,0,0,0,0,0,0,0,0,0,0,0,0,0,0,0,0,0,0,0,0,0,0,0,0,0,0,0,0,0,0,0,0,0,0,0,0,0,0,0,0,0,0,0,0,0,0,0,0,0,0,0,0,0,0,0,0,0,0,0,0,0,0,0,0,0,0,0,0],"sum_hessian":[2.41E2,6.3E1,1.78E2,2.4E1,3.9E1,1.21E2,5.7E1,1.8E1,6E0,1E1,2.9E1,9.5E1,2.6E1,1E0,5.6E1,1.2E1,6E0,3E0,3E0,6E0,4E0,1.3E1,1.6E1,8.6E1,9E0,2.2E1,4E0,1.1E1,4.5E1,5E0,7E0,2E0,4E0,1E0,2E0,2E0,4E0,3E0,1E0,1E1,3E0,6E0,1E1,7.3E1,1.3E1,8E0,1E0,1E1,1.2E1,2E0,2E0,6E0,5E0,8E0,3.7E1,3E0,2E0,1E0,6E0,1E0,1E0,3E0,1E0,3E0,7E0,1E0,2E0,2E0,4E0,2E0,8E0,3E0,7E1,1E0,1.2E1,1E0,7E0,8E0,2E0,4E0,8E0,1E0,1E0,1E0,5E0,2E0,3E0,3E0,5E0,1.5E1,2.2E1,1E0,1E0,2E0,4E0,2E0,1E0,1E0,6E0,1E0,1E0,4E0,4E0,1.9E1,5.1E1,3E0,9E0,1E0,7E0,1E0,1E0,3E0,1E0,5E0,3E0,3E0,2E0,1E0,2E0,3E0,2E0,9E0,6E0,1.7E1,5E0],"tree_param":{"num_deleted":"0","num_feature":"10","num_nodes":"125","size_leaf_vector":"1"}},{"base_weights":[-7.98736E-3,7.137051E-2,-3.170957E-2,2.2634844E-1,-7.996622E-3,-1.7483471E-1,-1.4482115E-2,3.9756995E-1,3.249209E-2,1.1507874E-1,-6.922674E-2,-2.4708362E-1,3.4926653E-2,1.4900665E-1,-3.0312305E-2,1.6511072E-1,7.049811E-1,-3.339678E-2,6.5501146E-2,2.1886566E-1,-5.148002E-3,-3.1790528E-1,2.1272087E-2,-3.346213E-1,-5.0839903E-3,9.987736E-2,-2.2518039E-2,-3.4307163E-2,3.634092E-1,-1.75824E-2,-2.1186471E-1,-9.744501E-2,2.2511084E-1,-4.8071623E-2,5.3138733E-3,-8.082072E-3,9.6550845E-2,-2.792263E-2,3.231655E-1,-1.5669028E-1,8.680697E-2,-3.6456442E-1,-1.8975258E-2,-7.2011948E-3,1.8502109E-1,-4.66218E-2,-4.367934E-1,6.455994E-2,-7.303325E-2,1.7852783E-2,-4.1925907E-2,-2.5176716E-1,2.4346232E-2,5.930517E-1,4.291439E-2,-4.685392E-2,1.120803E-1,-2.9067776E-1,-2.0975709E-2,3.2951045E-1,1.0874431E-2,-1.3665795E-2,-5.844164E-2,1.0701883E-1,2.7339458E-2,2.889204E-2,-7.0775986E-2,-2.295971E-2,1.1998856E-1,-6.589246E-2,8.929889E-3,2.5263023E-1,2.490139E-2,1.0011768E-1,-1.2890752E-1,8.550084E-2,-2.9446697E-2,-1.2638684E-1,-9.425809E-3,-4.608493E-2,2.8595707E-1,-4.9957752E-2,-3.2247147E-1,5.8099747E-2,-6.670078E-2,1.9106865E-2,-2.7952194E-3,4.3291636E-2,-1.8788125E-2,-6.398773E-2,-4.8145056E-3,-3.9160764E-1,-7.433497E-2,-4.5010816E-2,1.6663072E-1,-1.4055458E-1,1.19045295E-1,4.7532177E-1,1.816155E-1],"categories":[],"categories_nodes":[],"categories_segments":[],"categories_sizes":[],"default_left":[0,0,0,0,0,0,0,0,0,0,0,0,0,0,0,0,0,0,0,0,0,0,0,0,0,0,0,0,0,0,0,0,0,0,0,0,0,0,0,0,0,0,0,0,0,0,0,0,0,0,0,0,0,0,0,0,0,0,0,0,0,0,0,0,0,0,0,0,0,0,0,0,0,0,0,0,0,0,0,0,0,0,0,0,0,0,0,0,0,0,0,0,0,0,0,0,0,0,0],"id":6,"left_children":[1,3,5,7,9,11,13,15,17,19,21,23,25,27,29,31,-1,33,35,37,39,41,43,45,47,-1,49,51,53,55,57,-1,59,61,-1,-1,63,65,-1,-1,67,-1,-1,69,71,73,-1,-1,-1,-1,-1,-1,75,-1,-1,77,79,81,83,-1,85,-1,-1,-1,-1,-1,-1,-1,-1,-1,87,-1,-1,-1,-1,-1,89,91,93,95,97,-1,-1,-1,-1,-1,-1,-1,-1,-1,-1,-1,-1,-1,-1,-1,-1,-1,-1],"loss_changes":[4.5783883E-1,6.9061863E-1,4.5855057E-1,6.1773735E-1,2.9433146E-1,3.1173033E-1,4.3931055E-1,5.9820557E-1,2.3936821E-2,1.6334026E-1,5.918956E-1,3.1606007E-1,2.4635479E-2,6.020117E-1,3.521912E-1,1.3220957E-1,0E0,2.5277375E-3,1.677349E-2,1.8920347E-1,1.1114726E-1,9.071702E-2,9.4581805E-2,3.033166E-1,2.8376292E-2,0E0,3.8825409E-3,1.20922476E-1,4.8974407E-1,5.555879E-1,1.4434832E-1,0E0,1.3061395E-1,2.7171522E-4,0E0,0E0,6.9668144E-4,9.348961E-3,0E0,0E0,2.0966072E-2,0E0,0E0,1.762998E-2,2.6185833E-2,6.1204176E-2,0E0,0E0,0E0,0E0,0E0,0E0,2.8835198E-2,0E0,0E0,3.530439E-1,7.557122E-1,3.7463665E-2,1.833822E-2,0E0,3.9101133E-4,0E0,0E0,0E0,0E0,0E0,0E0,0E0,0E0,0E0,1.5099959E-2,0E0,0E0,0E0,0E0,0E0,3.9460375E-3,4.9548894E-1,5.2122796E-1,2.5072926E-1,1.7053616E-1,0E0,0E0,0E0,0E0,0E0,0E0,0E0,0E0,0E0,0E0,0E0,0E0,0E0,0E0,0E0,0E0,0E0,0E0],"parents":[2147483647,0,0,1,1,2,2,3,3,4,4,5,5,6,6,7,7,8,8,9,9,10,10,11,11,12,12,13,13,14,14,15,15,17,17,18,18,19,19,20,20,21,21,22,22,23,23,24,24,26,26,27,27,28,28,29,29,30,30,32,32,33,33,36,36,37,37,40,40,43,43,44,44,45,45,52,52,55,55,56,56,57,57,58,58,60,60,70,70,76,76,77,77,78,78,79,79,80,80],"right_children":[2,4,6,8,10,12,14,16,18,20,22,24,26,28,30,32,-1,34,36,38,40,42,44,46,48,-1,50,52,54,56,58,-1,60,62,-1,-1,64,66,-1,-1,68,-1,-1,70,72,74,-1,-1,-1,-1,-1,-1,76,-1,-1,78,80,82,84,-1,86,-1,-1,-1,-1,-1,-1,-1,-1,-1,88,-1,-1,-1,-1,-1,90,92,94,96,98,-1,-1,-1,-1,-1,-1,-1,-1,-1,-1,-1,-1,-1,-1,-1,-1,-1,-1],"split_conditions":[-1.9682257E0,-1.307993E0,-1.635784E0,1.7885252E0,1.5351522E0,1.4964508E0,-1.0638591E0,-2.7472203E0,-1.2931856E0,-1.8912139E0,2.493488E-1,3.7378092E0,-2.7163439E0,-1.3437757E0,4.354942E0,-2.8922224E0,7.049811E-1,4.077757E0,3.1880395E0,1.1972644E0,-5.928259E-1,1.5384009E0,3.295723E0,-4.2350526E0,-3.5985645E-3,9.987736E-2,-5.548991E0,-4.753257E0,-2.854939E0,2.0054908E0,3.8046795E-1,-9.744501E-2,-9.810987E-1,-9.623854E0,5.3138733E-3,-8.082072E-3,-2.2381165E0,-4.208004E0,3.231655E-1,-1.5669028E-1,-1.4612554E0,-3.6456442E-1,-1.8975258E-2,3.736926E0,-2.1465607E0,-1.9262116E0,-4.367934E-1,6.455994E-2,-7.303325E-2,1.7852783E-2,-4.1925907E-2,-2.5176716E-1,-1.9884853E0,5.930517E-1,4.291439E-2,-1.4293203E0,-2.3940916E-1,-7.793443E-2,4.100262E0,3.2951045E-1,-2.2860028E-1,-1.3665795E-2,-5.844164E-2,1.0701883E-1,2.7339458E-2,2.889204E-2,-7.0775986E-2,-2.295971E-2,1.1998856E-1,-6.589246E-2,-2.0039992E0,2.5263023E-1,2.490139E-2,1.0011768E-1,-1.2890752E-1,8.550084E-2,-6.764225E0,-4.0103984E0,2.0965505E0,1.4330657E0,-1.4499892E-1,-4.9957752E-2,-3.2247147E-1,5.8099747E-2,-6.670078E-2,1.9106865E-2,-2.7952194E-3,4.3291636E-2,-1.8788125E-2,-6.398773E-2,-4.8145056E-3,-3.9160764E-1,-7.433497E-2,-4.5010816E-2,1.6663072E-1,-1.4055458E-1,1.19045295E-1,4.7532177E-1,1.816155E-1],"split_indices":[7,6,7,2,3,9,7,1,9,0,5,4,3,7,9,3,0,2,2,3,0,0,9,2,3,0,1,8,0,9,8,0,0,0,0,0,1,0,0,0,2,0,0,3,0,4,0,0,0,0,0,0,1,0,0,1,5,3,1,0,0,0,0,0,0,0,0,0,0,0,9,0,0,0,0,0,0,3,6,2,5,0,0,0,0,0,0,0,0,0,0,0,0,0,0,0,0,0,0],"split_type":[0,0,0,0,0,0,0,0,0,0,0,0,0,0,0,0,0,0,0,0,0,0,0,0,0,0,0,0,0,0,0,0,0,0,0,0,0,0,0,0,0,0,0,0,0,0,0,0,0,0,0,0,0,0,0,0,0,0,0,0,0,0,0,0,0,0,0,0,0,0,0,0,0,0,0,0,0,0,0,0,0,0,0,0,0,0,0,0,0,0,0,0,0,0,0,0,0,0,0],"sum_hessian":[2.41E2,5.5E1,1.86E2,1.8E1,3.7E1,1.9E1,1.67E2,9E0,9E0,1.2E1,2.5E1,1.4E1,5E0,1.4E1,1.53E2,6E0,3E0,3E0,6E0,6E0,6E0,6E0,1.9E1,1E1,4E0,2E0,3E0,8E0,6E0,1.44E2,9E0,1E0,5E0,2E0,1E0,2E0,4E0,2E0,4E0,2E0,4E0,5E0,1E0,1.7E1,2E0,3E0,7E0,2E0,2E0,1E0,2E0,1E0,7E0,3E0,3E0,1.18E2,2.6E1,6E0,3E0,3E0,2E0,1E0,1E0,3E0,1E0,1E0,1E0,1E0,3E0,3E0,1.4E1,1E0,1E0,1E0,2E0,3E0,4E0,3.7E1,8.1E1,1.4E1,1.2E1,1E0,5E0,1E0,2E0,1E0,1E0,6E0,8E0,1E0,3E0,5E0,3.2E1,6.8E1,1.3E1,9E0,5E0,3E0,9E0],"tree_param":{"num_deleted":"0","num_feature":"10","num_nodes":"99","size_leaf_vector":"1"}},{"base_weights":[4.1313735E-3,8.091372E-3,-1.5297715E-1,-1.3714059E-2,3.0573132E-2,-2.2235513E-1,-9.480794E-3,-2.4737384E-2,1.6934259E-1,6.409259E-2,-8.377764E-3,-1.0994622E-2,-2.0717251E-1,5.2616596E-2,2.4373293E-1,1.1260008E-1,-1.414279E-2,-1.5673812E-1,2.0209916E-2,-5.0515253E-3,-2.1731918E-1,-3.5977173E-1,-4.3658637E-2,1.2041092E-2,6.2128067E-2,3.432809E-2,2.1187395E-1,5.375445E-4,-1.832354E-1,-1.9635466E-1,-1.205349E-2,-4.7223147E-2,7.6491356E-2,-2.5289256E-2,6.1530296E-2,-3.1693506E-1,-9.043694E-3,-4.2824396E-1,-7.7177525E-2,-9.570249E-2,2.2938093E-2,7.397946E-2,-8.183956E-3,-5.2453995E-2,2.7226236E-1,-9.488773E-2,1.3525649E-2,-8.2622886E-2,-2.6099777E-1,-1.1410713E-3,-1.6939163E-2,-1.619608E-1,4.4669133E-2,9.908158E-2,-1.5323003E-2,-1.8234816E-1,-1.4897157E-2,3.5101065E-1,2.1096759E-2,3.340864E-2,9.98497E-4,-2.1794438E-2,1.0832569E-1,-1.6830271E-2,4.3462753E-2,6.804943E-2,-1.1530495E-1,3.1551418E-1,8.501053E-3,4.5674527E-3,1.0082388E-1,-3.0277506E-1,-6.783295E-2,2.9718718E-2,-2.1359551E-1,-6.0084343E-2,9.790227E-2,6.7881934E-2,2.6365218E-1,7.249451E-3,-6.4092636E-2],"categories":[],"categories_nodes":[],"categories_segments":[],"categories_sizes":[],"default_left":[0,0,0,0,0,0,0,0,0,0,0,0,0,0,0,0,0,0,0,0,0,0,0,0,0,0,0,0,0,0,0,0,0,0,0,0,0,0,0,0,0,0,0,0,0,0,0,0,0,0,0,0,0,0,0,0,0,0,0,0,0,0,0,0,0,0,0,0,0,0,0,0,0,0,0,0,0,0,0,0,0],"id":7,"left_children":[1,3,5,7,9,-1,-1,11,13,15,17,19,21,23,-1,25,27,29,31,33,35,37,39,-1,-1,41,43,45,-1,47,49,51,53,55,57,-1,-1,-1,-1,-1,59,61,63,65,67,-1,69,-1,71,-1,-1,73,75,77,79,-1,-1,-1,-1,-1,-1,-1,-1,-1,-1,-1,-1,-1,-1,-1,-1,-1,-1,-1,-1,-1,-1,-1,-1,-1,-1],"loss_changes":[1.51798E-1,1.1660248E-1,5.7624817E-2,2.4835415E-1,1.5329367E-1,0E0,0E0,2.8604597E-1,4.7958598E-2,2.4067762E-1,2.3643799E-1,1.3133255E-1,1.8390957E-1,7.9564005E-4,0E0,2.9577097E-1,6.21569E-2,4.9220383E-2,1.8198794E-1,1.4438733E-1,5.9376374E-2,4.4348598E-2,1.9524984E-2,0E0,0E0,3.937564E-2,2.8564107E-1,3.1028861E-2,0E0,2.9899448E-2,1.4061472E-4,2.3919174E-1,5.544503E-2,1.311216E-1,2.8521267E-1,0E0,0E0,0E0,0E0,0E0,6.5580045E-4,4.183457E-2,6.0901344E-3,3.814146E-2,1.570319E-1,0E0,1.6744254E-2,0E0,1.1741489E-2,0E0,0E0,1.0532096E-1,7.837502E-2,8.992821E-2,7.069738E-3,0E0,0E0,0E0,0E0,0E0,0E0,0E0,0E0,0E0,0E0,0E0,0E0,0E0,0E0,0E0,0E0,0E0,0E0,0E0,0E0,0E0,0E0,0E0,0E0,0E0,0E0],"parents":[2147483647,0,0,1,1,2,2,3,3,4,4,7,7,8,8,9,9,10,10,11,11,12,12,13,13,15,15,16,16,17,17,18,18,19,19,20,20,21,21,22,22,25,25,26,26,27,27,29,29,30,30,31,31,32,32,33,33,34,34,40,40,41,41,42,42,43,43,44,44,46,46,48,48,51,51,52,52,53,53,54,54],"right_children":[2,4,6,8,10,-1,-1,12,14,16,18,20,22,24,-1,26,28,30,32,34,36,38,40,-1,-1,42,44,46,-1,48,50,52,54,56,58,-1,-1,-1,-1,-1,60,62,64,66,68,-1,70,-1,72,-1,-1,74,76,78,80,-1,-1,-1,-1,-1,-1,-1,-1,-1,-1,-1,-1,-1,-1,-1,-1,-1,-1,-1,-1,-1,-1,-1,-1,-1,-1],"split_conditions":[5.341975E0,3.4574166E-1,5.6114054E0,5.644394E0,-2.5137573E-1,-2.2235513E-1,-9.480794E-3,4.022985E0,-8.678455E-1,3.0863082E0,2.4864891E-1,3.0246845E-1,-2.9739738E0,1.4988148E1,2.4373293E-1,-1.346317E0,1.8543075E0,2.4943874E0,-8.805438E-1,1.093085E0,-6.830689E-1,2.9242277E-1,4.513169E0,1.2041092E-2,6.2128067E-2,-2.6709685E0,-4.509019E0,3.1345232E0,-1.832354E-1,-1.1140218E0,4.5209846E0,2.9420905E0,2.505899E0,-2.8609736E0,1.4787992E0,-3.1693506E-1,-9.043694E-3,-4.2824396E-1,-7.7177525E-2,-9.570249E-2,5.579125E0,-1.3437757E0,2.8508315E0,-5.435045E0,4.816963E0,-9.488773E-2,2.5128818E0,-8.2622886E-2,1.4558761E0,-1.1410713E-3,-1.6939163E-2,-3.9144895E0,9.6508044E-1,3.1510932E0,1.0399448E1,-1.8234816E-1,-1.4897157E-2,3.5101065E-1,2.1096759E-2,3.340864E-2,9.98497E-4,-2.1794438E-2,1.0832569E-1,-1.6830271E-2,4.3462753E-2,6.804943E-2,-1.1530495E-1,3.1551418E-1,8.501053E-3,4.5674527E-3,1.0082388E-1,-3.0277506E-1,-6.783295E-2,2.9718718E-2,-2.1359551E-1,-6.0084343E-2,9.790227E-2,6.7881934E-2,2.6365218E-1,7.249451E-3,-6.4092636E-2],"split_indices":[6,8,6,0,9,0,0,0,2,2,9,8,3,0,0,6,8,0,6,6,0,4,0,0,0,0,0,2,0,0,0,9,4,3,6,0,0,0,0,0,0,7,2,0,0,0,1,0,0,0,0,0,2,0,0,0,0,0,0,0,0,0,0,0,0,0,0,0,0,0,0,0,0,0,0,0,0,0,0,0,0],"split_type":[0,0,0,0,0,0,0,0,0,0,0,0,0,0,0,0,0,0,0,0,0,0,0,0,0,0,0,0,0,0,0,0,0,0,0,0,0,0,0,0,0,0,0,0,0,0,0,0,0,0,0,0,0,0,0,0,0,0,0,0,0,0,0,0,0,0,0,0,0,0,0,0,0,0,0,0,0,0,0,0,0],"sum_hessian":[2.41E2,2.36E2,5E0,1.2E2,1.16E2,3E0,2E0,1.14E2,6E0,6.2E1,5.4E1,1.07E2,7E0,3E0,3E0,3.8E1,2.4E1,8E0,4.6E1,1.05E2,2E0,3E0,4E0,1E0,2E0,2.2E1,1.6E1,2.3E1,1E0,6E0,2E0,2.1E1,2.5E1,8.1E1,2.4E1,1E0,1E0,2E0,1E0,2E0,2E0,1.1E1,1.1E1,3E0,1.3E1,2E0,2.1E1,3E0,3E0,1E0,1E0,9E0,1.2E1,2E1,5E0,4E0,7.7E1,2E0,2.2E1,1E0,1E0,3E0,8E0,1E1,1E0,1E0,2E0,1.1E1,2E0,2E1,1E0,2E0,1E0,2E0,7E0,4E0,8E0,1.8E1,2E0,4E0,1E0],"tree_param":{"num_deleted":"0","num_feature":"10","num_nodes":"81","size_leaf_vector":"1"}},{"base_weights":[-3.1291433E-3,1.3291388E-2,-3.2536887E-2,-8.3631545E-4,9.502273E-2,5.3457897E-2,-5.4185018E-2,1.16654495E-2,-4.2750742E-2,3.6807075E-2,2.2282894E-1,2.4962108E-1,1.3336182E-2,-2.8485775E-1,-3.9604783E-2,-3.5719268E-2,2.1998523E-2,-1.4700429E-1,-1.7047973E-2,-3.8434148E-2,9.331934E-2,3.80267E-1,8.3800316E-2,-5.0360918E-2,3.190943E-2,-7.125019E-2,-5.568766E-4,-1.8593995E-1,-7.108604E-3,5.9380304E-2,6.5704086E-3,-1.664217E-1,-2.495861E-2,3.1693414E-2,-4.949218E-2,8.724499E-2,-9.486803E-2,1.3286415E-1,-4.323991E-2,1.02547325E-1,3.7119865E-2,-2.1045366E-2,-6.9153786E-2,4.708004E-2,-1.3994455E-2,-1.8014415E-1,-4.860601E-2,3.112328E-2,-5.3310733E-2,-7.429242E-2,1.2594529E-2,1.6114521E-1,1.876269E-2,1.2965202E-1,2.427234E-3,4.7572993E-2,-6.355119E-2,1.5485491E-2,-9.002733E-2,1.3007164E-2,-1.190445E-1,1.6337383E-1,2.7556738E-2,-7.3621273E-3,7.146413E-2,-3.3916473E-2,3.9517083E-3,-2.5367737E-2,-2.0602588E-1,-1.700111E-2,-1.0739708E-1,1.5321556E-2,1.6567802E-1,5.5343866E-2,-6.8219684E-2,-1.3648987E-2,-8.995724E-2,3.8806297E-2,-4.2347908E-2,7.0635475E-2,1.8322201E-1,-3.30561E-2,5.945418E-2,5.0809145E-2,-6.9236574E-3,-2.1666527E-2,5.7673667E-2,6.9489E-2,-4.2389393E-2,-1.402523E-1,-3.3168633E-2,1.362133E-2,1.9060007E-1,-3.8588524E-2,7.992363E-2,-1.1120796E-2,1.9569397E-3,3.1347275E-3,8.232991E-2,-5.707741E-4,6.498337E-3,-7.572612E-2,3.824691E-2,-2.8716905E-2,-1.9606991E-1,3.6871087E-2,-1.2719154E-2,-1.0573932E-1,-1.9330105E-2],"categories":[],"categories_nodes":[],"categories_segments":[],"categories_sizes":[],"default_left":[0,0,0,0,0,0,0,0,0,0,0,0,0,0,0,0,0,0,0,0,0,0,0,0,0,0,0,0,0,0,0,0,0,0,0,0,0,0,0,0,0,0,0,0,0,0,0,0,0,0,0,0,0,0,0,0,0,0,0,0,0,0,0,0,0,0,0,0,0,0,0,0,0,0,0,0,0,0,0,0,0,0,0,0,0,0,0,0,0,0,0,0,0,0,0,0,0,0,0,0,0,0,0,0,0,0,0,0,0],"id":8,"left_children":[1,3,5,7,9,11,13,15,17,19,21,-1,23,-1,25,27,29,31,33,35,37,-1,39,41,43,45,47,-1,49,51,53,-1,-1,55,57,-1,59,61,-1,-1,-1,-1,-1,63,65,67,69,71,73,75,77,79,81,-1,83,85,-1,87,89,-1,-1,91,93,95,97,-1,99,-1,-1,101,103,105,-1,-1,107,-1,-1,-1,-1,-1,-1,-1,-1,-1,-1,-1,-1,-1,-1,-1,-1,-1,-1,-1,-1,-1,-1,-1,-1,-1,-1,-1,-1,-1,-1,-1,-1,-1,-1],"loss_changes":[1.1729203E-1,1.8020895E-1,1.6485813E-1,7.0715286E-2,1.6292574E-1,1.3833827E-1,2.2414668E-1,5.1707268E-2,8.056162E-2,7.587154E-2,1.21352255E-1,0E0,2.053598E-2,0E0,8.275135E-2,8.033858E-2,4.9208656E-2,1.0065228E-2,4.2684346E-2,6.5017246E-2,5.9747122E-2,0E0,5.69053E-4,7.4832607E-4,9.711929E-3,8.2479075E-2,5.346797E-2,0E0,2.3439119E-2,1.0031267E-1,3.1302117E-2,0E0,0E0,1.9660207E-2,4.353619E-2,0E0,1.7196681E-2,2.1201104E-2,0E0,0E0,0E0,0E0,0E0,1.3801355E-2,1.5641232E-3,1.8808886E-2,5.7632886E-2,3.9985493E-2,2.3214653E-2,2.5720485E-3,2.1805303E-2,1.0451823E-3,4.2028416E-2,0E0,2.7949039E-2,8.243246E-3,0E0,2.4823725E-2,2.3905292E-2,0E0,0E0,2.1866947E-2,1.3475601E-2,1.6187188E-4,4.939083E-3,0E0,3.8260332E-5,0E0,0E0,7.427397E-2,7.11142E-2,1.1949988E-2,0E0,0E0,1.8133558E-2,0E0,0E0,0E0,0E0,0E0,0E0,0E0,0E0,0E0,0E0,0E0,0E0,0E0,0E0,0E0,0E0,0E0,0E0,0E0,0E0,0E0,0E0,0E0,0E0,0E0,0E0,0E0,0E0,0E0,0E0,0E0,0E0,0E0,0E0],"parents":[2147483647,0,0,1,1,2,2,3,3,4,4,5,5,6,6,7,7,8,8,9,9,10,10,12,12,14,14,15,15,16,16,17,17,18,18,19,19,20,20,22,22,23,23,24,24,25,25,26,26,28,28,29,29,30,30,33,33,34,34,36,36,37,37,43,43,44,44,45,45,46,46,47,47,48,48,49,49,50,50,51,51,52,52,54,54,55,55,57,57,58,58,61,61,62,62,63,63,64,64,66,66,69,69,70,70,71,71,74,74],"right_children":[2,4,6,8,10,12,14,16,18,20,22,-1,24,-1,26,28,30,32,34,36,38,-1,40,42,44,46,48,-1,50,52,54,-1,-1,56,58,-1,60,62,-1,-1,-1,-1,-1,64,66,68,70,72,74,76,78,80,82,-1,84,86,-1,88,90,-1,-1,92,94,96,98,-1,100,-1,-1,102,104,106,-1,-1,108,-1,-1,-1,-1,-1,-1,-1,-1,-1,-1,-1,-1,-1,-1,-1,-1,-1,-1,-1,-1,-1,-1,-1,-1,-1,-1,-1,-1,-1,-1,-1,-1,-1,-1],"split_conditions":[8.2415783E-1,5.044346E-1,-3.050955E0,5.4185766E-1,3.6604875E-1,-1.9508723E0,-2.4448614E0,-2.5522535E0,-3.1704983E-1,-3.2403684E-1,6.025745E-1,2.4962108E-1,-2.0431912E0,-2.8485775E-1,1.863198E0,-1.311555E0,-1.2853264E0,5.636889E0,3.6952553E0,5.9434026E-1,5.850271E-1,3.80267E-1,6.270267E-1,8.720019E-1,-2.5137573E-1,-1.3191128E0,3.2301347E0,-1.8593995E-1,-3.1119733E0,-3.6875076E0,-4.429904E0,-1.664217E-1,-2.495861E-2,3.568266E0,-2.1465607E0,8.724499E-2,-2.279874E0,2.9494517E0,-4.323991E-2,1.02547325E-1,3.7119865E-2,-2.1045366E-2,-6.9153786E-2,8.2428354E-1,2.4943874E0,-7.040932E0,7.418045E-1,4.34912E0,1.9904193E0,1.2160683E0,-2.0866425E0,-4.407695E0,-2.6047606E0,1.2965202E-1,-4.190102E0,-1.926462E-1,-6.355119E-2,-3.225608E-1,-5.928259E-1,1.3007164E-2,-1.190445E-1,-4.3325257E0,5.235773E0,-1.2199956E0,-1.1932161E0,-3.3916473E-2,4.5209846E0,-2.5367737E-2,-2.0602588E-1,1.1264789E0,-2.1310277E0,-7.4760026E-1,1.6567802E-1,5.5343866E-2,1.7496735E0,-1.3648987E-2,-8.995724E-2,3.8806297E-2,-4.2347908E-2,7.0635475E-2,1.8322201E-1,-3.30561E-2,5.945418E-2,5.0809145E-2,-6.9236574E-3,-2.1666527E-2,5.7673667E-2,6.9489E-2,-4.2389393E-2,-1.402523E-1,-3.3168633E-2,1.362133E-2,1.9060007E-1,-3.8588524E-2,7.992363E-2,-1.1120796E-2,1.9569397E-3,3.1347275E-3,8.232991E-2,-5.707741E-4,6.498337E-3,-7.572612E-2,3.824691E-2,-2.8716905E-2,-1.9606991E-1,3.6871087E-2,-1.2719154E-2,-1.0573932E-1,-1.9330105E-2],"split_indices":[7,7,2,6,5,0,2,4,4,4,0,0,3,0,3,1,4,0,6,7,9,0,7,1,9,9,3,0,9,2,3,0,0,2,0,0,4,0,0,0,0,0,0,6,0,0,8,0,9,1,3,2,6,0,0,4,0,2,0,0,0,9,0,0,9,0,0,0,0,7,0,6,0,0,0,0,0,0,0,0,0,0,0,0,0,0,0,0,0,0,0,0,0,0,0,0,0,0,0,0,0,0,0,0,0,0,0,0,0],"split_type":[0,0,0,0,0,0,0,0,0,0,0,0,0,0,0,0,0,0,0,0,0,0,0,0,0,0,0,0,0,0,0,0,0,0,0,0,0,0,0,0,0,0,0,0,0,0,0,0,0,0,0,0,0,0,0,0,0,0,0,0,0,0,0,0,0,0,0,0,0,0,0,0,0,0,0,0,0,0,0,0,0,0,0,0,0,0,0,0,0,0,0,0,0,0,0,0,0,0,0,0,0,0,0,0,0,0,0,0,0],"sum_hessian":[2.41E2,1.55E2,8.6E1,1.33E2,2.2E1,1.7E1,6.9E1,1.03E2,3E1,1.6E1,6E0,2E0,1.5E1,3E0,6.6E1,1.8E1,8.5E1,5E0,2.5E1,7E0,9E0,2E0,4E0,3E0,1.2E1,3.6E1,3E1,2E0,1.6E1,2.4E1,6.1E1,4E0,1E0,1E1,1.5E1,2E0,5E0,7E0,2E0,2E0,2E0,2E0,1E0,9E0,3E0,5E0,3.1E1,1.9E1,1.1E1,3E0,1.3E1,6E0,1.8E1,1E0,6E1,9E0,1E0,6E0,9E0,1E0,4E0,5E0,2E0,3E0,6E0,1E0,2E0,1E0,4E0,2.1E1,1E1,1.8E1,1E0,1E0,1E1,1E0,2E0,9E0,4E0,2E0,4E0,8E0,1E1,9E0,5.1E1,1E0,8E0,3E0,3E0,4E0,5E0,1E0,4E0,1E0,1E0,2E0,1E0,1E0,5E0,1E0,1E0,1E1,1.1E1,6E0,4E0,1E1,8E0,5E0,5E0],"tree_param":{"num_deleted":"0","num_feature":"10","num_nodes":"109","size_leaf_vector":"1"}},{"base_weights":[1.9936325E-4,1.3257874E-3,-1.3563442E-1,-2.1533668E-2,8.201076E-3,-8.35845E-3,-1.1256613E-1,1.01987705E-1,4.508257E-3,7.907581E-2,-1.3648957E-2,-3.4429453E-2,-2.0527188E-1,1.3293028E-2,1.6518545E-1,-1.9897154E-2,1.3282328E-2,2.449274E-2,9.412098E-2,-7.024145E-2,-2.2736178E-3,-5.863762E-2,1.2551943E-3,-2.3978233E-2,3.3709526E-2,-3.4046188E-2,1.6138076E-3,-1.1008558E-3,2.9281117E-2,-6.5214327E-3,5.3705852E-2,1.3326509E-2,-4.6983697E-2,2.7708834E-2,-2.7252102E-2,-3.647492E-2,5.296121E-3,9.4303405E-3,6.584709E-2,5.1613534E-3,-3.3237815E-2,2.5291253E-2,-1.10569E-2,-7.045229E-2,-1.4976848E-2,-9.908199E-3,4.3053746E-2,7.372856E-3,-4.3144636E-2,-7.794686E-2,-1.6414097E-3,5.1427078E-2,1.1566313E-3,2.0118212E-2,-7.3683545E-2,1.8189748E-1,4.514718E-2],"categories":[],"categories_nodes":[],"categories_segments":[],"categories_sizes":[],"default_left":[0,0,0,0,0,0,0,0,0,0,0,0,0,0,0,0,0,0,0,0,0,0,0,0,0,0,0,0,0,0,0,0,0,0,0,0,0,0,0,0,0,0,0,0,0,0,0,0,0,0,0,0,0,0,0,0,0],"id":9,"left_children":[1,3,-1,5,7,9,11,13,15,17,19,21,-1,23,-1,25,27,-1,-1,-1,29,-1,-1,-1,-1,31,33,35,37,39,-1,41,43,45,47,49,51,53,55,-1,-1,-1,-1,-1,-1,-1,-1,-1,-1,-1,-1,-1,-1,-1,-1,-1,-1],"loss_changes":[3.7207384E-2,3.805345E-2,0E0,6.622398E-2,6.3958906E-2,2.420788E-2,4.363864E-2,3.704132E-2,3.8808543E-2,1.5835464E-4,3.0740723E-2,4.3929005E-3,0E0,3.8520894E-3,0E0,1.4664192E-2,3.063733E-2,0E0,0E0,0E0,1.0099647E-2,0E0,0E0,0E0,0E0,1.8399786E-2,1.582026E-2,1.6259558E-2,4.510842E-2,1.2344302E-2,0E0,2.3218314E-3,1.6221423E-2,6.776115E-3,5.820881E-3,1.57628E-2,1.1588994E-2,3.879143E-2,4.4636957E-2,0E0,0E0,0E0,0E0,0E0,0E0,0E0,0E0,0E0,0E0,0E0,0E0,0E0,0E0,0E0,0E0,0E0,0E0],"parents":[2147483647,0,0,1,1,3,3,4,4,5,5,6,6,7,7,8,8,9,9,10,10,11,11,13,13,15,15,16,16,20,20,25,25,26,26,27,27,28,28,29,29,31,31,32,32,33,33,34,34,35,35,36,36,37,37,38,38],"right_children":[2,4,-1,6,8,10,12,14,16,18,20,22,-1,24,-1,26,28,-1,-1,-1,30,-1,-1,-1,-1,32,34,36,38,40,-1,42,44,46,48,50,52,54,56,-1,-1,-1,-1,-1,-1,-1,-1,-1,-1,-1,-1,-1,-1,-1,-1,-1,-1],"split_conditions":[5.58482E0,-3.569171E0,-1.3563442E-1,-3.8801823E0,-2.9604504E0,-3.2898667E0,-3.4502977E-1,-2.117684E0,-1.6143892E0,-7.0645223E0,-2.72387E0,-3.7461245E0,-2.0527188E-1,-3.3180373E0,1.6518545E-1,2.159317E0,3.509538E-1,2.449274E-2,9.412098E-2,-7.024145E-2,4.820737E0,-5.863762E-2,1.2551943E-3,-2.3978233E-2,3.3709526E-2,-4.3325257E0,4.216869E0,-4.360736E0,-5.1364625E-1,1.0744437E0,5.3705852E-2,-1.3614115E0,6.657503E-1,-3.5744672E0,-3.3231893E-1,1.4405136E0,-3.743293E0,-7.298146E-1,-2.5960475E-1,5.1613534E-3,-3.3237815E-2,2.5291253E-2,-1.10569E-2,-7.045229E-2,-1.4976848E-2,-9.908199E-3,4.3053746E-2,7.372856E-3,-4.3144636E-2,-7.794686E-2,-1.6414097E-3,5.1427078E-2,1.1566313E-3,2.0118212E-2,-7.3683545E-2,1.8189748E-1,4.514718E-2],"split_indices":[9,0,0,0,0,2,7,7,9,0,3,0,0,0,0,0,2,0,0,0,6,0,0,0,0,9,0,4,1,6,0,8,2,1,6,7,4,1,1,0,0,0,0,0,0,0,0,0,0,0,0,0,0,0,0,0,0],"split_type":[0,0,0,0,0,0,0,0,0,0,0,0,0,0,0,0,0,0,0,0,0,0,0,0,0,0,0,0,0,0,0,0,0,0,0,0,0,0,0,0,0,0,0,0,0,0,0,0,0,0,0,0,0,0,0,0,0],"sum_hessian":[2.41E2,2.4E2,1E0,5.5E1,1.85E2,4.9E1,6E0,6E0,1.79E2,2E0,4.7E1,4E0,2E0,3E0,3E0,4.7E1,1.32E2,1E0,1E0,7E0,4E1,2E0,2E0,1E0,2E0,2.8E1,1.9E1,7E1,6.2E1,3.8E1,2E0,6E0,2.2E1,1E1,9E0,1E1,6E1,4.1E1,2.1E1,2.7E1,1.1E1,4E0,2E0,1.2E1,1E1,3E0,7E0,3E0,6E0,4E0,6E0,4E0,5.6E1,3.7E1,4E0,2E0,1.9E1],"tree_param":{"num_deleted":"0","num_feature":"10","num_nodes":"57","size_leaf_vector":"1"}},{"base_weights":[-3.169706E-4,-6.3245535E-2,7.3755335E-4,1.2575821E-2,-3.757063E-3,6.0318867E-3,6.6870145E-2,-5.9762068E-2,-1.4011576E-3,4.518754E-2,8.444521E-4,1.3083076E-1,1.51197435E-2,-2.4591256E-2,-9.84594E-2,-7.715908E-3,8.233256E-3,2.014192E-2,9.773064E-2,-1.5702777E-2,1.6770551E-2,9.889603E-4,1.8405199E-2,-3.503068E-2,-5.9547424E-3,9.720857E-3,-1.350344E-2,1.8956555E-2,-1.3105081E-2,2.4668122E-2,-1.244545E-3,-2.2518039E-2,2.9114485E-2,3.263235E-3,3.7348833E-2,1.4097395E-2,-4.984629E-2,-4.0214104E-3,-3.5590753E-2,3.0891057E-2,-1.2796915E-2,-7.637167E-2,-6.757888E-3,-3.3268023E-2,1.5276591E-2,-4.07568E-2,1.8751588E-2,9.341399E-3,4.2534776E-2,4.7241137E-3,3.7525244E-2,8.202648E-4,-4.369847E-2,-5.2187033E-2,-8.796883E-3,1.0548405E-2,7.0617415E-2,-5.4232024E-2,1.164447E-2,-1.4993399E-2,1.3031551E-2],"categories":[],"categories_nodes":[],"categories_segments":[],"categories_sizes":[],"default_left":[0,0,0,0,0,0,0,0,0,0,0,0,0,0,0,0,0,0,0,0,0,0,0,0,0,0,0,0,0,0,0,0,0,0,0,0,0,0,0,0,0,0,0,0,0,0,0,0,0,0,0,0,0,0,0,0,0,0,0,0,0],"id":10,"left_children":[1,-1,3,5,7,9,11,13,15,17,19,-1,21,23,-1,25,27,29,-1,31,33,-1,-1,-1,-1,35,37,39,41,-1,-1,43,-1,45,47,49,-1,51,53,55,57,-1,59,-1,-1,-1,-1,-1,-1,-1,-1,-1,-1,-1,-1,-1,-1,-1,-1,-1,-1],"loss_changes":[1.6105691E-2,0E0,1.2764072E-2,2.3046348E-2,2.2874257E-2,1.2148885E-2,2.119179E-2,7.1058776E-3,1.0284464E-2,7.243339E-3,1.4494116E-2,0E0,2.139284E-4,7.641739E-4,0E0,1.0424679E-2,1.5579192E-2,6.114973E-4,0E0,8.902518E-3,7.6609273E-3,0E0,0E0,0E0,0E0,7.4808467E-3,1.5983183E-2,1.7448599E-2,8.71989E-3,0E0,0E0,1.0259223E-2,0E0,1.3036615E-2,1.2003602E-3,5.312622E-3,0E0,1.06015345E-2,9.768523E-3,2.59237E-2,1.3797013E-2,0E0,3.7808623E-3,0E0,0E0,0E0,0E0,0E0,0E0,0E0,0E0,0E0,0E0,0E0,0E0,0E0,0E0,0E0,0E0,0E0,0E0],"parents":[2147483647,0,0,2,2,3,3,4,4,5,5,6,6,7,7,8,8,9,9,10,10,12,12,13,13,15,15,16,16,17,17,19,19,20,20,25,25,26,26,27,27,28,28,31,31,33,33,34,34,35,35,37,37,38,38,39,39,40,40,42,42],"right_children":[2,-1,4,6,8,10,12,14,16,18,20,-1,22,24,-1,26,28,30,-1,32,34,-1,-1,-1,-1,36,38,40,42,-1,-1,44,-1,46,48,50,-1,52,54,56,58,-1,60,-1,-1,-1,-1,-1,-1,-1,-1,-1,-1,-1,-1,-1,-1,-1,-1,-1,-1],"split_conditions":[-3.825222E0,-6.3245535E-2,-1.4586273E0,-1.5372864E0,-1.3401904E0,-1.9758811E0,-1.5096034E0,1.4982607E0,1.0402558E0,-3.7630336E0,3.9559102E-1,1.3083076E-1,-4.355212E0,-3.1704983E-1,-9.84594E-2,-2.7472203E0,-3.3231893E-1,2.2549374E0,9.773064E-2,1.7343472E0,-1.2956955E0,9.889603E-4,1.8405199E-2,-3.503068E-2,-5.9547424E-3,6.140275E0,-7.228734E-1,3.1108773E0,-4.654808E0,2.4668122E-2,-1.244545E-3,-6.718509E-2,2.9114485E-2,8.009059E-1,2.6689723E-1,-3.2638674E0,-4.984629E-2,1.4216071E0,2.6507187E-1,-1.346317E0,4.2094064E0,-7.637167E-2,3.7698789E0,-3.3268023E-2,1.5276591E-2,-4.07568E-2,1.8751588E-2,9.341399E-3,4.2534776E-2,4.7241137E-3,3.7525244E-2,8.202648E-4,-4.369847E-2,-5.2187033E-2,-8.796883E-3,1.0548405E-2,7.0617415E-2,-5.4232024E-2,1.164447E-2,-1.4993399E-2,1.3031551E-2],"split_indices":[6,0,8,8,8,7,8,7,0,1,4,0,2,4,0,1,6,0,0,9,2,0,0,0,0,2,0,3,4,0,0,1,0,6,7,1,0,7,5,6,3,0,6,0,0,0,0,0,0,0,0,0,0,0,0,0,0,0,0,0,0],"split_type":[0,0,0,0,0,0,0,0,0,0,0,0,0,0,0,0,0,0,0,0,0,0,0,0,0,0,0,0,0,0,0,0,0,0,0,0,0,0,0,0,0,0,0,0,0,0,0,0,0,0,0,0,0,0,0,0,0,0,0,0,0],"sum_hessian":[2.41E2,3E0,2.38E2,6.5E1,1.73E2,5.9E1,6E0,6E0,1.67E2,6E0,5.3E1,2E0,4E0,4E0,2E0,1.01E2,6.6E1,5E0,1E0,2.6E1,2.7E1,1E0,3E0,2E0,2E0,2.5E1,7.6E1,4.4E1,2.2E1,4E0,1E0,2.3E1,3E0,1.7E1,1E1,2.4E1,1E0,5.4E1,2.2E1,3.2E1,1.2E1,1E0,2.1E1,1.8E1,5E0,4E0,1.3E1,2E0,8E0,1.8E1,6E0,4.9E1,5E0,1.3E1,9E0,2.2E1,1E1,4E0,8E0,1.5E1,6E0],"tree_param":{"num_deleted":"0","num_feature":"10","num_nodes":"61","size_leaf_vector":"1"}},{"base_weights":[-1.7156187E-4,7.771482E-4,-2.8018475E-2,-6.1817314E-3,4.547147E-3,-3.952408E-2,-6.631851E-3,-1.3985797E-3,-3.736249E-2,2.796453E-2,4.0098728E-4,3.169775E-3,-1.0955651E-2,1.2311395E-2,-4.8604617E-3,-5.7407618E-2,1.2068391E-2,1.8264982E-3,4.1783046E-2,-1.7632166E-2,3.24481E-3,3.723507E-2,-1.3676556E-4,-1.7123604E-2,1.3926208E-3,-2.0899137E-2,-6.609392E-2,2.5404692E-2,-1.4196713E-2,1.4880943E-2,5.0212815E-2,2.7870338E-3,-2.5700092E-2,3.2898903E-2,1.2927408E-3,3.0708313E-3,4.500842E-2,-1.5704155E-2,2.9903888E-3,-1.08133955E-2,-4.927699E-2,8.292804E-3,-1.06605375E-2,7.642746E-3,2.8777758E-2,-2.4696032E-2,-2.7730465E-3,1.5010834E-3,1.7850637E-2,6.2224925E-2,1.3635397E-2,-1.9278526E-3,8.144538E-3,-1.1438131E-2,-4.043269E-2,3.7767094E-2,1.844883E-3,4.6440274E-3,-8.93312E-3,-5.5578776E-4,8.448601E-3,-2.5981903E-2,-1.0639826E-3,1.2510958E-2,-7.852872E-3,1.596818E-2,-2.179536E-2,-5.299568E-3,2.4032593E-3,1.772213E-2,6.605073E-2,-2.0065308E-3,1.9518217E-2,-3.4332275E-4,-3.3407211E-3,-2.5084496E-2,1.7665863E-3,-1.2612462E-2,8.695667E-3,3.0567306E-3,-4.3626513E-2],"categories":[],"categories_nodes":[],"categories_segments":[],"categories_sizes":[],"default_left":[0,0,0,0,0,0,0,0,0,0,0,0,0,0,0,0,0,0,0,0,0,0,0,0,0,0,0,0,0,0,0,0,0,0,0,0,0,0,0,0,0,0,0,0,0,0,0,0,0,0,0,0,0,0,0,0,0,0,0,0,0,0,0,0,0,0,0,0,0,0,0,0,0,0,0,0,0,0,0,0,0],"id":11,"left_children":[1,3,5,7,9,-1,11,13,15,17,19,-1,-1,21,23,25,-1,27,29,31,33,35,37,39,41,-1,-1,43,45,47,49,51,53,55,57,-1,-1,-1,59,61,-1,63,65,-1,-1,-1,67,-1,-1,69,71,73,-1,75,-1,-1,-1,77,79,-1,-1,-1,-1,-1,-1,-1,-1,-1,-1,-1,-1,-1,-1,-1,-1,-1,-1,-1,-1,-1,-1],"loss_changes":[6.415087E-3,6.1933273E-3,1.7064107E-3,1.2326555E-2,1.4843893E-2,0E0,2.0424805E-4,3.524588E-3,1.1592151E-2,8.231025E-3,6.775298E-3,0E0,0E0,4.658901E-3,4.548111E-3,1.1556856E-3,0E0,3.7608487E-3,2.654465E-3,3.0369577E-3,6.5565696E-3,1.1896398E-3,5.8245944E-4,3.5250406E-3,3.4151652E-3,0E0,0E0,1.970795E-5,6.5116107E-4,1.7187523E-4,3.98463E-3,1.672616E-4,2.2690296E-3,9.885621E-4,3.7426234E-3,0E0,0E0,0E0,1.9825346E-4,2.6342687E-3,0E0,1.868976E-3,4.795622E-3,0E0,0E0,0E0,6.504843E-5,0E0,0E0,1.9151345E-4,4.0723855E-4,7.807984E-6,0E0,1.485885E-3,0E0,0E0,0E0,5.842873E-3,1.1364506E-2,0E0,0E0,0E0,0E0,0E0,0E0,0E0,0E0,0E0,0E0,0E0,0E0,0E0,0E0,0E0,0E0,0E0,0E0,0E0,0E0,0E0,0E0],"parents":[2147483647,0,0,1,1,2,2,3,3,4,4,6,6,7,7,8,8,9,9,10,10,13,13,14,14,15,15,17,17,18,18,19,19,20,20,21,21,22,22,23,23,24,24,27,27,28,28,29,29,30,30,31,31,32,32,33,33,34,34,38,38,39,39,41,41,42,42,46,46,49,49,50,50,51,51,53,53,57,57,58,58],"right_children":[2,4,6,8,10,-1,12,14,16,18,20,-1,-1,22,24,26,-1,28,30,32,34,36,38,40,42,-1,-1,44,46,48,50,52,54,56,58,-1,-1,-1,60,62,-1,64,66,-1,-1,-1,68,-1,-1,70,72,74,-1,76,-1,-1,-1,78,80,-1,-1,-1,-1,-1,-1,-1,-1,-1,-1,-1,-1,-1,-1,-1,-1,-1,-1,-1,-1,-1,-1],"split_conditions":[6.789865E0,-2.2118955E0,7.0374113E-1,-2.5027318E0,-1.7509129E0,-3.952408E-2,7.758474E0,-2.6965826E0,3.1880395E0,-8.2724255E-1,-3.3632615E0,3.169775E-3,-1.0955651E-2,-5.3258715E0,1.0915174E0,5.484009E-1,1.2068391E-2,-1.8134922E-1,-3.36673E0,-3.713461E0,-3.0872338E0,-4.2376204E0,-1.4498132E0,1.0037767E0,3.7637525E0,-2.0899137E-2,-6.609392E-2,2.161084E-1,-1.907414E0,-3.8462596E0,-1.5033804E-1,2.9829638E0,-3.7832716E0,3.9426541E0,3.050527E0,3.0708313E-3,4.500842E-2,-1.5704155E-2,1.1373109E0,-2.2459676E0,-4.927699E-2,4.464523E0,-1.3251215E0,7.642746E-3,2.8777758E-2,-2.4696032E-2,-1.8571551E0,1.5010834E-3,1.7850637E-2,-4.141747E0,1.0131308E0,-3.6536782E0,8.144538E-3,4.572177E0,-4.043269E-2,3.7767094E-2,1.844883E-3,-2.2912197E0,2.5906198E0,-5.5578776E-4,8.448601E-3,-2.5981903E-2,-1.0639826E-3,1.2510958E-2,-7.852872E-3,1.596818E-2,-2.179536E-2,-5.299568E-3,2.4032593E-3,1.772213E-2,6.605073E-2,-2.0065308E-3,1.9518217E-2,-3.4332275E-4,-3.3407211E-3,-2.5084496E-2,1.7665863E-3,-1.2612462E-2,8.695667E-3,3.0567306E-3,-4.3626513E-2],"split_indices":[1,1,7,1,1,0,1,3,2,9,4,0,0,8,3,8,0,3,3,3,4,1,5,3,5,0,0,4,1,0,5,5,4,1,4,0,0,0,4,0,0,0,6,0,0,0,1,0,0,4,0,0,0,1,0,0,0,4,1,0,0,0,0,0,0,0,0,0,0,0,0,0,0,0,0,0,0,0,0,0,0],"split_type":[0,0,0,0,0,0,0,0,0,0,0,0,0,0,0,0,0,0,0,0,0,0,0,0,0,0,0,0,0,0,0,0,0,0,0,0,0,0,0,0,0,0,0,0,0,0,0,0,0,0,0,0,0,0,0,0,0,0,0,0,0,0,0,0,0,0,0,0,0,0,0,0,0,0,0,0,0,0,0,0,0],"sum_hessian":[2.41E2,2.34E2,7E0,8.2E1,1.52E2,4E0,3E0,7.2E1,1E1,2.2E1,1.3E2,1E0,2E0,1.4E1,5.8E1,7E0,3E0,8E0,1.4E1,1.7E1,1.13E2,4E0,1E1,1.9E1,3.9E1,2E0,5E0,3E0,5E0,4E0,1E1,5E0,1.2E1,6E0,1.07E2,1E0,3E0,1E0,9E0,1.7E1,2E0,2.5E1,1.4E1,1E0,2E0,2E0,3E0,1E0,3E0,7E0,3E0,3E0,2E0,7E0,5E0,5E0,1E0,8.1E1,2.6E1,6E0,3E0,6E0,1.1E1,2E1,5E0,4E0,1E1,2E0,1E0,1E0,6E0,1E0,2E0,2E0,1E0,3E0,4E0,1.5E1,6.6E1,2E1,6E0],"tree_param":{"num_deleted":"0","num_feature":"10","num_nodes":"81","size_leaf_vector":"1"}},{"base_weights":[-3.8906364E-4,-1.0209347E-2,8.916666E-4,-1.5041969E-2,6.4373696E-3,2.407261E-2,-5.9721974E-4,-1.980283E-3,-2.5761684E-2,1.6644636E-2,-9.744644E-4,1.741012E-3,3.7812233E-2,-1.1408746E-3,2.6734829E-2,4.816979E-3,-1.5079737E-2,4.3463707E-4,-3.4542084E-2,4.666567E-3,2.0300388E-2,-1.1444092E-4,-1.5096664E-3,5.2990913E-3,-3.5834312E-3,-8.8977814E-4,4.3468203E-2,3.3519294E-3,-4.999114E-3,7.665634E-3,3.0536016E-2,2.288421E-4,1.2387593E-2,-1.968066E-3,3.821373E-3,-3.8787365E-2,-2.89917E-4,1.4066696E-3,6.1276755E-3,-5.3007603E-3,-7.43866E-5,4.9976032E-2,2.210617E-3,1.2982687E-3,2.8397152E-2,-2.49421E-3,-2.9297758E-2,2.8063655E-3,-3.2841365E-3,5.463066E-2,1.335144E-2,-1.0148508E-3,2.7878897E-2,9.612655E-3,5.0238926E-2,1.6367912E-2,-4.1072834E-3,-3.5070658E-2,-4.1374364E-3,7.505417E-4,3.2414596E-3,1.7414227E-3,-1.8713085E-2,1.0836029E-2,4.699071E-2,1.1129856E-2,1.7719269E-3,6.0643196E-2,1.4715195E-2,2.6350403E-2,-2.0217896E-4,-1.5955519E-2,-8.0492726E-4,-1.6400814E-2,-4.2992402E-2],"categories":[],"categories_nodes":[],"categories_segments":[],"categories_sizes":[],"default_left":[0,0,0,0,0,0,0,0,0,0,0,0,0,0,0,0,0,0,0,0,0,0,0,0,0,0,0,0,0,0,0,0,0,0,0,0,0,0,0,0,0,0,0,0,0,0,0,0,0,0,0,0,0,0,0,0,0,0,0,0,0,0,0,0,0,0,0,0,0,0,0,0,0,0,0],"id":12,"left_children":[1,3,5,7,9,11,13,15,17,19,21,23,25,27,29,31,-1,33,35,-1,-1,-1,-1,37,39,-1,41,43,45,-1,-1,47,-1,-1,-1,-1,-1,-1,-1,-1,-1,49,-1,51,53,55,57,59,-1,-1,-1,61,63,65,67,69,71,73,-1,-1,-1,-1,-1,-1,-1,-1,-1,-1,-1,-1,-1,-1,-1,-1,-1],"loss_changes":[3.05277E-3,2.3493548E-3,7.4348412E-3,3.0293707E-3,5.458016E-4,3.92293E-3,3.0469191E-3,1.0520833E-3,2.775183E-3,3.66334E-5,2.1286637E-6,1.3265767E-4,1.7898558E-3,3.48362E-3,5.586422E-5,2.7504528E-4,0E0,4.0069994E-5,1.297445E-3,0E0,0E0,0E0,0E0,4.2811735E-6,1.7684248E-5,0E0,1.7690025E-3,4.746531E-3,6.5004295E-3,0E0,0E0,6.3545194E-5,0E0,0E0,0E0,0E0,0E0,0E0,0E0,0E0,0E0,2.9344577E-4,0E0,5.3774156E-3,2.3890776E-3,3.0794009E-3,1.3073776E-3,1.1450538E-6,0E0,0E0,0E0,3.983862E-3,1.7708489E-3,3.975848E-5,2.1641888E-4,1.3286136E-3,3.5868497E-3,4.7807116E-4,0E0,0E0,0E0,0E0,0E0,0E0,0E0,0E0,0E0,0E0,0E0,0E0,0E0,0E0,0E0,0E0,0E0],"parents":[2147483647,0,0,1,1,2,2,3,3,4,4,5,5,6,6,7,7,8,8,9,9,10,10,11,11,12,12,13,13,14,14,15,15,17,17,18,18,23,23,24,24,26,26,27,27,28,28,31,31,41,41,43,43,44,44,45,45,46,46,47,47,51,51,52,52,53,53,54,54,55,55,56,56,57,57],"right_children":[2,4,6,8,10,12,14,16,18,20,22,24,26,28,30,32,-1,34,36,-1,-1,-1,-1,38,40,-1,42,44,46,-1,-1,48,-1,-1,-1,-1,-1,-1,-1,-1,-1,50,-1,52,54,56,58,60,-1,-1,-1,62,64,66,68,70,72,74,-1,-1,-1,-1,-1,-1,-1,-1,-1,-1,-1,-1,-1,-1,-1,-1,-1],"split_conditions":[-3.5695927E0,-1.07806265E-1,-3.1359963E0,-4.5865986E-1,-4.3852725E0,-1.8130846E0,5.2094684E0,-1.3326379E0,-1.3790234E0,-2.3717666E0,-3.6536782E0,-3.36673E0,-3.5587323E0,-1.9895269E-2,-9.623854E0,-1.4950536E0,-1.5079737E-2,-1.8835659E0,4.4952626E0,4.666567E-3,2.0300388E-2,-1.1444092E-4,-1.5096664E-3,-3.7461245E0,-5.3004055E0,-8.8977814E-4,6.5697384E-1,-4.7526595E-1,2.7268414E0,7.665634E-3,3.0536016E-2,-2.7565114E0,1.2387593E-2,-1.968066E-3,3.821373E-3,-3.8787365E-2,-2.89917E-4,1.4066696E-3,6.1276755E-3,-5.3007603E-3,-7.43866E-5,1.9091874E-1,2.210617E-3,3.5531867E0,-2.0866425E0,5.533325E-1,4.155707E0,-2.1420872E0,-3.2841365E-3,5.463066E-2,1.335144E-2,3.735993E0,-4.204792E0,2.1696222E0,1.3674964E0,3.656143E0,-1.5814979E0,-4.4501457E-1,-4.1374364E-3,7.505417E-4,3.2414596E-3,1.7414227E-3,-1.8713085E-2,1.0836029E-2,4.699071E-2,1.1129856E-2,1.7719269E-3,6.0643196E-2,1.4715195E-2,2.6350403E-2,-2.0217896E-4,-1.5955519E-2,-8.0492726E-4,-1.6400814E-2,-4.2992402E-2],"split_indices":[3,1,3,5,3,1,5,1,7,0,0,3,3,7,0,1,0,1,0,0,0,0,0,0,0,0,7,7,2,0,0,0,0,0,0,0,0,0,0,0,0,1,0,9,3,7,2,1,0,0,0,6,7,0,0,1,9,1,0,0,0,0,0,0,0,0,0,0,0,0,0,0,0,0,0],"split_type":[0,0,0,0,0,0,0,0,0,0,0,0,0,0,0,0,0,0,0,0,0,0,0,0,0,0,0,0,0,0,0,0,0,0,0,0,0,0,0,0,0,0,0,0,0,0,0,0,0,0,0,0,0,0,0,0,0,0,0,0,0,0,0,0,0,0,0,0,0,0,0,0,0,0,0],"sum_hessian":[2.41E2,2.7E1,2.14E2,2.1E1,6E0,1.2E1,2.02E2,1E1,1.1E1,2E0,4E0,5E0,7E0,1.99E2,3E0,7E0,3E0,3E0,8E0,1E0,1E0,2E0,2E0,3E0,2E0,1E0,6E0,9.2E1,1.07E2,1E0,2E0,5E0,2E0,2E0,1E0,7E0,1E0,1E0,2E0,1E0,1E0,5E0,1E0,8.6E1,6E0,9.8E1,9E0,3E0,2E0,4E0,1E0,8E1,6E0,4E0,2E0,7E0,9.1E1,7E0,2E0,1E0,2E0,7E1,1E1,4E0,2E0,3E0,1E0,1E0,1E0,4E0,3E0,1.9E1,7.2E1,3E0,4E0],"tree_param":{"num_deleted":"0","num_feature":"10","num_nodes":"75","size_leaf_vector":"1"}},{"base_weights":[6.974374E-4,-3.9443016E-2,1.0276593E-3,-6.5453845E-4,6.2279054E-3,1.4719267E-4,-2.433014E-2,3.2895566E-3,2.029686E-2,4.360879E-3,-1.6742974E-3,-3.484702E-2,-2.1975834E-3,1.3365137E-3,2.541542E-2,7.490703E-3,3.763342E-2,1.7479488E-3,2.4972996E-2,-5.965024E-3,1.8944809E-3,-4.214223E-2,-6.480694E-3,2.0070076E-3,-5.303383E-3,2.7419485E-3,-3.1656742E-2,4.4104576E-2,4.4841766E-3,1.9447962E-2,-1.1817932E-3,4.814316E-3,-4.877329E-3,3.5050295E-2,-1.2706757E-2,-8.931932E-3,1.3323784E-2,-2.4583049E-3,7.983092E-3,6.596779E-3,-3.6209424E-3,1.2521744E-3,5.4740906E-3,-3.6385853E-3,1.66893E-3,2.3019314E-4,1.0605526E-2,-2.1041524E-4,-1.2620449E-2,3.847027E-2,1.0685205E-2,-9.0803206E-4,-1.2344803E-2,2.3296675E-2,-1.1063258E-2,1.0269029E-2,-4.933534E-3,2.4110023E-3,2.0097626E-2,4.0665222E-3,2.1394253E-2,-3.3622425E-2,2.2306442E-3,2.245903E-3,2.5749207E-4],"categories":[],"categories_nodes":[],"categories_segments":[],"categories_sizes":[],"default_left":[0,0,0,0,0,0,0,0,0,0,0,0,0,0,0,0,0,0,0,0,0,0,0,0,0,0,0,0,0,0,0,0,0,0,0,0,0,0,0,0,0,0,0,0,0,0,0,0,0,0,0,0,0,0,0,0,0,0,0,0,0,0,0,0,0],"id":13,"left_children":[1,-1,3,5,7,9,11,13,15,17,19,21,23,25,27,29,-1,31,33,35,37,-1,-1,-1,-1,39,-1,-1,41,-1,43,45,47,49,-1,51,53,55,57,59,61,-1,-1,-1,63,-1,-1,-1,-1,-1,-1,-1,-1,-1,-1,-1,-1,-1,-1,-1,-1,-1,-1,-1,-1],"loss_changes":[3.2483058E-3,0E0,2.1123067E-3,3.4771895E-3,2.372263E-3,1.3734847E-3,1.3200135E-3,2.12667E-3,1.9382462E-3,2.8646816E-3,1.9253818E-3,5.5464264E-4,4.9819777E-5,2.266185E-3,1.3669764E-3,7.488785E-4,0E0,1.0189423E-3,2.7236373E-3,3.381011E-3,1.8482921E-3,0E0,0E0,0E0,0E0,1.1521685E-3,0E0,0E0,2.7436945E-6,0E0,4.1090716E-5,9.001777E-4,5.75528E-4,5.5767596E-6,0E0,1.3580169E-3,2.2034114E-3,1.3422885E-3,1.9091396E-3,9.988005E-4,3.2350125E-3,0E0,0E0,0E0,1.8647825E-6,0E0,0E0,0E0,0E0,0E0,0E0,0E0,0E0,0E0,0E0,0E0,0E0,0E0,0E0,0E0,0E0,0E0,0E0,0E0,0E0],"parents":[2147483647,0,0,2,2,3,3,4,4,5,5,6,6,7,7,8,8,9,9,10,10,11,11,12,12,13,13,14,14,15,15,17,17,18,18,19,19,20,20,25,25,28,28,30,30,31,31,32,32,33,33,35,35,36,36,37,37,38,38,39,39,40,40,44,44],"right_children":[2,-1,4,6,8,10,12,14,16,18,20,22,24,26,28,30,-1,32,34,36,38,-1,-1,-1,-1,40,-1,-1,42,-1,44,46,48,50,-1,52,54,56,58,60,62,-1,-1,-1,64,-1,-1,-1,-1,-1,-1,-1,-1,-1,-1,-1,-1,-1,-1,-1,-1,-1,-1,-1,-1],"split_conditions":[-5.6719656E0,-3.9443016E-2,3.2887473E0,2.5906198E0,8.84945E-1,-2.4448614E0,4.2366892E-1,3.5267901E0,1.4948989E0,3.1320658E0,-2.3323587E-1,4.564798E-1,-1.9508723E0,3.0570838E0,4.022985E0,3.9426541E0,3.763342E-2,-4.3211854E-1,-1.2199956E0,4.8029675E0,1.7395885E-1,-4.214223E-2,-6.480694E-3,2.0070076E-3,-5.303383E-3,5.445574E-2,-3.1656742E-2,4.4104576E-2,1.0399448E1,1.9447962E-2,5.659154E0,-2.924295E0,-3.932898E0,1.952964E0,-1.2706757E-2,-4.849233E0,5.341975E0,5.6660676E-1,-1.8257917E0,4.5784527E-1,1.7688988E-1,1.2521744E-3,5.4740906E-3,-3.6385853E-3,-3.9008374E0,2.3019314E-4,1.0605526E-2,-2.1041524E-4,-1.2620449E-2,3.847027E-2,1.0685205E-2,-9.0803206E-4,-1.2344803E-2,2.3296675E-2,-1.1063258E-2,1.0269029E-2,-4.933534E-3,2.4110023E-3,2.0097626E-2,4.0665222E-3,2.1394253E-2,-3.3622425E-2,2.2306442E-3,2.245903E-3,2.5749207E-4],"split_indices":[8,0,1,1,5,2,6,0,3,7,0,0,0,4,0,1,0,5,0,6,5,0,0,0,0,2,0,0,0,0,1,1,2,1,0,0,6,0,9,5,2,0,0,0,0,0,0,0,0,0,0,0,0,0,0,0,0,0,0,0,0,0,0,0,0],"split_type":[0,0,0,0,0,0,0,0,0,0,0,0,0,0,0,0,0,0,0,0,0,0,0,0,0,0,0,0,0,0,0,0,0,0,0,0,0,0,0,0,0,0,0,0,0,0,0,0,0,0,0,0,0,0,0,0,0,0,0,0,0,0,0,0,0],"sum_hessian":[2.41E2,1E0,2.4E2,1.82E2,5.8E1,1.77E2,5E0,4.9E1,9E0,5.3E1,1.24E2,3E0,2E0,4.6E1,3E0,6E0,3E0,4.8E1,5E0,5.6E1,6.8E1,2E0,1E0,1E0,1E0,4.5E1,1E0,1E0,2E0,2E0,4E0,3.3E1,1.5E1,4E0,1E0,4.9E1,7E0,4E1,2.8E1,2.8E1,1.7E1,1E0,1E0,2E0,2E0,1.9E1,1.4E1,1E1,5E0,3E0,1E0,1.5E1,3.4E1,5E0,2E0,6E0,3.4E1,2E1,8E0,2.5E1,3E0,2E0,1.5E1,1E0,1E0],"tree_param":{"num_deleted":"0","num_feature":"10","num_nodes":"65","size_leaf_vector":"1"}},{"base_weights":[1.615601E-4,4.8540956E-3,-7.0906384E-4,2.1893904E-3,1.6342163E-2,-1.3781316E-4,-1.4758885E-2,-4.2688195E-3,5.3189774E-3,1.7974535E-2,3.273964E-3,-5.2928925E-4,1.89811E-2,-2.9035807E-3,-2.1291351E-2,1.7472506E-3,-1.5233755E-2,6.7261173E-3,-1.21154785E-2,-1.1271746E-3,6.720479E-3,2.6569843E-2,-1.8925667E-3,-3.7844977E-4,-5.2394867E-3,-2.3743153E-2,-5.742073E-3,4.9123764E-3,-2.6459694E-3,-3.3747356E-3,7.966983E-3,8.263635E-3,-1.6665985E-3,-1.2348771E-2,8.964623E-3,-9.047985E-4,3.3712387E-4,8.509318E-3,-3.2202402E-4,-3.74794E-4,-3.2780964E-3,-5.6877136E-3,6.2561035E-4,9.319991E-3,5.632043E-4,1.706314E-2,2.0548275E-3,-2.0986442E-3,7.4526668E-3,1.18332105E-2,-5.4979324E-3,1.21212E-3,-1.6951561E-3,-6.3323975E-4,1.00257555E-2,4.2868853E-3,-2.1069844E-3,2.0353952E-2,3.5953522E-3,-2.3925304E-3,5.9884787E-3,-1.6246022E-3,-1.25663625E-2,1.2191892E-2,2.1707534E-3,1.2486827E-2,2.3217201E-3],"categories":[],"categories_nodes":[],"categories_segments":[],"categories_sizes":[],"default_left":[0,0,0,0,0,0,0,0,0,0,0,0,0,0,0,0,0,0,0,0,0,0,0,0,0,0,0,0,0,0,0,0,0,0,0,0,0,0,0,0,0,0,0,0,0,0,0,0,0,0,0,0,0,0,0,0,0,0,0,0,0,0,0,0,0,0,0],"id":14,"left_children":[1,3,5,7,9,11,13,15,17,-1,-1,19,21,23,25,27,-1,29,-1,31,33,-1,-1,35,-1,-1,-1,37,39,41,43,45,47,-1,49,-1,-1,-1,51,-1,-1,-1,-1,53,55,57,59,61,63,65,-1,-1,-1,-1,-1,-1,-1,-1,-1,-1,-1,-1,-1,-1,-1,-1,-1],"loss_changes":[9.921169E-4,1.1274884E-3,1.6432898E-3,6.6947483E-4,9.047729E-5,1.4919967E-3,5.5773393E-4,7.5224123E-4,6.212099E-4,0E0,0E0,8.5280853E-4,6.8390486E-4,2.1610995E-5,5.4283766E-5,1.2423874E-4,0E0,2.9009616E-4,0E0,9.306509E-4,7.5261435E-4,0E0,0E0,1.434953E-6,0E0,0E0,0E0,9.6879376E-5,4.514077E-6,3.131643E-5,1.8508104E-4,5.1128253E-4,6.9330994E-4,0E0,6.458777E-4,0E0,0E0,0E0,8.37448E-6,0E0,0E0,0E0,0E0,1.1874293E-4,4.8804122E-5,1.0410033E-4,1.367881E-4,7.9833734E-4,1.737918E-4,4.561129E-5,0E0,0E0,0E0,0E0,0E0,0E0,0E0,0E0,0E0,0E0,0E0,0E0,0E0,0E0,0E0,0E0,0E0],"parents":[2147483647,0,0,1,1,2,2,3,3,4,4,5,5,6,6,7,7,8,8,11,11,12,12,13,13,14,14,15,15,17,17,19,19,20,20,23,23,27,27,28,28,29,29,30,30,31,31,32,32,34,34,38,38,43,43,44,44,45,45,46,46,47,47,48,48,49,49],"right_children":[2,4,6,8,10,12,14,16,18,-1,-1,20,22,24,26,28,-1,30,-1,32,34,-1,-1,36,-1,-1,-1,38,40,42,44,46,48,-1,50,-1,-1,-1,52,-1,-1,-1,-1,54,56,58,60,62,64,66,-1,-1,-1,-1,-1,-1,-1,-1,-1,-1,-1,-1,-1,-1,-1,-1,-1],"split_conditions":[-2.5632596E0,-2.7933986E0,4.8761024E0,4.084212E-1,5.579125E0,4.473028E0,-1.866593E0,-4.1041584E0,2.1372783E0,1.7974535E-2,3.273964E-3,4.8302855E0,2.1336656E0,-5.533968E0,2.159317E0,3.050527E0,-1.5233755E-2,-4.5291796E0,-1.21154785E-2,-4.310787E0,-5.0181546E0,2.6569843E-2,-1.8925667E-3,-7.8986263E0,-5.2394867E-3,-2.3743153E-2,-5.742073E-3,4.03786E0,-3.3161404E0,-3.5848653E0,4.294508E0,2.2947187E0,4.6520853E0,-1.2348771E-2,7.5869775E-1,-9.047985E-4,3.3712387E-4,8.509318E-3,-6.9947934E0,-3.74794E-4,-3.2780964E-3,-5.6877136E-3,6.2561035E-4,-2.5038843E0,-9.623854E0,-4.313122E0,6.7649555E0,4.232449E0,-2.0287921E0,-1.2350787E0,-5.4979324E-3,1.21212E-3,-1.6951561E-3,-6.3323975E-4,1.00257555E-2,4.2868853E-3,-2.1069844E-3,2.0353952E-2,3.5953522E-3,-2.3925304E-3,5.9884787E-3,-1.6246022E-3,-1.25663625E-2,1.2191892E-2,2.1707534E-3,1.2486827E-2,2.3217201E-3],"split_indices":[7,7,3,5,0,3,6,7,2,0,0,2,0,0,0,4,0,7,0,5,0,0,0,0,0,0,0,1,0,0,5,3,5,0,7,0,0,0,0,0,0,0,0,9,0,5,1,5,3,0,0,0,0,0,0,0,0,0,0,0,0,0,0,0,0,0,0],"split_type":[0,0,0,0,0,0,0,0,0,0,0,0,0,0,0,0,0,0,0,0,0,0,0,0,0,0,0,0,0,0,0,0,0,0,0,0,0,0,0,0,0,0,0,0,0,0,0,0,0,0,0,0,0,0,0,0,0,0,0,0,0,0,0,0,0,0,0],"sum_hessian":[2.41E2,3.7E1,2.04E2,3.1E1,6E0,1.97E2,7E0,1E1,2.1E1,5E0,1E0,1.94E2,3E0,3E0,4E0,7E0,3E0,2E1,1E0,1.8E2,1.4E1,2E0,1E0,2E0,1E0,3E0,1E0,4E0,3E0,2E0,1.8E1,9E0,1.71E2,1E0,1.3E1,1E0,1E0,2E0,2E0,1E0,2E0,1E0,1E0,1.5E1,3E0,3E0,6E0,1.64E2,7E0,1.1E1,2E0,1E0,1E0,1E0,1.4E1,1E0,2E0,2E0,1E0,3E0,3E0,1.58E2,6E0,3E0,4E0,1E1,1E0],"tree_param":{"num_deleted":"0","num_feature":"10","num_nodes":"67","size_leaf_vector":"1"}},{"base_weights":[7.814809E-5,-1.8909454E-2,2.353973E-4,3.6870042E-4,-1.5878677E-2,-1.2196541E-2,5.2553666E-4,-9.948373E-3,7.015796E-4,-2.1135013E-3,-1.6726494E-2,1.0093858E-3,-5.6582363E-3,7.1433693E-4,1.0096005E-2,-1.5294075E-2,-1.8175973E-3,1.0884746E-3,-8.136485E-3,1.9920668E-2,2.1820068E-3,4.6412945E-3,-3.2051206E-3],"categories":[],"categories_nodes":[],"categories_segments":[],"categories_sizes":[],"default_left":[0,0,0,0,0,0,0,0,0,0,0,0,0,0,0,0,0,0,0,0,0,0,0],"id":15,"left_children":[1,-1,3,5,-1,-1,7,9,11,-1,-1,13,15,17,19,-1,21,-1,-1,-1,-1,-1,-1],"loss_changes":[7.2701124E-4,0E0,5.235361E-4,4.7937417E-4,0E0,0E0,4.4581783E-4,1.7707137E-4,4.657452E-4,0E0,0E0,5.9601257E-4,3.7928708E-4,7.3405856E-4,5.0079945E-4,0E0,9.553268E-5,0E0,0E0,0E0,0E0,0E0,0E0],"parents":[2147483647,0,0,2,2,3,3,6,6,7,7,8,8,11,11,12,12,13,13,14,14,16,16],"right_children":[2,-1,4,6,-1,-1,8,10,12,-1,-1,14,16,18,20,-1,22,-1,-1,-1,-1,-1,-1],"split_conditions":[-5.6719656E0,-1.8909454E-2,5.58482E0,-5.842667E0,-1.5878677E-2,-1.2196541E-2,-4.5213904E0,6.789865E0,5.0092053E0,-2.1135013E-3,-1.6726494E-2,4.20256E0,5.2224298E0,3.9323227E0,-1.2199956E0,-1.5294075E-2,3.2599023E-4,1.0884746E-3,-8.136485E-3,1.9920668E-2,2.1820068E-3,4.6412945E-3,-3.2051206E-3],"split_indices":[8,0,9,4,0,0,9,1,4,0,0,4,4,4,0,0,8,0,0,0,0,0,0],"split_type":[0,0,0,0,0,0,0,0,0,0,0,0,0,0,0,0,0,0,0,0,0,0,0],"sum_hessian":[2.41E2,1E0,2.4E2,2.39E2,1E0,2E0,2.37E2,3E0,2.34E2,2E0,1E0,2.24E2,1E1,2.18E2,6E0,2E0,8E0,2.1E2,8E0,2E0,4E0,1E0,7E0],"tree_param":{"num_deleted":"0","num_feature":"10","num_nodes":"23","size_leaf_vector":"1"}},{"base_weights":[-2.6703472E-4,3.3998847E-4,-3.0841883E-3,-2.5228073E-4,1.0539185E-2,-1.8167814E-2,-1.9052842E-3,1.407449E-3,-1.824756E-3,1.4133083E-2,-3.7555695E-3,-4.2346288E-3,1.6322978E-3,5.0738687E-4,1.7147064E-2,-6.6497703E-3,-6.5600575E-4,-3.7646294E-3,1.6840875E-2,-2.8262464E-3,-1.0922074E-2,3.8348304E-3,-7.516013E-4,-8.075142E-3,1.0062723E-3,2.2002697E-2,-1.1377335E-3,-1.6074022E-2,-2.1358219E-3,-1.8015022E-3,3.3896763E-3,1.0594209E-2,2.3720583E-2,-4.097068E-3,6.587982E-3,5.1492965E-3,-5.1053363E-4,8.979797E-4,-2.250862E-3,-9.907246E-3,-3.733635E-4,2.7733345E-3,-1.2522873E-3,-5.28307E-3,4.5858384E-3,3.4971952E-3,-2.7493814E-3,-3.941536E-3,8.413315E-3,1.3836098E-2,-2.8076172E-3,-4.8368983E-3,4.979849E-3,9.953022E-3,-7.104874E-5,-1.5799205E-4,7.30381E-3,-2.318859E-3,1.5530586E-3,-7.081032E-4,1.4765263E-3,-3.0794144E-3,-6.720225E-4,-3.6360025E-3,3.9562946E-3,3.9056225E-3,-6.0896873E-3,-2.6494265E-3,-1.05450945E-2,8.097649E-3,1.6834736E-3,6.478139E-3,-2.5937557E-3,2.4151802E-3,-3.8359642E-3,-1.01312E-3,-8.484523E-3,3.4936268E-3,1.1930783E-2,8.853277E-5,-5.421568E-3,5.106926E-4,-7.4768066E-4],"categories":[],"categories_nodes":[],"categories_segments":[],"categories_sizes":[],"default_left":[0,0,0,0,0,0,0,0,0,0,0,0,0,0,0,0,0,0,0,0,0,0,0,0,0,0,0,0,0,0,0,0,0,0,0,0,0,0,0,0,0,0,0,0,0,0,0,0,0,0,0,0,0,0,0,0,0,0,0,0,0,0,0,0,0,0,0,0,0,0,0,0,0,0,0,0,0,0,0,0,0,0,0],"id":16,"left_children":[1,3,5,7,9,-1,11,13,15,17,-1,19,21,23,25,27,29,-1,31,33,-1,35,37,39,41,-1,-1,-1,43,45,47,49,-1,51,53,55,57,59,61,-1,-1,63,65,67,69,71,73,75,77,-1,-1,79,-1,-1,-1,81,-1,-1,-1,-1,-1,-1,-1,-1,-1,-1,-1,-1,-1,-1,-1,-1,-1,-1,-1,-1,-1,-1,-1,-1,-1,-1,-1],"loss_changes":[4.1488736E-4,1.2107928E-3,7.3001743E-4,4.984462E-4,6.181904E-4,0E0,3.447623E-4,1.3087965E-3,5.48283E-4,4.9956935E-4,0E0,2.0459355E-4,9.214273E-5,3.8919694E-4,4.6895444E-4,7.7393994E-4,3.7685168E-4,0E0,9.250105E-5,2.9019522E-4,0E0,5.403538E-5,2.4279598E-5,6.68533E-5,3.4270936E-4,0E0,0E0,0E0,3.2039353E-4,3.2603415E-4,6.960898E-4,2.9952987E-4,0E0,1.5839451E-4,6.793087E-5,8.119631E-5,1.4796263E-5,5.6915005E-6,4.4713197E-6,0E0,0E0,3.783206E-4,9.7191724E-4,1.1064453E-4,3.7330596E-5,1.9837054E-4,3.1229766E-4,9.78342E-5,1.4867168E-4,0E0,0E0,5.519527E-5,0E0,0E0,0E0,1.5647821E-6,0E0,0E0,0E0,0E0,0E0,0E0,0E0,0E0,0E0,0E0,0E0,0E0,0E0,0E0,0E0,0E0,0E0,0E0,0E0,0E0,0E0,0E0,0E0,0E0,0E0,0E0,0E0],"parents":[2147483647,0,0,1,1,2,2,3,3,4,4,6,6,7,7,8,8,9,9,11,11,12,12,13,13,14,14,15,15,16,16,18,18,19,19,21,21,22,22,23,23,24,24,28,28,29,29,30,30,31,31,33,33,34,34,35,35,36,36,37,37,38,38,41,41,42,42,43,43,44,44,45,45,46,46,47,47,48,48,51,51,55,55],"right_children":[2,4,6,8,10,-1,12,14,16,18,-1,20,22,24,26,28,30,-1,32,34,-1,36,38,40,42,-1,-1,-1,44,46,48,50,-1,52,54,56,58,60,62,-1,-1,64,66,68,70,72,74,76,78,-1,-1,80,-1,-1,-1,82,-1,-1,-1,-1,-1,-1,-1,-1,-1,-1,-1,-1,-1,-1,-1,-1,-1,-1,-1,-1,-1,-1,-1,-1,-1,-1,-1],"split_conditions":[1.2332557E0,1.0637344E0,1.2524084E0,3.0026004E-1,1.3101665E0,-1.8167814E-2,-1.0113491E-1,1.3405894E-1,1.1422039E0,-3.7245266E0,-3.7555695E-3,-3.4523216E-1,1.5879421E0,-6.514531E0,4.816963E0,-2.1106035E-1,2.3218539E0,-3.7646294E-3,-2.1746442E0,-4.512886E-1,-1.0922074E-2,-4.7510672E-1,-3.753468E0,1.5334332E0,-1.5096034E0,2.2002697E-2,-1.1377335E-3,-1.6074022E-2,1.6123437E0,-3.6483326E0,-3.6975596E0,-3.0680811E0,2.3720583E-2,1.3413221E0,-4.8949423E0,-1.8835659E0,5.710405E-1,-4.181822E0,4.216869E0,-9.907246E-3,-3.733635E-4,-1.3699207E0,-1.4371363E0,1.2733043E0,-3.924277E0,8.602567E-1,-4.310787E0,7.2571006E0,2.0510195E-1,1.3836098E-2,-2.8076172E-3,-1.0013081E0,4.979849E-3,9.953022E-3,-7.104874E-5,-1.3260545E0,7.30381E-3,-2.318859E-3,1.5530586E-3,-7.081032E-4,1.4765263E-3,-3.0794144E-3,-6.720225E-4,-3.6360025E-3,3.9562946E-3,3.9056225E-3,-6.0896873E-3,-2.6494265E-3,-1.05450945E-2,8.097649E-3,1.6834736E-3,6.478139E-3,-2.5937557E-3,2.4151802E-3,-3.8359642E-3,-1.01312E-3,-8.484523E-3,3.4936268E-3,1.1930783E-2,8.853277E-5,-5.421568E-3,5.106926E-4,-7.4768066E-4],"split_indices":[8,8,8,3,1,0,5,3,3,1,0,5,1,0,0,9,0,0,1,5,0,6,4,1,8,0,0,0,2,1,1,1,0,0,0,1,0,0,0,0,0,5,6,2,0,0,5,0,2,0,0,9,0,0,0,0,0,0,0,0,0,0,0,0,0,0,0,0,0,0,0,0,0,0,0,0,0,0,0,0,0,0,0],"split_type":[0,0,0,0,0,0,0,0,0,0,0,0,0,0,0,0,0,0,0,0,0,0,0,0,0,0,0,0,0,0,0,0,0,0,0,0,0,0,0,0,0,0,0,0,0,0,0,0,0,0,0,0,0,0,0,0,0,0,0,0,0,0,0,0,0,0,0,0,0,0,0,0,0,0,0,0,0,0,0,0,0,0,0],"sum_hessian":[2.41E2,1.99E2,4.2E1,1.89E2,1E1,2E0,4E1,9.2E1,9.7E1,8E0,2E0,2.4E1,1.6E1,8.8E1,4E0,1.8E1,7.9E1,1E0,7E0,2.1E1,3E0,8E0,8E0,4E0,8.4E1,3E0,1E0,5E0,1.3E1,6.2E1,1.7E1,5E0,2E0,1.9E1,2E0,6E0,2E0,4E0,4E0,3E0,1E0,4.7E1,3.7E1,9E0,4E0,9E0,5.3E1,7E0,1E1,4E0,1E0,1.8E1,1E0,1E0,1E0,2E0,4E0,1E0,1E0,1E0,3E0,2E0,2E0,7E0,4E1,1.8E1,1.9E1,7E0,2E0,1E0,3E0,6E0,3E0,9E0,4.4E1,5E0,2E0,5E0,5E0,2E0,1.6E1,1E0,1E0],"tree_param":{"num_deleted":"0","num_feature":"10","num_nodes":"83","size_leaf_vector":"1"}},{"base_weights":[3.5600227E-5,-3.0593674E-3,3.746122E-4,-5.0756633E-3,8.6508854E-4,6.343725E-4,-4.5948895E-3,8.187294E-4,-7.1086884E-3,-2.103011E-3,2.013547E-3,-2.802962E-4,2.4161271E-3,-1.7205238E-2,1.1910332E-4,4.0241876E-3,-2.6596386E-3,-8.766711E-3,-3.0341148E-3,3.4070015E-4,3.1830072E-3,1.7008934E-3,-1.2785286E-3,1.7664048E-3,6.202793E-3,-1.4240742E-3,2.4040937E-3,-1.4305115E-6,-3.7919283E-3,3.0237138E-3,-5.1258206E-3,-7.505715E-5,-3.8033167E-3,2.3084343E-3,-4.8744204E-3,8.077502E-3,-8.6402893E-4,-2.6937723E-3,7.435481E-4,3.136158E-3,1.039505E-4,-4.8282943E-3,-3.414154E-4,2.9849124E-4,8.06352E-3,-8.345604E-3,-1.5248299E-3,-8.550326E-3,3.3624712E-4,-1.5455723E-3,-7.5625507E-3,4.0515265E-3,1.0472161E-3,-5.318324E-4,-7.5922012E-3,1.0125955E-2,1.2880961E-3,-2.6054382E-3,1.3093948E-3,2.7832985E-3,-1.6679764E-3,-1.005487E-3,5.0299964E-3,4.8060417E-3,1.2965774E-2,3.6787987E-4,-2.0899773E-3,-1.0218143E-2,-2.6073456E-3,-3.0469086E-5,5.661249E-3,-3.975001E-3,1.2813568E-3,-6.0908E-4,-9.040091E-3,1.1953941E-4,7.973552E-3,2.1655478E-3,-3.735474E-3,6.723404E-4,-1.470089E-3],"categories":[],"categories_nodes":[],"categories_segments":[],"categories_sizes":[],"default_left":[0,0,0,0,0,0,0,0,0,0,0,0,0,0,0,0,0,0,0,0,0,0,0,0,0,0,0,0,0,0,0,0,0,0,0,0,0,0,0,0,0,0,0,0,0,0,0,0,0,0,0,0,0,0,0,0,0,0,0,0,0,0,0,0,0,0,0,0,0,0,0,0,0,0,0,0,0,0,0,0,0],"id":17,"left_children":[1,3,5,7,9,11,13,15,17,-1,19,21,23,-1,25,-1,-1,-1,27,-1,-1,29,31,33,35,37,39,-1,41,43,45,47,49,51,53,55,57,-1,59,-1,-1,-1,-1,61,63,-1,65,67,69,71,73,75,77,79,-1,-1,-1,-1,-1,-1,-1,-1,-1,-1,-1,-1,-1,-1,-1,-1,-1,-1,-1,-1,-1,-1,-1,-1,-1,-1,-1],"loss_changes":[2.5506E-4,1.9429965E-4,2.8561745E-4,1.9755529E-4,3.491316E-5,3.412877E-4,6.559453E-4,6.645171E-5,5.4469623E-5,0E0,1.26098475E-5,2.7707324E-4,1.6372334E-4,0E0,3.515892E-5,0E0,0E0,0E0,1.1485619E-5,0E0,0E0,4.3993333E-4,2.82296E-4,2.3442274E-4,1.394616E-4,1.8516308E-5,6.409404E-6,0E0,1.2655517E-5,5.469769E-4,8.002964E-5,2.2597353E-4,2.4293322E-4,1.2326552E-4,5.4973236E-5,9.821897E-5,1.47660085E-5,0E0,1.93992E-5,0E0,0E0,0E0,0E0,1.7164164E-4,1.6125181E-4,0E0,6.1171595E-6,3.0931697E-6,1.2124389E-4,1.4244986E-4,1.0750815E-4,3.6915927E-4,1.952915E-4,4.377869E-6,0E0,0E0,0E0,0E0,0E0,0E0,0E0,0E0,0E0,0E0,0E0,0E0,0E0,0E0,0E0,0E0,0E0,0E0,0E0,0E0,0E0,0E0,0E0,0E0,0E0,0E0,0E0],"parents":[2147483647,0,0,1,1,2,2,3,3,4,4,5,5,6,6,7,7,8,8,10,10,11,11,12,12,14,14,18,18,21,21,22,22,23,23,24,24,25,25,26,26,28,28,29,29,30,30,31,31,32,32,33,33,34,34,35,35,36,36,38,38,43,43,44,44,46,46,47,47,48,48,49,49,50,50,51,51,52,52,53,53],"right_children":[2,4,6,8,10,12,14,16,18,-1,20,22,24,-1,26,-1,-1,-1,28,-1,-1,30,32,34,36,38,40,-1,42,44,46,48,50,52,54,56,58,-1,60,-1,-1,-1,-1,62,64,-1,66,68,70,72,74,76,78,80,-1,-1,-1,-1,-1,-1,-1,-1,-1,-1,-1,-1,-1,-1,-1,-1,-1,-1,-1,-1,-1,-1,-1,-1,-1,-1,-1],"split_conditions":[-2.809914E0,1.0879893E0,6.01374E0,-1.725429E0,-2.4960892E-2,8.720019E-1,2.2244947E0,-3.0249357E0,1.3405894E-1,-2.103011E-3,4.705674E0,-1.6693649E0,3.5531867E0,-1.7205238E-2,-4.5807414E0,4.0241876E-3,-2.6596386E-3,-8.766711E-3,-2.6651828E0,3.4070015E-4,3.1830072E-3,1.916835E0,-1.7539434E0,3.357766E0,4.134268E0,-1.1248208E0,2.9814193E0,-1.4305115E-6,3.5267901E0,-9.810987E-1,3.7769606E0,-2.5038843E0,6.0362035E-1,-2.0188828E0,-3.5848653E0,3.050527E0,2.793192E0,-2.6937723E-3,-4.8919234E0,3.136158E-3,1.039505E-4,-4.8282943E-3,-3.414154E-4,1.1625078E0,4.2551512E-1,-8.345604E-3,3.8560832E0,-4.836452E0,5.362047E0,2.4867938E0,-3.9082131E0,-3.0872338E0,3.0450852E0,-5.9400263E0,-7.5922012E-3,1.0125955E-2,1.2880961E-3,-2.6054382E-3,1.3093948E-3,2.7832985E-3,-1.6679764E-3,-1.005487E-3,5.0299964E-3,4.8060417E-3,1.2965774E-2,3.6787987E-4,-2.0899773E-3,-1.0218143E-2,-2.6073456E-3,-3.0469086E-5,5.661249E-3,-3.975001E-3,1.2813568E-3,-6.0908E-4,-9.040091E-3,1.1953941E-4,7.973552E-3,2.1655478E-3,-3.735474E-3,6.723404E-4,-1.470089E-3],"split_indices":[6,7,1,7,3,1,3,2,3,0,1,6,9,0,5,0,0,0,0,0,0,0,1,9,9,6,0,0,0,0,0,9,4,3,0,4,0,0,0,0,0,0,0,9,2,0,0,0,6,6,2,4,7,0,0,0,0,0,0,0,0,0,0,0,0,0,0,0,0,0,0,0,0,0,0,0,0,0,0,0,0],"split_type":[0,0,0,0,0,0,0,0,0,0,0,0,0,0,0,0,0,0,0,0,0,0,0,0,0,0,0,0,0,0,0,0,0,0,0,0,0,0,0,0,0,0,0,0,0,0,0,0,0,0,0,0,0,0,0,0,0,0,0,0,0,0,0,0,0,0,0,0,0,0,0,0,0,0,0,0,0,0,0,0,0],"sum_hessian":[2.41E2,2.3E1,2.18E2,1.5E1,8E0,2.08E2,1E1,4E0,1.1E1,2E0,6E0,1.38E2,7E1,2E0,8E0,2E0,2E0,7E0,4E0,3E0,3E0,4.6E1,9.2E1,6.1E1,9E0,5E0,3E0,1E0,3E0,3.9E1,7E0,6.3E1,2.9E1,5.7E1,4E0,7E0,2E0,3E0,2E0,2E0,1E0,2E0,1E0,2.6E1,1.3E1,3E0,4E0,2E0,6.1E1,1.9E1,1E1,2.3E1,3.4E1,2E0,2E0,5E0,2E0,1E0,1E0,1E0,1E0,2.1E1,5E0,9E0,4E0,1E0,3E0,1E0,1E0,5.8E1,3E0,1E1,9E0,2E0,8E0,1.2E1,1.1E1,2.8E1,6E0,1E0,1E0],"tree_param":{"num_deleted":"0","num_feature":"10","num_nodes":"81","size_leaf_vector":"1"}},{"base_weights":[-1.08482425E-4,-1.5494182E-3,2.843822E-4,-1.0377979E-3,-9.559949E-3,5.3141913E-3,2.0303928E-4,1.6064008E-3,-2.1107197E-3,2.871957E-4,-3.7609935E-3,3.7956769E-3,-1.4378683E-3,-3.5987936E-3,4.8473902E-4,9.02613E-4,-3.6519175E-4,-3.1006336E-4,-4.807949E-3,7.2641373E-3,1.7669542E-3,-2.9960633E-3,1.6384125E-3,-1.6071657E-3,-7.921492E-3,-9.74226E-4,3.3057213E-3,1.9466747E-3,-4.8610143E-4,-1.7551081E-3,4.9467257E-4,3.9099455E-3,-8.177757E-4,9.34124E-4,-3.078244E-3,-9.932327E-3,-1.9296011E-3,1.6888619E-3,-3.0310948E-3,1.1048317E-3,4.4047036E-3,-1.5988783E-3,2.770106E-3,-2.5168932E-3,4.1011174E-4,-2.770158E-3,1.0595322E-3,1.7375452E-3,-7.6525786E-4,-1.6930898E-3,9.0408325E-4,3.8499832E-3,-1.9351642E-4,-1.3041496E-3,-4.9463273E-3,2.6272137E-3,1.8755595E-4,-3.4532547E-3,-4.6014786E-4,5.3034886E-4,-7.4536004E-3,2.040863E-3,6.4373016E-3,5.4240227E-4,-3.488922E-3,-2.3584366E-3,9.2675135E-4,-8.1904116E-4,-4.384041E-3,3.395462E-3,-1.0636648E-3,2.5619864E-3,-1.8498102E-3,-2.9627483E-3,2.1296456E-4],"categories":[],"categories_nodes":[],"categories_segments":[],"categories_sizes":[],"default_left":[0,0,0,0,0,0,0,0,0,0,0,0,0,0,0,0,0,0,0,0,0,0,0,0,0,0,0,0,0,0,0,0,0,0,0,0,0,0,0,0,0,0,0,0,0,0,0,0,0,0,0,0,0,0,0,0,0,0,0,0,0,0,0,0,0,0,0,0,0,0,0,0,0,0,0],"id":18,"left_children":[1,3,5,7,-1,-1,9,11,13,15,17,19,21,23,25,27,29,-1,-1,-1,31,-1,-1,33,35,37,39,41,43,45,47,-1,49,51,53,-1,-1,55,57,-1,-1,59,61,63,65,67,69,71,73,-1,-1,-1,-1,-1,-1,-1,-1,-1,-1,-1,-1,-1,-1,-1,-1,-1,-1,-1,-1,-1,-1,-1,-1,-1,-1],"loss_changes":[1.3743505E-4,2.031929E-4,7.7066616E-5,1.4524159E-4,0E0,0E0,6.4130305E-5,1.05428866E-4,1.4078492E-4,7.500687E-5,1.2961118E-5,5.04935E-5,3.8462902E-5,1.8528057E-4,6.0840524E-5,1.4013701E-4,1.0962589E-4,0E0,0E0,0E0,4.1970838E-5,0E0,0E0,6.6428875E-5,6.5175554E-5,5.9895323E-5,7.227234E-6,1.6500264E-4,7.747315E-5,1.02930084E-4,9.0587855E-5,0E0,7.5593634E-6,2.376132E-5,3.0004972E-5,0E0,0E0,6.5510176E-6,4.9230985E-6,0E0,0E0,1.4107939E-4,1.07204774E-4,4.0550796E-5,4.5095938E-5,7.8280005E-5,5.3208023E-5,9.0508525E-5,6.297036E-5,0E0,0E0,0E0,0E0,0E0,0E0,0E0,0E0,0E0,0E0,0E0,0E0,0E0,0E0,0E0,0E0,0E0,0E0,0E0,0E0,0E0,0E0,0E0,0E0,0E0,0E0],"parents":[2147483647,0,0,1,1,2,2,3,3,6,6,7,7,8,8,9,9,10,10,11,11,12,12,13,13,14,14,15,15,16,16,20,20,23,23,24,24,25,25,26,26,27,27,28,28,29,29,30,30,32,32,33,33,34,34,37,37,38,38,41,41,42,42,43,43,44,44,45,45,46,46,47,47,48,48],"right_children":[2,4,6,8,-1,-1,10,12,14,16,18,20,22,24,26,28,30,-1,-1,-1,32,-1,-1,34,36,38,40,42,44,46,48,-1,50,52,54,-1,-1,56,58,-1,-1,60,62,64,66,68,70,72,74,-1,-1,-1,-1,-1,-1,-1,-1,-1,-1,-1,-1,-1,-1,-1,-1,-1,-1,-1,-1,-1,-1,-1,-1,-1,-1],"split_conditions":[-1.5926203E0,-1.6009763E0,-1.5612907E0,-3.642384E0,-9.559949E-3,5.3141913E-3,6.751981E0,1.7051382E0,-2.2982461E0,7.105822E-1,-9.623854E0,-1.9262116E0,-1.311555E0,8.2415783E-1,3.781032E0,1.952964E0,-8.420608E-1,-3.1006336E-4,-4.807949E-3,7.2641373E-3,-3.68E-1,-2.9960633E-3,1.6384125E-3,5.608023E-1,3.8281007E0,1.1569397E-1,-4.372843E0,-2.7933986E0,3.7080088E0,4.8029675E0,-4.8244354E-1,3.9099455E-3,3.4686643E-1,1.9864225E0,-4.8448653E0,-9.932327E-3,-1.9296011E-3,-4.500777E0,5.4244623E0,1.1048317E-3,4.4047036E-3,1.771138E0,6.299719E-1,-4.1041584E0,-3.8267534E0,-1.4421369E0,1.7340572E0,2.000264E0,1.3413221E0,-1.6930898E-3,9.0408325E-4,3.8499832E-3,-1.9351642E-4,-1.3041496E-3,-4.9463273E-3,2.6272137E-3,1.8755595E-4,-3.4532547E-3,-4.6014786E-4,5.3034886E-4,-7.4536004E-3,2.040863E-3,6.4373016E-3,5.4240227E-4,-3.488922E-3,-2.3584366E-3,9.2675135E-4,-8.1904116E-4,-4.384041E-3,3.395462E-3,-1.0636648E-3,2.5619864E-3,-1.8498102E-3,-2.9627483E-3,2.1296456E-4],"split_indices":[8,8,8,2,0,0,3,0,3,8,0,4,1,7,5,1,5,0,0,0,0,0,0,9,4,4,0,7,1,6,0,0,0,6,8,0,0,0,1,0,0,2,8,7,4,6,7,4,0,0,0,0,0,0,0,0,0,0,0,0,0,0,0,0,0,0,0,0,0,0,0,0,0,0,0],"split_type":[0,0,0,0,0,0,0,0,0,0,0,0,0,0,0,0,0,0,0,0,0,0,0,0,0,0,0,0,0,0,0,0,0,0,0,0,0,0,0,0,0,0,0,0,0,0,0,0,0,0,0,0,0,0,0,0,0,0,0,0,0,0,0,0,0,0,0,0,0,0,0,0,0,0,0],"sum_hessian":[2.41E2,5.1E1,1.9E2,4.9E1,2E0,2E0,1.88E2,1.4E1,3.5E1,1.85E2,3E0,8E0,6E0,2.2E1,1.3E1,9.5E1,9E1,1E0,2E0,2E0,6E0,4E0,2E0,1.6E1,6E0,9E0,4E0,5.4E1,4.1E1,3.4E1,5.6E1,3E0,3E0,6E0,1E1,4E0,2E0,4E0,5E0,2E0,2E0,1E1,4.4E1,1.2E1,2.9E1,2.5E1,9E0,2.8E1,2.8E1,2E0,1E0,1E0,5E0,6E0,4E0,2E0,2E0,4E0,1E0,8E0,2E0,3.8E1,6E0,3E0,9E0,4E0,2.5E1,1.2E1,1.3E1,4E0,5E0,2.3E1,5E0,8E0,2E1],"tree_param":{"num_deleted":"0","num_feature":"10","num_nodes":"75","size_leaf_vector":"1"}},{"base_weights":[-7.48526E-5,-1.2641748E-3,1.5288475E-4,-1.9898135E-4,-1.9965277E-3,4.0042875E-3,5.5835248E-5,-1.5891076E-3,3.5098882E-4,-1.2500286E-4,-3.1907219E-3,9.7401935E-4,5.6997933E-3,-1.9945676E-4,9.925865E-4,1.055479E-3,-6.468296E-4,1.5592575E-3,-1.5077194E-3,8.916855E-4,-3.9454303E-3,7.381992E-5,-1.985777E-3,2.1376212E-4,1.8775463E-3,-6.0653685E-5,2.1867752E-3,4.287958E-4,-1.865387E-3,-1.487732E-4,2.0234585E-3,-2.7546352E-3,-5.638361E-3,-2.0560922E-4,3.6710738E-3,-2.5363764E-4,-3.8657666E-3,1.1780262E-3,-2.2963115E-3,4.0037897E-3,1.2640159E-4,4.1071573E-4,-5.1180524E-4,-1.0124842E-4,1.0094643E-3,-3.2609303E-3,-1.3065338E-3,-5.4185226E-4,9.7253406E-4,-4.1046142E-4,6.460508E-3,-1.5200207E-3,1.2660822E-3,-5.6926184E-3,2.976656E-4,4.334883E-6,2.6445985E-3,-2.7826626E-3,3.1089783E-4,5.715529E-3,4.3523312E-4,-9.5528364E-4,1.8318177E-3,-1.125546E-3,6.414722E-4,6.346067E-3,3.394551E-4,-2.0952225E-3,1.41112E-3,2.471288E-3,7.8372955E-3,-1.9570352E-3,-2.8498968E-4,-1.4190674E-3,-6.1683655E-3,1.9249916E-3,-8.864403E-4,2.445221E-4,-1.1987686E-3,3.2496452E-4,2.9295513E-3,-2.447764E-4,-2.0578702E-3,2.3174286E-3,-5.531311E-5],"categories":[],"categories_nodes":[],"categories_segments":[],"categories_sizes":[],"default_left":[0,0,0,0,0,0,0,0,0,0,0,0,0,0,0,0,0,0,0,0,0,0,0,0,0,0,0,0,0,0,0,0,0,0,0,0,0,0,0,0,0,0,0,0,0,0,0,0,0,0,0,0,0,0,0,0,0,0,0,0,0,0,0,0,0,0,0,0,0,0,0,0,0,0,0,0,0,0,0,0,0,0,0,0,0],"id":19,"left_children":[1,3,5,7,9,11,13,-1,15,17,19,-1,-1,21,23,25,27,29,-1,-1,31,33,35,37,39,41,-1,43,-1,-1,-1,45,-1,47,49,51,53,55,57,59,61,-1,-1,-1,-1,-1,-1,63,65,67,69,71,-1,73,75,77,79,-1,-1,-1,-1,81,83,-1,-1,-1,-1,-1,-1,-1,-1,-1,-1,-1,-1,-1,-1,-1,-1,-1,-1,-1,-1,-1,-1],"loss_changes":[6.573972E-5,3.0026524E-5,7.6026874E-5,1.3554734E-5,5.1005314E-5,2.0137479E-5,4.8027E-5,0E0,9.821108E-6,2.5639469E-5,4.665245E-5,0E0,0E0,7.7275814E-5,2.923547E-5,1.0234049E-5,8.6641385E-6,4.2653837E-6,0E0,0E0,8.659583E-6,1.3946931E-4,6.740397E-5,6.079409E-5,7.39611E-5,1.2735017E-6,0E0,1.3333265E-6,0E0,0E0,0E0,2.3379835E-6,0E0,5.1629348E-5,1.1650349E-4,2.5019037E-5,7.775423E-5,3.097199E-5,9.741256E-6,5.248838E-5,2.3886587E-5,0E0,0E0,0E0,0E0,0E0,0E0,7.048262E-5,9.650005E-5,1.830126E-5,1.3585639E-5,3.2203498E-6,0E0,5.478578E-6,9.414095E-6,3.4717962E-6,4.3358887E-6,0E0,0E0,0E0,0E0,5.763449E-6,4.7102403E-6,0E0,0E0,0E0,0E0,0E0,0E0,0E0,0E0,0E0,0E0,0E0,0E0,0E0,0E0,0E0,0E0,0E0,0E0,0E0,0E0,0E0,0E0],"parents":[2147483647,0,0,1,1,2,2,3,3,4,4,5,5,6,6,8,8,9,9,10,10,13,13,14,14,15,15,16,16,17,17,20,20,21,21,22,22,23,23,24,24,25,25,27,27,31,31,33,33,34,34,35,35,36,36,37,37,38,38,39,39,40,40,47,47,48,48,49,49,50,50,51,51,53,53,54,54,55,55,56,56,61,61,62,62],"right_children":[2,4,6,8,10,12,14,-1,16,18,20,-1,-1,22,24,26,28,30,-1,-1,32,34,36,38,40,42,-1,44,-1,-1,-1,46,-1,48,50,52,54,56,58,60,62,-1,-1,-1,-1,-1,-1,64,66,68,70,72,-1,74,76,78,80,-1,-1,-1,-1,82,84,-1,-1,-1,-1,-1,-1,-1,-1,-1,-1,-1,-1,-1,-1,-1,-1,-1,-1,-1,-1,-1,-1],"split_conditions":[-2.6498084E0,-3.7234325E0,-2.484009E0,-1.155949E0,-1.5224586E0,-2.5773034E0,2.4867938E0,-1.5891076E-3,9.9952483E-1,-1.5577888E-1,-3.0555627E0,9.7401935E-4,5.6997933E-3,3.4292452E0,-6.830689E-1,5.4582663E0,-1.3635769E0,-3.3361917E0,-1.5077194E-3,8.916855E-4,5.445574E-2,2.9761324E0,-3.0872338E0,-2.1310277E0,1.2225971E0,3.9697558E-1,2.1867752E-3,4.124749E-1,-1.865387E-3,-1.487732E-4,2.0234585E-3,1.2645247E0,-5.638361E-3,4.032261E0,8.440267E-1,-3.6722555E0,-4.041922E-1,5.4674476E-1,-6.7106235E-1,1.9952855E0,5.235773E0,4.1071573E-4,-5.1180524E-4,-1.0124842E-4,1.0094643E-3,-3.2609303E-3,-1.3065338E-3,2.0832345E0,4.080506E0,3.196501E0,-5.1364625E-1,-6.486264E-1,1.2660822E-3,-3.5695927E0,-3.2814374E0,4.319794E0,-3.7245266E0,-2.7826626E-3,3.1089783E-4,5.715529E-3,4.3523312E-4,-2.8116181E-2,8.038315E-1,-1.125546E-3,6.414722E-4,6.346067E-3,3.394551E-4,-2.0952225E-3,1.41112E-3,2.471288E-3,7.8372955E-3,-1.9570352E-3,-2.8498968E-4,-1.4190674E-3,-6.1683655E-3,1.9249916E-3,-8.864403E-4,2.445221E-4,-1.1987686E-3,3.2496452E-4,2.9295513E-3,-2.447764E-4,-2.0578702E-3,2.3174286E-3,-5.531311E-5],"split_indices":[5,9,5,6,6,5,6,0,7,3,2,0,0,2,0,1,8,1,0,0,2,2,4,0,0,7,0,0,0,0,0,3,0,5,0,4,4,8,2,4,0,0,0,0,0,0,0,9,5,2,1,7,0,3,3,1,1,0,0,0,0,5,1,0,0,0,0,0,0,0,0,0,0,0,0,0,0,0,0,0,0,0,0,0,0],"split_type":[0,0,0,0,0,0,0,0,0,0,0,0,0,0,0,0,0,0,0,0,0,0,0,0,0,0,0,0,0,0,0,0,0,0,0,0,0,0,0,0,0,0,0,0,0,0,0,0,0,0,0,0,0,0,0,0,0,0,0,0,0,0,0,0,0,0,0,0,0,0,0,0,0,0,0,0,0,0,0,0,0,0,0,0,0],"sum_hessian":[2.41E2,3.8E1,2.03E2,1.6E1,2.2E1,4E0,1.99E2,4E0,1.2E1,9E0,1.3E1,2E0,2E0,1.57E2,4.2E1,7E0,5E0,4E0,5E0,2E0,1.1E1,1.37E2,2E1,2.3E1,1.9E1,4E0,3E0,3E0,2E0,1E0,3E0,8E0,3E0,1.28E2,9E0,1.1E1,9E0,1.7E1,6E0,8E0,1.1E1,2E0,2E0,2E0,1E0,5E0,3E0,1E2,2.8E1,4E0,5E0,6E0,5E0,6E0,3E0,1E1,7E0,5E0,1E0,5E0,3E0,7E0,4E0,6.7E1,3.3E1,2E0,2.6E1,2E0,2E0,2E0,3E0,4E0,2E0,1E0,5E0,1E0,2E0,9E0,1E0,1E0,6E0,5E0,2E0,3E0,1E0],"tree_param":{"num_deleted":"0","num_feature":"10","num_nodes":"85","size_leaf_vector":"1"}},{"base_weights":[4.747781E-5,5.751725E-4,-2.471178E-4,9.0417394E-4,-8.3272596E-4,9.108186E-4,-4.542107E-4,6.889336E-4,3.6075593E-3,4.7371603E-4,-2.7667454E-3,-2.193451E-4,2.266407E-3,-1.0356723E-3,-6.8140616E-5,1.5398397E-3,3.6882877E-4,1.1879603E-3,4.8246384E-3,2.321561E-3,-1.4530817E-3,-5.996227E-4,-4.242182E-3,-1.0430813E-3,3.5418404E-4,5.917549E-4,4.1576386E-3,-1.3460462E-3,4.3354035E-4,1.4477412E-4,-2.3396355E-3,1.9111335E-3,-9.536743E-4,-3.212452E-3,5.074764E-4,2.6161193E-3,4.2438507E-4,1.4448166E-4,-3.0988057E-3,-7.867813E-5,-1.5056133E-3,7.157326E-4,-7.8201294E-5,1.1466027E-3,-5.302429E-4,5.197525E-5,5.1710606E-3,-1.9076421E-3,-5.067022E-4,2.8162003E-3,-9.899139E-4,-4.225307E-6,2.7905703E-3,2.6512146E-4,-4.3594837E-3,2.164534E-3,9.1552734E-5,-1.4028549E-3,-2.7656555E-5,3.6946256E-4,2.500534E-3,-9.679794E-5,-2.334186E-3,2.4208655E-6,-1.3798305E-3,-2.4347305E-3,1.748085E-3,2.0281006E-4,-2.8190613E-3,-6.8187714E-4,8.0808E-4,-1.9073486E-6,2.3313302E-3,1.0658152E-3,-2.4326386E-5,5.3834915E-4,3.212452E-3,-6.55365E-4,1.3480186E-3,-3.5095215E-4,-2.6452276E-3,-5.2722293E-4,3.9935112E-4,-2.1354675E-3,3.3950806E-4,2.1648407E-4,-3.1516552E-3,-5.6743622E-5,2.6788712E-3,-6.174308E-4,6.9405313E-4,-3.7369728E-3,4.2629242E-4],"categories":[],"categories_nodes":[],"categories_segments":[],"categories_sizes":[],"default_left":[0,0,0,0,0,0,0,0,0,0,0,0,0,0,0,0,0,0,0,0,0,0,0,0,0,0,0,0,0,0,0,0,0,0,0,0,0,0,0,0,0,0,0,0,0,0,0,0,0,0,0,0,0,0,0,0,0,0,0,0,0,0,0,0,0,0,0,0,0,0,0,0,0,0,0,0,0,0,0,0,0,0,0,0,0,0,0,0,0,0,0,0,0],"id":20,"left_children":[1,3,5,7,9,11,13,15,17,19,21,23,25,27,29,31,33,-1,-1,35,37,-1,-1,39,41,43,45,47,49,51,53,55,57,-1,59,-1,-1,-1,-1,-1,-1,-1,-1,-1,-1,-1,-1,61,63,-1,65,67,-1,69,-1,71,-1,-1,-1,73,75,77,79,81,83,85,87,89,91,-1,-1,-1,-1,-1,-1,-1,-1,-1,-1,-1,-1,-1,-1,-1,-1,-1,-1,-1,-1,-1,-1,-1,-1],"loss_changes":[3.7762617E-5,4.1051382E-5,3.7822567E-5,3.882793E-5,4.426428E-5,3.7266007E-5,2.9785924E-5,1.7681461E-5,8.992734E-6,4.2538082E-5,1.9838451E-5,6.983557E-6,3.23784E-5,2.4751847E-5,3.9513136E-5,1.848748E-5,2.645704E-5,0E0,0E0,2.242734E-6,1.6222613E-5,0E0,0E0,2.5579452E-6,1.4629258E-6,4.9657438E-6,2.0535088E-5,1.977376E-5,3.670387E-5,2.957845E-5,3.7984286E-5,7.179162E-6,1.2090495E-6,0E0,1.2554552E-5,0E0,0E0,0E0,0E0,0E0,0E0,0E0,0E0,0E0,0E0,0E0,0E0,1.9856583E-5,8.449406E-6,0E0,3.194746E-5,4.253122E-5,0E0,2.6077353E-6,0E0,5.063397E-6,0E0,0E0,0E0,1.2914079E-5,2.4613219E-6,5.725606E-6,1.2025885E-5,2.9435585E-6,9.8193805E-6,1.0185891E-5,5.191737E-6,2.7828288E-5,1.6487778E-5,0E0,0E0,0E0,0E0,0E0,0E0,0E0,0E0,0E0,0E0,0E0,0E0,0E0,0E0,0E0,0E0,0E0,0E0,0E0,0E0,0E0,0E0,0E0,0E0],"parents":[2147483647,0,0,1,1,2,2,3,3,4,4,5,5,6,6,7,7,8,8,9,9,10,10,11,11,12,12,13,13,14,14,15,15,16,16,19,19,20,20,23,23,24,24,25,25,26,26,27,27,28,28,29,29,30,30,31,31,32,32,34,34,47,47,48,48,50,50,51,51,53,53,55,55,59,59,60,60,61,61,62,62,63,63,64,64,65,65,66,66,67,67,68,68],"right_children":[2,4,6,8,10,12,14,16,18,20,22,24,26,28,30,32,34,-1,-1,36,38,-1,-1,40,42,44,46,48,50,52,54,56,58,-1,60,-1,-1,-1,-1,-1,-1,-1,-1,-1,-1,-1,-1,62,64,-1,66,68,-1,70,-1,72,-1,-1,-1,74,76,78,80,82,84,86,88,90,92,-1,-1,-1,-1,-1,-1,-1,-1,-1,-1,-1,-1,-1,-1,-1,-1,-1,-1,-1,-1,-1,-1,-1,-1],"split_conditions":[-1.1236885E0,5.024882E0,-4.3107157E0,3.736926E0,-6.0650177E-2,2.0662603E-1,1.0554666E-1,-3.642384E0,-3.3180373E0,-1.09587E0,-3.4955099E0,-5.435045E0,-1.5926203E0,3.4966366E0,2.9978466E0,2.7153695E0,-3.5551012E0,1.1879603E-3,4.8246384E-3,2.159317E0,4.096116E0,-5.996227E-4,-4.242182E-3,-1.0013081E0,-3.7832716E0,-2.0188828E0,-7.8986263E0,4.2366892E-1,4.1606264E0,3.939596E0,-2.0287921E0,5.4457283E0,2.9571059E0,-3.212452E-3,5.342888E0,2.6161193E-3,4.2438507E-4,1.4448166E-4,-3.0988057E-3,-7.867813E-5,-1.5056133E-3,7.157326E-4,-7.8201294E-5,1.1466027E-3,-5.302429E-4,5.197525E-5,5.1710606E-3,-4.0760036E0,-1.6577096E0,2.8162003E-3,4.799012E0,3.2301347E0,2.7905703E-3,6.03765E-1,-4.3594837E-3,-2.6208348E0,9.1552734E-5,-1.4028549E-3,-2.7656555E-5,-1.8134922E-1,-1.8912139E0,4.941836E0,-1.8130846E0,-1.5748036E0,4.8640573E-1,-3.3213837E0,-3.8801823E0,-2.7911417E0,-6.145693E-1,-6.8187714E-4,8.0808E-4,-1.9073486E-6,2.3313302E-3,1.0658152E-3,-2.4326386E-5,5.3834915E-4,3.212452E-3,-6.55365E-4,1.3480186E-3,-3.5095215E-4,-2.6452276E-3,-5.2722293E-4,3.9935112E-4,-2.1354675E-3,3.3950806E-4,2.1648407E-4,-3.1516552E-3,-5.6743622E-5,2.6788712E-3,-6.174308E-4,6.9405313E-4,-3.7369728E-3,4.2629242E-4],"split_indices":[7,3,0,3,8,4,0,2,0,6,1,0,8,7,4,0,2,0,0,0,5,0,0,9,4,3,0,6,7,3,3,8,0,0,1,0,0,0,0,0,0,0,0,0,0,0,0,4,0,0,7,3,0,0,0,7,0,0,0,3,0,1,1,8,1,1,0,4,1,0,0,0,0,0,0,0,0,0,0,0,0,0,0,0,0,0,0,0,0,0,0,0,0],"split_type":[0,0,0,0,0,0,0,0,0,0,0,0,0,0,0,0,0,0,0,0,0,0,0,0,0,0,0,0,0,0,0,0,0,0,0,0,0,0,0,0,0,0,0,0,0,0,0,0,0,0,0,0,0,0,0,0,0,0,0,0,0,0,0,0,0,0,0,0,0,0,0,0,0,0,0,0,0,0,0,0,0,0,0,0,0,0,0,0,0,0,0,0,0],"sum_hessian":[2.41E2,8.6E1,1.55E2,7E1,1.6E1,2.3E1,1.32E2,6.6E1,4E0,1E1,6E0,1.3E1,1E1,5.2E1,8E1,1.7E1,4.9E1,2E0,2E0,5E0,5E0,3E0,3E0,5E0,8E0,6E0,4E0,4.3E1,9E0,7.4E1,6E0,1.5E1,2E0,1E0,4.8E1,4E0,1E0,3E0,2E0,2E0,3E0,4E0,4E0,4E0,2E0,1E0,3E0,2.5E1,1.8E1,3E0,6E0,7.1E1,3E0,3E0,3E0,1.3E1,2E0,1E0,1E0,4.6E1,2E0,5E0,2E1,1.2E1,6E0,4E0,2E0,6.7E1,4E0,1E0,2E0,1E0,1.2E1,1.6E1,3E1,1E0,1E0,4E0,1E0,3E0,1.7E1,5E0,7E0,4E0,2E0,1E0,3E0,1E0,1E0,2.5E1,4.2E1,3E0,1E0],"tree_param":{"num_deleted":"0","num_feature":"10","num_nodes":"93","size_leaf_vector":"1"}},{"base_weights":[9.590929E-6,-4.9568203E-5,5.490184E-4,-5.20352E-4,3.9766932E-5,5.124569E-3,1.2727406E-4,1.3481776E-3,-6.7445E-4,3.0753255E-4,-1.9594395E-4,6.0190476E-4,-5.499363E-4,-9.555912E-4,1.8143654E-4,2.37061E-4,2.2017162E-3,-2.8003056E-3,-1.13376635E-4,1.3014475E-3,6.866455E-5,1.783371E-4,-8.875302E-4,2.7480125E-4,-1.2030374E-3,-7.1444514E-4,1.0410309E-3,1.5449524E-3,1.5340028E-4,-6.417185E-5,-2.418518E-3,1.66893E-4,1.4949798E-3,-1.1165142E-3,3.5637617E-4,-2.6017427E-4,1.2073517E-3,-4.0316582E-4,-1.769344E-3,-1.0450681E-4,-1.086235E-3,3.0040741E-5,1.2862682E-3,2.3654301E-3,2.0949046E-4,-5.9313525E-4,3.7611098E-4,-4.5326905E-4,8.682523E-5,-4.2629242E-4,6.8831444E-4,-1.5258789E-4,-2.0774365E-3,-1.9830816E-4,-2.632777E-3,-4.896684E-4,5.4870464E-4,-6.238818E-4,6.837249E-4,-9.593793E-5,7.633527E-4],"categories":[],"categories_nodes":[],"categories_segments":[],"categories_sizes":[],"default_left":[0,0,0,0,0,0,0,0,0,0,0,0,0,0,0,0,0,0,0,0,0,0,0,0,0,0,0,0,0,0,0,0,0,0,0,0,0,0,0,0,0,0,0,0,0,0,0,0,0,0,0,0,0,0,0,0,0,0,0,0,0],"id":21,"left_children":[1,3,5,7,9,-1,11,-1,13,15,17,19,21,23,25,27,-1,-1,29,31,33,-1,-1,35,37,39,41,43,45,47,-1,-1,-1,-1,49,-1,-1,-1,51,-1,-1,-1,-1,-1,-1,53,55,57,59,-1,-1,-1,-1,-1,-1,-1,-1,-1,-1,-1,-1],"loss_changes":[7.749933E-6,9.231292E-6,4.5660872E-5,1.0987066E-5,1.1736584E-5,0E0,7.72378E-6,0E0,8.1140015E-6,1.1091349E-5,2.0970989E-5,5.1329775E-6,2.6168861E-6,7.941995E-6,7.674613E-6,9.0636295E-6,0E0,0E0,1.0846927E-5,1.067936E-6,3.4668062E-6,0E0,0E0,2.8085801E-6,8.799085E-6,1.0203257E-6,1.2010219E-6,4.9830487E-6,1.3690261E-5,5.679599E-6,0E0,0E0,0E0,0E0,2.3718044E-6,0E0,0E0,0E0,5.660335E-6,0E0,0E0,0E0,0E0,0E0,0E0,1.4778707E-5,9.682649E-6,5.664177E-6,8.728336E-6,0E0,0E0,0E0,0E0,0E0,0E0,0E0,0E0,0E0,0E0,0E0,0E0],"parents":[2147483647,0,0,1,1,2,2,3,3,4,4,6,6,8,8,9,9,10,10,11,11,12,12,13,13,14,14,15,15,18,18,19,19,20,20,23,23,24,24,25,25,26,26,27,27,28,28,29,29,34,34,38,38,45,45,46,46,47,47,48,48],"right_children":[2,4,6,8,10,-1,12,-1,14,16,18,20,22,24,26,28,-1,-1,30,32,34,-1,-1,36,38,40,42,44,46,48,-1,-1,-1,-1,50,-1,-1,-1,52,-1,-1,-1,-1,-1,-1,54,56,58,60,-1,-1,-1,-1,-1,-1,-1,-1,-1,-1,-1,-1],"split_conditions":[3.6409426E0,-2.1141198E0,3.6658509E0,-5.444434E0,-1.4223661E-2,5.124569E-3,4.564798E-1,1.3481776E-3,6.0566375E-3,-2.9234922E-2,2.2717974E-1,2.0827664E-1,-1.4612554E0,-2.2388947E0,-2.5987434E0,-2.0284739E0,2.2017162E-3,-2.8003056E-3,7.2571006E0,1.7820358E0,-4.298802E0,1.783371E-4,-8.875302E-4,-4.039496E0,-2.7991376E0,-5.0181546E0,-3.7461245E0,3.643208E-1,-1.6917936E0,8.998577E-1,-2.418518E-3,1.66893E-4,1.4949798E-3,-1.1165142E-3,2.6925516E-1,-2.6017427E-4,1.2073517E-3,-4.0316582E-4,-2.654337E0,-1.0450681E-4,-1.086235E-3,3.0040741E-5,1.2862682E-3,2.3654301E-3,2.0949046E-4,7.189499E-2,-2.5038843E0,5.8321824E0,2.0337486E0,-4.2629242E-4,6.8831444E-4,-1.5258789E-4,-2.0774365E-3,-1.9830816E-4,-2.632777E-3,-4.896684E-4,5.4870464E-4,-6.238818E-4,6.837249E-4,-9.593793E-5,7.633527E-4],"split_indices":[9,6,9,8,7,0,0,0,4,7,7,8,2,7,1,6,0,0,0,1,0,0,0,1,6,0,0,4,6,7,0,0,