{"learner":{"attributes":{"scikit_learn":"{\"_estimator_type\": \"regressor\"}"},"feature_names":[],"feature_types":[],"gradient_booster":{"model":{"gbtree_model_param":{"num_parallel_tree":"1","num_trees":"20"},"iteration_indptr":[0,1,2,3,4,5,6,7,8,9,10,11,12,13,14,15,16,17,18,19,20],"tree_info":[0,0,0,0,0,0,0,0,0,0,0,0,0,0,0,0,0,0,0,0],"trees":[{"base_weights":[1.366966E-8,-3.282419E-2,1.9448341E-1,-1.1233041E-1,8.30851E-2,-2.3917316E-2,2.979166E-2,3.0053617E-3,3.817316E-2],"categories":[],"categories_nodes":[],"categories_segments":[],"categories_sizes":[],"default_left":[0,0,0,0,0,0,0,0,0],"id":0,"left_children":[1,3,-1,5,7,-1,-1,-1,-1],"loss_changes":[1.0341696E1,2.1934087E0,0E0,2.0974665E0,1.0431631E0,0E0,0E0,0E0,0E0],"parents":[2147483647,0,0,1,1,3,3,4,4],"right_children":[2,4,-1,6,8,-1,-1,-1,-1],"split_conditions":[6.227667E0,7.500979E-1,1.9448341E-1,3.2606385E0,1.5694923E0,-2.3917316E-2,2.979166E-2,3.0053617E-3,3.817316E-2],"split_indices":[4,0,0,4,4,0,0,0,0],"split_type":[0,0,0,0,0,0,0,0,0],"sum_hessian":[2.41E2,2.36E2,5E0,1.4E2,9.6E1,1.22E2,1.8E1,7.1E1,2.5E1],"tree_param":{"num_deleted":"0","num_feature":"10","num_nodes":"9","size_leaf_vector":"1"}},{"base_weights":[9.980912E-4,-2.770203E-2,1.1344864E0,-5.418437E-2,2.3356558E-1,4.7803793E-2,1.8508606E-1,-2.881652E-2,3.540395E-3,4.77749E-2,9.097172E-4],"categories":[],"categories_nodes":[],"categories_segments":[],"categories_sizes":[],"default_left":[0,0,0,0,0,0,0,0,0,0,0],"id":1,"left_children":[1,3,5,7,9,-1,-1,-1,-1,-1,-1],"loss_changes":[7.9039903E0,1.6524533E0,9.340477E-2,2.3219619E0,4.231633E-1,0E0,0E0,0E0,0E0,0E0,0E0],"parents":[2147483647,0,0,1,1,2,2,3,3,4,4],"right_children":[2,4,6,8,10,-1,-1,-1,-1,-1,-1],"split_conditions":[6.227667E0,3.46245E0,-2.8619375E0,-1.9408739E0,5.6403893E-1,4.7803793E-2,1.8508606E-1,-2.881652E-2,3.540395E-3,4.77749E-2,9.097172E-4],"split_indices":[4,4,0,0,3,0,0,0,0,0,0],"split_type":[0,0,0,0,0,0,0,0,0,0,0],"sum_hessian":[2.41E2,2.36E2,5E0,2.15E2,2.1E1,1E0,4E0,7.7E1,1.38E2,1.5E1,6E0],"tree_param":{"num_deleted":"0","num_feature":"10","num_nodes":"11","size_leaf_vector":"1"}},{"base_weights":[1.9074606E-3,-2.3447957E-2,1.0031285E0,3.2912478E-1,-4.206488E-2,1.776335E-1,6.4093895E-2,-4.7714906E-3,7.703526E-2,-9.028587E-3,3.893215E-2],"categories":[],"categories_nodes":[],"categories_segments":[],"categories_sizes":[],"default_left":[0,0,0,0,0,0,0,0,0,0,0],"id":2,"left_children":[1,3,5,7,9,-1,-1,-1,-1,-1,-1],"loss_changes":[6.1670246E0,1.5694698E0,1.1967516E-1,8.152015E-1,1.2511499E0,0E0,0E0,0E0,0E0,0E0,0E0],"parents":[2147483647,0,0,1,1,2,2,3,3,4,4],"right_children":[2,4,6,8,10,-1,-1,-1,-1,-1,-1],"split_conditions":[6.227667E0,-4.9245257E0,3.580785E-2,-2.3189082E0,5.1719675E0,1.776335E-1,6.4093895E-2,-4.7714906E-3,7.703526E-2,-9.028587E-3,3.893215E-2],"split_indices":[4,5,1,9,0,0,0,0,0,0,0],"split_type":[0,0,0,0,0,0,0,0,0,0,0],"sum_hessian":[2.41E2,2.36E2,5E0,1.1E1,2.25E2,3E0,2E0,4E0,7E0,2.13E2,1.2E1],"tree_param":{"num_deleted":"0","num_feature":"10","num_nodes":"11","size_leaf_vector":"1"}},{"base_weights":[3.042397E-3,-1.9499673E-2,8.9294714E-1,-4.2098887E-2,2.0326985E-1,1.5764974E-1,5.7684507E-2,-2.337804E-2,3.3056343E-3,7.237454E-2,2.006802E-2],"categories":[],"categories_nodes":[],"categories_segments":[],"categories_sizes":[],"default_left":[0,0,0,0,0,0,0,0,0,0,0],"id":3,"left_children":[1,3,5,7,9,-1,-1,-1,-1,-1,-1],"loss_changes":[4.872003E0,1.201714E0,7.7928066E-2,1.5793324E0,3.622824E-1,0E0,0E0,0E0,0E0,0E0,0E0],"parents":[2147483647,0,0,1,1,2,2,3,3,4,4],"right_children":[2,4,6,8,10,-1,-1,-1,-1,-1,-1],"split_conditions":[6.227667E0,3.46245E0,3.580785E-2,-1.9408739E0,3.640938E0,1.5764974E-1,5.7684507E-2,-2.337804E-2,3.3056343E-3,7.237454E-2,2.006802E-2],"split_indices":[4,4,1,0,4,0,0,0,0,0,0],"split_type":[0,0,0,0,0,0,0,0,0,0,0],"sum_hessian":[2.41E2,2.36E2,5E0,2.15E2,2.1E1,3E0,2E0,7.7E1,1.38E2,3E0,1.8E1],"tree_param":{"num_deleted":"0","num_feature":"10","num_nodes":"11","size_leaf_vector":"1"}},{"base_weights":[3.7748988E-3,-2.6321497E-2,5.3595924E-1,2.8357467E-1,-4.318192E-2,2.598735E-1,1.2221205E-1,-4.595588E-3,6.667654E-2,-1.8518001E-3,-2.5926327E-2,1.1616896E-2,5.3076126E-2],"categories":[],"categories_nodes":[],"categories_segments":[],"categories_sizes":[],"default_left":[0,0,0,0,0,0,0,0,0,0,0,0,0],"id":4,"left_children":[1,3,5,7,9,11,-1,-1,-1,-1,-1,-1,-1],"loss_changes":[3.8901803E0,1.2139908E0,7.888696E-1,6.204332E-1,8.734894E-1,1.0973436E-1,0E0,0E0,0E0,0E0,0E0,0E0,0E0],"parents":[2147483647,0,0,1,1,2,2,3,3,4,4,5,5],"right_children":[2,4,6,8,10,12,-1,-1,-1,-1,-1,-1,-1],"split_conditions":[4.6536694E0,-4.9245257E0,2.8238826E0,-2.3189082E0,2.7347746E0,-1.6190659E0,1.2221205E-1,-4.595588E-3,6.667654E-2,-1.8518001E-3,-2.5926327E-2,1.1616896E-2,5.3076126E-2],"split_indices":[4,5,0,9,3,2,0,0,0,0,0,0,0],"split_type":[0,0,0,0,0,0,0,0,0,0,0,0,0],"sum_hessian":[2.41E2,2.29E2,1.2E1,1.1E1,2.18E2,7E0,5E0,4E0,7E0,1.77E2,4.1E1,3E0,4E0],"tree_param":{"num_deleted":"0","num_feature":"10","num_nodes":"13","size_leaf_vector":"1"}},{"base_weights":[4.1227434E-3,-1.3627579E-2,7.0457333E-1,-5.2181404E-2,8.70525E-2,1.2616527E-1,4.3151647E-2,-1.1493515E-2,2.0611383E-2,1.90617E-2,-3.285256E-2],"categories":[],"categories_nodes":[],"categories_segments":[],"categories_sizes":[],"default_left":[0,0,0,0,0,0,0,0,0,0,0],"id":5,"left_children":[1,3,5,7,9,-1,-1,-1,-1,-1,-1],"loss_changes":[3.018442E0,9.2448235E-1,9.954262E-2,8.075732E-1,8.3637077E-1,0E0,0E0,0E0,0E0,0E0,0E0],"parents":[2147483647,0,0,1,1,2,2,3,3,4,4],"right_children":[2,4,6,8,10,-1,-1,-1,-1,-1,-1],"split_conditions":[6.227667E0,2.4481077E0,3.580785E-2,3.2606385E0,4.05667E0,1.2616527E-1,4.3151647E-2,-1.1493515E-2,2.0611383E-2,1.90617E-2,-3.285256E-2],"split_indices":[4,0,1,4,3,0,0,0,0,0,0],"split_type":[0,0,0,0,0,0,0,0,0,0,0],"sum_hessian":[2.41E2,2.36E2,5E0,1.71E2,6.5E1,3E0,2E0,1.52E2,1.9E1,5.8E1,7E0],"tree_param":{"num_deleted":"0","num_feature":"10","num_nodes":"11","size_leaf_vector":"1"}},{"base_weights":[4.1846735E-3,-1.9524278E-2,4.2332885E-1,2.4668062E-1,-3.4021694E-2,2.0832032E-1,6.394521E-1,5.0425448E-2,-2.0076456E-2,-4.0686373E-3,-7.823949E-2,7.991213E-3,4.3603905E-2,1.11971684E-1,4.2540055E-2],"categories":[],"categories_nodes":[],"categories_segments":[],"categories_sizes":[],"default_left":[0,0,0,0,0,0,0,0,0,0,0,0,0,0,0],"id":6,"left_children":[1,3,5,7,9,11,13,-1,-1,-1,-1,-1,-1,-1,-1],"loss_changes":[2.4131324E0,8.960276E-1,4.708774E-1,4.5362633E-1,7.223542E-1,8.668524E-2,1.6810417E-2,0E0,0E0,0E0,0E0,0E0,0E0,0E0,0E0],"parents":[2147483647,0,0,1,1,2,2,3,3,4,4,5,5,6,6],"right_children":[2,4,6,8,10,12,14,-1,-1,-1,-1,-1,-1,-1,-1],"split_conditions":[4.6536694E0,-4.9245257E0,2.8238826E0,2.2015257E0,5.7827034E0,-1.6190659E0,3.580785E-2,5.0425448E-2,-2.0076456E-2,-4.0686373E-3,-7.823949E-2,7.991213E-3,4.3603905E-2,1.11971684E-1,4.2540055E-2],"split_indices":[4,5,0,2,8,2,1,0,0,0,0,0,0,0,0],"split_type":[0,0,0,0,0,0,0,0,0,0,0,0,0,0,0],"sum_hessian":[2.41E2,2.29E2,1.2E1,1.1E1,2.18E2,7E0,5E0,9E0,2E0,2.16E2,2E0,3E0,4E0,3E0,2E0],"tree_param":{"num_deleted":"0","num_feature":"10","num_nodes":"15","size_leaf_vector":"1"}},{"base_weights":[4.1939425E-3,-2.4809793E-2,2.8143862E-1,4.0716376E-2,-7.975423E-2,4.7061625E-1,-1.1553924E-2,1.4818019E-2,-5.061645E-3,-3.566001E-2,-5.02932E-3,3.8956277E-2,8.383962E-2,-9.986473E-3,3.6273688E-2],"categories":[],"categories_nodes":[],"categories_segments":[],"categories_sizes":[],"default_left":[0,0,0,0,0,0,0,0,0,0,0,0,0,0,0],"id":7,"left_children":[1,3,5,7,9,11,13,-1,-1,-1,-1,-1,-1,-1,-1],"loss_changes":[1.9529363E0,7.95313E-1,1.2802731E0,4.4005373E-1,8.683477E-1,1.1560774E-1,1.5551516E-1,0E0,0E0,0E0,0E0,0E0,0E0,0E0,0E0],"parents":[2147483647,0,0,1,1,2,2,3,3,4,4,5,5,6,6],"right_children":[2,4,6,8,10,12,14,-1,-1,-1,-1,-1,-1,-1,-1],"split_conditions":[5.1719675E0,-6.4129865E-1,3.0102177E0,5.5578774E-1,-1.4686164E0,9.259565E-1,7.713741E0,1.4818019E-2,-5.061645E-3,-3.566001E-2,-5.02932E-3,3.8956277E-2,8.383962E-2,-9.986473E-3,3.6273688E-2],"split_indices":[0,3,3,6,4,9,0,0,0,0,0,0,0,0,0],"split_type":[0,0,0,0,0,0,0,0,0,0,0,0,0,0,0],"sum_hessian":[2.41E2,2.19E2,2.2E1,1E2,1.19E2,1.3E1,9E0,5.6E1,4.4E1,2.6E1,9.3E1,5E0,8E0,8E0,1E0],"tree_param":{"num_deleted":"0","num_feature":"10","num_nodes":"15","size_leaf_vector":"1"}},{"base_weights":[4.053076E-3,-1.7474845E-2,3.092271E-1,-2.2231224E-1,-3.9926083E-3,1.367234E-1,4.6464044E-1,-7.5529064E-3,-4.683759E-2,-7.1420823E-3,9.034757E-3,8.710971E-3,4.119993E-2,8.624285E-2,3.158857E-2],"categories":[],"categories_nodes":[],"categories_segments":[],"categories_sizes":[],"default_left":[0,0,0,0,0,0,0,0,0,0,0,0,0,0,0],"id":8,"left_children":[1,3,5,7,9,11,13,-1,-1,-1,-1,-1,-1,-1,-1],"loss_changes":[1.5952863E0,6.2601066E-1,3.6542284E-1,2.007978E-1,6.023988E-1,8.169238E-2,1.031183E-1,0E0,0E0,0E0,0E0,0E0,0E0,0E0,0E0],"parents":[2147483647,0,0,1,1,2,2,3,3,4,4,5,5,6,6],"right_children":[2,4,6,8,10,12,14,-1,-1,-1,-1,-1,-1,-1,-1],"split_conditions":[4.5786953E0,-5.499448E0,-6.841861E-1,-3.8903515E0,7.500979E-1,4.395682E0,3.580785E-2,-7.5529064E-3,-4.683759E-2,-7.1420823E-3,9.034757E-3,8.710971E-3,4.119993E-2,8.624285E-2,3.158857E-2],"split_indices":[4,8,0,1,0,7,1,0,0,0,0,0,0,0,0],"split_type":[0,0,0,0,0,0,0,0,0,0,0,0,0,0,0],"sum_hessian":[2.41E2,2.26E2,1.5E1,1.3E1,2.13E2,8E0,7E0,5E0,8E0,1.27E2,8.6E1,6E0,2E0,4E0,3E0],"tree_param":{"num_deleted":"0","num_feature":"10","num_nodes":"15","size_leaf_vector":"1"}},{"base_weights":[3.9213374E-3,-1.3133559E-2,3.0536017E-1,-7.37647E-3,-6.6944174E-2,9.574372E-2,2.2442494E-1,-9.850755E-3,5.561149E-3,3.5777822E-2,5.2044336E-3],"categories":[],"categories_nodes":[],"categories_segments":[],"categories_sizes":[],"default_left":[0,0,0,0,0,0,0,0,0,0,0],"id":9,"left_children":[1,3,5,7,-1,-1,9,-1,-1,-1,-1],"loss_changes":[1.2481344E0,5.7026947E-1,2.0704782E-1,5.9324414E-1,0E0,0E0,2.3812413E-2,0E0,0E0,0E0,0E0],"parents":[2147483647,0,0,1,1,2,2,3,3,6,6],"right_children":[2,4,6,8,-1,-1,10,-1,-1,-1,-1],"split_conditions":[4.6536694E0,5.7827034E0,-2.7947006E0,-1.0862173E0,-6.6944174E-2,9.574372E-2,1.981318E0,-9.850755E-3,5.561149E-3,3.5777822E-2,5.2044336E-3],"split_indices":[4,8,8,0,0,0,6,0,0,0,0],"split_type":[0,0,0,0,0,0,0,0,0,0,0],"sum_hessian":[2.41E2,2.29E2,1.2E1,2.27E2,2E0,1E0,1.1E1,9.8E1,1.29E2,1E1,1E0],"tree_param":{"num_deleted":"0","num_feature":"10","num_nodes":"11","size_leaf_vector":"1"}},{"base_weights":[3.6037627E-3,-1.8046392E-2,2.1053551E-1,2.844532E-1,-2.6404304E-2,3.6040008E-1,-2.032845E-2,6.1171535E-2,3.773916E-3,3.8468803E-3,-1.0533162E-2,8.535892E-2,4.173029E-2,-1.5624353E-2,1.971945E-2],"categories":[],"categories_nodes":[],"categories_segments":[],"categories_sizes":[],"default_left":[0,0,0,0,0,0,0,0,0,0,0,0,0,0,0],"id":10,"left_children":[1,3,5,7,9,11,13,-1,-1,-1,-1,-1,-1,-1,-1],"loss_changes":[1.0879847E0,5.637291E-1,8.0308795E-1,1.8165398E-1,4.9214512E-1,8.180666E-2,1.4094618E-1,0E0,0E0,0E0,0E0,0E0,0E0,0E0,0E0],"parents":[2147483647,0,0,1,1,2,2,3,3,4,4,5,5,6,6],"right_children":[2,4,6,8,10,12,14,-1,-1,-1,-1,-1,-1,-1,-1],"split_conditions":[5.1719675E0,-4.981645E0,3.0102177E0,-2.8639802E-1,-6.4129865E-1,-9.184999E-1,1.5694923E0,6.1171535E-2,3.773916E-3,3.8468803E-3,-1.0533162E-2,8.535892E-2,4.173029E-2,-1.5624353E-2,1.971945E-2],"split_indices":[0,5,3,2,3,8,4,0,0,0,0,0,0,0,0],"split_type":[0,0,0,0,0,0,0,0,0,0,0,0,0,0,0],"sum_hessian":[2.41E2,2.19E2,2.2E1,5E0,2.14E2,1.3E1,9E0,3E0,2E0,9.8E1,1.16E2,2E0,1.1E1,6E0,3E0],"tree_param":{"num_deleted":"0","num_feature":"10","num_nodes":"15","size_leaf_vector":"1"}},{"base_weights":[3.8460179E-3,-1.7495463E-2,1.7443542E-1,-1.1221245E-1,1.246077E-2,2.652595E-1,3.880037E-2,1.5960328E-2,-2.065998E-2,2.9815545E-3,-5.919644E-2,2.04176E-2,9.27985E-2,-3.2822214E-2,1.6830731E-2],"categories":[],"categories_nodes":[],"categories_segments":[],"categories_sizes":[],"default_left":[0,0,0,0,0,0,0,0,0,0,0,0,0,0,0],"id":11,"left_children":[1,3,5,7,9,11,13,-1,-1,-1,-1,-1,-1,-1,-1],"loss_changes":[8.8408446E-1,6.142689E-1,3.2231885E-1,3.0477405E-1,5.060101E-1,6.460055E-1,2.5147343E-1,0E0,0E0,0E0,0E0,0E0,0E0,0E0,0E0],"parents":[2147483647,0,0,1,1,2,2,3,3,4,4,5,5,6,6],"right_children":[2,4,6,8,10,12,14,-1,-1,-1,-1,-1,-1,-1,-1],"split_conditions":[3.46245E0,-3.1283543E0,-1.1582086E0,-1.6238211E0,4.995533E0,-1.5287509E0,-9.1290975E-1,1.5960328E-2,-2.065998E-2,2.9815545E-3,-5.919644E-2,2.04176E-2,9.27985E-2,-3.2822214E-2,1.6830731E-2],"split_indices":[4,0,2,7,8,2,2,0,0,0,0,0,0,0,0],"split_type":[0,0,0,0,0,0,0,0,0,0,0,0,0,0,0],"sum_hessian":[2.41E2,2.15E2,2.6E1,5.1E1,1.64E2,1.5E1,1.1E1,5E0,4.6E1,1.62E2,2E0,1.2E1,3E0,2E0,9E0],"tree_param":{"num_deleted":"0","num_feature":"10","num_nodes":"15","size_leaf_vector":"1"}},{"base_weights":[3.4191636E-3,-1.4520732E-2,1.7486951E-1,-1.457952E-1,8.016588E-4,3.0125207E-1,-1.9553058E-2,-3.2262132E-3,-3.3623666E-2,-2.5995113E-2,1.7954578E-3,7.203402E-2,3.471061E-2,-1.0093486E-2,3.075589E-2],"categories":[],"categories_nodes":[],"categories_segments":[],"categories_sizes":[],"default_left":[0,0,0,0,0,0,0,0,0,0,0,0,0,0,0],"id":12,"left_children":[1,3,5,7,9,11,13,-1,-1,-1,-1,-1,-1,-1,-1],"loss_changes":[7.468831E-1,4.426334E-1,5.710377E-1,2.1918622E-1,3.870628E-1,6.3887954E-2,1.2101036E-1,0E0,0E0,0E0,0E0,0E0,0E0,0E0,0E0],"parents":[2147483647,0,0,1,1,2,2,3,3,4,4,5,5,6,6],"right_children":[2,4,6,8,10,12,14,-1,-1,-1,-1,-1,-1,-1,-1],"split_conditions":[5.1719675E0,-4.788518E0,3.0102177E0,-3.8903515E0,-6.254825E0,-9.184999E-1,7.713741E0,-3.2262132E-3,-3.3623666E-2,-2.5995113E-2,1.7954578E-3,7.203402E-2,3.471061E-2,-1.0093486E-2,3.075589E-2],"split_indices":[0,8,3,1,4,8,0,0,0,0,0,0,0,0,0],"split_type":[0,0,0,0,0,0,0,0,0,0,0,0,0,0,0],"sum_hessian":[2.41E2,2.19E2,2.2E1,2.2E1,1.97E2,1.3E1,9E0,9E0,1.3E1,1.1E1,1.86E2,2E0,1.1E1,8E0,1E0],"tree_param":{"num_deleted":"0","num_feature":"10","num_nodes":"15","size_leaf_vector":"1"}},{"base_weights":[3.1804845E-3,-1.4433694E-2,1.4397612E-1,-1.0245944E-1,8.680213E-3,4.0536368E-1,9.441252E-2,3.789888E-3,-2.167882E-2,2.2606975E-3,-5.3456344E-2,7.579214E-2,7.9208985E-3,1.07569474E-4,4.2257052E-2],"categories":[],"categories_nodes":[],"categories_segments":[],"categories_sizes":[],"default_left":[0,0,0,0,0,0,0,0,0,0,0,0,0,0,0],"id":13,"left_children":[1,3,5,7,9,11,13,-1,-1,-1,-1,-1,-1,-1,-1],"loss_changes":[6.0223794E-1,4.403671E-1,3.115219E-1,2.4543196E-1,4.0666577E-1,1.1422449E-1,4.209801E-1,0E0,0E0,0E0,0E0,0E0,0E0,0E0,0E0],"parents":[2147483647,0,0,1,1,2,2,3,3,4,4,5,5,6,6],"right_children":[2,4,6,8,10,12,14,-1,-1,-1,-1,-1,-1,-1,-1],"split_conditions":[3.46245E0,-3.4800005E0,3.640938E0,-1.1741179E0,5.044454E0,-3.8449223E0,-6.841861E-1,3.789888E-3,-2.167882E-2,2.2606975E-3,-5.3456344E-2,7.579214E-2,7.9208985E-3,1.07569474E-4,4.2257052E-2],"split_indices":[4,0,4,3,8,0,0,0,0,0,0,0,0,0,0],"split_type":[0,0,0,0,0,0,0,0,0,0,0,0,0,0,0],"sum_hessian":[2.41E2,2.15E2,2.6E1,4.4E1,1.71E2,3E0,2.3E1,1.1E1,3.3E1,1.69E2,2E0,2E0,1E0,1.6E1,7E0],"tree_param":{"num_deleted":"0","num_feature":"10","num_nodes":"15","size_leaf_vector":"1"}},{"base_weights":[2.938925E-3,-1.1750768E-2,1.4332125E-1,2.3717265E-1,-1.8642813E-2,2.153529E-1,-9.666055E-2,5.1344283E-2,2.6927532E-3,-8.932569E-3,2.8214506E-3,-1.8008765E-2,3.632179E-2,-1.775282E-2,8.8480493E-4],"categories":[],"categories_nodes":[],"categories_segments":[],"categories_sizes":[],"default_left":[0,0,0,0,0,0,0,0,0,0,0,0,0,0,0],"id":14,"left_children":[1,3,5,7,9,11,13,-1,-1,-1,-1,-1,-1,-1,-1],"loss_changes":[5.007301E-1,3.818517E-1,4.1840068E-1,1.3212562E-1,3.3052015E-1,1.9082773E-1,1.4046162E-2,0E0,0E0,0E0,0E0,0E0,0E0,0E0,0E0],"parents":[2147483647,0,0,1,1,2,2,3,3,4,4,5,5,6,6],"right_children":[2,4,6,8,10,12,14,-1,-1,-1,-1,-1,-1,-1,-1],"split_conditions":[5.1719675E0,-4.981645E0,4.05667E0,-2.8639802E-1,8.9725945E-3,-5.5989423E0,-2.4154562E-1,5.1344283E-2,2.6927532E-3,-8.932569E-3,2.8214506E-3,-1.8008765E-2,3.632179E-2,-1.775282E-2,8.8480493E-4],"split_indices":[0,5,3,2,4,1,1,0,0,0,0,0,0,0,0],"split_type":[0,0,0,0,0,0,0,0,0,0,0,0,0,0,0],"sum_hessian":[2.41E2,2.19E2,2.2E1,5E0,2.14E2,1.7E1,5E0,3E0,2E0,1.02E2,1.12E2,1E0,1.6E1,4E0,1E0],"tree_param":{"num_deleted":"0","num_feature":"10","num_nodes":"15","size_leaf_vector":"1"}},{"base_weights":[2.7020993E-3,-3.8661666E-3,2.6169825E-1,-1.22402355E-1,8.832431E-3,6.04467E-2,5.2081853E-2,-2.2425887E-3,-2.8561588E-2,2.0023393E-3,-4.7217447E-2,2.697927E-3,1.0902581E-2],"categories":[],"categories_nodes":[],"categories_segments":[],"categories_sizes":[],"default_left":[0,0,0,0,0,0,0,0,0,0,0,0,0],"id":15,"left_children":[1,3,5,7,9,11,-1,-1,-1,-1,-1,-1,-1],"loss_changes":[4.126914E-1,3.578238E-1,8.227122E-2,1.652281E-1,3.1844774E-1,2.5148503E-4,0E0,0E0,0E0,0E0,0E0,0E0,0E0],"parents":[2147483647,0,0,1,1,2,2,3,3,4,4,5,5],"right_children":[2,4,6,8,10,12,-1,-1,-1,-1,-1,-1,-1],"split_conditions":[6.227667E0,-4.788518E0,-4.3941503E0,-3.8903515E0,5.7827034E0,9.063832E0,5.2081853E-2,-2.2425887E-3,-2.8561588E-2,2.0023393E-3,-4.7217447E-2,2.697927E-3,1.0902581E-2],"split_indices":[4,8,2,1,8,0,0,0,0,0,0,0,0],"split_type":[0,0,0,0,0,0,0,0,0,0,0,0,0],"sum_hessian":[2.41E2,2.36E2,5E0,2.2E1,2.14E2,2E0,3E0,9E0,1.3E1,2.12E2,2E0,1E0,1E0],"tree_param":{"num_deleted":"0","num_feature":"10","num_nodes":"13","size_leaf_vector":"1"}},{"base_weights":[2.2540695E-3,-1.8160488E-2,7.366328E-2,3.5948053E-2,-4.9572468E-2,3.5155278E-2,2.055117E-1,-2.202109E-2,8.787671E-3,7.908694E-3,-1.1557163E-2,2.8739376E-2,-9.115101E-4,5.5020273E-2,1.6648889E-2],"categories":[],"categories_nodes":[],"categories_segments":[],"categories_sizes":[],"default_left":[0,0,0,0,0,0,0,0,0,0,0,0,0,0,0],"id":16,"left_children":[1,3,5,7,9,11,13,-1,-1,-1,-1,-1,-1,-1,-1],"loss_changes":[3.5412237E-1,3.2301706E-1,2.669451E-1,2.9818547E-1,3.4133935E-1,2.785297E-1,1.4222765E-1,0E0,0E0,0E0,0E0,0E0,0E0,0E0,0E0],"parents":[2147483647,0,0,1,1,2,2,3,3,4,4,5,5,6,6],"right_children":[2,4,6,8,10,12,14,-1,-1,-1,-1,-1,-1,-1,-1],"split_conditions":[2.3337114E0,-1.1741179E0,4.4063616E0,-6.49323E0,-4.1470246E0,-3.055047E0,-7.3748434E-1,-2.202109E-2,8.787671E-3,7.908694E-3,-1.1557163E-2,2.8739376E-2,-9.115101E-4,5.5020273E-2,1.6648889E-2],"split_indices":[4,3,0,4,6,0,8,0,0,0,0,0,0,0,0],"split_type":[0,0,0,0,0,0,0,0,0,0,0,0,0,0,0],"sum_hessian":[2.41E2,1.88E2,5.3E1,6.9E1,1.19E2,4.2E1,1.1E1,7E0,6.2E1,2.5E1,9.4E1,8E0,3.4E1,3E0,8E0],"tree_param":{"num_deleted":"0","num_feature":"10","num_nodes":"15","size_leaf_vector":"1"}},{"base_weights":[2.2573438E-3,1.4933968E-1,-6.0658203E-3,-1.5677484E-2,2.930226E-1,-2.1988751E-2,6.787132E-2,1.1695978E-2,-1.5811319E-2,4.7669776E-2,1.0827551E-2,-1.3873386E-2,-2.9528336E-4,1.9412158E-2,-7.1146428E-3],"categories":[],"categories_nodes":[],"categories_segments":[],"categories_sizes":[],"default_left":[0,0,0,0,0,0,0,0,0,0,0,0,0,0,0],"id":17,"left_children":[1,3,5,7,9,11,13,-1,-1,-1,-1,-1,-1,-1,-1],"loss_changes":[2.9715997E-1,3.1282577E-1,2.7227044E-1,6.704283E-2,1.5360534E-2,2.679903E-1,2.9707652E-1,0E0,0E0,0E0,0E0,0E0,0E0,0E0,0E0],"parents":[2147483647,0,0,1,1,2,2,3,3,4,4,5,5,6,6],"right_children":[2,4,6,8,10,12,14,-1,-1,-1,-1,-1,-1,-1,-1],"split_conditions":[-4.9245257E0,-1.4380015E0,3.5088053E0,4.05667E0,4.2044477E0,-2.5730758E0,2.0829651E0,1.1695978E-2,-1.5811319E-2,4.7669776E-2,1.0827551E-2,-1.3873386E-2,-2.9528336E-4,1.9412158E-2,-7.1146428E-3],"split_indices":[5,7,0,3,7,8,3,0,0,0,0,0,0,0,0],"split_type":[0,0,0,0,0,0,0,0,0,0,0,0,0,0,0],"sum_hessian":[2.41E2,1.2E1,2.29E2,6E0,6E0,1.89E2,4E1,3E0,3E0,5E0,1E0,4.1E1,1.48E2,2.6E1,1.4E1],"tree_param":{"num_deleted":"0","num_feature":"10","num_nodes":"15","size_leaf_vector":"1"}},{"base_weights":[2.1357297E-3,-9.518251E-3,9.528847E-2,-7.699191E-2,8.1900805E-3,3.589847E-1,4.736875E-2,1.962503E-2,-1.4242751E-2,-3.7622065E-3,8.212319E-3,6.488614E-2,1.0366211E-2,-2.1981485E-2,1.5916653E-2],"categories":[],"categories_nodes":[],"categories_segments":[],"categories_sizes":[],"default_left":[0,0,0,0,0,0,0,0,0,0,0,0,0,0,0],"id":18,"left_children":[1,3,5,7,9,11,13,-1,-1,-1,-1,-1,-1,-1,-1],"loss_changes":[2.6362222E-1,2.5871727E-1,3.241741E-1,1.8038514E-1,2.6781425E-1,5.5433154E-2,2.889298E-1,0E0,0E0,0E0,0E0,0E0,0E0,0E0,0E0],"parents":[2147483647,0,0,1,1,2,2,3,3,4,4,5,5,6,6],"right_children":[2,4,6,8,10,12,14,-1,-1,-1,-1,-1,-1,-1,-1],"split_conditions":[3.46245E0,-3.4800005E0,3.640938E0,-1.6238211E0,4.2946476E-1,-3.8449223E0,3.9601324E0,1.962503E-2,-1.4242751E-2,-3.7622065E-3,8.212319E-3,6.488614E-2,1.0366211E-2,-2.1981485E-2,1.5916653E-2],"split_indices":[4,0,4,7,9,0,4,0,0,0,0,0,0,0,0],"split_type":[0,0,0,0,0,0,0,0,0,0,0,0,0,0,0],"sum_hessian":[2.41E2,2.15E2,2.6E1,4.4E1,1.71E2,3E0,2.3E1,3E0,4.1E1,1E2,7.1E1,2E0,1E0,5E0,1.8E1],"tree_param":{"num_deleted":"0","num_feature":"10","num_nodes":"15","size_leaf_vector":"1"}},{"base_weights":[2.141894E-3,5.6423033E-3,-4.1790728E-2,-7.6560173E-3,8.121212E-2,3.5963174E-2,-2.0658628E-3,4.883812E-2,6.07359E-3],"categories":[],"categories_nodes":[],"categories_segments":[],"categories_sizes":[],"default_left":[0,0,0,0,0,0,0,0,0],"id":19,"left_children":[1,3,-1,5,7,-1,-1,-1,-1],"loss_changes":[2.3939227E-1,2.4181016E-1,0E0,3.1352064E-1,3.4506488E-1,0E0,0E0,0E0,0E0],"parents":[2147483647,0,0,1,1,3,3,4,4],"right_children":[2,4,-1,6,8,-1,-1,-1,-1],"split_conditions":[5.7827034E0,4.4063616E0,-4.1790728E-2,-4.981645E0,-7.3748434E-1,3.5963174E-2,-2.0658628E-3,4.883812E-2,6.07359E-3],"split_indices":[8,0,0,5,8,0,0,0,0],"split_type":[0,0,0,0,0,0,0,0,0],"sum_hessian":[2.41E2,2.39E2,2E0,2.04E2,3.5E1,4E0,2E2,4E0,3.1E1],"tree_param":{"num_deleted":"0","num_feature":"10","num_nodes":"9","size_leaf_vector":"1"}}]},"name":"gbtree"},"learner_model_param":{"base_score":"4.9813277E-1","boost_from_average":"1","num_class":"0","num_feature":"10","num_target":"1"},"objective":{"name":"reg:squarederror","reg_loss_param":{"scale_pos_weight":"1"}}},"version":[2,0,3]}