{"learner":{"attributes":{"scikit_learn":"{\"_estimator_type\": \"regressor\"}"},"feature_names":[],"feature_types":[],"gradient_booster":{"model":{"gbtree_model_param":{"num_parallel_tree":"1","num_trees":"20"},"iteration_indptr":[0,1,2,3,4,5,6,7,8,9,10,11,12,13,14,15,16,17,18,19,20],"tree_info":[0,0,0,0,0,0,0,0,0,0,0,0,0,0,0,0,0,0,0,0],"trees":[{"base_weights":[1.366966E-8,-5.7240278E-2,6.0511166E-1,-2.6439944E-1,-1.572345E-2,2.5101957E-1,1.1491338E0,6.210063E-3,-4.3889917E-2,-7.6600458E-3,2.2453416E-2,5.6845535E-2,-2.4539936E-2,8.421007E-2,2.0842408E-1],"categories":[],"categories_nodes":[],"categories_segments":[],"categories_sizes":[],"default_left":[0,0,0,0,0,0,0,0,0,0,0,0,0,0,0],"id":0,"left_children":[1,3,5,7,9,11,13,-1,-1,-1,-1,-1,-1,-1,-1],"loss_changes":[8.416735E0,1.905174E0,3.7568579E0,3.3118534E-1,1.095051E0,8.0471027E-1,3.5007858E-1,0E0,0E0,0E0,0E0,0E0,0E0,0E0,0E0],"parents":[2147483647,0,0,1,1,2,2,3,3,4,4,5,5,6,6],"right_children":[2,4,6,8,10,12,14,-1,-1,-1,-1,-1,-1,-1,-1],"split_conditions":[3.8218489E0,-3.940231E0,2.8603196E0,-2.2132175E0,1.6943394E0,3.6789763E-1,5.553287E0,6.210063E-3,-4.3889917E-2,-7.6600458E-3,2.2453416E-2,5.6845535E-2,-2.4539936E-2,8.421007E-2,2.0842408E-1],"split_indices":[4,0,0,7,4,5,4,0,0,0,0,0,0,0,0],"split_type":[0,0,0,0,0,0,0,0,0,0,0,0,0,0,0],"sum_hessian":[2.41E2,2.21E2,2E1,3.6E1,1.85E2,1.3E1,7E0,3E0,3.3E1,1.53E2,3.2E1,1E1,3E0,3E0,4E0],"tree_param":{"num_deleted":"0","num_feature":"10","num_nodes":"15","size_leaf_vector":"1"}},{"base_weights":[1.2481529E-3,-4.875734E-2,5.2981824E-1,-1.258948E-1,4.66093E-2,1.5411626E-1,9.2767876E-1,-2.6568092E-2,-3.0634998E-4,9.457711E-3,-4.1760135E-2,4.0502895E-2,-2.177919E-2,8.628125E-2,1.9688736E-1],"categories":[],"categories_nodes":[],"categories_segments":[],"categories_sizes":[],"default_left":[0,0,0,0,0,0,0,0,0,0,0,0,0,0,0],"id":1,"left_children":[1,3,5,7,9,11,13,-1,-1,-1,-1,-1,-1,-1,-1],"loss_changes":[6.4222326E0,1.6389754E0,2.9960465E0,7.8000474E-1,5.5193853E-1,4.5549777E-1,6.016636E-1,0E0,0E0,0E0,0E0,0E0,0E0,0E0,0E0],"parents":[2147483647,0,0,1,1,2,2,3,3,4,4,5,5,6,6],"right_children":[2,4,6,8,10,12,14,-1,-1,-1,-1,-1,-1,-1,-1],"split_conditions":[3.8218489E0,3.4103593E-1,-1.2499267E0,1.505197E0,4.1455383E0,9.799003E-2,7.874993E-1,-2.6568092E-2,-3.0634998E-4,9.457711E-3,-4.1760135E-2,4.0502895E-2,-2.177919E-2,8.628125E-2,1.9688736E-1],"split_indices":[4,0,0,6,8,5,7,0,0,0,0,0,0,0,0],"split_type":[0,0,0,0,0,0,0,0,0,0,0,0,0,0,0],"sum_hessian":[2.41E2,2.21E2,2E1,1.22E2,9.9E1,1.1E1,9E0,8.6E1,3.6E1,9.5E1,4E0,8E0,3E0,6E0,3E0],"tree_param":{"num_deleted":"0","num_feature":"10","num_nodes":"15","size_leaf_vector":"1"}},{"base_weights":[2.063883E-3,-3.996836E-2,4.974933E-1,8.568396E-2,-5.0849855E-2,2.677029E-1,1.6310486E-1,-1.6888595E-3,-2.5095036E-2,5.35543E-2,-1.0080015E-2],"categories":[],"categories_nodes":[],"categories_segments":[],"categories_sizes":[],"default_left":[0,0,0,0,0,0,0,0,0,0,0],"id":2,"left_children":[1,3,5,-1,7,9,-1,-1,-1,-1,-1],"loss_changes":[5.059294E0,1.5188063E0,2.2843027E0,0E0,1.0170066E0,4.7272444E-1,0E0,0E0,0E0,0E0,0E0],"parents":[2147483647,0,0,1,1,2,2,4,4,5,5],"right_children":[2,4,6,-1,8,10,-1,-1,-1,-1,-1],"split_conditions":[5.11019E0,-5.5388265E0,5.553287E0,8.568396E-2,2.426793E0,4.320872E0,1.6310486E-1,-1.6888595E-3,-2.5095036E-2,5.35543E-2,-1.0080015E-2],"split_indices":[0,5,4,0,3,3,0,0,0,0,0],"split_type":[0,0,0,0,0,0,0,0,0,0,0],"sum_hessian":[2.41E2,2.23E2,1.8E1,3E0,2.2E2,1.4E1,4E0,1.65E2,5.5E1,1.1E1,3E0],"tree_param":{"num_deleted":"0","num_feature":"10","num_nodes":"11","size_leaf_vector":"1"}},{"base_weights":[2.8513267E-3,-4.2273603E-2,3.7936127E-1,-1.3094537E-1,1.5817655E-2,1.8450095E-1,7.947343E-1,-1.3894151E-2,-5.3927843E-2,4.471429E-3,-6.59062E-2,8.561543E-3,5.9218243E-2,1.5638824E-1,6.562566E-2],"categories":[],"categories_nodes":[],"categories_segments":[],"categories_sizes":[],"default_left":[0,0,0,0,0,0,0,0,0,0,0,0,0,0,0],"id":3,"left_children":[1,3,5,7,9,11,13,-1,-1,-1,-1,-1,-1,-1,-1],"loss_changes":[4.127613E0,1.1198502E0,1.9578035E0,7.199222E-1,8.5380447E-1,4.8658407E-1,2.5218964E-1,0E0,0E0,0E0,0E0,0E0,0E0,0E0,0E0],"parents":[2147483647,0,0,1,1,2,2,3,3,4,4,5,5,6,6],"right_children":[2,4,6,8,10,12,14,-1,-1,-1,-1,-1,-1,-1,-1],"split_conditions":[3.397856E0,-1.5190078E0,5.53116E0,1.0251772E0,4.066802E0,1.5558385E0,-4.712036E-1,-1.3894151E-2,-5.3927843E-2,4.471429E-3,-6.59062E-2,8.561543E-3,5.9218243E-2,1.5638824E-1,6.562566E-2],"split_indices":[4,0,0,2,9,6,1,0,0,0,0,0,0,0,0],"split_type":[0,0,0,0,0,0,0,0,0,0,0,0,0,0,0],"sum_hessian":[2.41E2,2.16E2,2.5E1,8.5E1,1.31E2,1.8E1,7E0,7.4E1,1.1E1,1.28E2,3E0,1.2E1,6E0,3E0,4E0],"tree_param":{"num_deleted":"0","num_feature":"10","num_nodes":"15","size_leaf_vector":"1"}},{"base_weights":[3.0869958E-3,-3.3434346E-2,3.6982018E-1,7.4177176E-2,-4.2968113E-2,2.1591248E-1,1.2748858E-1,-1.0806335E-2,1.3848282E-2,4.485523E-2,-9.001907E-3],"categories":[],"categories_nodes":[],"categories_segments":[],"categories_sizes":[],"default_left":[0,0,0,0,0,0,0,0,0,0,0],"id":4,"left_children":[1,3,5,-1,7,9,-1,-1,-1,-1,-1],"loss_changes":[3.253613E0,1.1336167E0,1.442107E0,0E0,8.641404E-1,4.3078607E-1,0E0,0E0,0E0,0E0,0E0],"parents":[2147483647,0,0,1,1,2,2,4,4,5,5],"right_children":[2,4,6,-1,8,10,-1,-1,-1,-1,-1],"split_conditions":[5.06548E0,-5.5388265E0,5.553287E0,7.4177176E-2,2.0780845E0,4.320872E0,1.2748858E-1,-1.0806335E-2,1.3848282E-2,4.485523E-2,-9.001907E-3],"split_indices":[0,5,4,0,4,3,0,0,0,0,0],"split_type":[0,0,0,0,0,0,0,0,0,0,0],"sum_hessian":[2.41E2,2.2E2,2.1E1,3E0,2.17E2,1.7E1,4E0,1.79E2,3.8E1,1.3E1,4E0],"tree_param":{"num_deleted":"0","num_feature":"10","num_nodes":"11","size_leaf_vector":"1"}},{"base_weights":[3.6179875E-3,-3.1396307E-2,2.9571354E-1,-1.7239086E-1,-2.400757E-3,8.578377E-2,5.334829E-1,1.1362054E-2,-2.9476987E-2,5.7485275E-2,-1.6579868E-3,3.7671927E-2,-1.354524E-2,3.946121E-2,1.03357434E-1],"categories":[],"categories_nodes":[],"categories_segments":[],"categories_sizes":[],"default_left":[0,0,0,0,0,0,0,0,0,0,0,0,0,0,0],"id":5,"left_children":[1,3,5,7,9,11,13,-1,-1,-1,-1,-1,-1,-1,-1],"loss_changes":[2.4843442E0,8.867287E-1,1.2520225E0,2.3635519E-1,6.0818046E-1,4.5944735E-1,3.2352614E-1,0E0,0E0,0E0,0E0,0E0,0E0,0E0,0E0],"parents":[2147483647,0,0,1,1,2,2,3,3,4,4,5,5,6,6],"right_children":[2,4,6,8,10,12,14,-1,-1,-1,-1,-1,-1,-1,-1],"split_conditions":[3.397856E0,-3.940231E0,1.5558385E0,-2.2132175E0,-5.5388265E0,-4.3646654E-1,7.874993E-1,1.1362054E-2,-2.9476987E-2,5.7485275E-2,-1.6579868E-3,3.7671927E-2,-1.354524E-2,3.946121E-2,1.03357434E-1],"split_indices":[4,0,6,7,5,6,7,0,0,0,0,0,0,0,0],"split_type":[0,0,0,0,0,0,0,0,0,0,0,0,0,0,0],"sum_hessian":[2.41E2,2.16E2,2.5E1,3.6E1,1.8E2,1.4E1,1.1E1,3E0,3.3E1,3E0,1.77E2,7E0,7E0,5E0,6E0],"tree_param":{"num_deleted":"0","num_feature":"10","num_nodes":"15","size_leaf_vector":"1"}},{"base_weights":[3.9209854E-3,-2.529638E-2,2.972445E-1,6.0041055E-2,-3.298897E-2,4.9885166E-1,5.028718E-2,-3.2180762E-3,-4.4771474E-2,4.8676666E-2,1.0170394E-1,-6.9654686E-3,3.46744E-2],"categories":[],"categories_nodes":[],"categories_segments":[],"categories_sizes":[],"default_left":[0,0,0,0,0,0,0,0,0,0,0,0,0],"id":6,"left_children":[1,3,5,-1,7,9,11,-1,-1,-1,-1,-1,-1],"loss_changes":[2.0814931E0,7.3669994E-1,1.0702581E0,0E0,6.612067E-1,1.5482163E-1,2.0317864E-1,0E0,0E0,0E0,0E0,0E0,0E0],"parents":[2147483647,0,0,1,1,2,2,4,4,5,5,6,6],"right_children":[2,4,6,-1,8,10,12,-1,-1,-1,-1,-1,-1],"split_conditions":[5.06548E0,-5.5388265E0,1.8347927E0,6.0041055E-2,5.1355715E0,5.553287E0,3.3880365E0,-3.2180762E-3,-4.4771474E-2,4.8676666E-2,1.0170394E-1,-6.9654686E-3,3.46744E-2],"split_indices":[0,5,3,0,7,4,4,0,0,0,0,0,0],"split_type":[0,0,0,0,0,0,0,0,0,0,0,0,0],"sum_hessian":[2.41E2,2.2E2,2.1E1,3E0,2.17E2,1.1E1,1E1,2.09E2,8E0,7E0,4E0,7E0,3E0],"tree_param":{"num_deleted":"0","num_feature":"10","num_nodes":"13","size_leaf_vector":"1"}},{"base_weights":[4.1185464E-3,-2.0830058E-2,2.6766482E-1,-1.4276764E-1,3.538332E-3,4.143782E-1,2.6004918E-2,-1.5851196E-2,-4.7520354E-2,1.7453354E-3,-5.5169225E-2,4.4016704E-2,1.0795126E-1,-2.0746369E-2,3.9896216E-2],"categories":[],"categories_nodes":[],"categories_segments":[],"categories_sizes":[],"default_left":[0,0,0,0,0,0,0,0,0,0,0,0,0,0,0],"id":7,"left_children":[1,3,5,7,9,11,13,-1,-1,-1,-1,-1,-1,-1,-1],"loss_changes":[1.5967524E0,6.6016096E-1,7.337738E-1,2.0537436E-1,5.635392E-1,2.6878333E-1,3.9166048E-1,0E0,0E0,0E0,0E0,0E0,0E0,0E0,0E0],"parents":[2147483647,0,0,1,1,2,2,3,3,4,4,5,5,6,6],"right_children":[2,4,6,8,10,12,14,-1,-1,-1,-1,-1,-1,-1,-1],"split_conditions":[3.8218489E0,-3.940231E0,-3.2623354E-1,-4.0921187E0,6.251243E0,8.473667E0,-1.3597392E0,-1.5851196E-2,-4.7520354E-2,1.7453354E-3,-5.5169225E-2,4.4016704E-2,1.0795126E-1,-2.0746369E-2,3.9896216E-2],"split_indices":[4,0,5,0,9,4,1,0,0,0,0,0,0,0,0],"split_type":[0,0,0,0,0,0,0,0,0,0,0,0,0,0,0],"sum_hessian":[2.41E2,2.21E2,2E1,3.6E1,1.85E2,1.2E1,8E0,3.1E1,5E0,1.82E2,3E0,1E1,2E0,5E0,3E0],"tree_param":{"num_deleted":"0","num_feature":"10","num_nodes":"15","size_leaf_vector":"1"}},{"base_weights":[3.725231E-3,-2.689175E-2,1.8557113E-1,5.1504906E-2,-3.398511E-2,4.9570143E-1,1.0431309E-1,-9.586235E-3,7.6308413E-3,8.894527E-2,2.5253376E-2,2.1164047E-2,-1.5067837E-2],"categories":[],"categories_nodes":[],"categories_segments":[],"categories_sizes":[],"default_left":[0,0,0,0,0,0,0,0,0,0,0,0,0],"id":8,"left_children":[1,3,5,-1,7,9,11,-1,-1,-1,-1,-1,-1],"loss_changes":[1.3523427E0,5.5795485E-1,8.3031213E-1,0E0,5.2378666E-1,1.23049855E-1,2.3258322E-1,0E0,0E0,0E0,0E0,0E0,0E0],"parents":[2147483647,0,0,1,1,2,2,4,4,5,5,6,6],"right_children":[2,4,6,-1,8,10,12,-1,-1,-1,-1,-1,-1],"split_conditions":[4.394932E0,-5.5388265E0,-1.3617886E0,5.1504906E-2,1.6422148E0,-4.712036E-1,2.571467E0,-9.586235E-3,7.6308413E-3,8.894527E-2,2.5253376E-2,2.1164047E-2,-1.5067837E-2],"split_indices":[0,5,3,0,6,1,7,0,0,0,0,0,0],"split_type":[0,0,0,0,0,0,0,0,0,0,0,0,0],"sum_hessian":[2.41E2,2.07E2,3.4E1,3E0,2.04E2,6E0,2.8E1,1.51E2,5.3E1,4E0,2E0,2.4E1,4E0],"tree_param":{"num_deleted":"0","num_feature":"10","num_nodes":"13","size_leaf_vector":"1"}},{"base_weights":[3.8682846E-3,-3.1054089E-2,1.3206646E-1,-9.414499E-2,7.909692E-3,2.0928783E-2,3.2399353E-1,-1.0564768E-2,-4.614975E-2,2.9128455E-3,-4.917552E-2,3.6933094E-2,-2.5976223E-3,5.5874743E-2,7.3464257E-3],"categories":[],"categories_nodes":[],"categories_segments":[],"categories_sizes":[],"default_left":[0,0,0,0,0,0,0,0,0,0,0,0,0,0,0],"id":9,"left_children":[1,3,5,7,9,11,13,-1,-1,-1,-1,-1,-1,-1,-1],"loss_changes":[1.0875314E0,4.7027236E-1,1.1023965E0,3.4794748E-1,4.6620598E-1,2.972273E-1,2.3520958E-1,0E0,0E0,0E0,0E0,0E0,0E0,0E0,0E0],"parents":[2147483647,0,0,1,1,2,2,3,3,4,4,5,5,6,6],"right_children":[2,4,6,8,10,12,14,-1,-1,-1,-1,-1,-1,-1,-1],"split_conditions":[2.0780845E0,-1.5190078E0,1.5558385E0,1.5373783E0,4.066802E0,-4.678752E0,4.029923E0,-1.0564768E-2,-4.614975E-2,2.9128455E-3,-4.917552E-2,3.6933094E-2,-2.5976223E-3,5.5874743E-2,7.3464257E-3],"split_indices":[4,0,6,2,9,2,7,0,0,0,0,0,0,0,0],"split_type":[0,0,0,0,0,0,0,0,0,0,0,0,0,0,0],"sum_hessian":[2.41E2,1.9E2,5.1E1,7.2E1,1.18E2,3.3E1,1.8E1,6.6E1,6E0,1.15E2,3E0,4E0,2.9E1,1.5E1,3E0],"tree_param":{"num_deleted":"0","num_feature":"10","num_nodes":"15","size_leaf_vector":"1"}},{"base_weights":[3.2656463E-3,-1.6033042E-2,1.9698131E-1,-2.3421286E-1,-6.7389044E-3,3.4243044E-1,2.0402139E-2,1.1527323E-3,-4.5663655E-2,-1.5163704E-4,-6.1104197E-2,7.86378E-2,3.3535957E-2,-8.451109E-3,2.5318101E-2],"categories":[],"categories_nodes":[],"categories_segments":[],"categories_sizes":[],"default_left":[0,0,0,0,0,0,0,0,0,0,0,0,0,0,0],"id":10,"left_children":[1,3,5,7,9,11,13,-1,-1,-1,-1,-1,-1,-1,-1],"loss_changes":[9.078651E-1,4.46564E-1,5.5804586E-1,1.5519542E-1,4.883724E-1,1.4212155E-1,1.3477215E-1,0E0,0E0,0E0,0E0,0E0,0E0,0E0,0E0],"parents":[2147483647,0,0,1,1,2,2,3,3,4,4,5,5,6,6],"right_children":[2,4,6,8,10,12,14,-1,-1,-1,-1,-1,-1,-1,-1],"split_conditions":[5.06548E0,-5.135595E0,1.8347927E0,-5.3716574E0,9.32132E0,-5.4045444E0,3.3880365E0,1.1527323E-3,-4.5663655E-2,-1.5163704E-4,-6.1104197E-2,7.86378E-2,3.3535957E-2,-8.451109E-3,2.5318101E-2],"split_indices":[0,8,3,8,9,1,4,0,0,0,0,0,0,0,0],"split_type":[0,0,0,0,0,0,0,0,0,0,0,0,0,0,0],"sum_hessian":[2.41E2,2.2E2,2.1E1,8E0,2.12E2,1.1E1,1E1,2E0,6E0,2.1E2,2E0,3E0,8E0,7E0,3E0],"tree_param":{"num_deleted":"0","num_feature":"10","num_nodes":"15","size_leaf_vector":"1"}},{"base_weights":[2.8719702E-3,-2.5912475E-2,1.0854422E-1,4.8613373E-2,-3.1330954E-2,1.7779268E-2,2.6525286E-1,-1.3989017E-3,-1.8221637E-2,-9.421871E-3,1.5309879E-2,1.3170692E-2,4.8353326E-2],"categories":[],"categories_nodes":[],"categories_segments":[],"categories_sizes":[],"default_left":[0,0,0,0,0,0,0,0,0,0,0,0,0],"id":11,"left_children":[1,3,5,-1,7,9,11,-1,-1,-1,-1,-1,-1],"loss_changes":[7.3890823E-1,3.7238097E-1,7.3491395E-1,0E0,3.7378097E-1,2.3736627E-1,1.6421807E-1,0E0,0E0,0E0,0E0,0E0,0E0],"parents":[2147483647,0,0,1,1,2,2,4,4,5,5,6,6],"right_children":[2,4,6,-1,8,10,12,-1,-1,-1,-1,-1,-1],"split_conditions":[2.0780845E0,-5.5388265E0,1.5558385E0,4.8613373E-2,2.5759847E0,-2.0190635E0,-2.390816E0,-1.3989017E-3,-1.8221637E-2,-9.421871E-3,1.5309879E-2,1.3170692E-2,4.8353326E-2],"split_indices":[4,5,6,0,7,0,2,0,0,0,0,0,0],"split_type":[0,0,0,0,0,0,0,0,0,0,0,0,0],"sum_hessian":[2.41E2,1.9E2,5.1E1,2E0,1.88E2,3.3E1,1.8E1,1.52E2,3.6E1,1.7E1,1.6E1,5E0,1.3E1],"tree_param":{"num_deleted":"0","num_feature":"10","num_nodes":"13","size_leaf_vector":"1"}},{"base_weights":[2.8395397E-3,-1.8463427E-2,1.293589E-1,-9.976977E-2,5.2394215E-3,7.301381E-2,8.0641456E-2,-2.4303582E-2,-6.4883875E-3,5.697119E-3,-1.2109824E-2,7.28003E-4,2.8655304E-2],"categories":[],"categories_nodes":[],"categories_segments":[],"categories_sizes":[],"default_left":[0,0,0,0,0,0,0,0,0,0,0,0,0],"id":12,"left_children":[1,3,5,7,9,-1,11,-1,-1,-1,-1,-1,-1],"loss_changes":[6.546359E-1,4.0137863E-1,5.701533E-1,1.583479E-1,4.590683E-1,0E0,2.6680225E-1,0E0,0E0,0E0,0E0,0E0,0E0],"parents":[2147483647,0,0,1,1,2,2,3,3,4,4,6,6],"right_children":[2,4,6,8,10,-1,12,-1,-1,-1,-1,-1,-1],"split_conditions":[4.394932E0,-1.7998918E0,-1.9593738E0,-5.5343026E-1,2.3108776E0,7.301381E-2,2.5107288E0,-2.4303582E-2,-6.4883875E-3,5.697119E-3,-1.2109824E-2,7.28003E-4,2.8655304E-2],"split_indices":[0,6,8,3,3,0,6,0,0,0,0,0,0],"split_type":[0,0,0,0,0,0,0,0,0,0,0,0,0],"sum_hessian":[2.41E2,2.07E2,3.4E1,4.6E1,1.61E2,3E0,3.1E1,2.1E1,2.5E1,1.17E2,4.4E1,1.9E1,1.2E1],"tree_param":{"num_deleted":"0","num_feature":"10","num_nodes":"13","size_leaf_vector":"1"}},{"base_weights":[2.682993E-3,-2.133766E-2,9.306108E-2,2.5823307E-1,-2.8659554E-2,1.7775247E-1,-1.776984E-2,4.2844072E-2,1.1149259E-2,-7.88401E-3,6.031874E-3,5.6120627E-2,1.9704804E-2,-1.7416293E-2,1.8252214E-2],"categories":[],"categories_nodes":[],"categories_segments":[],"categories_sizes":[],"default_left":[0,0,0,0,0,0,0,0,0,0,0,0,0,0,0],"id":13,"left_children":[1,3,5,7,9,11,13,-1,-1,-1,-1,-1,-1,-1,-1],"loss_changes":[5.2735335E-1,4.004224E-1,4.8186624E-1,3.959298E-3,3.11576E-1,2.1503353E-1,3.29538E-1,0E0,0E0,0E0,0E0,0E0,0E0,0E0,0E0],"parents":[2147483647,0,0,1,1,2,2,3,3,4,4,5,5,6,6],"right_children":[2,4,6,8,10,12,14,-1,-1,-1,-1,-1,-1,-1,-1],"split_conditions":[2.5107288E0,-5.2481723E0,1.9751234E0,1.6211281E0,1.5366156E0,-5.4045444E0,4.9754844E0,4.2844072E-2,1.1149259E-2,-7.88401E-3,6.031874E-3,5.6120627E-2,1.9704804E-2,-1.7416293E-2,1.8252214E-2],"split_indices":[6,5,3,2,4,1,6,0,0,0,0,0,0,0,0],"split_type":[0,0,0,0,0,0,0,0,0,0,0,0,0,0,0],"sum_hessian":[2.41E2,1.91E2,5E1,4E0,1.87E2,2.8E1,2.2E1,3E0,1E0,1.39E2,4.8E1,4E0,2.4E1,1.3E1,9E0],"tree_param":{"num_deleted":"0","num_feature":"10","num_nodes":"15","size_leaf_vector":"1"}},{"base_weights":[2.812778E-3,-2.7200917E-3,3.3269855E-1,-8.616584E-2,1.3982658E-2,6.3355386E-2,4.776487E-3,-7.677219E-3,-3.295585E-2,7.28362E-2,1.3759164E-3],"categories":[],"categories_nodes":[],"categories_segments":[],"categories_sizes":[],"default_left":[0,0,0,0,0,0,0,0,0,0,0],"id":14,"left_children":[1,3,5,7,9,-1,-1,-1,-1,-1,-1],"loss_changes":[4.4260702E-1,3.3431667E-1,9.446198E-2,1.7562747E-1,4.4920632E-1,0E0,0E0,0E0,0E0,0E0,0E0],"parents":[2147483647,0,0,1,1,2,2,3,3,4,4],"right_children":[2,4,6,8,10,-1,-1,-1,-1,-1,-1],"split_conditions":[8.473667E0,-3.8755841E0,-4.712036E-1,-4.0585833E0,-3.8271518E0,6.3355386E-2,4.776487E-3,-7.677219E-3,-3.295585E-2,7.28362E-2,1.3759164E-3],"split_indices":[4,0,1,0,0,0,0,0,0,0,0],"split_type":[0,0,0,0,0,0,0,0,0,0,0],"sum_hessian":[2.41E2,2.38E2,3E0,3.9E1,1.99E2,2E0,1E0,3.2E1,7E0,1E0,1.98E2],"tree_param":{"num_deleted":"0","num_feature":"10","num_nodes":"11","size_leaf_vector":"1"}},{"base_weights":[2.8111567E-3,3.5665858E-1,-1.6236492E-3,6.691953E-2,1.33286575E-2,2.1684282E-1,-8.152032E-3,1.2995729E-2,3.773956E-2,-1.419192E-4,-2.8229179E-2],"categories":[],"categories_nodes":[],"categories_segments":[],"categories_sizes":[],"default_left":[0,0,0,0,0,0,0,0,0,0,0],"id":15,"left_children":[1,3,5,-1,-1,7,9,-1,-1,-1,-1],"loss_changes":[3.803363E-1,3.2239586E-2,3.4406358E-1,0E0,0E0,9.878188E-3,3.0340624E-1,0E0,0E0,0E0,0E0],"parents":[2147483647,0,0,1,1,2,2,5,5,6,6],"right_children":[2,4,6,-1,-1,8,10,-1,-1,-1,-1],"split_conditions":[-5.5651093E0,6.1275444E0,-5.2481723E0,6.691953E-2,1.33286575E-2,-2.5071113E0,4.63269E0,1.2995729E-2,3.773956E-2,-1.419192E-4,-2.8229179E-2],"split_indices":[1,0,5,0,0,7,9,0,0,0,0],"split_type":[0,0,0,0,0,0,0,0,0,0,0],"sum_hessian":[2.41E2,2E0,2.39E2,1E0,1E0,6E0,2.33E2,2E0,4E0,2.25E2,8E0],"tree_param":{"num_deleted":"0","num_feature":"10","num_nodes":"11","size_leaf_vector":"1"}},{"base_weights":[2.8135015E-3,-2.05832E-2,6.551657E-2,-8.020369E-2,2.8668612E-3,1.4332364E-2,1.7451452E-1,4.0617376E-3,-1.615517E-2,7.5038187E-3,-1.112779E-2,-8.009627E-3,1.1004206E-2,6.7384124E-2,2.0747624E-2],"categories":[],"categories_nodes":[],"categories_segments":[],"categories_sizes":[],"default_left":[0,0,0,0,0,0,0,0,0,0,0,0,0,0,0],"id":16,"left_children":[1,3,5,7,9,11,13,-1,-1,-1,-1,-1,-1,-1,-1],"loss_changes":[3.563734E-1,2.4769434E-1,3.65711E-1,1.5041527E-1,4.6882093E-1,1.8782656E-1,1.4668363E-1,0E0,0E0,0E0,0E0,0E0,0E0,0E0,0E0],"parents":[2147483647,0,0,1,1,2,2,3,3,4,4,5,5,6,6],"right_children":[2,4,6,8,10,12,14,-1,-1,-1,-1,-1,-1,-1,-1],"split_conditions":[1.5366156E0,-1.5217133E0,1.5558385E0,-1.5783119E0,1.3361332E0,-2.0190635E0,1.646303E0,4.0617376E-3,-1.615517E-2,7.5038187E-3,-1.112779E-2,-8.009627E-3,1.1004206E-2,6.7384124E-2,2.0747624E-2],"split_indices":[4,6,6,9,3,0,6,0,0,0,0,0,0,0,0],"split_type":[0,0,0,0,0,0,0,0,0,0,0,0,0,0,0],"sum_hessian":[2.41E2,1.76E2,6.5E1,4.9E1,1.27E2,4.5E1,2E1,1E1,3.9E1,7.9E1,4.8E1,2.1E1,2.4E1,1E0,1.9E1],"tree_param":{"num_deleted":"0","num_feature":"10","num_nodes":"15","size_leaf_vector":"1"}},{"base_weights":[2.703089E-3,-9.668482E-3,1.2092233E-1,1.0061055E-2,-7.360355E-2,7.679074E-2,5.8430392E-2,-1.0724314E-2,5.5114757E-3,4.359034E-3,-2.003904E-2,1.4255148E-2,-9.6523175E-3],"categories":[],"categories_nodes":[],"categories_segments":[],"categories_sizes":[],"default_left":[0,0,0,0,0,0,0,0,0,0,0,0,0],"id":17,"left_children":[1,3,5,7,9,11,-1,-1,-1,-1,-1,-1,-1],"loss_changes":[3.5510808E-1,2.7825058E-1,2.4273711E-1,3.7038773E-1,3.2414013E-1,6.018801E-2,0E0,0E0,0E0,0E0,0E0,0E0,0E0],"parents":[2147483647,0,0,1,1,2,2,3,3,4,4,5,5],"right_children":[2,4,6,8,10,12,-1,-1,-1,-1,-1,-1,-1],"split_conditions":[4.231961E0,2.3108776E0,3.1381526E0,-1.7998918E0,-3.2678485E0,-3.5001245E-1,5.8430392E-2,-1.0724314E-2,5.5114757E-3,4.359034E-3,-2.003904E-2,1.4255148E-2,-9.6523175E-3],"split_indices":[6,3,7,6,5,2,0,0,0,0,0,0,0],"split_type":[0,0,0,0,0,0,0,0,0,0,0,0,0],"sum_hessian":[2.41E2,2.19E2,2.2E1,1.68E2,5.1E1,2E1,2E0,4.1E1,1.27E2,1.9E1,3.2E1,1.8E1,2E0],"tree_param":{"num_deleted":"0","num_feature":"10","num_nodes":"13","size_leaf_vector":"1"}},{"base_weights":[2.4717657E-3,-6.137106E-3,1.3316183E-1,1.7877983E-1,-1.1940176E-2,5.2553E-2,7.27975E-2,9.615037E-3,3.1774744E-2,1.2832987E-3,-1.1379358E-2,1.9512923E-2,3.1096975E-3],"categories":[],"categories_nodes":[],"categories_segments":[],"categories_sizes":[],"default_left":[0,0,0,0,0,0,0,0,0,0,0,0,0],"id":18,"left_children":[1,3,5,7,9,-1,11,-1,-1,-1,-1,-1,-1],"loss_changes":[2.7309E-1,2.4679823E-1,1.7115447E-1,1.2954086E-2,2.914952E-1,0E0,3.607957E-2,0E0,0E0,0E0,0E0,0E0,0E0],"parents":[2147483647,0,0,1,1,2,2,3,3,4,4,6,6],"right_children":[2,4,6,8,10,-1,12,-1,-1,-1,-1,-1,-1],"split_conditions":[4.9754844E0,-5.2481723E0,-1.0421572E0,-2.5071113E0,2.3108776E0,5.2553E-2,-1.4892207E0,9.615037E-3,3.1774744E-2,1.2832987E-3,-1.1379358E-2,1.9512923E-2,3.1096975E-3],"split_indices":[6,5,8,7,3,0,5,0,0,0,0,0,0],"split_type":[0,0,0,0,0,0,0,0,0,0,0,0,0],"sum_hessian":[2.41E2,2.27E2,1.4E1,6E0,2.21E2,2E0,1.2E1,2E0,4E0,1.68E2,5.3E1,5E0,7E0],"tree_param":{"num_deleted":"0","num_feature":"10","num_nodes":"13","size_leaf_vector":"1"}},{"base_weights":[2.5409649E-3,-1.0186145E-2,7.8103766E-2,-4.254359E-3,-1.4087182E-1,4.773423E-2,3.685454E-2,4.385385E-5,-4.543794E-2,-2.6392123E-2,1.0480004E-2,-8.049606E-3,1.0600872E-2],"categories":[],"categories_nodes":[],"categories_segments":[],"categories_sizes":[],"default_left":[0,0,0,0,0,0,0,0,0,0,0,0,0],"id":19,"left_children":[1,3,5,7,9,-1,11,-1,-1,-1,-1,-1,-1],"loss_changes":[2.3352602E-1,1.6064218E-1,3.3494496E-1,2.7167788E-1,7.881899E-2,0E0,9.868828E-2,0E0,0E0,0E0,0E0,0E0,0E0],"parents":[2147483647,0,0,1,1,2,2,3,3,4,4,6,6],"right_children":[2,4,6,8,10,-1,12,-1,-1,-1,-1,-1,-1],"split_conditions":[4.394932E0,5.1355715E0,-1.9170806E0,9.32132E0,-2.0190635E0,4.773423E-2,-1.3618045E0,4.385385E-5,-4.543794E-2,-2.6392123E-2,1.0480004E-2,-8.049606E-3,1.0600872E-2],"split_indices":[0,7,8,9,0,0,7,0,0,0,0,0,0],"split_type":[0,0,0,0,0,0,0,0,0,0,0,0,0],"sum_hessian":[2.41E2,2.07E2,3.4E1,1.99E2,8E0,4E0,3E1,1.97E2,2E0,7E0,1E0,8E0,2.2E1],"tree_param":{"num_deleted":"0","num_feature":"10","num_nodes":"13","size_leaf_vector":"1"}}]},"name":"gbtree"},"learner_model_param":{"base_score":"4.9813277E-1","boost_from_average":"1","num_class":"0","num_feature":"10","num_target":"1"},"objective":{"name":"reg:squarederror","reg_loss_param":{"scale_pos_weight":"1"}}},"version":[2,0,3]}