{"learner":{"attributes":{"scikit_learn":"{\"_estimator_type\": \"regressor\"}"},"feature_names":[],"feature_types":[],"gradient_booster":{"model":{"gbtree_model_param":{"num_parallel_tree":"1","num_trees":"30"},"iteration_indptr":[0,1,2,3,4,5,6,7,8,9,10,11,12,13,14,15,16,17,18,19,20,21,22,23,24,25,26,27,28,29,30],"tree_info":[0,0,0,0,0,0,0,0,0,0,0,0,0,0,0,0,0,0,0,0,0,0,0,0,0,0,0,0,0,0],"trees":[{"base_weights":[1.366966E-8,-3.5979662E-2,1.213029E0,-6.917133E-2,1.7029549E-1,1.0291564E-1,2.7789876E-1,-2.4574317E-2,1.2977287E-2,-1.0824341E-2,5.6992836E-2],"categories":[],"categories_nodes":[],"categories_segments":[],"categories_sizes":[],"default_left":[0,0,0,0,0,0,0,0,0,0,0],"id":0,"left_children":[1,3,5,7,9,-1,-1,-1,-1,-1,-1],"loss_changes":[1.0605587E1,1.6275811E0,1.4776039E-1,1.4765558E0,8.6463237E-1,0E0,0E0,0E0,0E0,0E0,0E0],"parents":[2147483647,0,0,1,1,2,2,3,3,4,4],"right_children":[2,4,6,8,10,-1,-1,-1,-1,-1,-1],"split_conditions":[7.0790615E0,4.3526855E0,4.1441603E0,1.5920709E0,-3.0624719E0,1.0291564E-1,2.7789876E-1,-2.4574317E-2,1.2977287E-2,-1.0824341E-2,5.6992836E-2],"split_indices":[2,0,0,2,2,0,0,0,0,0,0],"split_type":[0,0,0,0,0,0,0,0,0,0,0],"sum_hessian":[2.41E2,2.35E2,6E0,2.03E2,3.2E1,2E0,4E0,1.45E2,5.8E1,1.1E1,2.1E1],"tree_param":{"num_deleted":"0","num_feature":"10","num_nodes":"11","size_leaf_vector":"1"}},{"base_weights":[1.7164752E-3,-2.8637245E-2,1.0248253E0,-4.812987E-1,-1.6755834E-2,8.9193545E-2,2.3343496E-1,-3.6474463E-2,-1.1703377E-1,-2.0740747E-2,1.0318744E-2],"categories":[],"categories_nodes":[],"categories_segments":[],"categories_sizes":[],"default_left":[0,0,0,0,0,0,0,0,0,0,0],"id":1,"left_children":[1,3,5,7,9,-1,-1,-1,-1,-1,-1],"loss_changes":[7.544697E0,1.2612041E0,5.6278706E-2,7.957864E-2,1.3781489E0,0E0,0E0,0E0,0E0,0E0,0E0],"parents":[2147483647,0,0,1,1,2,2,3,3,4,4],"right_children":[2,4,6,8,10,-1,-1,-1,-1,-1,-1],"split_conditions":[7.0790615E0,-6.138765E0,4.1441603E0,-3.8878608E0,-1.1377075E0,8.9193545E-2,2.3343496E-1,-3.6474463E-2,-1.1703377E-1,-2.0740747E-2,1.0318744E-2],"split_indices":[2,2,0,1,0,0,0,0,0,0,0],"split_type":[0,0,0,0,0,0,0,0,0,0,0],"sum_hessian":[2.41E2,2.35E2,6E0,5E0,2.3E2,2E0,4E0,2E0,3E0,1.01E2,1.29E2],"tree_param":{"num_deleted":"0","num_feature":"10","num_nodes":"11","size_leaf_vector":"1"}},{"base_weights":[2.0289524E-3,-2.3604423E-2,8.6595005E-1,-2.0460945E-1,-2.1994575E-4,7.3352784E-2,1.9845435E-1,-6.0772896E-2,-1.0978979E-3,-7.052231E-3,4.0650446E-2],"categories":[],"categories_nodes":[],"categories_segments":[],"categories_sizes":[],"default_left":[0,0,0,0,0,0,0,0,0,0,0],"id":2,"left_children":[1,3,5,7,9,-1,-1,-1,-1,-1,-1],"loss_changes":[5.3795824E0,9.98874E-1,7.74765E-2,5.319507E-1,1.5044482E0,0E0,0E0,0E0,0E0,0E0,0E0],"parents":[2147483647,0,0,1,1,2,2,3,3,4,4],"right_children":[2,4,6,8,10,-1,-1,-1,-1,-1,-1],"split_conditions":[7.0790615E0,-3.7825177E0,-3.8786244E0,3.507919E0,2.9243493E0,7.3352784E-2,1.9845435E-1,-6.0772896E-2,-1.0978979E-3,-7.052231E-3,4.0650446E-2],"split_indices":[2,7,1,1,4,0,0,0,0,0,0],"split_type":[0,0,0,0,0,0,0,0,0,0,0],"sum_hessian":[2.41E2,2.35E2,6E0,2.6E1,2.09E2,2E0,4E0,1.7E1,9E0,1.79E2,3E1],"tree_param":{"num_deleted":"0","num_feature":"10","num_nodes":"11","size_leaf_vector":"1"}},{"base_weights":[2.6295101E-3,-1.900333E-2,7.315896E-1,-3.9579335E-1,-9.13431E-3,5.9180595E-2,8.466837E-1,-3.06709E-2,-9.5734835E-2,-5.557141E-3,4.2623498E-2,4.8718084E-2,1.8731187E-1],"categories":[],"categories_nodes":[],"categories_segments":[],"categories_sizes":[],"default_left":[0,0,0,0,0,0,0,0,0,0,0,0,0],"id":3,"left_children":[1,3,5,7,9,-1,11,-1,-1,-1,-1,-1,-1],"loss_changes":[3.830116E0,8.7396204E-1,1.0047865E-1,4.7154367E-2,9.634872E-1,0E0,4.288006E-2,0E0,0E0,0E0,0E0,0E0,0E0],"parents":[2147483647,0,0,1,1,2,2,3,3,4,4,6,6],"right_children":[2,4,6,8,10,-1,12,-1,-1,-1,-1,-1,-1],"split_conditions":[7.0790615E0,-6.138765E0,4.1441603E0,-3.8878608E0,3.8163748E0,5.9180595E-2,-3.8786244E0,-3.06709E-2,-9.5734835E-2,-5.557141E-3,4.2623498E-2,4.8718084E-2,1.8731187E-1],"split_indices":[2,2,0,1,8,0,1,0,0,0,0,0,0],"split_type":[0,0,0,0,0,0,0,0,0,0,0,0,0],"sum_hessian":[2.41E2,2.35E2,6E0,5E0,2.3E2,2E0,4E0,2E0,3E0,2.13E2,1.7E1,1E0,3E0],"tree_param":{"num_deleted":"0","num_feature":"10","num_nodes":"13","size_leaf_vector":"1"}},{"base_weights":[2.9543152E-3,-1.558122E-2,6.274446E-1,-9.032226E-2,2.9469686E-2,5.1289845E-2,7.245529E-1,-3.0977095E-2,4.2785536E-2,-6.384788E-2,8.274598E-3,4.3846276E-2,1.592151E-1],"categories":[],"categories_nodes":[],"categories_segments":[],"categories_sizes":[],"default_left":[0,0,0,0,0,0,0,0,0,0,0,0,0],"id":4,"left_children":[1,3,5,7,9,-1,11,-1,-1,-1,-1,-1,-1],"loss_changes":[2.8109899E0,7.973096E-1,6.637597E-2,1.7813926E0,6.2752473E-1,0E0,6.1848164E-3,0E0,0E0,0E0,0E0,0E0,0E0],"parents":[2147483647,0,0,1,1,2,2,3,3,4,4,6,6],"right_children":[2,4,6,8,10,-1,12,-1,-1,-1,-1,-1,-1],"split_conditions":[7.0790615E0,-1.7746397E0,4.1441603E0,1.7694224E0,-6.234734E0,5.1289845E-2,-3.8786244E0,-3.0977095E-2,4.2785536E-2,-6.384788E-2,8.274598E-3,4.3846276E-2,1.592151E-1],"split_indices":[2,0,0,2,2,0,1,0,0,0,0,0,0],"split_type":[0,0,0,0,0,0,0,0,0,0,0,0,0],"sum_hessian":[2.41E2,2.35E2,6E0,8.8E1,1.47E2,2E0,4E0,7.3E1,1.5E1,4E0,1.43E2,1E0,3E0],"tree_param":{"num_deleted":"0","num_feature":"10","num_nodes":"13","size_leaf_vector":"1"}},{"base_weights":[3.2336449E-3,-1.2650419E-2,5.382916E-1,-3.5439584E-2,1.1087616E-1,4.44512E-2,1.2405093E-1,-2.3246178E-2,3.400425E-4,-1.2345967E-2,3.72552E-2],"categories":[],"categories_nodes":[],"categories_segments":[],"categories_sizes":[],"default_left":[0,0,0,0,0,0,0,0,0,0,0],"id":5,"left_children":[1,3,5,7,9,-1,-1,-1,-1,-1,-1],"loss_changes":[2.0635421E0,6.682854E-1,4.3467283E-2,6.003121E-1,4.9303395E-1,0E0,0E0,0E0,0E0,0E0,0E0],"parents":[2147483647,0,0,1,1,2,2,3,3,4,4],"right_children":[2,4,6,8,10,-1,-1,-1,-1,-1,-1],"split_conditions":[7.0790615E0,4.0981956E0,4.1441603E0,-1.0194352E0,-3.0624719E0,4.44512E-2,1.2405093E-1,-2.3246178E-2,3.400425E-4,-1.2345967E-2,3.72552E-2],"split_indices":[2,0,0,2,2,0,0,0,0,0,0],"split_type":[0,0,0,0,0,0,0,0,0,0,0],"sum_hessian":[2.41E2,2.35E2,6E0,1.99E2,3.6E1,2E0,4E0,6.2E1,1.37E2,1.1E1,2.5E1],"tree_param":{"num_deleted":"0","num_feature":"10","num_nodes":"11","size_leaf_vector":"1"}},{"base_weights":[3.2914768E-3,-1.01118535E-2,4.5470497E-1,-1.9618982E-2,2.3185897E-1,3.8524374E-2,5.2101386E-1,-1.7065367E-2,3.0235888E-3,5.8941927E-2,-2.7094638E-2,2.705655E-2,1.16725184E-1],"categories":[],"categories_nodes":[],"categories_segments":[],"categories_sizes":[],"default_left":[0,0,0,0,0,0,0,0,0,0,0,0,0],"id":6,"left_children":[1,3,5,7,9,-1,11,-1,-1,-1,-1,-1,-1],"loss_changes":[1.4688054E0,5.474546E-1,2.1290421E-2,5.2169734E-1,2.4770886E-1,0E0,4.1802526E-2,0E0,0E0,0E0,0E0,0E0,0E0],"parents":[2147483647,0,0,1,1,2,2,3,3,4,4,6,6],"right_children":[2,4,6,8,10,-1,12,-1,-1,-1,-1,-1,-1],"split_conditions":[7.0790615E0,6.235108E0,4.1441603E0,-1.0194352E0,4.2944245E0,3.8524374E-2,-3.8786244E0,-1.7065367E-2,3.0235888E-3,5.8941927E-2,-2.7094638E-2,2.705655E-2,1.16725184E-1],"split_indices":[2,0,0,2,5,0,1,0,0,0,0,0,0],"split_type":[0,0,0,0,0,0,0,0,0,0,0,0,0],"sum_hessian":[2.41E2,2.35E2,6E0,2.27E2,8E0,2E0,4E0,7.8E1,1.49E2,7E0,1E0,1E0,3E0],"tree_param":{"num_deleted":"0","num_feature":"10","num_nodes":"13","size_leaf_vector":"1"}},{"base_weights":[3.4600962E-3,-8.014028E-3,3.8980767E-1,-1.4740127E-1,7.7292025E-3,5.012926E-2,1.22477606E-1,2.0320684E-2,-3.4931283E-2,1.0127797E-1,-3.611803E-4],"categories":[],"categories_nodes":[],"categories_segments":[],"categories_sizes":[],"default_left":[0,0,0,0,0,0,0,0,0,0,0],"id":7,"left_children":[1,3,5,7,9,-1,-1,-1,-1,-1,-1],"loss_changes":[1.07591E0,5.19019E-1,6.332934E-2,1.8062532E-1,1.0136828E0,0E0,0E0,0E0,0E0,0E0,0E0],"parents":[2147483647,0,0,1,1,2,2,3,3,4,4],"right_children":[2,4,6,8,10,-1,-1,-1,-1,-1,-1],"split_conditions":[7.0790615E0,-4.4608645E0,7.2557254E0,-2.1837282E-1,-4.232152E0,5.012926E-2,1.22477606E-1,2.0320684E-2,-3.4931283E-2,1.0127797E-1,-3.611803E-4],"split_indices":[2,0,1,3,0,0,0,0,0,0,0],"split_type":[0,0,0,0,0,0,0,0,0,0,0],"sum_hessian":[2.41E2,2.35E2,6E0,2.3E1,2.12E2,5E0,1E0,2E0,2.1E1,3E0,2.09E2],"tree_param":{"num_deleted":"0","num_feature":"10","num_nodes":"11","size_leaf_vector":"1"}},{"base_weights":[3.8379682E-3,-6.0455143E-3,3.3650425E-1,-1.295094E-1,9.857202E-3,4.1774377E-2,1.1022984E-1,1.3653782E-2,-3.551243E-2,-3.1190177E-3,3.1465344E-2],"categories":[],"categories_nodes":[],"categories_segments":[],"categories_sizes":[],"default_left":[0,0,0,0,0,0,0,0,0,0,0],"id":8,"left_children":[1,3,5,7,9,-1,-1,-1,-1,-1,-1],"loss_changes":[7.977065E-1,4.646416E-1,7.6649845E-2,2.6872435E-1,7.906753E-1,0E0,0E0,0E0,0E0,0E0,0E0],"parents":[2147483647,0,0,1,1,2,2,3,3,4,4],"right_children":[2,4,6,8,10,-1,-1,-1,-1,-1,-1],"split_conditions":[7.0790615E0,-3.7825177E0,7.2557254E0,-1.6349205E0,2.9243493E0,4.1774377E-2,1.1022984E-1,1.3653782E-2,-3.551243E-2,-3.1190177E-3,3.1465344E-2],"split_indices":[2,7,1,3,4,0,0,0,0,0,0],"split_type":[0,0,0,0,0,0,0,0,0,0,0],"sum_hessian":[2.41E2,2.35E2,6E0,2.6E1,2.09E2,5E0,1E0,5E0,2.1E1,1.79E2,3E1],"tree_param":{"num_deleted":"0","num_feature":"10","num_nodes":"11","size_leaf_vector":"1"}},{"base_weights":[3.7252926E-3,-2.0607121E-2,1.23516075E-1,-2.6984418E-2,2.3605524E-1,4.904428E-2,3.4947422E-1,-5.827088E-2,-4.0063327E-3,7.173624E-2,6.9488445E-3,-1.6438533E-2,1.9242926E-2,7.905203E-2,2.2177387E-2],"categories":[],"categories_nodes":[],"categories_segments":[],"categories_sizes":[],"default_left":[0,0,0,0,0,0,0,0,0,0,0,0,0,0,0],"id":9,"left_children":[1,3,5,7,9,11,13,-1,-1,-1,-1,-1,-1,-1,-1],"loss_changes":[7.079267E-1,3.3700585E-1,6.7278814E-1,3.5810736E-1,1.10967636E-1,2.0600384E-1,6.541026E-2,0E0,0E0,0E0,0E0,0E0,0E0,0E0,0E0],"parents":[2147483647,0,0,1,1,2,2,3,3,4,4,5,5,6,6],"right_children":[2,4,6,8,10,12,14,-1,-1,-1,-1,-1,-1,-1,-1],"split_conditions":[4.1258E0,6.130205E0,-1.1713457E0,-6.138765E0,-1.3228709E0,-3.4679182E0,1.1987131E1,-5.827088E-2,-4.0063327E-3,7.173624E-2,6.9488445E-3,-1.6438533E-2,1.9242926E-2,7.905203E-2,2.2177387E-2],"split_indices":[0,5,9,2,0,2,2,0,0,0,0,0,0,0,0],"split_type":[0,0,0,0,0,0,0,0,0,0,0,0,0,0,0],"sum_hessian":[2.41E2,2.01E2,4E1,1.97E2,4E0,3.1E1,9E0,4E0,1.93E2,2E0,2E0,8E0,2.3E1,7E0,2E0],"tree_param":{"num_deleted":"0","num_feature":"10","num_nodes":"15","size_leaf_vector":"1"}},{"base_weights":[3.4779226E-3,-1.8272972E-2,1.0748868E-1,-6.595476E-2,2.0982126E-2,1.8629774E-2,2.661927E-1,-1.7087443E-2,4.4857245E-2,-3.9840244E-2,7.0922375E-3,-1.6854664E-2,2.8769335E-2,8.87742E-2,3.2246105E-2],"categories":[],"categories_nodes":[],"categories_segments":[],"categories_sizes":[],"default_left":[0,0,0,0,0,0,0,0,0,0,0,0,0,0,0],"id":10,"left_children":[1,3,5,7,9,11,13,-1,-1,-1,-1,-1,-1,-1,-1],"loss_changes":[5.4944724E-1,3.7760627E-1,5.8733606E-1,5.337317E-1,3.6093724E-1,3.729082E-1,2.0817709E-1,0E0,0E0,0E0,0E0,0E0,0E0,0E0,0E0],"parents":[2147483647,0,0,1,1,2,2,3,3,4,4,5,5,6,6],"right_children":[2,4,6,8,10,12,14,-1,-1,-1,-1,-1,-1,-1,-1],"split_conditions":[3.0180538E0,-1.1737368E0,1.0335121E-1,1.7694224E0,-5.386725E0,1.9803852E-1,-1.2301825E-1,-1.7087443E-2,4.4857245E-2,-3.9840244E-2,7.0922375E-3,-1.6854664E-2,2.8769335E-2,8.87742E-2,3.2246105E-2],"split_indices":[2,0,4,2,4,0,7,0,0,0,0,0,0,0,0],"split_type":[0,0,0,0,0,0,0,0,0,0,0,0,0,0,0],"sum_hessian":[2.41E2,2E2,4.1E1,9E1,1.1E2,2.7E1,1.4E1,8.5E1,5E0,6E0,1.04E2,1.5E1,1.2E1,4E0,1E1],"tree_param":{"num_deleted":"0","num_feature":"10","num_nodes":"15","size_leaf_vector":"1"}},{"base_weights":[3.3110823E-3,-7.5629503E-3,1.5737948E-1,-1.4252155E-2,1.7733553E-1,-4.151463E-2,2.5155994E-1,-1.31368935E-2,3.2383488E-3,6.884829E-2,-1.5126142E-2,-4.377515E-2,4.1761007E-2,-1.7981789E-3,6.2091827E-2],"categories":[],"categories_nodes":[],"categories_segments":[],"categories_sizes":[],"default_left":[0,0,0,0,0,0,0,0,0,0,0,0,0,0,0],"id":11,"left_children":[1,3,5,7,9,11,13,-1,-1,-1,-1,-1,-1,-1,-1],"loss_changes":[4.066237E-1,2.8328642E-1,3.101545E-1,3.4553954E-1,3.6380768E-1,3.120842E-1,1.7159986E-1,0E0,0E0,0E0,0E0,0E0,0E0,0E0,0E0],"parents":[2147483647,0,0,1,1,2,2,3,3,4,4,5,5,6,6],"right_children":[2,4,6,8,10,12,14,-1,-1,-1,-1,-1,-1,-1,-1],"split_conditions":[5.7609844E0,5.46563E0,-2.9115763E0,-1.7746397E0,-2.4580667E0,2.1422076E0,-1.2742143E0,-1.31368935E-2,3.2383488E-3,6.884829E-2,-1.5126142E-2,-4.377515E-2,4.1761007E-2,-1.7981789E-3,6.2091827E-2],"split_indices":[0,4,2,0,0,6,1,0,0,0,0,0,0,0,0],"split_type":[0,0,0,0,0,0,0,0,0,0,0,0,0,0,0],"sum_hessian":[2.41E2,2.26E2,1.5E1,2.19E2,7E0,5E0,1E1,8.1E1,1.38E2,4E0,3E0,3E0,2E0,2E0,8E0],"tree_param":{"num_deleted":"0","num_feature":"10","num_nodes":"15","size_leaf_vector":"1"}},{"base_weights":[3.070785E-3,-1.14876265E-2,1.0633315E-1,-8.812092E-2,4.0757786E-3,5.8662824E-2,3.329522E-1,-2.6213065E-2,4.0869486E-2,-2.3456475E-2,3.692317E-3,6.0528982E-2,2.7361203E-3,1.1717996E-2,9.9266075E-2],"categories":[],"categories_nodes":[],"categories_segments":[],"categories_sizes":[],"default_left":[0,0,0,0,0,0,0,0,0,0,0,0,0,0,0],"id":12,"left_children":[1,3,5,7,9,11,13,-1,-1,-1,-1,-1,-1,-1,-1],"loss_changes":[3.650288E-1,2.5439894E-1,3.0455825E-1,4.7893846E-1,3.1292385E-1,2.8120586E-1,1.9504404E-1,0E0,0E0,0E0,0E0,0E0,0E0,0E0,0E0],"parents":[2147483647,0,0,1,1,2,2,3,3,4,4,5,5,6,6],"right_children":[2,4,6,8,10,12,14,-1,-1,-1,-1,-1,-1,-1,-1],"split_conditions":[3.8940156E0,-3.8992307E0,4.575542E0,-7.3250717E-1,-3.5850117E0,3.967601E0,-2.9233494E-1,-2.6213065E-2,4.0869486E-2,-2.3456475E-2,3.692317E-3,6.0528982E-2,2.7361203E-3,1.1717996E-2,9.9266075E-2],"split_indices":[2,0,8,6,4,2,5,0,0,0,0,0,0,0,0],"split_type":[0,0,0,0,0,0,0,0,0,0,0,0,0,0,0],"sum_hessian":[2.41E2,2.12E2,2.9E1,3.5E1,1.77E2,2.5E1,4E0,3.1E1,4E0,1.8E1,1.59E2,3E0,2.2E1,2E0,2E0],"tree_param":{"num_deleted":"0","num_feature":"10","num_nodes":"15","size_leaf_vector":"1"}},{"base_weights":[3.1555537E-3,-2.1531968E-1,8.673257E-3,-1.0677751E-2,-5.6587588E-2,-4.774587E-3,1.403124E-1,-1.8543884E-3,6.352565E-2,-2.3701373E-2,4.08823E-2],"categories":[],"categories_nodes":[],"categories_segments":[],"categories_sizes":[],"default_left":[0,0,0,0,0,0,0,0,0,0,0],"id":13,"left_children":[1,3,5,-1,-1,7,9,-1,-1,-1,-1],"loss_changes":[2.9359406E-1,5.059123E-2,4.2022222E-1,0E0,0E0,3.161364E-1,3.8920602E-1,0E0,0E0,0E0,0E0],"parents":[2147483647,0,0,1,1,2,2,5,5,6,6],"right_children":[2,4,6,-1,-1,8,10,-1,-1,-1,-1],"split_conditions":[-6.138765E0,-3.8878608E0,3.8163748E0,-1.0677751E-2,-5.6587588E-2,6.130205E0,-1.8448558E0,-1.8543884E-3,6.352565E-2,-2.3701373E-2,4.08823E-2],"split_indices":[2,1,8,0,0,5,7,0,0,0,0],"split_type":[0,0,0,0,0,0,0,0,0,0,0],"sum_hessian":[2.41E2,5E0,2.36E2,2E0,3E0,2.15E2,2.1E1,2.13E2,2E0,4E0,1.7E1],"tree_param":{"num_deleted":"0","num_feature":"10","num_nodes":"11","size_leaf_vector":"1"}},{"base_weights":[2.572315E-3,-9.28645E-2,1.3505104E-2,4.3183893E-2,-1.290358E-1,-5.99622E-3,1.1564049E-1,2.5195036E-2,-5.9411093E-3,-2.7081778E-3,-3.551328E-2,-1.1041183E-2,4.665351E-3,9.157354E-3,6.2470544E-2],"categories":[],"categories_nodes":[],"categories_segments":[],"categories_sizes":[],"default_left":[0,0,0,0,0,0,0,0,0,0,0,0,0,0,0],"id":14,"left_children":[1,3,5,7,9,11,13,-1,-1,-1,-1,-1,-1,-1,-1],"loss_changes":[2.5375465E-1,1.2859844E-1,4.3490043E-1,3.9949827E-2,1.0969639E-1,2.667951E-1,4.666362E-1,0E0,0E0,0E0,0E0,0E0,0E0,0E0,0E0],"parents":[2147483647,0,0,1,1,2,2,3,3,4,4,5,5,6,6],"right_children":[2,4,6,8,10,12,14,-1,-1,-1,-1,-1,-1,-1,-1],"split_conditions":[-3.8417926E0,-1.6349205E0,2.9243493E0,1.764412E-1,-2.4065003E0,-1.1760305E0,1.1203052E0,2.5195036E-2,-5.9411093E-3,-2.7081778E-3,-3.551328E-2,-1.1041183E-2,4.665351E-3,9.157354E-3,6.2470544E-2],"split_indices":[7,3,4,2,8,0,1,0,0,0,0,0,0,0,0],"split_type":[0,0,0,0,0,0,0,0,0,0,0,0,0,0,0],"sum_hessian":[2.41E2,2.4E1,2.17E2,5E0,1.9E1,1.83E2,3.4E1,2E0,3E0,6E0,1.3E1,6.8E1,1.15E2,2.6E1,8E0],"tree_param":{"num_deleted":"0","num_feature":"10","num_nodes":"15","size_leaf_vector":"1"}},{"base_weights":[2.2491093E-3,-1.4126967E-1,8.39906E-3,-6.679915E-3,-1.979967E-1,1.3846065E-1,-3.795476E-3,-9.876097E-3,1.2142179E-2,-1.837716E-2,-5.092169E-2,-7.3413807E-3,3.985939E-2,-1.3624331E-3,6.3875936E-2],"categories":[],"categories_nodes":[],"categories_segments":[],"categories_sizes":[],"default_left":[0,0,0,0,0,0,0,0,0,0,0,0,0,0,0],"id":15,"left_children":[1,3,5,7,9,11,13,-1,-1,-1,-1,-1,-1,-1,-1],"loss_changes":[2.1478382E-1,7.50262E-2,3.70073E-1,1.4508436E-2,1.8654943E-2,2.204465E-1,2.108083E-1,0E0,0E0,0E0,0E0,0E0,0E0,0E0,0E0],"parents":[2147483647,0,0,1,1,2,2,3,3,4,4,5,5,6,6],"right_children":[2,4,6,8,10,12,14,-1,-1,-1,-1,-1,-1,-1,-1],"split_conditions":[-4.5906935E0,-3.8790345E0,-2.9629478E0,3.9947954E-1,-4.0918458E-1,-1.102256E0,6.9483194E0,-9.876097E-3,1.2142179E-2,-1.837716E-2,-5.092169E-2,-7.3413807E-3,3.985939E-2,-1.3624331E-3,6.3875936E-2],"split_indices":[2,1,3,0,8,8,5,0,0,0,0,0,0,0,0],"split_type":[0,0,0,0,0,0,0,0,0,0,0,0,0,0,0],"sum_hessian":[2.41E2,9E0,2.32E2,3E0,6E0,1.9E1,2.13E2,2E0,1E0,3E0,3E0,5E0,1.4E1,2.12E2,1E0],"tree_param":{"num_deleted":"0","num_feature":"10","num_nodes":"15","size_leaf_vector":"1"}},{"base_weights":[1.9149923E-3,-8.132918E-3,7.319132E-2,-1.1770045E-2,1.848495E-1,-1.4090098E-1,9.3515806E-2,-5.3363927E-3,7.554157E-3,4.561418E-2,5.518529E-3,-3.6353953E-2,-5.9163454E-3,3.0466253E-2,4.7639105E-3],"categories":[],"categories_nodes":[],"categories_segments":[],"categories_sizes":[],"default_left":[0,0,0,0,0,0,0,0,0,0,0,0,0,0,0],"id":16,"left_children":[1,3,5,7,9,11,13,-1,-1,-1,-1,-1,-1,-1,-1],"loss_changes":[1.7391038E-1,1.5168072E-1,1.4371593E-1,1.5614504E-1,2.0894364E-2,8.2713775E-3,1.1114961E-1,0E0,0E0,0E0,0E0,0E0,0E0,0E0,0E0],"parents":[2147483647,0,0,1,1,2,2,3,3,4,4,5,5,6,6],"right_children":[2,4,6,8,10,12,14,-1,-1,-1,-1,-1,-1,-1,-1],"split_conditions":[3.8940156E0,6.0482736E0,-3.2599707E0,3.556959E0,-2.5618598E0,-7.621102E-1,4.99858E0,-5.3363927E-3,7.554157E-3,4.561418E-2,5.518529E-3,-3.6353953E-2,-5.9163454E-3,3.0466253E-2,4.7639105E-3],"split_indices":[2,4,8,1,0,0,2,0,0,0,0,0,0,0,0],"split_type":[0,0,0,0,0,0,0,0,0,0,0,0,0,0,0],"sum_hessian":[2.41E2,2.12E2,2.9E1,2.09E2,3E0,2E0,2.7E1,1.61E2,4.8E1,2E0,1E0,1E0,1E0,1.4E1,1.3E1],"tree_param":{"num_deleted":"0","num_feature":"10","num_nodes":"15","size_leaf_vector":"1"}},{"base_weights":[1.7233662E-3,-7.4101835E-2,1.0411011E-2,-1.4485863E-1,-1.7273394E-2,-6.036539E-3,9.10338E-2,-4.2525496E-2,-4.202103E-3,1.3509427E-2,-2.4772147E-2,5.529231E-2,-1.8249428E-3,6.8899775E-3,4.8073076E-2],"categories":[],"categories_nodes":[],"categories_segments":[],"categories_sizes":[],"default_left":[0,0,0,0,0,0,0,0,0,0,0,0,0,0,0],"id":17,"left_children":[1,3,5,7,9,11,13,-1,-1,-1,-1,-1,-1,-1,-1],"loss_changes":[1.6018713E-1,9.802276E-2,2.8962785E-1,8.785607E-2,1.4397836E-1,1.6130005E-1,3.043607E-1,0E0,0E0,0E0,0E0,0E0,0E0,0E0,0E0],"parents":[2147483647,0,0,1,1,2,2,3,3,4,4,5,5,6,6],"right_children":[2,4,6,8,10,12,14,-1,-1,-1,-1,-1,-1,-1,-1],"split_conditions":[-3.8417926E0,1.6794328E-1,2.7968743E0,3.507919E0,-4.3138576E0,-7.0603037E0,1.1203052E0,-4.2525496E-2,-4.202103E-3,1.3509427E-2,-2.4772147E-2,5.529231E-2,-1.8249428E-3,6.8899775E-3,4.8073076E-2],"split_indices":[7,6,4,1,7,1,1,0,0,0,0,0,0,0,0],"split_type":[0,0,0,0,0,0,0,0,0,0,0,0,0,0,0],"sum_hessian":[2.41E2,2.4E1,2.17E2,1E1,1.4E1,1.81E2,3.6E1,6E0,4E0,8E0,6E0,1E0,1.8E2,2.7E1,9E0],"tree_param":{"num_deleted":"0","num_feature":"10","num_nodes":"15","size_leaf_vector":"1"}},{"base_weights":[1.5871176E-3,4.407383E-3,-4.4912633E-2,9.208564E-2,-4.863292E-3,2.2152455E-3,3.3084247E-2,4.976308E-2,-1.4357866E-3],"categories":[],"categories_nodes":[],"categories_segments":[],"categories_sizes":[],"default_left":[0,0,0,0,0,0,0,0,0],"id":18,"left_children":[1,3,-1,5,7,-1,-1,-1,-1],"loss_changes":[1.5533827E-1,1.9552861E-1,0E0,1.3480788E-1,1.298457E-1,0E0,0E0,0E0,0E0],"parents":[2147483647,0,0,1,1,3,3,4,4],"right_children":[2,4,-1,6,8,-1,-1,-1,-1],"split_conditions":[7.1252246E0,-2.9629478E0,-4.4912633E-2,6.366616E-1,-7.0603037E0,2.2152455E-3,3.3084247E-2,4.976308E-2,-1.4357866E-3],"split_indices":[7,3,0,4,1,0,0,0,0],"split_type":[0,0,0,0,0,0,0,0,0],"sum_hessian":[2.41E2,2.39E2,2E0,2.2E1,2.17E2,1.1E1,1.1E1,1E0,2.16E2],"tree_param":{"num_deleted":"0","num_feature":"10","num_nodes":"9","size_leaf_vector":"1"}},{"base_weights":[1.4296788E-3,-8.814566E-3,5.8426566E-2,-1.2759698E-2,1.5233167E-1,2.064191E-2,2.5020698E-1,-1.0790086E-2,8.4113417E-4,4.965131E-2,1.125912E-3,3.7655883E-2,-6.384588E-4,6.3075736E-2,1.5981814E-2],"categories":[],"categories_nodes":[],"categories_segments":[],"categories_sizes":[],"default_left":[0,0,0,0,0,0,0,0,0,0,0,0,0,0,0],"id":19,"left_children":[1,3,5,7,9,11,13,-1,-1,-1,-1,-1,-1,-1,-1],"loss_changes":[1.418164E-1,1.3290676E-1,2.6295045E-1,1.4138775E-1,6.896432E-2,1.2845725E-1,4.1389972E-2,0E0,0E0,0E0,0E0,0E0,0E0,0E0,0E0],"parents":[2147483647,0,0,1,1,2,2,3,3,4,4,5,5,6,6],"right_children":[2,4,6,8,10,12,14,-1,-1,-1,-1,-1,-1,-1,-1],"split_conditions":[4.3526855E0,6.130205E0,1.1367862E0,-1.1564504E0,-1.3228709E0,-4.8224273E0,1.1064385E0,-1.0790086E-2,8.4113417E-4,4.965131E-2,1.125912E-3,3.7655883E-2,-6.384588E-4,6.3075736E-2,1.5981814E-2],"split_indices":[0,5,9,2,0,6,7,0,0,0,0,0,0,0,0],"split_type":[0,0,0,0,0,0,0,0,0,0,0,0,0,0,0],"sum_hessian":[2.41E2,2.05E2,3.6E1,2.01E2,4E0,3.1E1,5E0,5.8E1,1.43E2,2E0,2E0,3E0,2.8E1,3E0,2E0],"tree_param":{"num_deleted":"0","num_feature":"10","num_nodes":"15","size_leaf_vector":"1"}},{"base_weights":[1.7921003E-3,5.1978626E-3,-1.6068062E-1,-2.9831196E-3,8.987673E-2,-2.9333264E-3,-3.870349E-2,-1.5446292E-3,4.0097326E-2,2.638477E-2,-4.1276123E-2],"categories":[],"categories_nodes":[],"categories_segments":[],"categories_sizes":[],"default_left":[0,0,0,0,0,0,0,0,0,0,0],"id":20,"left_children":[1,3,5,7,9,-1,-1,-1,-1,-1,-1],"loss_changes":[1.347443E-1,1.6514413E-1,2.1134958E-2,2.1179894E-1,2.888187E-1,0E0,0E0,0E0,0E0,0E0,0E0],"parents":[2147483647,0,0,1,1,2,2,3,3,4,4],"right_children":[2,4,6,8,10,-1,-1,-1,-1,-1,-1],"split_conditions":[7.8760567E0,3.8163748E0,-3.882024E-1,6.6412964E0,2.9064403E0,-2.9333264E-3,-3.870349E-2,-1.5446292E-3,4.0097326E-2,2.638477E-2,-4.1276123E-2],"split_indices":[8,8,0,0,3,0,0,0,0,0,0],"split_type":[0,0,0,0,0,0,0,0,0,0,0],"sum_hessian":[2.41E2,2.37E2,4E0,2.17E2,2E1,1E0,3E0,2.13E2,4E0,1.8E1,2E0],"tree_param":{"num_deleted":"0","num_feature":"10","num_nodes":"11","size_leaf_vector":"1"}},{"base_weights":[1.3594067E-3,6.545108E-2,-5.670545E-3,-6.311156E-2,9.431918E-2,-8.177732E-2,1.1393186E-3,-2.2105912E-2,1.2656042E-2,-6.0710288E-3,2.7580192E-2,-2.3758389E-2,2.8578622E-2,-2.2547382E-3,1.6402312E-2],"categories":[],"categories_nodes":[],"categories_segments":[],"categories_sizes":[],"default_left":[0,0,0,0,0,0,0,0,0,0,0,0,0,0,0],"id":21,"left_children":[1,3,5,7,9,11,13,-1,-1,-1,-1,-1,-1,-1,-1],"loss_changes":[1.09407E-1,9.502525E-2,1.1359579E-1,3.6960557E-2,1.128566E-1,1.6666421E-1,2.0370588E-1,0E0,0E0,0E0,0E0,0E0,0E0,0E0,0E0],"parents":[2147483647,0,0,1,1,2,2,3,3,4,4,5,5,6,6],"right_children":[2,4,6,8,10,12,14,-1,-1,-1,-1,-1,-1,-1,-1],"split_conditions":[-2.9629478E0,-4.5906935E0,-3.3953927E0,-1.444946E0,-1.102256E0,5.880448E0,3.618505E0,-2.2105912E-2,1.2656042E-2,-6.0710288E-3,2.7580192E-2,-2.3758389E-2,2.8578622E-2,-2.2547382E-3,1.6402312E-2],"split_indices":[3,2,2,6,8,8,5,0,0,0,0,0,0,0,0],"split_type":[0,0,0,0,0,0,0,0,0,0,0,0,0,0,0],"sum_hessian":[2.41E2,2.3E1,2.18E2,4E0,1.9E1,1.7E1,2.01E2,3E0,1E0,5E0,1.4E1,1.5E1,2E0,1.75E2,2.6E1],"tree_param":{"num_deleted":"0","num_feature":"10","num_nodes":"15","size_leaf_vector":"1"}},{"base_weights":[1.2157267E-3,-9.825347E-3,3.893402E-2,-9.663467E-2,1.669446E-3,-1.7642755E-4,9.760771E-2,-4.4765724E-3,-4.028006E-2,7.3946506E-2,-5.5502116E-4,7.5335475E-3,-2.5575686E-2,2.3686218E-3,2.9154023E-2],"categories":[],"categories_nodes":[],"categories_segments":[],"categories_sizes":[],"default_left":[0,0,0,0,0,0,0,0,0,0,0,0,0,0,0],"id":22,"left_children":[1,3,5,7,9,11,13,-1,-1,-1,-1,-1,-1,-1,-1],"loss_changes":[1.0116355E-1,1.8775812E-1,1.2622872E-1,1.666309E-1,2.7421728E-1,1.6913126E-1,8.914746E-2,0E0,0E0,0E0,0E0,0E0,0E0,0E0,0E0],"parents":[2147483647,0,0,1,1,2,2,3,3,4,4,5,5,6,6],"right_children":[2,4,6,8,10,12,14,-1,-1,-1,-1,-1,-1,-1,-1],"split_conditions":[3.556959E0,-3.1994007E0,1.2662077E0,1.5787195E0,-3.148863E0,1.6986485E0,-1.7993385E0,-4.4765724E-3,-4.028006E-2,7.3946506E-2,-5.5502116E-4,7.5335475E-3,-2.5575686E-2,2.3686218E-3,2.9154023E-2],"split_indices":[1,7,9,9,7,2,8,0,0,0,0,0,0,0,0],"split_type":[0,0,0,0,0,0,0,0,0,0,0,0,0,0,0],"sum_hessian":[2.41E2,1.87E2,5.4E1,2.1E1,1.66E2,3.3E1,2.1E1,1.3E1,8E0,1E0,1.65E2,2.6E1,7E0,8E0,1.3E1],"tree_param":{"num_deleted":"0","num_feature":"10","num_nodes":"15","size_leaf_vector":"1"}},{"base_weights":[1.1466113E-3,3.935134E-3,-1.3181639E-1,1.7964143E-3,5.108117E-2,-3.641356E-2,-7.5252354E-3,-5.4992666E-4,2.1053331E-2],"categories":[],"categories_nodes":[],"categories_segments":[],"categories_sizes":[],"default_left":[0,0,0,0,0,0,0,0,0],"id":23,"left_children":[1,3,5,7,-1,-1,-1,-1,-1],"loss_changes":[9.024513E-2,1.2754361E-1,1.6815431E-2,1.1176965E-1,0E0,0E0,0E0,0E0,0E0],"parents":[2147483647,0,0,1,1,2,2,3,3],"right_children":[2,4,6,8,-1,-1,-1,-1,-1],"split_conditions":[7.8760567E0,6.9483194E0,9.21537E0,4.621449E0,5.108117E-2,-3.641356E-2,-7.5252354E-3,-5.4992666E-4,2.1053331E-2],"split_indices":[8,5,8,8,0,0,0,0,0],"split_type":[0,0,0,0,0,0,0,0,0],"sum_hessian":[2.41E2,2.37E2,4E0,2.36E2,1E0,2E0,2E0,2.27E2,9E0],"tree_param":{"num_deleted":"0","num_feature":"10","num_nodes":"9","size_leaf_vector":"1"}},{"base_weights":[1.0315162E-3,3.4891772E-3,-1.4607161E-1,-1.0656352E-3,1.2000834E-1,-4.689831E-3,-3.5825875E-2,-6.1381934E-4,4.597305E-2,-1.1287502E-2,3.569679E-2],"categories":[],"categories_nodes":[],"categories_segments":[],"categories_sizes":[],"default_left":[0,0,0,0,0,0,0,0,0,0,0],"id":24,"left_children":[1,3,5,7,9,-1,-1,-1,-1,-1,-1],"loss_changes":[8.7999836E-2,1.2697066E-1,1.2014076E-2,1.075802E-1,1.029332E-1,0E0,0E0,0E0,0E0,0E0,0E0],"parents":[2147483647,0,0,1,1,2,2,3,3,4,4],"right_children":[2,4,6,8,10,-1,-1,-1,-1,-1,-1],"split_conditions":[5.9978323E0,4.9676666E0,-3.882024E-1,6.9483194E0,2.660165E0,-4.689831E-3,-3.5825875E-2,-6.1381934E-4,4.597305E-2,-1.1287502E-2,3.569679E-2],"split_indices":[3,9,0,5,0,0,0,0,0,0,0],"split_type":[0,0,0,0,0,0,0,0,0,0,0],"sum_hessian":[2.41E2,2.38E2,3E0,2.3E2,8E0,1E0,2E0,2.29E2,1E0,2E0,6E0],"tree_param":{"num_deleted":"0","num_feature":"10","num_nodes":"11","size_leaf_vector":"1"}},{"base_weights":[9.460845E-4,-1.459938E-2,2.2792717E-2,-3.344794E-2,2.3009218E-2,-7.970237E-4,1.1837102E-1,-1.626217E-4,-1.7874029E-2,2.0419655E-2,-1.856762E-3,-2.2988692E-2,4.0825973E-3,5.1163107E-2,1.0846754E-3],"categories":[],"categories_nodes":[],"categories_segments":[],"categories_sizes":[],"default_left":[0,0,0,0,0,0,0,0,0,0,0,0,0,0,0],"id":25,"left_children":[1,3,5,7,9,11,13,-1,-1,-1,-1,-1,-1,-1,-1],"loss_changes":[8.251984E-2,1.0142887E-1,2.2781575E-1,1.7330343E-1,1.23541065E-1,2.0087217E-1,3.0909333E-1,0E0,0E0,0E0,0E0,0E0,0E0,0E0,0E0],"parents":[2147483647,0,0,1,1,2,2,3,3,4,4,5,5,6,6],"right_children":[2,4,6,8,10,12,14,-1,-1,-1,-1,-1,-1,-1,-1],"split_conditions":[7.3292655E-1,3.556959E0,1.1203052E0,5.411895E-1,-2.9209387E0,-3.2263074E0,-1.0875953E0,-1.626217E-4,-1.7874029E-2,2.0419655E-2,-1.856762E-3,-2.2988692E-2,4.0825973E-3,5.1163107E-2,1.0846754E-3],"split_indices":[4,1,1,1,4,0,9,0,0,0,0,0,0,0,0],"split_type":[0,0,0,0,0,0,0,0,0,0,0,0,0,0,0],"sum_hessian":[2.41E2,1.41E2,1E2,9.4E1,4.7E1,8.1E1,1.9E1,6E1,3.4E1,1.3E1,3.4E1,1.2E1,6.9E1,8E0,1.1E1],"tree_param":{"num_deleted":"0","num_feature":"10","num_nodes":"15","size_leaf_vector":"1"}},{"base_weights":[8.968162E-4,6.27576E-2,-4.0560323E-3,2.4110252E-2,4.959152E-2,2.1144638E-2,-2.0703124E-2,-3.5205248E-3,2.3879822E-2,1.1856827E-3,2.845632E-2,-7.832988E-3,5.587918E-3],"categories":[],"categories_nodes":[],"categories_segments":[],"categories_sizes":[],"default_left":[0,0,0,0,0,0,0,0,0,0,0,0,0],"id":26,"left_children":[1,3,5,7,-1,9,11,-1,-1,-1,-1,-1,-1],"loss_changes":[7.4400224E-2,1.22856475E-1,9.4829276E-2,6.5698095E-2,0E0,1.6504875E-1,1.2322673E-1,0E0,0E0,0E0,0E0,0E0,0E0],"parents":[2147483647,0,0,1,1,2,2,3,3,5,5,6,6],"right_children":[2,4,6,8,-1,10,12,-1,-1,-1,-1,-1,-1],"split_conditions":[-4.122349E0,6.6412964E0,-1.4962834E0,-4.531266E0,4.959152E-2,2.9243493E0,3.5726478E0,-3.5205248E-3,2.3879822E-2,1.1856827E-3,2.845632E-2,-7.832988E-3,5.587918E-3],"split_indices":[9,0,5,9,0,4,1,0,0,0,0,0,0],"split_type":[0,0,0,0,0,0,0,0,0,0,0,0,0],"sum_hessian":[2.41E2,1.7E1,2.24E2,1.5E1,2E0,8.9E1,1.35E2,1.1E1,4E0,8E1,9E0,9.8E1,3.7E1],"tree_param":{"num_deleted":"0","num_feature":"10","num_nodes":"13","size_leaf_vector":"1"}},{"base_weights":[1.1197187E-3,3.9235063E-2,-5.036461E-4,-1.1179361E-1,3.7972694E-3,3.0411854E-2,-3.2756526E-2,3.458285E-2,3.1690134E-4],"categories":[],"categories_nodes":[],"categories_segments":[],"categories_sizes":[],"default_left":[0,0,0,0,0,0,0,0,0],"id":27,"left_children":[1,-1,3,5,7,-1,-1,-1,-1],"loss_changes":[7.672723E-2,0E0,1.1577885E-1,1.4836173E-1,8.691827E-2,0E0,0E0,0E0,0E0],"parents":[2147483647,0,0,2,2,3,3,4,4],"right_children":[2,-1,4,6,8,-1,-1,-1,-1],"split_conditions":[-7.0603037E0,3.9235063E-2,-5.386725E0,7.2472656E-1,-5.3301883E0,3.0411854E-2,-3.2756526E-2,3.458285E-2,3.1690134E-4],"split_indices":[1,0,4,2,4,0,0,0,0],"split_type":[0,0,0,0,0,0,0,0,0],"sum_hessian":[2.41E2,1E0,2.4E2,8E0,2.32E2,1E0,7E0,2E0,2.3E2],"tree_param":{"num_deleted":"0","num_feature":"10","num_nodes":"9","size_leaf_vector":"1"}},{"base_weights":[1.1924299E-3,3.2918015E-3,-1.2454314E-1,1.5527298E-3,4.171909E-2,-3.4529746E-3,-3.0909522E-2,-5.201964E-3,2.9287727E-3],"categories":[],"categories_nodes":[],"categories_segments":[],"categories_sizes":[],"default_left":[0,0,0,0,0,0,0,0,0],"id":28,"left_children":[1,3,5,7,-1,-1,-1,-1,-1],"loss_changes":[6.428967E-2,8.500815E-2,1.0207064E-2,8.6257234E-2,0E0,0E0,0E0,0E0,0E0],"parents":[2147483647,0,0,1,1,2,2,3,3],"right_children":[2,4,6,8,-1,-1,-1,-1,-1],"split_conditions":[5.9978323E0,6.9483194E0,-3.882024E-1,-1.832393E0,4.171909E-2,-3.4529746E-3,-3.0909522E-2,-5.201964E-3,2.9287727E-3],"split_indices":[3,5,0,7,0,0,0,0,0],"split_type":[0,0,0,0,0,0,0,0,0],"sum_hessian":[2.41E2,2.38E2,3E0,2.37E2,1E0,1E0,2E0,7.6E1,1.61E2],"tree_param":{"num_deleted":"0","num_feature":"10","num_nodes":"9","size_leaf_vector":"1"}},{"base_weights":[9.7494514E-4,3.501868E-2,-4.7406653E-4,-5.7752386E-2,5.833978E-3,6.863095E-3,-1.8069617E-2,-1.4940363E-2,1.8515462E-3],"categories":[],"categories_nodes":[],"categories_segments":[],"categories_sizes":[],"default_left":[0,0,0,0,0,0,0,0,0],"id":29,"left_children":[1,-1,3,5,7,-1,-1,-1,-1],"loss_changes":[6.113952E-2,0E0,8.741364E-2,7.512473E-2,6.0801733E-2,0E0,0E0,0E0,0E0],"parents":[2147483647,0,0,2,2,3,3,4,4],"right_children":[2,-1,4,6,8,-1,-1,-1,-1],"split_conditions":[-7.0603037E0,3.501868E-2,-3.5850117E0,-2.6651251E0,-4.448688E0,6.863095E-3,-1.8069617E-2,-1.4940363E-2,1.8515462E-3],"split_indices":[1,0,4,7,8,0,0,0,0],"split_type":[0,0,0,0,0,0,0,0,0],"sum_hessian":[2.41E2,1E0,2.4E2,2.3E1,2.17E2,6E0,1.7E1,8E0,2.09E2],"tree_param":{"num_deleted":"0","num_feature":"10","num_nodes":"9","size_leaf_vector":"1"}}]},"name":"gbtree"},"learner_model_param":{"base_score":"4.9813277E-1","boost_from_average":"1","num_class":"0","num_feature":"10","num_target":"1"},"objective":{"name":"reg:squarederror","reg_loss_param":{"scale_pos_weight":"1"}}},"version":[2,0,3]}