{"learner":{"attributes":{"scikit_learn":"{\"_estimator_type\": \"regressor\"}"},"feature_names":[],"feature_types":[],"gradient_booster":{"model":{"gbtree_model_param":{"num_parallel_tree":"1","num_trees":"50"},"iteration_indptr":[0,1,2,3,4,5,6,7,8,9,10,11,12,13,14,15,16,17,18,19,20,21,22,23,24,25,26,27,28,29,30,31,32,33,34,35,36,37,38,39,40,41,42,43,44,45,46,47,48,49,50],"tree_info":[0,0,0,0,0,0,0,0,0,0,0,0,0,0,0,0,0,0,0,0,0,0,0,0,0,0,0,0,0,0,0,0,0,0,0,0,0,0,0,0,0,0,0,0,0,0,0,0,0,0],"trees":[{"base_weights":[1.366966E-8,-3.282419E-2,1.9448341E-1,-1.1605715E-1,7.47339E-2,-2.5528066E-2,1.5714157E-2,5.945558E-3,6.010208E-2],"categories":[],"categories_nodes":[],"categories_segments":[],"categories_sizes":[],"default_left":[0,0,0,0,0,0,0,0,0],"id":0,"left_children":[1,3,-1,5,7,-1,-1,-1,-1],"loss_changes":[1.0341696E1,2.1303868E0,0E0,1.6195142E0,1.1738467E0,0E0,0E0,0E0,0E0],"parents":[2147483647,0,0,1,1,3,3,4,4],"right_children":[2,4,-1,6,8,-1,-1,-1,-1],"split_conditions":[6.2286215E0,3.166963E-1,1.9448341E-1,3.0871196E0,2.8662665E0,-2.5528066E-2,1.5714157E-2,5.945558E-3,6.010208E-2],"split_indices":[4,0,0,4,4,0,0,0,0],"split_type":[0,0,0,0,0,0,0,0,0],"sum_hessian":[2.41E2,2.36E2,5E0,1.33E2,1.03E2,1.07E2,2.6E1,9.4E1,9E0],"tree_param":{"num_deleted":"0","num_feature":"10","num_nodes":"9","size_leaf_vector":"1"}},{"base_weights":[1.0360308E-3,-2.7663289E-2,1.1344864E0,-5.1092006E-2,2.6022458E-1,4.7803793E-2,1.8508606E-1,5.3169704E-3,-1.8725775E-2,6.074347E-2,-1.4509792E-2],"categories":[],"categories_nodes":[],"categories_segments":[],"categories_sizes":[],"default_left":[0,0,0,0,0,0,0,0,0,0,0],"id":1,"left_children":[1,3,5,7,9,-1,-1,-1,-1,-1,-1],"loss_changes":[7.9034634E0,1.6118234E0,9.340477E-2,1.4084451E0,9.6910584E-1,0E0,0E0,0E0,0E0,0E0,0E0],"parents":[2147483647,0,0,1,1,2,2,3,3,4,4],"right_children":[2,4,6,8,10,-1,-1,-1,-1,-1,-1],"split_conditions":[6.2286215E0,5.170973E0,-2.7677414E0,-6.7006177E-1,4.2233872E0,4.7803793E-2,1.8508606E-1,5.3169704E-3,-1.8725775E-2,6.074347E-2,-1.4509792E-2],"split_indices":[4,0,0,3,3,0,0,0,0,0,0],"split_type":[0,0,0,0,0,0,0,0,0,0,0],"sum_hessian":[2.41E2,2.36E2,5E0,2.19E2,1.7E1,1E0,4E0,1.01E2,1.18E2,1.2E1,5E0],"tree_param":{"num_deleted":"0","num_feature":"10","num_nodes":"11","size_leaf_vector":"1"}},{"base_weights":[1.9786248E-3,-3.62404E-2,6.7800915E-1,-8.4319174E-2,8.97814E-2,3.761031E-1,1.6287574E-1,-1.920684E-3,-2.3481172E-2,1.639528E-2,-5.153526E-2,6.3000925E-2,1.8659123E-3],"categories":[],"categories_nodes":[],"categories_segments":[],"categories_sizes":[],"default_left":[0,0,0,0,0,0,0,0,0,0,0,0,0],"id":2,"left_children":[1,3,5,7,9,11,-1,-1,-1,-1,-1,-1,-1],"loss_changes":[6.27718E0,1.4011343E0,1.1922512E0,8.605381E-1,5.789404E-1,1.3846886E-1,0E0,0E0,0E0,0E0,0E0,0E0,0E0],"parents":[2147483647,0,0,1,1,2,2,3,3,4,4,5,5],"right_children":[2,4,6,8,10,12,-1,-1,-1,-1,-1,-1,-1],"split_conditions":[5.0445237E0,2.4923422E0,5.175946E0,-6.4551455E-1,3.5730581E0,2.0751128E-1,1.6287574E-1,-1.920684E-3,-2.3481172E-2,1.639528E-2,-5.153526E-2,6.3000925E-2,1.8659123E-3],"split_indices":[4,0,0,3,9,3,0,0,0,0,0,0,0],"split_type":[0,0,0,0,0,0,0,0,0,0,0,0,0],"sum_hessian":[2.41E2,2.29E2,1.2E1,1.66E2,6.3E1,8E0,4E0,8.4E1,8.2E1,6.1E1,2E0,7E0,1E0],"tree_param":{"num_deleted":"0","num_feature":"10","num_nodes":"13","size_leaf_vector":"1"}},{"base_weights":[2.3727373E-3,-3.1067569E-2,5.938264E-1,-4.912867E-2,2.3108342E-1,3.2689506E-1,9.5553756E-1,2.275579E-3,-1.5398739E-2,4.6801787E-2,-1.0420929E-2,5.90654E-2,9.283517E-3,1.5930997E-1,3.9706655E-2],"categories":[],"categories_nodes":[],"categories_segments":[],"categories_sizes":[],"default_left":[0,0,0,0,0,0,0,0,0,0,0,0,0,0,0],"id":3,"left_children":[1,3,5,7,9,11,13,-1,-1,-1,-1,-1,-1,-1,-1],"loss_changes":[4.8048196E0,1.1003418E0,9.4281626E-1,7.450098E-1,3.865298E-1,1.3512766E-1,8.682394E-2,0E0,0E0,0E0,0E0,0E0,0E0,0E0,0E0],"parents":[2147483647,0,0,1,1,2,2,3,3,4,4,5,5,6,6],"right_children":[2,4,6,8,10,12,14,-1,-1,-1,-1,-1,-1,-1,-1],"split_conditions":[5.0445237E0,5.3179436E0,5.175946E0,-6.4551455E-1,4.2233872E0,5.1557E-1,2.7382365E-1,2.275579E-3,-1.5398739E-2,4.6801787E-2,-1.0420929E-2,5.90654E-2,9.283517E-3,1.5930997E-1,3.9706655E-2],"split_indices":[4,0,0,3,3,6,1,0,0,0,0,0,0,0,0],"split_type":[0,0,0,0,0,0,0,0,0,0,0,0,0,0,0],"sum_hessian":[2.41E2,2.29E2,1.2E1,2.15E2,1.4E1,8E0,4E0,9.8E1,1.17E2,1.1E1,3E0,6E0,2E0,3E0,1E0],"tree_param":{"num_deleted":"0","num_feature":"10","num_nodes":"15","size_leaf_vector":"1"}},{"base_weights":[3.217746E-3,-1.6661901E-2,7.879275E-1,-4.9913E-2,1.303239E-1,1.413876E-1,4.7861457E-2,-3.022773E-2,-8.1091555E-4,-3.6749102E-2,2.7708523E-2],"categories":[],"categories_nodes":[],"categories_segments":[],"categories_sizes":[],"default_left":[0,0,0,0,0,0,0,0,0,0,0],"id":4,"left_children":[1,3,5,7,9,-1,-1,-1,-1,-1,-1],"loss_changes":[3.7882686E0,1.1648282E0,1.3430905E-1,1.3079212E0,9.4361013E-1,0E0,0E0,0E0,0E0,0E0,0E0],"parents":[2147483647,0,0,1,1,2,2,3,3,4,4],"right_children":[2,4,6,8,10,-1,-1,-1,-1,-1,-1],"split_conditions":[6.2286215E0,2.6310797E0,-2.4393217E-1,-3.454086E0,-4.6173844E0,1.413876E-1,4.7861457E-2,-3.022773E-2,-8.1091555E-4,-3.6749102E-2,2.7708523E-2],"split_indices":[4,4,5,0,8,0,0,0,0,0,0],"split_type":[0,0,0,0,0,0,0,0,0,0,0],"sum_hessian":[2.41E2,2.36E2,5E0,1.93E2,4.3E1,3E0,2E0,4.3E1,1.5E2,5E0,3.8E1],"tree_param":{"num_deleted":"0","num_feature":"10","num_nodes":"11","size_leaf_vector":"1"}},{"base_weights":[3.3514895E-3,-2.6329735E-2,4.242444E-1,-6.490105E-2,7.292065E-2,2.4999027E-1,7.5760543E-1,-3.381065E-2,-6.3472614E-3,1.5518689E-2,-2.3065867E-2,4.3322958E-2,5.5843084E-3,1.254815E-1,3.3139043E-2],"categories":[],"categories_nodes":[],"categories_segments":[],"categories_sizes":[],"default_left":[0,0,0,0,0,0,0,0,0,0,0,0,0,0,0],"id":5,"left_children":[1,3,5,7,9,11,13,-1,-1,-1,-1,-1,-1,-1,-1],"loss_changes":[3.0343835E0,8.7373805E-1,7.400384E-1,5.8498204E-1,4.5895457E-1,8.838463E-2,2.7006388E-2,0E0,0E0,0E0,0E0,0E0,0E0,0E0,0E0],"parents":[2147483647,0,0,1,1,2,2,3,3,4,4,5,5,6,6],"right_children":[2,4,6,8,10,12,14,-1,-1,-1,-1,-1,-1,-1,-1],"split_conditions":[4.6608977E0,2.4923422E0,5.175946E0,-4.6173844E0,2.1042173E0,5.1557E-1,2.7382365E-1,-3.381065E-2,-6.3472614E-3,1.5518689E-2,-2.3065867E-2,4.3322958E-2,5.5843084E-3,1.254815E-1,3.3139043E-2],"split_indices":[4,0,0,8,2,6,1,0,0,0,0,0,0,0,0],"split_type":[0,0,0,0,0,0,0,0,0,0,0,0,0,0,0],"sum_hessian":[2.41E2,2.26E2,1.5E1,1.63E2,6.3E1,1.1E1,4E0,1.9E1,1.44E2,5.6E1,7E0,9E0,2E0,3E0,1E0],"tree_param":{"num_deleted":"0","num_feature":"10","num_nodes":"15","size_leaf_vector":"1"}},{"base_weights":[3.5091955E-3,-1.2259695E-2,6.257955E-1,-3.454272E-2,1.3692889E-1,1.11364834E-1,3.9252214E-2,-2.4138656E-2,8.5051457E-4,-1.274041E-2,3.6993515E-2],"categories":[],"categories_nodes":[],"categories_segments":[],"categories_sizes":[],"default_left":[0,0,0,0,0,0,0,0,0,0,0],"id":6,"left_children":[1,3,5,7,9,-1,-1,-1,-1,-1,-1],"loss_changes":[2.3823612E0,7.926063E-1,6.0533524E-2,1.0529201E0,7.754058E-1,0E0,0E0,0E0,0E0,0E0,0E0],"parents":[2147483647,0,0,1,1,2,2,3,3,4,4],"right_children":[2,4,6,8,10,-1,-1,-1,-1,-1,-1],"split_conditions":[6.2286215E0,3.2974494E0,-2.4393217E-1,-3.0845509E0,-6.2104896E-2,1.11364834E-1,3.9252214E-2,-2.4138656E-2,8.5051457E-4,-1.274041E-2,3.6993515E-2],"split_indices":[4,4,5,0,8,0,0,0,0,0,0],"split_type":[0,0,0,0,0,0,0,0,0,0,0],"sum_hessian":[2.41E2,2.36E2,5E0,2.06E2,3E1,3E0,2E0,4.9E1,1.57E2,1E1,2E1],"tree_param":{"num_deleted":"0","num_feature":"10","num_nodes":"11","size_leaf_vector":"1"}},{"base_weights":[3.60919E-3,-1.9912904E-2,3.3710334E-1,-1.3449536E-2,-7.4704185E-2,1.9904636E-1,9.015291E-2,-1.2364232E-2,4.8445514E-3,4.1634332E-2,1.1140524E-2],"categories":[],"categories_nodes":[],"categories_segments":[],"categories_sizes":[],"default_left":[0,0,0,0,0,0,0,0,0,0,0],"id":7,"left_children":[1,3,5,7,-1,9,-1,-1,-1,-1,-1],"loss_changes":[1.905077E0,6.947847E-1,4.6333647E-1,7.1265775E-1,0E0,9.6948236E-2,0E0,0E0,0E0,0E0,0E0],"parents":[2147483647,0,0,1,1,2,2,3,3,5,5],"right_children":[2,4,6,8,-1,10,-1,-1,-1,-1,-1],"split_conditions":[4.6608977E0,7.976575E0,5.175946E0,-1.6321894E0,-7.4704185E-2,5.2321444E0,9.015291E-2,-1.2364232E-2,4.8445514E-3,4.1634332E-2,1.1140524E-2],"split_indices":[4,8,0,0,0,4,0,0,0,0,0],"split_type":[0,0,0,0,0,0,0,0,0,0,0],"sum_hessian":[2.41E2,2.26E2,1.5E1,2.24E2,2E0,1.1E1,4E0,8.9E1,1.35E2,6E0,5E0],"tree_param":{"num_deleted":"0","num_feature":"10","num_nodes":"11","size_leaf_vector":"1"}},{"base_weights":[3.3186593E-3,-1.9728417E-2,2.748569E-1,2.6215217E-1,-2.8689131E-2,9.9421695E-2,5.036526E-1,-1.0307296E-2,7.9122245E-2,-3.4094136E-3,-6.723377E-2,2.7209795E-3,5.058309E-2,8.035523E-2,2.094824E-2],"categories":[],"categories_nodes":[],"categories_segments":[],"categories_sizes":[],"default_left":[0,0,0,0,0,0,0,0,0,0,0,0,0,0,0],"id":8,"left_children":[1,3,5,7,9,11,13,-1,-1,-1,-1,-1,-1,-1,-1],"loss_changes":[1.5198977E0,5.733116E-1,7.125634E-1,6.5076816E-1,5.3488016E-1,2.258276E-1,1.8512487E-2,0E0,0E0,0E0,0E0,0E0,0E0,0E0,0E0],"parents":[2147483647,0,0,1,1,2,2,3,3,4,4,5,5,6,6],"right_children":[2,4,6,8,10,12,14,-1,-1,-1,-1,-1,-1,-1,-1],"split_conditions":[5.3179436E0,-5.305835E0,8.55772E-1,-6.6286645E0,7.976575E0,7.4592047E0,5.401033E0,-1.0307296E-2,7.9122245E-2,-3.4094136E-3,-6.723377E-2,2.7209795E-3,5.058309E-2,8.035523E-2,2.094824E-2],"split_indices":[0,5,9,4,8,0,1,0,0,0,0,0,0,0,0],"split_type":[0,0,0,0,0,0,0,0,0,0,0,0,0,0,0],"sum_hessian":[2.41E2,2.23E2,1.8E1,6E0,2.17E2,1.1E1,7E0,3E0,3E0,2.15E2,2E0,9E0,2E0,6E0,1E0],"tree_param":{"num_deleted":"0","num_feature":"10","num_nodes":"15","size_leaf_vector":"1"}},{"base_weights":[3.4521716E-3,-1.5793238E-2,2.7628067E-1,-1.5685806E-1,1.6570748E-3,1.5411945E-1,4.5419613E-1,5.5716786E-4,-4.2493127E-2,1.1541747E-3,-6.0510393E-2,2.8070763E-2,5.534142E-4,1.937712E-2,7.400446E-2],"categories":[],"categories_nodes":[],"categories_segments":[],"categories_sizes":[],"default_left":[0,0,0,0,0,0,0,0,0,0,0,0,0,0,0],"id":9,"left_children":[1,3,5,7,9,11,13,-1,-1,-1,-1,-1,-1,-1,-1],"loss_changes":[1.2750318E0,5.590489E-1,2.7774954E-1,5.085796E-1,4.9954385E-1,5.394706E-2,1.2646079E-2,0E0,0E0,0E0,0E0,0E0,0E0,0E0,0E0],"parents":[2147483647,0,0,1,1,2,2,3,3,4,4,5,5,6,6],"right_children":[2,4,6,8,10,12,14,-1,-1,-1,-1,-1,-1,-1,-1],"split_conditions":[4.6608977E0,-4.6173844E0,2.6461363E0,-3.7893114E0,7.976575E0,5.1557E-1,-5.652793E0,5.5716786E-4,-4.2493127E-2,1.1541747E-3,-6.0510393E-2,2.8070763E-2,5.534142E-4,1.937712E-2,7.400446E-2],"split_indices":[4,8,0,1,8,6,2,0,0,0,0,0,0,0,0],"split_type":[0,0,0,0,0,0,0,0,0,0,0,0,0,0,0],"sum_hessian":[2.41E2,2.26E2,1.5E1,2.4E1,2.02E2,1E1,5E0,1.1E1,1.3E1,2E2,2E0,8E0,2E0,1E0,4E0],"tree_param":{"num_deleted":"0","num_feature":"10","num_nodes":"15","size_leaf_vector":"1"}},{"base_weights":[3.0199324E-3,-1.6094526E-2,2.2821039E-1,-6.578465E-2,2.9099861E-2,8.7892465E-2,4.1016096E-1,-8.674993E-4,-2.1783885E-2,8.8625186E-4,3.239422E-2,2.1978354E-3,4.5409363E-2,7.903138E-2,3.5213534E-2],"categories":[],"categories_nodes":[],"categories_segments":[],"categories_sizes":[],"default_left":[0,0,0,0,0,0,0,0,0,0,0,0,0,0,0],"id":10,"left_children":[1,3,5,7,9,11,13,-1,-1,-1,-1,-1,-1,-1,-1],"loss_changes":[1.0453361E0,5.049544E-1,4.4903755E-1,5.091841E-1,5.100893E-1,1.8438053E-1,4.009044E-2,0E0,0E0,0E0,0E0,0E0,0E0,0E0,0E0],"parents":[2147483647,0,0,1,1,2,2,3,3,4,4,5,5,6,6],"right_children":[2,4,6,8,10,12,14,-1,-1,-1,-1,-1,-1,-1,-1],"split_conditions":[5.3179436E0,-2.6958206E-1,8.55772E-1,-7.5418985E-1,2.995445E0,7.4592047E0,6.233532E0,-8.674993E-4,-2.1783885E-2,8.8625186E-4,3.239422E-2,2.1978354E-3,4.5409363E-2,7.903138E-2,3.5213534E-2],"split_indices":[0,4,9,3,9,0,0,0,0,0,0,0,0,0,0],"split_type":[0,0,0,0,0,0,0,0,0,0,0,0,0,0,0],"sum_hessian":[2.41E2,2.23E2,1.8E1,1.06E2,1.17E2,1.1E1,7E0,6.1E1,4.5E1,1.05E2,1.2E1,9E0,2E0,3E0,4E0],"tree_param":{"num_deleted":"0","num_feature":"10","num_nodes":"15","size_leaf_vector":"1"}},{"base_weights":[3.279667E-3,-2.1930562E-2,1.4814739E-1,-9.325363E-2,1.7620463E-2,2.9323897E-1,-1.3235244E-2,5.632517E-2,-1.5722817E-2,4.325238E-3,-4.1621927E-2,1.09127E-1,2.4951443E-2,1.6484382E-2,-1.8409459E-2],"categories":[],"categories_nodes":[],"categories_segments":[],"categories_sizes":[],"default_left":[0,0,0,0,0,0,0,0,0,0,0,0,0,0,0],"id":11,"left_children":[1,3,5,7,9,11,13,-1,-1,-1,-1,-1,-1,-1,-1],"loss_changes":[8.870689E-1,5.855695E-1,8.468305E-1,4.4052982E-1,4.5145887E-1,9.260293E-1,2.561667E-1,0E0,0E0,0E0,0E0,0E0,0E0,0E0,0E0],"parents":[2147483647,0,0,1,1,2,2,3,3,4,4,5,5,6,6],"right_children":[2,4,6,8,10,12,14,-1,-1,-1,-1,-1,-1,-1,-1],"split_conditions":[3.2974494E0,-1.9764711E0,-1.4881511E0,-5.863796E0,3.2359257E0,3.67623E-1,7.20333E-1,5.632517E-2,-1.5722817E-2,4.325238E-3,-4.1621927E-2,1.09127E-1,2.4951443E-2,1.6484382E-2,-1.8409459E-2],"split_indices":[4,0,2,5,8,8,1,0,0,0,0,0,0,0,0],"split_type":[0,0,0,0,0,0,0,0,0,0,0,0,0,0,0],"sum_hessian":[2.41E2,2.06E2,3.5E1,7.3E1,1.33E2,1.8E1,1.7E1,1E0,7.2E1,1.29E2,4E0,3E0,1.5E1,8E0,9E0],"tree_param":{"num_deleted":"0","num_feature":"10","num_nodes":"15","size_leaf_vector":"1"}},{"base_weights":[3.347468E-3,-1.2564539E-2,1.9076547E-1,-1.9753888E-1,-3.9026414E-3,7.651346E-2,3.3829778E-1,9.6961414E-4,-3.7402146E-2,6.347467E-2,-1.7913153E-3,-2.841149E-2,1.768611E-2,6.57237E-2,2.8612515E-2],"categories":[],"categories_nodes":[],"categories_segments":[],"categories_sizes":[],"default_left":[0,0,0,0,0,0,0,0,0,0,0,0,0,0,0],"id":12,"left_children":[1,3,5,7,9,11,13,-1,-1,-1,-1,-1,-1,-1,-1],"loss_changes":[7.240885E-1,3.581283E-1,2.943771E-1,1.073032E-1,7.4323213E-1,1.5442424E-1,3.4294486E-2,0E0,0E0,0E0,0E0,0E0,0E0,0E0,0E0],"parents":[2147483647,0,0,1,1,2,2,3,3,4,4,5,5,6,6],"right_children":[2,4,6,8,10,12,14,-1,-1,-1,-1,-1,-1,-1,-1],"split_conditions":[5.3179436E0,-5.9062023E0,8.55772E-1,-8.557584E0,-5.305835E0,-5.6080427E0,6.233532E0,9.6961414E-4,-3.7402146E-2,6.347467E-2,-1.7913153E-3,-2.841149E-2,1.768611E-2,6.57237E-2,2.8612515E-2],"split_indices":[0,4,9,4,5,1,0,0,0,0,0,0,0,0,0],"split_type":[0,0,0,0,0,0,0,0,0,0,0,0,0,0,0],"sum_hessian":[2.41E2,2.23E2,1.8E1,9E0,2.14E2,1.1E1,7E0,2E0,7E0,3E0,2.11E2,1E0,1E1,3E0,4E0],"tree_param":{"num_deleted":"0","num_feature":"10","num_nodes":"15","size_leaf_vector":"1"}},{"base_weights":[3.2951925E-3,-1.0202627E-2,1.9458956E-1,-1.2415694E-1,3.8814151E-3,1.09836236E-1,3.1753904E-1,9.700235E-4,-3.4087773E-2,1.3035224E-3,-4.793964E-2,4.064123E-3,3.0556187E-2,5.981842E-2,1.5503818E-2],"categories":[],"categories_nodes":[],"categories_segments":[],"categories_sizes":[],"default_left":[0,0,0,0,0,0,0,0,0,0,0,0,0,0,0],"id":13,"left_children":[1,3,5,7,9,11,13,-1,-1,-1,-1,-1,-1,-1,-1],"loss_changes":[6.2684304E-1,3.648027E-1,1.318487E-1,3.3813554E-1,3.1854877E-1,7.991922E-2,6.319505E-2,0E0,0E0,0E0,0E0,0E0,0E0,0E0,0E0],"parents":[2147483647,0,0,1,1,2,2,3,3,4,4,5,5,6,6],"right_children":[2,4,6,8,10,12,14,-1,-1,-1,-1,-1,-1,-1,-1],"split_conditions":[4.6608977E0,-4.6173844E0,-5.513385E-1,-3.7893114E0,7.976575E0,-7.0125073E-1,1.8084352E-1,9.700235E-4,-3.4087773E-2,1.3035224E-3,-4.793964E-2,4.064123E-3,3.0556187E-2,5.981842E-2,1.5503818E-2],"split_indices":[4,8,5,1,8,0,1,0,0,0,0,0,0,0,0],"split_type":[0,0,0,0,0,0,0,0,0,0,0,0,0,0,0],"sum_hessian":[2.41E2,2.26E2,1.5E1,2.4E1,2.02E2,1E1,5E0,1.1E1,1.3E1,2E2,2E0,6E0,4E0,3E0,2E0],"tree_param":{"num_deleted":"0","num_feature":"10","num_nodes":"15","size_leaf_vector":"1"}},{"base_weights":[2.925667E-3,-1.6812714E-2,1.16340086E-1,-7.576984E-2,1.587117E-2,2.2316429E-1,-1.6178979E-2,4.724242E-2,-1.2815481E-2,-4.4593317E-3,1.2286493E-2,6.941144E-2,1.6868282E-2,-8.42646E-3,2.838017E-2],"categories":[],"categories_nodes":[],"categories_segments":[],"categories_sizes":[],"default_left":[0,0,0,0,0,0,0,0,0,0,0,0,0,0,0],"id":14,"left_children":[1,3,5,7,9,11,13,-1,-1,-1,-1,-1,-1,-1,-1],"loss_changes":[5.437013E-1,4.000808E-1,5.1323533E-1,3.0640355E-1,4.0595883E-1,4.7843277E-1,1.5027812E-1,0E0,0E0,0E0,0E0,0E0,0E0,0E0,0E0],"parents":[2147483647,0,0,1,1,2,2,3,3,4,4,5,5,6,6],"right_children":[2,4,6,8,10,12,14,-1,-1,-1,-1,-1,-1,-1,-1],"split_conditions":[3.2974494E0,-1.9764711E0,5.9317446E-1,-5.863796E0,-2.6958206E-1,3.67623E-1,2.6027246E0,4.724242E-2,-1.2815481E-2,-4.4593317E-3,1.2286493E-2,6.941144E-2,1.6868282E-2,-8.42646E-3,2.838017E-2],"split_indices":[4,0,3,5,4,8,3,0,0,0,0,0,0,0,0],"split_type":[0,0,0,0,0,0,0,0,0,0,0,0,0,0,0],"sum_hessian":[2.41E2,2.06E2,3.5E1,7.3E1,1.33E2,1.9E1,1.6E1,1E0,7.2E1,7.9E1,5.4E1,5E0,1.4E1,1.4E1,2E0],"tree_param":{"num_deleted":"0","num_feature":"10","num_nodes":"15","size_leaf_vector":"1"}},{"base_weights":[3.1003996E-3,-9.2525E-3,1.485714E-1,1.9753642E-2,-5.1863167E-2,1.9819906E-1,-8.708208E-2,-2.323702E-2,5.2633504E-3,-1.1414687E-2,1.9696128E-2,-2.604394E-2,3.5184376E-2,-5.714983E-4,-1.7035417E-2],"categories":[],"categories_nodes":[],"categories_segments":[],"categories_sizes":[],"default_left":[0,0,0,0,0,0,0,0,0,0,0,0,0,0,0],"id":15,"left_children":[1,3,5,7,9,11,13,-1,-1,-1,-1,-1,-1,-1,-1],"loss_changes":[4.3624592E-1,2.77882E-1,2.394633E-1,3.6436585E-1,4.139498E-1,2.5705975E-1,8.389933E-3,0E0,0E0,0E0,0E0,0E0,0E0,0E0,0E0],"parents":[2147483647,0,0,1,1,2,2,3,3,4,4,5,5,6,6],"right_children":[2,4,6,8,10,12,14,-1,-1,-1,-1,-1,-1,-1,-1],"split_conditions":[5.3179436E0,-1.403641E-1,4.2233872E0,-5.6843886E0,2.9942245E0,-5.6080427E0,6.264656E0,-2.323702E-2,5.2633504E-3,-1.1414687E-2,1.9696128E-2,-2.604394E-2,3.5184376E-2,-5.714983E-4,-1.7035417E-2],"split_indices":[0,2,3,4,1,1,0,0,0,0,0,0,0,0,0],"split_type":[0,0,0,0,0,0,0,0,0,0,0,0,0,0,0],"sum_hessian":[2.41E2,2.23E2,1.8E1,1.33E2,9E1,1.5E1,3E0,1E1,1.23E2,8E1,1E1,1E0,1.4E1,1E0,2E0],"tree_param":{"num_deleted":"0","num_feature":"10","num_nodes":"15","size_leaf_vector":"1"}},{"base_weights":[2.5603038E-3,2.1448685E-1,-4.665112E-3,1.0586089E-1,5.403648E-2,2.973422E-4,-4.3698177E-2,4.5410693E-3,1.7238533E-2,-3.1988256E-2,7.468806E-4],"categories":[],"categories_nodes":[],"categories_segments":[],"categories_sizes":[],"default_left":[0,0,0,0,0,0,0,0,0,0,0],"id":16,"left_children":[1,3,5,7,-1,9,-1,-1,-1,-1,-1],"loss_changes":[3.715649E-1,8.852771E-2,3.3437824E-1,6.309524E-4,0E0,2.330207E-1,0E0,0E0,0E0,0E0,0E0],"parents":[2147483647,0,0,1,1,2,2,3,3,5,5],"right_children":[2,4,6,8,-1,10,-1,-1,-1,-1,-1],"split_conditions":[-5.735282E0,-2.6811035E0,5.3648324E0,-1.4570781E0,5.403648E-2,-5.0528092E0,-4.3698177E-2,4.5410693E-3,1.7238533E-2,-3.1988256E-2,7.468806E-4],"split_indices":[3,2,8,0,0,3,0,0,0,0,0],"split_type":[0,0,0,0,0,0,0,0,0,0,0],"sum_hessian":[2.41E2,7E0,2.34E2,5E0,2E0,2.31E2,3E0,1E0,4E0,4E0,2.27E2],"tree_param":{"num_deleted":"0","num_feature":"10","num_nodes":"11","size_leaf_vector":"1"}},{"base_weights":[2.1798767E-3,-1.3498456E-2,9.226974E-2,-8.346507E-2,7.5758942E-3,1.8691817E-1,-1.2763032E-2,2.276301E-2,-1.5377791E-2,-2.2678494E-2,2.5389993E-3,8.057363E-2,1.3151391E-2,1.1858192E-2,-1.4118391E-2],"categories":[],"categories_nodes":[],"categories_segments":[],"categories_sizes":[],"default_left":[0,0,0,0,0,0,0,0,0,0,0,0,0,0,0],"id":17,"left_children":[1,3,5,7,9,11,13,-1,-1,-1,-1,-1,-1,-1,-1],"loss_changes":[3.4306055E-1,3.0585405E-1,3.6026838E-1,2.3068115E-1,2.4009235E-1,6.1331636E-1,1.4190522E-1,0E0,0E0,0E0,0E0,0E0,0E0,0E0,0E0],"parents":[2147483647,0,0,1,1,2,2,3,3,4,4,5,5,6,6],"right_children":[2,4,6,8,10,12,14,-1,-1,-1,-1,-1,-1,-1,-1],"split_conditions":[3.2974494E0,-3.155471E0,-1.4881511E0,-1.5119317E0,-6.272598E0,3.67623E-1,7.20333E-1,2.276301E-2,-1.5377791E-2,-2.2678494E-2,2.5389993E-3,8.057363E-2,1.3151391E-2,1.1858192E-2,-1.4118391E-2],"split_indices":[4,0,2,7,4,8,1,0,0,0,0,0,0,0,0],"split_type":[0,0,0,0,0,0,0,0,0,0,0,0,0,0,0],"sum_hessian":[2.41E2,2.06E2,3.5E1,4.7E1,1.59E2,1.8E1,1.7E1,3E0,4.4E1,8E0,1.51E2,3E0,1.5E1,8E0,9E0],"tree_param":{"num_deleted":"0","num_feature":"10","num_nodes":"15","size_leaf_vector":"1"}},{"base_weights":[2.1781465E-3,-1.45664355E-2,6.842857E-2,1.8364327E-1,-2.1869102E-2,1.6458502E-1,1.2202175E-2,-2.6014887E-2,4.0809203E-2,3.615586E-5,-1.4810087E-2,7.15091E-2,1.0556211E-2,-3.6350857E-3,2.6119627E-2],"categories":[],"categories_nodes":[],"categories_segments":[],"categories_sizes":[],"default_left":[0,0,0,0,0,0,0,0,0,0,0,0,0,0,0],"id":18,"left_children":[1,3,5,7,9,11,13,-1,-1,-1,-1,-1,-1,-1,-1],"loss_changes":[2.69456E-1,2.8482327E-1,2.6291168E-1,2.6818797E-1,3.1952825E-1,4.9577674E-1,1.9302134E-1,0E0,0E0,0E0,0E0,0E0,0E0,0E0,0E0],"parents":[2147483647,0,0,1,1,2,2,3,3,4,4,5,5,6,6],"right_children":[2,4,6,8,10,12,14,-1,-1,-1,-1,-1,-1,-1,-1],"split_conditions":[2.6310797E0,-5.306448E0,-1.5885878E0,-4.212878E0,2.765241E0,3.67623E-1,3.1370041E0,-2.6014887E-2,4.0809203E-2,3.615586E-5,-1.4810087E-2,7.15091E-2,1.0556211E-2,-3.6350857E-3,2.6119627E-2],"split_indices":[4,5,2,3,3,8,3,0,0,0,0,0,0,0,0],"split_type":[0,0,0,0,0,0,0,0,0,0,0,0,0,0,0],"sum_hessian":[2.41E2,1.93E2,4.8E1,6E0,1.87E2,1.7E1,3.1E1,1E0,5E0,1.46E2,4.1E1,3E0,1.4E1,2.6E1,5E0],"tree_param":{"num_deleted":"0","num_feature":"10","num_nodes":"15","size_leaf_vector":"1"}},{"base_weights":[2.2835305E-3,-2.451145E-2,4.123498E-2,-1.1844886E-1,-9.285374E-3,1.1160866E-1,7.5115603E-3,-2.6788184E-2,-1.0849317E-2,3.8787343E-2,-2.3614862E-3,-1.2238786E-3,2.496292E-2,-8.941331E-3,6.1362726E-3],"categories":[],"categories_nodes":[],"categories_segments":[],"categories_sizes":[],"default_left":[0,0,0,0,0,0,0,0,0,0,0,0,0,0,0],"id":19,"left_children":[1,3,5,7,9,11,13,-1,-1,-1,-1,-1,-1,-1,-1],"loss_changes":[2.5358695E-1,2.0486307E-1,2.3411255E-1,4.2555302E-2,2.2030261E-1,2.1142417E-1,1.548684E-1,0E0,0E0,0E0,0E0,0E0,0E0,0E0,0E0],"parents":[2147483647,0,0,1,1,2,2,3,3,4,4,5,5,6,6],"right_children":[2,4,6,8,10,12,14,-1,-1,-1,-1,-1,-1,-1,-1],"split_conditions":[6.868107E-1,-2.6324148E0,-1.8736901E0,-5.040603E0,-4.769554E0,-2.0104218E0,-1.7197559E0,-2.6788184E-2,-1.0849317E-2,3.8787343E-2,-2.3614862E-3,-1.2238786E-3,2.496292E-2,-8.941331E-3,6.1362726E-3],"split_indices":[0,4,2,4,5,8,4,0,0,0,0,0,0,0,0],"split_type":[0,0,0,0,0,0,0,0,0,0,0,0,0,0,0],"sum_hessian":[2.41E2,1.43E2,9.8E1,1.9E1,1.24E2,3.1E1,6.7E1,7E0,1.2E1,2E0,1.22E2,1E1,2.1E1,2.2E1,4.5E1],"tree_param":{"num_deleted":"0","num_feature":"10","num_nodes":"15","size_leaf_vector":"1"}},{"base_weights":[2.0224927E-3,-9.864716E-3,7.031776E-2,1.4860351E-1,-1.5334432E-2,4.6277337E-2,3.0901924E-2,-2.339317E-2,3.380334E-2,-1.540111E-3,-2.6745228E-2,9.33353E-3,-1.3477506E-2],"categories":[],"categories_nodes":[],"categories_segments":[],"categories_sizes":[],"default_left":[0,0,0,0,0,0,0,0,0,0,0,0,0],"id":20,"left_children":[1,3,5,7,9,-1,11,-1,-1,-1,-1,-1,-1],"loss_changes":[1.9715898E-1,1.8170144E-1,3.284619E-1,1.9877341E-1,1.641467E-1,0E0,1.2661946E-1,0E0,0E0,0E0,0E0,0E0,0E0],"parents":[2147483647,0,0,1,1,2,2,3,3,4,4,6,6],"right_children":[2,4,6,8,10,-1,12,-1,-1,-1,-1,-1,-1],"split_conditions":[4.324897E0,-5.305835E0,-2.764479E-1,-6.142093E0,5.629025E0,4.6277337E-2,4.2233872E0,-2.339317E-2,3.380334E-2,-1.540111E-3,-2.6745228E-2,9.33353E-3,-1.3477506E-2],"split_indices":[0,5,8,5,3,0,3,0,0,0,0,0,0],"split_type":[0,0,0,0,0,0,0,0,0,0,0,0,0],"sum_hessian":[2.41E2,2.06E2,3.5E1,6E0,2E2,4E0,3.1E1,1E0,5E0,1.95E2,5E0,2.5E1,6E0],"tree_param":{"num_deleted":"0","num_feature":"10","num_nodes":"13","size_leaf_vector":"1"}},{"base_weights":[1.8193678E-3,-7.64356E-2,1.1187156E-2,1.1558832E-1,-1.06507786E-1,-5.1651406E-3,7.55988E-2,2.1834765E-2,1.924351E-3,1.5973324E-2,-1.9779611E-2,2.425913E-5,-3.473962E-2,2.2153375E-3,2.122781E-2],"categories":[],"categories_nodes":[],"categories_segments":[],"categories_sizes":[],"default_left":[0,0,0,0,0,0,0,0,0,0,0,0,0,0,0],"id":21,"left_children":[1,3,5,7,9,11,13,-1,-1,-1,-1,-1,-1,-1,-1],"loss_changes":[1.7825949E-1,1.6245006E-1,2.2895187E-1,1.0454111E-2,1.3826054E-1,2.0991194E-1,1.7434558E-1,0E0,0E0,0E0,0E0,0E0,0E0,0E0,0E0],"parents":[2147483647,0,0,1,1,2,2,3,3,4,4,5,5,6,6],"right_children":[2,4,6,8,10,12,14,-1,-1,-1,-1,-1,-1,-1,-1],"split_conditions":[-4.6173844E0,-1.499083E-1,2.6310797E0,2.5144908E0,-6.432115E0,4.810499E0,5.408027E-1,2.1834765E-2,1.924351E-3,1.5973324E-2,-1.9779611E-2,2.425913E-5,-3.473962E-2,2.2153375E-3,2.122781E-2],"split_indices":[8,2,4,0,8,8,7,0,0,0,0,0,0,0,0],"split_type":[0,0,0,0,0,0,0,0,0,0,0,0,0,0,0],"sum_hessian":[2.41E2,2.5E1,2.16E2,3E0,2.2E1,1.73E2,4.3E1,2E0,1E0,2E0,2E1,1.7E2,3E0,2.3E1,2E1],"tree_param":{"num_deleted":"0","num_feature":"10","num_nodes":"15","size_leaf_vector":"1"}},{"base_weights":[1.5823316E-3,-1.3417077E-1,6.7968424E-3,1.4256716E-2,-1.786153E-1,4.9000617E-2,2.6312452E-3,-1.1429496E-2,1.4637258E-2,-2.9096058E-2,-6.4848666E-3,-3.1593514E-3,5.2865287E-3],"categories":[],"categories_nodes":[],"categories_segments":[],"categories_sizes":[],"default_left":[0,0,0,0,0,0,0,0,0,0,0,0,0],"id":22,"left_children":[1,3,5,7,9,-1,11,-1,-1,-1,-1,-1,-1],"loss_changes":[1.7222038E-1,6.191756E-2,3.109375E-1,3.0046478E-2,6.168902E-3,0E0,1.8000913E-1,0E0,0E0,0E0,0E0,0E0,0E0],"parents":[2147483647,0,0,1,1,2,2,3,3,4,4,6,6],"right_children":[2,4,6,8,10,-1,12,-1,-1,-1,-1,-1,-1],"split_conditions":[-6.272598E0,-8.557584E0,-5.5593686E0,1.0691468E-1,8.107623E0,4.9000617E-2,4.304161E-1,-1.1429496E-2,1.4637258E-2,-2.9096058E-2,-6.4848666E-3,-3.1593514E-3,5.2865287E-3],"split_indices":[4,4,5,0,1,0,0,0,0,0,0,0,0],"split_type":[0,0,0,0,0,0,0,0,0,0,0,0,0],"sum_hessian":[2.41E2,8E0,2.33E2,2E0,6E0,2E0,2.31E2,1E0,1E0,5E0,1E0,1.34E2,9.7E1],"tree_param":{"num_deleted":"0","num_feature":"10","num_nodes":"13","size_leaf_vector":"1"}},{"base_weights":[1.4224818E-3,2.1495463E-2,-2.8291851E-2,1.0823955E-2,1.8155114E-1,-1.10028856E-1,5.97479E-3,-8.648723E-4,1.399533E-2,-1.3085231E-3,3.557423E-2,-4.4971883E-2,-1.2729996E-2,-2.0097538E-3,1.8533029E-2],"categories":[],"categories_nodes":[],"categories_segments":[],"categories_sizes":[],"default_left":[0,0,0,0,0,0,0,0,0,0,0,0,0,0,0],"id":23,"left_children":[1,3,5,7,9,11,13,-1,-1,-1,-1,-1,-1,-1,-1],"loss_changes":[1.4495032E-1,2.4570005E-1,2.7514094E-1,1.8799439E-1,9.730008E-2,1.1304191E-1,1.6110632E-1,0E0,0E0,0E0,0E0,0E0,0E0,0E0,0E0],"parents":[2147483647,0,0,1,1,2,2,3,3,4,4,5,5,6,6],"right_children":[2,4,6,8,10,12,14,-1,-1,-1,-1,-1,-1,-1,-1],"split_conditions":[-1.403641E-1,-3.157896E-1,-1.455532E0,3.2974494E0,-3.9764354E0,-6.133849E0,2.9942245E0,-8.648723E-4,1.399533E-2,-1.3085231E-3,3.557423E-2,-4.4971883E-2,-1.2729996E-2,-2.0097538E-3,1.8533029E-2],"split_indices":[2,2,4,4,1,8,1,0,0,0,0,0,0,0,0],"split_type":[0,0,0,0,0,0,0,0,0,0,0,0,0,0,0],"sum_hessian":[2.41E2,1.44E2,9.7E1,1.36E2,8E0,2.8E1,6.9E1,1.14E2,2.2E1,2E0,6E0,2E0,2.6E1,6E1,9E0],"tree_param":{"num_deleted":"0","num_feature":"10","num_nodes":"15","size_leaf_vector":"1"}},{"base_weights":[1.2347951E-3,-1.168734E-1,5.772141E-3,1.3764043E-2,-1.5616468E-1,4.2365085E-2,2.1697385E-3,-1.050742E-2,1.360433E-2,-2.535094E-2,-5.933637E-3,-1.5913836E-3,7.7065183E-3],"categories":[],"categories_nodes":[],"categories_segments":[],"categories_sizes":[],"default_left":[0,0,0,0,0,0,0,0,0,0,0,0,0],"id":24,"left_children":[1,3,5,7,9,-1,11,-1,-1,-1,-1,-1,-1],"loss_changes":[1.3036186E-1,4.8345678E-2,2.3260258E-1,2.5696868E-2,3.7964433E-3,0E0,1.4643015E-1,0E0,0E0,0E0,0E0,0E0,0E0],"parents":[2147483647,0,0,1,1,2,2,3,3,4,4,6,6],"right_children":[2,4,6,8,10,-1,12,-1,-1,-1,-1,-1,-1],"split_conditions":[-6.272598E0,-8.557584E0,-5.5593686E0,1.0691468E-1,8.107623E0,4.2365085E-2,3.6087914E0,-1.050742E-2,1.360433E-2,-2.535094E-2,-5.933637E-3,-1.5913836E-3,7.7065183E-3],"split_indices":[4,4,5,0,1,0,0,0,0,0,0,0,0],"split_type":[0,0,0,0,0,0,0,0,0,0,0,0,0],"sum_hessian":[2.41E2,8E0,2.33E2,2E0,6E0,2E0,2.31E2,1E0,1E0,5E0,1E0,1.84E2,4.7E1],"tree_param":{"num_deleted":"0","num_feature":"10","num_nodes":"13","size_leaf_vector":"1"}},{"base_weights":[1.1334299E-3,3.7323958E-3,-3.1074248E-2,3.3958625E-2,-1.4307954E-2,1.399365E-2,-1.986364E-3,-4.053424E-3,9.221364E-3],"categories":[],"categories_nodes":[],"categories_segments":[],"categories_sizes":[],"default_left":[0,0,0,0,0,0,0,0,0],"id":25,"left_children":[1,3,-1,5,7,-1,-1,-1,-1],"loss_changes":[1.3178034E-1,1.3135588E-1,0E0,2.532849E-1,1.4716186E-1,0E0,0E0,0E0,0E0],"parents":[2147483647,0,0,1,1,3,3,4,4],"right_children":[2,4,-1,6,8,-1,-1,-1,-1],"split_conditions":[7.976575E0,-6.940257E-1,-3.1074248E-2,2.0751128E-1,2.8409388E0,1.399365E-2,-1.986364E-3,-4.053424E-3,9.221364E-3],"split_indices":[8,6,0,3,9,0,0,0,0],"split_type":[0,0,0,0,0,0,0,0,0],"sum_hessian":[2.41E2,2.39E2,2E0,8.9E1,1.5E2,3.9E1,5E1,1.29E2,2.1E1],"tree_param":{"num_deleted":"0","num_feature":"10","num_nodes":"9","size_leaf_vector":"1"}},{"base_weights":[9.059788E-4,4.3510282E-3,-1.3532448E-1,7.5872224E-3,-1.4732583E-1,-2.8297065E-2,-2.8679238E-3,-1.0862535E-4,1.25258E-2,-2.6199818E-4,-2.7492594E-2],"categories":[],"categories_nodes":[],"categories_segments":[],"categories_sizes":[],"default_left":[0,0,0,0,0,0,0,0,0,0,0],"id":26,"left_children":[1,3,5,7,9,-1,-1,-1,-1,-1,-1],"loss_changes":[1.14164405E-1,1.17450595E-1,3.3571295E-2,1.4708E-1,2.5853634E-2,0E0,0E0,0E0,0E0,0E0,0E0],"parents":[2147483647,0,0,1,1,2,2,3,3,4,4],"right_children":[2,4,6,8,10,-1,-1,-1,-1,-1,-1],"split_conditions":[4.949406E0,5.3648324E0,-1.1297601E-1,2.995445E0,-5.783741E0,-2.8297065E-2,-2.8679238E-3,-1.0862535E-4,1.25258E-2,-2.6199818E-4,-2.7492594E-2],"split_indices":[7,8,6,9,3,0,0,0,0,0,0],"split_type":[0,0,0,0,0,0,0,0,0,0,0],"sum_hessian":[2.41E2,2.36E2,5E0,2.32E2,4E0,3E0,2E0,2.1E2,2.2E1,1E0,3E0],"tree_param":{"num_deleted":"0","num_feature":"10","num_nodes":"11","size_leaf_vector":"1"}},{"base_weights":[5.779183E-4,1.7277466E-2,-2.4136495E-2,3.8783706E-3,1.2506528E-1,-9.1430835E-2,4.0873983E-3,-1.197176E-2,2.9730473E-3,3.1612802E-2,1.1841057E-2,-3.9899353E-2,-1.0297263E-2,-6.21621E-3,5.8905045E-3],"categories":[],"categories_nodes":[],"categories_segments":[],"categories_sizes":[],"default_left":[0,0,0,0,0,0,0,0,0,0,0,0,0,0,0],"id":27,"left_children":[1,3,5,7,9,11,13,-1,-1,-1,-1,-1,-1,-1,-1],"loss_changes":[1.0029514E-1,2.0893253E-1,1.8650593E-1,1.7502566E-1,4.6599805E-2,9.707309E-2,1.13754995E-1,0E0,0E0,0E0,0E0,0E0,0E0,0E0,0E0],"parents":[2147483647,0,0,1,1,2,2,3,3,4,4,5,5,6,6],"right_children":[2,4,6,8,10,12,14,-1,-1,-1,-1,-1,-1,-1,-1],"split_conditions":[-1.403641E-1,-4.4659454E-1,-1.455532E0,-4.0490694E0,-1.9472203E0,-6.133849E0,-1.3055054E0,-1.197176E-2,2.9730473E-3,3.1612802E-2,1.1841057E-2,-3.9899353E-2,-1.0297263E-2,-6.21621E-3,5.8905045E-3],"split_indices":[2,2,4,0,3,8,8,0,0,0,0,0,0,0,0],"split_type":[0,0,0,0,0,0,0,0,0,0,0,0,0,0,0],"sum_hessian":[2.41E2,1.44E2,9.7E1,1.29E2,1.5E1,2.8E1,6.9E1,2E1,1.09E2,4E0,1.1E1,2E0,2.6E1,3E1,3.9E1],"tree_param":{"num_deleted":"0","num_feature":"10","num_nodes":"15","size_leaf_vector":"1"}},{"base_weights":[4.2484282E-4,-1.0565761E-1,4.503121E-3,7.508715E-3,-1.390635E-1,-6.77697E-6,1.7588039E-1,-9.63019E-3,1.1319651E-2,-2.6115404E-2,-1.0388769E-2,1.3175915E-2,-7.904133E-4,-3.0564517E-4,3.980232E-2],"categories":[],"categories_nodes":[],"categories_segments":[],"categories_sizes":[],"default_left":[0,0,0,0,0,0,0,0,0,0,0,0,0,0,0],"id":28,"left_children":[1,3,5,7,9,11,13,-1,-1,-1,-1,-1,-1,-1,-1],"loss_changes":[1.0517316E-1,3.5068005E-2,1.8085839E-1,1.9464195E-2,5.0632805E-3,1.0633034E-1,9.6048966E-2,0E0,0E0,0E0,0E0,0E0,0E0,0E0,0E0],"parents":[2147483647,0,0,1,1,2,2,3,3,4,4,5,5,6,6],"right_children":[2,4,6,8,10,12,14,-1,-1,-1,-1,-1,-1,-1,-1],"split_conditions":[-6.272598E0,-8.557584E0,6.889447E0,1.0691468E-1,-6.4086664E-1,-5.3910666E0,-2.2144465E0,-9.63019E-3,1.1319651E-2,-2.6115404E-2,-1.0388769E-2,1.3175915E-2,-7.904133E-4,-3.0564517E-4,3.980232E-2],"split_indices":[4,4,1,0,6,6,6,0,0,0,0,0,0,0,0],"split_type":[0,0,0,0,0,0,0,0,0,0,0,0,0,0,0],"sum_hessian":[2.41E2,8E0,2.33E2,2E0,6E0,2.28E2,5E0,1E0,1E0,3E0,3E0,1.2E1,2.16E2,2E0,3E0],"tree_param":{"num_deleted":"0","num_feature":"10","num_nodes":"15","size_leaf_vector":"1"}},{"base_weights":[4.3164525E-4,3.4651058E-3,-1.1946198E-1,2.0903882E-2,-1.9037405E-2,-2.8558712E-2,-3.6399417E-2,6.2703127E-3,-4.127838E-3,-3.583038E-2,-1.8577684E-3,-1.1535243E-3,-6.5108677E-3],"categories":[],"categories_nodes":[],"categories_segments":[],"categories_sizes":[],"default_left":[0,0,0,0,0,0,0,0,0,0,0,0,0],"id":29,"left_children":[1,3,5,7,9,-1,11,-1,-1,-1,-1,-1,-1],"loss_changes":[8.842755E-2,9.34006E-2,2.8419353E-2,1.3675156E-1,1.4912938E-1,0E0,4.707924E-4,0E0,0E0,0E0,0E0,0E0,0E0],"parents":[2147483647,0,0,1,1,2,2,3,3,4,4,6,6],"right_children":[2,4,6,8,10,-1,12,-1,-1,-1,-1,-1,-1],"split_conditions":[4.949406E0,6.85203E-1,-1.0385785E0,1.9516839E0,-6.133849E0,-2.8558712E-2,-2.6688347E0,6.2703127E-3,-4.127838E-3,-3.583038E-2,-1.8577684E-3,-1.1535243E-3,-6.5108677E-3],"split_indices":[7,6,6,3,8,0,0,0,0,0,0,0,0],"split_type":[0,0,0,0,0,0,0,0,0,0,0,0,0],"sum_hessian":[2.41E2,2.36E2,5E0,1.33E2,1.03E2,2E0,3E0,9.3E1,4E1,2E0,1.01E2,1E0,2E0],"tree_param":{"num_deleted":"0","num_feature":"10","num_nodes":"13","size_leaf_vector":"1"}},{"base_weights":[7.033262E-5,-9.809552E-2,3.8456419E-3,2.7653675E-3,-1.2730797E-1,3.4108937E-2,9.383686E-4,-9.3781985E-3,1.0000407E-2,-2.34929E-2,-9.925445E-3,1.7902424E-3,-5.3295954E-3],"categories":[],"categories_nodes":[],"categories_segments":[],"categories_sizes":[],"default_left":[0,0,0,0,0,0,0,0,0,0,0,0,0],"id":30,"left_children":[1,3,5,7,9,-1,11,-1,-1,-1,-1,-1,-1],"loss_changes":[9.0064E-2,2.6869603E-2,1.5186624E-1,1.66845E-2,2.1808892E-3,0E0,9.3464024E-2,0E0,0E0,0E0,0E0,0E0,0E0],"parents":[2147483647,0,0,1,1,2,2,3,3,4,4,6,6],"right_children":[2,4,6,8,10,-1,12,-1,-1,-1,-1,-1,-1],"split_conditions":[-6.272598E0,-8.557584E0,-5.5593686E0,1.0691468E-1,-6.4086664E-1,3.4108937E-2,2.3673034E0,-9.3781985E-3,1.0000407E-2,-2.34929E-2,-9.925445E-3,1.7902424E-3,-5.3295954E-3],"split_indices":[4,4,5,0,6,0,3,0,0,0,0,0,0],"split_type":[0,0,0,0,0,0,0,0,0,0,0,0,0],"sum_hessian":[2.41E2,8E0,2.33E2,2E0,6E0,2E0,2.31E2,1E0,1E0,3E0,3E0,1.78E2,5.3E1],"tree_param":{"num_deleted":"0","num_feature":"10","num_nodes":"13","size_leaf_vector":"1"}},{"base_weights":[5.058267E-5,2.6781443E-3,-1.2503147E-1,-5.7828226E-3,4.3473102E-2,-1.0105805E-3,-2.293811E-2,2.3851176E-3,-3.5999585E-3,3.581162E-2,1.4580515E-3],"categories":[],"categories_nodes":[],"categories_segments":[],"categories_sizes":[],"default_left":[0,0,0,0,0,0,0,0,0,0,0],"id":31,"left_children":[1,3,5,7,9,-1,-1,-1,-1,-1,-1],"loss_changes":[7.987077E-2,8.240061E-2,1.5465438E-2,7.859322E-2,2.679077E-1,0E0,0E0,0E0,0E0,0E0,0E0],"parents":[2147483647,0,0,1,1,2,2,3,3,4,4],"right_children":[2,4,6,8,10,-1,-1,-1,-1,-1,-1],"split_conditions":[5.3648324E0,3.950774E0,-5.783741E0,-3.7814116E-1,-2.764479E-1,-1.0105805E-3,-2.293811E-2,2.3851176E-3,-3.5999585E-3,3.581162E-2,1.4580515E-3],"split_indices":[8,0,3,7,8,0,0,0,0,0,0],"split_type":[0,0,0,0,0,0,0,0,0,0,0],"sum_hessian":[2.41E2,2.37E2,4E0,1.97E2,4E1,1E0,3E0,9E1,1.07E2,5E0,3.5E1],"tree_param":{"num_deleted":"0","num_feature":"10","num_nodes":"11","size_leaf_vector":"1"}},{"base_weights":[9.302022E-5,-2.889061E-2,9.8068025E-3,-5.365973E-2,5.064534E-2,-5.194413E-2,1.9515451E-2,-3.1710375E-2,-6.292667E-3,1.7626293E-2,-1.5987443E-2,1.5959322E-2,-1.1755808E-2,4.969627E-2,2.3128896E-3],"categories":[],"categories_nodes":[],"categories_segments":[],"categories_sizes":[],"default_left":[0,0,0,0,0,0,0,0,0,0,0,0,0,0,0],"id":32,"left_children":[1,3,5,7,9,11,13,-1,-1,-1,-1,-1,-1,-1,-1],"loss_changes":[6.841617E-2,1.2288979E-1,1.1012599E-1,7.793811E-2,1.7021641E-1,1.12953104E-1,1.9668315E-1,0E0,0E0,0E0,0E0,0E0,0E0,0E0,0E0],"parents":[2147483647,0,0,1,1,2,2,3,3,4,4,5,5,6,6],"right_children":[2,4,6,8,10,12,14,-1,-1,-1,-1,-1,-1,-1,-1],"split_conditions":[-1.8867221E0,2.2785168E0,-4.0490694E0,-6.133849E0,1.1288997E0,-7.200248E-1,-3.984116E0,-3.1710375E-2,-6.292667E-3,1.7626293E-2,-1.5987443E-2,1.5959322E-2,-1.1755808E-2,4.969627E-2,2.3128896E-3],"split_indices":[4,8,0,8,9,4,0,0,0,0,0,0,0,0,0],"split_type":[0,0,0,0,0,0,0,0,0,0,0,0,0,0,0],"sum_hessian":[2.41E2,6E1,1.81E2,4.6E1,1.4E1,2.4E1,1.57E2,2E0,4.4E1,1E1,4E0,3E0,2.1E1,1E0,1.56E2],"tree_param":{"num_deleted":"0","num_feature":"10","num_nodes":"15","size_leaf_vector":"1"}},{"base_weights":[1.6107992E-4,2.7721997E-3,-1.0300499E-1,-1.55854635E-2,1.906812E-2,-2.5397165E-2,-2.752167E-2,-1.8824411E-4,-1.433908E-2,2.4921188E-2,1.9326358E-3,-1.8260942E-3,-5.51736E-3],"categories":[],"categories_nodes":[],"categories_segments":[],"categories_sizes":[],"default_left":[0,0,0,0,0,0,0,0,0,0,0,0,0],"id":33,"left_children":[1,3,5,7,9,-1,11,-1,-1,-1,-1,-1,-1],"loss_changes":[6.547526E-2,7.119693E-2,2.537173E-2,1.2829481E-1,1.1245426E-1,0E0,1.20736426E-4,0E0,0E0,0E0,0E0,0E0,0E0],"parents":[2147483647,0,0,1,1,2,2,3,3,4,4,6,6],"right_children":[2,4,6,8,10,-1,12,-1,-1,-1,-1,-1,-1],"split_conditions":[4.949406E0,-2.6958206E-1,-1.0385785E0,-6.7812186E-1,-4.2277207E0,-2.5397165E-2,4.9238488E-1,-1.8824411E-4,-1.433908E-2,2.4921188E-2,1.9326358E-3,-1.8260942E-3,-5.51736E-3],"split_indices":[7,4,6,4,1,0,2,0,0,0,0,0,0],"split_type":[0,0,0,0,0,0,0,0,0,0,0,0,0],"sum_hessian":[2.41E2,2.36E2,5E0,1.11E2,1.25E2,2E0,3E0,9.5E1,1.6E1,4E0,1.21E2,2E0,1E0],"tree_param":{"num_deleted":"0","num_feature":"10","num_nodes":"13","size_leaf_vector":"1"}},{"base_weights":[5.2564646E-5,-8.087191E-2,3.16482E-3,9.278526E-3,-1.0795468E-1,-4.8069557E-4,1.4177452E-1,-7.918769E-3,1.0006437E-2,-1.9032573E-2,-6.0631824E-3,-4.916385E-3,1.2397291E-3,-8.622721E-4,3.2545973E-2],"categories":[],"categories_nodes":[],"categories_segments":[],"categories_sizes":[],"default_left":[0,0,0,0,0,0,0,0,0,0,0,0,0,0,0],"id":34,"left_children":[1,3,5,7,9,11,13,-1,-1,-1,-1,-1,-1,-1,-1],"loss_changes":[6.120549E-2,2.297537E-2,1.1830923E-1,1.4216009E-2,3.8196594E-3,6.4949535E-2,6.780843E-2,0E0,0E0,0E0,0E0,0E0,0E0,0E0,0E0],"parents":[2147483647,0,0,1,1,2,2,3,3,4,4,5,5,6,6],"right_children":[2,4,6,8,10,12,14,-1,-1,-1,-1,-1,-1,-1,-1],"split_conditions":[-6.272598E0,-8.557584E0,6.889447E0,1.0691468E-1,-5.533181E-1,-1.8867221E0,-2.2144465E0,-7.918769E-3,1.0006437E-2,-1.9032573E-2,-6.0631824E-3,-4.916385E-3,1.2397291E-3,-8.622721E-4,3.2545973E-2],"split_indices":[4,4,1,0,6,4,6,0,0,0,0,0,0,0,0],"split_type":[0,0,0,0,0,0,0,0,0,0,0,0,0,0,0],"sum_hessian":[2.41E2,8E0,2.33E2,2E0,6E0,2.28E2,5E0,1E0,1E0,4E0,2E0,4.8E1,1.8E2,2E0,3E0],"tree_param":{"num_deleted":"0","num_feature":"10","num_nodes":"15","size_leaf_vector":"1"}},{"base_weights":[6.534209E-5,1.8293577E-3,-2.1161653E-2,1.5564821E-2,-1.568118E-2,2.9888256E-3,-1.9834336E-2,-3.3611606E-3,2.42172E-2],"categories":[],"categories_nodes":[],"categories_segments":[],"categories_sizes":[],"default_left":[0,0,0,0,0,0,0,0,0],"id":35,"left_children":[1,3,-1,5,7,-1,-1,-1,-1],"loss_changes":[6.051088E-2,5.7967756E-2,0E0,8.963972E-2,1.2991346E-1,0E0,0E0,0E0,0E0],"parents":[2147483647,0,0,1,1,3,3,4,4],"right_children":[2,4,-1,6,8,-1,-1,-1,-1],"split_conditions":[7.976575E0,6.85203E-1,-2.1161653E-2,4.949406E0,7.4592047E0,2.9888256E-3,-1.9834336E-2,-3.3611606E-3,2.42172E-2],"split_indices":[8,6,0,7,0,0,0,0,0],"split_type":[0,0,0,0,0,0,0,0,0],"sum_hessian":[2.41E2,2.39E2,2E0,1.34E2,1.05E2,1.31E2,3E0,1.02E2,3E0],"tree_param":{"num_deleted":"0","num_feature":"10","num_nodes":"9","size_leaf_vector":"1"}},{"base_weights":[-1.5324675E-5,1.2356099E-2,-1.8319827E-2,8.57664E-4,1.05008624E-1,-2.9257666E-2,7.084834E-2,-1.4694664E-2,1.3526536E-3,1.8804336E-2,-3.746658E-3,-5.28125E-3,2.2662103E-2,2.6733426E-2,1.2457571E-3],"categories":[],"categories_nodes":[],"categories_segments":[],"categories_sizes":[],"default_left":[0,0,0,0,0,0,0,0,0,0,0,0,0,0,0],"id":36,"left_children":[1,3,5,7,9,11,13,-1,-1,-1,-1,-1,-1,-1,-1],"loss_changes":[5.502792E-2,1.54387E-1,9.765297E-2,1.0571422E-1,4.5462295E-2,9.975505E-2,7.2390944E-2,0E0,0E0,0E0,0E0,0E0,0E0,0E0,0E0],"parents":[2147483647,0,0,1,1,2,2,3,3,4,4,5,5,6,6],"right_children":[2,4,6,8,10,12,14,-1,-1,-1,-1,-1,-1,-1,-1],"split_conditions":[-1.403641E-1,-4.4659454E-1,2.9942245E0,-4.7986126E0,1.2999947E0,7.4592047E0,3.2980506E0,-1.4694664E-2,1.3526536E-3,1.8804336E-2,-3.746658E-3,-5.28125E-3,2.2662103E-2,2.6733426E-2,1.2457571E-3],"split_indices":[2,2,1,0,1,0,1,0,0,0,0,0,0,0,0],"split_type":[0,0,0,0,0,0,0,0,0,0,0,0,0,0,0],"sum_hessian":[2.41E2,1.44E2,9.7E1,1.29E2,1.5E1,8.7E1,1E1,9E0,1.2E2,1.3E1,2E0,8.5E1,2E0,3E0,7E0],"tree_param":{"num_deleted":"0","num_feature":"10","num_nodes":"15","size_leaf_vector":"1"}},{"base_weights":[1.8149703E-4,-7.5156674E-2,3.0783433E-3,5.6883194E-3,-9.906786E-2,2.6977839E-2,7.792051E-4,-7.6504718E-3,8.930344E-3,-1.8786184E-2,-7.219129E-3,1.4645361E-3,-4.3525114E-3],"categories":[],"categories_nodes":[],"categories_segments":[],"categories_sizes":[],"default_left":[0,0,0,0,0,0,0,0,0,0,0,0,0],"id":37,"left_children":[1,3,5,7,9,-1,11,-1,-1,-1,-1,-1,-1],"loss_changes":[5.3046186E-2,1.7961428E-2,9.496393E-2,1.2194551E-2,3.3054128E-3,0E0,6.2389188E-2,0E0,0E0,0E0,0E0,0E0,0E0],"parents":[2147483647,0,0,1,1,2,2,3,3,4,4,6,6],"right_children":[2,4,6,8,10,-1,12,-1,-1,-1,-1,-1,-1],"split_conditions":[-6.272598E0,-8.557584E0,-5.5593686E0,1.0691468E-1,-6.4086664E-1,2.6977839E-2,2.3673034E0,-7.6504718E-3,8.930344E-3,-1.8786184E-2,-7.219129E-3,1.4645361E-3,-4.3525114E-3],"split_indices":[4,4,5,0,6,0,3,0,0,0,0,0,0],"split_type":[0,0,0,0,0,0,0,0,0,0,0,0,0],"sum_hessian":[2.41E2,8E0,2.33E2,2E0,6E0,2E0,2.31E2,1E0,1E0,3E0,3E0,1.78E2,5.3E1],"tree_param":{"num_deleted":"0","num_feature":"10","num_nodes":"13","size_leaf_vector":"1"}},{"base_weights":[1.5164037E-4,2.1540828E-3,-9.519494E-2,-3.9104052E-2,7.180174E-3,-1.7816306E-3,-1.6958237E-2,1.7590616E-2,-8.553236E-3,-9.994566E-3,1.5578421E-3],"categories":[],"categories_nodes":[],"categories_segments":[],"categories_sizes":[],"default_left":[0,0,0,0,0,0,0,0,0,0,0],"id":38,"left_children":[1,3,5,7,9,-1,-1,-1,-1,-1,-1],"loss_changes":[4.6409156E-2,4.9634155E-2,6.0974173E-3,7.953502E-2,5.1086843E-2,0E0,0E0,0E0,0E0,0E0,0E0],"parents":[2147483647,0,0,1,1,2,2,3,3,4,4],"right_children":[2,4,6,8,10,-1,-1,-1,-1,-1,-1],"split_conditions":[5.3648324E0,-4.6173844E0,-5.783741E0,-6.432115E0,-6.272598E0,-1.7816306E-3,-1.6958237E-2,1.7590616E-2,-8.553236E-3,-9.994566E-3,1.5578421E-3],"split_indices":[8,8,3,8,4,0,0,0,0,0,0],"split_type":[0,0,0,0,0,0,0,0,0,0,0],"sum_hessian":[2.41E2,2.37E2,4E0,2.5E1,2.12E2,1E0,3E0,2E0,2.3E1,8E0,2.04E2],"tree_param":{"num_deleted":"0","num_feature":"10","num_nodes":"11","size_leaf_vector":"1"}},{"base_weights":[5.3938817E-5,-2.2835007E-2,1.3175101E-3,-3.2773842E-3,6.2054787E-2,3.165563E-5,-1.3053443E-2,1.3243671E-2,-1.3471778E-2],"categories":[],"categories_nodes":[],"categories_segments":[],"categories_sizes":[],"default_left":[0,0,0,0,0,0,0,0,0],"id":39,"left_children":[1,-1,3,5,7,-1,-1,-1,-1],"loss_changes":[4.6767633E-2,0E0,6.746199E-2,6.574983E-2,7.566482E-2,0E0,0E0,0E0,0E0],"parents":[2147483647,0,0,2,2,3,3,4,4],"right_children":[2,-1,4,6,8,-1,-1,-1,-1],"split_conditions":[-5.6080427E0,-2.2835007E-2,5.3708243E0,4.0906205E0,4.854898E0,3.165563E-5,-1.3053443E-2,1.3243671E-2,-1.3471778E-2],"split_indices":[1,0,0,9,3,0,0,0,0],"split_type":[0,0,0,0,0,0,0,0,0],"sum_hessian":[2.41E2,1E0,2.4E2,2.24E2,1.6E1,2.16E2,8E0,1.4E1,2E0],"tree_param":{"num_deleted":"0","num_feature":"10","num_nodes":"9","size_leaf_vector":"1"}},{"base_weights":[-1.0326003E-4,1.3589399E-3,-1.7556725E-2,-5.4236664E-3,3.540756E-2,-1.3512485E-2,-2.1715637E-4,2.8451415E-2,1.1924828E-3],"categories":[],"categories_nodes":[],"categories_segments":[],"categories_sizes":[],"default_left":[0,0,0,0,0,0,0,0,0],"id":40,"left_children":[1,3,-1,5,7,-1,-1,-1,-1],"loss_changes":[4.153911E-2,5.5617254E-2,0E0,6.752675E-2,1.6792631E-1,0E0,0E0,0E0,0E0],"parents":[2147483647,0,0,1,1,3,3,4,4],"right_children":[2,4,-1,6,8,-1,-1,-1,-1],"split_conditions":[7.8431115E0,3.950774E0,-1.7556725E-2,-5.035258E0,-2.764479E-1,-1.3512485E-2,-2.1715637E-4,2.8451415E-2,1.1924828E-3],"split_indices":[6,0,0,3,8,0,0,0,0],"split_type":[0,0,0,0,0,0,0,0,0],"sum_hessian":[2.41E2,2.39E2,2E0,2E2,3.9E1,8E0,1.92E2,5E0,3.4E1],"tree_param":{"num_deleted":"0","num_feature":"10","num_nodes":"9","size_leaf_vector":"1"}},{"base_weights":[-9.455954E-5,-2.121182E-2,1.0785927E-3,-2.5852174E-3,4.950675E-2,1.01268105E-2,-8.220847E-4,1.1470996E-2,-8.587929E-3],"categories":[],"categories_nodes":[],"categories_segments":[],"categories_sizes":[],"default_left":[0,0,0,0,0,0,0,0,0],"id":41,"left_children":[1,-1,3,5,7,-1,-1,-1,-1],"loss_changes":[4.027298E-2,0E0,4.2889E-2,4.60351E-2,5.3320266E-2,0E0,0E0,0E0,0E0],"parents":[2147483647,0,0,2,2,3,3,4,4],"right_children":[2,-1,4,6,8,-1,-1,-1,-1],"split_conditions":[-5.6080427E0,-2.121182E-2,5.3708243E0,-4.2531757E0,4.2233872E0,1.01268105E-2,-8.220847E-4,1.1470996E-2,-8.587929E-3],"split_indices":[1,0,0,2,3,0,0,0,0],"split_type":[0,0,0,0,0,0,0,0,0],"sum_hessian":[2.41E2,1E0,2.4E2,2.24E2,1.6E1,8E0,2.16E2,1.3E1,3E0],"tree_param":{"num_deleted":"0","num_feature":"10","num_nodes":"9","size_leaf_vector":"1"}},{"base_weights":[-1.1766604E-4,9.905813E-2,-1.7770197E-3,2.0887854E-3,2.6584262E-2,-5.2388947E-2,2.0892574E-3,-3.7197354E-3,-2.593193E-2,6.7333933E-3,-6.053538E-4],"categories":[],"categories_nodes":[],"categories_segments":[],"categories_sizes":[],"default_left":[0,0,0,0,0,0,0,0,0,0,0],"id":42,"left_children":[1,3,5,-1,-1,7,9,-1,-1,-1,-1],"loss_changes":[4.0001415E-2,2.41515E-2,4.6876915E-2,0E0,0E0,5.222805E-2,5.864016E-2,0E0,0E0,0E0,0E0],"parents":[2147483647,0,0,1,1,2,2,5,5,6,6],"right_children":[2,4,6,-1,-1,8,10,-1,-1,-1,-1],"split_conditions":[-6.1675425E0,-2.0256908E0,-4.960833E0,2.0887854E-3,2.6584262E-2,-5.81975E-1,-3.5874207E0,-3.7197354E-3,-2.593193E-2,6.7333933E-3,-6.053538E-4],"split_indices":[7,0,7,0,0,0,5,0,0,0,0],"split_type":[0,0,0,0,0,0,0,0,0,0,0],"sum_hessian":[2.41E2,3E0,2.38E2,2E0,1E0,1.6E1,2.22E2,1.4E1,2E0,2.7E1,1.95E2],"tree_param":{"num_deleted":"0","num_feature":"10","num_nodes":"11","size_leaf_vector":"1"}},{"base_weights":[-7.874429E-5,6.9328204E-2,-2.441199E-3,4.5299802E-2,-7.053103E-3,9.3061715E-2,-4.0772785E-3,-5.9996094E-3,2.118614E-3,3.986305E-3,2.1939058E-2,-1.4464336E-2,1.2350115E-5],"categories":[],"categories_nodes":[],"categories_segments":[],"categories_sizes":[],"default_left":[0,0,0,0,0,0,0,0,0,0,0,0,0],"id":43,"left_children":[1,3,5,-1,7,9,11,-1,-1,-1,-1,-1,-1],"loss_changes":[3.9850168E-2,1.4430343E-1,3.7098277E-2,0E0,5.4486007E-3,1.0261018E-2,8.9130044E-2,0E0,0E0,0E0,0E0,0E0,0E0],"parents":[2147483647,0,0,1,1,2,2,4,4,5,5,6,6],"right_children":[2,4,6,-1,8,10,12,-1,-1,-1,-1,-1,-1],"split_conditions":[-5.2655654E0,-7.0254064E-1,-6.4554205E0,4.5299802E-2,-6.0707154E0,5.175946E0,-5.035258E0,-5.9996094E-3,2.118614E-3,3.986305E-3,2.1939058E-2,-1.4464336E-2,1.2350115E-5],"split_indices":[9,3,3,0,9,0,3,0,0,0,0,0,0],"split_type":[0,0,0,0,0,0,0,0,0,0,0,0,0],"sum_hessian":[2.41E2,7E0,2.34E2,1E0,6E0,3E0,2.31E2,2E0,4E0,2E0,1E0,9E0,2.22E2],"tree_param":{"num_deleted":"0","num_feature":"10","num_nodes":"13","size_leaf_vector":"1"}},{"base_weights":[1.5163788E-4,-2.0914692E-2,7.211498E-3,6.9328705E-3,-6.413522E-2,4.2768877E-2,-4.7801146E-3,-3.9515765E-3,1.3651045E-2,-2.2105198E-2,-5.1713483E-3,-3.7659335E-4,1.3841823E-2,2.4526322E-4,-2.1767683E-2],"categories":[],"categories_nodes":[],"categories_segments":[],"categories_sizes":[],"default_left":[0,0,0,0,0,0,0,0,0,0,0,0,0,0,0],"id":44,"left_children":[1,3,5,7,9,11,13,-1,-1,-1,-1,-1,-1,-1,-1],"loss_changes":[3.614236E-2,7.386342E-2,7.780748E-2,1.0871042E-1,5.416695E-2,1.033538E-1,1.2357772E-1,0E0,0E0,0E0,0E0,0E0,0E0,0E0,0E0],"parents":[2147483647,0,0,1,1,2,2,3,3,4,4,5,5,6,6],"right_children":[2,4,6,8,10,12,14,-1,-1,-1,-1,-1,-1,-1,-1],"split_conditions":[-1.8867221E0,-2.7208376E-1,-1.4187828E0,2.2785168E0,3.7904978E-2,8.185607E-1,4.0906205E0,-3.9515765E-3,1.3651045E-2,-2.2105198E-2,-5.1713483E-3,-3.7659335E-4,1.3841823E-2,2.4526322E-4,-2.1767683E-2],"split_indices":[4,2,1,8,2,9,9,0,0,0,0,0,0,0,0],"split_type":[0,0,0,0,0,0,0,0,0,0,0,0,0,0,0],"sum_hessian":[2.41E2,6E1,1.81E2,3.7E1,2.3E1,4.5E1,1.36E2,2.7E1,1E1,5E0,1.8E1,2.4E1,2.1E1,1.31E2,5E0],"tree_param":{"num_deleted":"0","num_feature":"10","num_nodes":"15","size_leaf_vector":"1"}},{"base_weights":[2.2960381E-5,-6.0956504E-2,2.3682262E-3,1.0733684E-2,-8.2972795E-2,2.2855628E-2,4.1832926E-4,-6.4610844E-3,8.8761635E-3,-1.6847193E-2,-4.9331672E-3,-3.4716043E-3,1.315847E-3],"categories":[],"categories_nodes":[],"categories_segments":[],"categories_sizes":[],"default_left":[0,0,0,0,0,0,0,0,0,0,0,0,0],"id":45,"left_children":[1,3,5,7,9,-1,11,-1,-1,-1,-1,-1,-1],"loss_changes":[3.475352E-2,1.509577E-2,6.8378836E-2,1.0368308E-2,6.5933205E-3,0E0,4.586981E-2,0E0,0E0,0E0,0E0,0E0,0E0],"parents":[2147483647,0,0,1,1,2,2,3,3,4,4,6,6],"right_children":[2,4,6,8,10,-1,12,-1,-1,-1,-1,-1,-1],"split_conditions":[-6.272598E0,-8.557584E0,-5.5593686E0,1.0691468E-1,-6.4086664E-1,2.2855628E-2,-1.509693E0,-6.4610844E-3,8.8761635E-3,-1.6847193E-2,-4.9331672E-3,-3.4716043E-3,1.315847E-3],"split_indices":[4,4,5,0,6,0,8,0,0,0,0,0,0],"split_type":[0,0,0,0,0,0,0,0,0,0,0,0,0],"sum_hessian":[2.41E2,8E0,2.33E2,2E0,6E0,2E0,2.31E2,1E0,1E0,3E0,3E0,6E1,1.71E2],"tree_param":{"num_deleted":"0","num_feature":"10","num_nodes":"13","size_leaf_vector":"1"}},{"base_weights":[2.50386E-5,1.6314248E-2,-1.3342734E-3,-9.955956E-2,1.609792E-3,8.842491E-3,-2.6213003E-2,4.525319E-4,-1.6161237E-2],"categories":[],"categories_nodes":[],"categories_segments":[],"categories_sizes":[],"default_left":[0,0,0,0,0,0,0,0,0],"id":46,"left_children":[1,-1,3,5,7,-1,-1,-1,-1],"loss_changes":[3.5914406E-2,0E0,6.9563866E-2,9.3734205E-2,3.6329903E-2,0E0,0E0,0E0,0E0],"parents":[2147483647,0,0,2,2,3,3,4,4],"right_children":[2,-1,4,6,8,-1,-1,-1,-1],"split_conditions":[-6.432115E0,1.6314248E-2,-6.133849E0,-3.8676722E0,7.8431115E0,8.842491E-3,-2.6213003E-2,4.525319E-4,-1.6161237E-2],"split_indices":[8,0,8,1,6,0,0,0,0],"split_type":[0,0,0,0,0,0,0,0,0],"sum_hessian":[2.41E2,2E0,2.39E2,6E0,2.33E2,2E0,4E0,2.31E2,2E0],"tree_param":{"num_deleted":"0","num_feature":"10","num_nodes":"9","size_leaf_vector":"1"}},{"base_weights":[-4.798257E-5,1.8448514E-3,-7.480693E-2,-1.7139863E-4,1.7900141E-2,-2.0614874E-2,-9.136023E-3,1.7104743E-3,-2.2893057E-3,-1.7914032E-3,-5.3702297E-5],"categories":[],"categories_nodes":[],"categories_segments":[],"categories_sizes":[],"default_left":[0,0,0,0,0,0,0,0,0,0,0],"id":47,"left_children":[1,3,5,7,-1,-1,9,-1,-1,-1,-1],"loss_changes":[3.4382522E-2,5.616292E-2,2.3420475E-2,4.1046232E-2,0E0,0E0,9.427199E-5,0E0,0E0,0E0,0E0],"parents":[2147483647,0,0,1,1,2,2,3,3,6,6],"right_children":[2,4,6,8,-1,-1,10,-1,-1,-1,-1],"split_conditions":[4.949406E0,4.805375E0,-1.0385785E0,5.2071947E-1,1.7900141E-2,-2.0614874E-2,-1.9764711E0,1.7104743E-3,-2.2893057E-3,-1.7914032E-3,-5.3702297E-5],"split_indices":[7,7,6,8,0,0,0,0,0,0,0],"split_type":[0,0,0,0,0,0,0,0,0,0,0],"sum_hessian":[2.41E2,2.36E2,5E0,2.33E2,3E0,2E0,3E0,1.32E2,1.01E2,2E0,1E0],"tree_param":{"num_deleted":"0","num_feature":"10","num_nodes":"11","size_leaf_vector":"1"}},{"base_weights":[-6.2021696E-5,4.27411E-2,-3.2814513E-3,-3.0075153E-3,3.8585577E-2,-2.9058821E-2,4.018831E-3,7.3032933E-3,-2.9983402E-3,-9.186562E-3,4.0015164E-3,1.2466251E-2,-5.725928E-4],"categories":[],"categories_nodes":[],"categories_segments":[],"categories_sizes":[],"default_left":[0,0,0,0,0,0,0,0,0,0,0,0,0],"id":48,"left_children":[1,3,5,7,-1,9,11,-1,-1,-1,-1,-1,-1],"loss_changes":[3.348825E-2,1.6759291E-1,4.264594E-2,1.414134E-2,0E0,9.132607E-2,1.10013805E-1,0E0,0E0,0E0,0E0,0E0,0E0],"parents":[2147483647,0,0,1,1,2,2,3,3,5,5,6,6],"right_children":[2,4,6,8,-1,10,12,-1,-1,-1,-1,-1,-1],"split_conditions":[-4.298954E0,3.084489E0,-1.504335E0,1.3730063E-1,3.8585577E-2,-4.6493316E-1,-1.131434E0,7.3032933E-3,-2.9983402E-3,-9.186562E-3,4.0015164E-3,1.2466251E-2,-5.725928E-4],"split_indices":[9,4,9,8,0,2,9,0,0,0,0,0,0],"split_type":[0,0,0,0,0,0,0,0,0,0,0,0,0],"sum_hessian":[2.41E2,1.6E1,2.25E2,1.4E1,2E0,4.9E1,1.76E2,3E0,1.1E1,3.1E1,1.8E1,1.5E1,1.61E2],"tree_param":{"num_deleted":"0","num_feature":"10","num_nodes":"13","size_leaf_vector":"1"}},{"base_weights":[1.5224451E-4,-1.9198075E-2,1.2150103E-3,1.2103525E-2,-1.2766622E-2,4.5990255E-3,-1.2956599E-3,-1.3798152E-2,-1.0553943E-4],"categories":[],"categories_nodes":[],"categories_segments":[],"categories_sizes":[],"default_left":[0,0,0,0,0,0,0,0,0],"id":49,"left_children":[1,-1,3,5,7,-1,-1,-1,-1],"loss_changes":[3.3111595E-2,0E0,3.6844168E-2,5.260962E-2,1.012337E-1,0E0,0E0,0E0,0E0],"parents":[2147483647,0,0,2,2,3,3,4,4],"right_children":[2,-1,4,6,8,-1,-1,-1,-1],"split_conditions":[-5.6080427E0,-1.9198075E-2,6.85203E-1,2.0751128E-1,1.1645781E0,4.5990255E-3,-1.2956599E-3,-1.3798152E-2,-1.0553943E-4],"split_indices":[1,0,6,3,6,0,0,0,0],"split_type":[0,0,0,0,0,0,0,0,0],"sum_hessian":[2.41E2,1E0,2.4E2,1.35E2,1.05E2,7.1E1,6.4E1,1.3E1,9.2E1],"tree_param":{"num_deleted":"0","num_feature":"10","num_nodes":"9","size_leaf_vector":"1"}}]},"name":"gbtree"},"learner_model_param":{"base_score":"4.9813277E-1","boost_from_average":"1","num_class":"0","num_feature":"10","num_target":"1"},"objective":{"name":"reg:squarederror","reg_loss_param":{"scale_pos_weight":"1"}}},"version":[2,0,3]}