{"learner":{"attributes":{"scikit_learn":"{\"_estimator_type\": \"regressor\"}"},"feature_names":[],"feature_types":[],"gradient_booster":{"model":{"gbtree_model_param":{"num_parallel_tree":"1","num_trees":"30"},"iteration_indptr":[0,1,2,3,4,5,6,7,8,9,10,11,12,13,14,15,16,17,18,19,20,21,22,23,24,25,26,27,28,29,30],"tree_info":[0,0,0,0,0,0,0,0,0,0,0,0,0,0,0,0,0,0,0,0,0,0,0,0,0,0,0,0,0,0],"trees":[{"base_weights":[1.366966E-8,-3.282419E-2,2.593112E-1,-6.376349E-2,2.8844497E-1,-4.264351E-2,5.0130566E-3,8.034677E-2,1.0826766E-2],"categories":[],"categories_nodes":[],"categories_segments":[],"categories_sizes":[],"default_left":[0,0,0,0,0,0,0,0,0],"id":0,"left_children":[1,3,-1,5,7,-1,-1,-1,-1],"loss_changes":[1.0341696E1,2.3741353E0,0E0,2.8861973E0,5.356941E-1,0E0,0E0,0E0,0E0],"parents":[2147483647,0,0,1,1,3,3,4,4],"right_children":[2,4,-1,6,8,-1,-1,-1,-1],"split_conditions":[6.258005E0,3.57703E0,2.593112E-1,-1.7087971E0,2.3762752E-1,-4.264351E-2,5.0130566E-3,8.034677E-2,1.0826766E-2],"split_indices":[4,4,0,0,3,0,0,0,0],"split_type":[0,0,0,0,0,0,0,0,0],"sum_hessian":[2.41E2,2.36E2,5E0,2.16E2,2E1,8E1,1.36E2,1.3E1,7E0],"tree_param":{"num_deleted":"0","num_feature":"10","num_nodes":"9","size_leaf_vector":"1"}},{"base_weights":[1.2928051E-3,-2.6033424E-2,1.0804634E0,-9.5900156E-2,7.579382E-2,5.7255607E-2,2.3640898E-1,-2.6910339E-2,3.5138756E-2,5.119268E-3,5.124841E-2],"categories":[],"categories_nodes":[],"categories_segments":[],"categories_sizes":[],"default_left":[0,0,0,0,0,0,0,0,0,0,0],"id":1,"left_children":[1,3,5,7,9,-1,-1,-1,-1,-1,-1],"loss_changes":[7.164626E0,1.6933666E0,1.456542E-1,1.5037907E0,8.7207156E-1,0E0,0E0,0E0,0E0,0E0,0E0],"parents":[2147483647,0,0,1,1,2,2,3,3,4,4],"right_children":[2,4,6,8,10,-1,-1,-1,-1,-1,-1],"split_conditions":[6.258005E0,6.536773E-1,-2.8377557E0,3.57703E0,1.911478E0,5.7255607E-2,2.3640898E-1,-2.6910339E-2,3.5138756E-2,5.119268E-3,5.124841E-2],"split_indices":[4,0,0,4,4,0,0,0,0,0,0],"split_type":[0,0,0,0,0,0,0,0,0,0,0],"sum_hessian":[2.41E2,2.36E2,5E0,1.4E2,9.6E1,1E0,4E0,1.23E2,1.7E1,7.6E1,2E1],"tree_param":{"num_deleted":"0","num_feature":"10","num_nodes":"11","size_leaf_vector":"1"}},{"base_weights":[2.5146578E-3,-2.0554183E-2,9.133147E-1,-4.3135114E-2,2.4080259E-1,2.1942206E-1,7.276317E-2,1.1617141E-1,-1.0898165E-2,7.3951066E-2,-2.0044181E-2],"categories":[],"categories_nodes":[],"categories_segments":[],"categories_sizes":[],"default_left":[0,0,0,0,0,0,0,0,0,0,0],"id":2,"left_children":[1,3,5,7,9,-1,-1,-1,-1,-1,-1],"loss_changes":[5.103459E0,1.4090852E0,2.0682621E-1,1.5834577E0,8.725996E-1,0E0,0E0,0E0,0E0,0E0,0E0],"parents":[2147483647,0,0,1,1,2,2,3,3,4,4],"right_children":[2,4,6,8,10,-1,-1,-1,-1,-1,-1],"split_conditions":[6.258005E0,5.1131287E0,-9.4483995E-1,-5.3611913E0,4.0936737E0,2.1942206E-1,7.276317E-2,1.1617141E-1,-1.0898165E-2,7.3951066E-2,-2.0044181E-2],"split_indices":[4,0,5,5,3,0,0,0,0,0,0],"split_type":[0,0,0,0,0,0,0,0,0,0,0],"sum_hessian":[2.41E2,2.36E2,5E0,2.18E2,1.8E1,3E0,2E0,3E0,2.15E2,1.3E1,5E0],"tree_param":{"num_deleted":"0","num_feature":"10","num_nodes":"11","size_leaf_vector":"1"}},{"base_weights":[3.8768784E-3,-1.5771693E-2,7.793493E-1,-3.654323E-2,1.9961858E-1,1.8650873E-1,6.306141E-2,-2.735962E-2,4.3680677E-3,1.14303984E-1,2.6078215E-2],"categories":[],"categories_nodes":[],"categories_segments":[],"categories_sizes":[],"default_left":[0,0,0,0,0,0,0,0,0,0,0],"id":3,"left_children":[1,3,5,7,9,-1,-1,-1,-1,-1,-1],"loss_changes":[3.6996274E0,1.0676297E0,1.3249445E-1,1.2731403E0,4.6614075E-1,0E0,0E0,0E0,0E0,0E0,0E0],"parents":[2147483647,0,0,1,1,2,2,3,3,4,4],"right_children":[2,4,6,8,10,-1,-1,-1,-1,-1,-1],"split_conditions":[6.258005E0,3.57703E0,-9.4483995E-1,-1.8976386E0,3.6756728E0,1.8650873E-1,6.306141E-2,-2.735962E-2,4.3680677E-3,1.14303984E-1,2.6078215E-2],"split_indices":[4,4,5,0,4,0,0,0,0,0,0],"split_type":[0,0,0,0,0,0,0,0,0,0,0],"sum_hessian":[2.41E2,2.36E2,5E0,2.16E2,2E1,3E0,2E0,7.9E1,1.37E2,2E0,1.8E1],"tree_param":{"num_deleted":"0","num_feature":"10","num_nodes":"11","size_leaf_vector":"1"}},{"base_weights":[4.6178643E-3,-1.2122041E-2,6.6507447E-1,-1.9198056E-1,9.99326E-3,1.5853243E-1,5.4653227E-2,-7.7699954E-3,-5.7051815E-2,3.6000106E-3,-1.1076269E-1],"categories":[],"categories_nodes":[],"categories_segments":[],"categories_sizes":[],"default_left":[0,0,0,0,0,0,0,0,0,0,0],"id":4,"left_children":[1,3,5,7,9,-1,-1,-1,-1,-1,-1],"loss_changes":[2.6836095E0,9.446157E-1,8.3331585E-2,3.6029625E-1,9.669969E-1,0E0,0E0,0E0,0E0,0E0,0E0],"parents":[2147483647,0,0,1,1,2,2,3,3,4,4],"right_children":[2,4,6,8,10,-1,-1,-1,-1,-1,-1],"split_conditions":[6.258005E0,-4.8170657E0,-9.4483995E-1,-3.8605902E0,7.3398147E0,1.5853243E-1,5.4653227E-2,-7.7699954E-3,-5.7051815E-2,3.6000106E-3,-1.1076269E-1],"split_indices":[4,8,5,1,8,0,0,0,0,0,0],"split_type":[0,0,0,0,0,0,0,0,0,0,0],"sum_hessian":[2.41E2,2.36E2,5E0,2.5E1,2.11E2,3E0,2E0,1E1,1.5E1,2.09E2,2E0],"tree_param":{"num_deleted":"0","num_feature":"10","num_nodes":"11","size_leaf_vector":"1"}},{"base_weights":[3.8645528E-3,-2.1300133E-2,3.6064702E-1,-1.3220064E-2,-9.369181E-2,1.4856385E-1,5.541597E-1,-7.689891E-3,2.3920292E-2,5.901615E-3,5.8001306E-2,1.24203876E-1,4.7144093E-2],"categories":[],"categories_nodes":[],"categories_segments":[],"categories_sizes":[],"default_left":[0,0,0,0,0,0,0,0,0,0,0,0,0],"id":5,"left_children":[1,3,5,7,-1,9,11,-1,-1,-1,-1,-1,-1],"loss_changes":[2.1804352E0,8.139751E-1,5.743246E-1,7.5522393E-1,0E0,1.4299858E-1,2.3938894E-2,0E0,0E0,0E0,0E0,0E0,0E0],"parents":[2147483647,0,0,1,1,2,2,3,3,5,5,6,6],"right_children":[2,4,6,8,-1,10,12,-1,-1,-1,-1,-1,-1],"split_conditions":[4.4718866E0,5.2570148E0,-6.869551E-1,3.822107E0,-9.369181E-2,4.176947E0,-9.4483995E-1,-7.689891E-3,2.3920292E-2,5.901615E-3,5.8001306E-2,1.24203876E-1,4.7144093E-2],"split_indices":[4,8,0,0,0,7,5,0,0,0,0,0,0],"split_type":[0,0,0,0,0,0,0,0,0,0,0,0,0],"sum_hessian":[2.41E2,2.26E2,1.5E1,2.23E2,3E0,8E0,7E0,1.88E2,3.5E1,5E0,3E0,5E0,2E0],"tree_param":{"num_deleted":"0","num_feature":"10","num_nodes":"13","size_leaf_vector":"1"}},{"base_weights":[3.7436662E-3,-1.7381346E-2,3.0322078E-1,-1.0503592E-2,-7.9638034E-2,1.259514E-1,4.6474624E-1,-2.9736696E-2,1.5205683E-3,4.918009E-3,4.9301114E-2,5.582122E-2,1.1612197E-1],"categories":[],"categories_nodes":[],"categories_segments":[],"categories_sizes":[],"default_left":[0,0,0,0,0,0,0,0,0,0,0,0,0],"id":6,"left_children":[1,3,5,7,-1,9,11,-1,-1,-1,-1,-1,-1],"loss_changes":[1.5362731E0,5.903553E-1,3.9960086E-1,5.6156605E-1,0E0,1.03914216E-1,1.001966E-2,0E0,0E0,0E0,0E0,0E0,0E0],"parents":[2147483647,0,0,1,1,2,2,3,3,5,5,6,6],"right_children":[2,4,6,8,-1,10,12,-1,-1,-1,-1,-1,-1],"split_conditions":[4.4718866E0,5.2570148E0,-6.869551E-1,-4.8170657E0,-7.9638034E-2,4.176947E0,1.7754341E0,-2.9736696E-2,1.5205683E-3,4.918009E-3,4.9301114E-2,5.582122E-2,1.1612197E-1],"split_indices":[4,8,0,8,0,7,7,0,0,0,0,0,0],"split_type":[0,0,0,0,0,0,0,0,0,0,0,0,0],"sum_hessian":[2.41E2,2.26E2,1.5E1,2.23E2,3E0,8E0,7E0,2.5E1,1.98E2,5E0,3E0,4E0,3E0],"tree_param":{"num_deleted":"0","num_feature":"10","num_nodes":"13","size_leaf_vector":"1"}},{"base_weights":[3.4838056E-3,-1.9773398E-2,2.2579254E-1,8.966704E-2,-2.8311005E-2,3.8785765E-1,-2.3677856E-2,4.7436403E-3,-1.6404128E-2,2.2841377E-2,8.4789775E-2,-3.487132E-2,3.237444E-2],"categories":[],"categories_nodes":[],"categories_segments":[],"categories_sizes":[],"default_left":[0,0,0,0,0,0,0,0,0,0,0,0,0],"id":7,"left_children":[1,3,5,-1,7,9,11,-1,-1,-1,-1,-1,-1],"loss_changes":[1.2556725E0,8.919288E-1,9.3908393E-1,0E0,6.0834527E-1,8.985162E-2,3.07808E-1,0E0,0E0,0E0,0E0,0E0,0E0],"parents":[2147483647,0,0,1,1,2,2,4,4,5,5,6,6],"right_children":[2,4,6,-1,8,10,12,-1,-1,-1,-1,-1,-1],"split_conditions":[5.1131287E0,-5.3611913E0,3.0734382E0,8.966704E-2,-2.2637999E-1,-1.8531657E0,-7.3287636E-1,4.7436403E-3,-1.6404128E-2,2.2841377E-2,8.4789775E-2,-3.487132E-2,3.237444E-2],"split_indices":[0,5,3,0,3,9,1,0,0,0,0,0,0],"split_type":[0,0,0,0,0,0,0,0,0,0,0,0,0],"sum_hessian":[2.41E2,2.19E2,2.2E1,3E0,2.16E2,1.3E1,9E0,1.1E2,1.06E2,2E0,1.1E1,5E0,4E0],"tree_param":{"num_deleted":"0","num_feature":"10","num_nodes":"13","size_leaf_vector":"1"}},{"base_weights":[3.5438281E-3,-1.865039E-2,1.8864389E-1,-1.388186E-1,1.1844159E-2,2.4852741E-1,-9.400989E-3,4.249861E-5,-3.7033748E-2,-3.844641E-2,4.8281266E-3,9.007388E-2,2.597089E-2,1.9969517E-2,-8.850071E-3],"categories":[],"categories_nodes":[],"categories_segments":[],"categories_sizes":[],"default_left":[0,0,0,0,0,0,0,0,0,0,0,0,0,0,0],"id":8,"left_children":[1,3,5,7,9,11,13,-1,-1,-1,-1,-1,-1,-1,-1],"loss_changes":[9.9769086E-1,7.968353E-1,3.106867E-1,2.8358036E-1,4.412793E-1,4.2058122E-1,3.106899E-2,0E0,0E0,0E0,0E0,0E0,0E0,0E0,0E0],"parents":[2147483647,0,0,1,1,2,2,3,3,4,4,5,5,6,6],"right_children":[2,4,6,8,10,12,14,-1,-1,-1,-1,-1,-1,-1,-1],"split_conditions":[3.57703E0,-3.4809027E0,5.716907E-1,-1.1029892E0,-6.4662437E0,9.5603013E-1,-2.6624403E0,4.249861E-5,-3.7033748E-2,-3.844641E-2,4.8281266E-3,9.007388E-2,2.597089E-2,1.9969517E-2,-8.850071E-3],"split_indices":[4,0,3,3,4,8,0,0,0,0,0,0,0,0,0],"split_type":[0,0,0,0,0,0,0,0,0,0,0,0,0,0,0],"sum_hessian":[2.41E2,2.16E2,2.5E1,4.3E1,1.73E2,1.9E1,6E0,1.1E1,3.2E1,9E0,1.64E2,6E0,1.3E1,1E0,5E0],"tree_param":{"num_deleted":"0","num_feature":"10","num_nodes":"15","size_leaf_vector":"1"}},{"base_weights":[3.068752E-3,-1.4732014E-2,1.7320353E-1,7.4435614E-2,-2.179611E-2,2.5665512E-2,3.6243638E-1,-1.3088618E-2,3.497187E-3,3.7857782E-2,-1.7253693E-2,8.1164084E-2,2.5186697E-2],"categories":[],"categories_nodes":[],"categories_segments":[],"categories_sizes":[],"default_left":[0,0,0,0,0,0,0,0,0,0,0,0,0],"id":9,"left_children":[1,3,5,-1,7,9,11,-1,-1,-1,-1,-1,-1],"loss_changes":[7.3545575E-1,6.094093E-1,6.3283575E-1,0E0,3.732001E-1,2.727399E-1,5.1498175E-2,0E0,0E0,0E0,0E0,0E0,0E0],"parents":[2147483647,0,0,1,1,2,2,4,4,5,5,6,6],"right_children":[2,4,6,-1,8,10,12,-1,-1,-1,-1,-1,-1],"split_conditions":[5.1131287E0,-5.3611913E0,1.911478E0,7.4435614E-2,-1.0518286E-1,2.5477674E0,5.4024487E0,-1.3088618E-2,3.497187E-3,3.7857782E-2,-1.7253693E-2,8.1164084E-2,2.5186697E-2],"split_indices":[0,5,4,0,4,3,1,0,0,0,0,0,0],"split_type":[0,0,0,0,0,0,0,0,0,0,0,0,0],"sum_hessian":[2.41E2,2.19E2,2.2E1,3E0,2.16E2,1.3E1,9E0,1.02E2,1.14E2,5E0,8E0,7E0,2E0],"tree_param":{"num_deleted":"0","num_feature":"10","num_nodes":"13","size_leaf_vector":"1"}},{"base_weights":[3.2475612E-3,-1.3042855E-2,1.3908498E-1,-9.627643E-2,1.37718255E-2,8.62974E-2,9.6739516E-2,1.0040781E-2,-2.3931662E-2,4.069052E-3,-6.959507E-2,9.049795E-3,6.8576E-2],"categories":[],"categories_nodes":[],"categories_segments":[],"categories_sizes":[],"default_left":[0,0,0,0,0,0,0,0,0,0,0,0,0],"id":10,"left_children":[1,3,5,7,9,-1,11,-1,-1,-1,-1,-1,-1],"loss_changes":[5.373233E-1,4.8564422E-1,2.801875E-1,1.8753153E-1,3.9943662E-1,0E0,2.886588E-1,0E0,0E0,0E0,0E0,0E0,0E0],"parents":[2147483647,0,0,1,1,2,2,3,3,4,4,6,6],"right_children":[2,4,6,8,10,-1,12,-1,-1,-1,-1,-1,-1],"split_conditions":[3.57703E0,-3.1183693E0,3.6756728E0,-1.0926317E0,4.6355867E0,8.62974E-2,7.5461426E0,1.0040781E-2,-2.3931662E-2,4.069052E-3,-6.959507E-2,9.049795E-3,6.8576E-2],"split_indices":[4,0,4,7,8,0,4,0,0,0,0,0,0],"split_type":[0,0,0,0,0,0,0,0,0,0,0,0,0],"sum_hessian":[2.41E2,2.16E2,2.5E1,5.2E1,1.64E2,2E0,2.3E1,7E0,4.5E1,1.62E2,2E0,2E1,3E0],"tree_param":{"num_deleted":"0","num_feature":"10","num_nodes":"13","size_leaf_vector":"1"}},{"base_weights":[2.9472485E-3,-1.0489384E-2,1.3134342E-1,7.2862916E-2,-1.559912E-2,2.0041111E-1,-9.775024E-2,1.0287854E-3,-1.8654382E-2,-2.9239723E-2,4.587997E-2,-2.62603E-2,-4.0863655E-3],"categories":[],"categories_nodes":[],"categories_segments":[],"categories_sizes":[],"default_left":[0,0,0,0,0,0,0,0,0,0,0,0,0],"id":11,"left_children":[1,3,5,-1,7,9,11,-1,-1,-1,-1,-1,-1],"loss_changes":[4.1887906E-1,4.2701587E-1,3.835186E-1,0E0,3.5171488E-1,2.1439785E-1,1.288205E-2,0E0,0E0,0E0,0E0,0E0,0E0],"parents":[2147483647,0,0,1,1,2,2,4,4,5,5,6,6],"right_children":[2,4,6,-1,8,10,12,-1,-1,-1,-1,-1,-1],"split_conditions":[5.1131287E0,-5.377196E0,4.0936737E0,7.2862916E-2,2.1909482E0,-5.552632E0,-7.3287636E-1,1.0287854E-3,-1.8654382E-2,-2.9239723E-2,4.587997E-2,-2.62603E-2,-4.0863655E-3],"split_indices":[0,5,3,0,3,1,1,0,0,0,0,0,0],"split_type":[0,0,0,0,0,0,0,0,0,0,0,0,0],"sum_hessian":[2.41E2,2.19E2,2.2E1,2E0,2.17E2,1.7E1,5E0,1.72E2,4.5E1,1E0,1.6E1,3E0,2E0],"tree_param":{"num_deleted":"0","num_feature":"10","num_nodes":"13","size_leaf_vector":"1"}},{"base_weights":[2.529419E-3,-1.0396936E-1,1.5277985E-2,1.6300272E-3,-1.7007084E-1,-6.8638707E-3,8.748214E-2,-1.0028145E-2,2.0952806E-2,-1.10260425E-2,-5.5624045E-2,2.9335732E-3,-1.7697673E-2,1.1473286E-2,5.3717136E-2],"categories":[],"categories_nodes":[],"categories_segments":[],"categories_sizes":[],"default_left":[0,0,0,0,0,0,0,0,0,0,0,0,0,0,0],"id":12,"left_children":[1,3,5,7,9,11,13,-1,-1,-1,-1,-1,-1,-1,-1],"loss_changes":[3.3015344E-1,1.8176442E-1,3.4752572E-1,6.398552E-2,1.8337536E-1,2.948033E-1,2.6274934E-1,0E0,0E0,0E0,0E0,0E0,0E0,0E0,0E0],"parents":[2147483647,0,0,1,1,2,2,3,3,4,4,5,5,6,6],"right_children":[2,4,6,8,10,12,14,-1,-1,-1,-1,-1,-1,-1,-1],"split_conditions":[-4.8170657E0,-3.8605902E0,2.247394E0,-4.062995E0,-4.575379E-1,2.5696084E0,5.5839024E0,-1.0028145E-2,2.0952806E-2,-1.10260425E-2,-5.5624045E-2,2.9335732E-3,-1.7697673E-2,1.1473286E-2,5.3717136E-2],"split_indices":[8,1,4,1,9,8,0,0,0,0,0,0,0,0,0],"split_type":[0,0,0,0,0,0,0,0,0,0,0,0,0,0,0],"sum_hessian":[2.41E2,2.5E1,2.16E2,1E1,1.5E1,1.66E2,5E1,7E0,3E0,8E0,7E0,1.32E2,3.4E1,4.4E1,6E0],"tree_param":{"num_deleted":"0","num_feature":"10","num_nodes":"15","size_leaf_vector":"1"}},{"base_weights":[2.0016425E-3,2.63549E-1,-2.3840943E-3,1.7135946E-2,7.9715684E-2,1.1064694E-3,-5.5468787E-2,-2.9809473E-2,1.5374622E-3],"categories":[],"categories_nodes":[],"categories_segments":[],"categories_sizes":[],"default_left":[0,0,0,0,0,0,0,0,0],"id":13,"left_children":[1,3,5,-1,-1,7,-1,-1,-1],"loss_changes":[2.7822116E-1,6.1920255E-2,2.2969067E-1,0E0,0E0,2.3533463E-1,0E0,0E0,0E0],"parents":[2147483647,0,0,1,1,2,2,5,5],"right_children":[2,4,6,-1,-1,8,-1,-1,-1],"split_conditions":[-6.5416594E0,5.216449E0,7.3398147E0,1.7135946E-2,7.9715684E-2,-6.4662437E0,-5.5468787E-2,-2.9809473E-2,1.5374622E-3],"split_indices":[3,0,8,0,0,4,0,0,0],"split_type":[0,0,0,0,0,0,0,0,0],"sum_hessian":[2.41E2,3E0,2.38E2,2E0,1E0,2.36E2,2E0,9E0,2.27E2],"tree_param":{"num_deleted":"0","num_feature":"10","num_nodes":"9","size_leaf_vector":"1"}},{"base_weights":[1.6554899E-3,-2.5624117E-2,3.8718496E-2,5.515748E-2,-3.199086E-2,5.445786E-2,-1.1310337E-1,-2.2633059E-2,-3.1240291E-3,6.5221377E-3,3.53939E-2,-7.5830296E-3,-3.138193E-2],"categories":[],"categories_nodes":[],"categories_segments":[],"categories_sizes":[],"default_left":[0,0,0,0,0,0,0,0,0,0,0,0,0],"id":14,"left_children":[1,3,5,-1,7,9,11,-1,-1,-1,-1,-1,-1],"loss_changes":[2.4566968E-1,2.77484E-1,2.5228605E-1,0E0,1.8161826E-1,2.4582303E-1,2.6987925E-2,0E0,0E0,0E0,0E0,0E0,0E0],"parents":[2147483647,0,0,1,1,2,2,4,4,5,5,6,6],"right_children":[2,4,6,-1,8,10,12,-1,-1,-1,-1,-1,-1],"split_conditions":[5.8403516E-1,-4.8614483E0,4.0936737E0,5.515748E-2,-2.4873235E0,2.3634937E0,1.3377919E0,-2.2633059E-2,-3.1240291E-3,6.5221377E-3,3.53939E-2,-7.5830296E-3,-3.138193E-2],"split_indices":[0,5,3,0,8,9,2,0,0,0,0,0,0],"split_type":[0,0,0,0,0,0,0,0,0,0,0,0,0],"sum_hessian":[2.41E2,1.39E2,1.02E2,2E0,1.37E2,9.3E1,9E0,2.2E1,1.15E2,8E1,1.3E1,4E0,5E0],"tree_param":{"num_deleted":"0","num_feature":"10","num_nodes":"13","size_leaf_vector":"1"}},{"base_weights":[1.4580783E-3,-1.1569E-1,8.613602E-3,-2.9446367E-2,-2.2577378E-1,-7.1520224E-2,2.1993313E-2,1.8748321E-3,-3.400106E-2,-5.4159034E-2,-1.809747E-2,1.7242989E-2,-1.9249946E-2,-2.4262955E-2,5.8998195E-3],"categories":[],"categories_nodes":[],"categories_segments":[],"categories_sizes":[],"default_left":[0,0,0,0,0,0,0,0,0,0,0,0,0,0,0],"id":15,"left_children":[1,3,5,7,9,11,13,-1,-1,-1,-1,-1,-1,-1,-1],"loss_changes":[2.0385446E-1,1.2626813E-1,2.4709931E-1,5.07028E-2,1.2041181E-2,1.3702168E-1,2.154797E-1,0E0,0E0,0E0,0E0,0E0,0E0,0E0,0E0],"parents":[2147483647,0,0,1,1,2,2,3,3,4,4,5,5,6,6],"right_children":[2,4,6,8,10,12,14,-1,-1,-1,-1,-1,-1,-1,-1],"split_conditions":[-5.7370014E0,7.682492E-2,-4.1518445E0,1.1894703E0,-5.939021E0,-1.467897E0,-6.4662437E0,1.8748321E-3,-3.400106E-2,-5.4159034E-2,-1.809747E-2,1.7242989E-2,-1.9249946E-2,-2.4262955E-2,5.8998195E-3],"split_indices":[8,9,0,1,8,7,4,0,0,0,0,0,0,0,0],"split_type":[0,0,0,0,0,0,0,0,0,0,0,0,0,0,0],"sum_hessian":[2.41E2,1.3E1,2.28E2,8E0,5E0,3.2E1,1.96E2,7E0,1E0,3E0,2E0,4E0,2.8E1,9E0,1.87E2],"tree_param":{"num_deleted":"0","num_feature":"10","num_nodes":"15","size_leaf_vector":"1"}},{"base_weights":[6.509469E-4,3.242865E-2,-2.3532456E-2,5.772708E-3,1.3877752E-1,-8.184694E-2,1.3791246E-2,-4.1208887E-3,1.9696608E-2,4.79276E-2,-1.10151E-2,1.0876569E-2,-2.0001728E-2,-1.660871E-2,6.1693755E-3],"categories":[],"categories_nodes":[],"categories_segments":[],"categories_sizes":[],"default_left":[0,0,0,0,0,0,0,0,0,0,0,0,0,0,0],"id":16,"left_children":[1,3,5,7,9,11,13,-1,-1,-1,-1,-1,-1,-1,-1],"loss_changes":[1.867384E-1,2.9685596E-1,3.014875E-1,2.0989113E-1,4.2379236E-1,1.3904363E-1,1.4294581E-1,0E0,0E0,0E0,0E0,0E0,0E0,0E0,0E0],"parents":[2147483647,0,0,1,1,2,2,3,3,4,4,5,5,6,6],"right_children":[2,4,6,8,10,12,14,-1,-1,-1,-1,-1,-1,-1,-1],"split_conditions":[-6.82476E-1,1.5486212E0,1.1473026E-1,1.8296112E0,2.2294226E0,-5.3867717E0,-3.4809027E0,-4.1208887E-3,1.9696608E-2,4.79276E-2,-1.10151E-2,1.0876569E-2,-2.0001728E-2,-1.660871E-2,6.1693755E-3],"split_indices":[3,7,4,9,8,6,0,0,0,0,0,0,0,0,0],"split_type":[0,0,0,0,0,0,0,0,0,0,0,0,0,0,0],"sum_hessian":[2.41E2,1.04E2,1.37E2,8.4E1,2E1,5.3E1,8.4E1,6.6E1,1.8E1,1.3E1,7E0,6E0,4.7E1,1.2E1,7.2E1],"tree_param":{"num_deleted":"0","num_feature":"10","num_nodes":"15","size_leaf_vector":"1"}},{"base_weights":[6.568058E-4,4.7201742E-3,-1.5995571E-1,-2.9763042E-3,9.3183786E-2,-1.8577927E-1,-3.0837923E-3,-9.670355E-3,2.81162E-3,5.8963776E-2,-4.511389E-3,-3.2078326E-3,-4.4840902E-2],"categories":[],"categories_nodes":[],"categories_segments":[],"categories_sizes":[],"default_left":[0,0,0,0,0,0,0,0,0,0,0,0,0],"id":17,"left_children":[1,3,5,7,9,11,-1,-1,-1,-1,-1,-1,-1],"loss_changes":[1.5869096E-1,1.6164075E-1,1.9530207E-2,1.6995451E-1,4.5006073E-1,2.9015467E-2,0E0,0E0,0E0,0E0,0E0,0E0,0E0],"parents":[2147483647,0,0,1,1,2,2,3,3,4,4,5,5],"right_children":[2,4,6,8,10,12,-1,-1,-1,-1,-1,-1,-1],"split_conditions":[5.6441813E0,3.3454647E0,1.5548562E0,-1.3734851E0,1.6435665E-1,-4.1585937E0,-3.0837923E-3,-9.670355E-3,2.81162E-3,5.8963776E-2,-4.511389E-3,-3.2078326E-3,-4.4840902E-2],"split_indices":[3,9,1,8,8,0,0,0,0,0,0,0,0],"split_type":[0,0,0,0,0,0,0,0,0,0,0,0,0],"sum_hessian":[2.41E2,2.36E2,5E0,2.18E2,1.8E1,4E0,1E0,5.9E1,1.59E2,6E0,1.2E1,1E0,3E0],"tree_param":{"num_deleted":"0","num_feature":"10","num_nodes":"13","size_leaf_vector":"1"}},{"base_weights":[5.1082706E-4,-8.039939E-3,7.185719E-2,-1.1110682E-2,4.2941988E-2,6.925371E-2,3.456172E-2,1.4762992E-2,-3.8490163E-3,-3.8088176E-2,1.2734582E-2],"categories":[],"categories_nodes":[],"categories_segments":[],"categories_sizes":[],"default_left":[0,0,0,0,0,0,0,0,0,0,0],"id":18,"left_children":[1,3,5,7,-1,-1,9,-1,-1,-1,-1],"loss_changes":[1.4821371E-1,1.5081522E-1,2.5412416E-1,1.4994664E-1,0E0,0E0,1.6932814E-1,0E0,0E0,0E0,0E0],"parents":[2147483647,0,0,1,1,2,2,3,3,6,6],"right_children":[2,4,6,8,-1,-1,10,-1,-1,-1,-1],"split_conditions":[3.57703E0,7.6886215E0,3.6756728E0,-4.946707E0,4.2941988E-2,6.925371E-2,3.8538988E0,1.4762992E-2,-3.8490163E-3,-3.8088176E-2,1.2734582E-2],"split_indices":[4,0,4,6,0,0,4,0,0,0,0],"split_type":[0,0,0,0,0,0,0,0,0,0,0],"sum_hessian":[2.41E2,2.16E2,2.5E1,2.14E2,2E0,2E0,2.3E1,1.8E1,1.96E2,2E0,2.1E1],"tree_param":{"num_deleted":"0","num_feature":"10","num_nodes":"11","size_leaf_vector":"1"}},{"base_weights":[8.1262115E-4,-1.8869083E-2,2.7556563E-2,4.0590025E-2,-2.3554508E-2,8.7246194E-2,-5.746255E-4,-2.3202488E-2,-2.926571E-3,-5.942734E-3,2.517238E-2,-7.838435E-3,1.0701818E-2],"categories":[],"categories_nodes":[],"categories_segments":[],"categories_sizes":[],"default_left":[0,0,0,0,0,0,0,0,0,0,0,0,0],"id":19,"left_children":[1,3,5,-1,7,9,11,-1,-1,-1,-1,-1,-1],"loss_changes":[1.2790063E-1,1.5028478E-1,1.7300159E-1,0E0,1.12135485E-1,1.5278393E-1,1.5038635E-1,0E0,0E0,0E0,0E0,0E0,0E0],"parents":[2147483647,0,0,1,1,2,2,4,4,5,5,6,6],"right_children":[2,4,6,-1,8,10,12,-1,-1,-1,-1,-1,-1],"split_conditions":[5.8403516E-1,-4.8614483E0,-9.710243E-1,4.0590025E-2,-4.1375213E0,-1.4212246E0,6.0959935E-1,-2.3202488E-2,-2.926571E-3,-5.942734E-3,2.517238E-2,-7.838435E-3,1.0701818E-2],"split_indices":[0,5,3,0,4,9,4,0,0,0,0,0,0],"split_type":[0,0,0,0,0,0,0,0,0,0,0,0,0],"sum_hessian":[2.41E2,1.39E2,1.02E2,2E0,1.37E2,3.2E1,7E1,1.1E1,1.26E2,8E0,2.4E1,4.1E1,2.9E1],"tree_param":{"num_deleted":"0","num_feature":"10","num_nodes":"13","size_leaf_vector":"1"}},{"base_weights":[8.011405E-4,3.2685215E-3,-3.9371278E-2,-3.4699647E-3,8.183038E-2,-2.9713368E-2,1.1158425E-4,-1.1603962E-2,3.364893E-2],"categories":[],"categories_nodes":[],"categories_segments":[],"categories_sizes":[],"default_left":[0,0,0,0,0,0,0,0,0],"id":20,"left_children":[1,3,-1,5,7,-1,-1,-1,-1],"loss_changes":[1.18665956E-1,1.2733707E-1,0E0,1.2982716E-1,2.3937753E-1,0E0,0E0,0E0,0E0],"parents":[2147483647,0,0,1,1,3,3,4,4],"right_children":[2,4,-1,6,8,-1,-1,-1,-1],"split_conditions":[7.3398147E0,3.3454647E0,-3.9371278E-2,-5.029527E0,-1.717484E0,-2.9713368E-2,1.1158425E-4,-1.1603962E-2,3.364893E-2],"split_indices":[8,9,0,3,2,0,0,0,0],"split_type":[0,0,0,0,0,0,0,0,0],"sum_hessian":[2.41E2,2.39E2,2E0,2.21E2,1.8E1,5E0,2.16E2,7E0,1.1E1],"tree_param":{"num_deleted":"0","num_feature":"10","num_nodes":"9","size_leaf_vector":"1"}},{"base_weights":[4.4699936E-4,-1.03791386E-1,4.9188314E-3,2.1578614E-2,-3.8193565E-2,2.7289947E-2,-2.214175E-2,-9.455351E-3,2.970001E-2,1.6295614E-2,-4.652318E-3,-4.5948084E-2,-3.1880855E-3],"categories":[],"categories_nodes":[],"categories_segments":[],"categories_sizes":[],"default_left":[0,0,0,0,0,0,0,0,0,0,0,0,0],"id":21,"left_children":[1,3,5,7,-1,9,11,-1,-1,-1,-1,-1,-1],"loss_changes":[1.1331559E-1,1.134139E-1,1.4165673E-1,5.0716706E-2,0E0,3.5252476E-1,1.3280082E-1,0E0,0E0,0E0,0E0,0E0,0E0],"parents":[2147483647,0,0,1,1,2,2,3,3,5,5,6,6],"right_children":[2,4,6,8,-1,10,12,-1,-1,-1,-1,-1,-1],"split_conditions":[-6.4662437E0,-2.6222894E0,5.8409905E-1,-2.8016615E0,-3.8193565E-2,2.3762752E-1,-6.0800166E0,-9.455351E-3,2.970001E-2,1.6295614E-2,-4.652318E-3,-4.5948084E-2,-3.1880855E-3],"split_indices":[4,2,6,2,0,3,8,0,0,0,0,0,0],"split_type":[0,0,0,0,0,0,0,0,0,0,0,0,0],"sum_hessian":[2.41E2,9E0,2.32E2,4E0,5E0,1.27E2,1.05E2,3E0,1E0,6.1E1,6.6E1,2E0,1.03E2],"tree_param":{"num_deleted":"0","num_feature":"10","num_nodes":"13","size_leaf_vector":"1"}},{"base_weights":[1.2849548E-4,1.6656639E-2,-2.4750242E-2,1.7197719E-1,1.10703055E-2,-4.0508464E-2,1.0213298E-1,3.9424077E-2,7.1404427E-3,5.0203498E-3,-1.1120182E-2,-9.569957E-3,3.6199685E-2,4.3380465E-2,6.396338E-3],"categories":[],"categories_nodes":[],"categories_segments":[],"categories_sizes":[],"default_left":[0,0,0,0,0,0,0,0,0,0,0,0,0,0,0],"id":22,"left_children":[1,3,5,7,9,11,13,-1,-1,-1,-1,-1,-1,-1,-1],"loss_changes":[9.992251E-2,1.24776326E-1,1.980843E-1,1.0094315E-2,1.3423572E-1,1.5013604E-1,8.16265E-2,0E0,0E0,0E0,0E0,0E0,0E0,0E0,0E0],"parents":[2147483647,0,0,1,1,2,2,3,3,4,4,5,5,6,6],"right_children":[2,4,6,8,10,12,14,-1,-1,-1,-1,-1,-1,-1,-1],"split_conditions":[-7.836046E-2,-3.360667E0,2.992304E0,2.5499332E0,2.6624584E0,7.6886215E0,3.2044027E0,3.9424077E-2,7.1404427E-3,5.0203498E-3,-1.1120182E-2,-9.569957E-3,3.6199685E-2,4.3380465E-2,6.396338E-3],"split_indices":[2,8,1,0,3,0,1,0,0,0,0,0,0,0,0],"split_type":[0,0,0,0,0,0,0,0,0,0,0,0,0,0,0],"sum_hessian":[2.41E2,1.45E2,9.6E1,4E0,1.41E2,8.6E1,1E1,3E0,1E0,1.17E2,2.4E1,8.4E1,2E0,3E0,7E0],"tree_param":{"num_deleted":"0","num_feature":"10","num_nodes":"15","size_leaf_vector":"1"}},{"base_weights":[5.8573566E-4,-1.16288E-2,2.9587124E-2,6.388666E-2,-1.8246444E-2,-2.0129161E-4,9.7297214E-2,-4.5979936E-3,2.2941178E-2,-2.767728E-2,-1.4848149E-3,8.064355E-3,-1.827312E-2,2.85364E-2,-2.8520972E-2],"categories":[],"categories_nodes":[],"categories_segments":[],"categories_sizes":[],"default_left":[0,0,0,0,0,0,0,0,0,0,0,0,0,0,0],"id":23,"left_children":[1,3,5,7,9,11,13,-1,-1,-1,-1,-1,-1,-1,-1],"loss_changes":[8.606978E-2,8.662027E-2,1.4524187E-1,6.4447135E-2,2.0440406E-1,1.920911E-1,2.5988108E-1,0E0,0E0,0E0,0E0,0E0,0E0,0E0,0E0],"parents":[2147483647,0,0,1,1,2,2,3,3,4,4,5,5,6,6],"right_children":[2,4,6,8,10,12,14,-1,-1,-1,-1,-1,-1,-1,-1],"split_conditions":[2.3644533E0,-4.946707E0,1.0404719E0,-2.3201015E0,-2.1930635E0,1.286761E0,2.6624584E0,-4.5979936E-3,2.2941178E-2,-2.767728E-2,-1.4848149E-3,8.064355E-3,-1.827312E-2,2.85364E-2,-2.8520972E-2],"split_indices":[0,6,9,0,6,5,3,0,0,0,0,0,0,0,0],"split_type":[0,0,0,0,0,0,0,0,0,0,0,0,0,0,0],"sum_hessian":[2.41E2,1.7E2,7.1E1,1.3E1,1.57E2,5E1,2.1E1,5E0,8E0,1.2E1,1.45E2,3.5E1,1.5E1,1.8E1,3E0],"tree_param":{"num_deleted":"0","num_feature":"10","num_nodes":"15","size_leaf_vector":"1"}},{"base_weights":[3.8176368E-4,2.35586E-3,-3.1534642E-2,1.8654944E-2,-1.7737973E-2,1.6546802E-3,2.9104117E-2,1.6759945E-2,-5.339797E-3],"categories":[],"categories_nodes":[],"categories_segments":[],"categories_sizes":[],"default_left":[0,0,0,0,0,0,0,0,0],"id":24,"left_children":[1,3,-1,5,7,-1,-1,-1,-1],"loss_changes":[7.5879276E-2,7.893355E-2,0E0,1.7396516E-1,1.0050447E-1,0E0,0E0,0E0,0E0],"parents":[2147483647,0,0,1,1,3,3,4,4],"right_children":[2,4,-1,6,8,-1,-1,-1,-1],"split_conditions":[1.3454686E1,5.8409905E-1,-3.1534642E-2,2.8305182E-1,-4.273968E0,1.6546802E-3,2.9104117E-2,1.6759945E-2,-5.339797E-3],"split_indices":[2,6,0,6,2,0,0,0,0],"split_type":[0,0,0,0,0,0,0,0,0],"sum_hessian":[2.41E2,2.39E2,2E0,1.32E2,1.07E2,1.23E2,9E0,8E0,9.9E1],"tree_param":{"num_deleted":"0","num_feature":"10","num_nodes":"9","size_leaf_vector":"1"}},{"base_weights":[3.4939742E-4,1.2216637E-1,-2.2112508E-3,-5.1699937E-3,3.312659E-2,3.61979E-3,-5.687619E-2,-3.183831E-4,2.473318E-2,-3.4911048E-2,-2.8980102E-3],"categories":[],"categories_nodes":[],"categories_segments":[],"categories_sizes":[],"default_left":[0,0,0,0,0,0,0,0,0,0,0],"id":25,"left_children":[1,3,5,-1,-1,7,9,-1,-1,-1,-1],"loss_changes":[7.57573E-2,3.6450416E-2,7.606921E-2,0E0,0E0,1.3533618E-1,1.1219376E-1,0E0,0E0,0E0,0E0],"parents":[2147483647,0,0,1,1,2,2,5,5,6,6],"right_children":[2,4,6,-1,-1,8,10,-1,-1,-1,-1],"split_conditions":[-5.8076177E0,-7.3287636E-1,3.4466553E0,-5.1699937E-3,3.312659E-2,3.2000933E0,3.77522E0,-3.183831E-4,2.473318E-2,-3.4911048E-2,-2.8980102E-3],"split_indices":[5,1,8,0,0,8,8,0,0,0,0],"split_type":[0,0,0,0,0,0,0,0,0,0,0],"sum_hessian":[2.41E2,4E0,2.37E2,1E0,3E0,2.15E2,2.2E1,2.07E2,8E0,5E0,1.7E1],"tree_param":{"num_deleted":"0","num_feature":"10","num_nodes":"11","size_leaf_vector":"1"}},{"base_weights":[3.3969796E-4,-8.190164E-2,3.8679112E-3,2.204135E-2,-1.5487053E-1,4.0784045E-4,1.155205E-1,2.0069873E-2,-1.2722756E-2,-1.2649397E-2,-3.697411E-2,3.1213174E-2,-3.338825E-4,-3.7563147E-4,4.080781E-2],"categories":[],"categories_nodes":[],"categories_segments":[],"categories_sizes":[],"default_left":[0,0,0,0,0,0,0,0,0,0,0,0,0,0,0],"id":26,"left_children":[1,3,5,7,9,11,13,-1,-1,-1,-1,-1,-1,-1,-1],"loss_changes":[7.053671E-2,7.9259604E-2,8.996681E-2,3.9921023E-2,4.7997534E-3,7.365896E-2,7.312693E-2,0E0,0E0,0E0,0E0,0E0,0E0,0E0,0E0],"parents":[2147483647,0,0,1,1,2,2,3,3,4,4,5,5,6,6],"right_children":[2,4,6,8,10,12,14,-1,-1,-1,-1,-1,-1,-1,-1],"split_conditions":[-6.4662437E0,-2.6222894E0,6.4233074E0,6.856284E0,2.6863655E-1,-6.5416594E0,1.5476232E0,2.0069873E-2,-1.2722756E-2,-1.2649397E-2,-3.697411E-2,3.1213174E-2,-3.338825E-4,-3.7563147E-4,4.080781E-2],"split_indices":[4,2,1,1,0,3,7,0,0,0,0,0,0,0,0],"split_type":[0,0,0,0,0,0,0,0,0,0,0,0,0,0,0],"sum_hessian":[2.41E2,9E0,2.32E2,4E0,5E0,2.26E2,6E0,2E0,2E0,2E0,3E0,2E0,2.24E2,3E0,3E0],"tree_param":{"num_deleted":"0","num_feature":"10","num_nodes":"15","size_leaf_vector":"1"}},{"base_weights":[3.9174058E-4,-6.027265E-2,4.665919E-3,3.7899364E-2,-1.0834169E-1,-2.2670146E-2,1.8574601E-2,2.1088775E-2,-4.446772E-3,-2.5074914E-2,6.1987103E-3,-2.648117E-2,-8.630953E-4,4.79428E-2,2.799494E-3],"categories":[],"categories_nodes":[],"categories_segments":[],"categories_sizes":[],"default_left":[0,0,0,0,0,0,0,0,0,0,0,0,0,0,0],"id":27,"left_children":[1,3,5,7,9,11,13,-1,-1,-1,-1,-1,-1,-1,-1],"loss_changes":[6.3029505E-2,7.9610646E-2,8.672845E-2,2.6714435E-2,2.999188E-2,1.5451911E-1,1.4948443E-1,0E0,0E0,0E0,0E0,0E0,0E0,0E0,0E0],"parents":[2147483647,0,0,1,1,2,2,3,3,4,4,5,5,6,6],"right_children":[2,4,6,8,10,12,14,-1,-1,-1,-1,-1,-1,-1,-1],"split_conditions":[-5.629868E0,-1.4137814E0,-1.2504965E0,7.9451644E-1,3.013432E0,-1.3734851E0,-1.1929245E0,2.1088775E-2,-4.446772E-3,-2.5074914E-2,6.1987103E-3,-2.648117E-2,-8.630953E-4,4.79428E-2,2.799494E-3],"split_indices":[8,9,9,0,0,8,9,0,0,0,0,0,0,0,0],"split_type":[0,0,0,0,0,0,0,0,0,0,0,0,0,0,0],"sum_hessian":[2.41E2,1.5E1,2.26E2,5E0,1E1,7.6E1,1.5E2,2E0,3E0,9E0,1E0,1E1,6.6E1,2E0,1.48E2],"tree_param":{"num_deleted":"0","num_feature":"10","num_nodes":"15","size_leaf_vector":"1"}},{"base_weights":[4.008449E-4,-1.6433585E-2,1.4554033E-2,8.720325E-3,-5.9591975E-2,1.6380307E-1,8.610289E-3,3.589419E-2,2.3400092E-4,7.650654E-5,-1.6319077E-2,4.61456E-2,-1.0389662E-2,-6.3820384E-3,5.087262E-3],"categories":[],"categories_nodes":[],"categories_segments":[],"categories_sizes":[],"default_left":[0,0,0,0,0,0,0,0,0,0,0,0,0,0,0],"id":28,"left_children":[1,3,5,7,9,11,13,-1,-1,-1,-1,-1,-1,-1,-1],"loss_changes":[5.7898298E-2,1.2102151E-1,1.15686566E-1,9.132478E-2,5.413659E-2,8.418167E-2,8.808189E-2,0E0,0E0,0E0,0E0,0E0,0E0,0E0,0E0],"parents":[2147483647,0,0,1,1,2,2,3,3,4,4,5,5,6,6],"right_children":[2,4,6,8,10,12,14,-1,-1,-1,-1,-1,-1,-1,-1],"split_conditions":[-2.2796495E-1,-8.300213E-2,-4.4042277E0,-5.377196E0,-3.8605902E0,5.9957275E0,-6.7680734E-1,3.589419E-2,2.3400092E-4,7.650654E-5,-1.6319077E-2,4.61456E-2,-1.0389662E-2,-6.3820384E-3,5.087262E-3],"split_indices":[4,2,1,5,1,0,1,0,0,0,0,0,0,0,0],"split_type":[0,0,0,0,0,0,0,0,0,0,0,0,0,0,0],"sum_hessian":[2.41E2,1.1E2,1.31E2,7E1,4E1,4E0,1.27E2,2E0,6.8E1,1.1E1,2.9E1,3E0,1E0,3.7E1,9E1],"tree_param":{"num_deleted":"0","num_feature":"10","num_nodes":"15","size_leaf_vector":"1"}},{"base_weights":[5.452488E-4,-7.174658E-2,3.6455623E-3,1.7408218E-2,-1.340845E-1,6.095098E-3,-1.0927229E-1,-7.6141856E-3,2.3932481E-2,-1.1123105E-2,-3.188302E-2,4.988562E-3,-1.7943577E-3,-2.448395E-3,-2.6093874E-2],"categories":[],"categories_nodes":[],"categories_segments":[],"categories_sizes":[],"default_left":[0,0,0,0,0,0,0,0,0,0,0,0,0,0,0],"id":29,"left_children":[1,3,5,7,9,11,13,-1,-1,-1,-1,-1,-1,-1,-1],"loss_changes":[5.4500375E-2,5.7911407E-2,6.511296E-2,3.2920532E-2,3.0600429E-3,6.525435E-2,8.686595E-3,0E0,0E0,0E0,0E0,0E0,0E0,0E0,0E0],"parents":[2147483647,0,0,1,1,2,2,3,3,4,4,5,5,6,6],"right_children":[2,4,6,8,10,12,14,-1,-1,-1,-1,-1,-1,-1,-1],"split_conditions":[-6.4662437E0,-2.6222894E0,5.6441813E0,-2.8016615E0,2.6863655E-1,-2.6397565E-1,-4.1585937E0,-7.6141856E-3,2.3932481E-2,-1.1123105E-2,-3.188302E-2,4.988562E-3,-1.7943577E-3,-2.448395E-3,-2.6093874E-2],"split_indices":[4,2,3,2,0,6,0,0,0,0,0,0,0,0,0],"split_type":[0,0,0,0,0,0,0,0,0,0,0,0,0,0,0],"sum_hessian":[2.41E2,9E0,2.32E2,4E0,5E0,2.28E2,4E0,3E0,1E0,2E0,3E0,1.01E2,1.27E2,1E0,3E0],"tree_param":{"num_deleted":"0","num_feature":"10","num_nodes":"15","size_leaf_vector":"1"}}]},"name":"gbtree"},"learner_model_param":{"base_score":"4.9813277E-1","boost_from_average":"1","num_class":"0","num_feature":"10","num_target":"1"},"objective":{"name":"reg:squarederror","reg_loss_param":{"scale_pos_weight":"1"}}},"version":[2,0,3]}