{"learner":{"attributes":{"scikit_learn":"{\"_estimator_type\": \"regressor\"}"},"feature_names":[],"feature_types":[],"gradient_booster":{"model":{"gbtree_model_param":{"num_parallel_tree":"1","num_trees":"2"},"iteration_indptr":[0,1,2],"tree_info":[0,0],"trees":[{"base_weights":[5.6293277E-9,1.5033709E-1,-2.1297753E0,4.3370786E-1,-5.4710114E-1,-2.5786517E-2,-2.4525844E-1,8.8519496E-1,2.5350812E-1,-8.1956077E-1,1.0882022E-1,1.016249E0,3.6741576E-1,4.6353424E-1,-2.9913568E-1,-2.841573E-1,-1.1683664E0,3.8951315E-2,1.0947906E0,4.132023E-2,9.213484E-3,5.6412244E-1,-2.1258429E-1,-5.3876406E-1,7.022473E-2,-6.4644194E-1,2.0741573E-1,-1.2310862E-1,-2.0786516E-2,3.8951315E-2,1.2082397E-1,-3.8679773E-1,6.887208E-1,3.9213482E-2,-4.6179777E-1,-8.1179775E-2,-2.1258426E-1,-1.1048689E-1,1.8820226E-1,-7.8651606E-4,-7.7258426E-1,-2.5786517E-2,3.8820226E-2,2.284645E-3,-8.078652E-2,-1.1797734E-3,7.806058E-2,-5.4382026E-2,-1.0786516E-2,-5.786516E-3,-2.3679776E-2,-1.5786517E-2,-7.8651606E-4,-7.8651606E-4,2.5617978E-2,-1.0786516E-2,-9.117978E-2],"categories":[],"categories_nodes":[],"categories_segments":[],"categories_sizes":[],"default_left":[0,0,0,0,0,0,0,0,0,0,0,0,0,0,0,0,0,0,0,0,0,0,0,0,0,0,0,0,0,0,0,0,0,0,0,0,0,0,0,0,0,0,0,0,0,0,0,0,0,0,0,0,0,0,0,0,0],"id":0,"left_children":[1,3,5,7,9,-1,-1,11,13,15,-1,17,19,21,23,25,27,-1,29,-1,-1,31,33,35,37,39,41,-1,-1,-1,-1,43,45,-1,47,-1,49,51,53,-1,55,-1,-1,-1,-1,-1,-1,-1,-1,-1,-1,-1,-1,-1,-1,-1,-1],"loss_changes":[2.9136765E1,1.703614E1,2.9931774E0,4.738426E0,1.2030703E1,0E0,0E0,7.8018284E-1,5.3617926E0,3.7765388E0,0E0,2.1348763E-1,2.4950445E-2,2.3642397E0,1.1884546E0,1.9149758E0,5.272503E-1,0E0,4.0951824E-1,0E0,0E0,3.702406E0,9.3460774E-1,5.398891E-1,1.4871334E-1,4.7723293E-1,5.206864E-1,0E0,0E0,0E0,0E0,7.084081E-1,1.6827545E0,0E0,5.7462454E-2,0E0,5.029097E-3,1.3344489E-2,5.5327624E-2,0E0,3.643384E-1,0E0,0E0,0E0,0E0,0E0,0E0,0E0,0E0,0E0,0E0,0E0,0E0,0E0,0E0,0E0,0E0],"parents":[2147483647,0,0,1,1,2,2,3,3,4,4,7,7,8,8,9,9,11,11,12,12,13,13,14,14,15,15,16,16,18,18,21,21,22,22,23,23,24,24,25,25,26,26,31,31,32,32,34,34,36,36,37,37,38,38,40,40],"right_children":[2,4,6,8,10,-1,-1,12,14,16,-1,18,20,22,24,26,28,-1,30,-1,-1,32,34,36,38,40,42,-1,-1,-1,-1,44,46,-1,48,-1,50,52,54,-1,56,-1,-1,-1,-1,-1,-1,-1,-1,-1,-1,-1,-1,-1,-1,-1,-1],"split_conditions":[5.9536815E0,1.4253064E0,-5.56493E0,-2.4440408E0,2.0867934E0,-2.5786517E-2,-2.4525844E-1,1.2371304E0,1.7920368E0,-1.9207834E0,1.0882022E-1,2.5925522E0,-3.3745263E0,2.0076137E0,3.4183683E0,1.1383636E0,1.2021544E-2,3.8951315E-2,-4.0164785E0,4.132023E-2,9.213484E-3,-4.875302E0,-5.2481194E0,2.5029624E0,-3.673863E0,-7.7740927E0,-6.6313066E0,-1.2310862E-1,-2.0786516E-2,3.8951315E-2,1.2082397E-1,-4.976539E0,-5.384442E0,3.9213482E-2,2.177335E0,-8.1179775E-2,3.7605262E0,-6.246165E0,6.136844E0,-7.8651606E-4,-2.5731912E0,-2.5786517E-2,3.8820226E-2,2.284645E-3,-8.078652E-2,-1.1797734E-3,7.806058E-2,-5.4382026E-2,-1.0786516E-2,-5.786516E-3,-2.3679776E-2,-1.5786517E-2,-7.8651606E-4,-7.8651606E-4,2.5617978E-2,-1.0786516E-2,-9.117978E-2],"split_indices":[4,3,0,4,6,0,0,9,6,2,0,1,0,8,6,5,6,0,9,0,0,0,0,2,3,0,0,0,0,0,0,0,2,0,0,0,2,0,1,0,9,0,0,0,0,0,0,0,0,0,0,0,0,0,0,0,0],"split_type":[0,0,0,0,0,0,0,0,0,0,0,0,0,0,0,0,0,0,0,0,0,0,0,0,0,0,0,0,0,0,0,0,0,0,0,0,0,0,0,0,0,0,0,0,0,0,0,0,0,0,0,0,0,0,0,0,0],"sum_hessian":[8.9E1,8.4E1,5E0,6E1,2.4E1,1E0,4E0,1.6E1,4.4E1,2.1E1,3E0,1.2E1,4E0,3.2E1,1.2E1,9E0,1.2E1,2E0,1E1,3E0,1E0,2.8E1,4E0,7E0,5E0,5E0,4E0,1.1E1,1E0,2E0,8E0,3E0,2.5E1,1E0,3E0,3E0,4E0,2E0,3E0,1E0,4E0,1E0,3E0,2E0,1E0,3E0,2.2E1,2E0,1E0,1E0,3E0,1E0,1E0,1E0,2E0,1E0,3E0],"tree_param":{"num_deleted":"0","num_feature":"10","num_nodes":"57","size_leaf_vector":"1"}},{"base_weights":[-3.0726679E-3,1.3523872E-1,-1.9619719E0,3.922928E-1,-4.9738276E-1,-2.449719E-2,-2.2563775E-1,8.113379E-1,2.2526924E-1,-7.482235E-1,1.00658715E-1,1.0034757E0,4.6974838E-1,4.1634518E-1,-2.7709806E-1,-9.5380586E-1,-4.103619E-2,3.6354557E-2,1.11801505E-1,5.1184725E-2,8.752808E-3,6.316335E-1,1.15890265E-1,-4.9871838E-1,6.457868E-2,-1.1598314E-1,-4.9379346E-1,-5.6085516E-2,3.590871E-2,1.0675531E-1,8.6567307E-1,-2.291005E-1,4.4639474E-1,-7.509129E-1,-1.9721909E-1,-1.0496253E-1,1.7558992E-1,-1.5370783E-1,-7.104307E-2,2.2939807E-2,1.1818606E-3,9.473584E-2,-5.727528E-3,6.0413938E-2,-6.0753703E-2,5.394431E-2,-1.0247189E-2,-8.56367E-2,-2.1727528E-2,-5.497189E-3,-2.1903792E-2,-1.4997191E-2,-7.471889E-4,-7.471889E-4,2.3910116E-2,-7.471889E-4,-1.9996254E-2],"categories":[],"categories_nodes":[],"categories_segments":[],"categories_sizes":[],"default_left":[0,0,0,0,0,0,0,0,0,0,0,0,0,0,0,0,0,0,0,0,0,0,0,0,0,0,0,0,0,0,0,0,0,0,0,0,0,0,0,0,0,0,0,0,0,0,0,0,0,0,0,0,0,0,0,0,0],"id":1,"left_children":[1,3,5,7,9,-1,-1,11,13,15,-1,17,19,21,23,25,27,-1,-1,-1,-1,29,31,33,35,-1,37,-1,-1,39,41,43,45,47,49,51,53,55,-1,-1,-1,-1,-1,-1,-1,-1,-1,-1,-1,-1,-1,-1,-1,-1,-1,-1,-1],"loss_changes":[2.464976E1,1.4017643E1,2.480217E0,4.086644E0,1.0184576E1,0E0,0E0,6.443672E-1,4.434932E0,3.1593351E0,0E0,3.2652187E-1,8.392739E-2,2.0613866E0,1.0165993E0,1.0384474E0,1.449346E0,0E0,0E0,0E0,0E0,2.2415867E0,1.812584E0,4.6019745E-1,1.3135624E-1,0E0,4.0652764E-1,0E0,0E0,7.8791924E-2,1.0343485E0,2.8896644E0,4.638468E-1,3.9029837E-2,3.4774095E-3,1.2043405E-2,4.829245E-2,2.5562294E-2,0E0,0E0,0E0,0E0,0E0,0E0,0E0,0E0,0E0,0E0,0E0,0E0,0E0,0E0,0E0,0E0,0E0,0E0,0E0],"parents":[2147483647,0,0,1,1,2,2,3,3,4,4,7,7,8,8,9,9,11,11,12,12,13,13,14,14,15,15,16,16,21,21,22,22,23,23,24,24,26,26,29,29,30,30,31,31,32,32,33,33,34,34,35,35,36,36,37,37],"right_children":[2,4,6,8,10,-1,-1,12,14,16,-1,18,20,22,24,26,28,-1,-1,-1,-1,30,32,34,36,-1,38,-1,-1,40,42,44,46,48,50,52,54,56,-1,-1,-1,-1,-1,-1,-1,-1,-1,-1,-1,-1,-1,-1,-1,-1,-1,-1,-1],"split_conditions":[5.9536815E0,1.4253064E0,-5.56493E0,-2.4440408E0,2.0867934E0,-2.449719E-2,-2.2563775E-1,3.6852604E-1,1.7920368E0,2.035886E0,1.00658715E-1,-4.0164785E0,2.269779E0,9.459691E-1,3.4183683E0,-6.991155E-1,-6.6313066E0,3.6354557E-2,1.11801505E-1,5.1184725E-2,8.752808E-3,-1.4742907E0,-2.6355112E0,2.5029624E0,-3.673863E0,-1.1598314E-1,1.1698414E0,-5.6085516E-2,3.590871E-2,-2.4665792E0,5.175129E0,-3.6400037E0,1.8749989E0,9.9572486E-1,3.7605262E0,-6.246165E0,6.136844E0,-7.7740927E0,-7.104307E-2,2.2939807E-2,1.1818606E-3,9.473584E-2,-5.727528E-3,6.0413938E-2,-6.0753703E-2,5.394431E-2,-1.0247189E-2,-8.56367E-2,-2.1727528E-2,-5.497189E-3,-2.1903792E-2,-1.4997191E-2,-7.471889E-4,-7.471889E-4,2.3910116E-2,-7.471889E-4,-1.9996254E-2],"split_indices":[4,3,0,4,6,0,0,9,6,5,0,9,8,8,6,6,0,0,0,0,0,8,1,2,3,0,7,0,0,5,0,2,0,4,2,0,1,0,0,0,0,0,0,0,0,0,0,0,0,0,0,0,0,0,0,0,0],"split_type":[0,0,0,0,0,0,0,0,0,0,0,0,0,0,0,0,0,0,0,0,0,0,0,0,0,0,0,0,0,0,0,0,0,0,0,0,0,0,0,0,0,0,0,0,0,0,0,0,0,0,0,0,0,0,0,0,0],"sum_hessian":[8.9E1,8.4E1,5E0,6E1,2.4E1,1E0,4E0,1.6E1,4.4E1,2.1E1,3E0,9E0,7E0,3.2E1,1.2E1,1.6E1,5E0,2E0,7E0,6E0,1E0,1.8E1,1.4E1,7E0,5E0,1E1,6E0,2E0,3E0,6E0,1.2E1,7E0,7E0,3E0,4E0,2E0,3E0,3E0,3E0,2E0,4E0,1.1E1,1E0,2E0,5E0,6E0,1E0,2E0,1E0,1E0,3E0,1E0,1E0,1E0,2E0,1E0,2E0],"tree_param":{"num_deleted":"0","num_feature":"10","num_nodes":"57","size_leaf_vector":"1"}}]},"name":"gbtree"},"learner_model_param":{"base_score":"5.157303E-1","boost_from_average":"1","num_class":"0","num_feature":"10","num_target":"1"},"objective":{"name":"reg:squarederror","reg_loss_param":{"scale_pos_weight":"1"}}},"version":[2,0,3]}