{"learner":{"attributes":{"scikit_learn":"{\"_estimator_type\": \"regressor\"}"},"feature_names":[],"feature_types":[],"gradient_booster":{"model":{"gbtree_model_param":{"num_parallel_tree":"1","num_trees":"50"},"iteration_indptr":[0,1,2,3,4,5,6,7,8,9,10,11,12,13,14,15,16,17,18,19,20,21,22,23,24,25,26,27,28,29,30,31,32,33,34,35,36,37,38,39,40,41,42,43,44,45,46,47,48,49,50],"tree_info":[0,0,0,0,0,0,0,0,0,0,0,0,0,0,0,0,0,0,0,0,0,0,0,0,0,0,0,0,0,0,0,0,0,0,0,0,0,0,0,0,0,0,0,0,0,0,0,0,0,0],"trees":[{"base_weights":[5.6293277E-9,-1.348015E0,2.6605558E-1,4.2284647E-1,-1.6529819E0,-9.2990494E-1,5.04828E-1,2.1685396E-1,3.6853936E-2,-8.739647E-1,-8.849117E-1,-5.805056E-1,-7.977526E-2,-3.917603E-1,6.399077E-1,-4.0503374E-1,-1.5086143E-1,-2.1179774E-1,4.9138587E-2,-1.70626E-1,-3.1086144E-1,7.5126404E-1,-2.5093623E-2,-9.7528085E-2,-2.3146063E-2,-1.4719096E-2,-1.047191E-1,1.746389E-2,3.4052435E-1,-1.3857678E-1,1.852809E-1],"categories":[],"categories_nodes":[],"categories_segments":[],"categories_sizes":[],"default_left":[0,0,0,0,0,0,0,0,0,0,0,0,0,0,0,0,0,0,0,0,0,0,0,0,0,0,0,0,0,0,0],"id":0,"left_children":[1,3,5,7,9,11,13,-1,-1,-1,15,-1,17,19,21,-1,-1,23,-1,25,-1,27,29,-1,-1,-1,-1,-1,-1,-1,-1],"loss_changes":[3.263687E1,8.799768E0,2.217218E1,6.840074E-2,3.377819E0,5.646123E0,8.001787E0,0E0,0E0,0E0,7.188797E-2,0E0,1.8652233E-1,6.344104E-1,4.1657696E0,0E0,0E0,5.608514E-3,0E0,7.577595E-2,0E0,3.3609257E0,1.5726902E0,0E0,0E0,0E0,0E0,0E0,0E0,0E0,0E0],"parents":[2147483647,0,0,1,1,2,2,3,3,4,4,5,5,6,6,10,10,12,12,13,13,14,14,17,17,19,19,21,21,22,22],"right_children":[2,4,6,8,10,12,14,-1,-1,-1,16,-1,18,20,22,-1,-1,24,-1,26,-1,28,30,-1,-1,-1,-1,-1,-1,-1,-1],"split_conditions":[-8.895005E-1,-8.090928E-1,-2.7306104E-1,3.6980113E-1,3.804881E-1,6.5666175E-4,-7.725554E-1,2.1685396E-1,3.6853936E-2,-8.739647E-1,-3.3182196E-2,-5.805056E-1,4.9889007E-1,4.2812398E-1,8.461132E-1,-4.0503374E-1,-1.5086143E-1,5.2457493E-2,4.9138587E-2,-3.0095908E-1,-3.1086144E-1,2.3008227E-1,-1.2065204E-1,-9.7528085E-2,-2.3146063E-2,-1.4719096E-2,-1.047191E-1,1.746389E-2,3.4052435E-1,-1.3857678E-1,1.852809E-1],"split_indices":[36,59,28,0,51,76,55,0,0,0,3,0,0,19,53,0,0,0,0,4,0,82,97,0,0,0,0,0,0,0,0],"split_type":[0,0,0,0,0,0,0,0,0,0,0,0,0,0,0,0,0,0,0,0,0,0,0,0,0,0,0,0,0,0,0],"sum_hessian":[8.9E1,1.4E1,7.5E1,2E0,1.2E1,1.2E1,6.3E1,1E0,1E0,6E0,6E0,7E0,5E0,8E0,5.5E1,4E0,2E0,3E0,2E0,6E0,2E0,4.7E1,8E0,2E0,1E0,3E0,3E0,6E0,4.1E1,5E0,3E0],"tree_param":{"num_deleted":"0","num_feature":"100","num_nodes":"31","size_leaf_vector":"1"}},{"base_weights":[-2.0597778E-2,-8.913544E-1,1.6543826E-1,-1.2351671E0,-1.124719E-1,-4.505221E-1,3.53746E-1,-6.3808125E-1,-2.6770806E-1,-1.5859924E-1,3.0372033E-1,-9.226015E-1,1.9401552E-2,2.7792788E-1,5.231236E-1,1.7348315E-1,8.749056E-3,-5.2936673E-1,-3.372659E-1,1.7166542E-1,-1.3668439E-1,5.3598714E-1,6.0850114E-2,-5.5450678E-2,-1.6939327E-1,-7.923531E-2,-1.0303375E-2,4.4567864E-2,2.5462323E-1,-2.389663E-1,6.108595E-2],"categories":[],"categories_nodes":[],"categories_segments":[],"categories_sizes":[],"default_left":[0,0,0,0,0,0,0,0,0,0,0,0,0,0,0,0,0,0,0,0,0,0,0,0,0,0,0,0,0,0,0],"id":1,"left_children":[1,3,5,7,9,11,13,-1,-1,-1,15,17,19,21,-1,-1,-1,-1,23,-1,25,27,29,-1,-1,-1,-1,-1,-1,-1,-1],"loss_changes":[1.4726755E1,4.145713E0,8.858629E0,1.1735535E0,8.296815E-1,4.0110426E0,3.8319693E0,0E0,0E0,0E0,1.0042372E-1,1.6651602E0,6.982408E-1,3.0484262E0,0E0,0E0,0E0,0E0,2.692461E-2,0E0,4.9387813E-2,9.965534E-1,1.9658488E0,0E0,0E0,0E0,0E0,0E0,0E0,0E0,0E0],"parents":[2147483647,0,0,1,1,2,2,3,3,4,4,5,5,6,6,10,10,11,11,12,12,13,13,18,18,20,20,21,21,22,22],"right_children":[2,4,6,8,10,12,14,-1,-1,-1,16,18,20,22,-1,-1,-1,-1,24,-1,26,28,30,-1,-1,-1,-1,-1,-1,-1,-1],"split_conditions":[-7.378409E-1,2.3574017E-2,-3.6306888E-2,1.6231386E-1,-3.3734143E-1,-3.810804E-1,2.0570805E0,-6.3808125E-1,-2.6770806E-1,-1.5859924E-1,3.6980113E-1,-2.1326186E-1,-6.5427667E-1,-1.3910238E-2,5.231236E-1,1.7348315E-1,8.749056E-3,-5.2936673E-1,6.4824516E-1,1.7166542E-1,-7.3561084E-1,-4.8867598E-1,-1.4627231E0,-5.5450678E-2,-1.6939327E-1,-7.923531E-2,-1.0303375E-2,4.4567864E-2,2.5462323E-1,-2.389663E-1,6.108595E-2],"split_indices":[38,32,55,78,21,26,76,0,0,0,0,7,14,81,0,0,0,0,4,0,21,32,73,0,0,0,0,0,0,0,0],"split_type":[0,0,0,0,0,0,0,0,0,0,0,0,0,0,0,0,0,0,0,0,0,0,0,0,0,0,0,0,0,0,0],"sum_hessian":[8.9E1,1.5E1,7.4E1,1E1,5E0,1.7E1,5.7E1,5E0,5E0,3E0,2E0,8E0,9E0,5.4E1,3E0,1E0,1E0,4E0,4E0,2E0,7E0,2.4E1,3E1,2E0,2E0,4E0,3E0,5E0,1.9E1,3E0,2.7E1],"tree_param":{"num_deleted":"0","num_feature":"100","num_nodes":"31","size_leaf_vector":"1"}},{"base_weights":[-2.2467632E-2,-5.899474E-1,9.889428E-2,-3.3343434E-1,-5.1045126E-1,2.1934265E-1,-3.58968E-1,-4.60325E-1,2.4297626E-1,9.7019985E-2,7.0054835E-1,-6.485138E-2,-6.4497817E-1,-5.0567067E-1,-6.833857E-2,1.3878652E-1,6.9992426E-3,1.56567E-2,5.1204973E-1,1.2042151E-1,3.4506556E-1,-1.1268262E-1,3.7351023E-2,-3.647577E-2,-3.2575047E-1,-7.8130275E-2,-2.2657478E-1,-2.523721E-1,2.550372E-2,2.5986558E-1,2.6455212E-2,-1.9442478E-2,4.5588195E-2],"categories":[],"categories_nodes":[],"categories_segments":[],"categories_sizes":[],"default_left":[0,0,0,0,0,0,0,0,0,0,0,0,0,0,0,0,0,0,0,0,0,0,0,0,0,0,0,0,0,0,0,0,0],"id":2,"left_children":[1,3,5,7,-1,9,11,13,15,17,19,21,23,25,-1,-1,-1,27,29,-1,-1,-1,31,-1,-1,-1,-1,-1,-1,-1,-1,-1,-1],"loss_changes":[6.2566814E0,2.3907237E0,4.2148943E0,1.0626829E0,0E0,3.4637747E0,1.3040977E0,5.8000326E-2,6.427118E-2,1.6466238E0,5.174632E-1,2.0999011E-1,6.7622304E-1,5.9087038E-2,0E0,0E0,0E0,1.3465332E0,4.4794297E-1,0E0,0E0,0E0,5.1641647E-2,0E0,0E0,0E0,0E0,0E0,0E0,0E0,0E0,0E0,0E0],"parents":[2147483647,0,0,1,1,2,2,3,3,5,5,6,6,7,7,8,8,9,9,10,10,11,11,12,12,13,13,17,17,18,18,22,22],"right_children":[2,4,6,8,-1,10,12,14,16,18,20,22,24,26,-1,-1,-1,28,30,-1,-1,-1,32,-1,-1,-1,-1,-1,-1,-1,-1,-1,-1],"split_conditions":[-7.378409E-1,9.316046E-2,1.567266E-1,2.9476234E-1,-5.1045126E-1,6.597404E-1,-4.391218E-1,4.9186836E-4,3.6980113E-1,9.169007E-1,-5.0211674E-1,-6.485672E-1,4.5100877E-1,-1.0531788E-1,-6.833857E-2,1.3878652E-1,6.9992426E-3,-1.2356994E0,6.2159944E-1,1.2042151E-1,3.4506556E-1,-1.1268262E-1,-1.4736316E-1,-3.647577E-2,-3.2575047E-1,-7.8130275E-2,-2.2657478E-1,-2.523721E-1,2.550372E-2,2.5986558E-1,2.6455212E-2,-1.9442478E-2,4.5588195E-2],"split_indices":[38,87,30,35,0,69,86,3,0,84,31,0,1,0,0,0,0,76,13,0,0,0,10,0,0,0,0,0,0,0,0,0,0],"split_type":[0,0,0,0,0,0,0,0,0,0,0,0,0,0,0,0,0,0,0,0,0,0,0,0,0,0,0,0,0,0,0,0,0],"sum_hessian":[8.9E1,1.5E1,7.4E1,1.2E1,3E0,5.9E1,1.5E1,1E1,2E0,4.8E1,1.1E1,8E0,7E0,8E0,2E0,1E0,1E0,4.1E1,7E0,4E0,7E0,2E0,6E0,2E0,5E0,2E0,6E0,2E0,3.9E1,5E0,2E0,3E0,3E0],"tree_param":{"num_deleted":"0","num_feature":"100","num_nodes":"33","size_leaf_vector":"1"}},{"base_weights":[-2.0830944E-2,-7.134933E-1,3.7138905E-2,-3.7412626E-1,-1.0595828E-1,-5.003026E-2,3.1858173E-1,-5.6298625E-2,-7.2763446E-3,-1.02877766E-1,2.4188617E-1,6.303929E-1,5.817488E-2,-3.884176E-1,-1.3230877E-3,1.4140093E-1,3.1248197E-1,2.4047758E-1,-1.0639528E-1,-1.8026792E-1,-3.559747E-2,-4.739346E-2,3.734299E-2,1.0446354E-1,2.7414238E-2,1.0458076E-2,-8.493477E-2],"categories":[],"categories_nodes":[],"categories_segments":[],"categories_sizes":[],"default_left":[0,0,0,0,0,0,0,0,0,0,0,0,0,0,0,0,0,0,0,0,0,0,0,0,0,0,0],"id":3,"left_children":[1,3,5,-1,7,9,11,-1,-1,13,-1,15,17,19,21,-1,-1,23,25,-1,-1,-1,-1,-1,-1,-1,-1],"loss_changes":[3.6403162E0,8.44249E-1,2.0767224E0,0E0,6.5995343E-3,2.3113205E0,1.5872824E0,0E0,0E0,1.7683585E0,0E0,9.966779E-2,3.8560468E-1,2.5812984E-1,5.213314E-1,0E0,0E0,3.437221E-3,1.038425E-1,0E0,0E0,0E0,0E0,0E0,0E0,0E0,0E0],"parents":[2147483647,0,0,1,1,2,2,4,4,5,5,6,6,9,9,11,11,12,12,13,13,14,14,17,17,18,18],"right_children":[2,4,6,-1,8,10,12,-1,-1,14,-1,16,18,20,22,-1,-1,24,26,-1,-1,-1,-1,-1,-1,-1,-1],"split_conditions":[-7.8499275E-1,-3.0969408E-1,7.107144E-1,-3.7412626E-1,-1.2527752E0,1.5468549E0,-4.1095805E-1,-5.6298625E-2,-7.2763446E-3,-6.573656E-1,2.4188617E-1,8.103475E-1,-3.382227E-1,1.3712229E-1,1.8034874E-3,1.4140093E-1,3.1248197E-1,-3.0423447E-1,-1.6955356E-1,-1.8026792E-1,-3.559747E-2,-4.739346E-2,3.734299E-2,1.0446354E-1,2.7414238E-2,1.0458076E-2,-8.493477E-2],"split_indices":[7,8,38,0,0,26,99,0,0,38,0,36,44,19,78,0,0,1,35,0,0,0,0,0,0,0,0],"split_type":[0,0,0,0,0,0,0,0,0,0,0,0,0,0,0,0,0,0,0,0,0,0,0,0,0,0,0],"sum_hessian":[8.9E1,6E0,8.3E1,4E0,2E0,6.4E1,1.9E1,1E0,1E0,6E1,4E0,8E0,1.1E1,1.5E1,4.5E1,4E0,4E0,5E0,6E0,1.2E1,3E0,2E1,2.5E1,4E0,1E0,3E0,3E0],"tree_param":{"num_deleted":"0","num_feature":"100","num_nodes":"27","size_leaf_vector":"1"}},{"base_weights":[-1.1503531E-2,1.692921E-2,-3.3667842E-1,-2.3550525E-1,7.20254E-2,-1.8924609E-1,-1.6776703E-1,-7.059027E-3,2.3378357E-1,-1.938245E-1,-2.16669E-2,1.3400128E-1,-1.13826886E-1,3.04317E-1,-9.510679E-2,-8.454255E-2,-3.0648276E-2,2.195836E-2,1.3431989E-1,-7.4419424E-2,2.6935106E-2,1.446913E-1,-6.3040736E-3,-8.156606E-3,-5.524792E-2],"categories":[],"categories_nodes":[],"categories_segments":[],"categories_sizes":[],"default_left":[0,0,0,0,0,0,0,0,0,0,0,0,0,0,0,0,0,0,0,0,0,0,0,0,0],"id":4,"left_children":[1,3,-1,5,7,-1,9,11,13,15,-1,17,19,21,23,-1,-1,-1,-1,-1,-1,-1,-1,-1,-1],"loss_changes":[2.1386673E0,1.240882E0,0E0,1.7815125E-1,9.355066E-1,0E0,3.0942798E-2,7.682884E-1,5.856887E-1,6.408572E-3,0E0,3.3275947E-1,3.9196452E-1,3.7322187E-1,1.3252169E-2,0E0,0E0,0E0,0E0,0E0,0E0,0E0,0E0,0E0,0E0],"parents":[2147483647,0,0,1,1,3,3,4,4,6,6,7,7,8,8,9,9,11,11,12,12,13,13,14,14],"right_children":[2,4,-1,6,8,-1,10,12,14,16,-1,18,20,22,24,-1,-1,-1,-1,-1,-1,-1,-1,-1,-1],"split_conditions":[3.0107577E0,-6.498473E-1,-3.3667842E-1,-1.4236016E0,2.9476234E-1,-1.8924609E-1,3.2884717E-2,-7.152665E-2,2.8732154E-1,1.7814864E0,-2.16669E-2,1.4770204E-1,2.7866066E-1,1.2056313E0,3.111489E-1,-8.454255E-2,-3.0648276E-2,2.195836E-2,1.3431989E-1,-7.4419424E-2,2.6935106E-2,1.446913E-1,-6.3040736E-3,-8.156606E-3,-5.524792E-2],"split_indices":[13,55,0,19,35,0,64,17,77,88,0,34,95,78,1,0,0,0,0,0,0,0,0,0,0],"split_type":[0,0,0,0,0,0,0,0,0,0,0,0,0,0,0,0,0,0,0,0,0,0,0,0,0],"sum_hessian":[8.9E1,8.7E1,2E0,1.5E1,7.2E1,2E0,1.3E1,4.9E1,2.3E1,1E1,3E0,2.1E1,2.8E1,1.9E1,4E0,8E0,2E0,1.6E1,5E0,2E1,8E0,1.6E1,3E0,2E0,2E0],"tree_param":{"num_deleted":"0","num_feature":"100","num_nodes":"25","size_leaf_vector":"1"}},{"base_weights":[-1.2224407E-2,8.540166E-3,-2.4689749E-1,-1.5414806E-1,4.966478E-2,-1.2338477E-1,-8.802538E-2,-2.7197908E-4,1.8634813E-1,-1.0370801E-1,4.046917E-3,-1.07423775E-1,6.792377E-2,3.2180548E-1,-4.01314E-2,-6.3775303E-3,-4.4094853E-2,-6.567836E-3,8.995987E-3,-7.867441E-2,-3.3582894E-3,-7.1287653E-3,7.4226364E-2,2.9312124E-2,1.4567299E-1,-2.8247887E-2,3.2047362E-3],"categories":[],"categories_nodes":[],"categories_segments":[],"categories_sizes":[],"default_left":[0,0,0,0,0,0,0,0,0,0,0,0,0,0,0,0,0,0,0,0,0,0,0,0,0,0,0],"id":5,"left_children":[1,3,-1,5,7,-1,9,11,13,15,17,19,21,23,25,-1,-1,-1,-1,-1,-1,-1,-1,-1,-1,-1,-1],"loss_changes":[1.1359384E0,5.9641886E-1,0E0,1.5651312E-1,4.8466283E-1,0E0,2.0634793E-2,3.9458334E-1,5.958024E-1,5.118683E-3,1.5016702E-3,1.8397751E-1,3.3618826E-1,9.9693656E-2,1.2308244E-2,0E0,0E0,0E0,0E0,0E0,0E0,0E0,0E0,0E0,0E0,0E0,0E0],"parents":[2147483647,0,0,1,1,3,3,4,4,6,6,7,7,8,8,9,9,10,10,11,11,12,12,13,13,14,14],"right_children":[2,4,-1,6,8,-1,10,12,14,16,18,20,22,24,26,-1,-1,-1,-1,-1,-1,-1,-1,-1,-1,-1,-1],"split_conditions":[3.0107577E0,-6.0894465E-1,-2.4689749E-1,-8.683027E-1,6.6921574E-1,-1.2338477E-1,6.2543565E-1,-1.3417369E-1,1.1801928E0,-1.8971983E0,7.01488E-1,-2.5498915E-1,1.5222253E-1,-9.151656E-1,3.681679E-1,-6.3775303E-3,-4.4094853E-2,-6.567836E-3,8.995987E-3,-7.867441E-2,-3.3582894E-3,-7.1287653E-3,7.4226364E-2,2.9312124E-2,1.4567299E-1,-2.8247887E-2,3.2047362E-3],"split_indices":[13,55,0,26,0,0,6,75,0,8,0,38,5,59,34,0,0,0,0,0,0,0,0,0,0,0,0],"split_type":[0,0,0,0,0,0,0,0,0,0,0,0,0,0,0,0,0,0,0,0,0,0,0,0,0,0,0],"sum_hessian":[8.9E1,8.7E1,2E0,1.7E1,7E1,4E0,1.3E1,5.2E1,1.8E1,1.1E1,2E0,2E1,3.2E1,1.1E1,7E0,1E0,1E1,1E0,1E0,1E1,1E1,1.9E1,1.3E1,2E0,9E0,4E0,3E0],"tree_param":{"num_deleted":"0","num_feature":"100","num_nodes":"27","size_leaf_vector":"1"}},{"base_weights":[-1.0482658E-2,4.710194E-3,-1.8105817E-1,-2.154987E-1,2.3451073E-2,-1.3892707E-1,-9.330758E-2,9.554398E-3,2.9204762E-1,-4.5488637E-2,-2.3303032E-3,6.2427677E-2,-5.215115E-2,1.3166164E-1,3.614564E-2,3.6878143E-2,-4.153361E-2,-6.0199834E-2,-6.065669E-3],"categories":[],"categories_nodes":[],"categories_segments":[],"categories_sizes":[],"default_left":[0,0,0,0,0,0,0,0,0,0,0,0,0,0,0,0,0,0,0],"id":6,"left_children":[1,3,-1,5,7,-1,9,11,13,-1,-1,15,17,-1,-1,-1,-1,-1,-1],"loss_changes":[6.067263E-1,3.6822158E-1,0E0,8.034238E-2,3.0328274E-1,0E0,8.266762E-3,2.6099908E-1,1.9136071E-4,0E0,0E0,2.2238971E-1,1.323094E-1,0E0,0E0,0E0,0E0,0E0,0E0],"parents":[2147483647,0,0,1,1,3,3,4,4,6,6,7,7,8,8,11,11,12,12],"right_children":[2,4,-1,6,8,-1,10,12,14,-1,-1,16,18,-1,-1,-1,-1,-1,-1],"split_conditions":[3.0107577E0,-1.1089057E0,-1.8105817E-1,-1.4003569E0,2.0570805E0,-1.3892707E-1,8.969143E-1,-3.399538E-2,7.1941704E-1,-4.5488637E-2,-2.3303032E-3,7.3337406E-1,-3.522302E-1,1.3166164E-1,3.614564E-2,3.6878143E-2,-4.153361E-2,-6.0199834E-2,-6.065669E-3],"split_indices":[13,48,0,6,76,0,0,4,0,0,0,54,31,0,0,0,0,0,0],"split_type":[0,0,0,0,0,0,0,0,0,0,0,0,0,0,0,0,0,0,0],"sum_hessian":[8.9E1,8.7E1,2E0,6E0,8.1E1,2E0,4E0,7.8E1,3E0,3E0,1E0,4.2E1,3.6E1,2E0,1E0,3.6E1,6E0,9E0,2.7E1],"tree_param":{"num_deleted":"0","num_feature":"100","num_nodes":"19","size_leaf_vector":"1"}},{"base_weights":[-9.299779E-3,-1.4178847E-1,2.1262486E-2,-1.8878399E-1,-6.630161E-2,5.6263413E-2,-4.551859E-2,7.619876E-3,-1.784538E-1,3.602198E-2,1.0998962E-1,2.4390876E-2,-6.2060524E-2,-4.9697038E-2,7.48762E-2,-7.928975E-2,-1.592021E-2,-9.875593E-2,6.699512E-2,5.6713325E-4,-7.9488605E-2,-3.4496791E-3,-2.7230963E-2,8.1323385E-3,4.1785125E-2,-5.565688E-2,-5.395019E-3,4.205582E-2,-9.765106E-3,8.99328E-3,-1.1537334E-2,-1.0507663E-3,-3.5572853E-2],"categories":[],"categories_nodes":[],"categories_segments":[],"categories_sizes":[],"default_left":[0,0,0,0,0,0,0,0,0,0,0,0,0,0,0,0,0,0,0,0,0,0,0,0,0,0,0,0,0,0,0,0,0],"id":7,"left_children":[1,3,5,-1,7,9,11,13,15,17,-1,-1,19,21,23,-1,-1,25,27,29,31,-1,-1,-1,-1,-1,-1,-1,-1,-1,-1,-1,-1],"loss_changes":[3.6743867E-1,3.924097E-1,1.755286E-1,0E0,1.2571664E-1,2.070187E-1,4.9587086E-2,4.227037E-2,8.55808E-3,1.9864292E-1,0E0,0E0,2.5149114E-2,3.9424896E-3,5.945245E-3,0E0,0E0,2.9116362E-2,1.3506138E-1,4.515861E-3,1.28315985E-2,0E0,0E0,0E0,0E0,0E0,0E0,0E0,0E0,0E0,0E0,0E0,0E0],"parents":[2147483647,0,0,1,1,2,2,4,4,5,5,6,6,7,7,8,8,9,9,12,12,13,13,14,14,17,17,18,18,19,19,20,20],"right_children":[2,4,6,-1,8,10,12,14,16,18,-1,-1,20,22,24,-1,-1,26,28,30,32,-1,-1,-1,-1,-1,-1,-1,-1,-1,-1,-1,-1],"split_conditions":[-6.8667156E-1,-4.6308026E-1,-2.0586279E-1,-1.8878399E-1,4.757228E-1,1.362689E0,-1.0745834E0,7.4466504E-2,2.3296832E-1,-9.9064606E-1,1.0998962E-1,2.4390876E-2,-5.1208913E-1,-1.0020269E0,-5.0321317E-1,-7.928975E-2,-1.592021E-2,-1.3295677E-3,3.0990455E-1,-2.3430455E-1,-1.021165E0,-3.4496791E-3,-2.7230963E-2,8.1323385E-3,4.1785125E-2,-5.565688E-2,-5.395019E-3,4.205582E-2,-9.765106E-3,8.99328E-3,-1.1537334E-2,-1.0507663E-3,-3.5572853E-2],"split_indices":[36,8,65,0,53,35,73,53,4,6,0,0,59,6,12,0,0,0,19,1,52,0,0,0,0,0,0,0,0,0,0,0,0],"split_type":[0,0,0,0,0,0,0,0,0,0,0,0,0,0,0,0,0,0,0,0,0,0,0,0,0,0,0,0,0,0,0,0,0],"sum_hessian":[8.9E1,1.6E1,7.3E1,2E0,1.4E1,4.8E1,2.5E1,9E0,5E0,4.5E1,3E0,3E0,2.2E1,5E0,4E0,4E0,1E0,8E0,3.7E1,5E0,1.7E1,2E0,3E0,2E0,2E0,5E0,3E0,2.6E1,1.1E1,3E0,2E0,2E0,1.5E1],"tree_param":{"num_deleted":"0","num_feature":"100","num_nodes":"33","size_leaf_vector":"1"}},{"base_weights":[-7.7832695E-3,-1.3313775E-1,-3.9107283E-4,-1.0549112E-2,1.4188665E-1,-4.4766527E-2,3.863431E-2,1.7951421E-1,-9.250236E-3,-6.182699E-2,2.9658027E-2,5.8762055E-2,-5.2818477E-2,8.00537E-2,1.940682E-2,-1.9197103E-2,-7.11182E-2,2.5395473E-2,-6.748145E-3,-2.147814E-2,3.2630485E-2],"categories":[],"categories_nodes":[],"categories_segments":[],"categories_sizes":[],"default_left":[0,0,0,0,0,0,0,0,0,0,0,0,0,0,0,0,0,0,0,0,0],"id":8,"left_children":[1,-1,3,5,7,9,11,13,-1,15,17,19,-1,-1,-1,-1,-1,-1,-1,-1,-1],"loss_changes":[2.1613222E-1,0E0,1.3012516E-1,1.430956E-1,4.1405424E-2,6.5319546E-2,1.2799877E-1,3.7959218E-3,0E0,5.7244882E-2,1.6811937E-2,8.6480156E-2,0E0,0E0,0E0,0E0,0E0,0E0,0E0,0E0,0E0],"parents":[2147483647,0,0,2,2,3,3,4,4,5,5,6,6,7,7,9,9,10,10,11,11],"right_children":[2,-1,4,6,8,10,12,14,-1,16,18,20,-1,-1,-1,-1,-1,-1,-1,-1,-1],"split_conditions":[-3.5125904E0,-1.3313775E-1,1.6334122E0,2.5365543E-1,1.1801928E0,6.4962864E-1,1.6163433E0,-6.119262E-1,-9.250236E-3,1.4396852E0,4.2703E-1,-6.621672E-1,-5.2818477E-2,8.00537E-2,1.940682E-2,-1.9197103E-2,-7.11182E-2,2.5395473E-2,-6.748145E-3,-2.147814E-2,3.2630485E-2],"split_indices":[8,0,26,36,0,75,37,1,0,44,3,74,0,0,0,0,0,0,0,0,0],"split_type":[0,0,0,0,0,0,0,0,0,0,0,0,0,0,0,0,0,0,0,0,0],"sum_hessian":[8.9E1,1E0,8.8E1,8.3E1,5E0,4.9E1,3.4E1,4E0,1E0,4E1,9E0,3.1E1,3E0,3E0,1E0,3.7E1,3E0,5E0,4E0,5E0,2.6E1],"tree_param":{"num_deleted":"0","num_feature":"100","num_nodes":"21","size_leaf_vector":"1"}},{"base_weights":[-6.4061987E-3,-1.06510215E-1,-4.944586E-4,-1.836931E-2,4.868198E-2,-2.8255878E-2,1.07898E-1,8.182298E-2,-1.5644448E-2,-5.7582803E-2,1.18932035E-2,6.101525E-2,-1.41325E-2,1.0996754E-1,-2.0885705E-3,-1.5028122E-2,9.410296E-3,-5.7593E-2,-1.6913354E-2,-2.337806E-2,1.3909191E-2,1.3658238E-2,5.2579027E-2,-3.924716E-3,5.7608606E-3,-1.0804586E-3,7.353989E-3],"categories":[],"categories_nodes":[],"categories_segments":[],"categories_sizes":[],"default_left":[0,0,0,0,0,0,0,0,0,0,0,0,0,0,0,0,0,0,0,0,0,0,0,0,0,0,0],"id":9,"left_children":[1,-1,3,5,7,9,11,13,15,17,19,-1,-1,21,23,-1,25,-1,-1,-1,-1,-1,-1,-1,-1,-1,-1],"loss_changes":[1.3813351E-1,0E0,7.912717E-2,8.5439876E-2,5.2444283E-2,7.368668E-2,3.7358217E-2,3.801614E-2,5.297668E-3,4.149908E-2,4.54841E-2,0E0,0E0,1.5055537E-2,7.7811803E-4,0E0,5.931419E-4,0E0,0E0,0E0,0E0,0E0,0E0,0E0,0E0,0E0,0E0],"parents":[2147483647,0,0,2,2,3,3,4,4,5,5,6,6,7,7,8,8,9,9,10,10,13,13,14,14,16,16],"right_children":[2,-1,4,6,8,10,12,14,16,18,20,-1,-1,22,24,-1,26,-1,-1,-1,-1,-1,-1,-1,-1,-1,-1],"split_conditions":[-3.5125904E0,-1.06510215E-1,7.01488E-1,1.4369962E0,-2.0586279E-1,1.6231386E-1,7.935102E-2,1.1801928E0,-2.0036493E-1,-9.588906E-1,-2.5168973E-1,6.101525E-2,-1.41325E-2,-1.1455157E0,1.3343824E0,-1.5028122E-2,-9.1885257E-1,-5.7593E-2,-1.6913354E-2,-2.337806E-2,1.3909191E-2,1.3658238E-2,5.2579027E-2,-3.924716E-3,5.7608606E-3,-1.0804586E-3,7.353989E-3],"split_indices":[8,0,0,72,65,78,0,0,20,35,76,0,0,12,0,0,10,0,0,0,0,0,0,0,0,0,0],"split_type":[0,0,0,0,0,0,0,0,0,0,0,0,0,0,0,0,0,0,0,0,0,0,0,0,0,0,0],"sum_hessian":[8.9E1,1E0,8.8E1,6.5E1,2.3E1,6.1E1,4E0,1.5E1,8E0,3.5E1,2.6E1,3E0,1E0,1.1E1,4E0,4E0,4E0,4E0,3.1E1,6E0,2E1,3E0,8E0,3E0,1E0,2E0,2E0],"tree_param":{"num_deleted":"0","num_feature":"100","num_nodes":"27","size_leaf_vector":"1"}},{"base_weights":[-4.7802064E-3,-8.520818E-2,-4.694019E-5,1.2470836E-2,-4.6821423E-2,1.8633556E-2,-3.8165245E-2,-8.013254E-2,-8.82817E-3,9.952334E-3,8.249868E-2,-4.8160058E-2,-1.8269986E-2,-1.9775625E-2,2.3307769E-2,2.3093676E-2,-6.8574335E-4,5.2492856E-3,4.137465E-2,-8.254846E-4,-1.0134258E-2,2.7370737E-3,1.1247587E-2],"categories":[],"categories_nodes":[],"categories_segments":[],"categories_sizes":[],"default_left":[0,0,0,0,0,0,0,0,0,0,0,0,0,0,0,0,0,0,0,0,0,0,0],"id":10,"left_children":[1,-1,3,5,7,9,-1,11,13,15,17,-1,-1,19,21,-1,-1,-1,-1,-1,-1,-1,-1],"loss_changes":[8.869908E-2,0E0,5.2694514E-2,4.8982844E-2,2.3338925E-2,3.688E-2,0E0,8.3759725E-3,3.9789933E-3,3.4103807E-2,1.02632195E-2,0E0,0E0,7.355432E-4,4.524109E-5,0E0,0E0,0E0,0E0,0E0,0E0,0E0,0E0],"parents":[2147483647,0,0,2,2,3,3,4,4,5,5,7,7,8,8,9,9,10,10,13,13,14,14],"right_children":[2,-1,4,6,8,10,-1,12,14,16,18,-1,-1,20,22,-1,-1,-1,-1,-1,-1,-1,-1],"split_conditions":[-3.5125904E0,-8.520818E-2,4.9544293E-1,1.6163433E0,2.371264E-1,1.0326155E0,-3.8165245E-2,3.8422175E-2,-1.526459E-1,-7.8388995E-1,-1.0782007E0,-4.8160058E-2,-1.8269986E-2,-5.5625266E-1,3.0167085E-1,2.3093676E-2,-6.8574335E-4,5.2492856E-3,4.137465E-2,-8.254846E-4,-1.0134258E-2,2.7370737E-3,1.1247587E-2],"split_indices":[8,0,81,37,0,38,0,1,4,84,3,0,0,3,0,0,0,0,0,0,0,0,0],"split_type":[0,0,0,0,0,0,0,0,0,0,0,0,0,0,0,0,0,0,0,0,0,0,0],"sum_hessian":[8.9E1,1E0,8.8E1,7E1,1.8E1,6.7E1,3E0,9E0,9E0,6E1,7E0,3E0,6E0,7E0,2E0,1.1E1,4.9E1,2E0,5E0,2E0,5E0,1E0,1E0],"tree_param":{"num_deleted":"0","num_feature":"100","num_nodes":"23","size_leaf_vector":"1"}},{"base_weights":[-4.176438E-3,-6.816655E-2,-3.9378298E-4,6.351708E-2,-6.6241873E-3,1.420176E-2,3.610637E-2,-1.1940687E-2,6.270826E-2,-1.5679359E-3,8.619563E-3,-4.6186075E-2,-7.101266E-4,-1.1168862E-2,8.641877E-2,-3.941902E-2,-5.775464E-3,-8.530037E-3,1.0510087E-2,3.8710356E-2,8.998061E-3],"categories":[],"categories_nodes":[],"categories_segments":[],"categories_sizes":[],"default_left":[0,0,0,0,0,0,0,0,0,0,0,0,0,0,0,0,0,0,0,0,0],"id":11,"left_children":[1,-1,3,5,7,9,-1,11,13,-1,-1,15,17,-1,19,-1,-1,-1,-1,-1,-1],"loss_changes":[5.6527432E-2,0E0,3.5859704E-2,9.271089E-3,3.0974468E-2,6.170364E-4,0E0,2.958101E-2,1.5306361E-2,0E0,0E0,3.0161593E-2,3.3382133E-2,0E0,1.1333339E-3,0E0,0E0,0E0,0E0,0E0,0E0],"parents":[2147483647,0,0,2,2,3,3,4,4,5,5,7,7,8,8,11,11,12,12,14,14],"right_children":[2,-1,4,6,8,10,-1,12,14,-1,-1,16,18,-1,20,-1,-1,-1,-1,-1,-1],"split_conditions":[-3.5125904E0,-6.816655E-2,-1.4254987E0,-1.0732558E0,1.4369962E0,-1.0531788E-1,3.610637E-2,-5.3118837E-1,-2.416338E-1,-1.5679359E-3,8.619563E-3,-7.574806E-1,1.0021756E-2,-1.1168862E-2,7.935102E-2,-3.941902E-2,-5.775464E-3,-8.530037E-3,1.0510087E-2,3.8710356E-2,8.998061E-3],"split_indices":[8,0,52,54,72,0,0,42,4,0,0,19,51,0,0,0,0,0,0,0,0],"split_type":[0,0,0,0,0,0,0,0,0,0,0,0,0,0,0,0,0,0,0,0,0],"sum_hessian":[8.9E1,1E0,8.8E1,7E0,8.1E1,3E0,4E0,7.6E1,5E0,1E0,2E0,1.8E1,5.8E1,1E0,4E0,6E0,1.2E1,3.3E1,2.5E1,3E0,1E0],"tree_param":{"num_deleted":"0","num_feature":"100","num_nodes":"21","size_leaf_vector":"1"}},{"base_weights":[-2.8579042E-3,-5.4533243E-2,1.7364982E-4,4.0782164E-3,-2.6495485E-2,-8.979174E-3,2.4925595E-2,-2.0924387E-2,2.5791373E-2,3.2406364E-2,-3.741157E-2,-1.0870946E-2,1.6858697E-2,1.7588476E-3,2.1433678E-2,1.9149309E-2,-3.6009338E-3,-3.697443E-3,-1.7487876E-2],"categories":[],"categories_nodes":[],"categories_segments":[],"categories_sizes":[],"default_left":[0,0,0,0,0,0,0,0,0,0,0,0,0,0,0,0,0,0,0],"id":12,"left_children":[1,-1,3,5,-1,7,9,11,13,15,17,-1,-1,-1,-1,-1,-1,-1,-1],"loss_changes":[3.6441028E-2,0E0,2.3348857E-2,2.3361865E-2,0E0,2.2552771E-2,1.6601259E-2,1.6920729E-2,8.088878E-3,1.9644905E-2,3.066198E-4,0E0,0E0,0E0,0E0,0E0,0E0,0E0,0E0],"parents":[2147483647,0,0,2,2,3,3,5,5,6,6,7,7,8,8,9,9,10,10],"right_children":[2,-1,4,6,-1,8,10,12,14,16,18,-1,-1,-1,-1,-1,-1,-1,-1],"split_conditions":[-3.5125904E0,-5.4533243E-2,1.7813194E0,2.5365543E-1,-2.6495485E-2,4.9960276E-1,7.2898835E-1,1.7052382E0,6.547867E-1,4.906954E-1,-1.4159292E0,-1.0870946E-2,1.6858697E-2,1.7588476E-3,2.1433678E-2,1.9149309E-2,-3.6009338E-3,-3.697443E-3,-1.7487876E-2],"split_indices":[8,0,37,36,0,31,12,61,51,34,0,0,0,0,0,0,0,0,0],"split_type":[0,0,0,0,0,0,0,0,0,0,0,0,0,0,0,0,0,0,0],"sum_hessian":[8.9E1,1E0,8.8E1,8.4E1,4E0,5.2E1,3.2E1,3.9E1,1.3E1,2.9E1,3E0,3.6E1,3E0,8E0,5E0,2.1E1,8E0,1E0,2E0],"tree_param":{"num_deleted":"0","num_feature":"100","num_nodes":"19","size_leaf_vector":"1"}},{"base_weights":[-2.3534705E-3,-3.9014686E-2,5.498969E-3,-1.04018375E-1,-8.678593E-3,-2.0706406E-2,9.454263E-3,-5.1360678E-2,-1.2970209E-3,3.0973773E-2,-2.5337577E-2,-3.408561E-3,2.7147077E-2,1.7014671E-2,5.1762317E-3,3.556095E-3,-1.3640371E-2,-1.845963E-2,1.7685065E-2,3.6684476E-2,-9.430732E-3,-2.6987493E-5,2.1606446E-3,-2.0126773E-2,-2.3004678E-3,1.5327819E-2,1.6698122E-3,1.7779883E-2,-6.853342E-4,-8.848958E-3,5.946247E-3],"categories":[],"categories_nodes":[],"categories_segments":[],"categories_sizes":[],"default_left":[0,0,0,0,0,0,0,0,0,0,0,0,0,0,0,0,0,0,0,0,0,0,0,0,0,0,0,0,0,0,0],"id":13,"left_children":[1,3,5,7,9,-1,11,-1,-1,13,15,17,19,-1,-1,21,-1,23,25,27,29,-1,-1,-1,-1,-1,-1,-1,-1,-1,-1],"loss_changes":[2.6123738E-2,3.0648595E-2,1.7476903E-2,1.18698925E-2,8.711618E-3,0E0,1.6250681E-2,0E0,0E0,2.836152E-4,2.4001142E-3,1.3660688E-2,1.0811675E-2,0E0,0E0,2.042648E-5,0E0,9.832052E-3,4.858124E-3,7.2321855E-3,2.4873905E-3,0E0,0E0,0E0,0E0,0E0,0E0,0E0,0E0,0E0,0E0],"parents":[2147483647,0,0,1,1,2,2,3,3,4,4,6,6,9,9,10,10,11,11,12,12,15,15,17,17,18,18,19,19,20,20],"right_children":[2,4,6,8,10,-1,12,-1,-1,14,16,18,20,-1,-1,22,-1,24,26,28,30,-1,-1,-1,-1,-1,-1,-1,-1,-1,-1],"split_conditions":[-8.413579E-1,-7.8366715E-1,-1.1645163E0,3.9506483E-1,-4.0598592E-1,-2.0706406E-2,2.4256904E-1,-5.1360678E-2,-1.2970209E-3,-2.6847196E-1,-2.9866016E-1,3.6621535E-1,2.5147715E-1,1.7014671E-2,5.1762317E-3,3.0167085E-1,-1.3640371E-2,-2.591394E-1,-9.871477E-1,4.6714553E-1,-6.1616443E-2,-2.6987493E-5,2.1606446E-3,-2.0126773E-2,-2.3004678E-3,1.5327819E-2,1.6698122E-3,1.7779883E-2,-6.853342E-4,-8.848958E-3,5.946247E-3],"split_indices":[42,37,21,1,85,0,78,0,0,0,72,0,87,0,0,0,0,34,99,81,21,0,0,0,0,0,0,0,0,0,0],"split_type":[0,0,0,0,0,0,0,0,0,0,0,0,0,0,0,0,0,0,0,0,0,0,0,0,0,0,0,0,0,0,0],"sum_hessian":[8.9E1,1.5E1,7.4E1,4E0,1.1E1,4E0,7E1,3E0,1E0,3E0,8E0,4.1E1,2.9E1,1E0,2E0,2E0,6E0,2.4E1,1.7E1,2.3E1,6E0,1E0,1E0,6E0,1.8E1,6E0,1.1E1,1.9E1,4E0,4E0,2E0],"tree_param":{"num_deleted":"0","num_feature":"100","num_nodes":"31","size_leaf_vector":"1"}},{"base_weights":[-2.0111578E-3,-3.3354472E-2,-1.5990836E-4,-6.1509525E-3,1.5423202E-2,-1.51645765E-2,7.952737E-3,7.046783E-3,3.5955884E-2,-4.4826765E-2,-7.5142104E-3,2.0157678E-2,-2.2028092E-2,-9.22817E-4,1.4311704E-2,2.1117926E-2,1.0127983E-2,-2.4440462E-2,-5.3108335E-3,-4.650966E-3,1.4997452E-2,2.3076857E-2,3.8056837E-3,-1.4432626E-2,-4.5320033E-3,-2.4362325E-3,2.1852255E-3,6.5555163E-3,-8.7641476E-4,4.9505667E-3,6.765366E-4],"categories":[],"categories_nodes":[],"categories_segments":[],"categories_sizes":[],"default_left":[0,0,0,0,0,0,0,0,0,0,0,0,0,0,0,0,0,0,0,0,0,0,0,0,0,0,0,0,0,0,0],"id":14,"left_children":[1,-1,3,5,7,9,11,13,15,17,19,21,23,25,27,-1,29,-1,-1,-1,-1,-1,-1,-1,-1,-1,-1,-1,-1,-1,-1],"loss_changes":[1.3544759E-2,0E0,8.4038265E-3,8.383747E-3,4.046386E-3,8.740227E-3,9.957806E-3,1.1132791E-3,2.5096945E-3,3.2963678E-3,6.545124E-3,7.041546E-3,7.939574E-4,3.6328053E-4,3.786846E-4,0E0,5.4944132E-5,0E0,0E0,0E0,0E0,0E0,0E0,0E0,0E0,0E0,0E0,0E0,0E0,0E0,0E0],"parents":[2147483647,0,0,2,2,3,3,4,4,5,5,6,6,7,7,8,8,9,9,10,10,11,11,12,12,13,13,14,14,16,16],"right_children":[2,-1,4,6,8,10,12,14,16,18,20,22,24,26,28,-1,30,-1,-1,-1,-1,-1,-1,-1,-1,-1,-1,-1,-1,-1,-1],"split_conditions":[-3.5125904E0,-3.3354472E-2,6.6921574E-1,4.6328765E-1,3.9672336E-1,-6.8667156E-1,8.302911E-1,2.384865E-1,2.613743E-1,3.388438E-1,1.4369962E0,-8.660275E-1,-9.3434924E-1,-6.1616443E-2,1.3989269E0,2.1117926E-2,7.4989635E-1,-2.4440462E-2,-5.3108335E-3,-4.650966E-3,1.4997452E-2,2.3076857E-2,3.8056837E-3,-1.4432626E-2,-4.5320033E-3,-2.4362325E-3,2.1852255E-3,6.5555163E-3,-8.7641476E-4,4.9505667E-3,6.765366E-4],"split_indices":[8,0,0,64,3,36,6,6,12,76,72,35,12,21,0,0,0,0,0,0,0,0,0,0,0,0,0,0,0,0,0],"split_type":[0,0,0,0,0,0,0,0,0,0,0,0,0,0,0,0,0,0,0,0,0,0,0,0,0,0,0,0,0,0,0],"sum_hessian":[8.9E1,1E0,8.8E1,6.4E1,2.4E1,3.9E1,2.5E1,1.8E1,6E0,7E0,3.2E1,1.8E1,7E0,9E0,9E0,3E0,3E0,4E0,3E0,3E1,2E0,3E0,1.5E1,2E0,5E0,5E0,4E0,8E0,1E0,2E0,1E0],"tree_param":{"num_deleted":"0","num_feature":"100","num_nodes":"31","size_leaf_vector":"1"}},{"base_weights":[-1.3474515E-3,-2.6683569E-2,1.3648548E-4,-4.5483788E-3,1.2311673E-2,-1.3417501E-2,5.611869E-3,2.104062E-2,-2.88581E-3,-5.095164E-3,-3.689368E-2,1.5826276E-2,-6.3385824E-3,2.5783218E-2,3.6702037E-4,-8.42811E-3,7.534668E-3,-5.829019E-3,4.9894573E-3,-1.867869E-2,-6.8880717E-4,1.6923908E-2,1.7691642E-3,-9.591401E-3,1.951691E-3,9.673834E-4,1.1011497E-2,-6.449197E-4,1.2609959E-3,-5.4076198E-3,-1.4751701E-3,3.5229684E-3,7.4328185E-4],"categories":[],"categories_nodes":[],"categories_segments":[],"categories_sizes":[],"default_left":[0,0,0,0,0,0,0,0,0,0,0,0,0,0,0,0,0,0,0,0,0,0,0,0,0,0,0,0,0,0,0,0,0],"id":15,"left_children":[1,-1,3,5,7,9,11,13,15,17,19,21,23,25,27,29,31,-1,-1,-1,-1,-1,-1,-1,-1,-1,-1,-1,-1,-1,-1,-1,-1],"loss_changes":[8.7384125E-3,0E0,5.1324777E-3,5.9326086E-3,3.3771696E-3,6.650204E-3,3.8843856E-3,1.5592827E-3,6.4103724E-4,4.6774433E-3,3.0226912E-3,4.9468833E-3,3.0852156E-3,4.6361238E-4,2.7136093E-5,1.1906668E-4,1.2532939E-5,0E0,0E0,0E0,0E0,0E0,0E0,0E0,0E0,0E0,0E0,0E0,0E0,0E0,0E0,0E0,0E0],"parents":[2147483647,0,0,2,2,3,3,4,4,5,5,6,6,7,7,8,8,9,9,10,10,11,11,12,12,13,13,14,14,15,15,16,16],"right_children":[2,-1,4,6,8,10,12,14,16,18,20,22,24,26,28,30,32,-1,-1,-1,-1,-1,-1,-1,-1,-1,-1,-1,-1,-1,-1,-1,-1],"split_conditions":[-3.5125904E0,-2.6683569E-2,4.3405712E-1,3.7720707E-1,2.2936596E-1,4.582888E-1,1.983004E-1,2.1101253E-1,1.5124851E0,1.5222253E-1,9.3996704E-1,-3.044031E-1,6.554183E-1,-1.1018502E0,-1.7524105E-1,-3.0423447E-1,8.628492E-1,-5.829019E-3,4.9894573E-3,-1.867869E-2,-6.8880717E-4,1.6923908E-2,1.7691642E-3,-9.591401E-3,1.951691E-3,9.673834E-4,1.1011497E-2,-6.449197E-4,1.2609959E-3,-5.4076198E-3,-1.4751701E-3,3.5229684E-3,7.4328185E-4],"split_indices":[8,0,35,64,61,83,92,87,61,5,14,34,85,4,0,1,0,0,0,0,0,0,0,0,0,0,0,0,0,0,0,0,0],"split_type":[0,0,0,0,0,0,0,0,0,0,0,0,0,0,0,0,0,0,0,0,0,0,0,0,0,0,0,0,0,0,0,0,0],"sum_hessian":[8.9E1,1E0,8.8E1,6.4E1,2.4E1,3.4E1,3E1,1.5E1,9E0,2.6E1,8E0,1.6E1,1.4E1,1.2E1,3E0,6E0,3E0,1.7E1,9E0,6E0,2E0,4E0,1.2E1,5E0,9E0,1E0,1.1E1,2E0,1E0,2E0,4E0,2E0,1E0],"tree_param":{"num_deleted":"0","num_feature":"100","num_nodes":"33","size_leaf_vector":"1"}},{"base_weights":[-1.0957988E-3,-2.1346856E-2,9.11504E-5,1.522185E-3,-9.701868E-3,-1.1072123E-2,4.379139E-3,8.921206E-4,-2.6582168E-2,1.8227272E-2,-4.066264E-4,3.4185983E-3,-2.2540847E-3,-1.147967E-2,-2.7760267E-3,1.4261297E-2,4.2807064E-3,-7.546387E-3,1.5191679E-3],"categories":[],"categories_nodes":[],"categories_segments":[],"categories_sizes":[],"default_left":[0,0,0,0,0,0,0,0,0,0,0,0,0,0,0,0,0,0,0],"id":16,"left_children":[1,-1,3,5,-1,7,9,11,13,15,17,-1,-1,-1,-1,-1,-1,-1,-1],"loss_changes":[5.5887727E-3,0E0,3.1376546E-3,3.1069014E-3,0E0,2.9927697E-3,4.646586E-3,5.477878E-4,9.190291E-5,1.9789538E-3,4.1851485E-3,0E0,0E0,0E0,0E0,0E0,0E0,0E0,0E0],"parents":[2147483647,0,0,2,2,3,3,5,5,6,6,7,7,8,8,9,9,10,10],"right_children":[2,-1,4,6,-1,8,10,12,14,16,18,-1,-1,-1,-1,-1,-1,-1,-1],"split_conditions":[-3.5125904E0,-2.1346856E-2,1.7813194E0,-6.206523E-1,-9.701868E-3,1.2734772E-2,-2.9681125E-1,-5.165439E-1,1.0450203E-2,-6.189937E-1,-7.378409E-1,3.4185983E-3,-2.2540847E-3,-1.147967E-2,-2.7760267E-3,1.4261297E-2,4.2807064E-3,-7.546387E-3,1.5191679E-3],"split_indices":[8,0,37,13,0,53,73,25,1,42,38,0,0,0,0,0,0,0,0],"split_type":[0,0,0,0,0,0,0,0,0,0,0,0,0,0,0,0,0,0,0],"sum_hessian":[8.9E1,1E0,8.8E1,8.4E1,4E0,1.5E1,6.9E1,9E0,6E0,1.7E1,5.2E1,4E0,5E0,5E0,1E0,4E0,1.3E1,9E0,4.3E1],"tree_param":{"num_deleted":"0","num_feature":"100","num_nodes":"19","size_leaf_vector":"1"}},{"base_weights":[-1.0088717E-3,2.2604168E-4,-1.4758683E-2,2.0109552E-3,-1.389738E-2,-1.2110354E-2,3.9995573E-3,-5.19678E-3,-2.5649086E-2,-8.1675133E-4,-2.3240607E-2,1.136634E-2,-3.4568526E-4,4.0092863E-4,-3.1507541E-3,-2.7923584E-3,-1.18179405E-2,-2.0794205E-3,2.1191598E-3,-1.1582669E-2,-3.91107E-3,1.0523148E-2,2.6224314E-3,-9.123722E-4,1.1003224E-2],"categories":[],"categories_nodes":[],"categories_segments":[],"categories_sizes":[],"default_left":[0,0,0,0,0,0,0,0,0,0,0,0,0,0,0,0,0,0,0,0,0,0,0,0,0],"id":17,"left_children":[1,3,-1,5,7,9,11,13,15,17,19,21,23,-1,-1,-1,-1,-1,-1,-1,-1,-1,-1,-1,-1],"loss_changes":[3.996993E-3,2.2463468E-3,0E0,2.2668878E-3,8.891764E-4,1.2380248E-3,2.2446616E-3,1.2419485E-4,8.465792E-5,1.8830046E-4,1.0164594E-4,1.6962131E-3,2.4884164E-3,0E0,0E0,0E0,0E0,0E0,0E0,0E0,0E0,0E0,0E0,0E0,0E0],"parents":[2147483647,0,0,1,1,3,3,4,4,5,5,6,6,7,7,8,8,9,9,10,10,11,11,12,12],"right_children":[2,4,-1,6,8,10,12,14,16,18,20,22,24,-1,-1,-1,-1,-1,-1,-1,-1,-1,-1,-1,-1],"split_conditions":[3.0107577E0,1.3322914E0,-1.4758683E-2,-1.0071189E0,-3.168685E-2,6.430141E-1,-1.4406124E-1,-7.233159E-1,4.633342E-4,1.5031007E-1,2.0330569E-1,-3.0884835E-1,1.4369962E0,4.0092863E-4,-3.1507541E-3,-2.7923584E-3,-1.18179405E-2,-2.0794205E-3,2.1191598E-3,-1.1582669E-2,-3.91107E-3,1.0523148E-2,2.6224314E-3,-9.123722E-4,1.1003224E-2],"split_indices":[13,45,0,74,44,21,83,5,0,1,4,35,72,0,0,0,0,0,0,0,0,0,0,0,0],"split_type":[0,0,0,0,0,0,0,0,0,0,0,0,0,0,0,0,0,0,0,0,0,0,0,0,0],"sum_hessian":[8.9E1,8.7E1,2E0,7.8E1,9E0,9E0,6.9E1,6E0,3E0,5E0,4E0,2.5E1,4.4E1,2E0,4E0,1E0,2E0,3E0,2E0,2E0,2E0,5E0,2E1,4.2E1,2E0],"tree_param":{"num_deleted":"0","num_feature":"100","num_nodes":"25","size_leaf_vector":"1"}},{"base_weights":[-8.7572687E-4,-1.41257765E-2,-9.1983544E-5,-6.8344397E-4,1.0391307E-2,3.6848441E-3,-5.1354785E-3,-3.571171E-3,8.654453E-3,-2.5326073E-2,-3.040409E-3,-4.133155E-3,2.035978E-3,-1.1115561E-3,4.5517012E-3,-2.1088123E-3,-1.2101364E-2,2.9469822E-3,-2.3147136E-3],"categories":[],"categories_nodes":[],"categories_segments":[],"categories_sizes":[],"default_left":[0,0,0,0,0,0,0,0,0,0,0,0,0,0,0,0,0,0,0],"id":18,"left_children":[1,-1,3,5,-1,7,9,11,13,15,17,-1,-1,-1,-1,-1,-1,-1,-1],"loss_changes":[2.4259517E-3,0E0,1.3900922E-3,1.7303273E-3,0E0,1.6535865E-3,1.7842294E-3,1.16531E-3,8.727682E-4,2.35755E-4,1.2145736E-3,0E0,0E0,0E0,0E0,0E0,0E0,0E0,0E0],"parents":[2147483647,0,0,2,2,3,3,5,5,6,6,7,7,8,8,9,9,10,10],"right_children":[2,-1,4,6,-1,8,10,12,14,16,18,-1,-1,-1,-1,-1,-1,-1,-1],"split_conditions":[-3.5125904E0,-1.41257765E-2,3.8472195E0,1.3116413E-1,1.0391307E-2,-2.313805E-1,-1.2130483E0,3.249786E-1,-4.539531E-1,-2.7462626E0,-5.093922E-1,-4.133155E-3,2.035978E-3,-1.1115561E-3,4.5517012E-3,-2.1088123E-3,-1.2101364E-2,2.9469822E-3,-2.3147136E-3],"split_indices":[8,0,73,54,0,20,14,0,74,0,73,0,0,0,0,0,0,0,0],"split_type":[0,0,0,0,0,0,0,0,0,0,0,0,0,0,0,0,0,0,0],"sum_hessian":[8.9E1,1E0,8.8E1,8.7E1,1E0,4.4E1,4.3E1,1.8E1,2.6E1,3E0,4E1,1E1,8E0,5E0,2.1E1,1E0,2E0,8E0,3.2E1],"tree_param":{"num_deleted":"0","num_feature":"100","num_nodes":"19","size_leaf_vector":"1"}},{"base_weights":[-7.028732E-4,-1.1300611E-2,-7.590487E-5,-1.1593722E-2,8.963918E-4,-1.00338515E-2,-1.1804343E-3,2.2834234E-3,-9.457281E-3,1.3044596E-3,-3.1061172E-3,-5.0014077E-4,7.147411E-3,-3.881033E-3,-1.6851395E-2,-1.5037219E-3,-2.2931099E-4,-2.1999252E-3,1.8914761E-3,5.2582244E-3,8.808337E-4,-1.7564715E-3,-1.6403198E-4,-1.7709493E-3,-7.806778E-3],"categories":[],"categories_nodes":[],"categories_segments":[],"categories_sizes":[],"default_left":[0,0,0,0,0,0,0,0,0,0,0,0,0,0,0,0,0,0,0,0,0,0,0,0,0],"id":19,"left_children":[1,-1,3,5,7,-1,9,11,13,-1,15,17,19,21,23,-1,-1,-1,-1,-1,-1,-1,-1,-1,-1],"loss_changes":[1.5523478E-3,0E0,1.00708E-3,9.5378194E-4,1.2135473E-3,0E0,5.2894917E-5,1.005477E-3,3.4691335E-4,0E0,4.462556E-6,1.2808442E-3,7.719485E-4,1.0594107E-5,4.6058558E-5,0E0,0E0,0E0,0E0,0E0,0E0,0E0,0E0,0E0,0E0],"parents":[2147483647,0,0,2,2,3,3,4,4,6,6,7,7,8,8,10,10,11,11,12,12,13,13,14,14],"right_children":[2,-1,4,6,8,-1,10,12,14,-1,16,18,20,22,24,-1,-1,-1,-1,-1,-1,-1,-1,-1,-1],"split_conditions":[-3.5125904E0,-1.1300611E-2,-1.4545588E0,1.4081804E0,1.3322914E0,-1.00338515E-2,3.6980113E-1,1.09717466E-1,-3.168685E-2,1.3044596E-3,1.0726187E0,3.1266505E-1,-1.4406124E-1,6.4232224E-1,4.633342E-4,-1.5037219E-3,-2.2931099E-4,-2.1999252E-3,1.8914761E-3,5.2582244E-3,8.808337E-4,-1.7564715E-3,-1.6403198E-4,-1.7709493E-3,-7.806778E-3],"split_indices":[8,0,72,33,45,0,0,51,44,0,0,40,83,0,0,0,0,0,0,0,0,0,0,0,0],"split_type":[0,0,0,0,0,0,0,0,0,0,0,0,0,0,0,0,0,0,0,0,0,0,0,0,0],"sum_hessian":[8.9E1,1E0,8.8E1,6E0,8.2E1,2E0,4E0,7.3E1,9E0,1E0,3E0,4.7E1,2.6E1,6E0,3E0,2E0,1E0,2.4E1,2.3E1,1.1E1,1.5E1,5E0,1E0,1E0,2E0],"tree_param":{"num_deleted":"0","num_feature":"100","num_nodes":"25","size_leaf_vector":"1"}},{"base_weights":[-7.265145E-4,-1.5237421E-2,1.255907E-4,-8.113384E-4,-9.833745E-3,2.5299608E-3,-3.284089E-3,-2.065325E-3,1.5785218E-3,3.9472803E-3,-6.9428002E-3,-8.538737E-3,1.3465658E-3,-1.6477293E-3,5.805893E-3,-3.2510122E-3,3.3116343E-5,-1.9564463E-2,-3.6412466E-3,-5.9438944E-3,6.7021972E-3,-1.9148916E-3,1.4820065E-3,3.5883344E-3,2.5750836E-4,-1.4804006E-3,-9.042031E-3,-7.919334E-5,-3.050156E-3,-4.8177405E-3,-9.921142E-4,4.0935128E-4,5.779147E-3],"categories":[],"categories_nodes":[],"categories_segments":[],"categories_sizes":[],"default_left":[0,0,0,0,0,0,0,0,0,0,0,0,0,0,0,0,0,0,0,0,0,0,0,0,0,0,0,0,0,0,0,0,0],"id":20,"left_children":[1,3,5,7,-1,9,11,-1,-1,13,15,17,19,21,23,-1,-1,25,27,29,31,-1,-1,-1,-1,-1,-1,-1,-1,-1,-1,-1,-1],"loss_changes":[1.1147474E-3,6.542525E-4,7.13348E-4,8.24914E-5,0E0,7.121274E-4,8.874664E-4,0E0,0E0,4.7751953E-4,5.8936916E-5,8.467337E-4,8.2073756E-4,2.1939608E-4,5.4971094E-4,0E0,0E0,1.5751203E-4,1.7683019E-4,1.6029293E-4,5.130495E-4,0E0,0E0,0E0,0E0,0E0,0E0,0E0,0E0,0E0,0E0,0E0,0E0],"parents":[2147483647,0,0,1,1,2,2,3,3,5,5,6,6,9,9,10,10,11,11,12,12,13,13,14,14,17,17,18,18,19,19,20,20],"right_children":[2,4,6,8,-1,10,12,-1,-1,14,16,18,20,22,24,-1,-1,26,28,30,32,-1,-1,-1,-1,-1,-1,-1,-1,-1,-1,-1,-1],"split_conditions":[-1.5755433E0,-1.3891245E0,3.6219105E-1,-2.7462626E0,-9.833745E-3,8.517684E-1,1.6593944E-1,-2.065325E-3,1.5785218E-3,-9.4038546E-2,8.341628E-1,-6.011514E-1,2.1993957E-2,3.8751552E-1,3.7223879E-1,-3.2510122E-3,3.3116343E-5,-1.0531788E-1,-1.7246044E-1,-8.9181766E-2,-1.3076193E0,-1.9148916E-3,1.4820065E-3,3.5883344E-3,2.5750836E-4,-1.4804006E-3,-9.042031E-3,-7.919334E-5,-3.050156E-3,-4.8177405E-3,-9.921142E-4,4.0935128E-4,5.779147E-3],"split_indices":[37,3,93,0,0,86,58,0,0,38,0,3,69,84,83,0,0,0,53,0,45,0,0,0,0,0,0,0,0,0,0,0,0],"split_type":[0,0,0,0,0,0,0,0,0,0,0,0,0,0,0,0,0,0,0,0,0,0,0,0,0,0,0,0,0,0,0,0,0],"sum_hessian":[8.9E1,4E0,8.5E1,2E0,2E0,5E1,3.5E1,1E0,1E0,4.4E1,6E0,1.6E1,1.9E1,1.1E1,3.3E1,5E0,1E0,4E0,1.2E1,8E0,1.1E1,7E0,4E0,2E1,1.3E1,1E0,3E0,7E0,5E0,2E0,6E0,7E0,4E0],"tree_param":{"num_deleted":"0","num_feature":"100","num_nodes":"33","size_leaf_vector":"1"}},{"base_weights":[-6.958968E-4,-2.159185E-4,-1.4543295E-2,-5.944769E-4,6.543732E-3,-1.6522408E-3,-7.0737363E-3,4.818939E-3,-1.524876E-3,1.213944E-2,2.1655692E-4,-2.441815E-3,3.492539E-3,7.8229903E-4,5.6785704E-3,1.080664E-3,-1.4260948E-3,-2.0678933E-3,2.5154528E-4,2.3702295E-3,-4.395294E-4],"categories":[],"categories_nodes":[],"categories_segments":[],"categories_sizes":[],"default_left":[0,0,0,0,0,0,0,0,0,0,0,0,0,0,0,0,0,0,0,0,0],"id":21,"left_children":[1,3,5,7,-1,-1,-1,9,11,13,15,17,19,-1,-1,-1,-1,-1,-1,-1,-1],"loss_changes":[5.9504044E-4,5.618987E-4,2.5073241E-5,4.4553573E-4,0E0,0E0,0E0,4.3536373E-4,3.5357793E-4,7.697393E-5,9.4215386E-5,5.393508E-4,1.405625E-4,0E0,0E0,0E0,0E0,0E0,0E0,0E0,0E0],"parents":[2147483647,0,0,1,1,2,2,3,3,7,7,8,8,9,9,10,10,11,11,12,12],"right_children":[2,4,6,8,-1,-1,-1,10,12,14,16,18,20,-1,-1,-1,-1,-1,-1,-1,-1],"split_conditions":[3.0107577E0,3.8472195E0,-2.7462626E0,-9.8060805E-1,6.543732E-3,-1.6522408E-3,-7.0737363E-3,-3.6433637E-2,9.332664E-1,-1.6203201E0,2.7053345E-3,1.7350875E-1,3.582535E-1,7.8229903E-4,5.6785704E-3,1.080664E-3,-1.4260948E-3,-2.0678933E-3,2.5154528E-4,2.3702295E-3,-4.395294E-4],"split_indices":[13,73,0,54,0,0,0,17,76,0,56,84,80,0,0,0,0,0,0,0,0],"split_type":[0,0,0,0,0,0,0,0,0,0,0,0,0,0,0,0,0,0,0,0,0],"sum_hessian":[8.9E1,8.7E1,2E0,8.6E1,1E0,1E0,1E0,1.2E1,7.4E1,4E0,8E0,6.3E1,1.1E1,1E0,3E0,5E0,3E0,3.3E1,3E1,7E0,4E0],"tree_param":{"num_deleted":"0","num_feature":"100","num_nodes":"21","size_leaf_vector":"1"}},{"base_weights":[-3.725593E-4,-3.1088446E-3,1.5963351E-3,-5.9050974E-3,1.5724163E-3,9.1180075E-3,4.421214E-4,-9.508174E-3,1.1564926E-3,-2.1270004E-3,4.275027E-3,5.3533795E-3,1.0292262E-3,-3.6607427E-3,1.071895E-3,-1.391826E-2,-3.3583045E-3,-7.6948485E-4,2.8511717E-3,-1.9565672E-3,1.1691675E-3,2.3492507E-3,-8.7888044E-4,2.569507E-4,7.5400593E-3,-3.0047458E-3,-7.0164013E-3,-1.8487454E-3,-3.757119E-4,3.729414E-5,-5.5028405E-4,1.4802108E-3,4.2057037E-4,8.0683635E-4,-2.7492046E-4,6.3943866E-5,-5.9127214E-4,1.8609472E-3,-3.798343E-4,1.0643323E-3,3.962374E-3],"categories":[],"categories_nodes":[],"categories_segments":[],"categories_sizes":[],"default_left":[0,0,0,0,0,0,0,0,0,0,0,0,0,0,0,0,0,0,0,0,0,0,0,0,0,0,0,0,0,0,0,0,0,0,0,0,0,0,0,0,0],"id":22,"left_children":[1,3,5,7,9,11,13,15,17,19,21,-1,-1,-1,23,25,27,29,31,-1,33,-1,35,37,39,-1,-1,-1,-1,-1,-1,-1,-1,-1,-1,-1,-1,-1,-1,-1,-1],"loss_changes":[4.898339E-4,5.067048E-4,4.5609442E-4,6.216388E-4,1.5906424E-4,1.60983E-4,2.9378542E-4,3.8720167E-4,3.1569158E-5,6.950278E-5,7.928989E-5,0E0,0E0,0E0,2.3526627E-4,7.711281E-5,2.0111416E-5,2.7432789E-6,3.7522877E-6,0E0,7.68292E-6,0E0,2.1038518E-6,2.2185028E-4,3.136022E-5,0E0,0E0,0E0,0E0,0E0,0E0,0E0,0E0,0E0,0E0,0E0,0E0,0E0,0E0,0E0,0E0],"parents":[2147483647,0,0,1,1,2,2,3,3,4,4,5,5,6,6,7,7,8,8,9,9,10,10,14,14,15,15,16,16,17,17,18,18,20,20,22,22,23,23,24,24],"right_children":[2,4,6,8,10,12,14,16,18,20,22,-1,-1,-1,24,26,28,30,32,-1,34,-1,36,38,40,-1,-1,-1,-1,-1,-1,-1,-1,-1,-1,-1,-1,-1,-1,-1,-1],"split_conditions":[-1.8027972E-1,6.02739E-2,-7.9858327E-1,4.7510654E-2,-6.3386947E-1,2.0189917E-1,-1.8081154E0,4.950751E-1,-3.1143764E-1,1.5222253E-1,1.0600684E0,5.3533795E-3,1.0292262E-3,-3.6607427E-3,1.166004E0,-7.367193E-1,8.341628E-1,1.5031007E-1,-7.857906E-1,-1.9565672E-3,-5.4457885E-1,2.3492507E-3,1.0833762E0,-6.293787E-1,-1.3295677E-3,-3.0047458E-3,-7.0164013E-3,-1.8487454E-3,-3.757119E-4,3.729414E-5,-5.5028405E-4,1.4802108E-3,4.2057037E-4,8.0683635E-4,-2.7492046E-4,6.3943866E-5,-5.9127214E-4,1.8609472E-3,-3.798343E-4,1.0643323E-3,3.962374E-3],"split_indices":[75,44,25,8,35,35,49,94,64,5,0,0,0,0,5,44,0,1,6,0,0,0,0,81,0,0,0,0,0,0,0,0,0,0,0,0,0,0,0,0,0],"split_type":[0,0,0,0,0,0,0,0,0,0,0,0,0,0,0,0,0,0,0,0,0,0,0,0,0,0,0,0,0,0,0,0,0,0,0,0,0,0,0,0,0],"sum_hessian":[8.9E1,3.7E1,5.2E1,2.3E1,1.4E1,6E0,4.6E1,1.5E1,8E0,6E0,8E0,3E0,3E0,2E0,4.4E1,8E0,7E0,4E0,4E0,3E0,3E0,6E0,2E0,4E1,4E0,4E0,4E0,4E0,3E0,2E0,2E0,2E0,2E0,2E0,1E0,1E0,1E0,8E0,3.2E1,2E0,2E0],"tree_param":{"num_deleted":"0","num_feature":"100","num_nodes":"41","size_leaf_vector":"1"}},{"base_weights":[-2.3721613E-4,-7.1723997E-3,1.6875056E-4,-3.1306347E-4,-4.6563745E-3,-7.422381E-5,4.1643144E-3,-9.3050004E-4,7.4266194E-4,-4.5541474E-3,3.2367097E-4,-1.6331673E-5,-3.1813704E-3,1.3821741E-3,-1.4512899E-3,5.391836E-4,-3.68166E-4,-1.8252889E-3,8.5767143E-4,8.6844136E-4,-1.1468842E-3],"categories":[],"categories_nodes":[],"categories_segments":[],"categories_sizes":[],"default_left":[0,0,0,0,0,0,0,0,0,0,0,0,0,0,0,0,0,0,0,0,0],"id":23,"left_children":[1,3,5,7,-1,9,-1,-1,-1,11,13,15,-1,17,19,-1,-1,-1,-1,-1,-1],"loss_changes":[2.5460112E-4,1.4961165E-4,2.147882E-4,1.7423186E-5,0E0,1.5298979E-4,0E0,0E0,0E0,1.0784723E-4,1.5043127E-4,6.1744113E-6,0E0,2.3630532E-4,1.6009563E-4,0E0,0E0,0E0,0E0,0E0,0E0],"parents":[2147483647,0,0,1,1,2,2,3,3,5,5,9,9,10,10,11,11,13,13,14,14],"right_children":[2,4,6,8,-1,10,-1,-1,-1,12,14,16,-1,18,20,-1,-1,-1,-1,-1,-1],"split_conditions":[-1.5755433E0,-1.3891245E0,3.8472195E0,-2.7462626E0,-4.6563745E-3,-1.4545588E0,4.1643144E-3,-9.3050004E-4,7.4266194E-4,2.88582E-1,2.3800148E-1,3.6980113E-1,-3.1813704E-3,-1.4259248E0,-9.8894484E-2,5.391836E-4,-3.68166E-4,-1.8252889E-3,8.5767143E-4,8.6844136E-4,-1.1468842E-3],"split_indices":[37,3,73,0,0,72,0,0,0,13,46,0,0,34,86,0,0,0,0,0,0],"split_type":[0,0,0,0,0,0,0,0,0,0,0,0,0,0,0,0,0,0,0,0,0],"sum_hessian":[8.9E1,4E0,8.5E1,2E0,2E0,8.4E1,1E0,1E0,1E0,6E0,7.8E1,3E0,3E0,4.9E1,2.9E1,1E0,2E0,5E0,4.4E1,8E0,2.1E1],"tree_param":{"num_deleted":"0","num_feature":"100","num_nodes":"21","size_leaf_vector":"1"}},{"base_weights":[-1.9717995E-4,-1.588583E-3,1.229525E-3,4.7979064E-4,-3.677817E-3,5.324016E-3,5.801293E-5,1.6754479E-3,-2.120955E-3,-3.726673E-3,-2.366153E-3,3.994713E-3,5.510412E-4,-8.339134E-4,3.8722667E-3,2.465925E-3,-6.0403347E-4,-1.1202872E-3,5.274773E-4,7.9561555E-4,-3.7780267E-3,2.78497E-3,-5.0486624E-4,-1.5493557E-3,2.2860814E-3,9.5266104E-4,2.9790082E-3,-2.2233327E-4,1.2063483E-3,-4.5807363E-4,5.239785E-4,-2.1886749E-3,1.4595986E-4,2.9685497E-4,1.374127E-3,6.375933E-4,-8.8959635E-4,1.3365656E-3,4.6777724E-5,5.025208E-4,-5.238056E-5],"categories":[],"categories_nodes":[],"categories_segments":[],"categories_sizes":[],"default_left":[0,0,0,0,0,0,0,0,0,0,0,0,0,0,0,0,0,0,0,0,0,0,0,0,0,0,0,0,0,0,0,0,0,0,0,0,0,0,0,0,0],"id":24,"left_children":[1,3,5,7,9,11,13,15,17,-1,19,-1,21,23,25,27,-1,-1,-1,29,31,33,-1,35,37,39,-1,-1,-1,-1,-1,-1,-1,-1,-1,-1,-1,-1,-1,-1,-1],"loss_changes":[1.8061415E-4,2.0054515E-4,2.1554469E-4,7.8183955E-5,1.4807013E-4,2.1704956E-4,1.2570234E-4,4.653127E-5,2.2398453E-5,0E0,9.2286195E-5,0E0,2.7818543E-5,7.050724E-5,6.597337E-5,2.4941575E-5,0E0,0E0,0E0,8.487617E-6,1.0023058E-4,1.4361758E-6,0E0,5.6560177E-5,1.3344208E-5,1.8096598E-6,0E0,0E0,0E0,0E0,0E0,0E0,0E0,0E0,0E0,0E0,0E0,0E0,0E0,0E0,0E0],"parents":[2147483647,0,0,1,1,2,2,3,3,4,4,5,5,6,6,7,7,8,8,10,10,12,12,13,13,14,14,15,15,19,19,20,20,21,21,23,23,24,24,25,25],"right_children":[2,4,6,8,10,12,14,16,18,-1,20,-1,22,24,26,28,-1,-1,-1,30,32,34,-1,36,38,40,-1,-1,-1,-1,-1,-1,-1,-1,-1,-1,-1,-1,-1,-1,-1],"split_conditions":[7.257622E-2,-3.8852152E-1,-7.060657E-1,1.2279802E-2,-9.588906E-1,4.0120396E-1,8.0426556E-1,1.8016453E0,6.0267395E-1,-3.726673E-3,-3.8816568E-1,3.994713E-3,-2.1716233E-1,1.0298E0,-1.4159457E-1,-7.8694487E-1,-6.0403347E-4,-1.1202872E-3,5.274773E-4,-1.7168853E0,4.6928853E-1,-3.132945E-1,-5.0486624E-4,-4.056746E-1,4.8285833E-1,1.2895598E0,2.9790082E-3,-2.2233327E-4,1.2063483E-3,-4.5807363E-4,5.239785E-4,-2.1886749E-3,1.4595986E-4,2.9685497E-4,1.374127E-3,6.375933E-4,-8.8959635E-4,1.3365656E-3,4.6777724E-5,5.025208E-4,-5.238056E-5],"split_indices":[14,53,44,25,35,45,84,29,6,0,34,0,13,93,53,9,0,0,0,3,38,0,0,36,11,0,0,0,0,0,0,0,0,0,0,0,0,0,0,0,0],"split_type":[0,0,0,0,0,0,0,0,0,0,0,0,0,0,0,0,0,0,0,0,0,0,0,0,0,0,0,0,0,0,0,0,0,0,0,0,0,0,0,0,0],"sum_hessian":[8.9E1,4.5E1,4.4E1,2.3E1,2.2E1,9E0,3.5E1,1.6E1,7E0,3E0,1.9E1,4E0,5E0,2.9E1,6E0,1.3E1,3E0,6E0,1E0,6E0,1.3E1,2E0,3E0,2.4E1,5E0,4E0,2E0,2E0,1.1E1,1E0,5E0,9E0,4E0,1E0,1E0,4E0,2E1,3E0,2E0,3E0,1E0],"tree_param":{"num_deleted":"0","num_feature":"100","num_nodes":"41","size_leaf_vector":"1"}},{"base_weights":[-7.6037075E-5,-1.6546746E-3,5.911387E-4,-7.187513E-4,-2.7426183E-3,1.4323489E-3,-8.7055936E-4,-2.5591222E-3,7.785939E-4,5.5523515E-3,8.368796E-4,1.741147E-3,-1.479958E-3,-4.6775737E-3,-1.4150282E-5,1.4751657E-3,-5.3265097E-4,5.4725807E-4,3.1543095E-3,1.6691929E-3,-1.5772857E-3,6.613731E-5,8.3750486E-4,-1.0151416E-4,-2.2143882E-3,-3.664613E-4,-2.098651E-3,-3.0693252E-4,7.5035094E-4,1.6414226E-4,7.2927005E-4,1.9526419E-3,2.2847582E-4,-1.8085391E-4,-1.6207704E-3,-3.8032533E-4,2.3929118E-4,-4.623294E-4,-1.1826447E-3],"categories":[],"categories_nodes":[],"categories_segments":[],"categories_sizes":[],"default_left":[0,0,0,0,0,0,0,0,0,0,0,0,0,0,0,0,0,0,0,0,0,0,0,0,0,0,0,0,0,0,0,0,0,0,0,0,0,0,0],"id":25,"left_children":[1,3,5,7,-1,9,11,13,15,17,19,21,23,25,27,29,-1,-1,-1,31,33,-1,-1,35,37,-1,-1,-1,-1,-1,-1,-1,-1,-1,-1,-1,-1,-1,-1],"loss_changes":[9.576873E-5,1.2652276E-4,7.994105E-5,6.812861E-5,0E0,9.5940086E-5,4.0774514E-5,5.9239217E-5,2.2543263E-5,3.8028724E-5,7.697844E-5,2.4320725E-6,2.0022628E-5,8.03599E-6,9.9806175E-6,3.3280521E-6,0E0,0E0,0E0,9.5974356E-5,2.6011425E-5,0E0,0E0,5.323126E-6,6.7966685E-6,0E0,0E0,0E0,0E0,0E0,0E0,0E0,0E0,0E0,0E0,0E0,0E0,0E0,0E0],"parents":[2147483647,0,0,1,1,2,2,3,3,5,5,6,6,7,7,8,8,9,9,10,10,11,11,12,12,13,13,14,14,15,15,19,19,20,20,23,23,24,24],"right_children":[2,4,6,8,-1,10,12,14,16,18,20,22,24,26,28,30,-1,-1,-1,32,34,-1,-1,36,38,-1,-1,-1,-1,-1,-1,-1,-1,-1,-1,-1,-1,-1,-1],"split_conditions":[-2.5498915E-1,1.1217976E0,1.8493833E-1,1.051627E-1,-2.7426183E-3,-1.3563252E-2,-8.2786334E-1,-3.6078516E-1,1.24066226E-1,2.8400993E-1,9.4036984E-1,-6.398982E-1,-1.5781118E-1,-1.7168853E0,4.9889007E-1,-3.1617957E-1,-5.3265097E-4,5.4725807E-4,3.1543095E-3,-2.733693E-1,1.1199229E0,6.613731E-5,8.3750486E-4,-1.5352477E-1,1.5644662E-1,-3.664613E-4,-2.098651E-3,-3.0693252E-4,7.5035094E-4,1.6414226E-4,7.2927005E-4,1.9526419E-3,2.2847582E-4,-1.8085391E-4,-1.6207704E-3,-3.8032533E-4,2.3929118E-4,-4.623294E-4,-1.1826447E-3],"split_indices":[38,46,42,91,0,38,86,37,43,6,37,1,56,3,0,74,0,0,0,73,5,0,0,21,19,0,0,0,0,0,0,0,0,0,0,0,0,0,0],"split_type":[0,0,0,0,0,0,0,0,0,0,0,0,0,0,0,0,0,0,0,0,0,0,0,0,0,0,0,0,0,0,0,0,0,0,0,0,0,0,0],"sum_hessian":[8.9E1,2.6E1,6.3E1,2.3E1,3E0,4E1,2.3E1,1E1,1.3E1,4E0,3.6E1,4E0,1.9E1,5E0,5E0,1E1,3E0,2E0,2E0,2.7E1,9E0,1E0,3E0,7E0,1.2E1,1E0,4E0,4E0,1E0,3E0,7E0,6E0,2.1E1,7E0,2E0,3E0,4E0,6E0,6E0],"tree_param":{"num_deleted":"0","num_feature":"100","num_nodes":"39","size_leaf_vector":"1"}},{"base_weights":[-5.9019014E-5,-2.0841989E-3,3.0996196E-4,-1.2859441E-3,-1.8329939E-3,-6.408625E-4,1.0376454E-3,-1.412487E-4,-6.8328605E-4,-1.6255801E-3,8.8198984E-4,2.9735686E-3,3.807983E-4,-2.1834718E-4,-2.8850331E-3,1.1833841E-3,2.893731E-4,2.1084417E-3,9.076766E-4,9.5022056E-4,-1.5886016E-3,3.23987E-4,-4.8410828E-4,-1.4985325E-3,2.642155E-4,-8.2747145E-5,2.693534E-4,6.6936016E-5,5.6843756E-4,2.5641919E-5,8.933154E-4,-2.1245718E-4,-1.0053099E-3],"categories":[],"categories_nodes":[],"categories_segments":[],"categories_sizes":[],"default_left":[0,0,0,0,0,0,0,0,0,0,0,0,0,0,0,0,0,0,0,0,0,0,0,0,0,0,0,0,0,0,0,0,0],"id":26,"left_children":[1,3,5,7,-1,9,11,-1,-1,13,15,17,19,21,23,-1,25,-1,27,29,31,-1,-1,-1,-1,-1,-1,-1,-1,-1,-1,-1,-1],"loss_changes":[6.789878E-5,2.202694E-5,5.3941232E-5,4.123638E-6,0E0,5.241945E-5,5.481832E-5,0E0,0E0,3.658928E-5,1.6371616E-5,4.7426598E-5,3.9637805E-5,1.2200385E-5,3.6066325E-5,0E0,2.4260412E-6,0E0,2.4229053E-6,3.05544E-5,6.4875185E-6,0E0,0E0,0E0,0E0,0E0,0E0,0E0,0E0,0E0,0E0,0E0,0E0],"parents":[2147483647,0,0,1,1,2,2,3,3,5,5,6,6,9,9,10,10,11,11,12,12,13,13,14,14,16,16,18,18,19,19,20,20],"right_children":[2,4,6,8,-1,10,12,-1,-1,14,16,18,20,22,24,-1,26,-1,28,30,32,-1,-1,-1,-1,-1,-1,-1,-1,-1,-1,-1,-1],"split_conditions":[-2.909985E-1,1.0485238E0,-1.3417369E-1,-2.7493218E-1,-1.8329939E-3,1.4808887E-1,-7.060657E-1,-1.412487E-4,-6.8328605E-4,-1.10728696E-1,-7.512719E-1,-3.790076E-1,5.0959164E-1,3.464951E-1,6.116134E-1,1.1833841E-3,-4.6370827E-2,2.1084417E-3,8.8461053E-1,1.5285277E-1,-1.4339565E-1,3.23987E-4,-4.8410828E-4,-1.4985325E-3,2.642155E-4,-8.2747145E-5,2.693534E-4,6.6936016E-5,5.6843756E-4,2.5641919E-5,8.933154E-4,-2.1245718E-4,-1.0053099E-3],"split_indices":[9,69,75,95,0,91,44,0,0,53,42,31,81,88,25,0,45,0,78,95,1,0,0,0,0,0,0,0,0,0,0,0,0],"split_type":[0,0,0,0,0,0,0,0,0,0,0,0,0,0,0,0,0,0,0,0,0,0,0,0,0,0,0,0,0,0,0,0,0],"sum_hessian":[8.9E1,1.3E1,7.6E1,1.1E1,2E0,3.3E1,4.3E1,4E0,7E0,2E1,1.3E1,1E1,3.3E1,1E1,1E1,2E0,1.1E1,4E0,6E0,2.6E1,7E0,5E0,5E0,8E0,2E0,5E0,6E0,3E0,3E0,1.6E1,1E1,4E0,3E0],"tree_param":{"num_deleted":"0","num_feature":"100","num_nodes":"33","size_leaf_vector":"1"}},{"base_weights":[-3.804485E-5,-1.6640186E-3,5.5011875E-5,-2.8451599E-5,1.4799595E-3,3.0274797E-4,-8.751844E-4,8.2083925E-4,-5.38308E-4,-1.3319247E-3,4.8726457E-4,-4.566574E-4,4.282421E-4,-7.2149132E-6,-4.0686814E-4,-8.820225E-4,-1.3508364E-4],"categories":[],"categories_nodes":[],"categories_segments":[],"categories_sizes":[],"default_left":[0,0,0,0,0,0,0,0,0,0,0,0,0,0,0,0,0],"id":27,"left_children":[1,-1,3,5,-1,7,9,11,13,15,-1,-1,-1,-1,-1,-1,-1],"loss_changes":[3.4751047E-5,0E0,2.7180395E-5,2.4943467E-5,0E0,2.8329467E-5,2.5525382E-5,2.0828707E-5,6.210105E-6,1.7485032E-5,0E0,0E0,0E0,0E0,0E0,0E0,0E0],"parents":[2147483647,0,0,2,2,3,3,5,5,6,6,7,7,8,8,9,9],"right_children":[2,-1,4,6,-1,8,10,12,14,16,-1,-1,-1,-1,-1,-1,-1],"split_conditions":[-3.5125904E0,-1.6640186E-3,3.8472195E0,4.0910718E-1,1.4799595E-3,1.9715171E-2,3.19285E-1,-1.0919636E0,-7.755292E-2,9.649933E-1,4.8726457E-4,-4.566574E-4,4.282421E-4,-7.2149132E-6,-4.0686814E-4,-8.820225E-4,-1.3508364E-4],"split_indices":[8,0,73,54,0,17,50,5,56,54,0,0,0,0,0,0,0],"split_type":[0,0,0,0,0,0,0,0,0,0,0,0,0,0,0,0,0],"sum_hessian":[8.9E1,1E0,8.8E1,8.7E1,1E0,6.3E1,2.4E1,3.9E1,2.4E1,2E1,4E0,4E0,3.5E1,1.2E1,1.2E1,1E1,1E1],"tree_param":{"num_deleted":"0","num_feature":"100","num_nodes":"17","size_leaf_vector":"1"}},{"base_weights":[-3.5659777E-5,2.2461075E-4,-1.0892203E-3,-5.066579E-4,6.399223E-4,-2.7080167E-3,-5.4153923E-5,-1.3951473E-3,9.80504E-5,-2.060171E-5,1.3914541E-3,-2.9887757E-4,-1.3371629E-3,-3.3528806E-4,3.0033704E-4,-1.8870142E-4,-1.8554075E-3,-6.098516E-4,9.7067165E-4,-1.0384731E-3,4.0906E-4,2.5150229E-3,3.924695E-5,-5.953014E-5,2.1988899E-4,-1.155138E-4,-8.273522E-4,1.3748805E-5,-3.100816E-4,6.727577E-5,5.6740927E-4,-6.527162E-4,-1.488328E-5,-1.4342622E-4,3.163723E-4,1.2948195E-3,1.0468364E-4,3.917539E-4,-2.551547E-4],"categories":[],"categories_nodes":[],"categories_segments":[],"categories_sizes":[],"default_left":[0,0,0,0,0,0,0,0,0,0,0,0,0,0,0,0,0,0,0,0,0,0,0,0,0,0,0,0,0,0,0,0,0,0,0,0,0,0,0],"id":28,"left_children":[1,3,5,7,9,11,13,15,17,19,21,-1,-1,-1,23,-1,25,27,29,31,33,35,37,-1,-1,-1,-1,-1,-1,-1,-1,-1,-1,-1,-1,-1,-1,-1,-1],"loss_changes":[2.4923618E-5,2.2494634E-5,3.0013458E-5,1.4643271E-5,2.3359693E-5,6.2165564E-6,3.5870812E-6,3.7997197E-6,1.10933815E-5,1.1795648E-5,3.3325847E-5,0E0,0E0,0E0,1.0899437E-6,0E0,1.7382226E-6,1.0918845E-6,2.6365633E-6,4.6918267E-6,5.8531414E-6,1.8676248E-5,7.627326E-6,0E0,0E0,0E0,0E0,0E0,0E0,0E0,0E0,0E0,0E0,0E0,0E0,0E0,0E0,0E0,0E0],"parents":[2147483647,0,0,1,1,2,2,3,3,4,4,5,5,6,6,7,7,8,8,9,9,10,10,14,14,16,16,17,17,18,18,19,19,20,20,21,21,22,22],"right_children":[2,4,6,8,10,12,14,16,18,20,22,-1,-1,-1,24,-1,26,28,30,32,34,36,38,-1,-1,-1,-1,-1,-1,-1,-1,-1,-1,-1,-1,-1,-1,-1,-1],"split_conditions":[3.8392723E-1,-2.576083E-1,-1.543012E-1,-2.7778387E-1,3.928081E-3,-1.823395E-2,-8.1556714E-1,-3.853782E-1,-9.299402E-2,-6.40238E-1,2.7292785E-1,-2.9887757E-4,-1.3371629E-3,-3.3528806E-4,-8.3250445E-1,-1.8870142E-4,-6.865733E-1,-5.214865E-1,-1.0139409E0,-4.549374E-2,-9.9789673E-1,1.0214946E0,-4.9727094E-1,-5.953014E-5,2.1988899E-4,-1.155138E-4,-8.273522E-4,1.3748805E-5,-3.100816E-4,6.727577E-5,5.6740927E-4,-6.527162E-4,-1.488328E-5,-1.4342622E-4,3.163723E-4,1.2948195E-3,1.0468364E-4,3.917539E-4,-2.551547E-4],"split_indices":[13,14,44,52,13,27,11,26,44,78,34,0,0,0,19,0,4,34,12,1,84,19,12,0,0,0,0,0,0,0,0,0,0,0,0,0,0,0,0],"split_type":[0,0,0,0,0,0,0,0,0,0,0,0,0,0,0,0,0,0,0,0,0,0,0,0,0,0,0,0,0,0,0,0,0,0,0,0,0,0,0],"sum_hessian":[8.9E1,7.2E1,1.7E1,2.6E1,4.6E1,6E0,1.1E1,1E1,1.6E1,2.5E1,2.1E1,2E0,4E0,3E0,8E0,4E0,6E0,9E0,7E0,7E0,1.8E1,1.1E1,1E1,3E0,5E0,1E0,5E0,2E0,7E0,3E0,4E0,4E0,3E0,6E0,1.2E1,8E0,3E0,4E0,6E0],"tree_param":{"num_deleted":"0","num_feature":"100","num_nodes":"39","size_leaf_vector":"1"}},{"base_weights":[-3.8764018E-5,-1.0638237E-3,2.0565807E-5,-3.175689E-5,9.2499255E-4,8.5937977E-4,-8.151155E-5,-1.7743558E-4,4.1604438E-4,-1.2241257E-4,2.3499728E-4],"categories":[],"categories_nodes":[],"categories_segments":[],"categories_sizes":[],"default_left":[0,0,0,0,0,0,0,0,0,0,0],"id":29,"left_children":[1,-1,3,5,-1,-1,7,9,-1,-1,-1],"loss_changes":[1.4048916E-5,0E0,1.0746245E-5,9.720961E-6,0E0,0E0,9.544931E-6,8.147492E-6,0E0,0E0,0E0],"parents":[2147483647,0,0,2,2,3,3,6,6,7,7],"right_children":[2,-1,4,6,-1,-1,8,10,-1,-1,-1],"split_conditions":[-3.5125904E0,-1.0638237E-3,3.8472195E0,-1.5036815E0,9.2499255E-4,8.5937977E-4,1.178822E0,9.797712E-1,4.1604438E-4,-1.2241257E-4,2.3499728E-4],"split_indices":[8,0,73,25,0,0,50,64,0,0,0],"split_type":[0,0,0,0,0,0,0,0,0,0,0],"sum_hessian":[8.9E1,1E0,8.8E1,8.7E1,1E0,1E0,8.6E1,8E1,6E0,6.9E1,1.1E1],"tree_param":{"num_deleted":"0","num_feature":"100","num_nodes":"11","size_leaf_vector":"1"}},{"base_weights":[-9.379563E-6,-1.3659894E-3,6.960217E-5,-1.0387898E-4,-8.0678065E-4,1.3031125E-4,-4.8300475E-4,-4.5368375E-4,1.9190839E-4,3.947445E-4,-2.445491E-4,2.760449E-4,-3.187036E-5,1.0888204E-4,-1.7970352E-4],"categories":[],"categories_nodes":[],"categories_segments":[],"categories_sizes":[],"default_left":[0,0,0,0,0,0,0,0,0,0,0,0,0,0,0],"id":30,"left_children":[1,3,5,-1,-1,7,-1,-1,9,11,13,-1,-1,-1,-1],"loss_changes":[9.738342E-6,3.0769734E-6,6.825141E-6,0E0,0E0,6.682605E-6,0E0,0E0,7.178882E-6,7.762053E-6,2.87269E-6,0E0,0E0,0E0,0E0],"parents":[2147483647,0,0,1,1,2,2,5,5,8,8,9,9,10,10],"right_children":[2,4,6,-1,-1,8,-1,-1,10,12,14,-1,-1,-1,-1],"split_conditions":[-1.5755433E0,-1.3891245E0,1.6367109E0,-1.0387898E-4,-8.0678065E-4,-1.6462007E0,-4.8300475E-4,-4.5368375E-4,2.535173E-1,3.2028523E-1,-9.8894484E-2,2.760449E-4,-3.187036E-5,1.0888204E-4,-1.7970352E-4],"split_indices":[37,3,90,0,0,34,0,0,46,12,86,0,0,0,0],"split_type":[0,0,0,0,0,0,0,0,0,0,0,0,0,0,0],"sum_hessian":[8.9E1,4E0,8.5E1,2E0,2E0,8.2E1,3E0,3E0,7.9E1,5.4E1,2.5E1,3.3E1,2.1E1,7E0,1.8E1],"tree_param":{"num_deleted":"0","num_feature":"100","num_nodes":"15","size_leaf_vector":"1"}},{"base_weights":[-2.4241166E-5,-2.2043558E-4,3.3824984E-4,-6.996007E-4,6.993037E-6,1.1587576E-3,-8.737907E-5,-1.4804685E-3,-1.2072214E-4,-1.2981957E-4,5.875725E-4,8.6304353E-4,-1.3287862E-5,2.976656E-4,-3.7572492E-4,-2.41763E-4,-8.821711E-4,-2.28103E-4,1.1273596E-4,-2.72148E-4,1.2454444E-5,-5.1250183E-5,4.1704654E-4,-2.6978852E-4,1.7869459E-5,-3.469388E-4,4.5396388E-5],"categories":[],"categories_nodes":[],"categories_segments":[],"categories_sizes":[],"default_left":[0,0,0,0,0,0,0,0,0,0,0,0,0,0,0,0,0,0,0,0,0,0,0,0,0,0,0],"id":31,"left_children":[1,3,5,7,9,11,13,15,17,19,21,-1,-1,-1,23,-1,-1,-1,-1,-1,25,-1,-1,-1,-1,-1,-1],"loss_changes":[6.475246E-6,6.4344695E-6,1.1276669E-5,8.409801E-6,3.332933E-6,1.3168361E-5,5.5545847E-6,3.7478894E-6,2.3323119E-6,2.6716602E-6,2.7389774E-6,0E0,0E0,0E0,2.1652043E-6,0E0,0E0,0E0,0E0,0E0,2.5874142E-6,0E0,0E0,0E0,0E0,0E0,0E0],"parents":[2147483647,0,0,1,1,2,2,3,3,4,4,5,5,6,6,7,7,8,8,9,9,10,10,14,14,20,20],"right_children":[2,4,6,8,10,12,14,16,18,20,22,-1,-1,-1,24,-1,-1,-1,-1,-1,26,-1,-1,-1,-1,-1,-1],"split_conditions":[3.2468635E-1,-4.1080981E-1,5.4273134E-1,4.277408E-2,6.597404E-1,3.3390856E-1,-9.17976E-1,1.9296308E-1,-5.41224E-3,-4.2236976E-2,-9.565035E-1,8.6304353E-4,-1.3287862E-5,2.976656E-4,1.6322185E-1,-2.41763E-4,-8.821711E-4,-2.28103E-4,1.1273596E-4,-2.72148E-4,-1.0628934E0,-5.1250183E-5,4.1704654E-4,-2.6978852E-4,1.7869459E-5,-3.469388E-4,4.5396388E-5],"split_indices":[36,75,36,19,69,32,75,6,74,50,6,0,0,0,56,0,0,0,0,0,20,0,0,0,0,0,0],"split_type":[0,0,0,0,0,0,0,0,0,0,0,0,0,0,0,0,0,0,0,0,0,0,0,0,0,0,0],"sum_hessian":[8.9E1,5.8E1,3.1E1,1.8E1,4E1,1E1,2.1E1,7E0,1.1E1,3.3E1,7E0,5E0,5E0,5E0,1.6E1,4E0,3E0,5E0,6E0,6E0,2.7E1,3E0,4E0,9E0,7E0,2E0,2.5E1],"tree_param":{"num_deleted":"0","num_feature":"100","num_nodes":"27","size_leaf_vector":"1"}},{"base_weights":[-2.0685491E-5,1.5069284E-4,-2.7024615E-4,1.1704266E-3,6.775895E-5,-6.16064E-4,3.4188776E-4,6.478945E-4,-3.550053E-5,6.730429E-4,-2.790208E-5,-9.952243E-4,-8.747211E-5,6.62014E-5,5.269766E-4,4.7599475E-4,9.130716E-5,-2.7785375E-4,1.3377763E-4,-5.4084446E-4,-1.6519427E-4,-1.693743E-4,7.413865E-5,1.5973776E-4,-3.614258E-5],"categories":[],"categories_nodes":[],"categories_segments":[],"categories_sizes":[],"default_left":[0,0,0,0,0,0,0,0,0,0,0,0,0,0,0,0,0,0,0,0,0,0,0,0,0],"id":32,"left_children":[1,3,5,7,9,11,13,-1,-1,15,17,19,-1,-1,-1,-1,-1,21,23,-1,-1,-1,-1,-1,-1],"loss_changes":[3.8899598E-6,4.4874987E-6,8.043036E-6,2.4067967E-6,2.9717858E-6,3.3984961E-6,2.1909711E-6,0E0,0E0,1.3378301E-6,1.8557156E-6,1.9351173E-6,0E0,0E0,0E0,0E0,0E0,1.2922876E-6,1.702715E-6,0E0,0E0,0E0,0E0,0E0,0E0],"parents":[2147483647,0,0,1,1,2,2,3,3,4,4,5,5,6,6,9,9,10,10,11,11,17,17,18,18],"right_children":[2,4,6,8,10,12,14,-1,-1,16,18,20,-1,-1,-1,-1,-1,22,24,-1,-1,-1,-1,-1,-1],"split_conditions":[4.582888E-1,-7.9858327E-1,-2.1326186E-1,-1.3295677E-3,-1.0076547E0,1.6231386E-1,1.166004E0,6.478945E-4,-3.550053E-5,-3.6433637E-2,-4.196096E-1,8.94839E-1,-8.747211E-5,6.62014E-5,5.269766E-4,4.7599475E-4,9.130716E-5,9.615749E-1,-3.9803926E-2,-5.4084446E-4,-1.6519427E-4,-1.693743E-4,7.413865E-5,1.5973776E-4,-3.614258E-5],"split_indices":[83,25,7,0,96,78,5,0,0,17,4,14,0,0,0,0,0,96,61,0,0,0,0,0,0],"split_type":[0,0,0,0,0,0,0,0,0,0,0,0,0,0,0,0,0,0,0,0,0,0,0,0,0],"sum_hessian":[8.9E1,5.3E1,3.6E1,3E0,5E1,2.3E1,1.3E1,2E0,1E0,6E0,4.4E1,1.1E1,1.2E1,1.2E1,1E0,2E0,4E0,1.7E1,2.7E1,6E0,5E0,1.3E1,4E0,1.2E1,1.5E1],"tree_param":{"num_deleted":"0","num_feature":"100","num_nodes":"25","size_leaf_vector":"1"}},{"base_weights":[-1.2099222E-6,4.2236257E-5,-2.4659833E-4,4.5649955E-4,-2.5512336E-5,5.7448284E-5,4.1854085E-4,3.825903E-4,-5.2066633E-5,2.753661E-4,-8.262126E-5,-5.0710532E-5,1.3567721E-4],"categories":[],"categories_nodes":[],"categories_segments":[],"categories_sizes":[],"default_left":[0,0,0,0,0,0,0,0,0,0,0,0,0],"id":33,"left_children":[1,3,-1,5,7,-1,-1,-1,9,-1,11,-1,-1],"loss_changes":[2.4319024E-6,2.3972357E-6,0E0,2.0643504E-6,1.979425E-6,0E0,0E0,0E0,1.7085138E-6,0E0,1.3653932E-6,0E0,0E0],"parents":[2147483647,0,0,1,1,3,3,4,4,8,8,10,10],"right_children":[2,4,-1,6,8,-1,-1,-1,10,-1,12,-1,-1],"split_conditions":[1.288227E0,-9.8060805E-1,-2.4659833E-4,2.178298E-1,-1.7946593E0,5.7448284E-5,4.1854085E-4,3.825903E-4,-1.8513873E0,2.753661E-4,9.5061177E-1,-5.0710532E-5,1.3567721E-4],"split_indices":[86,54,0,19,35,0,0,0,24,0,31,0,0],"split_type":[0,0,0,0,0,0,0,0,0,0,0,0,0],"sum_hessian":[8.9E1,8.4E1,5E0,1.1E1,7.3E1,8E0,3E0,1E0,7.2E1,2E0,7E1,6.4E1,6E0],"tree_param":{"num_deleted":"0","num_feature":"100","num_nodes":"13","size_leaf_vector":"1"}},{"base_weights":[1.0073195E-5,-1.8594095E-4,4.9530405E-5,3.899417E-4,-1.7406045E-6,2.7476251E-5,3.7398338E-4,1.11806316E-4,-2.0353733E-4,3.873984E-4,5.350468E-5,-4.1646772E-4,5.7616133E-5,4.281371E-5,-1.6273797E-4,-5.2849455E-6,-2.3335591E-4],"categories":[],"categories_nodes":[],"categories_segments":[],"categories_sizes":[],"default_left":[0,0,0,0,0,0,0,0,0,0,0,0,0,0,0,0,0],"id":34,"left_children":[1,-1,3,5,7,-1,-1,9,11,-1,13,15,-1,-1,-1,-1,-1],"loss_changes":[1.7095558E-6,0E0,1.4667503E-6,1.8617365E-6,1.7183481E-6,0E0,0E0,2.3456087E-6,2.0582543E-6,0E0,1.1770935E-6,1.1365996E-6,0E0,0E0,0E0,0E0,0E0],"parents":[2147483647,0,0,2,2,3,3,4,4,7,7,8,8,10,10,11,11],"right_children":[2,-1,4,6,8,-1,-1,10,12,-1,14,16,-1,-1,-1,-1,-1],"split_conditions":[-1.2604731E0,-1.8594095E-4,-9.8060805E-1,-1.7246044E-1,4.582888E-1,2.7476251E-5,3.7398338E-4,-7.9858327E-1,-2.1326186E-1,3.873984E-4,1.5241004E0,2.1581775E-1,5.7616133E-5,4.281371E-5,-1.6273797E-4,-5.2849455E-6,-2.3335591E-4],"split_indices":[36,0,54,53,83,0,0,25,7,0,73,24,0,0,0,0,0],"split_type":[0,0,0,0,0,0,0,0,0,0,0,0,0,0,0,0,0],"sum_hessian":[8.9E1,6E0,8.3E1,1E1,7.3E1,7E0,3E0,4.7E1,2.6E1,2E0,4.5E1,1.6E1,1E1,4.1E1,4E0,5E0,1.1E1],"tree_param":{"num_deleted":"0","num_feature":"100","num_nodes":"17","size_leaf_vector":"1"}},{"base_weights":[9.401416E-6,1.2889684E-5,-2.6528043E-4],"categories":[],"categories_nodes":[],"categories_segments":[],"categories_sizes":[],"default_left":[0,0,0],"id":35,"left_children":[1,-1,-1],"loss_changes":[1.4029312E-6,0E0,0E0],"parents":[2147483647,0,0],"right_children":[2,-1,-1],"split_conditions":[3.0107577E0,1.2889684E-5,-2.6528043E-4],"split_indices":[13,0,0],"split_type":[0,0,0],"sum_hessian":[8.9E1,8.7E1,2E0],"tree_param":{"num_deleted":"0","num_feature":"100","num_nodes":"3","size_leaf_vector":"1"}},{"base_weights":[2.8468855E-6],"categories":[],"categories_nodes":[],"categories_segments":[],"categories_sizes":[],"default_left":[0],"id":36,"left_children":[-1],"loss_changes":[0E0],"parents":[2147483647],"right_children":[-1],"split_conditions":[1.1387542E-6],"split_indices":[0],"split_type":[0],"sum_hessian":[8.9E1],"tree_param":{"num_deleted":"0","num_feature":"100","num_nodes":"1","size_leaf_vector":"1"}},{"base_weights":[1.6939064E-6],"categories":[],"categories_nodes":[],"categories_segments":[],"categories_sizes":[],"default_left":[0],"id":37,"left_children":[-1],"loss_changes":[0E0],"parents":[2147483647],"right_children":[-1],"split_conditions":[6.775626E-7],"split_indices":[0],"split_type":[0],"sum_hessian":[8.9E1],"tree_param":{"num_deleted":"0","num_feature":"100","num_nodes":"1","size_leaf_vector":"1"}},{"base_weights":[1.0064807E-6],"categories":[],"categories_nodes":[],"categories_segments":[],"categories_sizes":[],"default_left":[0],"id":38,"left_children":[-1],"loss_changes":[0E0],"parents":[2147483647],"right_children":[-1],"split_conditions":[4.025923E-7],"split_indices":[0],"split_type":[0],"sum_hessian":[8.9E1],"tree_param":{"num_deleted":"0","num_feature":"100","num_nodes":"1","size_leaf_vector":"1"}},{"base_weights":[6.160616E-7],"categories":[],"categories_nodes":[],"categories_segments":[],"categories_sizes":[],"default_left":[0],"id":39,"left_children":[-1],"loss_changes":[0E0],"parents":[2147483647],"right_children":[-1],"split_conditions":[2.4642463E-7],"split_indices":[0],"split_type":[0],"sum_hessian":[8.9E1],"tree_param":{"num_deleted":"0","num_feature":"100","num_nodes":"1","size_leaf_vector":"1"}},{"base_weights":[3.7928024E-7],"categories":[],"categories_nodes":[],"categories_segments":[],"categories_sizes":[],"default_left":[0],"id":40,"left_children":[-1],"loss_changes":[0E0],"parents":[2147483647],"right_children":[-1],"split_conditions":[1.517121E-7],"split_indices":[0],"split_type":[0],"sum_hessian":[8.9E1],"tree_param":{"num_deleted":"0","num_feature":"100","num_nodes":"1","size_leaf_vector":"1"}},{"base_weights":[2.3050961E-7],"categories":[],"categories_nodes":[],"categories_segments":[],"categories_sizes":[],"default_left":[0],"id":41,"left_children":[-1],"loss_changes":[0E0],"parents":[2147483647],"right_children":[-1],"split_conditions":[9.220385E-8],"split_indices":[0],"split_type":[0],"sum_hessian":[8.9E1],"tree_param":{"num_deleted":"0","num_feature":"100","num_nodes":"1","size_leaf_vector":"1"}},{"base_weights":[1.3206882E-7],"categories":[],"categories_nodes":[],"categories_segments":[],"categories_sizes":[],"default_left":[0],"id":42,"left_children":[-1],"loss_changes":[0E0],"parents":[2147483647],"right_children":[-1],"split_conditions":[5.2827527E-8],"split_indices":[0],"split_type":[0],"sum_hessian":[8.9E1],"tree_param":{"num_deleted":"0","num_feature":"100","num_nodes":"1","size_leaf_vector":"1"}},{"base_weights":[1.0621774E-7],"categories":[],"categories_nodes":[],"categories_segments":[],"categories_sizes":[],"default_left":[0],"id":43,"left_children":[-1],"loss_changes":[0E0],"parents":[2147483647],"right_children":[-1],"split_conditions":[4.24871E-8],"split_indices":[0],"split_type":[0],"sum_hessian":[8.9E1],"tree_param":{"num_deleted":"0","num_feature":"100","num_nodes":"1","size_leaf_vector":"1"}},{"base_weights":[8.5761066E-8],"categories":[],"categories_nodes":[],"categories_segments":[],"categories_sizes":[],"default_left":[0],"id":44,"left_children":[-1],"loss_changes":[0E0],"parents":[2147483647],"right_children":[-1],"split_conditions":[3.4304428E-8],"split_indices":[0],"split_type":[0],"sum_hessian":[8.9E1],"tree_param":{"num_deleted":"0","num_feature":"100","num_nodes":"1","size_leaf_vector":"1"}},{"base_weights":[6.6322215E-8],"categories":[],"categories_nodes":[],"categories_segments":[],"categories_sizes":[],"default_left":[0],"id":45,"left_children":[-1],"loss_changes":[0E0],"parents":[2147483647],"right_children":[-1],"split_conditions":[2.6528886E-8],"split_indices":[0],"split_type":[0],"sum_hessian":[8.9E1],"tree_param":{"num_deleted":"0","num_feature":"100","num_nodes":"1","size_leaf_vector":"1"}},{"base_weights":[5.881504E-8],"categories":[],"categories_nodes":[],"categories_segments":[],"categories_sizes":[],"default_left":[0],"id":46,"left_children":[-1],"loss_changes":[0E0],"parents":[2147483647],"right_children":[-1],"split_conditions":[2.3526017E-8],"split_indices":[0],"split_type":[0],"sum_hessian":[8.9E1],"tree_param":{"num_deleted":"0","num_feature":"100","num_nodes":"1","size_leaf_vector":"1"}},{"base_weights":[5.182212E-8],"categories":[],"categories_nodes":[],"categories_segments":[],"categories_sizes":[],"default_left":[0],"id":47,"left_children":[-1],"loss_changes":[0E0],"parents":[2147483647],"right_children":[-1],"split_conditions":[2.0728848E-8],"split_indices":[0],"split_type":[0],"sum_hessian":[8.9E1],"tree_param":{"num_deleted":"0","num_feature":"100","num_nodes":"1","size_leaf_vector":"1"}},{"base_weights":[4.525363E-8],"categories":[],"categories_nodes":[],"categories_segments":[],"categories_sizes":[],"default_left":[0],"id":48,"left_children":[-1],"loss_changes":[0E0],"parents":[2147483647],"right_children":[-1],"split_conditions":[1.8101451E-8],"split_indices":[0],"split_type":[0],"sum_hessian":[8.9E1],"tree_param":{"num_deleted":"0","num_feature":"100","num_nodes":"1","size_leaf_vector":"1"}},{"base_weights":[3.918645E-8],"categories":[],"categories_nodes":[],"categories_segments":[],"categories_sizes":[],"default_left":[0],"id":49,"left_children":[-1],"loss_changes":[0E0],"parents":[2147483647],"right_children":[-1],"split_conditions":[1.567458E-8],"split_indices":[0],"split_type":[0],"sum_hessian":[8.9E1],"tree_param":{"num_deleted":"0","num_feature":"100","num_nodes":"1","size_leaf_vector":"1"}}]},"name":"gbtree"},"learner_model_param":{"base_score":"5.157303E-1","boost_from_average":"1","num_class":"0","num_feature":"100","num_target":"1"},"objective":{"name":"reg:squarederror","reg_loss_param":{"scale_pos_weight":"1"}}},"version":[2,0,3]}