{"learner":{"attributes":{"scikit_learn":"{\"_estimator_type\": \"regressor\"}"},"feature_names":[],"feature_types":[],"gradient_booster":{"model":{"gbtree_model_param":{"num_parallel_tree":"1","num_trees":"20"},"iteration_indptr":[0,1,2,3,4,5,6,7,8,9,10,11,12,13,14,15,16,17,18,19,20],"tree_info":[0,0,0,0,0,0,0,0,0,0,0,0,0,0,0,0,0,0,0,0],"trees":[{"base_weights":[5.6293277E-9,1.982163E-1,-1.441573E0,4.775281E-1,-4.7340825E-1,-1.4475507E0,-5.4205453E-1,9.573658E-1,2.4966294E-1,-7.483146E-1,6.529214E-1,-6.862921E-1,-7.258426E-2,9.3792135E-1,7.3198503E-1,4.158466E-1,-1.727528E-1,-3.3941948E-1,-1.1641573E0,1.5617979E-1,-1.6629213E-1,7.7110755E-1,5.52809E-2,6.018103E-1,1.022472E-1,8.025808E-4,-3.4644192E-1,-5.887641E-1,1.2741573E-1,-1.269538E0,-6.4719096E-2,1.4528091E-1,-4.7190967E-3,8.0086434E-1,1.15280904E-1,7.639647E-1,2.7415758E-2,-3.2629216E-1,2.8584272E-1,-9.258426E-2,9.3707874E-2,-7.715354E-2,-2.7707866E-1,-1.5258427E-1,-5.920787E-1,2.537079E-1,-1.2629212E-1,-2.6629212E-1,-8.652328E-1,3.367416E-1,5.9213483E-1,5.3707875E-2,5.2134836E-1,3.737079E-1,-3.4629214E-1,-3.1550553E-2,3.1213486E-1,-8.629213E-2,-6.292129E-3,-4.7190967E-3,-6.4719096E-2,-4.5471913E-1,1.12921365E-1],"categories":[],"categories_nodes":[],"categories_segments":[],"categories_sizes":[],"default_left":[0,0,0,0,0,0,0,0,0,0,0,0,0,0,0,0,0,0,0,0,0,0,0,0,0,0,0,0,0,0,0,0,0,0,0,0,0,0,0,0,0,0,0,0,0,0,0,0,0,0,0,0,0,0,0,0,0,0,0,0,0,0,0],"id":0,"left_children":[1,3,5,7,9,-1,11,13,15,17,-1,-1,19,-1,21,23,25,27,29,31,-1,33,-1,35,37,39,41,43,45,47,-1,-1,-1,49,-1,51,53,-1,55,57,-1,59,-1,61,-1,-1,-1,-1,-1,-1,-1,-1,-1,-1,-1,-1,-1,-1,-1,-1,-1,-1,-1],"loss_changes":[2.6002636E1,1.52334795E1,8.300116E0,5.9932632E0,1.1117437E1,0E0,1.8945546E0,1.313549E0,2.8797822E0,3.1756191E0,0E0,0E0,2.7727628E-1,0E0,3.044424E-1,1.6296911E0,3.620143E-1,1.4718517E0,9.7619057E-1,4.420591E-2,0E0,8.732319E-2,0E0,1.6555872E0,1.5788281E0,1.1603109E-1,1.5075457E-1,1.2383444E0,5.881377E-1,6.420355E-1,0E0,0E0,0E0,2.5626183E-2,0E0,9.1318417E-1,2.1593735E0,0E0,8.205676E-1,1.952346E-2,0E0,5.5354964E-3,0E0,1.1739899E0,0E0,0E0,0E0,0E0,0E0,0E0,0E0,0E0,0E0,0E0,0E0,0E0,0E0,0E0,0E0,0E0,0E0,0E0,0E0],"parents":[2147483647,0,0,1,1,2,2,3,3,4,4,6,6,7,7,8,8,9,9,12,12,14,14,15,15,16,16,17,17,18,18,19,19,21,21,23,23,24,24,25,25,26,26,27,27,28,28,29,29,33,33,35,35,36,36,38,38,39,39,41,41,43,43],"right_children":[2,4,6,8,10,-1,12,14,16,18,-1,-1,20,-1,22,24,26,28,30,32,-1,34,-1,36,38,40,42,44,46,48,-1,-1,-1,50,-1,52,54,-1,56,58,-1,60,-1,62,-1,-1,-1,-1,-1,-1,-1,-1,-1,-1,-1,-1,-1,-1,-1,-1,-1,-1,-1],"split_conditions":[4.282398E0,1.1065894E0,-3.7036123E0,-1.8395329E0,1.9256281E0,-1.4475507E0,-4.740901E0,-1.9966561E0,1.5977385E0,2.0693486E0,6.529214E-1,-6.862921E-1,-3.6468964E0,9.3792135E-1,1.2780422E0,9.3235093E-1,-2.7895854E0,-3.4355554E-1,3.4513621E0,-6.9629908E0,-1.6629213E-1,-2.4177792E0,5.52809E-2,3.9698234E0,-1.11252E0,-2.988201E0,-5.5491266E0,1.7993809E0,1.9386297E0,-2.7509842E0,-6.4719096E-2,1.4528091E-1,-4.7190967E-3,3.601991E-1,1.15280904E-1,-2.5203001E0,4.4683237E0,-3.2629216E-1,-2.3218356E-1,-5.1486163E0,9.3707874E-2,-5.610992E0,-2.7707866E-1,1.2939177E0,-5.920787E-1,2.537079E-1,-1.2629212E-1,-2.6629212E-1,-8.652328E-1,3.367416E-1,5.9213483E-1,5.3707875E-2,5.2134836E-1,3.737079E-1,-3.4629214E-1,-3.1550553E-2,3.1213486E-1,-8.629213E-2,-6.292129E-3,-4.7190967E-3,-6.4719096E-2,-4.5471913E-1,1.12921365E-1],"split_indices":[4,3,6,4,6,0,7,7,6,1,0,0,7,0,8,8,3,6,9,0,0,4,0,2,5,3,0,0,3,4,0,0,0,8,0,8,0,0,4,1,0,0,0,3,0,0,0,0,0,0,0,0,0,0,0,0,0,0,0,0,0,0,0],"split_type":[0,0,0,0,0,0,0,0,0,0,0,0,0,0,0,0,0,0,0,0,0,0,0,0,0,0,0,0,0,0,0,0,0,0,0,0,0,0,0,0,0,0,0,0,0,0,0,0,0,0,0,0,0,0,0,0,0,0,0,0,0,0,0],"sum_hessian":[8.9E1,7.9E1,1E1,5.6E1,2.3E1,4E0,6E0,1.7E1,3.9E1,2E1,3E0,2E0,4E0,3E0,1.4E1,2.8E1,1.1E1,1.1E1,9E0,2E0,2E0,1.3E1,1E0,1.7E1,1.1E1,6E0,5E0,7E0,4E0,8E0,1E0,1E0,1E0,1.2E1,1E0,1.3E1,4E0,2E0,9E0,4E0,2E0,2E0,3E0,4E0,3E0,2E0,2E0,2E0,6E0,7E0,5E0,2E0,1.1E1,2E0,2E0,4E0,5E0,2E0,2E0,1E0,1E0,1E0,3E0],"tree_param":{"num_deleted":"0","num_feature":"10","num_nodes":"63","size_leaf_vector":"1"}},{"base_weights":[-1.4006936E-2,-8.406809E-1,4.9930055E-2,1.949414E-1,-2.6259175E-1,4.9613297E-1,6.432768E-2,-4.080941E-1,3.389326E-1,5.1585674E-1,3.660899E-1,1.0465544E-1,-4.8883146E-1,-2.5291579E-2,-6.1056936E-1,4.5253935E-1,-5.7275295E-2,1.24056175E-1,4.250787E-1,2.9258427E-1,-2.2246318E-2,-2.7983946E-1,3.6285314E-1,3.9168533E-2,-6.635073E-1,4.0112335E-2,-1.04831465E-1,9.9011235E-2,4.6946633E-1,4.06223E-1,-6.139324E-2,-3.7418428E-1,5.875078E-2,-4.1882016E-2,-3.0230173E-1,2.8038204E-1,1.4850748E-2,-7.029301E-1,-4.530337E-2,3.9404478E-2,-3.303373E-3,3.007031E-1,7.4258424E-2,-1.3011244E-2,3.2205844E-1,1.2224728E-2,-7.361797E-2,2.1640439E-2,-2.9145846E-1,-6.111909E-2,1.0666933E-1,5.1404502E-2,-6.777528E-2,-2.533573E-1,-4.9533886E-1],"categories":[],"categories_nodes":[],"categories_segments":[],"categories_sizes":[],"default_left":[0,0,0,0,0,0,0,0,0,0,0,0,0,0,0,0,0,0,0,0,0,0,0,0,0,0,0,0,0,0,0,0,0,0,0,0,0,0,0,0,0,0,0,0,0,0,0,0,0,0,0,0,0,0,0],"id":1,"left_children":[1,-1,3,5,7,9,11,13,15,-1,17,19,-1,21,23,-1,25,-1,27,29,31,33,35,-1,37,39,-1,-1,41,43,45,47,49,51,-1,-1,-1,53,-1,-1,-1,-1,-1,-1,-1,-1,-1,-1,-1,-1,-1,-1,-1,-1,-1],"loss_changes":[8.051949E0,0E0,3.9939613E0,2.3284698E0,2.5889664E0,5.3642225E-1,1.609614E0,1.7672424E0,1.030469E0,0E0,5.3090334E-2,1.0081459E0,0E0,9.907534E-1,5.799861E-1,0E0,5.2758686E-2,0E0,3.7963867E-2,7.087735E-1,7.6313835E-1,2.9870853E-1,1.2969291E-1,0E0,2.7145386E-1,3.8598063E-3,0E0,0E0,2.565813E-2,7.3781514E-1,2.7563093E-2,2.4639922E-1,4.3871337E-1,4.5942783E-2,0E0,0E0,0E0,9.885025E-2,0E0,0E0,0E0,0E0,0E0,0E0,0E0,0E0,0E0,0E0,0E0,0E0,0E0,0E0,0E0,0E0,0E0],"parents":[2147483647,0,0,2,2,3,3,4,4,5,5,6,6,7,7,8,8,10,10,11,11,13,13,14,14,16,16,18,18,19,19,20,20,21,21,22,22,24,24,25,25,28,28,29,29,30,30,31,31,32,32,33,33,37,37],"right_children":[2,-1,4,6,8,10,12,14,16,-1,18,20,-1,22,24,-1,26,-1,28,30,32,34,36,-1,38,40,-1,-1,42,44,46,48,50,52,-1,-1,-1,54,-1,-1,-1,-1,-1,-1,-1,-1,-1,-1,-1,-1,-1,-1,-1,-1,-1],"split_conditions":[-4.2491226E0,-8.406809E-1,1.1065894E0,-1.8395329E0,1.9256281E0,-1.9966561E0,8.46654E0,-2.172362E0,-1.7693223E0,5.1585674E-1,-8.9848155E-1,-4.38929E0,-4.8883146E-1,-3.6654632E0,1.3750474E0,4.5253935E-1,-4.485346E0,1.24056175E-1,2.5898232E0,1.5977385E0,-4.1009746E0,-2.1688545E-1,1.9997779E0,3.9168533E-2,5.7183437E0,-6.6239734E0,-1.04831465E-1,9.9011235E-2,3.407138E0,-1.5756731E0,3.7788675E0,-4.133531E0,-3.4481828E0,-4.562091E0,-3.0230173E-1,2.8038204E-1,1.4850748E-2,-2.0198915E0,-4.530337E-2,3.9404478E-2,-3.303373E-3,3.007031E-1,7.4258424E-2,-1.3011244E-2,3.2205844E-1,1.2224728E-2,-7.361797E-2,2.1640439E-2,-2.9145846E-1,-6.111909E-2,1.0666933E-1,5.1404502E-2,-6.777528E-2,-2.533573E-1,-4.9533886E-1],"split_indices":[6,0,3,4,6,7,4,2,4,0,6,1,0,2,3,0,2,0,1,6,1,4,0,0,9,0,0,0,2,9,0,2,2,0,0,0,0,1,0,0,0,0,0,0,0,0,0,0,0,0,0,0,0,0,0],"split_type":[0,0,0,0,0,0,0,0,0,0,0,0,0,0,0,0,0,0,0,0,0,0,0,0,0,0,0,0,0,0,0,0,0,0,0,0,0,0,0,0,0,0,0,0,0,0,0,0,0,0,0,0,0,0,0],"sum_hessian":[8.9E1,3E0,8.6E1,5.9E1,2.7E1,1.7E1,4.2E1,2.2E1,5E0,3E0,1.4E1,4.1E1,1E0,8E0,1.4E1,2E0,3E0,5E0,9E0,1.6E1,2.5E1,5E0,3E0,1E0,1.3E1,2E0,1E0,2E0,7E0,1.2E1,4E0,4E0,2.1E1,3E0,2E0,2E0,1E0,1.2E1,1E0,1E0,1E0,6E0,1E0,3E0,9E0,2E0,2E0,1E0,3E0,9E0,1.2E1,1E0,2E0,5E0,7E0],"tree_param":{"num_deleted":"0","num_feature":"10","num_nodes":"55","size_leaf_vector":"1"}},{"base_weights":[-1.2121684E-2,3.7433796E-2,-6.0505575E-1,-1.6607383E-1,9.5452145E-2,-5.6934065E-1,-1.0994652E-1,-2.6776738E-2,-2.4509907E-1,2.8103977E-1,-3.728945E-3,6.9695845E-2,-1.3442113E-1,5.331909E-2,-1.139349E-1,-2.6613697E-1,-9.042259E-2,1.8849675E-1,5.118289E-1,6.7457E-2,-3.8963422E-1,-9.3203306E-2,1.550426E-2,-1.8423589E-2,-1.2256785E-1,2.1219665E-1,1.4574741E-1,8.7429576E-2,3.33545E-1,3.3977443E-1,2.5426289E-2,1.5148313E-2,-4.62989E-1,4.03618E-2,-4.6852577E-2,1.5907052E-1,-1.6229806E-2,1.550426E-2,2.470787E-1,-9.950242E-2,1.2929119E-1,-3.317686E-1,-1.132287E-1,1.0567816E-1,1.9272888E-2,2.3699246E-2,-1.7031652E-1,1.4357471E-1,-5.6078818E-2],"categories":[],"categories_nodes":[],"categories_segments":[],"categories_sizes":[],"default_left":[0,0,0,0,0,0,0,0,0,0,0,0,0,0,0,0,0,0,0,0,0,0,0,0,0,0,0,0,0,0,0,0,0,0,0,0,0,0,0,0,0,0,0,0,0,0,0,0,0],"id":2,"left_children":[1,3,5,7,9,-1,11,13,15,17,19,-1,-1,-1,21,-1,23,25,27,29,31,-1,-1,33,-1,-1,35,-1,-1,37,39,-1,41,-1,-1,43,-1,-1,-1,45,47,-1,-1,-1,-1,-1,-1,-1,-1],"loss_changes":[2.6671314E0,1.0076549E0,1.0873585E0,2.0258874E-1,1.2158958E0,0E0,1.292085E-1,9.0757914E-2,3.2826185E-1,3.9475405E-1,1.2350091E0,0E0,0E0,0E0,3.2950267E-2,0E0,6.1817236E-2,7.554674E-2,1.5823483E-2,4.2629725E-1,2.2472382E-1,0E0,0E0,3.592976E-2,0E0,0E0,4.1137964E-2,0E0,0E0,1.02411926E-1,4.5403883E-1,0E0,4.369092E-2,0E0,0E0,2.682817E-2,0E0,0E0,0E0,4.2122874E-1,4.8792505E-1,0E0,0E0,0E0,0E0,0E0,0E0,0E0,0E0],"parents":[2147483647,0,0,1,1,2,2,3,3,4,4,6,6,7,7,8,8,9,9,10,10,14,14,16,16,17,17,18,18,19,19,20,20,23,23,26,26,29,29,30,30,32,32,35,35,39,39,40,40],"right_children":[2,4,6,8,10,-1,12,14,16,18,20,-1,-1,-1,22,-1,24,26,28,30,32,-1,-1,34,-1,-1,36,-1,-1,38,40,-1,42,-1,-1,44,-1,-1,-1,46,48,-1,-1,-1,-1,-1,-1,-1,-1],"split_conditions":[5.529169E0,-1.8438737E0,1.365861E0,-3.9553611E0,-1.5369667E0,-5.6934065E-1,-6.9629908E0,-4.562091E0,-1.0873011E0,9.7972494E-1,2.9908926E0,6.9695845E-2,-1.3442113E-1,5.331909E-2,5.873326E0,-2.6613697E-1,3.8690767E0,-1.9966561E0,-5.299515E0,-4.4150786E0,-4.2787247E0,-9.3203306E-2,1.550426E-2,3.7788675E0,-1.2256785E-1,2.1219665E-1,1.9386297E0,8.7429576E-2,3.33545E-1,-4.690849E0,-2.71885E-1,1.5148313E-2,2.2055342E0,4.03618E-2,-4.6852577E-2,1.168785E0,-1.6229806E-2,1.550426E-2,2.470787E-1,-2.3289406E-1,1.3375107E0,-3.317686E-1,-1.132287E-1,1.0567816E-1,1.9272888E-2,2.3699246E-2,-1.7031652E-1,1.4357471E-1,-5.6078818E-2],"split_indices":[4,8,2,2,4,0,0,0,9,6,8,0,0,0,1,0,1,7,0,3,1,0,0,0,0,0,3,0,0,2,9,0,2,0,0,8,0,0,0,3,3,0,0,0,0,0,0,0,0],"split_type":[0,0,0,0,0,0,0,0,0,0,0,0,0,0,0,0,0,0,0,0,0,0,0,0,0,0,0,0,0,0,0,0,0,0,0,0,0,0,0,0,0,0,0,0,0,0,0,0,0],"sum_hessian":[8.9E1,8.3E1,6E0,1.8E1,6.5E1,3E0,3E0,7E0,1.1E1,2.2E1,4.3E1,1E0,2E0,3E0,4E0,4E0,7E0,1.7E1,5E0,3.7E1,6E0,3E0,1E0,5E0,2E0,2E0,1.5E1,1E0,4E0,4E0,3.3E1,1E0,5E0,2E0,3E0,1.4E1,1E0,1E0,3E0,1.5E1,1.8E1,3E0,2E0,1.2E1,2E0,9E0,6E0,1.2E1,6E0],"tree_param":{"num_deleted":"0","num_feature":"10","num_nodes":"49","size_leaf_vector":"1"}},{"base_weights":[-1.0827966E-2,1.91036E-2,-3.2001448E-1,1.6172543E-1,-1.217801E-2,-3.4588486E-1,-1.384486E-1,5.6613047E-2,2.737663E-1,-8.5169874E-2,7.003038E-2,4.8787095E-2,-1.9866306E-1,8.9730576E-2,-7.2165057E-3,2.3169483E-1,5.5759784E-2,2.574447E-2,-1.9160159E-1,1.3921049E-1,-8.098535E-2,-3.3055685E-2,-1.3246946E-1,1.0852978E-2,6.0264826E-2,-2.4850918E-2,1.0794073E-2,1.6246584E-1,-2.1545617E-2,-2.5913963E-1,-1.19552046E-1,-8.728056E-3,2.0447911E-1,-1.517737E-1,4.850262E-2,2.9946972E-2,1.3251887E-1,-9.483417E-2,1.1614352E-2,-2.3784587E-1,-1.1184216E-3,-3.3196613E-2,2.5871044E-2,1.0773732E-1,1.8808225E-1,-1.3731577E-1,-1.74729E-2,3.0489312E-2,-3.676237E-2,-1.8505573E-1,-1.0441965E-2,-6.505054E-2,4.236045E-2,3.958826E-3,-3.284607E-2,9.707432E-2,2.6842047E-2,2.5726104E-2,-3.1129057E-2],"categories":[],"categories_nodes":[],"categories_segments":[],"categories_sizes":[],"default_left":[0,0,0,0,0,0,0,0,0,0,0,0,0,0,0,0,0,0,0,0,0,0,0,0,0,0,0,0,0,0,0,0,0,0,0,0,0,0,0,0,0,0,0,0,0,0,0,0,0,0,0,0,0,0,0,0,0,0,0],"id":3,"left_children":[1,3,5,7,9,-1,11,13,15,17,19,-1,21,23,25,-1,-1,27,29,31,33,-1,-1,-1,-1,-1,-1,35,37,-1,39,41,43,45,-1,-1,-1,-1,47,49,51,53,-1,55,-1,-1,57,-1,-1,-1,-1,-1,-1,-1,-1,-1,-1,-1,-1],"loss_changes":[8.390127E-1,3.722691E-1,2.9270327E-1,1.6115448E-1,4.2000195E-1,0E0,9.555018E-2,1.9672435E-2,1.0638237E-1,4.4171038E-1,3.5603446E-1,0E0,3.7148893E-3,2.7872622E-3,4.1935556E-3,0E0,0E0,1.2634617E-1,2.7731907E-1,2.2386688E-1,1.382761E-1,0E0,0E0,0E0,0E0,0E0,0E0,2.1841526E-2,6.9736406E-2,0E0,2.2389346E-1,1.1580249E-2,1.3493174E-1,7.882273E-2,0E0,0E0,0E0,0E0,4.0256787E-2,1.1910364E-1,7.6913014E-2,5.5058934E-3,0E0,2.6815854E-2,0E0,0E0,1.0530788E-2,0E0,0E0,0E0,0E0,0E0,0E0,0E0,0E0,0E0,0E0,0E0,0E0],"parents":[2147483647,0,0,1,1,2,2,3,3,4,4,6,6,7,7,8,8,9,9,10,10,12,12,13,13,14,14,17,17,18,18,19,19,20,20,27,27,28,28,30,30,31,31,32,32,33,33,38,38,39,39,40,40,41,41,43,43,46,46],"right_children":[2,4,6,8,10,-1,12,14,16,18,20,-1,22,24,26,-1,-1,28,30,32,34,-1,-1,-1,-1,-1,-1,36,38,-1,40,42,44,46,-1,-1,-1,-1,48,50,52,54,-1,56,-1,-1,58,-1,-1,-1,-1,-1,-1,-1,-1,-1,-1,-1,-1],"split_conditions":[5.5241513E0,-3.2074509E0,-3.852022E0,-3.401745E-1,-1.1452019E-1,-3.4588486E-1,-6.9629908E0,2.5926206E-1,-3.0603855E0,-1.5999502E0,4.142322E0,4.8787095E-2,-6.6457853E0,-4.690849E0,-3.777013E0,2.3169483E-1,5.5759784E-2,-4.0013227E0,-1.3343757E0,-1.6726437E-1,6.233128E0,-3.3055685E-2,-1.3246946E-1,1.0852978E-2,6.0264826E-2,-2.4850918E-2,1.0794073E-2,-1.2853314E0,-2.3587415E0,-2.5913963E-1,-3.5173638E0,-1.6952645E0,1.1400449E0,3.272913E0,4.850262E-2,2.9946972E-2,1.3251887E-1,-9.483417E-2,7.3685783E-1,1.4581668E0,-1.1855296E0,-6.2581215E0,2.5871044E-2,7.975927E-1,1.8808225E-1,-1.3731577E-1,5.0438523E0,3.0489312E-2,-3.676237E-2,-1.8505573E-1,-1.0441965E-2,-6.505054E-2,4.236045E-2,3.958826E-3,-3.284607E-2,9.707432E-2,2.6842047E-2,2.5726104E-2,-3.1129057E-2],"split_indices":[4,3,5,8,6,0,0,7,2,6,1,0,1,2,0,0,0,0,6,8,1,0,0,0,0,0,0,4,0,0,0,3,6,2,0,0,0,0,3,2,6,1,0,8,0,0,1,0,0,0,0,0,0,0,0,0,0,0,0],"split_type":[0,0,0,0,0,0,0,0,0,0,0,0,0,0,0,0,0,0,0,0,0,0,0,0,0,0,0,0,0,0,0,0,0,0,0,0,0,0,0,0,0,0,0,0,0,0,0,0,0,0,0,0,0,0,0,0,0,0,0],"sum_hessian":[8.9E1,8.2E1,7E0,1.4E1,6.8E1,2E0,5E0,8E0,6E0,3.6E1,3.2E1,1E0,4E0,5E0,3E0,3E0,3E0,1.8E1,1.8E1,2.2E1,1E1,1E0,3E0,1E0,4E0,1E0,2E0,4E0,1.4E1,3E0,1.5E1,7E0,1.5E1,7E0,3E0,2E0,2E0,2E0,1.2E1,7E0,8E0,5E0,2E0,9E0,6E0,4E0,3E0,8E0,4E0,5E0,2E0,3E0,5E0,2E0,3E0,4E0,5E0,1E0,2E0],"tree_param":{"num_deleted":"0","num_feature":"10","num_nodes":"59","size_leaf_vector":"1"}},{"base_weights":[-7.879067E-3,-2.9964256E-1,5.62591E-3,-7.72594E-2,-2.4368198E-1,-6.1879005E-2,2.9425712E-2,3.25429E-2,-1.1440688E-1,1.5498814E-1,1.1599417E-2,6.691886E-2,-3.510918E-2,-2.0866485E-1,-4.6411417E-2,1.1568849E-1,4.137516E-2,1.8879008E-2,-1.2100118E-1,1.84485E-2,6.2938906E-2,-1.5490228E-2,-1.7618069E-1,-9.332048E-2,4.1470924E-4,-4.6102586E-3,8.49563E-2,-6.2165126E-2,-1.5650481E-2,-2.8582515E-2,1.955266E-2,-3.5868153E-2,2.9844115E-2,-6.3332535E-2,1.6543397E-1,1.748128E-2,2.0713806E-3,-3.4115482E-2,1.9849688E-2,3.594595E-2,-5.53155E-3,1.3221717E-2,-5.0888114E-2,1.2665461E-1,-6.8776356E-3],"categories":[],"categories_nodes":[],"categories_segments":[],"categories_sizes":[],"default_left":[0,0,0,0,0,0,0,0,0,0,0,0,0,0,0,0,0,0,0,0,0,0,0,0,0,0,0,0,0,0,0,0,0,0,0,0,0,0,0,0,0,0,0,0,0],"id":4,"left_children":[1,3,5,-1,-1,7,9,11,13,15,17,19,-1,21,23,-1,-1,25,-1,-1,-1,-1,-1,27,29,31,33,-1,-1,-1,35,37,39,41,43,-1,-1,-1,-1,-1,-1,-1,-1,-1,-1],"loss_changes":[3.5630912E-1,2.049303E-2,1.4159535E-1,0E0,0E0,1.17798135E-1,1.4369257E-1,3.208769E-2,8.6452276E-2,1.2737036E-2,9.3852535E-2,6.390989E-3,0E0,8.5638285E-2,2.2004401E-2,0E0,0E0,8.886178E-2,0E0,0E0,0E0,0E0,0E0,7.561147E-4,6.4491676E-3,4.7380213E-2,1.8948647E-1,0E0,0E0,0E0,6.7084876E-4,3.517007E-2,2.5216216E-2,1.2871793E-2,8.3185434E-2,0E0,0E0,0E0,0E0,0E0,0E0,0E0,0E0,0E0,0E0],"parents":[2147483647,0,0,1,1,2,2,5,5,6,6,7,7,8,8,9,9,10,10,11,11,13,13,14,14,17,17,23,23,24,24,25,25,26,26,30,30,31,31,32,32,33,33,34,34],"right_children":[2,4,6,-1,-1,8,10,12,14,16,18,20,-1,22,24,-1,-1,26,-1,-1,-1,-1,-1,28,30,32,34,-1,-1,-1,36,38,40,42,44,-1,-1,-1,-1,-1,-1,-1,-1,-1,-1],"split_conditions":[-4.2491226E0,-4.944431E0,-1.4671645E0,-7.72594E-2,-2.4368198E-1,-1.4365883E0,-1.9966561E0,1.1519624E0,-3.2382718E-1,2.740743E0,3.1215115E0,5.0438523E0,-3.510918E-2,-1.5165153E0,-8.31991E-1,1.1568849E-1,4.137516E-2,1.4582103E0,-1.2100118E-1,1.84485E-2,6.2938906E-2,-1.5490228E-2,-1.7618069E-1,-4.4723425E0,-7.281737E0,-2.2329451E-1,3.601991E-1,-6.2165126E-2,-1.5650481E-2,-2.8582515E-2,-3.7993345E0,3.099624E0,1.5977385E0,-9.8405004E-1,2.5765433E0,1.748128E-2,2.0713806E-3,-3.4115482E-2,1.9849688E-2,3.594595E-2,-5.53155E-3,1.3221717E-2,-5.0888114E-2,1.2665461E-1,-6.8776356E-3],"split_indices":[6,0,5,0,0,3,7,9,4,1,7,1,0,4,7,0,0,7,0,0,0,0,0,1,0,6,8,0,0,0,5,2,6,5,2,0,0,0,0,0,0,0,0,0,0],"split_type":[0,0,0,0,0,0,0,0,0,0,0,0,0,0,0,0,0,0,0,0,0,0,0,0,0,0,0,0,0,0,0,0,0,0,0,0,0,0,0,0,0,0,0,0,0],"sum_hessian":[8.9E1,3E0,8.6E1,2E0,1E0,2.2E1,6.4E1,8E0,1.4E1,7E0,5.7E1,6E0,2E0,5E0,9E0,4E0,3E0,5.6E1,1E0,4E0,2E0,2E0,3E0,4E0,5E0,4.2E1,1.4E1,3E0,1E0,1E0,4E0,2.2E1,2E1,5E0,9E0,2E0,2E0,1.7E1,5E0,1.1E1,9E0,1E0,4E0,7E0,2E0],"tree_param":{"num_deleted":"0","num_feature":"10","num_nodes":"45","size_leaf_vector":"1"}},{"base_weights":[-7.8056054E-3,-2.3900692E-1,1.6495743E-4,-4.452882E-2,-1.705774E-1,-3.4848906E-2,1.2364259E-2,1.8159192E-2,-6.43305E-2,1.846447E-2,-7.3137015E-2,3.8394324E-2,-2.1065507E-2,-2.8933575E-2,-1.2933765E-1,2.30409E-2,-8.095515E-2,9.5911175E-3,3.455937E-2,-6.0961913E-2,-1.9228214E-3,-1.1208251E-1,-1.7255148E-2,8.1628196E-2,1.425984E-2,4.908085E-4,7.3456885E-3,3.2046677E-3,-4.732377E-2,1.4213482E-2,-1.013967E-2,1.4521355E-2,6.674599E-2,4.597356E-2,-7.4289826E-4,-9.899636E-3,-1.7009765E-3,2.4562948E-3,6.671985E-2,5.4382426E-3,-3.371401E-2],"categories":[],"categories_nodes":[],"categories_segments":[],"categories_sizes":[],"default_left":[0,0,0,0,0,0,0,0,0,0,0,0,0,0,0,0,0,0,0,0,0,0,0,0,0,0,0,0,0,0,0,0,0,0,0,0,0,0,0,0,0],"id":5,"left_children":[1,3,5,-1,-1,7,9,11,13,15,-1,17,-1,19,21,23,-1,25,-1,27,29,-1,-1,31,33,-1,-1,-1,-1,-1,35,-1,-1,37,39,-1,-1,-1,-1,-1,-1],"loss_changes":[1.6589183E-1,1.2907982E-3,3.8019616E-2,0E0,0E0,3.711175E-2,5.630539E-2,1.1049026E-2,3.0773602E-2,4.8035324E-2,0E0,3.3196444E-3,0E0,9.398987E-3,2.3527429E-2,3.1246882E-2,0E0,8.30396E-5,0E0,6.359048E-3,1.7133472E-3,0E0,0E0,1.0913067E-2,2.6678544E-2,0E0,0E0,0E0,0E0,0E0,2.3196044E-4,0E0,0E0,4.871457E-2,2.171553E-2,0E0,0E0,0E0,0E0,0E0,0E0],"parents":[2147483647,0,0,1,1,2,2,5,5,6,6,7,7,8,8,9,9,11,11,13,13,14,14,15,15,17,17,19,19,20,20,23,23,24,24,30,30,33,33,34,34],"right_children":[2,4,6,-1,-1,8,10,12,14,16,-1,18,-1,20,22,24,-1,26,-1,28,30,-1,-1,32,34,-1,-1,-1,-1,-1,36,-1,-1,38,40,-1,-1,-1,-1,-1,-1],"split_conditions":[-4.9116926E0,-6.7101765E0,-1.4671645E0,-4.452882E-2,-1.705774E-1,-1.4365883E0,3.1215115E0,1.1519624E0,-2.2337134E0,1.2731263E1,-7.3137015E-2,2.7992039E0,-2.1065507E-2,-5.987987E0,4.556743E0,-1.9966561E0,-8.095515E-2,2.7870374E0,3.455937E-2,-6.667945E0,-3.6152565E0,-1.1208251E-1,-1.7255148E-2,-4.7779255E0,-4.38929E0,4.908085E-4,7.3456885E-3,3.2046677E-3,-4.732377E-2,1.4213482E-2,-7.417089E-1,1.4521355E-2,6.674599E-2,-3.401745E-1,2.9908926E0,-9.899636E-3,-1.7009765E-3,2.4562948E-3,6.671985E-2,5.4382426E-3,-3.371401E-2],"split_indices":[6,0,5,0,0,3,7,9,5,3,0,1,0,0,0,7,0,0,0,1,2,0,0,0,1,0,0,0,0,0,7,0,0,8,8,0,0,0,0,0,0],"split_type":[0,0,0,0,0,0,0,0,0,0,0,0,0,0,0,0,0,0,0,0,0,0,0,0,0,0,0,0,0,0,0,0,0,0,0,0,0,0,0,0,0],"sum_hessian":[8.9E1,2E0,8.7E1,1E0,1E0,2.2E1,6.5E1,8E0,1.4E1,6.3E1,2E0,6E0,2E0,1E1,4E0,6.2E1,1E0,3E0,3E0,4E0,6E0,2E0,2E0,7E0,5.5E1,1E0,2E0,1E0,3E0,1E0,5E0,3E0,4E0,1.7E1,3.8E1,2E0,3E0,1.1E1,6E0,3.3E1,5E0],"tree_param":{"num_deleted":"0","num_feature":"10","num_nodes":"41","size_leaf_vector":"1"}},{"base_weights":[-7.528288E-3,-1.6730492E-1,-1.995809E-3,-3.1170202E-2,-1.1940423E-1,-2.5564225E-2,1.0635514E-2,3.2887157E-2,-5.496427E-2,2.088202E-2,-2.6439473E-2,5.0397746E-2,1.7949E-3,-1.21449955E-1,-2.659687E-2,5.018184E-3,6.5411374E-2,-4.5363627E-2,3.199309E-3,3.4233715E-2,3.1341256E-3,1.0251427E-2,-8.456527E-3,-8.711192E-2,-8.301258E-4,-8.525985E-2,7.819015E-3,2.18709E-2,-2.5184173E-2,6.842802E-3,1.06268525E-1,-3.070915E-3,-3.0229082E-2,1.7766818E-2,-1.0374284E-2,-6.2105272E-2,1.7954529E-3,-9.017559E-3,3.343344E-2,4.67427E-2,1.28246285E-2,1.1801757E-2,-3.746013E-2,1.5863264E-2,-1.1477852E-2,1.9806305E-2,8.21353E-2,2.2432567E-3,1.271795E-2,-9.030553E-3,1.3721243E-3,3.4909345E-2,1.2196079E-3,9.928823E-4,8.779485E-3,4.862845E-5,-3.213647E-2,1.0956645E-2,1.8816055E-3,2.0299675E-3,1.5795708E-2],"categories":[],"categories_nodes":[],"categories_segments":[],"categories_sizes":[],"default_left":[0,0,0,0,0,0,0,0,0,0,0,0,0,0,0,0,0,0,0,0,0,0,0,0,0,0,0,0,0,0,0,0,0,0,0,0,0,0,0,0,0,0,0,0,0,0,0,0,0,0,0,0,0,0,0,0,0,0,0,0,0],"id":6,"left_children":[1,3,5,-1,-1,7,9,11,13,15,17,19,21,23,25,27,29,31,33,-1,-1,-1,-1,-1,-1,35,37,39,41,43,45,-1,-1,47,-1,-1,-1,49,-1,-1,51,53,55,57,-1,59,-1,-1,-1,-1,-1,-1,-1,-1,-1,-1,-1,-1,-1,-1,-1],"loss_changes":[7.922257E-2,6.3247234E-4,2.6469512E-2,0E0,0E0,5.5080287E-2,2.2585677E-2,5.8984216E-3,3.6376357E-2,3.2166447E-2,7.436687E-3,1.8074922E-3,1.4555966E-3,1.6898915E-2,3.296966E-2,1.8365514E-2,2.798817E-2,1.3578068E-3,2.098107E-3,0E0,0E0,0E0,0E0,0E0,0E0,9.9728E-3,9.374296E-3,1.0659493E-2,6.344584E-3,1.7091669E-3,1.5823178E-2,0E0,0E0,1.1320284E-4,0E0,0E0,0E0,6.482532E-4,0E0,0E0,1.0161172E-2,9.0678746E-5,6.0487157E-3,9.5320866E-5,0E0,2.3215951E-4,0E0,0E0,0E0,0E0,0E0,0E0,0E0,0E0,0E0,0E0,0E0,0E0,0E0,0E0,0E0],"parents":[2147483647,0,0,1,1,2,2,5,5,6,6,7,7,8,8,9,9,10,10,11,11,12,12,13,13,14,14,15,15,16,16,17,17,18,18,25,25,26,26,27,27,28,28,29,29,30,30,33,33,37,37,40,40,41,41,42,42,43,43,45,45],"right_children":[2,4,6,-1,-1,8,10,12,14,16,18,20,22,24,26,28,30,32,34,-1,-1,-1,-1,-1,-1,36,38,40,42,44,46,-1,-1,48,-1,-1,-1,50,-1,-1,52,54,56,58,-1,60,-1,-1,-1,-1,-1,-1,-1,-1,-1,-1,-1,-1,-1,-1,-1],"split_conditions":[-4.9116926E0,-6.7101765E0,-1.2053653E0,-3.1170202E-2,-1.1940423E-1,-1.4361656E0,1.9386297E0,-1.885876E0,-1.1334747E0,2.792424E-1,9.372455E-2,5.8117256E0,-2.5130105E0,1.3706639E0,-3.8572447E0,6.4506155E-1,-2.0109386E0,-5.0336843E0,-9.542895E-1,3.4233715E-2,3.1341256E-3,1.0251427E-2,-8.456527E-3,-8.711192E-2,-8.301258E-4,7.503265E0,4.8521533E0,-1.0702868E0,-4.1155105E0,3.8690767E0,-2.7500348E0,-3.070915E-3,-3.0229082E-2,-6.6239734E0,-1.0374284E-2,-6.2105272E-2,1.7954529E-3,3.9148657E0,3.343344E-2,4.67427E-2,-1.9966561E0,-5.8903155E0,-1.7061422E0,-2.3596933E0,-1.1477852E-2,2.9971695E0,8.21353E-2,2.2432567E-3,1.271795E-2,-9.030553E-3,1.3721243E-3,3.4909345E-2,1.2196079E-3,9.928823E-4,8.779485E-3,4.862845E-5,-3.213647E-2,1.0956645E-2,1.8816055E-3,2.0299675E-3,1.5795708E-2],"split_indices":[6,0,9,0,0,6,3,6,6,3,4,0,3,4,2,9,0,0,2,0,0,0,0,0,0,0,0,9,2,1,6,0,0,0,0,0,0,1,0,0,7,0,7,0,0,0,0,0,0,0,0,0,0,0,0,0,0,0,0,0,0],"split_type":[0,0,0,0,0,0,0,0,0,0,0,0,0,0,0,0,0,0,0,0,0,0,0,0,0,0,0,0,0,0,0,0,0,0,0,0,0,0,0,0,0,0,0,0,0,0,0,0,0,0,0,0,0,0,0,0,0,0,0,0,0],"sum_hessian":[8.9E1,2E0,8.7E1,1E0,1E0,3E1,5.7E1,1E1,2E1,4.5E1,1.2E1,6E0,4E0,5E0,1.5E1,3.4E1,1.1E1,7E0,5E0,5E0,1E0,2E0,2E0,4E0,1E0,5E0,1E1,2.2E1,1.2E1,5E0,6E0,1E0,6E0,3E0,2E0,4E0,1E0,8E0,2E0,2E0,2E1,3E0,9E0,4E0,1E0,2E0,4E0,1E0,2E0,5E0,3E0,3E0,1.7E1,1E0,2E0,3E0,6E0,3E0,1E0,1E0,1E0],"tree_param":{"num_deleted":"0","num_feature":"10","num_nodes":"61","size_leaf_vector":"1"}},{"base_weights":[-4.130464E-3,-1.17113434E-1,-2.3183496E-4,-2.1819163E-2,-8.358293E-2,-1.205974E-2,1.0342714E-2,2.0011377E-2,-2.2707319E-2,-5.318538E-3,2.2140626E-2,5.316609E-2,-1.6478568E-2,-4.820325E-2,-1.22002065E-2,9.6799005E-3,-3.0900987E-2,3.3693716E-2,-4.709301E-3,1.23035675E-2,3.862181E-2,5.757868E-4,-3.0525105E-2,-4.8198465E-2,-6.4350725E-3,-5.332794E-3,-2.5268432E-2,-2.7362918E-3,1.933408E-2,-1.2557836E-3,-4.793464E-2,6.764214E-2,2.3100752E-2,1.09127285E-2,-1.3849622E-2,6.097341E-3,-5.5215536E-3,-8.13551E-3,1.7004372E-3,4.6976614E-3,-2.033311E-2,-1.7703248E-2,1.3171256E-3,-5.3993985E-3,6.10888E-4,-6.628281E-4,1.8878877E-2,5.476749E-3,-5.1581063E-3,2.1007955E-3,5.271318E-2,4.259777E-2,1.0365947E-2,-1.0743767E-3,-9.336609E-3,-9.198136E-3,4.9400837E-3,-1.870297E-2,2.7052641E-3,-1.4068247E-3,-4.369042E-3,8.76093E-4,-5.810738E-4,-3.241832E-3,1.6309588E-3,-6.2772036E-3,1.1190973E-3,5.0089005E-3,2.8666837E-2,8.952642E-3,-8.014709E-4],"categories":[],"categories_nodes":[],"categories_segments":[],"categories_sizes":[],"default_left":[0,0,0,0,0,0,0,0,0,0,0,0,0,0,0,0,0,0,0,0,0,0,0,0,0,0,0,0,0,0,0,0,0,0,0,0,0,0,0,0,0,0,0,0,0,0,0,0,0,0,0,0,0,0,0,0,0,0,0,0,0,0,0,0,0,0,0,0,0,0,0],"id":7,"left_children":[1,3,5,-1,-1,7,9,11,13,15,17,19,21,23,25,27,29,31,33,-1,-1,35,-1,-1,37,39,41,43,45,47,-1,49,51,-1,53,-1,-1,-1,-1,55,57,-1,-1,59,61,63,-1,-1,65,-1,-1,67,69,-1,-1,-1,-1,-1,-1,-1,-1,-1,-1,-1,-1,-1,-1,-1,-1,-1,-1],"loss_changes":[3.9615937E-2,3.0989572E-4,1.1131309E-2,0E0,0E0,1.4796554E-2,8.801948E-3,1.4184052E-2,7.984348E-3,8.356751E-3,8.534063E-3,8.755047E-4,3.5489644E-3,1.1560239E-2,2.0191257E-3,1.7310578E-3,1.1518242E-2,5.270088E-3,2.1354833E-3,0E0,0E0,5.6221837E-4,0E0,0E0,3.6859923E-4,2.6533382E-3,9.956737E-4,6.569571E-5,1.9614694E-3,2.9020602E-4,0E0,4.878344E-3,3.5310863E-3,0E0,1.1659996E-4,0E0,0E0,0E0,0E0,9.0518413E-4,2.0252885E-3,0E0,0E0,5.9262966E-6,6.7792353E-6,7.879549E-5,0E0,0E0,2.0576689E-4,0E0,0E0,6.656768E-4,6.0626236E-4,0E0,0E0,0E0,0E0,0E0,0E0,0E0,0E0,0E0,0E0,0E0,0E0,0E0,0E0,0E0,0E0,0E0,0E0],"parents":[2147483647,0,0,1,1,2,2,5,5,6,6,7,7,8,8,9,9,10,10,11,11,12,12,13,13,14,14,15,15,16,16,17,17,18,18,21,21,24,24,25,25,26,26,27,27,28,28,29,29,31,31,32,32,34,34,39,39,40,40,43,43,44,44,45,45,48,48,51,51,52,52],"right_children":[2,4,6,-1,-1,8,10,12,14,16,18,20,22,24,26,28,30,32,34,-1,-1,36,-1,-1,38,40,42,44,46,48,-1,50,52,-1,54,-1,-1,-1,-1,56,58,-1,-1,60,62,64,-1,-1,66,-1,-1,68,70,-1,-1,-1,-1,-1,-1,-1,-1,-1,-1,-1,-1,-1,-1,-1,-1,-1,-1],"split_conditions":[-4.9116926E0,-6.7101765E0,-1.7869171E0,-2.1819163E-2,-8.358293E-2,-1.5999502E0,-1.0873011E0,-4.0107903E0,-1.4305172E0,-1.7073764E0,3.33616E0,-4.562091E0,-2.8627503E0,1.4581668E0,1.2780422E0,6.409949E-1,1.0570732E0,-8.418327E-1,-1.5616649E0,1.23035675E-2,3.862181E-2,-5.819651E0,-3.0525105E-2,-4.8198465E-2,3.9148657E0,1.3054938E0,1.2117624E0,-2.734163E0,-8.31991E-1,3.7123654E0,-4.793464E-2,3.7788675E0,-3.5990384E0,1.09127285E-2,-1.0651169E0,6.097341E-3,-5.5215536E-3,-8.13551E-3,1.7004372E-3,-5.4968786E0,7.144009E-1,-1.7703248E-2,1.3171256E-3,5.7833676E0,4.3432503E0,4.5947466E0,1.8878877E-2,5.476749E-3,4.7149134E0,2.1007955E-3,5.271318E-2,-4.09425E0,3.1161064E-1,-1.0743767E-3,-9.336609E-3,-9.198136E-3,4.9400837E-3,-1.870297E-2,2.7052641E-3,-1.4068247E-3,-4.369042E-3,8.76093E-4,-5.810738E-4,-3.241832E-3,1.6309588E-3,-6.2772036E-3,1.1190973E-3,5.0089005E-3,2.8666837E-2,8.952642E-3,-8.014709E-4],"split_indices":[6,0,0,0,0,6,9,1,9,9,9,0,0,2,8,8,7,7,6,0,0,0,0,0,1,5,5,4,7,0,0,0,2,0,0,0,0,0,0,2,9,0,0,0,0,0,0,0,0,0,0,3,8,0,0,0,0,0,0,0,0,0,0,0,0,0,0,0,0,0,0],"split_type":[0,0,0,0,0,0,0,0,0,0,0,0,0,0,0,0,0,0,0,0,0,0,0,0,0,0,0,0,0,0,0,0,0,0,0,0,0,0,0,0,0,0,0,0,0,0,0,0,0,0,0,0,0,0,0,0,0,0,0,0,0,0,0,0,0,0,0,0,0,0,0],"sum_hessian":[8.9E1,2E0,8.7E1,1E0,1E0,4.1E1,4.6E1,1E1,3.1E1,2E1,2.6E1,5E0,5E0,8E0,2.3E1,1.3E1,7E0,1.8E1,8E0,2E0,3E0,4E0,1E0,4E0,4E0,1.6E1,7E0,6E0,7E0,5E0,2E0,3E0,1.5E1,2E0,6E0,2E0,2E0,2E0,2E0,1E1,6E0,6E0,1E0,3E0,3E0,3E0,4E0,1E0,4E0,1E0,2E0,5E0,1E1,1E0,5E0,1E0,9E0,4E0,2E0,2E0,1E0,2E0,1E0,1E0,2E0,2E0,2E0,1E0,4E0,7E0,3E0],"tree_param":{"num_deleted":"0","num_feature":"10","num_nodes":"71","size_leaf_vector":"1"}},{"base_weights":[-2.9231547E-3,-8.197943E-2,-1.9483676E-4,-1.52734285E-2,-5.8508065E-2,3.2820463E-2,-1.3442677E-3,4.533291E-3,2.5005126E-2,-9.2841E-3,5.4416372E-3,-3.4758889E-3,-2.8903948E-2,-4.9664117E-3,1.2681614E-2,1.3206363E-2,-7.833576E-3,-3.29011E-2,9.219826E-4,2.8909738E-3,-2.9116763E-2,1.6889533E-3,2.082055E-2,1.8176746E-2,5.202691E-4,-2.0875264E-2,-4.137361E-3,-3.402411E-2,-9.308827E-3,5.0851842E-3,-4.9629533E-3,-3.756416E-2,-5.0924886E-3,-5.3320015E-3,8.468629E-3,3.1295504E-2,2.8819647E-3,3.2464028E-3,1.2009359E-2,2.2412182E-3,-1.772976E-3,-5.3392164E-3,8.1931765E-4,1.2538505E-3,6.781483E-3,-5.2091377E-3,1.8581629E-3,-5.0573433E-3,-7.0242886E-4,1.470548E-3,-4.222584E-3,-7.0005096E-4,9.592112E-3,7.7991714E-3,3.3294708E-2,5.290079E-3,-7.531972E-4],"categories":[],"categories_nodes":[],"categories_segments":[],"categories_sizes":[],"default_left":[0,0,0,0,0,0,0,0,0,0,0,0,0,0,0,0,0,0,0,0,0,0,0,0,0,0,0,0,0,0,0,0,0,0,0,0,0,0,0,0,0,0,0,0,0,0,0,0,0,0,0,0,0,0,0,0,0],"id":8,"left_children":[1,3,5,-1,-1,7,9,-1,-1,11,13,15,17,19,21,23,25,27,-1,29,31,33,35,37,39,-1,41,-1,-1,43,45,-1,47,49,51,53,55,-1,-1,-1,-1,-1,-1,-1,-1,-1,-1,-1,-1,-1,-1,-1,-1,-1,-1,-1,-1],"loss_changes":[1.9396186E-2,1.5184656E-4,3.3836146E-3,0E0,0E0,3.5626837E-4,4.6841092E-3,0E0,0E0,4.4577816E-3,3.6046214E-3,2.4297263E-3,1.1456381E-3,3.8793483E-3,2.469955E-3,4.3192634E-4,2.4468098E-3,2.4313778E-3,0E0,3.0096824E-4,3.7040599E-3,6.639521E-4,2.9163011E-3,9.076903E-6,4.4557415E-5,0E0,6.4097764E-4,0E0,0E0,2.1848571E-4,1.4678441E-4,0E0,4.247084E-5,1.1017248E-4,5.257393E-4,3.7057465E-3,1.8294703E-4,0E0,0E0,0E0,0E0,0E0,0E0,0E0,0E0,0E0,0E0,0E0,0E0,0E0,0E0,0E0,0E0,0E0,0E0,0E0,0E0],"parents":[2147483647,0,0,1,1,2,2,5,5,6,6,9,9,10,10,11,11,12,12,13,13,14,14,15,15,16,16,17,17,19,19,20,20,21,21,22,22,23,23,24,24,26,26,29,29,30,30,32,32,33,33,34,34,35,35,36,36],"right_children":[2,4,6,-1,-1,8,10,-1,-1,12,14,16,18,20,22,24,26,28,-1,30,32,34,36,38,40,-1,42,-1,-1,44,46,-1,48,50,52,54,56,-1,-1,-1,-1,-1,-1,-1,-1,-1,-1,-1,-1,-1,-1,-1,-1,-1,-1,-1,-1],"split_conditions":[-4.9116926E0,-6.7101765E0,-5.195635E0,-1.52734285E-2,-5.8508065E-2,-5.3602633E0,-1.7869171E0,4.533291E-3,2.5005126E-2,1.4776895E0,-1.1855296E0,-1.5999502E0,7.4422425E-1,-1.4361656E0,-1.6726437E-1,3.8690767E0,-1.1334747E0,-2.412528E0,9.219826E-4,2.5383844E0,-1.3343757E0,-2.149659E-1,1.3375107E0,-6.7698736E0,-5.819651E0,-2.0875264E-2,-5.5491266E0,-3.402411E-2,-9.308827E-3,4.5947466E0,7.188764E0,-3.756416E-2,1.7993809E0,-6.2581215E0,-4.7004023E0,-2.8603926E-1,-2.397505E0,3.2464028E-3,1.2009359E-2,2.2412182E-3,-1.772976E-3,-5.3392164E-3,8.1931765E-4,1.2538505E-3,6.781483E-3,-5.2091377E-3,1.8581629E-3,-5.0573433E-3,-7.0242886E-4,1.470548E-3,-4.222584E-3,-7.0005096E-4,9.592112E-3,7.7991714E-3,3.3294708E-2,5.290079E-3,-7.531972E-4],"split_indices":[6,0,3,0,0,0,0,0,0,8,6,6,5,6,8,1,6,1,0,3,6,5,3,0,0,0,0,0,0,0,0,0,0,1,1,3,4,0,0,0,0,0,0,0,0,0,0,0,0,0,0,0,0,0,0,0,0],"split_type":[0,0,0,0,0,0,0,0,0,0,0,0,0,0,0,0,0,0,0,0,0,0,0,0,0,0,0,0,0,0,0,0,0,0,0,0,0,0,0,0,0,0,0,0,0,0,0,0,0,0,0,0,0,0,0,0,0],"sum_hessian":[8.9E1,2E0,8.7E1,1E0,1E0,2E0,8.5E1,1E0,1E0,3.9E1,4.6E1,3.1E1,8E0,1.9E1,2.7E1,6E0,2.5E1,7E0,1E0,1.5E1,4E0,1.2E1,1.5E1,4E0,2E0,2E0,2.3E1,2E0,5E0,1.2E1,3E0,1E0,3E0,6E0,6E0,9E0,6E0,1E0,3E0,1E0,1E0,1.2E1,1.1E1,9E0,3E0,2E0,1E0,1E0,2E0,1E0,5E0,3E0,3E0,6E0,3E0,2E0,4E0],"tree_param":{"num_deleted":"0","num_feature":"10","num_nodes":"57","size_leaf_vector":"1"}},{"base_weights":[-2.0936336E-3,-5.7385605E-2,-1.8488888E-4,-1.0691429E-2,-4.0955618E-2,2.2974333E-2,-9.906188E-4,3.1733038E-3,1.7503597E-2,1.6851048E-3,-8.39304E-3,-2.3436449E-3,8.0637E-3,-2.6294911E-2,-4.7904644E-3,4.138711E-3,-4.642387E-3,1.3780746E-2,-4.65335E-4,-1.9461358E-2,-1.9294776E-3,-4.467559E-3,6.041768E-3,-1.8726744E-3,-1.8116415E-2,2.5811257E-2,8.619548E-3,-2.8616022E-3,1.7895037E-3,5.214229E-3,-7.7217766E-3,6.404251E-3,-4.3497924E-4,6.58397E-4,-1.1089213E-2,-1.248605E-2,-2.202523E-3,-1.6375587E-3,7.177676E-3,-6.851013E-5,-3.8920597E-3,6.7558624E-3,-4.15656E-4,-7.0341174E-3,-1.9131559E-3],"categories":[],"categories_nodes":[],"categories_segments":[],"categories_sizes":[],"default_left":[0,0,0,0,0,0,0,0,0,0,0,0,0,0,0,0,0,0,0,0,0,0,0,0,0,0,0,0,0,0,0,0,0,0,0,0,0,0,0,0,0,0,0,0,0],"id":9,"left_children":[1,3,5,-1,-1,7,9,-1,-1,11,13,15,17,-1,19,21,23,25,27,-1,29,-1,31,33,35,-1,37,39,-1,41,43,-1,-1,-1,-1,-1,-1,-1,-1,-1,-1,-1,-1,-1,-1],"loss_changes":[9.487834E-3,7.439405E-5,1.6648456E-3,0E0,0E0,1.7457188E-4,1.7175308E-3,0E0,0E0,1.6635552E-3,2.7259118E-3,6.1526406E-4,1.2254345E-3,0E0,1.6774482E-3,2.874952E-4,1.0856492E-3,1.8927455E-3,9.941618E-5,0E0,9.0921135E-4,0E0,3.2117212E-4,1.3028559E-3,1.18166325E-4,0E0,5.638357E-4,6.897822E-5,0E0,3.6490976E-4,1.8030655E-4,0E0,0E0,0E0,0E0,0E0,0E0,0E0,0E0,0E0,0E0,0E0,0E0,0E0,0E0],"parents":[2147483647,0,0,1,1,2,2,5,5,6,6,9,9,10,10,11,11,12,12,14,14,15,15,16,16,17,17,18,18,20,20,22,22,23,23,24,24,26,26,27,27,29,29,30,30],"right_children":[2,4,6,-1,-1,8,10,-1,-1,12,14,16,18,-1,20,22,24,26,28,-1,30,-1,32,34,36,-1,38,40,-1,42,44,-1,-1,-1,-1,-1,-1,-1,-1,-1,-1,-1,-1,-1,-1],"split_conditions":[-4.9116926E0,-6.7101765E0,-5.195635E0,-1.0691429E-2,-4.0955618E-2,-5.3602633E0,1.4582103E0,3.1733038E-3,1.7503597E-2,3.58163E0,1.462211E0,-1.7061422E0,1.2840993E0,-2.6294911E-2,-3.0490012E0,-4.926833E0,1.088685E0,-5.7699165E0,-1.5745573E0,-1.9461358E-2,-1.8905706E0,-4.467559E-3,-7.8667246E-2,5.0438523E0,-1.2178711E0,2.5811257E-2,-2.693656E0,-1.9934899E0,1.7895037E-3,2.5765433E0,3.3977973E0,6.404251E-3,-4.3497924E-4,6.58397E-4,-1.1089213E-2,-1.248605E-2,-2.202523E-3,-1.6375587E-3,7.177676E-3,-6.851013E-5,-3.8920597E-3,6.7558624E-3,-4.15656E-4,-7.0341174E-3,-1.9131559E-3],"split_indices":[6,0,3,0,0,0,7,0,0,0,7,7,4,0,9,3,4,1,5,0,1,0,8,1,3,0,8,5,0,2,1,0,0,0,0,0,0,0,0,0,0,0,0,0,0],"split_type":[0,0,0,0,0,0,0,0,0,0,0,0,0,0,0,0,0,0,0,0,0,0,0,0,0,0,0,0,0,0,0,0,0,0,0,0,0,0,0,0,0,0,0,0,0],"sum_hessian":[8.9E1,2E0,8.7E1,1E0,1E0,2E0,8.5E1,1E0,1E0,6.3E1,2.2E1,3.9E1,2.4E1,1E0,2.1E1,1E1,2.9E1,1.4E1,1E1,1E0,2E1,1E0,9E0,2.5E1,4E0,1E0,1.3E1,6E0,4E0,9E0,1.1E1,5E0,4E0,2.2E1,3E0,3E0,1E0,3E0,1E1,4E0,2E0,4E0,5E0,5E0,6E0],"tree_param":{"num_deleted":"0","num_feature":"10","num_nodes":"45","size_leaf_vector":"1"}},{"base_weights":[-1.6571294E-3,-4.0169954E-2,-3.2536115E-4,-7.484007E-3,-2.8668953E-2,1.6082069E-2,-8.939301E-4,2.221316E-3,1.2252546E-2,6.8219514E-3,-1.9989402E-3,1.4815263E-3,1.8067861E-2,-8.063722E-3,1.641226E-4,-4.679316E-4,2.7136179E-3,-5.258931E-3,-1.8406428E-2,-7.5501213E-3,1.7678376E-3,-1.8922687E-3,1.2371645E-3,-3.0283236E-3,-1.3622958E-2,-1.3905329E-2,-9.957617E-4,2.9042258E-3,-8.585948E-3,-4.066855E-4,-2.0250322E-3,-3.9144605E-3,2.5242494E-4,3.5119057E-4,-1.0604592E-2,-1.7811776E-3,4.3969764E-4,8.939743E-3,1.1869604E-3,-7.171758E-3,1.4645935E-3],"categories":[],"categories_nodes":[],"categories_segments":[],"categories_sizes":[],"default_left":[0,0,0,0,0,0,0,0,0,0,0,0,0,0,0,0,0,0,0,0,0,0,0,0,0,0,0,0,0,0,0,0,0,0,0,0,0,0,0,0,0],"id":10,"left_children":[1,3,5,-1,-1,7,9,-1,-1,11,13,15,-1,17,19,21,-1,23,-1,25,27,29,-1,31,-1,33,35,37,39,-1,-1,-1,-1,-1,-1,-1,-1,-1,-1,-1,-1],"loss_changes":[4.603044E-3,3.6453363E-5,8.353066E-4,0E0,0E0,8.5540756E-5,7.4688357E-4,0E0,0E0,1.3236178E-3,9.983298E-4,6.1402636E-5,0E0,1.1072014E-3,7.1851996E-4,2.912548E-5,0E0,6.706304E-4,0E0,4.0269666E-4,5.896997E-4,6.716269E-6,0E0,2.197716E-4,0E0,2.8342073E-4,2.2637185E-5,4.5924124E-4,2.1481444E-4,0E0,0E0,0E0,0E0,0E0,0E0,0E0,0E0,0E0,0E0,0E0,0E0],"parents":[2147483647,0,0,1,1,2,2,5,5,6,6,9,9,10,10,11,11,13,13,14,14,15,15,17,17,19,19,20,20,21,21,23,23,25,25,26,26,27,27,28,28],"right_children":[2,4,6,-1,-1,8,10,-1,-1,12,14,16,-1,18,20,22,-1,24,-1,26,28,30,-1,32,-1,34,36,38,40,-1,-1,-1,-1,-1,-1,-1,-1,-1,-1,-1,-1],"split_conditions":[-4.9116926E0,-6.7101765E0,-5.195635E0,-7.484007E-3,-2.8668953E-2,-5.3602633E0,-5.7699165E0,2.221316E-3,1.2252546E-2,-5.9671006E0,-4.1009746E0,-6.51775E0,1.8067861E-2,-4.237177E0,-1.8438737E0,4.4144316E0,2.7136179E-3,2.7887425E0,-1.8406428E-2,5.3009086E0,3.17592E0,7.991975E0,1.2371645E-3,-4.985773E0,-1.3622958E-2,-6.7698736E0,-4.944431E0,-2.8628185E0,1.7993809E0,-4.066855E-4,-2.0250322E-3,-3.9144605E-3,2.5242494E-4,3.5119057E-4,-1.0604592E-2,-1.7811776E-3,4.3969764E-4,8.939743E-3,1.1869604E-3,-7.171758E-3,1.4645935E-3],"split_indices":[6,0,3,0,0,0,1,0,0,1,1,1,0,1,8,2,0,7,0,1,8,3,0,1,0,0,0,9,0,0,0,0,0,0,0,0,0,0,0,0,0],"split_type":[0,0,0,0,0,0,0,0,0,0,0,0,0,0,0,0,0,0,0,0,0,0,0,0,0,0,0,0,0,0,0,0,0,0,0,0,0,0,0,0,0],"sum_hessian":[8.9E1,2E0,8.7E1,1E0,1E0,2E0,8.5E1,1E0,1E0,1E1,7.5E1,9E0,1E0,1.9E1,5.6E1,6E0,3E0,1.8E1,1E0,9E0,4.7E1,4E0,2E0,1.7E1,1E0,4E0,5E0,4.3E1,4E0,3E0,1E0,8E0,9E0,1E0,3E0,2E0,3E0,2E0,4.1E1,3E0,1E0],"tree_param":{"num_deleted":"0","num_feature":"10","num_nodes":"41","size_leaf_vector":"1"}},{"base_weights":[-1.1623894E-3,-2.8119007E-2,-2.3020477E-4,-5.2388194E-3,-2.0068288E-2,1.125743E-2,-6.282594E-4,1.5549124E-3,8.576775E-3,-2.398517E-3,2.149738E-3,4.903874E-4,-4.8062443E-3,1.1981645E-2,-3.8501513E-4,-1.1709464E-3,7.3699118E-3,-6.176513E-3,5.302064E-3,-7.261992E-4,1.7500501E-2,-6.431808E-3,1.2091489E-3,-2.7526142E-3,6.239295E-3,7.059622E-3,5.1714975E-4,3.0301363E-4,-8.135522E-3,4.1746204E-3,1.0054708E-4,4.540068E-3,1.2960435E-2,-8.712239E-3,1.2425855E-3,3.7073242E-3,-3.9383452E-3,2.795663E-3,-3.1218964E-3,-1.9955636E-5,5.0047403E-3,1.0203482E-3,-5.549133E-4,-4.2971928E-4,1.9254864E-3,-9.493137E-3,-3.1350362E-3,-1.1769534E-4,1.0725319E-3,-6.7873305E-5,5.181292E-3,1.0252119E-3,-2.9934973E-3],"categories":[],"categories_nodes":[],"categories_segments":[],"categories_sizes":[],"default_left":[0,0,0,0,0,0,0,0,0,0,0,0,0,0,0,0,0,0,0,0,0,0,0,0,0,0,0,0,0,0,0,0,0,0,0,0,0,0,0,0,0,0,0,0,0,0,0,0,0,0,0,0,0],"id":11,"left_children":[1,3,5,-1,-1,7,9,-1,-1,11,13,15,17,19,21,23,25,27,29,-1,31,33,35,37,39,-1,41,43,45,-1,-1,-1,-1,-1,47,49,51,-1,-1,-1,-1,-1,-1,-1,-1,-1,-1,-1,-1,-1,-1,-1,-1],"loss_changes":[2.2550959E-3,1.7861137E-5,4.0947075E-4,0E0,0E0,4.1915366E-5,4.2808446E-4,0E0,0E0,3.7100873E-4,8.519427E-4,2.9435943E-4,4.3443014E-4,5.308138E-4,2.7768526E-4,2.6330573E-4,1.4454318E-4,3.3249485E-4,3.28374E-5,0E0,4.020438E-5,3.904929E-4,3.103656E-4,3.5118818E-4,5.3015494E-5,0E0,6.6923294E-6,2.3032133E-5,3.6474748E-4,0E0,0E0,0E0,0E0,0E0,3.4869217E-6,3.022214E-4,5.599689E-5,0E0,0E0,0E0,0E0,0E0,0E0,0E0,0E0,0E0,0E0,0E0,0E0,0E0,0E0,0E0,0E0],"parents":[2147483647,0,0,1,1,2,2,5,5,6,6,9,9,10,10,11,11,12,12,13,13,14,14,15,15,16,16,17,17,18,18,20,20,21,21,22,22,23,23,24,24,26,26,27,27,28,28,34,34,35,35,36,36],"right_children":[2,4,6,-1,-1,8,10,-1,-1,12,14,16,18,20,22,24,26,28,30,-1,32,34,36,38,40,-1,42,44,46,-1,-1,-1,-1,-1,48,50,52,-1,-1,-1,-1,-1,-1,-1,-1,-1,-1,-1,-1,-1,-1,-1,-1],"split_conditions":[-4.9116926E0,-6.7101765E0,-5.195635E0,-5.2388194E-3,-2.0068288E-2,-5.3602633E0,4.0192446E-1,1.5549124E-3,8.576775E-3,-1.0332221E0,6.4506155E-1,4.861181E0,6.100803E0,1.1400449E0,1.0970675E0,-1.4365883E0,5.7702913E0,-5.9671006E0,-5.610992E0,-7.261992E-4,-4.690849E0,-1.2178711E0,1.9386297E0,-2.0311182E0,-6.0649214E0,7.059622E-3,5.8117256E0,-6.51775E0,-4.1009746E0,4.1746204E-3,1.0054708E-4,4.540068E-3,1.2960435E-2,-8.712239E-3,-3.6849399E0,-1.410411E0,-1.5616649E0,2.795663E-3,-3.1218964E-3,-1.9955636E-5,5.0047403E-3,1.0203482E-3,-5.549133E-4,-4.2971928E-4,1.9254864E-3,-9.493137E-3,-3.1350362E-3,-1.1769534E-4,1.0725319E-3,-6.7873305E-5,5.181292E-3,1.0252119E-3,-2.9934973E-3],"split_indices":[6,0,3,0,0,0,9,0,0,3,9,0,1,6,9,3,0,1,0,0,2,3,3,6,0,0,0,1,1,0,0,0,0,0,0,8,6,0,0,0,0,0,0,0,0,0,0,0,0,0,0,0,0],"split_type":[0,0,0,0,0,0,0,0,0,0,0,0,0,0,0,0,0,0,0,0,0,0,0,0,0,0,0,0,0,0,0,0,0,0,0,0,0,0,0,0,0,0,0,0,0,0,0,0,0,0,0,0,0],"sum_hessian":[8.9E1,2E0,8.7E1,1E0,1E0,2E0,8.5E1,1E0,1E0,5.2E1,3.3E1,2.4E1,2.8E1,6E0,2.7E1,2E1,4E0,2.5E1,3E0,2E0,4E0,5E0,2.2E1,1.7E1,3E0,2E0,2E0,6E0,1.9E1,2E0,1E0,2E0,2E0,2E0,3E0,1.5E1,7E0,4E0,1.3E1,1E0,2E0,1E0,1E0,5E0,1E0,4E0,1.5E1,1E0,2E0,9E0,6E0,1E0,6E0],"tree_param":{"num_deleted":"0","num_feature":"10","num_nodes":"53","size_leaf_vector":"1"}},{"base_weights":[-4.392627E-4,-1.9683281E-2,2.2177504E-4,-3.6671879E-3,-1.4047766E-2,7.351142E-4,-4.3658814E-3,3.019857E-4,7.1716444E-3,-6.688142E-3,-2.1248907E-3,7.880171E-3,-9.318911E-6,5.561668E-3,-3.6586897E-4,-3.0103277E-3,2.1256806E-4,1.0884404E-3,6.0037137E-3,-1.1284723E-3,2.6872468E-3,-4.3861868E-4,-2.380331E-3,7.627169E-3,-1.6213831E-3,8.757878E-3,7.6650217E-4,8.4307196E-4,6.021381E-3,5.23438E-4,-2.2206013E-3,-8.6289906E-4,2.172535E-3],"categories":[],"categories_nodes":[],"categories_segments":[],"categories_sizes":[],"default_left":[0,0,0,0,0,0,0,0,0,0,0,0,0,0,0,0,0,0,0,0,0,0,0,0,0,0,0,0,0,0,0,0,0],"id":12,"left_children":[1,3,5,-1,-1,7,9,11,13,-1,15,17,19,-1,-1,21,-1,-1,-1,23,25,-1,-1,27,29,-1,31,-1,-1,-1,-1,-1,-1],"loss_changes":[1.1492572E-3,8.749659E-6,2.104515E-4,0E0,0E0,2.2086182E-4,1.1307991E-4,1.7936688E-4,8.7271794E-5,0E0,1.8627692E-5,2.053805E-5,2.263549E-4,0E0,0E0,1.0186068E-5,0E0,0E0,0E0,2.4110134E-4,4.920521E-4,0E0,0E0,3.0855488E-5,2.6772043E-4,0E0,1.3106702E-4,0E0,0E0,0E0,0E0,0E0,0E0],"parents":[2147483647,0,0,1,1,2,2,5,5,6,6,7,7,8,8,10,10,11,11,12,12,15,15,19,19,20,20,23,23,24,24,26,26],"right_children":[2,4,6,-1,-1,8,10,12,14,-1,16,18,20,-1,-1,22,-1,-1,-1,24,26,-1,-1,28,30,-1,32,-1,-1,-1,-1,-1,-1],"split_conditions":[-4.9116926E0,-6.7101765E0,2.7887425E0,-3.6671879E-3,-1.4047766E-2,2.1988592E0,-3.0490012E0,-5.195635E0,1.3750474E0,-6.688142E-3,-4.1176176E0,-5.3602633E0,1.4420097E0,5.561668E-3,-3.6586897E-4,-6.6239734E0,2.1256806E-4,1.0884404E-3,6.0037137E-3,-2.8628185E0,1.5977385E0,-4.3861868E-4,-2.380331E-3,-6.3840847E0,-1.4361656E0,8.757878E-3,3.1771803E0,8.4307196E-4,6.021381E-3,5.23438E-4,-2.2206013E-3,-8.6289906E-4,2.172535E-3],"split_indices":[6,0,7,0,0,7,9,3,3,0,0,0,6,0,0,0,0,0,0,9,6,0,0,0,6,0,6,0,0,0,0,0,0],"split_type":[0,0,0,0,0,0,0,0,0,0,0,0,0,0,0,0,0,0,0,0,0,0,0,0,0,0,0,0,0,0,0,0,0],"sum_hessian":[8.9E1,2E0,8.7E1,1E0,1E0,7.9E1,8E0,7.5E1,4E0,1E0,7E0,2E0,7.3E1,3E0,1E0,5E0,2E0,1E0,1E0,5.2E1,2.1E1,2E0,3E0,2E0,5E1,2E0,1.9E1,1E0,1E0,2.3E1,2.7E1,1.1E1,8E0],"tree_param":{"num_deleted":"0","num_feature":"10","num_nodes":"33","size_leaf_vector":"1"}},{"base_weights":[-1.699944E-4,-1.3778289E-2,2.958565E-4,-2.5670528E-3,-9.833408E-3,3.5189216E-3,-1.6247135E-4,-3.5274995E-4,3.9883973E-3,3.0997908E-3,-5.7958404E-4,3.7496092E-4,2.8506876E-3,6.9314092E-3,2.874659E-5,5.5161514E-3,-8.399903E-4,1.4571071E-3,6.132031E-3,-1.4456392E-3,9.982553E-4,7.619083E-4,4.2026285E-3,-2.8862949E-3,-1.5485239E-4,4.9823244E-5,9.4843213E-4,-1.1145244E-3,-9.370387E-3,-2.978732E-3,6.754259E-4,-2.4701396E-3,6.591542E-4,-3.055519E-3,-9.706617E-6,1.4715532E-3,-4.113534E-4],"categories":[],"categories_nodes":[],"categories_segments":[],"categories_sizes":[],"default_left":[0,0,0,0,0,0,0,0,0,0,0,0,0,0,0,0,0,0,0,0,0,0,0,0,0,0,0,0,0,0,0,0,0,0,0,0,0],"id":13,"left_children":[1,3,5,-1,-1,7,9,-1,11,13,15,-1,-1,17,19,21,23,-1,-1,-1,25,-1,-1,27,29,-1,-1,31,-1,33,35,-1,-1,-1,-1,-1,-1],"loss_changes":[5.746256E-4,4.285481E-6,1.3056713E-4,0E0,0E0,2.3553512E-5,1.0793359E-4,0E0,2.2685606E-5,1.0570437E-4,1.1574924E-4,0E0,0E0,3.441416E-5,1.6588012E-5,1.0063923E-5,9.488911E-5,0E0,0E0,0E0,2.5341465E-6,0E0,0E0,3.660536E-4,1.2393143E-4,0E0,0E0,1.1083639E-4,0E0,7.506456E-5,1.0085001E-4,0E0,0E0,0E0,0E0,0E0,0E0],"parents":[2147483647,0,0,1,1,2,2,5,5,6,6,8,8,9,9,10,10,13,13,14,14,15,15,16,16,20,20,23,23,24,24,27,27,29,29,30,30],"right_children":[2,4,6,-1,-1,8,10,-1,12,14,16,-1,-1,18,20,22,24,-1,-1,-1,26,-1,-1,28,30,-1,-1,32,-1,34,36,-1,-1,-1,-1,-1,-1],"split_conditions":[-4.9116926E0,-6.7101765E0,-4.6259575E0,-2.5670528E-3,-9.833408E-3,-4.5609174E0,-5.5667257E0,-3.5274995E-4,3.169968E-2,4.4683237E0,-5.195635E0,3.7496092E-4,2.8506876E-3,3.7788675E0,4.7149134E0,-5.3602633E0,-4.1009746E0,1.4571071E-3,6.132031E-3,-1.4456392E-3,5.4772043E0,7.619083E-4,4.2026285E-3,-4.237177E0,-6.7745847E-1,4.9823244E-5,9.4843213E-4,-5.0069675E0,-9.370387E-3,-7.417089E-1,9.3235093E-1,-2.4701396E-3,6.591542E-4,-3.055519E-3,-9.706617E-6,1.4715532E-3,-4.113534E-4],"split_indices":[6,0,2,0,0,4,1,0,5,0,3,0,0,0,0,0,1,0,0,0,0,0,0,1,8,0,0,1,0,7,8,0,0,0,0,0,0],"split_type":[0,0,0,0,0,0,0,0,0,0,0,0,0,0,0,0,0,0,0,0,0,0,0,0,0,0,0,0,0,0,0,0,0,0,0,0,0],"sum_hessian":[8.9E1,2E0,8.7E1,1E0,1E0,1E1,7.7E1,1E0,9E0,8E0,6.9E1,2E0,7E0,3E0,5E0,2E0,6.7E1,2E0,1E0,1E0,4E0,1E0,1E0,1.6E1,5.1E1,2E0,2E0,1.5E1,1E0,1.1E1,4E1,6E0,9E0,6E0,5E0,1.7E1,2.3E1],"tree_param":{"num_deleted":"0","num_feature":"10","num_nodes":"37","size_leaf_vector":"1"}},{"base_weights":[-1.8585162E-4,-9.644826E-3,1.3872537E-4,-1.7969371E-3,-6.883407E-3,4.525676E-4,-2.6663973E-3,-3.0385377E-4,1.7233983E-3,-3.940666E-3,-1.3577528E-3,1.2735504E-4,-6.5592886E-3,4.5147613E-3,-1.3027289E-4,-1.7688276E-3,-7.0941873E-4,1.6089736E-3,-1.0942372E-3,-7.1380736E-4,5.1414995E-3,1.4207509E-3,-1.1534326E-3,-3.9815906E-5,-5.720222E-4,-3.0010461E-3,2.737454E-3,2.1962465E-3,-1.8112113E-3,2.5143113E-3,4.674758E-3,-2.46925E-4,1.0447792E-3,2.081357E-4,-1.6920848E-3,-4.513264E-4,-2.0251216E-3,2.5162683E-3,1.2646952E-4,-8.541296E-5,-3.2038423E-3,1.9549371E-3,-5.8475736E-4,-3.3968035E-4,-1.4877714E-3],"categories":[],"categories_nodes":[],"categories_segments":[],"categories_sizes":[],"default_left":[0,0,0,0,0,0,0,0,0,0,0,0,0,0,0,0,0,0,0,0,0,0,0,0,0,0,0,0,0,0,0,0,0,0,0,0,0,0,0,0,0,0,0,0,0],"id":14,"left_children":[1,3,5,-1,-1,7,9,11,13,-1,15,17,-1,19,21,-1,23,25,27,-1,29,31,33,-1,-1,35,37,-1,39,41,-1,-1,-1,-1,43,-1,-1,-1,-1,-1,-1,-1,-1,-1,-1],"loss_changes":[2.7765287E-4,2.1001324E-6,7.867893E-5,0E0,0E0,7.742633E-5,3.7032245E-5,2.3512598E-4,1.5581622E-4,0E0,6.15693E-6,9.225729E-5,0E0,4.901903E-5,3.1790696E-5,0E0,1.0348613E-6,1.278685E-4,1.0208065E-4,0E0,5.6986028E-5,5.4153134E-6,1.0284815E-5,0E0,0E0,1.668217E-6,6.902954E-5,0E0,1.4645493E-4,2.1343654E-5,0E0,0E0,0E0,0E0,6.5767254E-6,0E0,0E0,0E0,0E0,0E0,0E0,0E0,0E0,0E0,0E0],"parents":[2147483647,0,0,1,1,2,2,5,5,6,6,7,7,8,8,10,10,11,11,13,13,14,14,16,16,17,17,18,18,20,20,21,21,22,22,25,25,26,26,28,28,29,29,34,34],"right_children":[2,4,6,-1,-1,8,10,12,14,-1,16,18,-1,20,22,-1,24,26,28,-1,30,32,34,-1,-1,36,38,-1,40,42,-1,-1,-1,-1,44,-1,-1,-1,-1,-1,-1,-1,-1,-1,-1],"split_conditions":[-4.9116926E0,-6.7101765E0,2.7887425E0,-1.7969371E-3,-6.883407E-3,-2.3855252E-2,-3.0490012E0,-1.5385109E-1,1.3750474E0,-3.940666E-3,2.8949568E0,-2.64212E0,-6.5592886E-3,-4.133531E0,-9.542895E-1,-1.7688276E-3,-6.667945E0,-2.5695634E0,-4.3275633E0,-7.1380736E-4,-1.2584234E0,-4.5609174E0,-1.7536172E0,-3.9815906E-5,-5.720222E-4,-4.2720876E0,1.2843744E0,2.1962465E-3,2.8345844E-1,4.142322E0,4.674758E-3,-2.46925E-4,1.0447792E-3,2.081357E-4,2.6520846E0,-4.513264E-4,-2.0251216E-3,2.5162683E-3,1.2646952E-4,-8.541296E-5,-3.2038423E-3,1.9549371E-3,-5.8475736E-4,-3.3968035E-4,-1.4877714E-3],"split_indices":[6,0,7,0,0,3,9,3,3,0,7,3,0,2,2,0,1,4,4,0,4,4,9,0,0,1,4,0,5,1,0,0,0,0,3,0,0,0,0,0,0,0,0,0,0],"split_type":[0,0,0,0,0,0,0,0,0,0,0,0,0,0,0,0,0,0,0,0,0,0,0,0,0,0,0,0,0,0,0,0,0,0,0,0,0,0,0,0,0,0,0,0,0],"sum_hessian":[8.9E1,2E0,8.7E1,1E0,1E0,7.9E1,8E0,5E1,2.9E1,1E0,7E0,4.9E1,1E0,1.1E1,1.8E1,1E0,6E0,2.2E1,2.7E1,1E0,1E1,7E0,1.1E1,2E0,4E0,4E0,1.8E1,3E0,2.4E1,6E0,4E0,1E0,6E0,3E0,8E0,1E0,3E0,1.1E1,7E0,1.7E1,7E0,5E0,1E0,4E0,4E0],"tree_param":{"num_deleted":"0","num_feature":"10","num_nodes":"45","size_leaf_vector":"1"}},{"base_weights":[-2.7410404E-4,-6.7513785E-3,-5.0173036E-5,-1.2578488E-3,-4.818392E-3,-2.928675E-4,1.6753126E-3,-1.644191E-4,-3.0550184E-3,3.960818E-3,3.231458E-4,-2.657327E-3,-5.003309E-5,2.1677614E-4,3.024137E-3,-6.6429377E-4,6.8563985E-4,-1.0114998E-3,5.647336E-4,7.200234E-4,-1.0153236E-7,-2.178397E-3,1.5401343E-3,9.1248716E-4,-1.244626E-3,-2.1623282E-4,-2.7374197E-3,3.0186297E-3,3.5594968E-4,9.645236E-4,1.6244291E-4,-3.188163E-4,-1.3537691E-3],"categories":[],"categories_nodes":[],"categories_segments":[],"categories_sizes":[],"default_left":[0,0,0,0,0,0,0,0,0,0,0,0,0,0,0,0,0,0,0,0,0,0,0,0,0,0,0,0,0,0,0,0,0],"id":15,"left_children":[1,3,5,-1,-1,7,9,11,-1,13,15,-1,17,-1,-1,-1,19,21,23,-1,-1,25,27,29,31,-1,-1,-1,-1,-1,-1,-1,-1],"loss_changes":[1.3020288E-4,1.0293588E-6,3.734204E-5,0E0,0E0,4.7242178E-5,3.271431E-5,3.7338592E-5,0E0,1.3720455E-5,4.9069185E-6,0E0,4.549313E-5,0E0,0E0,0E0,2.4696599E-6,9.267987E-5,3.0708637E-5,0E0,0E0,8.937138E-5,3.0070278E-5,1.7406735E-5,4.5737343E-6,0E0,0E0,0E0,0E0,0E0,0E0,0E0,0E0],"parents":[2147483647,0,0,1,1,2,2,5,5,6,6,7,7,9,9,10,10,12,12,16,16,17,17,18,18,21,21,22,22,23,23,24,24],"right_children":[2,4,6,-1,-1,8,10,12,-1,14,16,-1,18,-1,-1,-1,20,22,24,-1,-1,26,28,30,32,-1,-1,-1,-1,-1,-1,-1,-1],"split_conditions":[-4.9116926E0,-6.7101765E0,5.040533E0,-1.2578488E-3,-4.818392E-3,4.9966445E0,1.2840993E0,-3.728128E0,-3.0550184E-3,4.3432503E0,-2.5816338E0,-2.657327E-3,-1.0873011E0,2.1677614E-4,3.024137E-3,-6.6429377E-4,4.262447E0,5.1308465E0,2.7227056E0,7.200234E-4,-1.0153236E-7,-1.064865E0,5.1763577E0,-3.30458E0,-1.1770321E0,-2.1623282E-4,-2.7374197E-3,3.0186297E-3,3.5594968E-4,9.645236E-4,1.6244291E-4,-3.188163E-4,-1.3537691E-3],"split_indices":[6,0,2,0,0,2,4,6,0,0,8,0,9,0,0,0,4,1,3,0,0,4,1,2,5,0,0,0,0,0,0,0,0],"split_type":[0,0,0,0,0,0,0,0,0,0,0,0,0,0,0,0,0,0,0,0,0,0,0,0,0,0,0,0,0,0,0,0,0],"sum_hessian":[8.9E1,2E0,8.7E1,1E0,1E0,7.7E1,1E1,7.6E1,1E0,3E0,7E0,1E0,7.5E1,1E0,2E0,1E0,6E0,2.9E1,4.6E1,3E0,3E0,2E1,9E0,3.9E1,7E0,1.2E1,8E0,1E0,8E0,1.8E1,2.1E1,5E0,2E0],"tree_param":{"num_deleted":"0","num_feature":"10","num_nodes":"33","size_leaf_vector":"1"}},{"base_weights":[-2.0539343E-4,-2.83556E-3,-4.8950114E-5,7.4477674E-4,-4.1248128E-4,-5.741555E-4,1.7698606E-3,-3.184344E-3,-1.6209894E-4,2.365321E-4,-1.4744014E-3,-3.2729433E-5,2.592195E-3,-8.3852E-4,-3.770292E-3,1.9447327E-3,-3.4478732E-4,-2.7647614E-4,1.4560819E-3,1.6243706E-4,-4.6500567E-4,7.272491E-4,4.005915E-3,3.3847246E-5,-6.933809E-4,2.169169E-4,-1.0793601E-3,4.5277924E-5,-9.2759734E-4,2.8333985E-3,3.4207554E-4,1.6931742E-3,-4.343653E-4,-2.1846958E-3,2.3977454E-5,6.735325E-6,1.2673549E-3,-1.324724E-3,-3.476724E-5,-6.262887E-4,-3.1556415E-3,2.9943176E-4,-3.6807166E-4],"categories":[],"categories_nodes":[],"categories_segments":[],"categories_sizes":[],"default_left":[0,0,0,0,0,0,0,0,0,0,0,0,0,0,0,0,0,0,0,0,0,0,0,0,0,0,0,0,0,0,0,0,0,0,0,0,0,0,0,0,0,0,0],"id":16,"left_children":[1,-1,3,5,7,9,11,13,15,17,-1,19,21,23,-1,-1,25,27,-1,-1,-1,-1,29,-1,-1,31,33,-1,-1,-1,-1,35,37,39,41,-1,-1,-1,-1,-1,-1,-1,-1],"loss_changes":[6.34174E-5,0E0,2.5699119E-5,3.887263E-5,4.1819374E-5,2.0427957E-5,2.3802153E-5,3.1085012E-5,3.6557114E-5,1.1907225E-5,0E0,1.5613213E-6,1.6606537E-5,1.2003761E-6,0E0,0E0,2.2927828E-5,4.13781E-6,0E0,0E0,0E0,0E0,9.614945E-6,0E0,0E0,3.150218E-5,2.9321784E-5,0E0,0E0,0E0,0E0,7.025068E-6,1.5226489E-5,3.660466E-5,4.2429024E-6,0E0,0E0,0E0,0E0,0E0,0E0,0E0,0E0],"parents":[2147483647,0,0,2,2,3,3,4,4,5,5,6,6,7,7,8,8,9,9,11,11,12,12,13,13,16,16,17,17,22,22,25,25,26,26,31,31,32,32,33,33,34,34],"right_children":[2,-1,4,6,8,10,12,14,16,18,-1,20,22,24,-1,-1,26,28,-1,-1,-1,-1,30,-1,-1,32,34,-1,-1,-1,-1,36,38,40,42,-1,-1,-1,-1,-1,-1,-1,-1],"split_conditions":[-4.9116926E0,-2.83556E-3,-4.366785E0,-3.496063E0,-4.1009746E0,-4.0013227E0,-1.7894756E0,4.150801E0,-2.8628185E0,-4.1681128E0,-1.4744014E-3,4.8521533E0,-1.1172831E0,-3.7561164E0,-3.770292E-3,1.9447327E-3,3.9864118E0,-4.562091E0,1.4560819E-3,1.6243706E-4,-4.6500567E-4,7.272491E-4,4.5947466E0,3.3847246E-5,-6.933809E-4,-6.4818615E-1,5.3009086E0,4.5277924E-5,-9.2759734E-4,2.8333985E-3,3.4207554E-4,8.1235296E-1,3.2445606E-2,2.1561985E0,8.673947E-1,6.735325E-6,1.2673549E-3,-1.324724E-3,-3.476724E-5,-6.262887E-4,-3.1556415E-3,2.9943176E-4,-3.6807166E-4],"split_indices":[6,0,1,2,1,0,5,0,9,0,0,0,4,0,0,0,1,0,0,0,0,0,0,0,0,7,1,0,0,0,0,5,7,6,5,0,0,0,0,0,0,0,0],"split_type":[0,0,0,0,0,0,0,0,0,0,0,0,0,0,0,0,0,0,0,0,0,0,0,0,0,0,0,0,0,0,0,0,0,0,0,0,0,0,0,0,0,0,0],"sum_hessian":[8.9E1,2E0,8.7E1,2.7E1,6E1,1.2E1,1.5E1,4E0,5.6E1,9E0,3E0,5E0,1E1,3E0,1E0,2E0,5.4E1,8E0,1E0,4E0,1E0,6E0,4E0,1E0,2E0,3.1E1,2.3E1,7E0,1E0,3E0,1E0,9E0,2.2E1,1.1E1,1.2E1,2E0,7E0,3E0,1.9E1,9E0,2E0,7E0,5E0],"tree_param":{"num_deleted":"0","num_feature":"10","num_nodes":"43","size_leaf_vector":"1"}},{"base_weights":[-1.5500766E-4,-2.5222064E-3,-6.2284664E-5,4.839071E-5,-1.0514425E-3,-7.390798E-5,1.5894423E-3,-1.2931526E-4,-2.0424575E-3,6.154303E-4,-3.846667E-4,1.1720397E-3,-6.910265E-5,-1.5443683E-3,-1.3439656E-4,-2.4610013E-4,9.846546E-4,-6.79648E-5,-1.9254354E-3,7.631183E-5,-5.463839E-4,2.6637377E-4,2.2571073E-3,-8.642895E-4,3.5900722E-4,-2.3833753E-3,-2.3995836E-4,-1.3357146E-4,4.754819E-4,1.6544134E-3,-7.3240306E-5,-5.5013745E-5,-1.1067203E-3,-6.4502165E-6,1.6590715E-3,3.6081971E-4,-7.69043E-4],"categories":[],"categories_nodes":[],"categories_segments":[],"categories_sizes":[],"default_left":[0,0,0,0,0,0,0,0,0,0,0,0,0,0,0,0,0,0,0,0,0,0,0,0,0,0,0,0,0,0,0,0,0,0,0,0,0],"id":17,"left_children":[1,-1,3,5,7,9,11,-1,13,15,17,-1,-1,-1,-1,19,21,23,25,-1,-1,27,29,31,33,-1,35,-1,-1,-1,-1,-1,-1,-1,-1,-1,-1],"loss_changes":[3.3524608E-5,0E0,9.79419E-6,1.5383428E-5,7.0154565E-6,1.6517293E-5,3.947408E-6,0E0,3.2894277E-6,7.876676E-6,2.5731246E-5,0E0,0E0,0E0,0E0,2.1003304E-6,1.4936393E-5,1.5610663E-5,3.009618E-5,0E0,0E0,3.2635053E-6,7.4776544E-6,1.1948263E-5,2.672007E-5,0E0,6.029644E-6,0E0,0E0,0E0,0E0,0E0,0E0,0E0,0E0,0E0,0E0],"parents":[2147483647,0,0,2,2,3,3,4,4,5,5,6,6,8,8,9,9,10,10,15,15,16,16,17,17,18,18,21,21,22,22,23,23,24,24,26,26],"right_children":[2,-1,4,6,8,10,12,-1,14,16,18,-1,-1,-1,-1,20,22,24,26,-1,-1,28,30,32,34,-1,36,-1,-1,-1,-1,-1,-1,-1,-1,-1,-1],"split_conditions":[-5.3399677E0,-2.5222064E-3,2.7887425E0,2.1439269E0,-1.6726437E-1,-4.366785E0,1.3750474E0,-1.2931526E-4,-3.5173638E0,-4.1681128E0,1.0570732E0,1.1720397E-3,-6.910265E-5,-1.5443683E-3,-1.3439656E-4,-4.2377434E0,-3.401745E-1,-3.4481828E0,1.7117064E0,7.631183E-5,-5.463839E-4,-2.4466653E0,4.5947466E0,-4.1155105E0,4.6225276E0,-2.3833753E-3,1.9140925E0,-1.3357146E-4,4.754819E-4,1.6544134E-3,-7.3240306E-5,-5.5013745E-5,-1.1067203E-3,-6.4502165E-6,1.6590715E-3,3.6081971E-4,-7.69043E-4],"split_indices":[6,0,7,7,8,1,3,0,0,0,7,0,0,0,0,2,8,2,7,0,0,3,0,2,0,0,7,0,0,0,0,0,0,0,0,0,0],"split_type":[0,0,0,0,0,0,0,0,0,0,0,0,0,0,0,0,0,0,0,0,0,0,0,0,0,0,0,0,0,0,0,0,0,0,0,0,0],"sum_hessian":[8.9E1,1E0,8.8E1,8E1,8E0,7.5E1,5E0,5E0,3E0,2.3E1,5.2E1,4E0,1E0,2E0,1E0,7E0,1.6E1,4.4E1,8E0,5E0,2E0,1.1E1,5E0,1.5E1,2.9E1,3E0,5E0,6E0,5E0,4E0,1E0,9E0,6E0,2.6E1,3E0,3E0,2E0],"tree_param":{"num_deleted":"0","num_feature":"10","num_nodes":"37","size_leaf_vector":"1"}},{"base_weights":[-1.0728508E-4,-1.7655373E-3,-4.2365537E-5,-1.5574988E-4,4.1352544E-4,-7.608407E-5,-1.4910474E-3,-2.531573E-4,7.673101E-4,1.6560222E-4,-4.3589622E-4,-1.130134E-3,-9.405614E-5,1.1371137E-3,3.0923262E-4,-8.741955E-5,9.840138E-4,-9.836096E-4,3.636442E-5,4.2076525E-4,-7.252923E-4,1.7445743E-3,1.8621112E-4,-1.924181E-3,-5.3108233E-4,9.676218E-4,-3.5468987E-4,4.759103E-5,8.1657176E-4,-1.3384705E-4,-1.0110628E-3,1.4308692E-4,1.2368873E-3,3.1332785E-4,-1.9431711E-4,1.21946E-4,-7.795692E-4,8.003712E-4,-1.4930964E-4,-4.968643E-4,6.105985E-5],"categories":[],"categories_nodes":[],"categories_segments":[],"categories_sizes":[],"default_left":[0,0,0,0,0,0,0,0,0,0,0,0,0,0,0,0,0,0,0,0,0,0,0,0,0,0,0,0,0,0,0,0,0,0,0,0,0,0,0,0,0],"id":18,"left_children":[1,-1,3,5,7,9,11,-1,13,15,17,-1,-1,-1,-1,19,21,23,25,27,29,31,33,-1,35,37,39,-1,-1,-1,-1,-1,-1,-1,-1,-1,-1,-1,-1,-1,-1],"loss_changes":[1.6441176E-5,0E0,4.664896E-6,7.5457388E-6,5.644026E-6,6.0725397E-6,1.7996117E-6,0E0,2.7170372E-6,8.783211E-6,7.2783455E-6,0E0,0E0,0E0,0E0,1.10023675E-5,5.7429133E-6,1.1376531E-5,6.1699607E-6,5.99151E-6,6.854555E-6,1.8948258E-6,1.1974379E-6,0E0,7.0333745E-6,2.5601034E-6,2.677405E-6,0E0,0E0,0E0,0E0,0E0,0E0,0E0,0E0,0E0,0E0,0E0,0E0,0E0,0E0],"parents":[2147483647,0,0,2,2,3,3,4,4,5,5,6,6,8,8,9,9,10,10,15,15,16,16,17,17,18,18,19,19,20,20,21,21,22,22,24,24,25,25,26,26],"right_children":[2,-1,4,6,8,10,12,-1,14,16,18,-1,-1,-1,-1,20,22,24,26,28,30,32,34,-1,36,38,40,-1,-1,-1,-1,-1,-1,-1,-1,-1,-1,-1,-1,-1,-1],"split_conditions":[-5.3399677E0,-1.7655373E-3,1.8341324E0,3.17592E0,-1.1770321E0,7.299304E-1,-2.0109386E0,-2.531573E-4,-1.0438154E0,-4.886128E-2,-1.2053653E0,-1.130134E-3,-9.405614E-5,1.1371137E-3,3.0923262E-4,2.740743E0,-5.351507E-1,-1.9793627E0,-7.741919E-1,8.1235296E-1,1.9256281E0,-5.32173E0,-4.237177E0,-1.924181E-3,-8.9848155E-1,-1.0510134E0,-1.3949417E0,4.759103E-5,8.1657176E-4,-1.3384705E-4,-1.0110628E-3,1.4308692E-4,1.2368873E-3,3.1332785E-4,-1.9431711E-4,1.21946E-4,-7.795692E-4,8.003712E-4,-1.4930964E-4,-4.968643E-4,6.105985E-5],"split_indices":[6,0,9,8,5,7,0,0,5,7,9,0,0,0,0,1,5,5,9,5,6,1,1,0,6,3,4,0,0,0,0,0,0,0,0,0,0,0,0,0,0],"split_type":[0,0,0,0,0,0,0,0,0,0,0,0,0,0,0,0,0,0,0,0,0,0,0,0,0,0,0,0,0,0,0,0,0,0,0,0,0,0,0,0,0],"sum_hessian":[8.9E1,1E0,8.8E1,7.1E1,1.7E1,6.8E1,3E0,5E0,1.2E1,4.1E1,2.7E1,2E0,1E0,1E0,1.1E1,3.2E1,9E0,1.2E1,1.5E1,1.8E1,1.4E1,4E0,5E0,1E0,1.1E1,4E0,1.1E1,1.4E1,4E0,1E1,4E0,1E0,3E0,3E0,2E0,6E0,5E0,3E0,1E0,5E0,6E0],"tree_param":{"num_deleted":"0","num_feature":"10","num_nodes":"41","size_leaf_vector":"1"}},{"base_weights":[-7.562833E-5,-1.2358904E-3,-3.0190062E-5,1.1382933E-4,-2.3567217E-4,-4.3129814E-5,7.9306663E-4,2.1130443E-5,-7.113947E-4,-3.4447617E-4,3.7150885E-4,-8.58754E-6,6.8467855E-4,2.8960878E-4,-7.106151E-4,-1.4583368E-3,-3.735825E-5,1.2288243E-4,-8.99968E-4,1.1218786E-3,2.3385473E-5,-9.4377996E-5,5.634117E-4,-7.0078974E-4,-4.5356155E-5,-3.6275983E-4,-1.2663244E-3,6.5426953E-4,-1.8244337E-4,-1.4257312E-3,-3.6709607E-4,8.9179876E-4,1.5718938E-4,-6.6343535E-5,3.3085345E-4,7.9643977E-4,-6.105267E-5,7.530749E-5,6.1167555E-4,-5.1659346E-4,-1.9457511E-5,1.3008267E-4,6.3007406E-4],"categories":[],"categories_nodes":[],"categories_segments":[],"categories_sizes":[],"default_left":[0,0,0,0,0,0,0,0,0,0,0,0,0,0,0,0,0,0,0,0,0,0,0,0,0,0,0,0,0,0,0,0,0,0,0,0,0,0,0,0,0,0,0],"id":19,"left_children":[1,-1,3,5,7,9,11,13,15,17,19,-1,-1,21,23,25,-1,27,29,31,33,-1,35,-1,-1,-1,-1,37,-1,-1,39,-1,-1,-1,-1,41,-1,-1,-1,-1,-1,-1,-1],"loss_changes":[8.052045E-6,0E0,2.6606397E-6,5.6846675E-6,4.535203E-6,5.6257695E-6,2.8265317E-6,5.117246E-6,6.2124195E-6,6.8605514E-6,4.936968E-6,0E0,0E0,2.4135388E-6,1.9447762E-6,2.0648322E-6,0E0,3.6021188E-6,8.567531E-6,1.490957E-6,1.0512593E-6,0E0,1.9410697E-6,0E0,0E0,0E0,0E0,1.2237213E-6,0E0,0E0,1.6249754E-6,0E0,0E0,0E0,0E0,1.0957242E-6,0E0,0E0,0E0,0E0,0E0,0E0,0E0],"parents":[2147483647,0,0,2,2,3,3,4,4,5,5,6,6,7,7,8,8,9,9,10,10,13,13,14,14,15,15,17,17,18,18,19,19,20,20,22,22,27,27,30,30,35,35],"right_children":[2,-1,4,6,8,10,12,14,16,18,20,-1,-1,22,24,26,-1,28,30,32,34,-1,36,-1,-1,-1,-1,38,-1,-1,40,-1,-1,-1,-1,42,-1,-1,-1,-1,-1,-1,-1],"split_conditions":[-5.3399677E0,-1.2358904E-3,3.179625E-1,4.7026973E0,3.8690767E0,2.792424E-1,-1.6140804E0,1.4582103E0,5.3009086E0,-4.2720876E0,1.3750474E0,-8.58754E-6,6.8467855E-4,-7.4527705E-1,5.3725605E0,-2.7193706E0,-3.735825E-5,-1.1717224E0,-2.412528E0,-1.8905706E0,-4.3912554E-1,-9.4377996E-5,5.8995783E-1,-7.0078974E-4,-4.5356155E-5,-3.6275983E-4,-1.2663244E-3,-8.9318603E-1,-1.8244337E-4,-1.4257312E-3,-2.5130105E0,8.9179876E-4,1.5718938E-4,-6.6343535E-5,3.3085345E-4,-5.0149384E0,-6.105267E-5,7.530749E-5,6.1167555E-4,-5.1659346E-4,-1.9457511E-5,1.3008267E-4,6.3007406E-4],"split_indices":[6,0,5,1,1,3,8,7,1,1,3,0,0,6,0,4,0,6,1,1,5,0,3,0,0,0,0,4,0,0,3,0,0,0,0,1,0,0,0,0,0,0,0],"split_type":[0,0,0,0,0,0,0,0,0,0,0,0,0,0,0,0,0,0,0,0,0,0,0,0,0,0,0,0,0,0,0,0,0,0,0,0,0,0,0,0,0,0,0],"sum_hessian":[8.9E1,1E0,8.8E1,5.2E1,3.6E1,4.3E1,9E0,2.4E1,1.2E1,2.5E1,1.8E1,3E0,6E0,1.8E1,6E0,5E0,7E0,1.4E1,1.1E1,5E0,1.3E1,7E0,1.1E1,3E0,3E0,3E0,2E0,6E0,8E0,2E0,9E0,3E0,2E0,1.1E1,2E0,8E0,3E0,3E0,3E0,3E0,6E0,3E0,5E0],"tree_param":{"num_deleted":"0","num_feature":"10","num_nodes":"43","size_leaf_vector":"1"}}]},"name":"gbtree"},"learner_model_param":{"base_score":"5.157303E-1","boost_from_average":"1","num_class":"0","num_feature":"10","num_target":"1"},"objective":{"name":"reg:squarederror","reg_loss_param":{"scale_pos_weight":"1"}}},"version":[2,0,3]}