{"learner":{"attributes":{"scikit_learn":"{\"_estimator_type\": \"regressor\"}"},"feature_names":[],"feature_types":[],"gradient_booster":{"model":{"gbtree_model_param":{"num_parallel_tree":"1","num_trees":"30"},"iteration_indptr":[0,1,2,3,4,5,6,7,8,9,10,11,12,13,14,15,16,17,18,19,20,21,22,23,24,25,26,27,28,29,30],"tree_info":[0,0,0,0,0,0,0,0,0,0,0,0,0,0,0,0,0,0,0,0,0,0,0,0,0,0,0,0,0,0],"trees":[{"base_weights":[-2.5166406E-8,-1.1598716E0,3.4796146E-1,-1.5323737E0,2.677899E-2,9.4382E-2,8.6204195E-1,-3.9941573E-1,-1.2991975E-1,1.0561796E-1,-7.117978E-2,-2.5325844E-1,4.9371805E-2,1.2322538E-1,2.672231E-1],"categories":[],"categories_nodes":[],"categories_segments":[],"categories_sizes":[],"default_left":[0,0,0,0,0,0,0,0,0,0,0,0,0,0,0],"id":0,"left_children":[1,3,5,7,9,11,13,-1,-1,-1,-1,-1,-1,-1,-1],"loss_changes":[3.672675E1,9.323658E0,9.043857E0,5.2663803E0,1.33899E0,1.027123E1,1.8581657E0,0E0,0E0,0E0,0E0,0E0,0E0,0E0,0E0],"parents":[2147483647,0,0,1,1,2,2,3,3,4,4,5,5,6,6],"right_children":[2,4,6,8,10,12,14,-1,-1,-1,-1,-1,-1,-1,-1],"split_conditions":[-7.1802324E-1,7.559999E-1,5.935075E-1,5.9811234E-1,3.2022562E-2,-4.690989E-1,9.1620904E-1,-3.9941573E-1,-1.2991975E-1,1.0561796E-1,-7.117978E-2,-2.5325844E-1,4.9371805E-2,1.2322538E-1,2.672231E-1],"split_indices":[60,0,5,97,20,15,61,0,0,0,0,0,0,0,0],"split_type":[0,0,0,0,0,0,0,0,0,0,0,0,0,0,0],"sum_hessian":[8.9E1,2E1,6.9E1,1.5E1,5E0,4.7E1,2.2E1,9E0,6E0,2E0,3E0,4E0,4.3E1,1.6E1,6E0],"tree_param":{"num_deleted":"0","num_feature":"100","num_nodes":"15","size_leaf_vector":"1"}},{"base_weights":[-3.425955E-3,-9.514638E-1,2.8103435E-1,-1.7600275E0,-5.1070315E-1,-4.1172054E-1,4.1717035E-1,-8.779454E-2,-3.8140824E-1,-1.0854336E-2,-1.8065935E-1,-2.0101519E-1,6.982949E-2,1.1839559E-1,-3.739906E-2],"categories":[],"categories_nodes":[],"categories_segments":[],"categories_sizes":[],"default_left":[0,0,0,0,0,0,0,0,0,0,0,0,0,0,0],"id":1,"left_children":[1,3,5,7,9,11,13,-1,-1,-1,-1,-1,-1,-1,-1],"loss_changes":[2.4538517E1,6.5851936E0,6.7733808E0,5.223503E-1,2.6388578E0,5.7685003E0,6.3418484E0,0E0,0E0,0E0,0E0,0E0,0E0,0E0,0E0],"parents":[2147483647,0,0,1,1,2,2,3,3,4,4,5,5,6,6],"right_children":[2,4,6,8,10,12,14,-1,-1,-1,-1,-1,-1,-1,-1],"split_conditions":[-7.1802324E-1,-1.1660163E0,-1.220713E-1,-4.0934202E-1,2.9486132E-1,3.6743034E-2,1.04373075E-1,-8.779454E-2,-3.8140824E-1,-1.0854336E-2,-1.8065935E-1,-2.0101519E-1,6.982949E-2,1.1839559E-1,-3.739906E-2],"split_indices":[60,38,15,0,53,67,82,0,0,0,0,0,0,0,0],"split_type":[0,0,0,0,0,0,0,0,0,0,0,0,0,0,0],"sum_hessian":[8.9E1,2E1,6.9E1,6E0,1.4E1,1.1E1,5.8E1,1E0,5E0,7E0,7E0,6E0,5E0,4.5E1,1.3E1],"tree_param":{"num_deleted":"0","num_feature":"100","num_nodes":"15","size_leaf_vector":"1"}},{"base_weights":[-1.0639707E-2,-7.926338E-1,2.241105E-1,-1.1042209E0,-1.1713713E-2,3.548298E-2,6.625517E-1,-3.540562E-1,-1.5803649E-1,9.298282E-2,-5.9069533E-2,5.1040094E-2,-1.09546684E-1,-6.341767E-2,1.5647213E-1],"categories":[],"categories_nodes":[],"categories_segments":[],"categories_sizes":[],"default_left":[0,0,0,0,0,0,0,0,0,0,0,0,0,0,0],"id":2,"left_children":[1,3,5,7,9,11,13,-1,-1,-1,-1,-1,-1,-1,-1],"loss_changes":[1.6699232E1,5.096882E0,5.7656364E0,1.7386837E0,1.0836262E0,6.5469236E0,2.7128382E0,0E0,0E0,0E0,0E0,0E0,0E0,0E0,0E0],"parents":[2147483647,0,0,1,1,2,2,3,3,4,4,5,5,6,6],"right_children":[2,4,6,8,10,12,14,-1,-1,-1,-1,-1,-1,-1,-1],"split_conditions":[-7.1802324E-1,1.4918618E-1,6.8918914E-1,-3.7699437E-1,-1.8070778E-1,5.505981E-1,-1.2843686E0,-3.540562E-1,-1.5803649E-1,9.298282E-2,-5.9069533E-2,5.1040094E-2,-1.09546684E-1,-6.341767E-2,1.5647213E-1],"split_indices":[60,19,38,47,30,20,12,0,0,0,0,0,0,0,0],"split_type":[0,0,0,0,0,0,0,0,0,0,0,0,0,0,0],"sum_hessian":[8.9E1,2E1,6.9E1,1.4E1,6E0,4.9E1,2E1,3E0,1.1E1,2E0,4E0,3.6E1,1.3E1,2E0,1.8E1],"tree_param":{"num_deleted":"0","num_feature":"100","num_nodes":"15","size_leaf_vector":"1"}},{"base_weights":[-1.3441019E-2,-9.6738505E-1,1.3163202E-1,-1.2067058E0,1.5281262E-1,3.2436144E-1,-3.2355466E-1,-9.595842E-2,-2.6569206E-1,3.733274E-2,8.511046E-3,8.7772846E-2,-4.924756E-2,-1.9178325E-1,1.0811675E-2],"categories":[],"categories_nodes":[],"categories_segments":[],"categories_sizes":[],"default_left":[0,0,0,0,0,0,0,0,0,0,0,0,0,0,0],"id":3,"left_children":[1,3,5,7,9,11,13,-1,-1,-1,-1,-1,-1,-1,-1],"loss_changes":[1.2582579E1,3.4014397E0,7.0354505E0,2.476635E-1,3.2534748E-3,3.7668366E0,5.8099375E0,0E0,0E0,0E0,0E0,0E0,0E0,0E0,0E0],"parents":[2147483647,0,0,1,1,2,2,3,3,4,4,5,5,6,6],"right_children":[2,4,6,8,10,12,14,-1,-1,-1,-1,-1,-1,-1,-1],"split_conditions":[-1.1660163E0,1.5787834E-1,1.9976872E-1,-4.0934202E-1,-1.2540265E0,3.3732775E-1,4.4716626E-2,-9.595842E-2,-2.6569206E-1,3.733274E-2,8.511046E-3,8.7772846E-2,-4.924756E-2,-1.9178325E-1,1.0811675E-2],"split_indices":[38,31,54,0,0,66,17,0,0,0,0,0,0,0,0],"split_type":[0,0,0,0,0,0,0,0,0,0,0,0,0,0,0],"sum_hessian":[8.9E1,1.1E1,7.8E1,9E0,2E0,5.5E1,2.3E1,2E0,7E0,1E0,1E0,4.6E1,9E0,8E0,1.5E1],"tree_param":{"num_deleted":"0","num_feature":"100","num_nodes":"15","size_leaf_vector":"1"}},{"base_weights":[-1.5844515E-2,-7.221682E-1,1.23769954E-1,-1.0015297E0,-1.3620432E-1,2.660596E-1,-3.8570946E-1,-2.528909E-1,-1.2310082E-1,-6.1491E-2,2.7506271E-2,1.9627312E-1,3.663776E-2,-2.3870056E-2,-1.498345E-1],"categories":[],"categories_nodes":[],"categories_segments":[],"categories_sizes":[],"default_left":[0,0,0,0,0,0,0,0,0,0,0,0,0,0,0],"id":4,"left_children":[1,3,5,7,9,11,13,-1,-1,-1,-1,-1,-1,-1,-1],"loss_changes":[8.964553E0,2.319024E0,5.612139E0,2.3668003E-1,3.2354924E-1,3.3769035E0,1.5563853E0,0E0,0E0,0E0,0E0,0E0,0E0,0E0,0E0],"parents":[2147483647,0,0,1,1,2,2,3,3,4,4,5,5,6,6],"right_children":[2,4,6,8,10,12,14,-1,-1,-1,-1,-1,-1,-1,-1],"split_conditions":[-7.558519E-1,1.5787834E-1,2.2139873E-1,-2.2169055E-1,-2.9591244E-1,-9.6720374E-1,4.7284254E-1,-2.528909E-1,-1.2310082E-1,-6.1491E-2,2.7506271E-2,1.9627312E-1,3.663776E-2,-2.3870056E-2,-1.498345E-1],"split_indices":[38,31,8,47,22,96,92,0,0,0,0,0,0,0,0],"split_type":[0,0,0,0,0,0,0,0,0,0,0,0,0,0,0],"sum_hessian":[8.9E1,1.4E1,7.5E1,9E0,5E0,5.9E1,1.6E1,4E0,5E0,3E0,2E0,5E0,5.4E1,1E1,6E0],"tree_param":{"num_deleted":"0","num_feature":"100","num_nodes":"15","size_leaf_vector":"1"}},{"base_weights":[-1.6573073E-2,-9.5840657E-1,6.211035E-2,-2.5495458E-1,-1.1166048E-1,-1.1581995E-1,3.8624555E-1,4.89167E-3,-3.8389813E-2,-9.743058E-2,1.8738672E-2,1.0552722E-1,-4.583902E-4],"categories":[],"categories_nodes":[],"categories_segments":[],"categories_sizes":[],"default_left":[0,0,0,0,0,0,0,0,0,0,0,0,0],"id":5,"left_children":[1,3,5,-1,7,9,11,-1,-1,-1,-1,-1,-1],"loss_changes":[6.7291284E0,1.732832E0,4.889307E0,0E0,3.7481118E-2,4.324599E0,1.6492748E0,0E0,0E0,0E0,0E0,0E0,0E0],"parents":[2147483647,0,0,1,1,2,2,4,4,5,5,6,6],"right_children":[2,4,6,-1,8,10,12,-1,-1,-1,-1,-1,-1],"split_conditions":[-1.0602164E-1,3.9203203E-1,4.5969152E-1,-2.5495458E-1,6.044076E-1,-2.8099295E-1,1.3683668E-1,4.89167E-3,-3.8389813E-2,-9.743058E-2,1.8738672E-2,1.0552722E-1,-4.583902E-4],"split_indices":[6,7,5,0,0,38,67,0,0,0,0,0,0],"split_type":[0,0,0,0,0,0,0,0,0,0,0,0,0],"sum_hessian":[8.9E1,6E0,8.3E1,4E0,2E0,5.4E1,2.9E1,1E0,1E0,1.9E1,3.5E1,2.1E1,8E0],"tree_param":{"num_deleted":"0","num_feature":"100","num_nodes":"13","size_leaf_vector":"1"}},{"base_weights":[-1.6170414E-2,-4.4772542E-1,1.1352709E-1,-6.014299E-1,3.6774155E-2,2.390032E-1,-2.1211334E-1,-2.0066953E-1,-8.6299814E-2,5.5712637E-2,-3.075223E-2,1.8483482E-1,3.2205503E-2,-1.394947E-1,-9.436242E-3],"categories":[],"categories_nodes":[],"categories_segments":[],"categories_sizes":[],"default_left":[0,0,0,0,0,0,0,0,0,0,0,0,0,0,0],"id":6,"left_children":[1,3,5,7,9,11,13,-1,-1,-1,-1,-1,-1,-1,-1],"loss_changes":[5.088273E0,1.5859823E0,2.9109023E0,6.598277E-1,3.1924826E-1,2.575943E0,1.568122E0,0E0,0E0,0E0,0E0,0E0,0E0,0E0,0E0],"parents":[2147483647,0,0,1,1,2,2,3,3,4,4,5,5,6,6],"right_children":[2,4,6,8,10,12,14,-1,-1,-1,-1,-1,-1,-1,-1],"split_conditions":[-7.1802324E-1,7.559999E-1,2.627587E-1,-3.7699437E-1,3.2022562E-2,-5.8764756E-1,-7.7857006E-1,-2.0066953E-1,-8.6299814E-2,5.5712637E-2,-3.075223E-2,1.8483482E-1,3.2205503E-2,-1.394947E-1,-9.436242E-3],"split_indices":[60,0,14,47,20,58,83,0,0,0,0,0,0,0,0],"split_type":[0,0,0,0,0,0,0,0,0,0,0,0,0,0,0],"sum_hessian":[8.9E1,2E1,6.9E1,1.5E1,5E0,5E1,1.9E1,3E0,1.2E1,2E0,3E0,4E0,4.6E1,4E0,1.5E1],"tree_param":{"num_deleted":"0","num_feature":"100","num_nodes":"15","size_leaf_vector":"1"}},{"base_weights":[-1.5090767E-2,-2.3378372E-1,2.441576E-2,-1.0876189E-1,2.991138E-1,-3.9347745E-2,6.0204048E-2,1.2669018E-1,2.8316597E-2],"categories":[],"categories_nodes":[],"categories_segments":[],"categories_sizes":[],"default_left":[0,0,0,0,0,0,0,0,0],"id":7,"left_children":[1,-1,3,5,7,-1,-1,-1,-1],"loss_changes":[4.1310754E0,0E0,3.2518926E0,2.2223022E0,1.4376979E0,0E0,0E0,0E0,0E0],"parents":[2147483647,0,0,2,2,3,3,4,4],"right_children":[2,-1,4,6,8,-1,-1,-1,-1],"split_conditions":[-2.359161E0,-2.3378372E-1,5.79887E-1,7.7889824E-1,-8.220075E-2,-3.9347745E-2,6.0204048E-2,1.2669018E-1,2.8316597E-2],"split_indices":[13,0,25,76,80,0,0,0,0],"split_type":[0,0,0,0,0,0,0,0,0],"sum_hessian":[8.9E1,2E0,8.7E1,5.9E1,2.8E1,4.9E1,1E1,8E0,2E1],"tree_param":{"num_deleted":"0","num_feature":"100","num_nodes":"9","size_leaf_vector":"1"}},{"base_weights":[-1.271617E-2,-2.7120993E-1,1.2769936E-1,-8.067936E-1,-1.4214651E-1,2.27737E-1,-2.1011715E-1,-1.8603139E-1,-1.8997703E-2,-6.802889E-2,3.535454E-2,2.463866E-2,1.02735616E-1,-6.1077334E-2,4.489064E-3],"categories":[],"categories_nodes":[],"categories_segments":[],"categories_sizes":[],"default_left":[0,0,0,0,0,0,0,0,0,0,0,0,0,0,0],"id":8,"left_children":[1,3,5,7,9,11,13,-1,-1,-1,-1,-1,-1,-1,-1],"loss_changes":[3.3013215E0,2.0972927E0,2.0417192E0,4.385097E-1,1.7650528E0,1.3118117E0,3.170401E-1,0E0,0E0,0E0,0E0,0E0,0E0,0E0,0E0],"parents":[2147483647,0,0,1,1,2,2,3,3,4,4,5,5,6,6],"right_children":[2,4,6,8,10,12,14,-1,-1,-1,-1,-1,-1,-1,-1],"split_conditions":[6.515537E-2,-5.3125054E-1,3.7067097E-1,7.176639E-1,7.801327E-2,5.3905606E-1,5.407562E-1,-1.8603139E-1,-1.8997703E-2,-6.802889E-2,3.535454E-2,2.463866E-2,1.02735616E-1,-6.1077334E-2,4.489064E-3],"split_indices":[17,9,73,1,63,64,96,0,0,0,0,0,0,0,0],"split_type":[0,0,0,0,0,0,0,0,0,0,0,0,0,0,0],"sum_hessian":[8.9E1,3.1E1,5.8E1,5E0,2.6E1,4.5E1,1.3E1,4E0,1E0,1.6E1,1E1,3.4E1,1.1E1,9E0,4E0],"tree_param":{"num_deleted":"0","num_feature":"100","num_nodes":"15","size_leaf_vector":"1"}},{"base_weights":[-1.2027576E-2,-5.985198E-1,3.698996E-2,-1.7629497E-1,-1.6593477E-1,-4.5914672E-2,2.8789026E-1,2.6528598E-3,-4.6017848E-2,-2.5477538E-2,6.355015E-2,1.1417051E-1,1.3969585E-2],"categories":[],"categories_nodes":[],"categories_segments":[],"categories_sizes":[],"default_left":[0,0,0,0,0,0,0,0,0,0,0,0,0],"id":9,"left_children":[1,3,5,-1,7,9,11,-1,-1,-1,-1,-1,-1],"loss_changes":[2.6094954E0,7.1054745E-1,1.7604854E0,0E0,4.903765E-2,1.9367285E0,1.2557799E0,0E0,0E0,0E0,0E0,0E0,0E0],"parents":[2147483647,0,0,1,1,2,2,4,4,5,5,6,6],"right_children":[2,4,6,-1,8,10,12,-1,-1,-1,-1,-1,-1],"split_conditions":[-1.0602164E-1,2.6348585E-1,6.8918914E-1,-1.7629497E-1,6.044076E-1,6.021825E-1,-3.2079998E-1,2.6528598E-3,-4.6017848E-2,-2.5477538E-2,6.355015E-2,1.1417051E-1,1.3969585E-2],"split_indices":[6,0,38,0,0,58,97,0,0,0,0,0,0],"split_type":[0,0,0,0,0,0,0,0,0,0,0,0,0],"sum_hessian":[8.9E1,6E0,8.3E1,3E0,3E0,6.3E1,2E1,1E0,2E0,5.2E1,1.1E1,8E0,1.2E1],"tree_param":{"num_deleted":"0","num_feature":"100","num_nodes":"13","size_leaf_vector":"1"}},{"base_weights":[-1.0215921E-2,-3.4431437E-1,5.585898E-2,-4.3564537E-1,1.662248E-1,-2.1303402E-1,1.3694736E-1,-4.0693786E-2,-1.110644E-1,4.175399E-2,8.1134485E-3,-5.1560053E-3,-7.2051845E-2,9.61255E-2,9.634855E-3],"categories":[],"categories_nodes":[],"categories_segments":[],"categories_sizes":[],"default_left":[0,0,0,0,0,0,0,0,0,0,0,0,0,0,0],"id":10,"left_children":[1,3,5,7,9,11,13,-1,-1,-1,-1,-1,-1,-1,-1],"loss_changes":[2.00603E0,7.718357E-1,1.686286E0,2.4822855E-1,7.5691417E-3,4.8694563E-1,1.7769092E0,0E0,0E0,0E0,0E0,0E0,0E0,0E0,0E0],"parents":[2147483647,0,0,1,1,2,2,3,3,4,4,5,5,6,6],"right_children":[2,4,6,8,10,12,14,-1,-1,-1,-1,-1,-1,-1,-1],"split_conditions":[-7.558519E-1,7.974036E-1,5.3248998E-2,3.2822557E-2,-1.2540265E0,2.0966306E-1,-4.3751773E-1,-4.0693786E-2,-1.110644E-1,4.175399E-2,8.1134485E-3,-5.1560053E-3,-7.2051845E-2,9.61255E-2,9.634855E-3],"split_indices":[38,34,59,75,0,54,53,0,0,0,0,0,0,0,0],"split_type":[0,0,0,0,0,0,0,0,0,0,0,0,0,0,0],"sum_hessian":[8.9E1,1.4E1,7.5E1,1.2E1,2E0,1.7E1,5.8E1,5E0,7E0,1E0,1E0,8E0,9E0,1.1E1,4.7E1],"tree_param":{"num_deleted":"0","num_feature":"100","num_nodes":"15","size_leaf_vector":"1"}},{"base_weights":[-8.987605E-3,-4.6912792E-1,2.9464418E-2,-1.3075128E-1,-3.3443496E-2,-3.8549566E-1,6.632668E-2,-8.352588E-2,-1.9269321E-2,1.4815547E-3,6.2658444E-2],"categories":[],"categories_nodes":[],"categories_segments":[],"categories_sizes":[],"default_left":[0,0,0,0,0,0,0,0,0,0,0],"id":11,"left_children":[1,3,5,-1,-1,7,9,-1,-1,-1,-1],"loss_changes":[1.6062219E0,2.8086925E-1,1.3104633E0,0E0,0E0,2.4802923E-2,1.1326525E0,0E0,0E0,0E0,0E0],"parents":[2147483647,0,0,1,1,2,2,5,5,6,6],"right_children":[2,4,6,-1,-1,8,10,-1,-1,-1,-1],"split_conditions":[-1.5943077E0,7.537038E-2,-1.5142758E-1,-1.3075128E-1,-3.3443496E-2,6.7442614E-1,6.1639786E-1,-8.352588E-2,-1.9269321E-2,1.4815547E-3,6.2658444E-2],"split_indices":[37,6,50,0,0,0,34,0,0,0,0],"split_type":[0,0,0,0,0,0,0,0,0,0,0],"sum_hessian":[8.9E1,6E0,8.3E1,3E0,3E0,6E0,7.7E1,5E0,1E0,6.3E1,1.4E1],"tree_param":{"num_deleted":"0","num_feature":"100","num_nodes":"11","size_leaf_vector":"1"}},{"base_weights":[-9.443959E-3,4.4933196E-2,-2.8432527E-1,-6.9861785E-2,1.8140337E-1,-4.947624E-1,-8.906028E-2,-2.6211942E-2,1.0885667E-1,1.6645214E-2,1.0046971E-1,-1.1288297E-1,-7.6847496E-3,-3.4110483E-2,1.1088599E-2],"categories":[],"categories_nodes":[],"categories_segments":[],"categories_sizes":[],"default_left":[0,0,0,0,0,0,0,0,0,0,0,0,0,0,0],"id":12,"left_children":[1,3,5,7,9,11,13,-1,-1,-1,-1,-1,-1,-1,-1],"loss_changes":[1.3580295E0,1.2032962E0,5.723014E-1,1.6498784E0,1.061025E0,2.00809E-1,1.1543887E-1,0E0,0E0,0E0,0E0,0E0,0E0,0E0,0E0],"parents":[2147483647,0,0,1,1,2,2,3,3,4,4,5,5,6,6],"right_children":[2,4,6,8,10,12,14,-1,-1,-1,-1,-1,-1,-1,-1],"split_conditions":[8.238053E-1,1.475246E-1,-7.938117E-2,5.6359863E-1,5.816463E-1,4.7946122E-1,-2.0502692E-1,-2.6211942E-2,1.0885667E-1,1.6645214E-2,1.0046971E-1,-1.1288297E-1,-7.6847496E-3,-3.4110483E-2,1.1088599E-2],"split_indices":[67,76,94,33,42,5,57,0,0,0,0,0,0,0,0],"split_type":[0,0,0,0,0,0,0,0,0,0,0,0,0,0,0],"sum_hessian":[8.9E1,7.5E1,1.4E1,4.1E1,3.4E1,6E0,8E0,3.8E1,3E0,2.7E1,7E0,5E0,1E0,5E0,3E0],"tree_param":{"num_deleted":"0","num_feature":"100","num_nodes":"15","size_leaf_vector":"1"}},{"base_weights":[-6.9310493E-3,-4.0119353E-1,2.6006669E-2,-1.15825914E-1,-1.2295913E-1,4.1477485E-3,9.242963E-2,-2.2205652E-3,-3.1308725E-2,-2.9824976E-2,1.3499878E-2],"categories":[],"categories_nodes":[],"categories_segments":[],"categories_sizes":[],"default_left":[0,0,0,0,0,0,0,0,0,0,0],"id":13,"left_children":[1,3,5,-1,7,9,-1,-1,-1,-1,-1],"loss_changes":[1.1791832E0,2.7534628E-1,7.9890406E-1,0E0,1.3288476E-2,7.9658175E-1,0E0,0E0,0E0,0E0,0E0],"parents":[2147483647,0,0,1,1,2,2,4,4,5,5],"right_children":[2,4,6,-1,8,10,-1,-1,-1,-1,-1],"split_conditions":[-1.0602164E-1,2.6348585E-1,1.4157249E0,-1.15825914E-1,6.044076E-1,-2.8099295E-1,9.242963E-2,-2.2205652E-3,-3.1308725E-2,-2.9824976E-2,1.3499878E-2],"split_indices":[6,0,77,0,0,38,0,0,0,0,0],"split_type":[0,0,0,0,0,0,0,0,0,0,0],"sum_hessian":[8.9E1,6E0,8.3E1,3E0,3E0,8E1,3E0,1E0,2E0,2.3E1,5.7E1],"tree_param":{"num_deleted":"0","num_feature":"100","num_nodes":"11","size_leaf_vector":"1"}},{"base_weights":[-6.3587273E-3,3.8327705E-2,-2.3234606E-1,-1.8035658E-1,9.0617E-2,-3.9994082E-1,-7.6178364E-2,-4.42151E-2,-1.0940727E-2,-1.5138813E-4,4.911767E-2,-9.05641E-2,-8.266258E-3,-2.3446372E-2,2.522496E-2],"categories":[],"categories_nodes":[],"categories_segments":[],"categories_sizes":[],"default_left":[0,0,0,0,0,0,0,0,0,0,0,0,0,0,0],"id":14,"left_children":[1,3,5,7,9,11,13,-1,-1,-1,-1,-1,-1,-1,-1],"loss_changes":[9.177764E-1,8.8539183E-1,3.6212653E-1,6.465313E-2,8.781271E-1,1.1402643E-1,8.953312E-2,0E0,0E0,0E0,0E0,0E0,0E0,0E0,0E0],"parents":[2147483647,0,0,1,1,2,2,3,3,4,4,5,5,6,6],"right_children":[2,4,6,8,10,12,14,-1,-1,-1,-1,-1,-1,-1,-1],"split_conditions":[8.238053E-1,-5.748079E-1,-7.938117E-2,9.874664E-1,3.4471384E-1,4.7946122E-1,1.6600913E0,-4.42151E-2,-1.0940727E-2,-1.5138813E-4,4.911767E-2,-9.05641E-2,-8.266258E-3,-2.3446372E-2,2.522496E-2],"split_indices":[67,59,94,66,0,5,1,0,0,0,0,0,0,0,0],"split_type":[0,0,0,0,0,0,0,0,0,0,0,0,0,0,0],"sum_hessian":[8.9E1,7.5E1,1.4E1,1.4E1,6.1E1,6E0,8E0,1E1,4E0,3.9E1,2.2E1,5E0,1E0,7E0,1E0],"tree_param":{"num_deleted":"0","num_feature":"100","num_nodes":"15","size_leaf_vector":"1"}},{"base_weights":[-6.2341103E-3,-3.4709964E-2,2.8998214E-1,-1.9325358E-1,1.8688861E-2,4.721886E-2,8.523926E-2,-4.8865568E-2,1.6978793E-2,7.437541E-2,-2.3118209E-3,-1.7864335E-2,2.4501253E-2],"categories":[],"categories_nodes":[],"categories_segments":[],"categories_sizes":[],"default_left":[0,0,0,0,0,0,0,0,0,0,0,0,0],"id":15,"left_children":[1,3,5,7,9,11,-1,-1,-1,-1,-1,-1,-1],"loss_changes":[7.692161E-1,7.062932E-1,2.444179E-1,3.190717E-1,6.773417E-1,5.206159E-2,0E0,0E0,0E0,0E0,0E0,0E0,0E0],"parents":[2147483647,0,0,1,1,2,2,3,3,4,4,5,5],"right_children":[2,4,6,8,10,12,-1,-1,-1,-1,-1,-1,-1],"split_conditions":[7.207306E-1,-5.161393E-1,-3.9598435E-1,1.1166743E0,-3.8868973E-1,2.7571163E-1,8.523926E-2,-4.8865568E-2,1.6978793E-2,7.437541E-2,-2.3118209E-3,-1.7864335E-2,2.4501253E-2],"split_indices":[35,38,42,62,94,0,0,0,0,0,0,0,0],"split_type":[0,0,0,0,0,0,0,0,0,0,0,0,0],"sum_hessian":[8.9E1,8.2E1,7E0,2E1,6.2E1,3E0,4E0,1.7E1,3E0,4E0,5.8E1,1E0,2E0],"tree_param":{"num_deleted":"0","num_feature":"100","num_nodes":"13","size_leaf_vector":"1"}},{"base_weights":[-3.52003E-3,-3.0876732E-1,2.195915E-2,-8.903104E-2,-1.9037524E-2,2.7898237E-1,-1.3885631E-3,6.957487E-2,1.4233656E-2,-4.0025905E-2,7.5556845E-3],"categories":[],"categories_nodes":[],"categories_segments":[],"categories_sizes":[],"default_left":[0,0,0,0,0,0,0,0,0,0,0],"id":16,"left_children":[1,3,5,-1,-1,7,9,-1,-1,-1,-1],"loss_changes":[7.0675087E-1,1.6153449E-1,5.044633E-1,0E0,0E0,7.545942E-2,6.1471915E-1,0E0,0E0,0E0,0E0],"parents":[2147483647,0,0,1,1,2,2,5,5,6,6],"right_children":[2,4,6,-1,-1,8,10,-1,-1,-1,-1],"split_conditions":[-1.0602164E-1,2.6348585E-1,-9.6720374E-1,-8.903104E-2,-1.9037524E-2,6.456925E-1,-2.833527E-1,6.957487E-2,1.4233656E-2,-4.0025905E-2,7.5556845E-3],"split_indices":[6,0,96,0,0,9,96,0,0,0,0],"split_type":[0,0,0,0,0,0,0,0,0,0,0],"sum_hessian":[8.9E1,6E0,8.3E1,3E0,3E0,6E0,7.7E1,4E0,2E0,1.2E1,6.5E1],"tree_param":{"num_deleted":"0","num_feature":"100","num_nodes":"11","size_leaf_vector":"1"}},{"base_weights":[-3.4463676E-3,-1.5945387E-1,3.2439765E-2,-2.5264537E-1,1.1473481E-1,-2.846164E-2,1.5294498E-1,-7.139101E-2,-2.8566493E-2,2.8137127E-3,3.543123E-2,1.693397E-2,-2.0106316E-2,4.38654E-2,-1.8763853E-2],"categories":[],"categories_nodes":[],"categories_segments":[],"categories_sizes":[],"default_left":[0,0,0,0,0,0,0,0,0,0,0,0,0,0,0],"id":17,"left_children":[1,3,5,7,9,11,13,-1,-1,-1,-1,-1,-1,-1,-1],"loss_changes":[5.0903815E-1,4.633722E-1,5.474344E-1,9.792429E-2,2.8926276E-2,4.1618097E-1,4.3009484E-1,0E0,0E0,0E0,0E0,0E0,0E0,0E0,0E0],"parents":[2147483647,0,0,1,1,2,2,3,3,4,4,5,5,6,6],"right_children":[2,4,6,8,10,12,14,-1,-1,-1,-1,-1,-1,-1,-1],"split_conditions":[-1.0079267E-1,4.639456E-1,3.322868E-1,-5.9432074E-2,-1.0641006E0,3.3106895E-3,1.3169628E-1,-7.139101E-2,-2.8566493E-2,2.8137127E-3,3.543123E-2,1.693397E-2,-2.0106316E-2,4.38654E-2,-1.8763853E-2],"split_indices":[33,76,9,17,2,20,54,0,0,0,0,0,0,0,0],"split_type":[0,0,0,0,0,0,0,0,0,0,0,0,0,0,0],"sum_hessian":[8.9E1,1.6E1,7.3E1,1.2E1,4E0,4.9E1,2.4E1,5E0,7E0,2E0,2E0,1.9E1,3E1,1.9E1,5E0],"tree_param":{"num_deleted":"0","num_feature":"100","num_nodes":"15","size_leaf_vector":"1"}},{"base_weights":[-3.199132E-3,-1.2585834E-1,3.5955966E-2,9.585748E-2,-1.9670755E-1,-1.5827656E-2,1.6361722E-1,4.072017E-2,-1.7828823E-3,-7.2892845E-2,-2.6945308E-2,-1.35806305E-2,2.4586199E-2,8.279646E-3,6.167924E-2],"categories":[],"categories_nodes":[],"categories_segments":[],"categories_sizes":[],"default_left":[0,0,0,0,0,0,0,0,0,0,0,0,0,0,0],"id":18,"left_children":[1,3,5,7,9,11,13,-1,-1,-1,-1,-1,-1,-1,-1],"loss_changes":[4.367714E-1,3.6444047E-1,4.587323E-1,6.9545835E-2,1.2765843E-1,3.6964366E-1,3.4112775E-1,0E0,0E0,0E0,0E0,0E0,0E0,0E0,0E0],"parents":[2147483647,0,0,1,1,2,2,3,3,4,4,5,5,6,6],"right_children":[2,4,6,8,10,12,14,-1,-1,-1,-1,-1,-1,-1,-1],"split_conditions":[-3.1546077E-1,-3.0952665E-1,3.4471384E-1,-1.00231186E-1,-1.6699609E-1,3.7369E-1,3.5612372E-1,4.072017E-2,-1.7828823E-3,-7.2892845E-2,-2.6945308E-2,-1.35806305E-2,2.4586199E-2,8.279646E-3,6.167924E-2],"split_indices":[39,67,0,4,17,76,47,0,0,0,0,0,0,0,0],"split_type":[0,0,0,0,0,0,0,0,0,0,0,0,0,0,0],"sum_hessian":[8.9E1,2.1E1,6.8E1,5E0,1.6E1,4.9E1,1.9E1,2E0,3E0,3E0,1.3E1,3.6E1,1.3E1,1.1E1,8E0],"tree_param":{"num_deleted":"0","num_feature":"100","num_nodes":"15","size_leaf_vector":"1"}},{"base_weights":[-2.3363715E-3,-2.2138312E-2,2.034008E-1,-1.9270636E-1,1.2105912E-3,1.8759787E-2,6.208669E-2,-5.7463795E-3,-5.1775314E-2,3.5786722E-3,-4.651806E-2,-1.3464773E-2,1.3979125E-2],"categories":[],"categories_nodes":[],"categories_segments":[],"categories_sizes":[],"default_left":[0,0,0,0,0,0,0,0,0,0,0,0,0],"id":19,"left_children":[1,3,5,7,9,11,-1,-1,-1,-1,-1,-1,-1],"loss_changes":[3.7116253E-1,3.3078715E-1,1.5227726E-1,1.01064265E-1,2.9279485E-1,2.2313481E-2,0E0,0E0,0E0,0E0,0E0,0E0,0E0],"parents":[2147483647,0,0,1,1,2,2,3,3,4,4,5,5],"right_children":[2,4,6,8,10,12,-1,-1,-1,-1,-1,-1,-1],"split_conditions":[7.207306E-1,-1.3105602E0,-3.9598435E-1,-1.9952554E-1,1.557096E0,2.7571163E-1,6.208669E-2,-5.7463795E-3,-5.1775314E-2,3.5786722E-3,-4.651806E-2,-1.3464773E-2,1.3979125E-2],"split_indices":[35,37,42,96,37,0,0,0,0,0,0,0,0],"split_type":[0,0,0,0,0,0,0,0,0,0,0,0,0],"sum_hessian":[8.9E1,8.2E1,7E0,9E0,7.3E1,3E0,4E0,3E0,6E0,6.9E1,4E0,1E0,2E0],"tree_param":{"num_deleted":"0","num_feature":"100","num_nodes":"13","size_leaf_vector":"1"}},{"base_weights":[-2.2897564E-3,-8.154594E-2,4.073546E-2,1.7804816E-1,-1.145401E-1,8.016496E-2,-9.1728285E-2,5.2117284E-2,-6.956655E-3,-3.70734E-2,2.490518E-4,5.02977E-3,4.0823944E-2,-4.9691405E-3,-2.5224928E-2],"categories":[],"categories_nodes":[],"categories_segments":[],"categories_sizes":[],"default_left":[0,0,0,0,0,0,0,0,0,0,0,0,0,0,0],"id":20,"left_children":[1,3,5,7,9,11,13,-1,-1,-1,-1,-1,-1,-1,-1],"loss_changes":[3.1022313E-1,2.9447648E-1,3.1550917E-1,7.933098E-2,2.3805165E-1,3.08564E-1,2.9073581E-2,0E0,0E0,0E0,0E0,0E0,0E0,0E0,0E0],"parents":[2147483647,0,0,1,1,2,2,3,3,4,4,5,5,6,6],"right_children":[2,4,6,8,10,12,14,-1,-1,-1,-1,-1,-1,-1,-1],"split_conditions":[6.515537E-2,-1.6482604E0,3.7067097E-1,3.904633E-1,3.766678E-1,3.7369E-1,1.2171585E-1,5.2117284E-2,-6.956655E-3,-3.70734E-2,2.490518E-4,5.02977E-3,4.0823944E-2,-4.9691405E-3,-2.5224928E-2],"split_indices":[17,21,73,4,30,76,47,0,0,0,0,0,0,0,0],"split_type":[0,0,0,0,0,0,0,0,0,0,0,0,0,0,0],"sum_hessian":[8.9E1,3.1E1,5.8E1,3E0,2.8E1,4.5E1,1.3E1,2E0,1E0,1.7E1,1.1E1,3.2E1,1.3E1,5E0,8E0],"tree_param":{"num_deleted":"0","num_feature":"100","num_nodes":"15","size_leaf_vector":"1"}},{"base_weights":[-1.565191E-3,2.6232805E-2,-1.0682259E-1,-3.266219E-2,1.2560084E-1,-1.7068452E-1,2.3231283E-3,-1.8940115E-2,1.2096372E-2,3.4960706E-2,-7.990038E-3,-1.7935736E-2,-5.3231396E-2,-8.397857E-3,7.4616866E-3],"categories":[],"categories_nodes":[],"categories_segments":[],"categories_sizes":[],"default_left":[0,0,0,0,0,0,0,0,0,0,0,0,0,0,0],"id":21,"left_children":[1,3,5,7,9,11,13,-1,-1,-1,-1,-1,-1,-1,-1],"loss_changes":[2.661373E-1,4.254666E-1,1.3283136E-1,2.7153894E-1,2.2691345E-1,6.893733E-2,1.3968819E-2,0E0,0E0,0E0,0E0,0E0,0E0,0E0,0E0],"parents":[2147483647,0,0,1,1,2,2,3,3,4,4,5,5,6,6],"right_children":[2,4,6,8,10,12,14,-1,-1,-1,-1,-1,-1,-1,-1],"split_conditions":[1.2938866E-1,2.2791478E-1,3.2753217E-1,1.7789042E-1,1.9466485E-1,5.642552E-2,-1.0810257E-1,-1.8940115E-2,1.2096372E-2,3.4960706E-2,-7.990038E-3,-1.7935736E-2,-5.3231396E-2,-8.397857E-3,7.4616866E-3],"split_indices":[86,10,35,31,49,78,1,0,0,0,0,0,0,0,0],"split_type":[0,0,0,0,0,0,0,0,0,0,0,0,0,0,0],"sum_hessian":[8.9E1,7.1E1,1.8E1,4.5E1,2.6E1,1.1E1,7E0,2.7E1,1.8E1,2E1,6E0,7E0,4E0,3E0,4E0],"tree_param":{"num_deleted":"0","num_feature":"100","num_nodes":"15","size_leaf_vector":"1"}},{"base_weights":[-1.8296763E-3,-1.1525491E-1,1.8816855E-2,-4.324827E-2,-2.0405571E-1,2.5552087E-3,1.8106829E-1,-1.13796545E-2,-2.3922415E-3,-1.3334974E-2,-5.121548E-2,5.4635197E-2,-1.8495889E-3,1.1170848E-2,4.3996613E-2],"categories":[],"categories_nodes":[],"categories_segments":[],"categories_sizes":[],"default_left":[0,0,0,0,0,0,0,0,0,0,0,0,0,0,0],"id":22,"left_children":[1,3,5,7,9,11,13,-1,-1,-1,-1,-1,-1,-1,-1],"loss_changes":[2.129341E-1,8.069441E-2,2.0269993E-1,3.1630434E-3,2.5806785E-2,2.2931299E-1,2.1821722E-2,0E0,0E0,0E0,0E0,0E0,0E0,0E0,0E0],"parents":[2147483647,0,0,1,1,2,2,3,3,4,4,5,5,6,6],"right_children":[2,4,6,8,10,12,14,-1,-1,-1,-1,-1,-1,-1,-1],"split_conditions":[6.643611E-2,3.5358185E-3,7.207306E-1,3.6418915E-1,-1.7063978E-1,8.043702E-2,-2.7197894E-1,-1.13796545E-2,-2.3922415E-3,-1.3334974E-2,-5.121548E-2,5.4635197E-2,-1.8495889E-3,1.1170848E-2,4.3996613E-2],"split_indices":[7,62,35,37,12,7,21,0,0,0,0,0,0,0,0],"split_type":[0,0,0,0,0,0,0,0,0,0,0,0,0,0,0],"sum_hessian":[8.9E1,1.3E1,7.6E1,8E0,5E0,7E1,6E0,5E0,3E0,2E0,3E0,2E0,6.8E1,2E0,4E0],"tree_param":{"num_deleted":"0","num_feature":"100","num_nodes":"15","size_leaf_vector":"1"}},{"base_weights":[-1.1345234E-3,-1.09653816E-1,1.696657E-2,1.3279803E-1,-1.9566917E-1,8.965112E-2,-9.642776E-3,1.0739624E-3,3.4696832E-2,-5.0647046E-2,-9.202257E-3,4.0482562E-2,3.7624438E-3,-5.7601156E-3,2.273871E-2],"categories":[],"categories_nodes":[],"categories_segments":[],"categories_sizes":[],"default_left":[0,0,0,0,0,0,0,0,0,0,0,0,0,0,0],"id":23,"left_children":[1,3,5,7,9,11,13,-1,-1,-1,-1,-1,-1,-1,-1],"loss_changes":[1.7864907E-1,2.9709405E-1,1.5172338E-1,1.9806668E-2,7.450047E-2,1.6393837E-1,1.403199E-1,0E0,0E0,0E0,0E0,0E0,0E0,0E0,0E0],"parents":[2147483647,0,0,1,1,2,2,3,3,4,4,5,5,6,6],"right_children":[2,4,6,8,10,12,14,-1,-1,-1,-1,-1,-1,-1,-1],"split_conditions":[-1.6699609E-1,-4.2083272E-1,-3.0408528E-1,-1.1280621E0,1.5403472E-1,2.397995E-2,7.859778E-1,1.0739624E-3,3.4696832E-2,-5.0647046E-2,-9.202257E-3,4.0482562E-2,3.7624438E-3,-5.7601156E-3,2.273871E-2],"split_indices":[17,61,20,0,77,16,40,0,0,0,0,0,0,0,0],"split_type":[0,0,0,0,0,0,0,0,0,0,0,0,0,0,0],"sum_hessian":[8.9E1,1.2E1,7.7E1,3E0,9E0,2E1,5.7E1,1E0,2E0,6E0,3E0,7E0,1.3E1,5E1,7E0],"tree_param":{"num_deleted":"0","num_feature":"100","num_nodes":"15","size_leaf_vector":"1"}},{"base_weights":[-4.9490214E-4,-9.851176E-2,1.5847586E-2,-3.7516195E-2,-5.3032905E-2,-1.5119642E-2,1.0640853E-1,-1.2966751E-2,-7.7726843E-4,3.2383453E-2,-5.4990286E-3,-1.8712943E-2,2.9440347E-2],"categories":[],"categories_nodes":[],"categories_segments":[],"categories_sizes":[],"default_left":[0,0,0,0,0,0,0,0,0,0,0,0,0],"id":24,"left_children":[1,3,5,-1,7,9,11,-1,-1,-1,-1,-1,-1],"loss_changes":[1.4572674E-1,4.2712003E-2,2.2035374E-1,0E0,5.547745E-3,1.3371624E-1,1.7692386E-1,0E0,0E0,0E0,0E0,0E0,0E0],"parents":[2147483647,0,0,1,1,2,2,4,4,5,5,6,6],"right_children":[2,4,6,-1,8,10,12,-1,-1,-1,-1,-1,-1],"split_conditions":[-2.037314E-1,-2.8286916E-1,6.0515165E-1,-3.7516195E-2,-3.0384487E-1,-4.578996E-1,-2.2793004E-1,-1.2966751E-2,-7.7726843E-4,3.2383453E-2,-5.4990286E-3,-1.8712943E-2,2.9440347E-2],"split_indices":[31,47,2,0,25,95,23,0,0,0,0,0,0],"split_type":[0,0,0,0,0,0,0,0,0,0,0,0,0],"sum_hessian":[8.9E1,1.2E1,7.7E1,3E0,9E0,5.8E1,1.9E1,7E0,2E0,3E0,5.5E1,3E0,1.6E1],"tree_param":{"num_deleted":"0","num_feature":"100","num_nodes":"13","size_leaf_vector":"1"}},{"base_weights":[-5.4758275E-4,-4.2068996E-2,6.6108233E-3,-8.270225E-2,2.3194453E-2,-5.571214E-3,-3.0237565E-2,-2.281713E-2,6.925994E-3],"categories":[],"categories_nodes":[],"categories_segments":[],"categories_sizes":[],"default_left":[0,0,0,0,0,0,0,0,0],"id":25,"left_children":[1,-1,3,5,7,-1,-1,-1,-1],"loss_changes":[1.365539E-1,0E0,1.3225812E-1,4.8374906E-2,1.21690944E-1,0E0,0E0,0E0,0E0],"parents":[2147483647,0,0,2,2,3,3,4,4],"right_children":[2,-1,4,6,8,-1,-1,-1,-1],"split_conditions":[-1.2997459E0,-4.2068996E-2,6.643611E-2,3.5358185E-3,-1.1407225E0,-5.571214E-3,-3.0237565E-2,-2.281713E-2,6.925994E-3],"split_indices":[47,0,7,62,30,0,0,0,0],"split_type":[0,0,0,0,0,0,0,0,0],"sum_hessian":[8.9E1,2E0,8.7E1,1.3E1,7.4E1,8E0,5E0,5E0,6.9E1],"tree_param":{"num_deleted":"0","num_feature":"100","num_nodes":"9","size_leaf_vector":"1"}},{"base_weights":[-1.4799319E-3,-8.862713E-3,3.189311E-2,3.6574636E-2,-1.5525595E-2,-2.3225466E-2,1.9960082E-4],"categories":[],"categories_nodes":[],"categories_segments":[],"categories_sizes":[],"default_left":[0,0,0,0,0,0,0],"id":26,"left_children":[1,3,-1,-1,5,-1,-1],"loss_changes":[1.0835358E-1,1.13982886E-1,0E0,0E0,1.414116E-1,0E0,0E0],"parents":[2147483647,0,0,1,1,4,4],"right_children":[2,4,-1,-1,6,-1,-1],"split_conditions":[1.4157249E0,-1.696416E0,3.189311E-2,3.6574636E-2,-1.6699609E-1,-2.3225466E-2,1.9960082E-4],"split_indices":[77,77,0,0,17,0,0],"split_type":[0,0,0,0,0,0,0],"sum_hessian":[8.9E1,8.6E1,3E0,2E0,8.4E1,1.1E1,7.3E1],"tree_param":{"num_deleted":"0","num_feature":"100","num_nodes":"7","size_leaf_vector":"1"}},{"base_weights":[-6.7901745E-4,5.4644592E-2,-2.1624641E-2,1.7671132E-1,1.5292343E-2,8.701363E-2,-3.5988737E-2,9.054136E-3,3.8789064E-2,-6.2467116E-3,2.1231905E-2,2.7955985E-2,-1.3952776E-4,-1.9901834E-2,-1.1349325E-3],"categories":[],"categories_nodes":[],"categories_segments":[],"categories_sizes":[],"default_left":[0,0,0,0,0,0,0,0,0,0,0,0,0,0,0],"id":27,"left_children":[1,3,5,7,9,11,13,-1,-1,-1,-1,-1,-1,-1,-1],"loss_changes":[1.0547256E-1,1.17387675E-1,1.06123894E-1,4.811436E-3,8.786929E-2,3.7123103E-2,1.1304353E-1,0E0,0E0,0E0,0E0,0E0,0E0,0E0,0E0],"parents":[2147483647,0,0,1,1,2,2,3,3,4,4,5,5,6,6],"right_children":[2,4,6,8,10,12,14,-1,-1,-1,-1,-1,-1,-1,-1],"split_conditions":[-3.0408528E-1,-1.5618914E-1,-9.6720374E-1,-8.4496003E-1,5.7208717E-1,2.5235128E-1,-5.3425808E-2,9.054136E-3,3.8789064E-2,-6.2467116E-3,2.1231905E-2,2.7955985E-2,-1.3952776E-4,-1.9901834E-2,-1.1349325E-3],"split_indices":[20,53,96,1,70,83,96,0,0,0,0,0,0,0,0],"split_type":[0,0,0,0,0,0,0,0,0,0,0,0,0,0,0],"sum_hessian":[8.9E1,2.4E1,6.5E1,5E0,1.9E1,7E0,5.8E1,1E0,4E0,1.3E1,6E0,4E0,3E0,1.8E1,4E1],"tree_param":{"num_deleted":"0","num_feature":"100","num_nodes":"15","size_leaf_vector":"1"}},{"base_weights":[2.3021888E-4,-3.2271158E-2,5.7362164E-3,2.1814246E-2,-5.8001354E-2,7.391901E-5,1.6987259E-2,-1.8892929E-2,2.558611E-3],"categories":[],"categories_nodes":[],"categories_segments":[],"categories_sizes":[],"default_left":[0,0,0,0,0,0,0,0,0],"id":28,"left_children":[1,-1,3,5,7,-1,-1,-1,-1],"loss_changes":[8.099787E-2,0E0,9.144541E-2,9.6076354E-2,4.7673646E-2,0E0,0E0,0E0,0E0],"parents":[2147483647,0,0,2,2,3,3,4,4],"right_children":[2,-1,4,6,8,-1,-1,-1,-1],"split_conditions":[-1.2997459E0,-3.2271158E-2,1.5616432E-1,6.0515165E-1,3.2753217E-1,7.391901E-5,1.6987259E-2,-1.8892929E-2,2.558611E-3],"split_indices":[47,0,86,2,35,0,0,0,0],"split_type":[0,0,0,0,0,0,0,0,0],"sum_hessian":[8.9E1,2E0,8.7E1,7E1,1.7E1,5.3E1,1.7E1,1.1E1,6E0],"tree_param":{"num_deleted":"0","num_feature":"100","num_nodes":"9","size_leaf_vector":"1"}},{"base_weights":[-1.6630681E-4,-7.092634E-2,1.0584158E-2,-1.7222043E-2,-2.435206E-2,-1.03090815E-1,1.9658018E-2,1.8489003E-3,-4.6347766E-3,-2.2323614E-2,-6.0454546E-3,-1.8235631E-2,5.80221E-3],"categories":[],"categories_nodes":[],"categories_segments":[],"categories_sizes":[],"default_left":[0,0,0,0,0,0,0,0,0,0,0,0,0],"id":29,"left_children":[1,3,5,7,-1,9,11,-1,-1,-1,-1,-1,-1],"loss_changes":[6.9213994E-2,3.066307E-2,8.351275E-2,1.3169036E-3,0E0,3.5404414E-4,7.935758E-2,0E0,0E0,0E0,0E0,0E0,0E0],"parents":[2147483647,0,0,1,1,2,2,3,3,5,5,6,6],"right_children":[2,4,6,8,-1,10,12,-1,-1,-1,-1,-1,-1],"split_conditions":[3.840989E-2,-1.2395578E-1,-1.2667552E0,-2.6359446E0,-2.435206E-2,4.5969152E-1,-1.5142758E-1,1.8489003E-3,-4.6347766E-3,-2.2323614E-2,-6.0454546E-3,-1.8235631E-2,5.80221E-3],"split_indices":[6,12,22,0,0,5,50,0,0,0,0,0,0],"split_type":[0,0,0,0,0,0,0,0,0,0,0,0,0],"sum_hessian":[8.9E1,1.1E1,7.8E1,6E0,5E0,5E0,7.3E1,1E0,5E0,4E0,1E0,5E0,6.8E1],"tree_param":{"num_deleted":"0","num_feature":"100","num_nodes":"13","size_leaf_vector":"1"}}]},"name":"gbtree"},"learner_model_param":{"base_score":"5.078652E-1","boost_from_average":"1","num_class":"0","num_feature":"100","num_target":"1"},"objective":{"name":"reg:squarederror","reg_loss_param":{"scale_pos_weight":"1"}}},"version":[2,0,3]}