{"learner":{"attributes":{"scikit_learn":"{\"_estimator_type\": \"regressor\"}"},"feature_names":[],"feature_types":[],"gradient_booster":{"model":{"gbtree_model_param":{"num_parallel_tree":"1","num_trees":"30"},"iteration_indptr":[0,1,2,3,4,5,6,7,8,9,10,11,12,13,14,15,16,17,18,19,20,21,22,23,24,25,26,27,28,29,30],"tree_info":[0,0,0,0,0,0,0,0,0,0,0,0,0,0,0,0,0,0,0,0,0,0,0,0,0,0,0,0,0,0],"trees":[{"base_weights":[-3.2474256E-7,-3.1073046E0,1.9420649E0,-2.6764061E0,-1.0690187E0,1.6059155E0,2.791188E0,2.0706472E0,1.4087937E0,3.202896E-1,1.5155069E0,3.675824E-1,-1.5026093E-1,1.6383877E0,6.963042E-1,1.64953E0,1.1638693E0,6.2956506E-1,2.2631887E-1],"categories":[],"categories_nodes":[],"categories_segments":[],"categories_sizes":[],"default_left":[0,0,0,0,0,0,0,0,0,0,0,0,0,0,0,0,0,0,0],"id":0,"left_children":[1,3,5,-1,-1,7,-1,-1,9,11,13,-1,-1,15,17,-1,-1,-1,-1],"loss_changes":[7.0604675E2,1.4513367E1,3.1836731E1,0E0,0E0,8.166321E0,0E0,0E0,5.6709595E0,5.106449E-1,3.6910706E0,0E0,0E0,1.8753052E-1,7.718015E-2,0E0,0E0,0E0,0E0],"parents":[2147483647,0,0,1,1,2,2,5,5,8,8,9,9,10,10,13,13,14,14],"right_children":[2,4,6,-1,-1,8,-1,-1,10,12,14,-1,-1,16,18,-1,-1,-1,-1],"split_conditions":[-5.239134E-1,-8.8950825E-1,4.691174E-1,-2.6764061E0,-1.0690187E0,-9.3904555E-1,2.791188E0,2.0706472E0,1.7071693E-1,8.4311056E-1,8.9079607E-1,3.675824E-1,-1.5026093E-1,-6.448509E-1,7.087426E-3,1.64953E0,1.1638693E0,6.2956506E-1,2.2631887E-1],"split_indices":[83,83,5,0,0,19,0,0,83,4,19,0,0,59,30,0,0,0,0],"split_type":[0,0,0,0,0,0,0,0,0,0,0,0,0,0,0,0,0,0,0],"sum_hessian":[1.15E2,4.4E1,7.1E1,3.8E1,6E0,6E1,1.1E1,8E0,5.2E1,5E0,4.7E1,4E0,1E0,4E1,7E0,9E0,3.1E1,5E0,2E0],"tree_param":{"num_deleted":"0","num_feature":"100","num_nodes":"19","size_leaf_vector":"1"}},{"base_weights":[4.312936E-2,-7.2055775E-1,5.028431E-1,-2.3410758E-1,-9.397642E-1,3.784625E-1,9.9998534E-1,-4.477304E-1,4.5114145E-2,-6.289272E-1,-9.1237396E-1,3.073559E-1,7.737568E-1,7.921143E-2,8.493395E-1,1.8636009E-1,-2.9949775E-1,-5.846395E-1,-2.3951784E-1,2.3994757E-1,5.8669865E-1,2.5565147E-2,2.40452E-1,-3.1969872E-1,-3.96986E-2,-3.6681175E-2,3.0822703E-1,5.25901E-1,1.6212693E-1,4.0301513E-2,4.018148E-4,-8.776343E-2,1.1176523E-1,6.0704505E-1,2.3080918E-1,-1.4537811E-2,-1.03033E-1,2.4191285E-2,1.0992699E-1,1.9044775E-1,5.656218E-1,1.9242525E-2,2.9171434E-1,-1.8519973E-2,-3.1603498E-3,-4.445553E-2,7.524357E-2,3.240653E-1,3.9154626E-2,1.04191594E-1,2.3147775E-2,1.401246E-1,3.2178274E-1],"categories":[],"categories_nodes":[],"categories_segments":[],"categories_sizes":[],"default_left":[0,0,0,0,0,0,0,0,0,0,0,0,0,0,0,0,0,0,0,0,0,0,0,0,0,0,0,0,0,0,0,0,0,0,0,0,0,0,0,0,0,0,0,0,0,0,0,0,0,0,0,0,0],"id":1,"left_children":[1,3,5,7,9,11,13,-1,15,17,-1,19,-1,-1,-1,21,23,-1,-1,25,27,29,-1,-1,-1,31,33,-1,-1,-1,-1,35,37,39,41,43,-1,-1,-1,-1,-1,45,47,-1,-1,-1,49,51,-1,-1,-1,-1,-1],"loss_changes":[4.108731E1,4.4718456E0,4.1354847E0,1.3887808E0,1.1543083E0,2.2144976E0,6.729984E-1,0E0,4.938897E-1,2.511797E-1,0E0,8.948746E-1,0E0,0E0,0E0,1.2086105E-1,5.522591E-2,0E0,0E0,8.8015676E-1,1.3820767E-1,2.462112E-3,0E0,0E0,0E0,8.5638665E-2,7.158406E-1,0E0,0E0,0E0,0E0,2.2161953E-2,2.1167323E-3,8.992934E-2,3.938372E-1,2.732679E-4,0E0,0E0,0E0,0E0,0E0,3.7697613E-2,1.7263222E-1,0E0,0E0,0E0,8.965544E-3,1.7397141E-1,0E0,0E0,0E0,0E0,0E0],"parents":[2147483647,0,0,1,1,2,2,3,3,4,4,5,5,6,6,8,8,9,9,11,11,15,15,16,16,19,19,20,20,21,21,25,25,26,26,31,31,32,32,33,33,34,34,35,35,41,41,42,42,46,46,47,47],"right_children":[2,4,6,8,10,12,14,-1,16,18,-1,20,-1,-1,-1,22,24,-1,-1,26,28,30,-1,-1,-1,32,34,-1,-1,-1,-1,36,38,40,42,44,-1,-1,-1,-1,-1,46,48,-1,-1,-1,50,52,-1,-1,-1,-1,-1],"split_conditions":[-5.6047285E-1,-3.9454094E-1,3.3206093E-1,5.277973E-1,2.5111172E-1,7.114748E-1,-3.0647868E-1,-4.477304E-1,7.312222E-1,3.0510044E-1,-9.1237396E-1,3.1972653E-1,7.737568E-1,7.921143E-2,8.493395E-1,8.155583E-2,1.5580638E-1,-5.846395E-1,-2.3951784E-1,-4.0774647E-2,1.0713115E0,-3.197896E-2,2.40452E-1,-3.1969872E-1,-3.96986E-2,8.6213425E-3,3.868982E-2,5.25901E-1,1.6212693E-1,4.0301513E-2,4.018148E-4,-1.7198311E0,1.5580638E-1,-1.5986087E0,6.460782E-2,-2.853191E0,-1.03033E-1,2.4191285E-2,1.0992699E-1,1.9044775E-1,5.656218E-1,-1.1849605E0,2.2668433E-1,-1.8519973E-2,-3.1603498E-3,-4.445553E-2,-1.167322E0,-5.6445956E-1,3.9154626E-2,1.04191594E-1,2.3147775E-2,1.401246E-1,3.2178274E-1],"split_indices":[83,47,7,61,19,26,5,0,26,82,0,84,0,0,0,5,0,0,0,48,4,0,0,0,0,14,88,0,0,0,0,0,0,4,95,0,0,0,0,0,0,13,44,0,0,0,2,40,0,0,0,0,0],"split_type":[0,0,0,0,0,0,0,0,0,0,0,0,0,0,0,0,0,0,0,0,0,0,0,0,0,0,0,0,0,0,0,0,0,0,0,0,0,0,0,0,0,0,0,0,0,0,0,0,0,0,0,0,0],"sum_hessian":[1.15E2,4.3E1,7.2E1,1.4E1,2.9E1,5.9E1,1.3E1,6E0,8E0,1.3E1,1.6E1,5.4E1,5E0,1E0,1.2E1,6E0,2E0,9E0,4E0,4.5E1,9E0,3E0,3E0,1E0,1E0,9E0,3.6E1,7E0,2E0,1E0,2E0,7E0,2E0,6E0,3E1,3E0,4E0,1E0,1E0,2E0,4E0,7E0,2.3E1,1E0,2E0,3E0,4E0,2E1,3E0,1E0,3E0,8E0,1.2E1],"tree_param":{"num_deleted":"0","num_feature":"100","num_nodes":"53","size_leaf_vector":"1"}},{"base_weights":[2.136083E-2,-2.4004257E-1,1.372764E-1,-3.4662643E-1,-8.514857E-2,1.0855829E-1,5.3036845E-1,-3.845591E-1,-1.5107688E-1,-1.761739E-1,2.789849E-2,1.6304988E-1,1.0863896E-2,3.284009E-2,-2.0116115E-1,-1.8131082E-1,3.0152002E-4,-1.8102359E-2,7.842493E-2,1.0182798E-1,2.8678215E-1,1.2925453E-1,-1.2739218E-2,5.250931E-3,3.4157183E-2,-1.9969292E-1,-7.224169E-2,2.4180984E-2,-2.3819162E-2,-2.4323909E-2,1.874288E-4,1.6108513E-2,7.291425E-2,-6.258265E-2,1.3131584E-1,6.326374E-2,3.0610415E-1,1.163969E-2,-8.057336E-2,4.8828125E-4,-6.027466E-2,5.5013362E-2,1.7912786E-1,9.2221834E-2,8.4376335E-3,-2.7702702E-2,4.017651E-2,-9.2385866E-2,-2.0416832E-2,-3.296566E-2,8.470364E-2,2.0049412E-3,2.011429E-1,-1.4595414E-2,1.8730419E-2,-3.9599102E-2,-2.9324293E-3,7.8908205E-2,1.2384142E-3,-3.3791862E-2,-2.0572662E-3,1.8863106E-2,8.602524E-2,-2.600708E-2,2.841301E-2,1.7718309E-1,8.968643E-2,-8.7978365E-3,-3.4496006E-2,9.590785E-4,-5.842781E-3,6.977898E-2,1.4932252E-2,1.539917E-2,-1.7081738E-2,-8.228302E-4,1.9737245E-3,-1.3893128E-3,-1.7294312E-2],"categories":[],"categories_nodes":[],"categories_segments":[],"categories_sizes":[],"default_left":[0,0,0,0,0,0,0,0,0,0,0,0,0,0,0,0,0,0,0,0,0,0,0,0,0,0,0,0,0,0,0,0,0,0,0,0,0,0,0,0,0,0,0,0,0,0,0,0,0,0,0,0,0,0,0,0,0,0,0,0,0,0,0,0,0,0,0,0,0,0,0,0,0,0,0,0,0,0,0],"id":2,"left_children":[1,3,5,7,9,11,-1,-1,13,15,17,19,21,23,25,-1,27,29,31,33,35,-1,37,-1,-1,-1,-1,-1,-1,-1,-1,-1,-1,39,41,43,-1,45,47,-1,-1,49,51,-1,53,55,57,-1,-1,59,61,63,65,-1,-1,67,69,71,73,-1,-1,-1,-1,-1,-1,-1,-1,-1,-1,75,-1,-1,-1,-1,77,-1,-1,-1,-1],"loss_changes":[3.547836E0,5.648167E-1,1.1508594E0,4.7795105E-1,1.695573E-1,4.134634E-1,0E0,0E0,9.871963E-2,8.022025E-2,2.001375E-2,3.4955382E-1,1.05213866E-1,4.9672625E-4,2.0432562E-2,0E0,3.5999536E-3,1.1350588E-3,1.1300463E-3,1.7790222E-1,3.185742E-1,0E0,4.393463E-2,0E0,0E0,0E0,0E0,0E0,0E0,0E0,0E0,0E0,0E0,4.884295E-3,9.959084E-2,1.6137538E-2,0E0,2.3567135E-2,1.0505509E-2,0E0,0E0,3.674988E-2,6.9785416E-2,0E0,2.0254408E-3,2.5359713E-3,1.7999941E-2,0E0,0E0,1.0188958E-3,1.1418037E-2,4.6244008E-3,4.1401386E-3,0E0,0E0,1.3002194E-4,7.504446E-5,1.3776459E-3,2.6384976E-3,0E0,0E0,0E0,0E0,0E0,0E0,0E0,0E0,0E0,0E0,1.1529997E-5,0E0,0E0,0E0,0E0,2.4088833E-4,0E0,0E0,0E0,0E0],"parents":[2147483647,0,0,1,1,2,2,3,3,4,4,5,5,8,8,9,9,10,10,11,11,12,12,13,13,14,14,16,16,17,17,18,18,19,19,20,20,22,22,33,33,34,34,35,35,37,37,38,38,41,41,42,42,44,44,45,45,46,46,49,49,50,50,51,51,52,52,55,55,56,56,57,57,58,58,69,69,74,74],"right_children":[2,4,6,8,10,12,-1,-1,14,16,18,20,22,24,26,-1,28,30,32,34,36,-1,38,-1,-1,-1,-1,-1,-1,-1,-1,-1,-1,40,42,44,-1,46,48,-1,-1,50,52,-1,54,56,58,-1,-1,60,62,64,66,-1,-1,68,70,72,74,-1,-1,-1,-1,-1,-1,-1,-1,-1,-1,76,-1,-1,-1,-1,78,-1,-1,-1,-1],"split_conditions":[-9.6262723E-1,3.7080142E-1,1.7261337E0,1.4295134E-1,1.263057E-1,2.7425464E-2,5.3036845E-1,-3.845591E-1,-7.2495127E-1,6.800737E-1,1.449978E-1,2.3652954E-1,3.8866814E-2,1.5580638E-1,3.8230218E-2,-1.8131082E-1,-3.197896E-2,-1.9001548E-1,4.0450183E-1,-2.6247042E-1,-6.931627E-1,1.2925453E-1,6.134969E-1,5.250931E-3,3.4157183E-2,-1.9969292E-1,-7.224169E-2,2.4180984E-2,-2.3819162E-2,-2.4323909E-2,1.874288E-4,1.6108513E-2,7.291425E-2,1.1150676E-1,-5.1390576E-1,-7.349431E-1,3.0610415E-1,-8.199635E-2,1.1130797E-1,4.8828125E-4,-6.027466E-2,-4.9897218E-1,-2.106639E0,9.2221834E-2,1.5580638E-1,1.3725092E-1,5.1327556E-1,-9.2385866E-2,-2.0416832E-2,-4.6275774E-1,-2.71065E-1,1.5580638E-1,4.746753E-1,-1.4595414E-2,1.8730419E-2,-1.9553901E-1,3.102254E-1,2.2025663E-1,1.0000297E-1,-3.3791862E-2,-2.0572662E-3,1.8863106E-2,8.602524E-2,-2.600708E-2,2.841301E-2,1.7718309E-1,8.968643E-2,-8.7978365E-3,-3.4496006E-2,-1.7198311E0,-5.842781E-3,6.977898E-2,1.4932252E-2,1.539917E-2,-1.986243E0,-8.228302E-4,1.9737245E-3,-1.3893128E-3,-1.7294312E-2],"split_indices":[83,42,33,44,72,62,0,0,46,28,19,7,9,0,26,0,0,3,4,84,23,0,72,0,0,0,0,0,0,0,0,0,0,2,4,2,0,29,22,0,0,85,50,0,0,7,2,0,0,2,69,0,55,0,0,3,0,3,15,0,0,0,0,0,0,0,0,0,0,0,0,0,0,0,0,0,0,0,0],"split_type":[0,0,0,0,0,0,0,0,0,0,0,0,0,0,0,0,0,0,0,0,0,0,0,0,0,0,0,0,0,0,0,0,0,0,0,0,0,0,0,0,0,0,0,0,0,0,0,0,0,0,0,0,0,0,0,0,0,0,0,0,0,0,0,0,0,0,0,0,0,0,0,0,0,0,0,0,0,0,0],"sum_hessian":[1.15E2,3.5E1,8E1,2E1,1.5E1,7.7E1,3E0,1.1E1,9E0,8E0,7E0,4.9E1,2.8E1,2E0,7E0,6E0,2E0,4E0,3E0,3.4E1,1.5E1,3E0,2.5E1,1E0,1E0,4E0,3E0,1E0,1E0,2E0,2E0,1E0,2E0,5E0,2.9E1,5E0,1E1,1.9E1,6E0,1E0,4E0,1.2E1,1.7E1,2E0,3E0,8E0,1.1E1,3E0,3E0,3E0,9E0,2E0,1.5E1,1E0,2E0,5E0,3E0,5E0,6E0,2E0,1E0,3E0,6E0,1E0,1E0,1.1E1,4E0,1E0,4E0,2E0,1E0,4E0,1E0,3E0,3E0,1E0,1E0,1E0,2E0],"tree_param":{"num_deleted":"0","num_feature":"100","num_nodes":"79","size_leaf_vector":"1"}},{"base_weights":[8.8248085E-3,-9.203709E-2,3.7545517E-2,-1.898397E-1,-5.4839373E-2,2.7071428E-2,2.6860937E-1,-1.2295206E-2,-9.626579E-2,1.4850521E-1,1.9609777E-2,-5.488527E-2,7.999844E-3,-9.961667E-2,-1.5689254E-2,1.378151E-1,2.1380235E-2,4.1246828E-2,-5.7630776E-3,-1.2019157E-2,-5.0531514E-2,2.0129396E-2,-4.7747293E-3,6.5612796E-5,-1.6778946E-2,1.3672733E-1,2.8898034E-2,-5.1348686E-2,7.237971E-3,-7.165273E-4,-5.299759E-3,1.2701683E-1,1.9421006E-2,-2.3288727E-3,4.8204165E-2,-1.1053276E-2,-6.509949E-2,4.935303E-2,1.5513737E-3,6.5612796E-5,-9.254456E-4,-2.5753975E-2,9.577751E-3,9.020889E-2,2.7980905E-2,-1.2450918E-2,-2.286784E-3,1.3163426E-2,-1.2659788E-2,2.9296876E-4,-2.4841003E-2,3.3788204E-2,-2.2466448E-3,9.7482145E-2,2.2481536E-2,3.641583E-2,-2.3315175E-2,-3.701755E-3,2.269914E-2,-1.973824E-2,9.970903E-3,3.1115977E-2,7.3871613E-3,8.501053E-3,-8.363343E-3,3.791828E-2,6.705984E-3,-9.864299E-3,1.7726135E-3,7.2746276E-4,2.4605323E-2,-1.9726038E-2,-3.9720535E-3,9.3142195E-3,1.9821168E-3],"categories":[],"categories_nodes":[],"categories_segments":[],"categories_sizes":[],"default_left":[0,0,0,0,0,0,0,0,0,0,0,0,0,0,0,0,0,0,0,0,0,0,0,0,0,0,0,0,0,0,0,0,0,0,0,0,0,0,0,0,0,0,0,0,0,0,0,0,0,0,0,0,0,0,0,0,0,0,0,0,0,0,0,0,0,0,0,0,0,0,0,0,0,0,0],"id":3,"left_children":[1,3,5,-1,7,9,-1,11,13,15,17,19,21,-1,23,-1,-1,25,27,-1,-1,-1,29,-1,-1,31,33,35,37,39,-1,-1,-1,41,43,45,-1,-1,47,-1,-1,49,51,53,55,-1,-1,57,59,-1,-1,61,63,-1,-1,65,-1,67,69,71,73,-1,-1,-1,-1,-1,-1,-1,-1,-1,-1,-1,-1,-1,-1],"loss_changes":[3.3948728E-1,1.2747596E-1,2.751529E-1,0E0,3.7590347E-2,7.773043E-2,0E0,1.0811483E-2,2.3090005E-2,9.865746E-3,4.690218E-2,3.7108827E-4,2.093264E-3,0E0,3.3508881E-4,0E0,0E0,5.0286025E-2,2.407809E-2,0E0,0E0,0E0,4.0298517E-5,0E0,0E0,8.539826E-3,2.5432833E-2,9.9896155E-3,9.813223E-3,1.1496237E-6,0E0,0E0,0E0,4.9882014E-3,1.9562155E-2,1.4031952E-4,0E0,0E0,5.1172692E-3,0E0,0E0,8.415668E-4,3.5111974E-3,1.2298107E-2,1.0216339E-2,0E0,0E0,2.817993E-3,2.439472E-3,0E0,0E0,1.4241738E-4,1.0619867E-3,0E0,0E0,4.836358E-3,0E0,3.847415E-4,1.9033202E-3,6.7698536E-4,2.1264335E-5,0E0,0E0,0E0,0E0,0E0,0E0,0E0,0E0,0E0,0E0,0E0,0E0,0E0,0E0],"parents":[2147483647,0,0,1,1,2,2,4,4,5,5,7,7,8,8,9,9,10,10,11,11,12,12,14,14,17,17,18,18,22,22,25,25,26,26,27,27,28,28,29,29,33,33,34,34,35,35,38,38,41,41,42,42,43,43,44,44,47,47,48,48,51,51,52,52,55,55,57,57,58,58,59,59,60,60],"right_children":[2,4,6,-1,8,10,-1,12,14,16,18,20,22,-1,24,-1,-1,26,28,-1,-1,-1,30,-1,-1,32,34,36,38,40,-1,-1,-1,42,44,46,-1,-1,48,-1,-1,50,52,54,56,-1,-1,58,60,-1,-1,62,64,-1,-1,66,-1,68,70,72,74,-1,-1,-1,-1,-1,-1,-1,-1,-1,-1,-1,-1,-1,-1],"split_conditions":[-1.1088653E0,-9.9185854E-1,1.7940124E0,-1.898397E-1,1.3725092E-1,-2.2045624E0,2.6860937E-1,-6.7351095E-2,1.0448506E-1,3.939986E-1,8.2366465E-4,3.7134644E-1,-9.1376376E-1,-9.961667E-2,6.2306073E-2,1.378151E-1,2.1380235E-2,-1.0032405E0,-1.5879162E-1,-1.2019157E-2,-5.0531514E-2,2.0129396E-2,6.611482E-2,6.5612796E-5,-1.6778946E-2,1.7325586E-2,4.6319285E-1,7.289045E-1,-1.0723057E0,1.5580638E-1,-5.299759E-3,1.2701683E-1,1.9421006E-2,-2.6849034E-1,-7.349431E-1,7.184752E-2,-6.509949E-2,4.935303E-2,3.679829E-1,6.5612796E-5,-9.254456E-4,1.1150676E-1,-5.2236293E-2,1.09668694E-1,1.8382274E-1,-1.2450918E-2,-2.286784E-3,-2.6020171E-2,2.5087133E-1,2.9296876E-4,-2.4841003E-2,1.5580638E-1,-2.2739634E-1,9.7482145E-2,2.2481536E-2,1.5880214E-1,-2.3315175E-2,4.419491E-1,9.877132E-2,3.1641707E-1,6.116514E-1,3.1115977E-2,7.3871613E-3,8.501053E-3,-8.363343E-3,3.791828E-2,6.705984E-3,-9.864299E-3,1.7726135E-3,7.2746276E-4,2.4605323E-2,-1.9726038E-2,-3.9720535E-3,9.3142195E-3,1.9821168E-3],"split_indices":[83,26,33,0,7,69,0,23,65,2,62,2,12,0,4,0,0,72,90,0,0,0,9,0,0,3,83,6,83,0,0,0,0,66,2,9,0,0,69,0,0,2,91,8,91,0,0,47,59,0,0,0,22,0,0,10,0,2,19,85,2,0,0,0,0,0,0,0,0,0,0,0,0,0,0],"split_type":[0,0,0,0,0,0,0,0,0,0,0,0,0,0,0,0,0,0,0,0,0,0,0,0,0,0,0,0,0,0,0,0,0,0,0,0,0,0,0,0,0,0,0,0,0,0,0,0,0,0,0,0,0,0,0,0,0,0,0,0,0,0,0,0,0,0,0,0,0,0,0,0,0,0,0],"sum_hessian":[1.15E2,2.5E1,9E1,4E0,2.1E1,8.8E1,2E0,1.1E1,1E1,4E0,8.4E1,3E0,8E0,7E0,3E0,3E0,1E0,4.5E1,3.9E1,1E0,2E0,3E0,5E0,1E0,2E0,4E0,4.1E1,8E0,3.1E1,2E0,3E0,3E0,1E0,1.6E1,2.5E1,4E0,4E0,2E0,2.9E1,1E0,1E0,5E0,1.1E1,7E0,1.8E1,2E0,2E0,1.6E1,1.3E1,1E0,4E0,3E0,8E0,4E0,3E0,1.6E1,2E0,6E0,1E1,1E1,3E0,2E0,1E0,3E0,5E0,1.1E1,5E0,2E0,4E0,3E0,7E0,7E0,3E0,2E0,1E0],"tree_param":{"num_deleted":"0","num_feature":"100","num_nodes":"75","size_leaf_vector":"1"}},{"base_weights":[4.7754254E-3,6.346412E-4,1.9238625E-1,4.935126E-3,-7.831335E-2,-5.80908E-3,2.000987E-2,5.2932105E-3,-1.21439934E-1,-2.6098E-3,-4.3678474E-2,1.1342307E-2,5.007887E-2,6.4567565E-3,-1.04904175E-4,-2.8235627E-2,-1.10712186E-1,-1.4737917E-2,4.609597E-3,-4.9456533E-2,-8.781433E-3,6.7891255E-3,4.8545584E-2,6.735489E-2,1.3303439E-2,-3.2973707E-2,-4.6989024E-3,9.595493E-3,-8.954092E-3,7.006701E-5,1.2443593E-2,1.0623932E-3,2.0152284E-2,-9.154587E-3,-4.13147E-2,2.1367471E-3,-2.016468E-2,-4.140377E-3,2.101466E-2,-1.0647583E-2,-1.065731E-3,1.4405727E-2,-4.030841E-3,2.5463423E-2,5.9748376E-3,-3.3798218E-3,3.386434E-3,1.0049343E-2,-3.0757189E-3,-1.04904175E-4,-2.011223E-2,1.9399325E-3,-1.2570779E-2,4.025221E-3,2.8371204E-2,1.4910698E-3,-2.6138306E-3,3.485489E-3,1.304245E-2,-6.1297417E-3,-1.0562624E-3,4.6295165E-3,2.259308E-2,1.0561371E-2,-4.393196E-3,3.0935924E-3,1.0305532E-2,6.2461855E-4,-5.7019233E-3,-9.031023E-4,6.763077E-3,-1.1534653E-2,-1.3332367E-3,4.9785613E-3,-1.9772847E-4,2.7807428E-2,6.801796E-3,1.7585755E-4,1.6134263E-3,-2.2256852E-3,-6.0655214E-3,7.1182253E-4,-2.19059E-3,1.4799118E-2,3.6134992E-3,-6.035042E-3,3.2836914E-3],"categories":[],"categories_nodes":[],"categories_segments":[],"categories_sizes":[],"default_left":[0,0,0,0,0,0,0,0,0,0,0,0,0,0,0,0,0,0,0,0,0,0,0,0,0,0,0,0,0,0,0,0,0,0,0,0,0,0,0,0,0,0,0,0,0,0,0,0,0,0,0,0,0,0,0,0,0,0,0,0,0,0,0,0,0,0,0,0,0,0,0,0,0,0,0,0,0,0,0,0,0,0,0,0,0,0,0],"id":4,"left_children":[1,3,-1,5,7,9,11,13,15,17,19,21,23,-1,-1,-1,-1,25,27,-1,-1,29,-1,-1,31,33,35,37,39,41,43,45,-1,-1,-1,47,49,51,53,-1,55,57,59,61,63,-1,-1,65,67,-1,-1,69,71,73,75,77,-1,-1,-1,79,81,-1,-1,83,85,-1,-1,-1,-1,-1,-1,-1,-1,-1,-1,-1,-1,-1,-1,-1,-1,-1,-1,-1,-1,-1,-1],"loss_changes":[1.1306494E-1,3.9430667E-2,0E0,1.7932514E-2,2.22768E-2,7.761068E-3,1.142074E-2,4.6260488E-5,9.563342E-4,5.408955E-3,2.2878088E-3,7.900163E-3,1.142578E-2,0E0,0E0,0E0,0E0,4.055655E-3,2.7233772E-3,0E0,0E0,1.3288724E-3,0E0,0E0,8.4628747E-4,2.624767E-3,1.7345853E-3,4.6357224E-3,3.637412E-4,1.057484E-3,1.4480797E-3,8.4938714E-5,0E0,0E0,0E0,5.258386E-4,4.9509853E-4,7.420188E-4,1.8855357E-3,0E0,3.301647E-5,5.234091E-6,8.093222E-5,1.6453024E-4,7.121449E-4,0E0,0E0,3.7745573E-5,1.3056723E-4,0E0,0E0,1.8945307E-4,9.684701E-5,5.7881814E-5,1.100638E-3,1.561602E-6,0E0,0E0,0E0,1.779673E-5,2.5348767E-5,0E0,0E0,3.962263E-4,1.6483066E-4,0E0,0E0,0E0,0E0,0E0,0E0,0E0,0E0,0E0,0E0,0E0,0E0,0E0,0E0,0E0,0E0,0E0,0E0,0E0,0E0,0E0,0E0],"parents":[2147483647,0,0,1,1,3,3,4,4,5,5,6,6,7,7,8,8,9,9,10,10,11,11,12,12,17,17,18,18,21,21,24,24,25,25,26,26,27,27,28,28,29,29,30,30,31,31,35,35,36,36,37,37,38,38,40,40,41,41,42,42,43,43,44,44,47,47,48,48,51,51,52,52,53,53,54,54,55,55,59,59,60,60,63,63,64,64],"right_children":[2,4,-1,6,8,10,12,14,16,18,20,22,24,-1,-1,-1,-1,26,28,-1,-1,30,-1,-1,32,34,36,38,40,42,44,46,-1,-1,-1,48,50,52,54,-1,56,58,60,62,64,-1,-1,66,68,-1,-1,70,72,74,76,78,-1,-1,-1,80,82,-1,-1,84,86,-1,-1,-1,-1,-1,-1,-1,-1,-1,-1,-1,-1,-1,-1,-1,-1,-1,-1,-1,-1,-1,-1],"split_conditions":[2.2691655E0,1.4901443E0,1.9238625E-1,5.363118E-1,1.3725092E-1,9.3123704E-1,1.5507042E-1,-3.197896E-2,9.6241064E-2,-1.8625546E-1,1.7008041E-1,9.453294E-1,2.6241377E-2,6.4567565E-3,-1.04904175E-4,-2.8235627E-2,-1.10712186E-1,3.0703457E-2,7.692183E-1,-4.9456533E-2,-8.781433E-3,1.8260581E-2,4.8545584E-2,6.735489E-2,-5.753029E-1,2.055407E-1,1.1100963E-1,3.127431E-2,5.650337E-2,-6.0986376E-1,-3.6581376E-1,8.926571E-2,2.0152284E-2,-9.154587E-3,-4.13147E-2,-1.1581959E-1,-4.747295E-1,1.4977609E-1,-7.4803925E-1,-1.0647583E-2,-2.2424646E-1,6.563671E-1,9.981481E-2,6.192719E-2,4.4571057E-1,-3.3798218E-3,3.386434E-3,2.1265248E-2,4.762593E-1,-1.04904175E-4,-2.011223E-2,1.8428496E-1,3.7134644E-1,1.9336183E-1,5.3453964E-1,1.1150676E-1,-2.6138306E-3,3.485489E-3,1.304245E-2,-2.3022878E-3,-1.1084704E-1,4.6295165E-3,2.259308E-2,-5.8711816E-2,1.0264863E0,3.0935924E-3,1.0305532E-2,6.2461855E-4,-5.7019233E-3,-9.031023E-4,6.763077E-3,-1.1534653E-2,-1.3332367E-3,4.9785613E-3,-1.9772847E-4,2.7807428E-2,6.801796E-3,1.7585755E-4,1.6134263E-3,-2.2256852E-3,-6.0655214E-3,7.1182253E-4,-2.19059E-3,1.4799118E-2,3.6134992E-3,-6.035042E-3,3.2836914E-3],"split_indices":[33,80,0,83,7,96,9,0,0,96,4,53,48,0,0,0,0,55,42,0,0,29,0,0,4,23,52,85,43,20,82,3,0,0,0,11,3,22,40,0,3,2,86,9,15,0,0,3,2,0,0,54,2,3,96,2,0,0,0,15,20,0,0,72,4,0,0,0,0,0,0,0,0,0,0,0,0,0,0,0,0,0,0,0,0,0,0],"split_type":[0,0,0,0,0,0,0,0,0,0,0,0,0,0,0,0,0,0,0,0,0,0,0,0,0,0,0,0,0,0,0,0,0,0,0,0,0,0,0,0,0,0,0,0,0,0,0,0,0,0,0,0,0,0,0,0,0,0,0,0,0,0,0,0,0,0,0,0,0,0,0,0,0,0,0,0,0,0,0,0,0,0,0,0,0,0,0],"sum_hessian":[1.15E2,1.14E2,1E0,1.09E2,5E0,6.4E1,4.5E1,2E0,3E0,6E1,4E0,3.6E1,9E0,1E0,1E0,1E0,2E0,2.2E1,3.8E1,2E0,2E0,3.4E1,2E0,4E0,5E0,7E0,1.5E1,2.8E1,1E1,1.6E1,1.8E1,3E0,2E0,4E0,3E0,1.1E1,4E0,1.3E1,1.5E1,6E0,4E0,3E0,1.3E1,5E0,1.3E1,1E0,2E0,4E0,7E0,1E0,3E0,8E0,5E0,5E0,1E1,2E0,2E0,1E0,2E0,7E0,6E0,1E0,4E0,9E0,4E0,2E0,2E0,4E0,3E0,6E0,2E0,4E0,1E0,3E0,2E0,7E0,3E0,1E0,1E0,3E0,4E0,3E0,3E0,3E0,6E0,3E0,1E0],"tree_param":{"num_deleted":"0","num_feature":"100","num_nodes":"87","size_leaf_vector":"1"}},{"base_weights":[2.21199E-3,-2.7815776E-4,1.154316E-1,1.7689444E-3,-3.7762005E-2,3.382182E-2,5.541739E-4,-4.962063E-3,-8.070469E-2,3.35495E-2,3.7906647E-3,1.3539611E-3,-3.368931E-2,-1.6941452E-2,4.385829E-3,4.6783704E-3,-2.7604997E-3,4.7201794E-3,-6.2942505E-5,1.7947832E-2,3.1173495E-3,-1.3655742E-2,-1.1760357E-3,1.830311E-2,4.312388E-3,1.120544E-3,8.742468E-3,-1.3763199E-2,1.6342163E-3,-2.0869493E-3,8.22711E-3,2.486254E-3,-1.2133837E-2,1.595974E-3,1.5660968E-2,-2.8565835E-4,-6.2661567E-3,-3.7555696E-4,9.025956E-3,3.4348243E-3,-1.429844E-3,-1.2884013E-2,-8.811951E-5,5.6561786E-3,-1.1257172E-3,4.398346E-3,1.4901276E-2,2.1477889E-3,-1.4052582E-3,-9.023475E-3,-8.591788E-4],"categories":[],"categories_nodes":[],"categories_segments":[],"categories_sizes":[],"default_left":[0,0,0,0,0,0,0,0,0,0,0,0,0,0,0,0,0,0,0,0,0,0,0,0,0,0,0,0,0,0,0,0,0,0,0,0,0,0,0,0,0,0,0,0,0,0,0,0,0,0,0],"id":5,"left_children":[1,3,-1,5,7,9,11,13,-1,-1,-1,15,-1,-1,17,19,21,-1,-1,23,25,27,29,-1,-1,31,33,-1,-1,35,37,39,41,43,45,47,49,-1,-1,-1,-1,-1,-1,-1,-1,-1,-1,-1,-1,-1,-1],"loss_changes":[4.1080233E-2,8.891125E-3,0E0,4.264315E-3,1.1921192E-2,7.4534584E-4,3.7082394E-3,8.5074664E-4,0E0,0E0,0E0,1.4627988E-3,0E0,0E0,2.750833E-5,1.166171E-3,8.125701E-4,0E0,0E0,2.4819747E-4,5.9674616E-4,3.69358E-4,3.8548408E-4,0E0,0E0,7.7233504E-4,6.6720776E-4,0E0,0E0,2.993288E-4,1.1158004E-4,3.011669E-4,1.8921896E-4,1.4146749E-4,1.08570675E-4,1.3142262E-4,3.00239E-4,0E0,0E0,0E0,0E0,0E0,0E0,0E0,0E0,0E0,0E0,0E0,0E0,0E0,0E0],"parents":[2147483647,0,0,1,1,3,3,4,4,5,5,6,6,7,7,11,11,14,14,15,15,16,16,19,19,20,20,21,21,22,22,25,25,26,26,29,29,30,30,31,31,32,32,33,33,34,34,35,35,36,36],"right_children":[2,4,-1,6,8,10,12,14,-1,-1,-1,16,-1,-1,18,20,22,-1,-1,24,26,28,30,-1,-1,32,34,-1,-1,36,38,40,42,44,46,48,50,-1,-1,-1,-1,-1,-1,-1,-1,-1,-1,-1,-1,-1,-1],"split_conditions":[2.2691655E0,1.4901443E0,1.154316E-1,-2.2144651E0,1.9051477E-1,3.939986E-1,2.9318945E0,-6.6197544E-1,-8.070469E-2,3.35495E-2,3.7906647E-3,1.550271E-1,-3.368931E-2,-1.6941452E-2,7.010862E-1,-1.0032405E0,-8.303243E-1,4.7201794E-3,-6.2942505E-5,1.7325586E-2,3.095941E-1,8.353721E-1,1.7997636E0,1.830311E-2,4.312388E-3,5.306767E-1,3.2662615E-1,-1.3763199E-2,1.6342163E-3,1.1300505E0,-1.5090807E-1,4.7503415E-1,7.1301764E-1,3.702294E-1,-1.1070034E-1,-9.888817E-2,6.460782E-2,-3.7555696E-4,9.025956E-3,3.4348243E-3,-1.429844E-3,-1.2884013E-2,-8.811951E-5,5.6561786E-3,-1.1257172E-3,4.398346E-3,1.4901276E-2,2.1477889E-3,-1.4052582E-3,-9.023475E-3,-8.591788E-4],"split_indices":[33,80,0,69,3,2,79,2,0,0,0,62,0,0,4,72,55,0,0,3,3,2,62,0,0,52,51,0,0,6,2,92,2,3,5,50,95,0,0,0,0,0,0,0,0,0,0,0,0,0,0],"split_type":[0,0,0,0,0,0,0,0,0,0,0,0,0,0,0,0,0,0,0,0,0,0,0,0,0,0,0,0,0,0,0,0,0,0,0,0,0,0,0,0,0,0,0,0,0,0,0,0,0,0,0],"sum_hessian":[1.15E2,1.14E2,1E0,1.09E2,5E0,3E0,1.06E2,4E0,1E0,2E0,1E0,1.05E2,1E0,1E0,3E0,5.8E1,4.7E1,2E0,1E0,5E0,5.3E1,5E0,4.2E1,3E0,2E0,4E1,1.3E1,4E0,1E0,3.9E1,3E0,3.7E1,3E0,7E0,6E0,2.8E1,1.1E1,1E0,2E0,2.6E1,1.1E1,2E0,1E0,2E0,5E0,2E0,4E0,9E0,1.9E1,5E0,6E0],"tree_param":{"num_deleted":"0","num_feature":"100","num_nodes":"51","size_leaf_vector":"1"}},{"base_weights":[8.6439477E-4,-6.337166E-4,6.925888E-2,5.947763E-4,-2.3050467E-2,1.0638456E-3,-2.0213509E-2,-3.4491539E-3,-4.8422813E-2,1.6099453E-2,4.864279E-4,-1.0164834E-2,2.0415783E-3,1.5656536E-2,2.2743226E-3,-1.3205879E-3,2.5366973E-3,2.2028605E-3,-3.7765505E-5,-3.44942E-4,-5.87163E-3,5.2744946E-3,9.148209E-6,3.3035756E-3,-1.2716147E-3,-8.600388E-3,-8.2731247E-4,-1.9068718E-3,7.2646895E-3,1.1992682E-3,-3.5625186E-3,7.5348216E-4,4.562378E-3,-1.8493107E-3,3.026581E-3,-1.0590871E-3,-1.9845963E-4,7.4183143E-4,-2.8446198E-3,8.700625E-3,1.5039444E-3,1.6905466E-4,3.2355445E-3,-8.857727E-4,-4.1017532E-3,1.454258E-3,-7.334391E-4,-3.4160297E-3,-4.495144E-4,3.9966586E-3,1.0282517E-3,8.217829E-3,2.8022768E-3,1.5954971E-3,-1.8310547E-4,-2.1485549E-4,1.6072592E-3,-3.2348634E-4,3.1276704E-3],"categories":[],"categories_nodes":[],"categories_segments":[],"categories_sizes":[],"default_left":[0,0,0,0,0,0,0,0,0,0,0,0,0,0,0,0,0,0,0,0,0,0,0,0,0,0,0,0,0,0,0,0,0,0,0,0,0,0,0,0,0,0,0,0,0,0,0,0,0,0,0,0,0,0,0,0,0,0,0],"id":6,"left_children":[1,3,-1,5,7,9,-1,11,-1,13,15,-1,17,-1,-1,19,21,-1,-1,23,25,27,29,31,33,-1,35,37,39,41,43,45,-1,47,49,-1,-1,-1,-1,51,53,55,57,-1,-1,-1,-1,-1,-1,-1,-1,-1,-1,-1,-1,-1,-1,-1,-1],"loss_changes":[1.49494875E-2,3.180674E-3,0E0,1.3612802E-3,4.1989414E-3,9.384878E-4,0E0,2.8007582E-4,0E0,1.2842775E-4,3.960661E-4,0E0,6.0788243E-6,0E0,0E0,2.5106635E-4,3.459476E-4,0E0,0E0,1.66488E-4,2.3721089E-4,3.568685E-4,1.1904163E-4,5.6889767E-5,1.0243607E-4,0E0,1.3972954E-6,3.133677E-5,1.4408387E-4,4.35068E-5,2.121531E-5,1.2333063E-5,0E0,1.06677704E-4,1.072367E-5,0E0,0E0,0E0,0E0,8.655491E-5,4.705599E-6,1.2618125E-5,1.875504E-5,0E0,0E0,0E0,0E0,0E0,0E0,0E0,0E0,0E0,0E0,0E0,0E0,0E0,0E0,0E0,0E0],"parents":[2147483647,0,0,1,1,3,3,4,4,5,5,7,7,9,9,10,10,12,12,15,15,16,16,19,19,20,20,21,21,22,22,23,23,24,24,26,26,27,27,28,28,29,29,30,30,31,31,33,33,34,34,39,39,40,40,41,41,42,42],"right_children":[2,4,-1,6,8,10,-1,12,-1,14,16,-1,18,-1,-1,20,22,-1,-1,24,26,28,30,32,34,-1,36,38,40,42,44,46,-1,48,50,-1,-1,-1,-1,52,54,56,58,-1,-1,-1,-1,-1,-1,-1,-1,-1,-1,-1,-1,-1,-1,-1,-1],"split_conditions":[2.2691655E0,1.4901443E0,6.925888E-2,2.9318945E0,1.9051477E-1,-2.2144651E0,-2.0213509E-2,-6.6197544E-1,-4.8422813E-2,3.939986E-1,4.997523E-1,-1.0164834E-2,7.010862E-1,1.5656536E-2,2.2743226E-3,9.588348E-1,-3.3305395E-1,2.2028605E-3,-3.7765505E-5,-1.353075E-1,2.883609E-1,-1.0763307E0,5.9266067E-1,7.087426E-3,7.263343E-1,-8.600388E-3,-3.3311125E-2,8.6213425E-3,-9.699382E-2,7.3044103E-1,-1.4644222E-2,-3.635283E-1,4.562378E-3,1.07119925E-1,9.5012136E-2,-1.0590871E-3,-1.9845963E-4,7.4183143E-4,-2.8446198E-3,5.865709E-1,1.5580638E-1,1.7849804E-1,-1.0661426E0,-8.857727E-4,-4.1017532E-3,1.454258E-3,-7.334391E-4,-3.4160297E-3,-4.495144E-4,3.9966586E-3,1.0282517E-3,8.217829E-3,2.8022768E-3,1.5954971E-3,-1.8310547E-4,-2.1485549E-4,1.6072592E-3,-3.2348634E-4,3.1276704E-3],"split_indices":[33,80,0,79,3,69,0,2,0,2,83,0,4,0,0,46,20,0,0,54,11,54,32,30,46,0,13,14,61,20,12,2,0,82,0,0,0,0,0,85,0,6,0,0,0,0,0,0,0,0,0,0,0,0,0,0,0,0,0],"split_type":[0,0,0,0,0,0,0,0,0,0,0,0,0,0,0,0,0,0,0,0,0,0,0,0,0,0,0,0,0,0,0,0,0,0,0,0,0,0,0,0,0,0,0,0,0,0,0,0,0,0,0,0,0,0,0,0,0,0,0],"sum_hessian":[1.15E2,1.14E2,1E0,1.09E2,5E0,1.08E2,1E0,4E0,1E0,3E0,1.05E2,1E0,3E0,2E0,1E0,5.6E1,4.9E1,2E0,1E0,4.7E1,9E0,2.3E1,2.6E1,9E0,3.8E1,4E0,5E0,5E0,1.8E1,2E1,6E0,5E0,4E0,3.4E1,4E0,2E0,3E0,2E0,3E0,1.4E1,4E0,1.4E1,6E0,3E0,3E0,3E0,2E0,1.1E1,2.3E1,1E0,3E0,1E1,4E0,3E0,1E0,1.2E1,2E0,1E0,5E0],"tree_param":{"num_deleted":"0","num_feature":"100","num_nodes":"59","size_leaf_vector":"1"}},{"base_weights":[3.1659933E-4,-5.84026E-4,4.1555405E-2,1.5382333E-4,-1.40139265E-2,4.3340123E-4,-1.2128067E-2,-2.2898675E-3,-2.9053688E-2,9.335709E-3,2.2130983E-4,-6.098938E-3,9.49502E-4,-4.1755675E-3,4.305702E-4,1.0279338E-3,-2.269745E-5,-7.7644986E-4,-4.9462635E-3,-2.5293827E-3,6.7025115E-4,-1.1764526E-3,2.4471284E-4,-4.0874482E-4,-3.6382675E-3,1.7320769E-4,1.8889223E-3,-7.330577E-4,1.8806457E-4,-5.6176714E-4,9.2423306E-4,4.631653E-3,9.97583E-4,-8.444977E-4,1.3080052E-3,1.539669E-3,-3.071785E-4,-2.4616535E-4,1.8628121E-3],"categories":[],"categories_nodes":[],"categories_segments":[],"categories_sizes":[],"default_left":[0,0,0,0,0,0,0,0,0,0,0,0,0,0,0,0,0,0,0,0,0,0,0,0,0,0,0,0,0,0,0,0,0,0,0,0,0,0,0],"id":7,"left_children":[1,3,-1,5,7,9,-1,11,-1,-1,13,-1,15,17,19,-1,-1,21,-1,23,25,-1,-1,27,-1,29,31,-1,-1,33,35,-1,37,-1,-1,-1,-1,-1,-1],"loss_changes":[5.424009E-3,1.1417186E-3,0E0,4.775277E-4,1.4857417E-3,2.5717623E-4,0E0,9.362952E-5,0E0,0E0,1.01167825E-4,0E0,1.3484305E-6,2.9313938E-5,7.547753E-5,0E0,0E0,2.703643E-6,0E0,3.2384334E-5,5.8428886E-5,0E0,0E0,1.8493656E-6,0E0,3.9158134E-5,9.157473E-5,0E0,0E0,4.0781902E-5,4.6542376E-5,0E0,4.241054E-5,0E0,0E0,0E0,0E0,0E0,0E0],"parents":[2147483647,0,0,1,1,3,3,4,4,5,5,7,7,10,10,12,12,13,13,14,14,17,17,19,19,20,20,23,23,25,25,26,26,29,29,30,30,32,32],"right_children":[2,4,-1,6,8,10,-1,12,-1,-1,14,-1,16,18,20,-1,-1,22,-1,24,26,-1,-1,28,-1,30,32,-1,-1,34,36,-1,38,-1,-1,-1,-1,-1,-1],"split_conditions":[2.2691655E0,1.4901443E0,4.1555405E-2,2.9318945E0,1.9051477E-1,-2.1727293E0,-1.2128067E-2,-6.6197544E-1,-2.9053688E-2,9.335709E-3,-1.7729962E0,-6.098938E-3,7.010862E-1,-1.9268444E0,5.5123903E-2,1.0279338E-3,-2.269745E-5,-1.986243E0,-4.9462635E-3,1.542818E-1,2.0456176E-1,-1.1764526E-3,2.4471284E-4,-1.3199951E-1,-3.6382675E-3,3.2974014E-1,-1.6248277E-1,-7.330577E-4,1.8806457E-4,8.7943685E-1,2.4444003E-1,4.631653E-3,-3.0077644E-2,-8.444977E-4,1.3080052E-3,1.539669E-3,-3.071785E-4,-2.4616535E-4,1.8628121E-3],"split_indices":[33,80,0,79,3,49,0,2,0,0,12,0,4,12,95,0,0,0,0,93,53,0,0,4,0,85,22,0,0,28,69,0,70,0,0,0,0,0,0],"split_type":[0,0,0,0,0,0,0,0,0,0,0,0,0,0,0,0,0,0,0,0,0,0,0,0,0,0,0,0,0,0,0,0,0,0,0,0,0,0,0],"sum_hessian":[1.15E2,1.14E2,1E0,1.09E2,5E0,1.08E2,1E0,4E0,1E0,1E0,1.07E2,1E0,3E0,4E0,1.03E2,2E0,1E0,2E0,2E0,7E0,9.6E1,1E0,1E0,4E0,3E0,6.9E1,2.7E1,2E0,2E0,3.5E1,3.4E1,4E0,2.3E1,2.9E1,6E0,1.9E1,1.5E1,1.2E1,1.1E1],"tree_param":{"num_deleted":"0","num_feature":"100","num_nodes":"39","size_leaf_vector":"1"}},{"base_weights":[8.496745E-5,-4.5632073E-4,2.4933243E-2,-1.3750249E-5,-8.49406E-3,1.5302535E-4,-7.2769164E-3,-1.4767647E-3,-1.7432213E-2,5.6015016E-3,2.4777872E-5,-3.659439E-3,3.5295487E-4,1.0437832E-4,-3.396988E-3,1.9512631E-4,-3.106594E-3,6.9740514E-4,-5.170649E-4,-7.05719E-4,-3.022194E-3,-1.2395382E-3,9.6646225E-4,1.9252778E-3,-6.410244E-4,-1.3690948E-3,9.3841554E-5,5.7841145E-4,1.8450738E-3,-7.820354E-4,4.5379638E-4],"categories":[],"categories_nodes":[],"categories_segments":[],"categories_sizes":[],"default_left":[0,0,0,0,0,0,0,0,0,0,0,0,0,0,0,0,0,0,0,0,0,0,0,0,0,0,0,0,0,0,0],"id":8,"left_children":[1,3,-1,5,7,9,-1,11,-1,-1,13,-1,-1,15,-1,17,19,21,23,-1,-1,25,27,-1,29,-1,-1,-1,-1,-1,-1],"loss_changes":[1.965817E-3,4.0896877E-4,0E0,1.6801135E-4,5.2764127E-4,9.5566436E-5,0E0,3.1722855E-5,0E0,0E0,3.7160462E-5,0E0,0E0,3.1784835E-5,0E0,3.7921047E-5,1.1462671E-6,3.3509164E-5,1.748898E-5,0E0,0E0,5.322334E-6,1.6272992E-5,0E0,1.80386E-5,0E0,0E0,0E0,0E0,0E0,0E0],"parents":[2147483647,0,0,1,1,3,3,4,4,5,5,7,7,10,10,13,13,15,15,16,16,17,17,18,18,21,21,22,22,24,24],"right_children":[2,4,-1,6,8,10,-1,12,-1,-1,14,-1,-1,16,-1,18,20,22,24,-1,-1,26,28,-1,30,-1,-1,-1,-1,-1,-1],"split_conditions":[2.2691655E0,1.4901443E0,2.4933243E-2,2.9318945E0,1.9051477E-1,-2.1727293E0,-7.2769164E-3,-6.6197544E-1,-1.7432213E-2,5.6015016E-3,3.3951037E0,-3.659439E-3,3.5295487E-4,1.4087765E0,-3.396988E-3,3.34815E-1,-1.986243E0,6.178562E-3,-1.6521335E0,-7.05719E-4,-3.022194E-3,-2.0056762E-2,7.447301E-1,1.9252778E-3,1.0817991E0,-1.3690948E-3,9.3841554E-5,5.7841145E-4,1.8450738E-3,-7.820354E-4,4.5379638E-4],"split_indices":[33,80,0,79,3,49,0,2,0,0,20,0,0,93,0,96,0,65,29,0,0,4,54,0,23,0,0,0,0,0,0],"split_type":[0,0,0,0,0,0,0,0,0,0,0,0,0,0,0,0,0,0,0,0,0,0,0,0,0,0,0,0,0,0,0],"sum_hessian":[1.15E2,1.14E2,1E0,1.09E2,5E0,1.08E2,1E0,4E0,1E0,1E0,1.07E2,1E0,3E0,1.06E2,1E0,1.04E2,2E0,6.1E1,4.3E1,1E0,1E0,7E0,5.4E1,1E0,4.2E1,5E0,2E0,4.7E1,7E0,3.3E1,9E0],"tree_param":{"num_deleted":"0","num_feature":"100","num_nodes":"31","size_leaf_vector":"1"}},{"base_weights":[7.9746906E-7,-3.2441513E-4,1.4960098E-2,-5.796606E-5,-5.1552453E-3,4.164232E-5,-4.366112E-3,-9.566307E-4,-1.0459328E-2,3.0605316E-3,-1.0251091E-4,-2.19574E-3,1.4123917E-4,3.5257977E-3,5.5491127E-4,1.363976E-4,-1.1246919E-3,-3.712605E-5,1.625114E-3,-1.8785265E-3,-4.6559176E-4,-4.8053588E-4,3.5438084E-4,1.9204712E-3,4.1969298E-4,-7.02858E-4,-1.7856598E-3,2.5234223E-4,-6.0878333E-4,-1.5763707E-3,-1.23879E-4,1.0856311E-3,-5.0016813E-5,-3.9642333E-4,-1.8735504E-3,-4.766192E-4,2.3741722E-4,1.5048218E-3,5.0031487E-4,-9.039198E-4,2.3668462E-4],"categories":[],"categories_nodes":[],"categories_segments":[],"categories_sizes":[],"default_left":[0,0,0,0,0,0,0,0,0,0,0,0,0,0,0,0,0,0,0,0,0,0,0,0,0,0,0,0,0,0,0,0,0,0,0,0,0,0,0,0,0],"id":9,"left_children":[1,3,-1,5,7,9,-1,11,-1,13,15,-1,-1,-1,-1,17,19,21,23,25,27,29,31,-1,-1,-1,-1,-1,-1,33,35,37,39,-1,-1,-1,-1,-1,-1,-1,-1],"loss_changes":[7.114923E-4,1.4772575E-4,0E0,5.939107E-5,1.8698367E-4,4.7748646E-5,0E0,1.0615445E-5,0E0,1.288061E-5,2.579522E-5,0E0,0E0,0E0,0E0,2.2276501E-5,9.062422E-6,1.3710937E-5,6.4212873E-6,1.2207493E-6,3.0084732E-6,1.4265689E-5,1.24743665E-5,0E0,0E0,0E0,0E0,0E0,0E0,6.2866147E-6,5.9333915E-6,4.314683E-6,1.0792341E-5,0E0,0E0,0E0,0E0,0E0,0E0,0E0,0E0],"parents":[2147483647,0,0,1,1,3,3,4,4,5,5,7,7,9,9,10,10,15,15,16,16,17,17,18,18,19,19,20,20,21,21,22,22,29,29,30,30,31,31,32,32],"right_children":[2,4,-1,6,8,10,-1,12,-1,14,16,-1,-1,-1,-1,18,20,22,24,26,28,30,32,-1,-1,-1,-1,-1,-1,34,36,38,40,-1,-1,-1,-1,-1,-1,-1,-1],"split_conditions":[2.2691655E0,1.4901443E0,1.4960098E-2,2.9318945E0,1.9051477E-1,-1.4328014E0,-4.366112E-3,-6.6197544E-1,-1.0459328E-2,2.7402103E-2,3.9935553E-1,-2.19574E-3,1.4123917E-4,3.5257977E-3,5.5491127E-4,2.525684E-1,-2.1131307E-1,2.684186E-1,3.8501653E-1,-7.7480507E-1,-5.8579534E-1,-4.5360845E-1,-1.5410002E-1,1.9204712E-3,4.1969298E-4,-7.02858E-4,-1.7856598E-3,2.5234223E-4,-6.0878333E-4,-2.8470743E-1,5.909927E-2,-2.1707164E-2,-7.214786E-2,-3.9642333E-4,-1.8735504E-3,-4.766192E-4,2.3741722E-4,1.5048218E-3,5.0031487E-4,-9.039198E-4,2.3668462E-4],"split_indices":[33,80,0,79,3,51,0,2,0,3,71,0,0,0,0,71,6,60,45,61,51,85,13,0,0,0,0,0,0,12,45,0,24,0,0,0,0,0,0,0,0],"split_type":[0,0,0,0,0,0,0,0,0,0,0,0,0,0,0,0,0,0,0,0,0,0,0,0,0,0,0,0,0,0,0,0,0,0,0,0,0,0,0,0,0],"sum_hessian":[1.15E2,1.14E2,1E0,1.09E2,5E0,1.08E2,1E0,4E0,1E0,4E0,1.04E2,1E0,3E0,2E0,2E0,8.5E1,1.9E1,7.7E1,8E0,8E0,1.1E1,3.6E1,4.1E1,4E0,4E0,3E0,5E0,3E0,8E0,8E0,2.8E1,1.4E1,2.7E1,4E0,4E0,1.3E1,1.5E1,4E0,1E1,6E0,2.1E1],"tree_param":{"num_deleted":"0","num_feature":"100","num_nodes":"41","size_leaf_vector":"1"}},{"base_weights":[4.357305E-6,-1.9073486E-4,8.975983E-3,-2.9407847E-5,-3.1166077E-3,3.0408211E-5,-2.6197433E-3,-6.0215E-4,-6.2755584E-3,1.9504548E-3,-1.4459645E-5,-1.3174057E-3,7.069111E-5,2.3703482E-4,-2.3535202E-4,4.9629214E-4,-2.5545756E-4,-4.578318E-4,4.8680053E-4,-7.450921E-4,-7.153617E-5,-1.0116578E-4,-8.232117E-4,8.153121E-4,-7.127126E-5,-2.1129184E-4,-1.4216105E-3,2.8244653E-4,-2.405105E-4,1.4253234E-3,5.3296087E-4,1.05077575E-4,-4.022217E-4,-5.519867E-4,1.1444092E-4,-1.2955475E-3,-1.7299653E-4,5.07821E-4,-1.6871862E-4,-3.2615662E-4,1.3656616E-4,8.358384E-4,1.5362826E-5,-3.8277122E-4,-2.7694701E-5],"categories":[],"categories_nodes":[],"categories_segments":[],"categories_sizes":[],"default_left":[0,0,0,0,0,0,0,0,0,0,0,0,0,0,0,0,0,0,0,0,0,0,0,0,0,0,0,0,0,0,0,0,0,0,0,0,0,0,0,0,0,0,0,0,0],"id":10,"left_children":[1,3,-1,5,7,9,-1,11,-1,-1,13,-1,15,17,19,-1,-1,21,23,25,27,-1,-1,29,31,33,35,37,39,-1,41,-1,-1,-1,-1,-1,-1,-1,-1,43,-1,-1,-1,-1,-1],"loss_changes":[2.559573E-4,5.4190914E-5,0E0,2.1452706E-5,6.660419E-5,1.1810148E-5,0E0,3.630684E-6,0E0,0E0,6.055533E-6,0E0,1.0556164E-6,9.0741205E-6,4.789902E-6,0E0,0E0,2.51973E-6,7.0247625E-6,4.755386E-6,2.759561E-6,0E0,0E0,5.5987966E-6,1.3775024E-6,1.6252918E-6,1.0805034E-6,2.7411734E-6,1.1474739E-6,0E0,5.2391365E-6,0E0,0E0,0E0,0E0,0E0,0E0,0E0,0E0,1.1379257E-6,0E0,0E0,0E0,0E0,0E0],"parents":[2147483647,0,0,1,1,3,3,4,4,5,5,7,7,10,10,12,12,13,13,14,14,17,17,18,18,19,19,20,20,23,23,24,24,25,25,26,26,27,27,28,28,30,30,39,39],"right_children":[2,4,-1,6,8,10,-1,12,-1,-1,14,-1,16,18,20,-1,-1,22,24,26,28,-1,-1,30,32,34,36,38,40,-1,42,-1,-1,-1,-1,-1,-1,-1,-1,44,-1,-1,-1,-1,-1],"split_conditions":[2.2691655E0,1.4901443E0,8.975983E-3,2.9318945E0,1.9051477E-1,-2.1727293E0,-2.6197433E-3,-6.6197544E-1,-6.2755584E-3,1.9504548E-3,-3.3305395E-1,-1.3174057E-3,-3.197896E-2,-4.480581E-1,-2.5092638E-1,4.9629214E-4,-2.5545756E-4,5.0417274E-1,5.593346E-1,1.694923E-1,1.2900886E-2,-1.0116578E-4,-8.232117E-4,2.6241377E-2,9.36922E-2,6.808659E-2,1.7258123E0,5.650337E-2,9.9056983E-1,1.4253234E-3,7.995878E-2,1.05077575E-4,-4.022217E-4,-5.519867E-4,1.1444092E-4,-1.2955475E-3,-1.7299653E-4,5.07821E-4,-1.6871862E-4,5.581613E-1,1.3656616E-4,8.358384E-4,1.5362826E-5,-3.8277122E-4,-2.7694701E-5],"split_indices":[33,80,0,79,3,49,0,2,0,0,20,0,0,85,21,0,0,21,2,80,71,0,0,48,9,20,6,43,72,0,29,0,0,0,0,0,0,0,0,59,0,0,0,0,0],"split_type":[0,0,0,0,0,0,0,0,0,0,0,0,0,0,0,0,0,0,0,0,0,0,0,0,0,0,0,0,0,0,0,0,0,0,0,0,0,0,0,0,0,0,0,0,0],"sum_hessian":[1.15E2,1.14E2,1E0,1.09E2,5E0,1.08E2,1E0,4E0,1E0,1E0,1.07E2,1E0,3E0,5E1,5.7E1,1E0,2E0,1.3E1,3.7E1,1.3E1,4.4E1,9E0,4E0,2.3E1,1.4E1,8E0,5E0,1.4E1,3E1,4E0,1.9E1,1E1,4E0,3E0,5E0,4E0,1E0,8E0,6E0,2.5E1,5E0,9E0,1E1,1.6E1,9E0],"tree_param":{"num_deleted":"0","num_feature":"100","num_nodes":"45","size_leaf_vector":"1"}},{"base_weights":[2.3718537E-6,-1.1468556E-4,5.38559E-3,-1.9069152E-5,-1.8485388E-3,1.6807417E-5,-1.5718461E-3,-3.35598E-4,-3.765297E-3,-1.6711583E-5,9.653728E-4,-7.9040526E-4,5.9604645E-5,6.457011E-4,-4.009065E-5,-5.478859E-4,7.4376767E-6,-1.234327E-4,-1.0269166E-3,-1.3381295E-4,1.6184036E-4,5.4489484E-4,5.7663237E-5,2.076149E-4,7.8353885E-4,1.0841159E-4,-2.807617E-4],"categories":[],"categories_nodes":[],"categories_segments":[],"categories_sizes":[],"default_left":[0,0,0,0,0,0,0,0,0,0,0,0,0,0,0,0,0,0,0,0,0,0,0,0,0,0,0],"id":11,"left_children":[1,3,-1,5,7,9,-1,11,-1,13,-1,-1,-1,-1,15,17,19,-1,-1,-1,21,23,25,-1,-1,-1,-1],"loss_changes":[9.215121E-5,1.9030002E-5,0E0,7.711728E-6,2.4365123E-5,4.3675814E-6,0E0,1.4113884E-6,0E0,2.0932387E-6,0E0,0E0,0E0,0E0,2.5382142E-6,2.4082676E-6,2.6436205E-6,0E0,0E0,0E0,2.043666E-6,1.1098671E-6,1.38363E-6,0E0,0E0,0E0,0E0],"parents":[2147483647,0,0,1,1,3,3,4,4,5,5,7,7,9,9,14,14,15,15,16,16,20,20,21,21,22,22],"right_children":[2,4,-1,6,8,10,-1,12,-1,14,-1,-1,-1,-1,16,18,20,-1,-1,-1,22,24,26,-1,-1,-1,-1],"split_conditions":[2.2691655E0,1.4901443E0,5.38559E-3,2.9318945E0,1.9051477E-1,1.9751768E0,-1.5718461E-3,-6.6197544E-1,-3.765297E-3,-1.6521335E0,9.653728E-4,-7.9040526E-4,5.9604645E-5,6.457011E-4,-8.009437E-1,4.911267E-1,-3.209473E-2,-1.234327E-4,-1.0269166E-3,-1.3381295E-4,3.1324482E-1,1.783279E-1,7.6861215E-1,2.076149E-4,7.8353885E-4,1.0841159E-4,-2.807617E-4],"split_indices":[33,80,0,79,3,59,0,2,0,29,0,0,0,0,26,54,89,0,0,0,89,49,79,0,0,0,0],"split_type":[0,0,0,0,0,0,0,0,0,0,0,0,0,0,0,0,0,0,0,0,0,0,0,0,0,0,0],"sum_hessian":[1.15E2,1.14E2,1E0,1.09E2,5E0,1.08E2,1E0,4E0,1E0,1.06E2,2E0,1E0,3E0,2E0,1.04E2,8E0,9.6E1,6E0,2E0,4.5E1,5.1E1,1E1,4.1E1,7E0,3E0,3.5E1,6E0],"tree_param":{"num_deleted":"0","num_feature":"100","num_nodes":"27","size_leaf_vector":"1"}},{"base_weights":[4.3038663E-6,-6.590719E-5,3.2314302E-3,-7.859143E-6,-1.1191368E-3,1.3701413E-5,-9.431839E-4,-1.7066956E-4,-2.2592545E-3,-2.301407E-5,4.3702126E-4,8.3491014E-4,1.2392997E-4],"categories":[],"categories_nodes":[],"categories_segments":[],"categories_sizes":[],"default_left":[0,0,0,0,0,0,0,0,0,0,0,0,0],"id":12,"left_children":[1,3,-1,5,7,9,-1,-1,-1,-1,11,-1,-1],"loss_changes":[3.312907E-5,7.0220653E-6,0E0,2.793655E-6,8.663481E-6,1.9721706E-6,0E0,0E0,0E0,0E0,1.5496455E-6,0E0,0E0],"parents":[2147483647,0,0,1,1,3,3,4,4,5,5,10,10],"right_children":[2,4,-1,6,8,10,-1,-1,-1,-1,12,-1,-1],"split_conditions":[2.2691655E0,1.4901443E0,3.2314302E-3,2.9318945E0,1.9051477E-1,9.763665E-1,-9.431839E-4,-1.7066956E-4,-2.2592545E-3,-2.301407E-5,-1.229554E0,8.3491014E-4,1.2392997E-4],"split_indices":[33,80,0,79,3,15,0,0,0,0,92,0,0],"split_type":[0,0,0,0,0,0,0,0,0,0,0,0,0],"sum_hessian":[1.15E2,1.14E2,1E0,1.09E2,5E0,1.08E2,1E0,4E0,1E0,9.9E1,9E0,2E0,7E0],"tree_param":{"num_deleted":"0","num_feature":"100","num_nodes":"13","size_leaf_vector":"1"}},{"base_weights":[7.6088413E-6,-3.4477398E-5,1.9390107E-3,-5.4016116E-4,1.3553871E-5,-2.9918127E-5,-1.0279656E-3,5.1707637E-5,-3.2272338E-4,4.2160033E-4,2.070082E-5],"categories":[],"categories_nodes":[],"categories_segments":[],"categories_sizes":[],"default_left":[0,0,0,0,0,0,0,0,0,0,0],"id":13,"left_children":[1,3,-1,5,7,-1,-1,9,-1,-1,-1],"loss_changes":[1.187924E-5,2.8005138E-6,0E0,3.696507E-6,1.7071625E-6,0E0,0E0,1.189566E-6,0E0,0E0,0E0],"parents":[2147483647,0,0,1,1,3,3,4,4,7,7],"right_children":[2,4,-1,6,8,-1,-1,10,-1,-1,-1],"split_conditions":[2.2691655E0,-9.9185854E-1,1.9390107E-3,1.263057E-1,7.340756E-1,-2.9918127E-5,-1.0279656E-3,-9.847194E-1,-3.2272338E-4,4.2160033E-4,2.070082E-5],"split_indices":[33,26,0,72,45,0,0,71,0,0,0],"split_type":[0,0,0,0,0,0,0,0,0,0,0],"sum_hessian":[1.15E2,1.14E2,1E0,9E0,1.05E2,6E0,3E0,9.7E1,8E0,4E0,9.3E1],"tree_param":{"num_deleted":"0","num_feature":"100","num_nodes":"11","size_leaf_vector":"1"}},{"base_weights":[1.0005359E-5,-1.520074E-5,1.1634827E-3,-1.2943575E-4,7.333756E-5,-5.685091E-4,-4.4087003E-5,7.6293945E-5,-7.8872684E-4],"categories":[],"categories_nodes":[],"categories_segments":[],"categories_sizes":[],"default_left":[0,0,0,0,0,0,0,0,0],"id":14,"left_children":[1,3,-1,5,-1,7,-1,-1,-1],"loss_changes":[4.245247E-6,1.4158549E-6,0E0,1.7962302E-6,0E0,2.3108369E-6,0E0,0E0,0E0],"parents":[2147483647,0,0,1,1,3,3,5,5],"right_children":[2,4,-1,6,-1,8,-1,-1,-1],"split_conditions":[2.2691655E0,5.001917E-2,1.1634827E-3,5.5195358E-2,7.333756E-5,2.1651563E-1,-4.4087003E-5,7.6293945E-5,-7.8872684E-4],"split_indices":[33,50,0,88,0,12,0,0,0],"split_type":[0,0,0,0,0,0,0,0,0],"sum_hessian":[1.15E2,1.14E2,1E0,5.5E1,5.9E1,7E0,4.8E1,3E0,4E0],"tree_param":{"num_deleted":"0","num_feature":"100","num_nodes":"9","size_leaf_vector":"1"}},{"base_weights":[6.001571E-6,5.2061083E-4,-1.3499978E-5],"categories":[],"categories_nodes":[],"categories_segments":[],"categories_sizes":[],"default_left":[0,0,0],"id":15,"left_children":[1,-1,-1],"loss_changes":[1.7219727E-6,0E0,0E0],"parents":[2147483647,0,0],"right_children":[2,-1,-1],"split_conditions":[-1.5528125E0,5.2061083E-4,-1.3499978E-5],"split_indices":[85,0,0],"split_type":[0,0,0],"sum_hessian":[1.15E2,3E0,1.12E2],"tree_param":{"num_deleted":"0","num_feature":"100","num_nodes":"3","size_leaf_vector":"1"}},{"base_weights":[5.426078E-6],"categories":[],"categories_nodes":[],"categories_segments":[],"categories_sizes":[],"default_left":[0],"id":16,"left_children":[-1],"loss_changes":[0E0],"parents":[2147483647],"right_children":[-1],"split_conditions":[4.3408627E-6],"split_indices":[0],"split_type":[0],"sum_hessian":[1.15E2],"tree_param":{"num_deleted":"0","num_feature":"100","num_nodes":"1","size_leaf_vector":"1"}},{"base_weights":[8.34465E-7],"categories":[],"categories_nodes":[],"categories_segments":[],"categories_sizes":[],"default_left":[0],"id":17,"left_children":[-1],"loss_changes":[0E0],"parents":[2147483647],"right_children":[-1],"split_conditions":[6.67572E-7],"split_indices":[0],"split_type":[0],"sum_hessian":[1.15E2],"tree_param":{"num_deleted":"0","num_feature":"100","num_nodes":"1","size_leaf_vector":"1"}},{"base_weights":[2.4663992E-8],"categories":[],"categories_nodes":[],"categories_segments":[],"categories_sizes":[],"default_left":[0],"id":18,"left_children":[-1],"loss_changes":[0E0],"parents":[2147483647],"right_children":[-1],"split_conditions":[1.9731194E-8],"split_indices":[0],"split_type":[0],"sum_hessian":[1.15E2],"tree_param":{"num_deleted":"0","num_feature":"100","num_nodes":"1","size_leaf_vector":"1"}},{"base_weights":[2.4663992E-8],"categories":[],"categories_nodes":[],"categories_segments":[],"categories_sizes":[],"default_left":[0],"id":19,"left_children":[-1],"loss_changes":[0E0],"parents":[2147483647],"right_children":[-1],"split_conditions":[1.9731194E-8],"split_indices":[0],"split_type":[0],"sum_hessian":[1.15E2],"tree_param":{"num_deleted":"0","num_feature":"100","num_nodes":"1","size_leaf_vector":"1"}},{"base_weights":[2.4663992E-8],"categories":[],"categories_nodes":[],"categories_segments":[],"categories_sizes":[],"default_left":[0],"id":20,"left_children":[-1],"loss_changes":[0E0],"parents":[2147483647],"right_children":[-1],"split_conditions":[1.9731194E-8],"split_indices":[0],"split_type":[0],"sum_hessian":[1.15E2],"tree_param":{"num_deleted":"0","num_feature":"100","num_nodes":"1","size_leaf_vector":"1"}},{"base_weights":[2.4663992E-8],"categories":[],"categories_nodes":[],"categories_segments":[],"categories_sizes":[],"default_left":[0],"id":21,"left_children":[-1],"loss_changes":[0E0],"parents":[2147483647],"right_children":[-1],"split_conditions":[1.9731194E-8],"split_indices":[0],"split_type":[0],"sum_hessian":[1.15E2],"tree_param":{"num_deleted":"0","num_feature":"100","num_nodes":"1","size_leaf_vector":"1"}},{"base_weights":[2.4663992E-8],"categories":[],"categories_nodes":[],"categories_segments":[],"categories_sizes":[],"default_left":[0],"id":22,"left_children":[-1],"loss_changes":[0E0],"parents":[2147483647],"right_children":[-1],"split_conditions":[1.9731194E-8],"split_indices":[0],"split_type":[0],"sum_hessian":[1.15E2],"tree_param":{"num_deleted":"0","num_feature":"100","num_nodes":"1","size_leaf_vector":"1"}},{"base_weights":[2.4663992E-8],"categories":[],"categories_nodes":[],"categories_segments":[],"categories_sizes":[],"default_left":[0],"id":23,"left_children":[-1],"loss_changes":[0E0],"parents":[2147483647],"right_children":[-1],"split_conditions":[1.9731194E-8],"split_indices":[0],"split_type":[0],"sum_hessian":[1.15E2],"tree_param":{"num_deleted":"0","num_feature":"100","num_nodes":"1","size_leaf_vector":"1"}},{"base_weights":[2.4663992E-8],"categories":[],"categories_nodes":[],"categories_segments":[],"categories_sizes":[],"default_left":[0],"id":24,"left_children":[-1],"loss_changes":[0E0],"parents":[2147483647],"right_children":[-1],"split_conditions":[1.9731194E-8],"split_indices":[0],"split_type":[0],"sum_hessian":[1.15E2],"tree_param":{"num_deleted":"0","num_feature":"100","num_nodes":"1","size_leaf_vector":"1"}},{"base_weights":[2.4663992E-8],"categories":[],"categories_nodes":[],"categories_segments":[],"categories_sizes":[],"default_left":[0],"id":25,"left_children":[-1],"loss_changes":[0E0],"parents":[2147483647],"right_children":[-1],"split_conditions":[1.9731194E-8],"split_indices":[0],"split_type":[0],"sum_hessian":[1.15E2],"tree_param":{"num_deleted":"0","num_feature":"100","num_nodes":"1","size_leaf_vector":"1"}},{"base_weights":[2.4663992E-8],"categories":[],"categories_nodes":[],"categories_segments":[],"categories_sizes":[],"default_left":[0],"id":26,"left_children":[-1],"loss_changes":[0E0],"parents":[2147483647],"right_children":[-1],"split_conditions":[1.9731194E-8],"split_indices":[0],"split_type":[0],"sum_hessian":[1.15E2],"tree_param":{"num_deleted":"0","num_feature":"100","num_nodes":"1","size_leaf_vector":"1"}},{"base_weights":[2.4663992E-8],"categories":[],"categories_nodes":[],"categories_segments":[],"categories_sizes":[],"default_left":[0],"id":27,"left_children":[-1],"loss_changes":[0E0],"parents":[2147483647],"right_children":[-1],"split_conditions":[1.9731194E-8],"split_indices":[0],"split_type":[0],"sum_hessian":[1.15E2],"tree_param":{"num_deleted":"0","num_feature":"100","num_nodes":"1","size_leaf_vector":"1"}},{"base_weights":[2.4663992E-8],"categories":[],"categories_nodes":[],"categories_segments":[],"categories_sizes":[],"default_left":[0],"id":28,"left_children":[-1],"loss_changes":[0E0],"parents":[2147483647],"right_children":[-1],"split_conditions":[1.9731194E-8],"split_indices":[0],"split_type":[0],"sum_hessian":[1.15E2],"tree_param":{"num_deleted":"0","num_feature":"100","num_nodes":"1","size_leaf_vector":"1"}},{"base_weights":[2.4663992E-8],"categories":[],"categories_nodes":[],"categories_segments":[],"categories_sizes":[],"default_left":[0],"id":29,"left_children":[-1],"loss_changes":[0E0],"parents":[2147483647],"right_children":[-1],"split_conditions":[1.9731194E-8],"split_indices":[0],"split_type":[0],"sum_hessian":[1.15E2],"tree_param":{"num_deleted":"0","num_feature":"100","num_nodes":"1","size_leaf_vector":"1"}}]},"name":"gbtree"},"learner_model_param":{"base_score":"1.06756525E1","boost_from_average":"1","num_class":"0","num_feature":"100","num_target":"1"},"objective":{"name":"reg:squarederror","reg_loss_param":{"scale_pos_weight":"1"}}},"version":[2,0,3]}